5242 32
21012 -0.3232339 -0.57658666 0.18879984 0.30796948 0.1319017 0.20304343 0.72688 -0.28033146 -0.15256332 0.091664866 -0.7329891 -0.45234948 0.9635653 -0.071532436 0.12098341 -0.25136304 0.077478305 0.46699867 0.5716555 0.8413911 0.29488024 0.22765684 0.5447248 -0.311179 -0.27030066 -0.16360816 -0.8327431 0.92350966 -0.09625363 0.17501436 -0.19898032 -0.1459783
21281 -0.7270139 -0.4648934 -0.19558 0.25548655 -0.31870267 -0.46132016 1.1629434 0.18857197 -0.48605257 0.15659039 -0.7789703 -0.3870795 0.9248631 0.3649156 0.26555845 -0.10687943 -0.406837 -0.21803285 0.07667499 0.5745652 0.13142234 0.5709659 0.045719065 -0.76159453 -0.12615815 0.06855318 -0.6894129 0.5362497 -0.3774642 -0.004170993 -0.40889832 -0.8270307
12365 0.30759954 -0.59709054 0.020391924 0.5519873 0.258071 -0.14887977 0.94932395 0.16136795 -0.25917393 -0.070292644 -1.2616382 -0.48985118 0.43408486 -0.63497305 0.16758087 -0.4525544 -0.31086954 0.022697555 -0.1294078 0.7550425 0.25679386 0.71506643 0.37298495 -0.25377265 -0.52173454 -0.23949438 -0.55964434 0.7746759 -0.36164907 -0.30778438 -0.17857677 -0.09817225
13801 -0.67733604 -0.18163873 0.3996112 0.4801452 0.03845798 -0.024407523 0.3495613 -0.10329174 0.17159769 0.3698869 0.6548385 0.9278744 0.6223011 -0.2248762 0.67064047 -0.24870467 -1.2640281 -0.1891321 0.19393633 0.37920013 0.48233593 0.21215607 0.46484575 -0.09667927 -0.73762023 -0.34950653 -0.046382718 0.20065552 0.5122604 -0.72805786 -0.009537355 0.08070165
22691 -0.2955586 -0.6379679 -0.17912091 0.4566003 0.13286659 -0.06907848 0.668278 0.13975468 -0.42556697 -0.07010472 -0.59269834 -0.80215925 0.71400386 0.27736026 -0.21871142 -0.60795975 -0.27137673 0.3001359 0.80767906 0.67786413 0.33211485 0.54362303 0.39891028 -0.38787585 -0.44556883 -0.24238238 -1.1739831 0.39493242 -0.16275014 0.0037200055 -0.3814797 0.14934854
13929 -1.0908316 -0.45514733 0.6865307 -0.39935458 -0.12087452 -1.0904416 0.51056707 -0.3802336 -0.11510317 0.11199445 0.30260742 0.2957001 0.40006807 -0.006838162 -0.4112955 -0.17168191 -0.9929856 0.42739648 0.4604049 -0.1603751 -0.09788831 0.487545 -0.18740754 -1.108736 -0.3469764 -0.095380954 -0.9816455 -0.40586993 -0.047720294 0.15865645 -0.031407606 -0.43582684
14265 -0.866301 -0.49022317 0.19152378 -0.08592011 0.87595004 -0.78634703 -0.47427845 0.2813675 -0.014756458 -0.17991982 -0.45873365 -0.5661051 1.1964786 -0.19553575 0.45611495 0.24226552 -0.6263431 0.7445007 0.5123071 -0.4622476 0.12294604 -0.52131706 0.14033625 1.0969864 -0.19594382 0.5216659 -0.5237945 -0.03596627 -0.97617465 -0.3248029 0.25245142 -0.42555654
6610 -0.7666485 -0.7387904 -0.673944 0.39810133 0.22813685 0.096440785 1.3913051 -0.052090947 -0.7542474 0.030759435 -0.35021254 -0.06498755 0.6207746 0.003685092 -0.28234267 -0.18415439 -0.3238413 -0.50572926 0.2640164 0.6319274 0.1825241 0.32722187 0.2272489 0.12132898 -0.71952665 -0.15147181 -0.41107994 0.722387 -0.4883403 0.11296885 0.067207366 0.034739647
17655 -0.46754596 -0.6346477 0.02025346 0.8778006 0.034291856 0.012283051 0.91378653 0.1939939 0.2369925 0.11535592 -0.6586637 -0.21033232 0.93213624 -0.01329581 0.27123103 0.054597855 -0.6006479 -0.015814109 0.21660064 0.8003864 0.49498066 0.3788679 0.7357165 -0.012988764 -0.6651719 -0.032697495 -0.5846475 0.570339 0.1610711 -0.16900897 -0.031030025 -0.024718178
2710 0.17652889 -0.49227208 0.41161686 -0.38126862 1.0222601 -1.3734363 0.4811531 -0.6068877 0.69696987 0.5612641 0.31221694 0.21372722 0.58860314 0.23785093 0.0078318585 -0.46614966 -0.7945618 -0.36871186 0.17848551 -0.15934828 -0.46518558 -0.45942408 0.38941392 -0.4889058 -0.19691461 -1.0533727 0.23581651 0.51997256 -0.19313452 0.13907397 -0.54731077 -0.35166943
9785 -0.57450193 -0.2706686 -0.027867924 0.771435 0.1630354 -0.20840162 0.9741659 0.34384173 -0.34686857 0.34700146 -0.7188719 -0.3565459 0.9743372 -0.09001212 0.056794748 -0.35569993 -0.2677011 -0.17955731 0.07725722 0.4472971 0.2543142 0.4999321 -0.0742806 0.11675703 -0.39864093 -0.1257425 -1.0104632 1.2296576 -0.5787674 0.29976788 -0.3441712 -0.020681517
21508 -0.3035575 -0.47851002 0.115335144 0.85766554 0.2031025 -0.27086914 1.2270429 -0.1243796 -0.1858865 0.16070016 -0.9412085 -0.6791521 0.65412533 -0.23870277 0.42863643 -0.3495972 -0.48031688 -0.08682437 0.21964216 0.51079047 -0.007992696 0.5864742 -0.15125266 -0.26326603 -0.20393829 -0.007890372 -0.79432184 0.9606592 -0.43890226 -0.06504602 -0.054405622 0.16370368
9572 -0.41325235 -0.70674044 0.34973386 -0.31063056 0.4980065 -1.3164852 0.5520659 -0.42205805 -0.093951054 -0.3485842 0.29840067 -0.41522294 0.6555268 -0.52208036 -0.018187486 -0.34961972 -0.11297108 -0.015219685 0.612294 -0.6740913 -0.2918744 0.21183653 -0.3152187 0.6122176 -0.6085436 0.062346466 -0.8155604 0.30925852 0.24139562 0.36350432 0.18268335 -0.50031865
2741 -0.24246825 -0.6364354 0.080039755 0.37595174 0.24808264 0.1687588 0.85980207 -0.27436757 -0.31696582 0.08877588 -0.65044415 -0.65353596 1.0096393 -0.22015813 0.15651162 -0.07429641 -0.0021229465 0.17634358 0.36482632 0.9273122 0.036421236 0.20472549 0.16762237 -0.2222367 -0.28320163 -0.0914239 -0.64101976 1.1155956 -0.022441871 -0.07422895 -0.124202155 -0.23628782
19423 -0.7776936 -0.47183484 -0.4393204 0.5245136 0.24421433 -0.23466276 1.0905029 -0.21151878 -0.017058134 -0.005233546 -0.92492825 -0.42735288 0.94601667 -0.0034701754 -0.07709442 -0.5923427 0.0987399 -0.11726038 0.22608799 0.6380067 0.423849 0.4201847 0.43882525 -0.7568583 -0.35045922 0.10867257 -0.78963095 0.5876168 -0.23406497 -0.043896247 0.1120097 -0.19311905
6264 -0.37817037 -0.57979155 -0.14604266 -0.97068137 -0.07138179 -0.43402806 0.10146464 0.17507996 -0.07275406 0.4509048 0.41226935 0.06452097 0.64226156 0.09689723 -0.3518488 -1.2390778 -0.8898479 0.05857817 -0.38911676 1.0863878 -0.66915965 -0.29188234 -0.09065431 0.32203165 -0.35969254 -1.1530995 0.045453966 0.108086094 -0.3543115 -1.3548986 0.76440567 0.27484816
7689 -0.3066908 -0.44238937 -0.5069331 -0.23993641 0.19739775 -1.3319973 -0.35824704 -0.52855676 0.47790244 -0.38684928 0.008593483 -0.21571161 0.60479873 -0.73049366 -0.44957367 -0.29883048 -0.2894133 0.41493246 0.30753085 -1.0815264 -0.42046976 0.12059388 0.2731352 -0.28965673 -0.50384915 -0.40837696 -0.5357887 -0.15348355 0.18858853 -0.4831246 0.24553241 -0.93081236
15003 -0.19836217 -0.43152946 -0.01348564 0.65912306 0.24302618 -0.38730457 1.1597677 0.007516952 -0.47779563 0.2724848 -1.0002255 -0.50195956 0.89463717 -0.31673038 0.32302585 -0.39508906 -0.41302493 -0.19007003 0.31451404 0.27759483 0.14237581 0.53338754 0.07415396 -0.4293565 -0.31728733 0.053534295 -0.6459712 1.026479 -0.20695174 -0.14320387 -0.06272049 0.35394055
449 -0.18385966 0.39640263 -0.99973273 0.24817926 0.60515255 -0.3912836 0.3731554 -0.8209007 -0.17068861 -0.31705835 -0.05331454 -0.19927557 0.6733643 -0.9427987 1.6826398 -0.08952074 -1.6132989 -0.22746283 0.017340735 0.7023066 -0.7330514 -1.3496265 -0.26553246 0.83928525 -0.16820507 -1.1181328 -1.4883659 -0.049770903 -0.5182577 0.2540395 0.60075414 -0.7992517
14807 -0.58923095 -0.38213104 -0.03423777 0.15423615 0.072098784 -0.13202804 0.95855165 -0.2771174 -0.100542545 0.30408788 -0.89278394 -0.50194937 0.7213979 0.010337192 0.2064505 -0.32936057 -0.4189287 0.2324821 0.43670014 1.034816 0.48309702 0.24748491 0.5122703 -0.24271208 -0.402298 0.048633642 -0.74609315 1.1194731 -0.20519207 0.094179906 -0.37175882 0.109952934
9017 -0.15331486 -0.10836736 0.7483763 0.23530093 -0.29288548 -0.074731424 -0.77536494 -1.8364835 -0.8449086 0.08566087 0.3637666 -0.19091691 0.6706254 0.21982011 0.3271294 -0.65857255 -1.1862034 0.30957943 -0.413827 0.35060528 0.19556609 0.40400994 0.6233009 0.5411866 -0.72088116 -1.2452312 -1.1756682 0.36822867 -0.30568454 -0.3711738 -0.18570796 0.7652561
14599 -0.21941298 -0.487162 0.1739732 -0.5269326 0.38569412 -0.15108168 -0.1584273 -0.5221718 0.59835494 1.0438269 -0.2601669 0.03568975 0.08769229 0.1698836 -0.03520393 -0.32213163 -1.1096339 0.36812082 -0.25808913 0.29016343 -0.6399189 -0.26025856 0.8833977 -0.34082443 -0.044039205 -1.3302809 0.27971387 0.41786268 0.27530593 -0.5673095 0.60824835 -0.28168046
10762 -0.103865236 -0.11346247 0.4708803 -0.689357 0.3683399 -0.5853634 0.31264323 -0.20142625 -0.29441872 -0.3092602 0.045778304 0.278373 -0.41058555 -0.8824977 -0.06369124 -0.18479589 -1.2058518 0.48554116 0.18469213 -0.19239816 -0.29085928 0.05255023 -0.35776374 0.56841004 -0.07295617 -0.928768 -0.5871913 0.34016204 -0.25180805 -0.3620258 -0.53917485 -1.4850789
12781 -0.35976094 -0.25378388 -0.3577272 0.53436756 0.35127723 -0.16006087 1.2476984 0.11725863 -0.17913641 -0.061310977 -0.85851306 -0.9561247 0.71959287 -0.24873035 0.4873451 -0.2129855 -0.35072777 -0.19025834 -0.018103002 0.6201969 0.36782324 0.14849211 0.21834774 -0.251085 -0.46144918 -0.42770606 -0.94411707 0.7022535 -0.24934337 0.30211443 -0.25643852 -0.04854332
1653 -0.9213868 -0.38674676 -0.2207355 0.23242386 0.07047288 -0.41532862 1.0471362 -0.05469723 -0.54439217 0.094239935 -1.0384501 -0.46996844 0.6722212 0.13630602 0.34793463 -0.21804129 -0.21823186 0.08493436 0.19082227 0.71943796 -0.012491147 0.6151398 0.062125865 -0.57996404 -0.5399226 0.13816912 -0.8484124 0.5279202 -0.28370768 0.077215776 -0.08960203 -0.1312689
23038 -0.9920271 -0.1949579 -0.18163453 -0.54506 -0.030802667 -0.50824785 0.6285175 -0.27438736 -0.3856777 0.27759248 -0.26281375 -0.4471846 0.54032433 -0.4959559 -0.2412757 -0.059135746 -1.0610508 -0.031415183 -0.23875254 -0.28744915 0.53086567 1.2434921 -0.4080238 -0.7138926 -0.027145589 -0.47177824 0.26018727 -0.56479496 -0.19504571 -0.66024846 0.1928617 -0.6910757
7956 -0.4504644 -0.4537953 -0.40216002 0.60326445 0.0046867044 -0.08132481 1.1484668 0.09449799 -0.43594775 0.033491146 -0.9234052 -0.8485564 0.79793304 -0.20458658 0.36336675 -0.21399714 -0.24171613 0.08419806 0.049736135 0.66304994 0.30787304 0.20929413 0.07128411 -0.22509646 -0.5169399 -0.4107107 -0.89761806 0.91824 -0.11286844 0.09245973 0.06748025 -0.110197626
4164 -0.39614984 -0.77411604 0.043655872 0.15536615 0.20805602 -0.41189164 1.2656109 0.18503636 -0.51730305 0.017577033 -0.76408964 -0.47662777 0.99921876 0.20231004 0.21549682 -0.57235235 -0.09266657 0.10981389 -0.18826893 0.69848716 0.65797794 0.46083382 -0.11642402 0.055715688 -0.42721114 -0.07749537 -0.71601003 1.0475287 0.072121836 0.12603253 0.16983458 -0.0028634532
9124 -0.052440897 -0.8107413 -0.2522027 -0.31508633 0.2383496 -1.2141672 -0.4548316 0.14778998 -0.31868553 -0.9750063 -0.043893985 -0.62753296 0.73162436 -0.29188225 0.8011884 -1.2067142 -0.55398065 0.54966193 -0.29258057 -0.40904394 0.33812457 -0.43636516 1.2416816 0.032946743 0.61172724 -0.9059654 -0.43213713 0.47605893 -0.16319911 -0.4373757 0.20836163 -0.059144653
4952 -1.3171254 -0.19191779 -0.3749311 0.5923093 0.33979264 0.17201012 -0.022584988 0.32036045 0.33718738 -0.47690856 -0.23715681 0.37382618 0.937456 -0.3510566 0.28777614 -0.73338425 -0.9156918 -0.071161434 -0.2690123 0.4462235 -0.18376581 0.11750803 0.8226659 0.7683521 -1.2225307 0.026229478 -0.057617553 -0.10833644 0.6748747 -0.35773063 0.07785893 -0.32342103
7307 -0.28674576 0.02028839 0.15053509 -0.14844753 -0.9299695 -0.0878733 -0.661799 -1.4996792 -0.5984295 0.7562184 0.23435181 -0.6056404 0.50893015 0.3001104 0.42641628 -1.2071574 -0.686275 0.11245991 0.28908885 0.11550684 0.19505085 -0.1294257 -0.024211833 0.15722238 -0.83718455 -1.4479994 -0.5643141 0.47760206 -0.071223475 -0.5199068 -0.18573442 0.18004534
2654 -0.24284774 -0.8974064 -0.16204654 -0.696365 -0.0035106428 0.09403003 0.49626663 0.27862987 -0.1847752 0.019041672 -0.39307916 0.283379 0.334586 -0.7720843 0.027274778 -0.34562358 0.035984665 0.035875652 -0.03917482 0.0060083405 0.11494645 0.16325703 0.3921317 0.07627834 -0.71232486 -0.1297636 -0.35756618 0.3636927 -1.3968405 -0.8317798 0.40757823 -0.6064233
18866 -0.039077654 -0.5404179 0.37684336 0.79746383 0.030327732 -0.25716686 0.29706684 -0.07083001 -0.5067897 -0.21063356 -0.598832 -1.2630388 0.40346527 -1.0602612 -0.10010622 0.18272926 -0.26618394 -0.27645797 0.062361054 0.7189842 0.09050987 0.47122017 0.32685614 -0.034855314 -0.29234904 -0.41868705 -0.8899549 0.664847 -0.43290582 0.1085735 0.0067748786 -0.15931681
25346 -0.3800184 -0.64076215 -0.3818846 0.8111117 0.09620809 -0.15689704 0.8853258 -0.10066838 -0.5840908 0.227319 -0.86867225 -0.6917687 0.6854733 -0.1605874 0.2971483 -0.22212592 -0.3205583 0.21950385 -0.057313908 0.7949367 0.3079249 0.29315963 -0.025134705 -0.28278205 -0.53393525 0.0030366369 -0.82130593 1.0539136 -0.025459547 0.0366164 0.0405975 -0.25353503
773 -0.38879117 -0.5305076 -0.16135803 0.45855284 0.044908952 -0.14487469 0.9602691 -0.118418746 -0.5703063 -0.140142 -0.74818265 -0.2537018 0.8472105 -0.27686676 0.28944403 -0.21359402 -0.33541805 -0.06347195 0.31716317 0.8173282 0.35660702 0.46415427 0.23390372 -0.20746951 -0.52499145 0.11102038 -1.1493213 0.72789496 0.05886825 0.22278039 -0.48181093 -0.0035137897
5052 -0.68788356 -0.8738832 -0.16522564 -0.51015455 0.80319697 -0.38357812 -0.43627352 0.36659023 -0.13905765 -0.6108028 -0.3151042 -0.013987097 -0.01978693 -0.26696193 0.35510007 -0.7012495 -0.47464356 0.17440078 -0.30045545 -0.43892217 0.44468063 0.2470135 0.89563525 -0.2367513 0.8190601 -0.9393339 -0.2996743 0.60159206 -0.17268033 -0.56673807 -0.6599633 0.15266734
1488 -0.08717625 0.082956724 0.42014933 -0.112516105 0.19370994 0.075392894 0.16951847 -0.6294702 0.24047123 0.043223612 0.13372159 0.6111525 0.8629165 0.36403155 0.016533053 -0.08596374 -0.9757689 0.24300162 0.2990827 0.3919339 0.11678347 0.33213636 0.421943 -0.27123624 -1.0752046 -1.7142636 -0.008291491 -0.98896676 -0.1989207 0.06283469 -0.4803988 -0.38017717
23293 -0.19540052 -0.91610193 -0.18690355 0.22758119 0.15636805 -0.46648785 1.2743214 -0.18762043 -0.23465775 -0.2823882 -0.6566904 -0.53554195 0.6815708 0.31195998 0.31240198 -0.2608615 -0.23907107 -0.107374914 0.34185877 0.42345634 0.17723566 0.52381766 0.21637087 0.106200166 -0.6477119 0.1375924 -0.78432 0.88792044 -0.3556225 0.29028648 -0.12733714 -0.52587086
25758 -0.78993744 -0.44610372 0.16107826 0.6500103 0.24318211 -0.16607155 0.95174325 0.40712702 -0.61849856 -0.19493727 -1.0350374 -0.61122423 0.7068511 0.13215095 0.42823997 -0.7378461 -0.6372108 0.08471405 0.5824277 0.6703269 0.14688703 -0.17702869 0.1764258 -0.09649564 -0.21126392 0.260433 -0.25567123 0.8772347 -0.08450071 0.16190548 -0.17652568 -0.22398
13142 -0.91163033 -0.75984013 0.04666947 -0.6588321 -0.36184436 0.062335543 -0.843863 -1.0379463 0.17995825 0.35504088 0.31459674 -0.19199698 0.047709595 -0.04667374 0.5715822 -0.19077432 -0.778871 -0.22038949 0.77158237 0.586945 0.7781859 -0.18390255 -0.054949522 -0.023887187 -0.78774816 -0.8856054 -0.24545948 0.3638348 0.2508349 -0.025931036 -0.19246036 -0.49792144
19865 -0.33190715 0.3306477 -0.47288364 0.19533463 0.67709893 -0.50316054 0.46054894 -0.16896412 0.21124132 0.2119808 -0.40929243 -0.6246834 0.54268074 -0.6788455 0.9418738 -0.3782155 0.16569851 -0.6548797 -0.113036424 0.0444504 0.44283196 -0.19547626 0.71528786 0.07558422 0.42339996 -1.4737322 -1.2620087 -0.29468974 -0.17913173 0.5347552 -0.15633406 -0.2851536
15244 -0.119374566 -0.43339399 0.034731135 -0.23803994 0.7326561 0.2555011 -0.528426 -1.0540134 -0.4382719 -0.101991706 0.41735142 0.9523474 1.403131 -0.031677738 -0.090770125 -0.009804804 -0.42695725 0.07436639 0.7164259 0.23750618 -0.5892884 -0.57658094 0.033626597 -0.8068991 0.39692795 -1.5085722 -0.47223565 0.07105697 -0.283479 -0.4877525 -0.7631279 -0.41739798
7007 0.04884573 -0.8774221 -0.21957615 -0.4726802 0.7335602 -0.39356863 0.5607356 -0.989319 -1.3121953 -0.1773957 0.067652725 0.30470392 0.45100534 -0.062466215 -0.19950552 0.3002018 -0.20013492 0.9186861 0.029346775 -0.32047525 -0.3025454 -0.32051685 0.24659148 0.76119906 -0.6187557 -0.75832576 -0.68321127 -0.08592273 0.31829768 -0.30160165 0.5864984 -0.13756457
5901 -0.40669885 -0.4286623 -0.5735877 0.03130985 0.26381412 0.017951714 0.17560619 -0.7123359 0.041769415 0.45293197 0.17295824 0.968118 0.3756479 -0.76896167 1.4563112 0.08089551 -1.166361 -0.01445095 -0.3423044 0.39728782 0.6127195 0.15380816 0.049432755 -0.010825415 -0.6366159 -0.33671665 -0.60689336 0.050429825 0.5604766 0.12449619 0.18253808 0.2754718
24955 -0.45787585 -0.55352867 -0.04463101 0.35161918 0.010881108 -0.1405857 1.1690786 -0.21119504 -0.3942897 0.09898796 -0.89396083 -0.52110386 0.8349819 -0.0098573705 0.20905252 -0.3648625 -0.32025188 0.1508639 0.27737117 0.7987229 0.4175766 0.09655475 0.38027573 -0.15908462 -0.43568936 0.16112755 -0.8898779 0.8856353 -0.21776778 0.07287451 -0.24094428 -0.045426913
1217 -1.0783387 0.4348097 -0.26601723 0.23632638 0.8667868 -0.23253284 0.3093897 -1.516836 -0.56075513 -0.22012946 -0.35501787 -0.4091634 0.28685734 -0.76060206 0.81510305 -0.8863115 -0.72034806 -0.10976894 0.14320663 -0.16814934 -0.98883325 -0.6280397 -0.3026283 -0.0039487327 0.56864166 -1.2276633 -0.5477232 -0.7930184 -0.57073677 -1.0877601 -0.46522725 -0.3635127
14746 -0.08581859 -0.41237125 0.71812296 0.33359915 -0.031666 -0.18980937 -0.8453944 -1.2440494 -0.2646322 -0.08981017 0.7494766 0.3913843 0.80713964 0.25867924 0.5816512 -0.38358757 -0.90095776 -0.4117846 0.2203178 0.7791847 -0.11956574 0.6930102 0.90062 0.4790694 -0.14493173 -0.5494389 -0.8866539 0.37746927 -0.09271209 -1.0987914 0.22728463 0.5420256
23614 -0.43057775 -0.7249641 -0.117411256 -0.201075 -0.49770322 0.7651207 -0.013431133 -1.0007986 0.0409357 0.18410897 -0.9701796 0.4660526 0.23913598 -0.37623882 0.6226639 -1.0891558 -1.5226785 0.0012194377 -0.59610647 -0.11190529 -0.2692573 0.2788202 0.5094528 0.55534875 0.105551556 -0.9958103 -0.39183497 -0.2773152 0.49265435 0.16543493 -0.86946106 -0.2929668
570 -0.49696785 -0.6636341 -0.08706465 0.974493 -0.15014388 -0.35376292 1.31107 -0.024373526 -0.58226264 -0.24724624 -0.788094 -0.38649875 0.92390925 0.04529419 0.38488933 -0.52122766 -0.13768822 0.27701193 0.008623458 0.6113631 0.2050554 0.080861755 0.23251481 -0.31548557 -0.5666311 -0.23018658 -0.54887474 0.73301184 -0.13953754 -0.0041277567 -0.4169449 0.031799413
13276 -0.5484432 -0.3451121 0.25717157 -0.47895443 0.034981385 -0.78412586 0.09605848 -0.63337475 -0.40995234 -0.35504705 0.30091882 0.24025026 0.5988298 -0.6171478 -0.30361152 0.38718498 -1.2011421 -0.0060877115 0.40137857 -0.7234146 -0.01370088 0.70298374 -0.174918 -0.020703996 0.4588346 -0.68498874 0.12135674 0.4167838 0.43346074 -0.42518052 -0.04452398 -1.0783035
20373 -0.6435611 -0.78652555 0.084255576 -0.40621316 -0.019482762 -0.51884097 -0.45367247 -0.24298827 0.07157562 0.5881415 0.676398 -0.0826776 0.48740458 0.23034626 -0.036209237 -0.6574427 -1.1636374 -0.44142708 0.080507 1.152448 -0.99142134 0.020415679 0.72367334 0.77559334 -0.16676271 -0.6725106 -0.30424416 0.9104841 -0.08851252 -0.25090438 0.9041674 0.52913845
45 -0.49997264 -0.3792787 -0.041412212 0.6576546 -0.066951334 -0.25967994 1.2556573 -0.06551931 -0.45549643 -0.19894747 -0.76175916 -0.583945 0.90851706 -0.15690593 0.14750563 -0.4416333 -0.241384 0.043798734 0.22132093 0.88686204 0.24264126 0.23065105 0.26805288 -0.08705028 -0.36701167 -0.07035159 -0.6944662 0.8364066 -0.13688186 -0.19927125 -0.35835657 -0.06641516
11241 -0.60780174 -0.5476024 -0.20374863 0.42816454 0.36002743 -0.07759253 0.986883 0.10946083 -0.37834352 -0.35867724 -0.78671485 -0.538849 0.7994991 0.17802921 0.21681176 -0.3997678 -0.22265483 0.15058519 0.13990435 0.571772 0.30453295 0.36235127 0.19385469 -0.3967577 -0.59661156 -0.046898868 -0.77641416 1.0087464 -0.36748806 -0.23480342 -0.39739835 -0.0008665729
20511 -1.0938749 -0.6186579 -0.23838133 -0.25651082 0.40528303 -0.011794491 0.1963517 0.30248138 -0.010670441 -0.31389356 -0.5576731 0.62556326 0.34547934 -0.14199822 0.43580484 -0.20639855 -0.53204936 -0.0053845462 0.0014200519 -0.67830473 0.031091467 0.3085015 0.9649808 -0.5016114 -0.21840653 -0.4615893 -0.03572612 0.89600515 -1.3316613 -0.78132474 0.46161383 -0.38912928
15108 -0.52628595 0.0895199 0.06848557 -0.26008588 -0.099502824 0.3651049 -0.19077213 -0.71309626 -0.18209684 -0.6311196 -0.26309833 0.13959377 0.048051544 0.08987231 -0.16869351 -0.33639765 -1.6527112 -0.463053 0.52117705 0.047666598 -0.52246416 0.39067385 1.022939 0.104400955 -1.1048554 -1.5834429 -0.26499024 -0.16367039 -0.32060593 0.7904839 0.030057514 -0.5154311
3372 -0.44396567 -0.5757691 -0.08190777 0.5504095 0.15596795 -0.18204533 1.0524907 0.025406677 -0.3827317 -0.04487972 -0.8716527 -0.50990826 0.781966 0.030642103 0.14587799 -0.39683715 -0.30979615 0.1295597 0.27510902 0.712762 0.37631717 0.30817476 0.32627657 -0.3178381 -0.5601392 -0.062728494 -0.8608986 0.8943567 -0.18965238 0.07648992 -0.25366855 -0.049988985
10711 0.047614075 -0.16195166 -0.18406607 -0.3143713 -0.0022668047 -1.2283491 -0.029211493 -0.93919486 -0.09972577 -0.62877136 0.10321203 -0.10457216 1.1558803 -0.95874375 -0.5669057 0.26336756 -0.957431 -0.14422317 -0.073608875 -0.8999434 -0.28779253 0.45920756 0.13196094 0.1538492 0.25014687 -0.4692685 -0.2996834 0.6899205 0.5195954 -0.35894465 0.34284356 -0.8949213
12496 -0.3516039 -0.14009985 -0.21347378 0.60759217 0.105990134 -0.5252948 1.042936 0.1414562 -0.6667886 -0.18067874 -0.76518035 -0.35297048 0.6356704 -0.08002952 0.3057019 -0.35486963 -0.20071135 -0.0052713337 0.51267403 1.1162254 0.24483615 0.21491586 0.29666156 -0.17888367 -0.54706633 -0.12662806 -0.94545096 0.9935617 -0.2125884 -0.20340712 -0.18088578 -0.2910298
18894 -0.32288313 -0.43510103 -0.141763 0.4707672 0.2224325 -0.54589856 1.3924054 -0.14493683 -0.2095275 -0.2126138 -0.65796477 -0.5004015 0.8523805 -0.035824798 0.042101953 -0.45401892 -0.2734142 0.061159838 0.25812036 0.5326557 0.22046328 0.3238429 0.2894329 -0.11338376 -0.60996264 0.038421366 -0.7879158 1.1581345 0.121006384 0.093006276 -0.29347363 -0.26500246
543 -0.25319234 -0.79137295 0.31583908 -0.06893176 0.05697984 0.5987817 0.15342517 -1.0858963 0.14170183 0.13815291 -1.1488119 0.18952602 0.43679005 -0.49195263 0.6093751 -0.83276737 -1.7411598 -0.035352424 -0.44069323 0.1538162 -1.1243565 -0.4330903 -0.16644597 1.4070995 0.051458206 -0.8268515 -0.7909726 -0.5550597 0.14281051 -0.0183575 -0.93661916 -0.45764545
1000 -0.19559814 -0.013670181 -0.8201605 0.71966165 0.29145232 -0.8713328 -0.4668201 -0.24540097 -0.59269565 0.5247836 0.30493107 -0.42287728 0.51665837 -0.76522 1.1642078 -0.1749018 0.032499988 -0.33231035 0.3998669 0.41021132 0.10008983 -0.24344155 0.642448 0.63130605 -0.53096837 -0.5706141 -0.7878488 0.43616307 -0.11554094 -0.32789198 0.26475847 -0.82615507
21847 -0.46096447 -0.4790304 -0.23414326 0.595687 0.1849261 -0.17784339 1.1704772 -0.06061854 -0.446674 -0.0060521327 -0.8627817 -0.5204454 0.9171999 0.06421783 0.20014693 -0.41299263 -0.37510446 0.067401335 0.22340699 0.77599454 0.27803895 0.3354697 0.26814237 -0.25556082 -0.52121663 0.058975387 -0.82320637 0.8443774 -0.15301956 0.09046712 -0.24855447 -0.06589474
3501 -0.6419832 -0.1091588 -0.28566337 -0.048916694 -0.27069855 0.2377487 0.04641935 -1.1952906 -0.32572362 0.17861672 -0.8551151 0.49306995 0.59650856 -0.08747385 0.3202109 -0.7722092 -1.2173092 0.17659283 -0.2473654 -0.133661 -0.52480114 -0.5834715 -0.111385345 0.75598276 0.08077136 -1.7699834 -0.5788929 -0.7621819 0.1085239 -0.688644 -1.1483465 0.38582548
24559 -0.7973167 -0.50069946 -0.080368854 -0.7757685 1.1181257 -0.7029663 -0.16566806 -0.7836692 -0.32124066 0.55980694 0.03532278 -0.6249781 -0.08242179 -0.5637049 -0.00041560762 -0.96826077 -0.55573905 0.03240238 -0.36967945 0.045512337 0.5627641 0.40674555 -0.304609 -0.31013292 0.68073434 -0.34673136 0.07243001 -0.06769224 -0.09833393 -0.99081624 -0.5801997 -0.4567866
5346 -0.064854346 -0.19955894 -0.27308965 -0.60528266 0.17308007 -1.5532619 -0.98350245 -0.022010837 0.017333005 -0.61177695 -0.46046126 -0.19538559 0.38556123 -0.649429 0.089145966 -1.0786722 -0.6966578 1.080712 -0.26452008 -0.54361826 -0.051915877 0.16385238 1.0575893 -0.13364337 0.14608397 -0.61242807 -0.5650775 0.5909738 -0.07285229 -0.25255808 0.32356533 0.08878597
20635 -0.440582 -0.5112005 -0.24638152 0.58428633 0.13568676 -0.16989188 1.1659021 -0.04411459 -0.41730133 -0.07494897 -0.8871369 -0.47516105 0.9160855 0.14623164 0.3003258 -0.45458284 -0.36174968 0.07856343 0.24085063 0.7828354 0.34766743 0.3635298 0.17789045 -0.21149793 -0.55568546 0.027503047 -0.73559666 0.982421 -0.14854161 0.028026719 -0.23804532 -0.14802884
24057 -0.20174614 -0.40786514 -0.31390852 0.18295765 0.94173443 -0.12165739 0.02957764 0.105984166 0.4910681 1.1748313 0.17420956 0.088226564 0.41715652 -0.6949657 -0.3004539 -0.754049 -0.93214715 0.9826172 0.24023652 0.1637232 -0.80890286 0.18980049 0.44269773 -0.42366073 0.392526 -0.86548465 -0.22601773 0.04724435 0.44391036 -0.46573645 0.4011157 -0.8698148
22887 -0.41933873 -0.6827086 -0.49417725 0.84667516 0.21424147 -0.23243429 0.96292096 -0.1557271 -0.49011287 0.084264286 -0.7506772 -0.44692272 0.77020836 -0.044286426 0.4436297 -0.37031195 -0.3784885 0.2513933 0.06458674 0.80673975 0.4170689 0.31282416 0.023824533 -0.2782433 -0.5463626 0.2217145 -0.83543026 0.9474279 -0.052492023 0.08875393 -0.23885334 -0.18591279
2212 -0.38359532 -0.5081644 -0.25793985 0.56067586 0.1916958 -0.18620966 1.2427477 -0.050424244 -0.413125 -0.018052952 -0.9216784 -0.5638368 0.7975372 0.093562454 0.26390123 -0.44789332 -0.33186585 0.06526233 0.16196442 0.7562634 0.3291149 0.27474847 0.14435594 -0.21958537 -0.5962351 -0.062452544 -0.8381709 0.89394444 -0.1630969 0.052909277 -0.16234145 -0.1354517
23382 -0.7423527 -0.65789145 -0.88899404 -0.15168196 0.30160108 -0.23783669 0.7212767 0.14062294 -0.98654544 0.3304568 0.35205296 -0.40002093 0.38761973 -0.5266943 -0.6021178 -0.3485795 -0.8550493 -0.22306435 0.28990474 0.08837094 0.597166 0.38353118 0.47142875 -0.3134538 -0.23788276 0.102849334 -0.19859329 -0.08199437 -0.9435453 -0.17351462 0.5037609 -0.776656
14540 -0.44621786 -0.6418485 -0.12937655 0.4633204 0.075819656 -0.4042428 1.235508 0.11906332 -0.34096873 -0.008960826 -0.6893404 -0.52004254 0.9231514 0.02289927 0.20863388 -0.5303003 -0.3357232 0.046374813 0.16243814 0.7514623 0.073591195 0.3936084 0.2509276 -0.15783776 -0.5697243 0.09312059 -0.7888398 0.95697695 -0.081587255 0.14215569 -0.16619033 -0.052725516
339 -0.56944686 -0.73509103 -0.85203576 -0.22919865 0.50114983 -0.20748593 0.14995803 -0.07491331 0.15720679 0.08292857 -0.1831872 0.54795414 0.3795985 -0.39156252 0.0660692 0.14384642 -0.23204014 0.5615831 0.35189325 -0.15813084 -0.13240352 0.42677554 0.5976199 -0.25305343 -0.37822017 -0.1934302 -0.39428347 0.4952373 -1.6443558 -0.72657496 -0.4694354 -0.5864415
24924 -0.08597292 -1.6081084 -0.45399854 1.0613765 -0.41885912 -0.72054493 0.14348172 -0.59636724 -0.62925303 0.11744444 0.18162937 -0.13049155 0.59947497 -0.8937051 0.86155313 -0.5931125 0.046058793 0.47445613 0.2598926 0.00389346 -0.15911692 0.03711841 0.36347055 0.10996085 0.37340614 -0.437659 0.09104129 0.26395535 -1.2488858 -0.26867357 0.009930805 -0.22827931
6179 -0.4304947 -0.47004524 -0.2312292 0.6172048 0.13411286 -0.20571055 1.1928856 -0.11565751 -0.439094 -0.05296694 -0.88472784 -0.5263371 0.9130407 0.09217452 0.27534935 -0.39586172 -0.3431634 0.09302557 0.21670306 0.75308853 0.30825806 0.29405224 0.20656946 -0.25733295 -0.55827665 0.021545218 -0.751253 0.87744594 -0.19809547 0.08544094 -0.22219679 -0.1237044
3651 -0.17034544 -1.6638564 -0.7362316 0.85782784 0.7131437 -0.8248603 -0.5898582 -1.1393993 -1.0940483 -0.09947509 0.036697976 -0.2643605 0.4548195 -0.54549545 0.75523317 -0.60045516 -0.33048788 0.63245064 -0.42797077 0.029397175 0.10096964 0.15148756 -0.5518343 -0.35365337 0.29848254 -0.102959946 -0.03743762 0.40184113 -0.1226207 -0.6617652 -0.08607284 -0.6984136
20765 -1.143348 -0.28499654 -0.071659185 -0.11701499 -0.7791704 -0.44099057 -0.12563051 -1.101762 0.6223215 0.014776535 -1.0177974 0.3912735 1.076553 -0.045037042 -0.1838715 -0.67759943 -1.1946493 0.47629273 -0.62263674 0.24084567 -0.8833265 -0.7570627 -0.25594604 0.9052518 0.6186703 -1.7634103 -0.4346751 0.062265363 0.22840509 -0.749158 -0.20600039 0.6811076
4511 -0.4215279 -0.50952667 -0.21565045 0.581655 0.16561961 -0.22372268 1.2405207 -0.120102756 -0.3251612 -0.07852779 -0.89661187 -0.46237212 0.9098948 0.078155726 0.3012039 -0.3838611 -0.35903597 0.062130928 0.21725453 0.7293302 0.31026956 0.37800583 0.14679988 -0.20252289 -0.60849756 0.015384558 -0.7486219 0.9561299 -0.17186113 0.03753828 -0.2548343 -0.14808145
18208 -0.40019324 -1.0315013 -0.062205963 -0.0760899 1.1001095 0.2508581 0.059466615 -0.87782323 0.09409106 -0.03445252 0.2393225 -0.018986419 1.5601155 -0.15144277 0.40992045 -0.034404334 0.10814831 0.752027 0.018889112 1.037709 -0.739003 -0.33487004 -0.1549214 -0.8278678 -0.65736526 -0.4418686 0.14725271 0.82358557 0.112488344 0.5486443 -0.43522123 -0.225786
15659 -0.44684818 -0.5258034 -0.2411659 0.5737033 0.078651 -0.21578887 1.2114818 -0.04769843 -0.44037822 -0.08095569 -0.86977977 -0.4741211 0.879703 0.07458196 0.21297273 -0.43501052 -0.36610335 0.05793613 0.3117303 0.768089 0.24182832 0.30759254 0.14865334 -0.29716226 -0.5592801 0.0178173 -0.766711 0.9273338 -0.10695909 0.0128338905 -0.14845692 -0.10744534
20562 -0.38762423 -0.5002018 -0.19781563 0.56967026 0.12955004 -0.22946507 1.2123461 -0.00070671155 -0.40410665 -0.0441349 -0.8363136 -0.46137673 0.96480185 0.045084927 0.2250962 -0.4191209 -0.33588544 0.019825257 0.17333314 0.7641485 0.24425305 0.3433797 0.23525278 -0.25618443 -0.5376476 0.06431224 -0.82908016 0.8964951 -0.17996135 0.038695317 -0.19088423 -0.10840245
20108 -0.45917735 -0.5226182 -0.1962467 0.5811357 0.1871576 -0.22479458 1.1992482 -0.0041720546 -0.38900164 -0.045243982 -0.8869037 -0.5160716 0.85811555 0.054686513 0.22630522 -0.42294362 -0.33960986 0.048304908 0.1923501 0.7869797 0.2741177 0.3007363 0.17031406 -0.279694 -0.5535965 0.018450286 -0.7820091 0.90001464 -0.16206327 0.021059904 -0.24228095 -0.15669125
2952 -0.4306385 -0.5033307 -0.20214583 0.5784933 0.15858021 -0.20809202 1.2267479 0.0029750548 -0.43045935 -0.018677732 -0.80527407 -0.4745806 0.9110088 0.04544708 0.22354381 -0.42764127 -0.36410007 0.0561452 0.25100905 0.7943078 0.2895525 0.3564204 0.21926221 -0.26974693 -0.5922759 -0.023451239 -0.75804937 0.9189607 -0.1692325 0.055645 -0.25371152 -0.14145455
8879 -0.43701074 -0.47543433 -0.18116595 0.585345 0.13735734 -0.15974067 1.2505813 -0.014810323 -0.4145312 0.0192629 -0.81768656 -0.515533 0.8841217 0.07205301 0.21845715 -0.44947788 -0.36084354 0.0155268535 0.22310168 0.74407625 0.2946333 0.35819936 0.16015068 -0.24365184 -0.55538225 -0.022264838 -0.82762575 0.89884603 -0.17983904 0.025244398 -0.20949213 -0.12618594
17692 -0.469096 -0.4765311 -0.119976535 0.6227094 0.13890056 -0.22901419 1.224561 -0.058901627 -0.40167385 -0.016556107 -0.8409869 -0.50113577 0.8976752 0.09615826 0.25063336 -0.44262922 -0.33603424 0.030920511 0.21920994 0.8179037 0.3026233 0.31801462 0.20814523 -0.266833 -0.604363 -0.024861582 -0.7329839 0.90449196 -0.1681316 0.059932414 -0.19076928 -0.16610828
20478 -1.1588031 -0.590743 -0.025769966 -0.05384004 -0.1910262 -0.41119635 0.70983094 -0.33864433 -0.25738555 0.40247968 0.41212267 0.10655073 0.357449 -0.43486604 -0.6502854 -0.15956263 -1.1864741 -0.21458578 0.25031573 -0.07657453 0.37110132 1.0180568 -0.042660404 -0.5756636 -0.27924556 -0.07371056 0.15079814 -0.083892286 -0.012069738 -0.5860933 -0.057172306 -0.7456238
12851 -0.4507554 -0.5707534 -0.23059957 0.53932434 0.179931 -0.20130901 1.2232741 -0.016696882 -0.37261042 -0.040790398 -0.92176706 -0.5063755 0.8833309 0.09272774 0.22699599 -0.44226778 -0.35902625 0.0588318 0.21813694 0.7469274 0.31050324 0.32915515 0.15568735 -0.25300208 -0.5576299 0.010007224 -0.8198054 0.93887067 -0.12610936 0.04901874 -0.19662933 -0.09810558
14924 -0.5134512 -0.88037455 0.9539609 -0.40986267 -0.27790686 0.15210795 -0.47146633 -0.7134974 -0.39913318 0.948483 -0.21095197 -0.5341511 0.38795862 -0.36135516 0.6888593 -0.66494215 0.07685822 -0.66297615 0.5311658 0.39421967 0.7044224 -0.45518735 0.4081784 -0.0038665596 -0.69156647 -0.7165781 -1.3085629 -0.09662288 -0.29286698 -0.40455583 -0.054653846 -0.13048351
6700 -0.256399 -1.3288213 -0.59073853 0.08877319 -0.028274592 -0.583236 0.8367266 -0.112490736 -0.58111113 0.008368329 -0.0031769932 0.0069213584 0.11795541 -0.045146734 0.037252285 -0.3920291 -0.39362925 -0.38946638 0.48669162 0.2278895 0.36684233 0.48491296 0.5314956 0.19134864 -0.13701841 -0.014554224 -0.06407444 0.34295648 -1.4776771 -0.060495745 -0.038571946 -0.86255294
11472 -0.44501582 -0.55302817 -0.20730957 0.62316346 0.15774608 -0.22114784 1.1817169 0.002766887 -0.40623823 -0.030466901 -0.8484165 -0.49741164 0.88787705 0.048964225 0.27099997 -0.40615696 -0.35862154 0.011747329 0.2241653 0.7142447 0.33368567 0.30964795 0.21138906 -0.35130873 -0.5272493 -0.004088166 -0.7878903 0.92797023 -0.18225487 0.039837986 -0.2008244 -0.108857326
6830 -0.4224896 -0.49658012 -0.22406219 0.6091316 0.12654302 -0.23089394 1.2284232 -0.04459426 -0.39767867 -0.029112471 -0.84645927 -0.44558194 0.9233376 0.041109156 0.26143786 -0.4147804 -0.34275904 0.038190622 0.22802302 0.7799829 0.29974276 0.33583465 0.21966887 -0.2664113 -0.5500539 -0.008501361 -0.79618573 0.90294653 -0.144403 0.07386001 -0.19451305 -0.13636537
19961 -0.38078043 -0.5484151 -0.22449529 0.54846513 0.16111773 -0.2847134 1.2356706 -0.021703908 -0.3737441 -0.065059245 -0.88873774 -0.4714893 0.8759796 0.03325988 0.26351815 -0.4027986 -0.35675567 0.0239319 0.25804034 0.7746127 0.33372673 0.33374962 0.1929355 -0.24272966 -0.55429626 0.0051754434 -0.7276182 0.93219537 -0.18022732 0.057526167 -0.19684188 -0.12268546
15066 0.10760856 0.24355263 -0.28333634 -0.7571284 0.15429181 -0.12390189 -0.04713417 -0.32214588 -0.23396017 -0.91733265 -0.42935017 -0.3636753 0.37958887 -1.0612537 0.49810323 -0.382468 -1.8237039 0.30617434 0.3342081 -0.477671 -1.0709314 -0.43334386 -0.59754527 -0.33427542 0.0669164 -0.9912532 -1.3047138 -0.18564592 -1.2595212 -0.365276 -0.16467111 -0.19956313
9710 0.39517263 -0.3221998 0.5256711 -0.7481313 0.0030177922 -0.837906 -0.10380734 -0.49717548 -0.38702482 0.76577115 -1.5432218 0.71481913 1.3539939 -1.0648059 0.6386978 -0.24237181 -0.4438129 -0.24243024 0.4206794 0.077478215 -0.37961861 0.26529607 0.30427724 0.011130965 -0.9800994 -0.07116637 0.07738134 -0.07477561 -0.5551107 0.282384 0.0050628413 -0.35251966
13096 -0.5387672 -0.16829883 0.39173478 -0.70397204 -0.5007578 0.37926027 -0.12283574 -0.90511966 0.063246146 0.47443473 0.02919955 0.08520863 -0.11156354 -0.15728894 0.02101237 -0.36109877 -1.550144 0.07878905 0.08678673 0.019552998 0.18772978 0.13947499 0.55128336 -0.10233894 -0.42011085 -1.1896027 0.17609245 0.19569413 0.23488207 0.21216448 -0.3013907 -1.1025388
25006 -0.81262356 -0.33249912 0.4301712 -0.4439713 -0.16850942 -0.37115568 0.06617415 -0.82137364 0.07592279 0.44110587 0.4115024 0.49985492 0.08128127 -0.3197138 -0.07588799 -0.2307712 -1.6392676 -0.25622937 0.8050661 0.16463853 0.62414914 0.35821474 0.26857063 -0.5277603 -0.22675884 -0.19421819 0.059249677 0.17468303 0.39498422 0.07110261 -0.21740034 -0.5442408
4513 -0.41542146 -0.44724494 -0.1601137 0.5405263 0.11826377 -0.2241557 1.2247019 -0.016359799 -0.44204736 -0.053443804 -0.8640476 -0.5133371 0.89369506 0.05827889 0.24311191 -0.44318655 -0.39417538 0.04050904 0.24412113 0.7767251 0.28673357 0.34730792 0.19855003 -0.26777464 -0.5655004 0.024986 -0.77074265 0.8860997 -0.17441283 0.05946233 -0.18564206 -0.1240017
17075 -0.39119315 0.32081473 0.44122374 -0.053474825 -0.21706018 0.28376177 -0.70816445 -1.7663233 -0.6755778 -0.05314751 -0.17347075 -0.22905365 0.66128314 -0.19363058 0.2885189 -0.97489583 -1.3483244 0.73790306 -0.002302397 -0.01623452 0.45161518 0.77723795 1.0553737 0.8334087 -0.79368174 -0.9975109 -0.9835125 0.05052718 -0.27078947 -0.167312 -0.2582866 0.5448029
13556 -0.84513986 -0.06168151 0.18583284 0.24075168 0.7047023 -0.94276595 0.27292457 -0.1996618 -0.2543215 -0.64312917 -0.4753634 -0.24665006 0.47631487 -0.81979614 0.5457659 -0.5050043 0.1467222 -0.5268072 0.07653884 -0.5162843 -0.46832755 0.6931696 0.93788594 0.28846052 -0.28593665 -0.88729316 -0.23712896 -0.6918962 -0.38629475 0.33876148 0.508373 -0.40509576
22457 -0.45362127 -0.907115 -0.30297995 0.41043213 0.37760884 0.026829481 0.44374397 -0.113470875 0.45481268 0.03287615 -0.98005205 -0.14773104 0.7044466 0.12851058 -0.080811925 -0.3356515 0.23038067 0.22613038 0.5445442 0.635018 0.32263833 0.82515 1.1441455 -0.13980673 0.30580083 -0.22119215 -1.2235327 -0.03858104 -0.287978 -0.05816293 0.4225137 -0.4882894
9755 -0.8477102 -0.7478802 -0.78054863 -0.1366479 0.4383932 -0.076940306 0.3433927 -0.17289779 -0.28335747 0.27749875 -0.5554371 0.06557918 0.31699032 -0.29731098 0.5979015 -0.21781036 -0.29503372 0.26048347 0.26502332 -0.17456414 0.41293687 0.46639118 0.26206076 -0.87880075 -0.28830296 0.4409187 -0.40607807 0.7723802 -1.2936722 -0.67703 0.32545578 -0.7024788
4550 -0.5154127 -0.21052961 -0.17628284 -0.57597655 -0.3383477 -0.36019656 -0.5244883 -0.55795443 -0.10053074 0.072863825 0.18512318 0.22635028 0.08968798 0.22211649 -0.35252476 -0.30673635 -1.5585434 -0.75104636 0.6477946 0.466854 0.4757282 0.07017192 0.42588145 -0.3700203 -0.46067646 -1.2689726 0.025415592 -0.29630136 0.1818515 0.3080406 -0.42506275 -0.9303559
12545 -0.6282304 -0.77118355 0.34025487 0.20579498 0.5581323 -0.40377718 0.36303586 -0.016217252 0.27653152 1.0781428 0.898565 0.5320836 0.33876193 -0.7782249 -0.73180693 -0.24071378 -1.2031468 0.4347856 0.07809818 0.19162828 -0.21321931 0.53344107 0.68502253 -0.499862 0.014095117 -0.03604352 -0.39361373 -0.02738978 0.047618147 -0.021940067 -0.19831727 -0.40212587
15300 -1.2752315 -0.026975706 0.14427947 0.004500121 -1.0477633 -0.47255743 0.66555876 -1.1060929 -0.034789264 -0.43390965 -0.21598406 0.123040654 0.8815053 0.43072885 -0.24491623 -1.5464814 -1.0942738 0.4661494 -0.15889826 0.6947033 -0.40361607 -0.53608614 -0.34616935 0.44016957 -0.1555944 -0.9456431 -0.30347073 -0.10523042 -0.48247474 -1.0467219 -0.15756248 0.7643124
24330 -0.12468146 -0.67596745 0.62922204 0.14599189 0.14859113 0.84206814 -1.0672787 -1.0024061 -1.2024081 -0.7517859 -0.8089961 0.4310996 1.1342485 -0.319083 -0.32441455 0.2991023 -1.3742914 0.22693864 1.0841703 1.0375509 -0.08612173 0.5762944 0.46621305 0.49214077 -0.47923812 -1.4721336 -0.32382274 0.7638792 0.40997657 0.04221765 0.95128554 -0.37599313
22177 -0.576138 -0.13034178 0.008618744 0.4367436 0.9258806 -1.0657399 0.41107404 -1.1377075 -0.31431615 0.22151229 -0.39578813 -0.38527364 -0.06630211 -1.0511417 0.76107436 -1.1226383 0.28868625 -0.29129043 0.27089807 -0.38634634 -0.52219915 0.5505154 0.1465284 0.4789668 -0.05248962 -0.5505831 -0.32489964 0.006402683 -0.5711016 -0.5668475 0.26789987 -0.07022522
17439 -0.84687537 -0.90245175 -0.24344988 -0.23565607 0.21337256 -0.33827266 0.36714712 0.17749637 -0.21982753 0.27225065 -0.6685511 0.4884522 0.23523507 -0.20538186 -0.31304142 0.041399747 -0.35344866 0.13749366 -0.0068383063 -0.17379573 0.5345156 0.63496894 0.5292466 -0.24789266 -0.16668603 -0.014416125 -0.6099034 0.34856194 -1.548381 -1.1043333 0.2651943 -0.41431025
46 -0.47752932 -0.47463703 -0.17251526 0.601399 0.15260613 -0.21321775 1.2427135 -0.09605021 -0.4324026 -0.04478855 -0.8378533 -0.48355275 0.9191973 0.03707699 0.29005787 -0.35116586 -0.33308932 0.007557845 0.1789369 0.73666865 0.31118453 0.31657904 0.17837027 -0.22226137 -0.60891074 0.037351076 -0.7570061 0.94927603 -0.16104773 0.04948879 -0.20095687 -0.14520085
231 -0.29647 -1.1755381 0.5349258 0.08713436 -0.091318 0.23343424 0.40937126 -0.39476165 -0.008266086 0.5132873 -0.8286518 -0.473806 0.39300618 -0.13088793 0.30256513 -0.40646556 0.15186949 0.14116354 0.7611395 0.56000847 0.637537 -0.1879768 0.886969 -0.24299872 -0.2513409 -0.2108172 -1.3234078 0.36894348 -0.21440719 -0.27915114 0.14269973 -0.044431485
23134 -0.7002665 -1.2656647 -0.55550706 -0.55822504 0.15076956 0.12042733 -0.33319348 -0.80571735 0.46336305 -0.12273432 0.423202 0.52699214 0.7554336 -0.19821335 0.77865857 -0.17670545 -0.5727235 -0.13651249 -0.12874568 1.1745005 0.12574726 -0.05325988 0.030141046 -0.09467103 -1.1517481 -0.58509684 -0.01967065 0.5169365 0.58111846 0.1062595 -0.01405166 0.06816589
16469 -0.08488126 0.04124922 -0.14853963 -0.67588735 0.00510016 -0.08786047 -0.3684349 0.05965116 -0.22389859 -1.1075282 -0.27908853 -0.5473335 0.28481036 -1.1931782 0.18160702 -0.48466596 -2.1019695 0.54507506 0.28100017 -0.27870858 -0.9200718 -0.040238343 -0.6925828 -0.26384917 0.087450266 -0.97318333 -1.3873466 0.18081817 -1.3301638 -0.44562685 -0.067513 -0.38122323
9184 -0.7657621 -0.5913097 0.2762081 -0.60656214 0.18811223 -0.2789067 -0.078726225 -0.21651131 0.71491337 1.2931117 -0.097767375 -0.097790584 0.5997301 0.44448262 0.34249002 -0.4904404 -1.1524844 -0.14643203 -0.029448923 1.182236 -0.6748003 -0.0001239129 0.8818793 0.42997602 -0.20099002 -0.523361 -0.34486088 1.1663594 0.13866399 0.06908441 0.61129725 0.13869815
24371 -0.4349008 -0.36147344 -0.34338662 -0.59417707 0.8029437 -0.539204 -0.6488136 0.16881002 -0.65931034 0.018590264 -0.24657932 0.5725098 0.119690664 -0.05140232 0.14929579 0.22816049 -0.7109146 -0.052630745 0.23675753 0.26015252 -0.13402149 -0.4513813 0.37437522 -0.029074635 0.18079415 -1.3860272 -0.41299587 0.12273708 0.31012088 -0.969531 -0.94411373 -0.30640367
18487 -0.7698302 -1.5463817 -0.59836197 -0.26498666 0.16515927 0.15492035 0.6831107 0.13470687 -0.47936994 -0.09849455 -0.37588435 0.047081843 0.27035996 -0.48731887 -0.6944597 -0.6007102 -0.58646697 -0.53384584 0.4249019 0.048737537 0.4181909 0.61292017 0.1733716 0.21127133 -0.51857275 0.19898826 -0.13762915 -0.08828445 -0.744696 -0.82594377 -0.1542832 -0.29366228
5107 -0.6243231 0.017231919 -0.6267982 0.267473 0.54321325 -0.99007976 -0.6043707 -0.20274499 -0.4431618 -0.423924 -0.35171258 -0.31136647 0.8802201 -0.44970372 0.5101702 0.19272573 -0.42855442 0.16836575 0.22434814 -0.31992564 -0.24904978 -1.032976 0.5914139 0.45543823 -1.0104874 -0.08389608 -0.71128523 -0.38845038 0.26580974 -1.0721064 -0.0067624645 -0.8664976
2912 -0.98207194 -0.12307461 -0.006417518 -0.76699346 -0.84242904 -0.6640085 0.6068498 -0.640739 0.009311677 -0.17721614 -0.17151688 0.117820464 1.1759393 0.5258878 -0.41328272 -1.5297831 -1.0318155 0.36799964 -0.19593173 0.75882083 -0.6471231 -0.44702208 -0.48465088 0.4854648 -0.3199641 -1.1229631 -0.08862948 -0.041226164 -0.48705763 -1.0735846 0.34856802 0.7954296
14485 -0.12663633 -0.4345749 0.24000233 0.6734208 0.39885896 -1.3732108 0.23834784 -0.27055 -0.55439556 -0.21059248 0.09833096 -0.8099301 0.08111145 -0.78227353 0.5628528 -0.33336806 -0.21809854 -0.5352181 0.61087656 -0.33472696 -0.14214757 0.10427427 0.2617851 0.47777715 -0.24132708 -0.49419814 0.043517064 0.3752515 -0.6120847 0.20569204 0.12025291 -0.6828988
2072 -0.89014316 -1.2932913 0.16208015 -0.067339264 0.6450026 -0.04148153 -0.12097177 -1.0258262 0.8610862 0.1793118 0.48086715 0.17372312 0.3766614 0.10190589 0.035808075 -1.2252991 -0.60229564 -0.21516423 -0.16945471 0.43719038 -0.30622262 0.17553063 -1.2140462 0.083630174 -0.5542569 -1.628461 0.17338583 0.89205134 -0.5272862 0.72463816 0.14797893 -0.2646259
25034 -0.34752107 -1.4461812 0.40512115 -0.5670956 -0.17767467 -0.8206342 -0.05501085 0.27963024 -0.038711984 1.0109816 0.10709196 0.048663687 0.3531243 0.35102677 0.1873891 -0.9057442 -0.9669258 0.012742141 -0.27746814 0.66530097 -1.0451081 0.45689204 0.3718324 0.33760202 -0.43218476 -0.3470198 -0.4206224 0.8245758 -0.07465472 0.8602716 0.26418963 0.22820407
676 -0.25236854 -1.0642817 0.22625524 0.6791088 0.45979714 -0.4441119 0.6134154 0.2375603 0.27758232 0.3126216 -0.52035457 0.050366793 -0.005761413 -0.63984936 -0.808503 0.50862604 -0.5247587 0.20952353 -0.15807603 0.61611605 0.22154118 0.6006937 0.99513686 -0.26378927 -0.1925909 -0.2366695 -0.7307186 0.00020608642 -0.7095413 -0.19834425 0.24134721 -0.24002835
24696 -0.78280354 -1.0248356 -0.17473188 0.09707542 0.57341576 0.17853667 -0.0857082 0.16492595 -0.123539254 -0.07727423 -0.9912492 0.6184507 0.77154833 -0.8022645 0.27498427 -0.5425193 -1.1962713 -1.1133834 0.44042104 0.118898496 -0.12969404 0.17509048 0.17698999 0.6658324 -0.43685335 0.66845185 -0.16090542 -0.7618601 0.29485458 -0.3141877 -0.07874693 -0.21161954
16994 0.066843934 -1.3223242 0.58123475 -0.4458854 -0.1456131 0.11413477 -0.3741153 -0.32525614 -0.54763955 0.8044715 -0.51279795 -0.2882895 0.3087648 -0.3395176 0.92316145 -0.7082083 0.059133638 -0.21657011 0.37374443 0.23625015 -0.016614035 -0.44934943 1.014916 0.17029653 -1.0233592 -0.31732938 -0.81562626 -0.06408624 -0.5899641 -0.5985137 0.4270907 -0.21611018
11275 -0.7517558 -0.49847943 0.80478674 0.1275211 0.25808492 -0.30347753 -0.09162913 0.07992168 -1.3821787 -0.13555187 0.19053872 -0.008205189 0.9164374 -0.7303182 0.69189113 -0.091210134 0.058894757 0.09440842 -0.74417657 -0.5915257 -0.39269814 0.23856775 0.55784535 0.07291958 -0.54599404 -1.3219826 -0.17197621 -0.7245834 0.15603828 -0.14604878 0.16706288 -0.5456097
11372 -0.35225523 0.09671761 0.6495171 -1.2614647 0.35446894 -1.4998907 -0.30614322 -0.13800128 -0.23233442 -0.30439758 -0.39261147 0.041374456 1.490576 -0.18566652 0.04674517 -0.6916559 -0.84814024 1.0576419 -0.04870755 0.63694406 -0.5676772 0.26618117 -0.32795697 -0.8935079 -0.55493087 -0.29836375 -0.5824266 -0.10366578 -0.9681931 0.82069695 0.5953872 -0.2543414
2042 -1.2018892 -0.41608495 -0.10288499 0.1190233 0.017073419 -0.6889778 -0.57768583 -0.2633612 0.017649334 0.19946887 0.8065843 -0.6235502 0.20295984 -0.34975418 -0.02981808 -0.41078964 -1.3701555 -0.860995 0.74096066 0.75602806 -0.807936 -0.70611113 0.42355818 0.8956242 -0.65508556 -1.0685763 -0.6378253 0.3532339 0.08736912 0.44589353 0.7014039 -0.4947173
11400 -0.56302106 -0.08794215 1.1286522 -1.0202473 0.39585185 -1.1428678 -0.49926016 -0.444947 -0.28160542 -0.04712094 -0.46804973 0.4174956 1.1530346 -0.18424247 -0.2579791 -0.20705675 -1.3468076 0.93439376 -0.20757963 0.4468229 -0.40616572 0.8529812 -0.31765792 -1.0562055 -0.5321238 -0.13521005 -0.8994407 -0.19675139 -0.698123 0.9342878 0.14743757 -0.493348
7350 -0.76994747 -1.2742054 -0.0008133573 -0.41370046 0.47892824 -0.7168195 0.6948597 -0.24642198 -0.441452 -0.6171691 -0.1929554 -0.53332144 0.936014 -0.750801 -0.30415797 0.16664083 -0.51604694 0.67827713 0.15550582 -0.13485064 0.51611686 -0.6847738 0.5909358 0.9087853 0.61501265 0.35888657 -0.6176494 0.7806252 -0.5042556 -0.026437812 0.11752436 0.18430877
16389 -1.1599454 -0.035160363 -0.38399208 -0.43998638 -0.34356228 -0.4028932 0.9739099 0.1104678 -0.24089983 0.18124723 -0.0664802 -0.23377071 0.7415528 0.09662202 0.06551794 -0.13539152 -0.8405288 0.29108426 -0.049306255 0.05166577 0.37305343 0.88323295 0.22788796 -1.0205141 -0.18113743 -0.2262614 -0.27880442 -0.11238761 -0.4664256 0.07656418 0.17602646 -1.3208213
1958 -0.24426645 -1.3191584 0.14241436 -0.29160416 0.10340983 0.70252174 -0.2031777 -0.6188582 0.11302348 0.5012633 -1.2352585 0.1945444 0.52984464 -0.6281049 0.26616836 -1.1233246 -1.5034684 -0.5887548 -0.3094886 0.39248648 -0.94547206 -0.12792973 0.36232617 0.8790153 -0.18595243 -0.1601308 -0.32818037 -0.7168434 0.11748073 -0.20069154 -0.23359767 0.015681604
7712 -0.17409906 -0.8898557 0.27238414 -0.5332145 0.6442019 -1.1614183 1.1410048 -0.8572607 -0.44624788 -0.6272723 0.119336836 -0.09584319 0.356048 -0.60247767 -0.48249406 -0.14617658 -0.4381934 0.75238615 0.10178897 -0.54039437 -0.17190716 -0.59330297 0.19775951 0.8777174 -0.1001493 -0.3720519 -0.91178346 0.506597 0.2676399 0.15242782 0.016359031 -0.38610795
15455 -0.5143436 0.094913274 0.6076 0.12150784 -0.8046464 0.41026625 -0.29888108 -1.8261131 -0.675728 -0.098111406 0.14316857 -0.33720508 0.40837368 -0.08915622 -0.008221285 -1.0793386 -1.237615 0.23542255 -0.08854317 0.25307614 -0.052186616 0.09785365 0.5748639 0.42364505 -0.5654686 -1.2353966 -0.95927286 0.08383006 -0.48728997 -0.2780412 -0.5102284 0.6084614
13008 -0.2667955 -0.030638587 -0.30248675 0.8068386 0.2168728 -1.1159128 -0.007901505 -0.1169512 -1.0113685 0.15904169 0.3445708 -1.1292026 0.25420493 -1.2674783 0.18344466 -0.12579787 -0.4965371 -0.6956873 0.64105225 0.6424469 0.11725309 -0.38791516 0.49873424 0.13071302 -0.5520641 -0.61490315 -0.83396125 0.37736923 -0.49017254 -0.11970543 0.27815503 -0.8532596
4241 -1.2345973 -1.3035667 -0.3508327 0.14272274 -0.33410743 -0.96914715 0.25174767 -0.606822 -0.1285724 -0.2577121 -0.3853932 -0.40942165 0.83991766 -0.8581092 0.86324024 -0.3902466 0.114165984 0.35989234 -0.41950774 0.7103954 -0.2743534 -0.3875942 0.42054075 0.67820996 0.7531567 -0.48469514 0.18610515 0.82999295 -0.578234 -0.12932111 0.3505381 0.44156003
22598 -0.024937289 -1.0059335 -0.48724666 -0.88392514 0.88052416 -0.7849768 0.67386705 -0.92343235 -0.6486206 -0.42205778 0.081387706 -0.3085517 0.78361017 -0.782272 -0.69080967 0.13361233 -0.64891225 0.27219573 -0.039159622 -0.64887136 -0.31493446 -0.28904715 0.1342946 0.538464 0.10387479 -0.13440993 -0.595314 0.53885317 0.34788907 0.46873796 0.46189815 -0.28128326
16414 -1.0650575 -0.36451548 0.122481294 -0.46307796 -0.16334128 -0.8929933 0.48660368 -0.13251449 0.08532222 -0.35712343 0.11561407 -0.07248503 0.8066539 -0.10294857 0.12963189 -0.08830833 -0.6107722 0.69712096 -0.250638 -0.011493872 0.28012538 1.0330315 -0.11474197 -1.0686294 -0.6899822 -0.39221627 -0.30119404 -0.5302767 -0.41605312 -0.37732118 0.45756367 -0.80399925
12927 -0.21773927 -0.71529126 -0.05100089 -0.5171056 -0.14356571 0.058715425 0.3470813 0.0154454205 -0.13607712 0.8687603 0.22956541 0.4711011 0.34889016 0.17779964 0.22294676 -1.2144834 -0.6476067 -0.28550428 -0.19764256 -0.326303 -0.567064 0.56951344 -0.20622182 0.3052645 -0.74071616 -1.8417633 -0.24483521 1.0065143 -0.2568592 1.2891428 0.055011272 0.09439368
4743 -0.97540927 -0.5140009 -0.3438474 -0.19031115 0.61221695 -0.29025748 0.17549285 0.48552436 -0.4384589 0.008112128 -0.23191643 0.042678792 0.4798347 -0.12578763 0.24705413 -0.17839594 -0.37099475 0.32305184 0.43925616 -0.41480166 0.37968406 0.20579393 0.36109978 0.19114415 -0.4317145 0.21454434 -0.37033007 0.40868932 -1.7884032 -0.6479198 0.24957003 -0.769024
2846 -0.109410144 0.015594858 0.7074662 -0.4685751 0.40039214 -1.6900259 0.7494121 -0.10927106 -0.26881853 -0.86074287 -0.097760804 -0.16876297 1.4821767 -0.6473247 -0.18225704 -1.0926721 -0.061686892 -0.5129376 0.49573296 -0.3101569 -0.3430927 0.645614 0.30046532 0.12279037 -0.4628964 -0.4945737 -0.21858434 -0.35396147 -0.13280532 0.0716936 0.55946594 -0.10693411
6512 0.5838896 -0.33552057 0.5300974 -0.29699188 1.4126312 0.16842766 -0.46738222 -0.18127878 -0.37011793 0.024215853 0.17327508 0.8529769 1.9963657 0.007942045 -0.39538038 -0.43338126 -1.1446055 -0.318464 0.52536446 -0.29439086 0.25583267 -0.13576514 0.066691525 -0.55289406 -0.033077512 -1.5068593 -0.34085816 -0.30681297 -0.2669094 -0.42652294 -0.66320515 -0.49741507
2115 -0.49787903 -0.32373375 -0.83424515 0.96822023 0.7385745 -0.95104825 -0.5672236 0.24546619 -0.6766964 0.8523662 0.3338637 0.44938892 0.7977445 -0.6178636 0.27571842 -0.7027818 -0.14964715 0.73099464 -0.32242587 0.7695297 -0.49961478 0.23137942 0.4425408 0.4767975 -0.4115663 -0.23186821 -0.22998229 -0.03001926 -0.17167073 0.20851873 0.24482375 -0.9185795
26038 0.33789635 -0.5559853 0.010703455 -0.7712799 -0.0075047947 -1.39421 -0.4882748 0.26673615 -1.2394959 0.95660776 -1.370753 0.2293234 1.2650652 0.01402647 0.47084245 -0.47079092 -0.896582 -0.15600868 0.1823022 0.37786293 -0.78830254 0.90604156 -0.2577441 -0.17623717 -0.6683862 -0.30060992 -0.26801857 -0.20666754 -0.49835926 0.36476058 0.087299764 -0.0168677
1588 -0.6841706 -0.48397782 0.26068202 -0.16009526 0.47446522 -0.26869747 -0.024296498 0.0500514 -0.36948943 0.28100562 0.10091693 1.1243299 0.21392003 -0.84229505 0.70611036 -0.095014654 -1.5280266 -0.46852097 0.62016094 0.16210257 0.24377362 0.06305358 0.019496214 -0.25495288 -0.40755758 -0.16065359 -0.5287796 -0.64787334 0.63083446 -0.26780465 -0.027283043 0.28316408
3113 0.26372728 -0.8589876 0.8873564 -0.48772177 1.2772917 -0.5745147 0.38239807 0.756337 0.44738153 0.39034763 0.054330584 0.3947656 1.8504721 -0.9170238 -0.23368491 -0.45765576 -0.9621225 0.5817312 0.19234851 -0.5947779 0.3215741 -0.60823363 -0.17906262 0.51899594 -0.31241238 -0.86799306 -0.65407103 -0.42782274 -0.8448215 0.009582331 -0.6477443 -1.0437165
4575 0.5180091 0.19245009 0.055086866 0.78228104 -0.0799444 -0.819567 -0.6334982 -0.6066777 -0.3695506 0.25975904 -0.051717535 -0.5812309 0.624104 -0.8543716 0.87085223 -1.004294 0.16013892 -0.04261029 0.035499588 0.28903523 0.08074577 0.074702755 0.9656396 0.62316966 -0.4723332 -0.73781854 -1.1754766 0.74542695 -0.4554579 -0.723701 0.0036552907 -0.4721946
21491 -1.1334524 -0.2021857 -0.23344932 -0.3814887 -0.30614674 -1.2131515 0.44810578 -0.04963449 0.06591276 -0.27724457 0.08291822 -0.08229162 0.8249982 -0.28509176 -0.62686443 -0.51779497 -0.39334488 0.7444788 0.43420172 -0.29197934 -0.02778582 0.6125148 -0.21569651 -0.9523204 -0.5593816 -0.3453847 -0.46614233 -0.19015278 0.10822784 -0.07251829 0.0765221 -0.8615411
12212 -0.46151307 -0.35854006 0.15219365 -0.12684569 0.28731152 -1.499246 -0.17891254 -0.54668415 -0.8318684 0.24930498 -1.0818983 -0.21952614 1.274844 0.04963505 0.93365455 0.23363341 -0.28009802 0.11318292 0.13997135 -0.17007582 -0.3216676 -1.2459601 0.9974106 0.62012225 -0.31518772 -0.27873003 -0.4380704 -0.7209667 -0.11951642 -0.7954229 0.2887045 -0.8279012
4416 -1.1927704 -0.06085182 -0.0012317691 -0.7051906 0.28021497 -0.22861612 -0.20395117 -0.9480796 0.4377401 0.5744445 0.1346597 -0.04808836 0.15375967 -0.27395135 0.8896489 0.0963084 -1.0556633 -0.056013435 0.6910873 0.90550065 1.0771592 0.55400413 0.38750908 -0.17430899 -0.006107522 -0.025347445 -0.34151632 0.80583555 -0.43431535 -0.19133425 -0.091996394 -0.40392065
13520 -0.06776803 -1.5547165 0.17084879 -0.4009465 0.50923395 0.032685917 -0.42695284 -0.73455215 0.4979108 1.3060201 -0.75964165 -0.37823328 0.3167805 -0.24757385 -0.17487697 -1.0509543 -1.2815679 -0.24740504 -0.67988455 0.52373886 -0.7609155 -0.36619654 0.40510663 0.61015064 -0.33075237 -0.700437 0.18915002 -0.5454923 -0.45532647 -0.5848469 0.33976212 0.17086424
24833 -0.20107731 -0.8997408 0.25280872 0.050912682 0.10152825 0.93279034 -0.117299184 -0.6553335 0.19755538 0.9572521 -1.020008 0.32615227 0.58861566 -1.2708244 0.42210245 -1.2083448 -1.7794845 0.24546328 -0.43068364 0.17102396 -0.54044837 -0.039042387 0.13860646 0.8646168 0.23513927 -0.61540294 -1.0675623 -0.52109975 0.37648916 0.36425802 -0.6925566 -0.3492386
17626 -0.5036735 -0.972257 -0.13544132 -0.13450639 0.33077008 -1.2715257 -0.5054607 0.34161335 0.71876496 -1.1702927 -0.36038756 -0.17689353 1.0602869 -0.38576508 0.0921578 -0.46819887 -0.9806127 0.30856952 0.5678569 -1.166462 -0.5320984 -0.37893483 -0.30663463 0.37619632 0.24907306 -0.08385625 -1.3355203 -0.24139823 -0.65065193 -0.6942677 0.32293203 -0.95759374
21075 -1.4764755 -0.9043539 0.34030858 0.09869429 0.4324794 -0.41216105 -0.07527202 -0.43718082 0.5816313 -0.30610397 0.6526401 -0.4094567 0.37225783 -0.29212767 0.19293034 -0.74168754 -0.8335364 -0.43943107 0.1664343 0.17227624 -0.5468996 -0.4733752 -0.16972578 1.3564171 -1.2375331 -0.5524631 -0.59384686 0.38523 0.6884311 0.30238792 0.28621078 -0.7655335
9829 0.17673789 -0.72384137 -0.12135067 -0.01627248 0.5304855 -0.93975365 -0.35557574 -0.27072418 -0.5114308 0.08861295 -0.43237892 -0.5155353 0.9312799 -0.03877242 1.1396072 -0.12742132 -0.010527356 -0.0913956 0.15499124 -0.02257472 0.048847362 -1.2684073 1.3741407 0.3458605 -0.6358413 -0.68711084 -0.90577626 -0.42632744 -0.085459925 -0.80161214 0.4367558 -0.5840551
6774 -0.69939566 -0.9048172 -0.07567438 0.5376957 0.31232944 0.21260786 0.25877404 -0.23746787 0.4832236 0.35684 -0.83134127 -0.6141715 0.9835663 0.29225045 0.076877825 -0.018005611 -0.021536397 -0.06552087 0.70092666 0.8402199 0.61350673 0.63925046 0.8457893 -0.19096802 0.07277458 -0.5501389 -0.84461844 0.55585355 0.13388613 -0.3976346 0.07661608 0.14789906
16310 -0.08850145 -0.82825047 0.7074492 -0.98254186 0.3800197 -0.80546415 0.27353698 0.5082317 -0.15269008 -0.29102537 -0.14456394 0.3336173 0.5015666 -1.2203987 -0.023097076 -0.35277104 -0.19182946 -0.031988498 -0.19177637 -0.6342329 -0.3299229 -0.11948865 -0.5161165 0.49150035 -0.86770076 -0.4722803 -0.7526331 0.1538471 -0.7010961 -0.12598716 -0.26026794 -1.0773228
17501 -1.0861688 -0.012377118 -0.7289027 0.5098977 -0.016415346 -0.97695255 -0.5146646 -0.07484732 0.40337697 -0.49748978 0.09387618 0.80216616 1.4028081 0.47874826 -0.80461943 -0.7513234 -1.7236494 0.67737406 0.13269056 0.7033749 0.21472628 0.085434355 0.44823825 0.741655 -0.9011599 -1.344957 0.36986274 -0.38265467 0.02213846 0.24096146 -1.0816665 -1.1236007
16148 -0.4209545 -0.71706676 -0.5077149 -0.2877811 1.227742 -1.1570486 -0.33356425 -0.14142658 -0.034866467 0.14685309 0.37151802 0.15170464 0.096244216 -0.118739106 -0.23949689 -0.26710296 -0.82480973 -0.011615695 0.048384815 -0.25290412 0.14678223 0.26377675 -0.07413438 -0.10664669 0.4564253 -1.0843807 0.40299746 0.36031532 -0.1526906 -0.40997866 -0.94205296 -0.3125368
12842 -0.22363421 0.37985247 -0.055194117 -0.2832243 -0.14123265 -0.8976807 -0.20589264 0.05225236 0.5815194 0.98246425 0.36834502 -0.55002046 0.82500476 0.26982135 0.18308719 -0.99233395 -1.3867656 -1.0173483 0.11865313 0.28650916 -0.8371203 -0.3580015 0.058002286 0.22112194 -0.8574352 -1.7524899 -0.45276168 0.96156967 0.16148755 -0.103746906 0.4996192 0.09009786
5934 -0.12931576 0.119910054 0.18069226 -0.71660507 0.14432019 -0.3524577 0.082186274 0.07485411 -0.16279602 -0.8194808 -0.070860654 -0.20443791 0.005627125 -0.95031106 0.26005763 -0.18655273 -1.9612796 0.6484348 0.26096076 -0.46145284 -0.8318495 0.20509386 -0.6221534 -0.34764877 0.085543245 -0.9279914 -1.2086104 0.0757232 -0.9095926 -0.44735473 -0.08652749 -0.621135
615 0.6879916 -0.49216852 0.36914694 -0.366579 0.6233517 -0.6630502 0.6473989 0.24998298 -0.24731629 -0.01472807 -0.7757449 0.29707038 1.8324841 -1.0247349 0.13032758 -0.81358397 -0.70281935 -0.696311 1.013539 -0.13367236 -0.2956898 0.7281715 -0.009057315 -0.3053415 -0.3197214 -0.33395717 0.24127623 -0.44961566 -0.27308795 -0.61114866 -0.008090311 0.11117233
19297 -0.70885295 -1.2295221 -0.3554812 -0.12434283 -0.44234717 -0.9259017 -0.03886557 -0.015850015 -0.08009706 -0.5787362 0.16289175 -0.32313132 0.8509789 -0.83940256 1.2874446 -0.5895177 -0.3846243 0.31704274 -0.0694142 0.17990269 0.7179007 0.050570432 0.694491 0.27268463 1.0728524 -0.77247673 -0.15115775 0.7080513 -0.25329432 -0.2571746 -0.22868918 0.4045087
24814 -0.75196743 -0.48497885 0.17880987 -0.80264276 1.6105889 -1.0205526 -0.13442428 -0.59764284 -0.45836368 0.17739898 -0.63216865 0.2328372 0.4862389 -0.69270545 -0.00881233 -1.2308403 -0.8240078 -1.1258897 -0.4975923 0.3512952 0.13685006 0.71136844 -0.7990775 0.73224074 -0.1164957 0.056730013 -0.319391 -0.44812986 -0.22538285 -0.2940429 -0.5558045 -0.77530885
10096 -0.6929059 -0.6937428 -0.033181302 -0.2609178 -0.25845724 -1.345134 0.44286236 -0.6961776 0.23208484 -0.23224415 -0.05166505 -0.07885992 0.8505758 -0.18084204 -0.4475676 0.02524936 -0.97378594 0.60171 -0.13902484 -0.524098 0.35609806 0.48687327 -0.02454551 -0.9479282 -0.92511255 -0.43895078 -0.38950077 -1.0231152 -0.110685565 -0.41898286 0.5303415 -0.69150823
3909 -0.83518565 -0.25016826 -0.33655185 -0.2435977 0.058923103 -1.2834595 0.18949248 -0.06301917 0.34645298 -0.33616272 0.07327829 0.09967725 0.57913285 -0.55487186 -0.6955295 -0.6630522 -0.30467123 1.1201464 0.63657784 -0.60167915 -0.34331512 0.15321544 0.19612268 -0.026391027 -0.52759004 -0.73601604 -0.31963882 0.3214307 -0.013071783 0.347905 -0.9297451 -0.6651816
23836 -0.5967105 -0.53731424 -0.41608384 0.24530312 1.2246028 -0.25272995 -0.05219421 -1.4212075 -0.45784533 -0.2839551 -0.46037433 0.7272086 0.13068561 -0.6831558 1.0017965 -0.59508544 -0.7813566 0.9304453 -0.027609892 -0.3609643 0.10109404 0.8160464 0.33668697 0.6469698 -0.43968847 -0.97749114 -1.1253422 0.059168987 0.022977604 -0.48653364 0.21212015 1.4564147
11861 -0.6171603 -0.9640418 0.5413122 0.5634433 0.69101137 0.35116115 -1.1874536 -1.1362981 -0.60898525 -1.0051689 0.26121888 0.37290996 0.61377734 0.23261687 0.20900045 -0.48076737 -0.57585615 -0.12801433 -0.036340754 0.8428399 0.07669658 0.62947273 0.8335715 -0.26001292 0.3682916 -0.7244154 -0.86166716 0.5016779 -0.47591075 -1.4884534 0.38441777 0.32005474
11696 -0.28134844 -0.17499527 0.72106045 -0.625696 0.095088914 -0.67215353 -0.16657974 -0.78438896 -0.5340071 -0.24406166 0.30910403 0.34474626 1.467764 -0.10563803 -0.27610493 0.5733885 -1.0012797 0.034682915 -0.025037583 -0.8497995 -0.123693444 0.95385504 -0.17382284 -0.36222553 0.2395733 -0.90656817 0.028156852 0.56931937 0.18079166 -0.033719137 0.29293644 -1.0130688
13831 -0.30856016 -0.093836375 0.4752335 0.1257432 -0.61801916 0.09612156 -0.9421294 -1.8194296 -0.74191684 0.64661026 0.23823513 -0.39869618 0.7254348 0.03998907 0.34307364 -1.1193001 -0.6762961 0.08022793 0.1931307 0.24038555 0.29936096 0.10514482 0.5701017 0.37770402 -0.84132844 -1.1552513 -1.0495749 0.20763734 -0.33477646 -0.50861907 0.013765563 0.50218356
3345 0.48411635 -0.12694895 0.39804718 -0.1316987 -0.1387308 -0.862785 -0.069068626 -0.8029772 -0.40809223 1.033142 -1.0148251 0.5319718 1.9896342 -1.0861875 0.8683815 -0.18045479 -0.6498049 -0.030864146 0.69819796 0.22390597 -0.4663115 -0.3207789 0.6892939 0.4682639 -0.43813676 0.12991284 0.30547258 -0.2653217 -0.46511415 -0.36482036 -0.24587446 -0.41811913
11557 -0.27155566 -0.21171585 0.037676346 0.10798521 0.00013302072 -1.1330138 -0.58296585 -0.7781123 0.9463016 0.5651836 -0.5704943 -0.40589193 1.0600731 -0.98754996 -0.73857814 0.6387614 -0.71831316 -0.2672329 -0.70926076 -0.17363767 -0.6703384 -0.14785585 -0.28610888 0.32103744 -0.045708824 -1.6208688 -0.9110774 0.54029125 0.045610316 -0.864337 0.6586553 0.23681699
25396 -1.0465573 -0.86016345 -0.36161307 -0.28604776 0.54456496 0.05239731 0.022814738 0.35997847 -0.23053238 -0.42055652 -0.39673612 0.08233057 0.2968949 -0.015367725 0.22542898 -0.5474551 -0.09923449 0.4751253 0.012266562 -0.27467206 0.25254938 0.5066454 0.57557124 -0.53194183 -0.34365952 -0.27322182 -0.5201968 0.66252905 -1.3641688 -0.9676946 -0.11647214 -0.15955673
5695 -0.025575427 -1.1377951 -0.49890485 -0.0062364237 -0.14172013 0.0009557435 0.074900724 -0.51310515 0.40640843 0.47242388 0.2514858 1.0757449 0.7655957 -0.62303406 1.1292373 -0.15046613 -1.4301462 0.18636101 0.0026744022 0.37535664 0.624686 -0.011732454 -0.16284743 -0.018528216 -0.62449646 -0.62329555 -0.43086457 -0.11529044 0.8757069 0.21691203 0.19823892 0.13280936
19640 -0.59114873 -0.140686 -0.16760132 0.061638545 0.6421613 -0.4446418 0.39638788 0.2897345 -0.8495065 0.20636734 -0.1432164 0.6398951 0.30586675 -0.5926014 0.17894877 -0.32913387 0.20507756 -0.28939235 0.38561448 0.5640939 0.09961886 0.6770846 0.070662364 0.8542627 -0.3278393 -0.20128804 -0.9231855 0.69348645 -1.4032887 -0.007939246 -0.35837677 -0.57938015
23708 0.26864424 -0.5495724 0.15472569 -0.2931368 1.1768755 -1.1494082 0.5109779 -0.83919746 0.20395337 -0.19853376 0.33311602 -0.26900017 -0.18527819 -0.2875333 0.10917428 -0.45104492 -0.7876452 -0.28149578 0.0016754885 0.1871553 -0.37479264 0.22621709 -0.32602146 0.8590026 -0.12294352 -0.8618593 0.24776265 0.34696263 -0.39375284 -0.21438484 -0.52216566 -0.94202965
7442 -0.5114088 -0.38486364 -0.5859776 -0.37209943 0.47707325 -0.49141392 -0.5155801 -0.08307164 -0.12462805 0.32630804 -0.23606881 0.84918064 -0.31473744 0.15022407 -0.32485265 -0.025438821 -1.1383486 -0.1835499 0.38931677 0.2726075 0.34848794 -0.26958513 0.16242106 0.14405951 0.1146364 -1.7629267 -0.2630533 0.13800867 0.14104964 -0.816004 -0.7574515 -0.4486421
13614 0.16111264 -0.59319925 -0.08660301 -0.9121096 1.1140331 -1.1502161 0.9324793 -1.0660119 -0.49639136 -0.5107293 0.27586365 0.010876428 0.4877972 -0.412084 -0.07978357 0.22696586 -0.597482 0.07355527 -0.020322891 -0.22895788 0.016363436 -0.1133632 -0.41205058 1.0692147 -0.1208803 -0.70818573 -0.7213685 0.16208917 0.16470025 0.3544751 0.3447753 -0.543042
17038 -0.0537526 -0.25114438 0.8511467 0.21657525 -0.11063907 -0.4586828 -0.43250382 -1.0475861 -0.7468566 0.4240272 -0.40015423 -1.2784595 0.6971948 -1.076185 -0.3010936 -0.29273677 -0.104702406 -0.63026196 -0.6656921 0.8731863 0.20574057 0.09148168 -0.024089625 0.19021106 -0.99021935 -0.6719699 -1.0812893 0.17306177 -0.93482274 -0.010602924 -0.41191196 0.35922045
21994 -0.62214684 -0.35073632 0.5057328 -0.39503023 0.27762425 -1.0186328 0.74750245 -0.76442045 -0.16986653 0.18166576 -0.08649912 0.30901772 0.56318814 0.35566518 -0.40960735 -0.095403485 -1.1349324 0.65975195 0.15682912 -0.60539716 0.93692416 0.8285352 -0.5545006 -1.2779351 -0.32091123 -0.86150485 -1.369655 -0.6565124 -0.7605092 -0.35106233 0.74981844 -0.5667541
22366 -0.73479533 -0.47579306 0.86822605 -0.28927228 0.39889705 -0.13056275 0.19241314 0.024944492 -0.6967757 -0.0366942 0.5139336 0.838884 0.71162885 -0.3878647 0.3757937 -0.22644386 -0.6610144 -0.0574039 -0.19402005 -0.97318506 -0.5927277 0.66546446 0.100975655 -0.71671015 0.13986579 -1.203352 -0.12106383 0.39656264 0.44360277 -0.38638154 0.38124254 -0.55092645
12587 0.011123676 -0.46566555 0.6586347 0.111537695 0.19948593 0.17841172 0.33152992 -1.2513597 -1.6727262 -0.4035865 -0.48585016 0.17727344 0.9423531 -0.32609478 -0.35798004 0.67092055 -0.6479398 0.77697533 0.26586923 0.21078587 -0.040978204 0.51597863 0.6300433 0.62189555 -0.1612531 -1.2309816 -0.2422356 0.33437738 0.4602092 0.043525785 0.4654853 -0.5175759
9471 -0.31635115 -0.15110523 0.33108306 -0.27878574 -0.018943153 -0.9743477 -1.0274152 -0.093385205 0.58535534 0.47442487 -0.53150934 0.27416125 0.42100048 -0.05622698 -0.36435285 -1.1775461 -1.4271958 0.073117115 -0.71843094 0.23275234 -0.26913917 -0.75134325 0.47729716 -0.12699975 -0.085430294 -1.4195869 -0.45870054 0.96407515 0.31075686 -0.79936296 1.0593907 0.22353701
23939 -0.68010765 -0.09084751 -0.61796945 -0.03910727 -0.20321545 -0.561765 -0.28622043 -0.4544795 0.2780504 0.1318638 0.70841753 0.34352025 0.7967244 -0.7052906 1.5614393 -0.23236218 -0.59216607 -0.33221477 0.40946236 0.685028 1.0015585 0.20421813 0.5176341 0.016639931 -0.050460715 -0.4878148 -0.5113538 0.45442167 0.20926501 -0.24619935 -0.0077498034 -0.13245925
12491 -0.60043544 0.70518446 -0.5521707 -0.11546503 0.4039351 0.15410785 0.6542514 -0.84574974 -0.3080661 -0.15879838 -0.32872584 -0.5432459 0.8002176 -0.5997312 0.98056686 -0.7806779 -0.5092561 -0.37646523 0.12385446 0.09173091 -0.809402 -0.5853675 0.0858528 0.18634665 0.99420667 -1.6921792 -1.3443162 -0.5891508 -0.79720986 -0.37446305 -0.58146733 -0.19182666
2054 -2.6572764 -0.4606512 1.3482317 1.100427 0.8728681 -1.0552776 0.5686658 -2.4802327 -0.345927 1.396878 -1.7031693 1.2048334 3.1515613 0.5850321 -0.61330247 -0.3636799 -2.456021 -2.143667 -0.52996486 -0.07283894 -1.780364 -1.6931298 -0.013057454 -1.1216644 0.60594314 0.6266194 -2.598586 1.1015021 -1.750817 -0.75670516 1.5315315 -0.8131082
21379 -1.5991771 -0.21937576 -0.34404206 0.07951082 0.0014784635 -0.6058643 0.7799913 -0.26549086 0.0017000084 0.103853576 -0.6085448 -0.16035877 0.6111454 -0.17239259 -0.05692437 -0.18624297 -0.2060834 0.20181051 0.16660161 0.19104671 0.04261508 1.1981835 0.10506294 -1.0269595 -0.08942386 0.10870933 -0.26940536 -0.1925833 -0.40444684 -0.22090074 0.13325702 -0.91744953
14149 -1.5762206 -0.28955832 -1.3498662 2.4665716 0.86870676 -0.19583985 -0.24967548 -1.3451049 -0.3311623 -1.22235 -2.399844 1.5835452 2.9636893 -1.2576969 -1.6924642 -2.0533767 -1.5498353 -0.61982477 0.11157522 0.5453613 -1.4471871 -0.68558705 -1.1787524 -1.2295346 -0.29267657 -2.7198384 -2.1605287 0.537152 -0.6269293 1.3356689 1.184701 0.09507926
13384 -0.4743525 0.3207148 -0.40725705 -0.26739845 0.33705518 0.1717669 0.1152556 -1.094096 -0.69393724 -0.5150282 -0.0026394192 -0.09637735 0.9159097 -0.5746543 0.87355936 -0.52365035 -1.0117595 0.07234187 0.22241439 -0.12682468 -1.2796547 -0.80666554 -0.37474623 -0.06795256 0.54144067 -1.4132894 -1.0062094 -0.8758996 -0.8726153 -0.4112259 -0.57803476 0.020362983
6154 -0.9922694 -0.42547598 0.3706244 -0.07295961 0.0019346894 -0.34270906 -0.26845896 -0.74500865 -1.1985393 0.26228863 0.18666875 0.081977285 0.8465093 -0.7315653 0.12450636 -0.23597386 -0.48185438 -0.3962456 0.18934287 -0.009883469 -0.5875575 -1.1964157 -0.23558857 0.048026655 -0.32884568 -1.3989023 -0.99888724 -0.8473907 0.22026406 -0.053330842 -0.9325814 0.3784088
10791 -1.0426298 -0.25424016 0.6191584 0.035906535 0.11472151 -0.55872226 -0.3696015 -0.2857685 -1.4541936 -0.085238345 -0.18259096 0.49785227 1.0216868 -0.43601185 0.39810508 0.11001556 -0.33839872 -0.119295545 -0.2050254 -0.02621839 -0.7272464 -0.72802746 -0.004601941 -0.06776808 -0.070424184 -1.2790722 -1.1263245 -0.99947006 0.52885926 -0.34408474 -0.080467045 -0.029252565
8612 0.30807623 -0.5348127 0.3755372 0.12809819 0.73059595 -0.27298084 0.59952104 0.026922971 -0.5625669 0.25592056 -1.1561002 0.37318832 1.1745889 -0.8675693 0.8864141 -0.41306552 -0.48112914 -0.6847236 1.0206656 -0.38744807 -0.45879 0.68656415 -0.060953844 -0.76543903 -0.22451845 -0.11253867 -0.18736362 0.58986354 -0.07880312 -0.478621 0.3768534 0.41455734
24097 -2.0401158 -1.0381615 -0.029267326 -0.14388728 -1.153809 -0.6039665 -0.19236536 -1.0613528 -0.24239318 -0.027224235 -1.2087097 0.88626564 1.546834 -0.19881795 0.5370061 -1.1098136 -0.7444261 0.18260597 -0.06055624 1.0905161 -0.6758287 -0.53263485 -0.2848007 0.70793134 1.3263773 -1.0666732 -0.4893911 0.8532456 -1.0324299 0.11987225 0.9599304 0.9148628
9889 -0.99205834 -0.23631777 0.1857714 -0.34917116 0.8824548 0.13409942 0.19722764 -0.58180356 0.43292767 0.8791729 -0.4357397 -0.7363105 0.667775 0.37123707 0.416624 0.1501671 -0.6901994 -0.15737946 0.4654675 1.4167842 0.37013972 0.7692614 0.49913234 0.005822136 0.17595933 -0.31583825 -0.23223072 0.7828346 0.6118504 -0.33155975 0.18961775 0.008837291
20716 -0.61957407 -1.1550953 -1.0200492 1.2145401 0.49276754 -0.64606154 -0.38105384 -0.41567466 -0.7034786 0.5366905 0.037417747 -0.027274203 0.19135362 -0.5194237 1.1036593 -0.18437326 -0.51194346 0.18781878 -0.5620426 0.86246455 0.61426914 0.13069262 0.048720583 -0.1343258 -0.24740863 0.085697874 -0.71127975 0.53093266 0.30894655 0.059095427 0.15840302 -0.4679726
8768 -1.6246195 -0.23613149 0.07879068 -0.8103645 -0.3470531 -0.37809733 0.14120683 -0.12978755 -0.021569861 0.00805604 0.13864501 -0.16017075 0.6846561 -0.3373433 0.56261724 0.0952571 -0.64926714 0.50090957 -0.11598389 0.30562305 0.394458 1.0646813 -0.07857494 -0.98994577 -0.4390643 -0.34447992 -0.6108363 -0.55434024 -0.41545403 -0.38244665 0.02778811 -0.8612503
5621 -0.8711093 -1.0653266 -0.61203915 -0.50580883 0.3973098 0.050877318 0.47124293 0.20033787 -0.290781 0.045810446 -0.51407814 0.46050477 0.40934107 0.14641628 0.17831022 -0.13794433 -0.1476061 0.39490467 0.10850472 -0.42110932 0.18555565 0.51947296 0.40984902 0.0030553746 -0.508295 -0.14185883 -0.51827854 0.44724402 -1.2497511 -0.97464556 0.44887552 -0.7513882
16006 -1.2012149 -0.15576304 -0.029687421 0.06883237 -0.5139938 -1.2276722 0.8653297 -0.8537209 0.0020095636 0.037388645 -0.33121112 0.67165977 0.45919797 -0.094732635 -0.7834742 -0.78402007 -0.75377077 0.6902939 0.31193233 0.006067355 -0.17103915 0.6238672 -0.48447654 -1.2134212 -0.32597306 -0.22963554 -1.4634292 -0.266464 0.017282782 0.08408376 0.20802131 -0.39958596
4846 -0.725651 -1.257439 -0.4815451 -0.06479518 0.20651482 -0.33416826 0.9621455 0.08598457 -0.28615898 -0.084736764 -0.27312377 0.13579045 0.3106426 -0.566991 -0.7389502 0.08310916 -0.5920459 -0.10973331 0.13190058 0.23209049 0.86367124 0.19115575 0.76515335 0.264446 0.110682465 0.1682342 -0.46094915 0.38512895 -1.1010784 -0.40934056 0.2675678 -0.29538682
14430 -0.88234645 0.21072169 -0.0005049346 0.17698656 -0.22665069 -0.17400092 -0.01503239 -1.2128899 -0.7469364 -0.026143543 -0.20692554 0.08276916 0.6486024 -0.31383324 0.73254013 -0.68876076 -1.1293622 0.08001997 -0.043521274 -0.024284875 -0.8065565 -0.73071754 -0.20997992 0.06368117 0.07751778 -1.5906367 -0.6435456 -1.3721964 -0.37528846 -0.5702016 -0.9980359 0.25112098
19675 -0.36226815 -0.9261236 -0.03129036 0.040542893 -0.25521 0.67660415 -0.04713477 -0.953875 0.21266763 0.2733312 -1.1614766 0.38960055 0.51774454 -0.6411265 0.36855963 -1.4102887 -1.6746113 -0.19924234 -0.96546775 0.008054327 -0.38522917 0.050043993 0.77605754 0.8517812 0.020307755 -0.71818346 -0.51070076 -0.42775783 0.45878834 0.12029894 -0.9247738 -0.507181
10055 -1.0178138 -1.1999408 0.1891881 -0.027536428 -0.12948498 -0.8490868 0.89380103 0.11136086 -0.34336337 -0.4029747 -0.11337982 -0.69659156 0.90636367 -0.47066775 0.5595012 -0.69353706 -0.58528304 0.43799135 -0.16980621 0.24232414 0.11836827 -0.4639693 0.5024093 0.4730743 0.79462767 0.15191048 -0.5192707 1.0377988 -0.14574859 0.063680895 -0.17673229 0.6845331
11293 -1.2021222 -0.7457737 0.8512683 -1.4045004 1.0440289 -0.4674444 -0.45586866 -1.0592633 -0.6412011 -0.11063046 -1.1363052 0.21772894 1.5383373 -0.40262517 -1.0800555 -0.05623516 -2.0279503 1.0187179 -0.61838925 0.1787698 -0.6022207 0.20240809 -0.89719874 -1.0593252 -0.31246945 0.16032894 -0.9737617 0.37140855 -0.15663165 1.0942357 0.13039435 -0.8761382
11077 -1.6452624 -0.16449697 0.2623244 -0.107793465 -1.2198329 -1.0859987 0.9922684 -1.2905682 0.043912172 -0.03614765 -0.45295495 0.5560313 0.7267031 0.4473423 -0.6559695 -1.2570145 -1.4320747 0.5274119 -0.4819519 0.10236101 0.09753259 0.08646778 -0.35448974 -0.28984052 -0.069097936 -0.36837798 -1.0147399 -0.5950426 -0.7554168 -0.9361112 -0.039868925 0.56094414
482 0.02825353 0.52920175 0.17318577 -0.88766104 0.38468048 -0.97303456 -0.6877054 -0.05299732 -0.26935852 -1.0462161 -0.61597997 -0.21484661 0.6803293 -0.89807844 0.6360266 -0.55739385 -1.869123 1.154987 -0.123944454 -0.09073928 -0.97097427 -0.046740856 -0.26939762 -0.30940157 0.23751551 -0.92448074 -1.0852062 0.16201782 -1.3440957 -0.09034492 0.10536574 -0.17942195
22601 -0.5660609 -1.5400643 -0.8878683 0.9977001 0.90744865 -0.7056677 -0.7781338 -0.76843905 -0.72561663 0.35818255 -0.34768993 -0.2928197 0.80161804 -0.3158462 1.4337449 -0.21685073 -1.076866 0.6602774 -0.70972383 0.19235712 0.63832456 -0.21259199 -0.7466029 -0.10939202 0.14875987 0.42708203 -0.8014959 0.45118913 -0.5930123 -0.26852584 0.3302411 -0.7714594
11015 -1.3135456 -0.52882725 -0.3156655 -0.5059023 0.11583827 -0.23670787 0.3798247 0.32448432 0.024614979 -0.051209193 -0.3163893 0.31898236 0.5269826 -0.21843292 0.40498894 -0.16667873 -0.26349425 0.5151854 0.024917519 -0.21607196 0.34783092 0.5698124 0.31683248 -0.8812471 -0.4397846 -0.1074512 -0.49039868 0.12709169 -1.464772 -0.67270154 0.26006556 -0.879765
7985 -0.18670608 -0.6811081 -0.3048218 -0.8572161 -0.1254524 0.028553713 0.37520096 0.46908078 0.33709976 0.009980717 0.23139389 0.2692238 0.85096735 -0.92392737 0.09052396 -0.57112217 -0.46432075 -0.29085344 -0.7369822 1.1179531 -0.41295364 0.038435288 -0.11719343 0.06330851 -0.78384215 -0.6543261 -0.045514703 0.24741128 -0.62555516 -1.4403952 0.77691966 -0.1286634
12453 -0.8382788 -0.50305676 -0.49589252 -0.1355638 -0.16917156 0.3622807 -0.13398743 -0.74954015 -0.3681558 0.05278498 -0.9408662 0.4154142 0.7611999 -0.253742 0.24715243 -0.611062 -1.1849568 0.39197937 -0.4052694 -0.48042327 -0.6096177 -0.5718326 -0.41143563 1.0089087 0.09124889 -1.6431165 -0.62848157 -0.21452002 0.6470839 -0.596627 -1.1339431 0.4318255
18940 0.07163321 -0.35533962 0.6732299 0.380784 -0.520474 -0.24926348 -0.89990777 -1.0411074 -0.47711778 0.8049432 0.23810077 -0.12686764 0.56958276 -0.15102887 0.76223797 -1.1455559 0.018784804 -0.31650418 0.52748287 0.32343957 0.074825324 0.07934455 0.74067485 0.5582817 -0.5766676 -0.6535795 -1.0012285 0.31643003 -0.5188065 -1.0234718 0.23234606 -0.053633265
11785 -0.3351733 -1.3835162 -0.3738957 1.0651175 0.5142144 -0.087747954 -0.22147131 0.18071139 0.071700945 -0.24095681 -0.55180156 -0.1032611 0.19985892 -0.41748586 -0.30859318 0.12745033 -0.3341553 -0.29205173 -0.3314269 0.8309828 0.8272253 0.57492644 0.7735359 -0.6032876 0.14332372 -0.2834631 -0.85709804 0.4804675 -0.20308168 -0.4468334 0.15520681 -0.14208904
9639 -0.7467326 -0.07280215 -0.6650446 0.59106606 0.3645293 0.26984426 0.97463 0.08633936 -0.6978225 0.45304775 -0.29109627 0.558989 1.2744834 -0.3664421 -0.17361152 -0.9173917 -0.20149666 -0.53586054 0.1218405 0.4314786 0.29383302 0.33756214 -0.32274354 0.76115906 -0.6282227 -0.65475386 -1.1502593 1.0599668 -1.6117527 0.62686574 -0.13701464 -0.013281368
20879 -0.6879683 0.07323185 0.37279898 0.08004937 -0.072210066 0.22613719 -0.29158443 -0.7860599 -0.25159505 1.3672669 0.3427446 -0.20178506 0.16352403 0.44470575 0.15419246 -0.928943 -0.9365303 0.39175662 0.0044891187 -0.10762189 -0.08727436 -0.36739212 0.61436826 -0.3081474 -0.58508 -1.2713674 0.15075658 0.7461254 0.3306479 -0.7773765 0.39575753 -0.65816456
8116 -0.67306185 -0.03611556 -0.7573096 0.22122855 0.77934027 -0.17749919 0.7511297 -0.26820594 0.5866743 0.84625685 -0.7914466 -0.106122866 0.8339038 0.10906422 0.103896886 -0.90546274 -0.30869025 0.47240198 0.36015034 0.8126278 0.3269237 0.8470119 0.7608419 -0.38639292 0.7869946 -0.5085441 -1.038563 -0.5590897 0.19245279 -0.07808446 0.6699092 -1.0368581
15552 0.015849845 -0.3584952 0.023576308 0.89578885 0.834687 -0.6099511 1.1663233 -0.667832 -0.35784325 0.41086826 -1.0973151 -0.15415156 0.32328585 -0.9390204 1.007659 -0.7643857 -0.14054593 -0.045396566 0.7168088 -0.2472215 -0.113505185 0.79641664 0.04967368 -0.19124529 -0.19675513 -0.40898538 -0.47394124 0.40707475 -0.23941055 -0.5794751 0.29871735 0.57031006
24293 -0.96376455 -0.33190072 -0.021776192 0.1030316 0.25041905 -0.48881155 0.45996195 0.245614 -0.33562523 0.15182595 -0.46127123 0.9979513 -0.38751775 -0.53652316 -0.21341911 0.42459095 -0.6488165 -0.12839831 0.3636331 0.8876591 0.527231 0.35127494 0.7594324 0.7045193 -0.17386904 -0.53227574 -0.8714486 0.6366358 -1.3207352 -0.3536045 0.048917055 -0.42681885
7264 -0.79109216 -0.19551969 0.21717502 -0.6394745 0.2215446 -0.38556436 -0.16930291 -1.1914179 -0.5796979 0.18141334 0.06184806 0.28879142 0.37138388 -0.46335617 -0.36788836 0.12958655 -1.5161281 -0.20598163 -0.1951087 -0.53658587 0.30106786 0.75847775 -0.06585561 -0.36466023 0.031861413 -0.71331877 0.43496677 0.6285309 0.5173081 0.0006528999 -0.06698551 -1.0088705
1545 -0.598211 -0.47864243 0.018221477 -0.27331367 0.5655221 -0.8836216 -0.08699689 -0.053971414 -1.6968668 0.017690787 -0.3704694 0.14853193 0.8835163 0.333219 0.4424425 0.5907971 -0.43080333 0.07901813 -0.37455824 -0.37626213 -0.70892644 -0.59458125 0.3480299 0.59426695 -0.6460483 -0.79464626 -0.8162767 -0.7746102 0.37063462 -0.4220861 0.06075072 -0.34045464
2980 -0.24299195 -0.9088538 0.38442257 0.36157772 -0.05789823 0.31362477 0.7048649 -0.30449814 -0.2208099 0.27634788 -0.9177069 -0.36431575 0.96756023 -0.42222318 0.052898914 -0.11877137 0.102237366 0.6137331 0.70615155 0.6406555 0.48798186 0.23709172 0.832741 -0.062355675 0.09981762 -0.2152384 -1.1372467 0.6550881 0.1140432 -0.28172395 0.2359561 -0.19772376
7154 0.122517474 0.031691264 -0.10226882 -0.7310779 -0.9032355 -0.5134936 0.02994873 -0.37462422 -0.35406333 0.56139535 0.14476979 -0.75486135 0.90991664 0.6277042 0.07731995 -0.73063314 -0.9373166 -0.5936586 0.13464165 -0.038343895 -0.41633996 0.75510144 -0.45432767 0.292243 -1.0259864 -1.9489154 -0.34581906 0.27532974 -0.11262759 0.17261906 0.16618013 0.40820867
8254 -0.27806956 -1.0651218 -0.44889984 -0.3053807 0.3825746 -0.80425733 0.01956931 -0.13670695 -0.67914766 0.12198793 -0.97852474 0.384077 0.682538 -0.8152137 -0.108675584 -1.0424839 -0.3426489 0.08971302 0.25548455 -1.2650998 -0.3883851 -0.34787893 -0.6617373 0.035914097 -0.90017647 -0.9255995 0.13077302 0.8944545 0.38258204 0.7906072 0.19978136 -0.8138922
24718 0.21700759 -0.4587583 0.33846015 0.06763244 0.5285281 0.33170012 -0.81522185 -0.7114469 -0.27001467 -0.3767966 0.32527837 1.1223358 2.1468205 0.0271555 -0.39083433 -0.20789364 -0.79498047 -0.85073 -0.03580736 0.49117702 0.14444382 -0.110640496 0.30628487 -0.8817305 0.3600846 -1.1394167 -0.88652533 0.054339696 0.13926806 -0.61983114 -0.543203 -0.41426626
8177 -0.9522787 -0.061435327 0.9797594 0.42218393 2.41361 -0.842962 0.8172697 -0.7888445 0.21187533 0.78481483 -1.3634391 0.58329827 3.1190677 0.0035544732 -1.8525559 -1.6584283 -2.421239 0.1751699 0.47502822 0.25419974 0.044723034 -1.7710352 0.63917613 -0.8531973 1.5058472 -1.017352 0.2909319 0.75634277 -1.1842529 -0.41887507 0.38071263 -0.4567994
21968 -0.42656532 -0.20283024 0.7053208 0.025145315 -0.2577616 0.15234521 -0.88917524 -1.6655942 -1.091531 0.60511434 0.029967949 -0.9506209 0.7433296 -0.63149124 0.027868392 -0.7013136 -0.8373427 -0.29419777 -0.45622504 0.44549176 -0.09945188 -0.3013584 0.26098713 0.20420325 -0.87487054 -0.9236312 -0.8682764 0.3866665 -0.5239836 -0.0892207 -0.6282258 0.8533492
18365 -0.3997118 -0.79545224 -0.7353075 -0.65608156 1.2385294 -0.45393258 0.89402 -0.53372705 -0.9245757 0.47149584 1.0318475 -0.15839191 0.59931755 -0.693753 -0.76260996 -0.6145591 -1.1654085 0.19451484 -0.049826026 -0.059706982 0.013704569 0.18815833 0.6868283 -0.042632844 0.36369947 -0.028041812 -0.26301315 -0.22988456 -0.13332555 0.21172647 0.4409531 -0.46121132
3547 -0.3281955 0.13390847 -0.6458671 -0.10647354 1.0730814 -0.34955782 0.79534537 -0.63439727 0.24357235 -0.1423648 -0.031172836 0.14499724 0.6409505 -0.6635025 1.6253567 0.28925586 -0.73706555 -0.21910281 -0.4305676 0.3340493 0.49086103 -0.5444228 0.08980064 0.6361635 -0.07389686 -1.1844503 -1.410397 -0.25932586 0.14292902 0.75228846 0.6112422 -0.27504656
9482 0.09743474 -1.1108928 -0.053856786 0.5266536 0.28328422 0.15579766 0.86251944 -0.41315472 -0.30684078 0.9303443 -0.90164995 -0.26051858 0.7002098 -0.82153994 0.80017775 -0.39844146 0.05626858 0.4138021 0.91682124 -0.25030506 -0.06300421 0.34353605 0.4771949 -0.7072255 0.2900509 -0.13222516 -0.596518 0.7459832 -0.5156303 -0.46236384 0.1402095 0.11921471
21432 -0.89029926 -0.633086 0.3761227 -0.11744923 0.076399855 -0.7266456 0.2038847 0.2876736 -0.10810025 -0.0833582 -0.17509437 -0.23746929 0.48477015 0.035765395 -0.81200093 -0.61003184 -0.33381692 1.142141 0.69259393 0.009009427 -0.027403785 0.9304708 0.21265127 -0.86274403 -0.6616944 -0.52891564 -0.75876427 -0.054949395 0.024484979 0.30951896 -0.52749664 0.09508911
19489 -0.5706106 -0.7386405 -0.25055578 -0.46652922 -0.24529502 -0.0967944 -0.086609416 -0.83857083 0.009772153 -0.45770645 0.055796936 0.9254907 0.75191295 -0.2590967 -0.14441843 0.67765737 -1.3237562 -0.6071371 0.6686251 0.042377714 0.121295914 -0.17617029 -0.07827759 -0.40659642 0.66945004 -1.1926134 -0.06940116 0.6049319 0.40773594 -0.41837075 -0.3154949 -1.3513367
10871 0.111612424 0.19683266 -0.25192863 -0.65109414 0.54303515 0.108731166 0.04840474 0.03210252 -0.31607047 -0.99870944 -0.5924573 -0.2545534 -0.27530074 -0.98318154 0.046949763 -0.0877207 -2.0793998 0.18442349 0.7460857 -0.009619428 -0.8901924 -0.20542234 -0.17155425 -0.42186433 -0.44564003 -1.3917785 -0.694191 0.18294668 -0.7063174 -0.5350392 -0.26310727 -0.37963912
13346 -0.20229816 -0.2339766 0.77600783 -0.55110514 0.27530178 -0.2706138 -0.6809507 -1.365367 0.5389204 -0.14138247 0.62616026 -0.6184052 1.232897 -0.07921898 0.44276786 0.028241538 -1.1880492 0.17580865 0.33212584 0.23583409 0.31046894 1.4400241 -0.15793441 1.0164737 -0.0634859 -0.17907217 -0.65882045 0.8386467 -0.04524408 -1.011025 -0.07029339 -0.38159364
9591 -1.7905673 0.2375917 -0.9058049 2.0141156 -0.44299793 -0.98743397 -1.138485 -1.6710892 -0.59951794 -0.8227069 -1.1440316 -0.25544366 2.1069126 0.48548087 -1.1404606 -1.5545154 -2.515531 0.67620873 -0.7601611 0.74395823 0.52833605 -0.25826904 0.27145392 -0.7695432 -0.189222 -0.89908093 -1.2497447 0.91087395 -2.1957178 1.30964 0.8744978 -0.17069897
6218 -0.7075568 -0.61613744 0.29852155 -0.24741092 0.61531216 -0.8675309 0.6979952 -0.2816373 -0.78063375 0.1854484 0.114650704 -0.19890147 0.69794595 0.5845002 -0.6409597 0.25797543 -1.1074233 -0.11836044 0.25544766 0.74766916 -0.8325756 -0.54745615 -0.67480487 0.4700088 -0.75799245 -1.178665 -0.11671628 0.46658772 -0.32519022 -0.7381417 1.0416497 0.7744585
4364 -0.5368867 -0.18850803 0.07859477 0.28219506 0.7878282 -0.7768429 -0.6818503 0.16718033 -0.0450579 -0.15315364 -0.6529459 1.4608238 -0.08992343 0.20121591 -0.43845263 -0.61252636 -1.8145326 -0.25478932 -0.3939781 0.6993317 1.1135159 -0.7868908 -0.067840576 -0.007689657 0.04255022 -1.5589862 -0.8028121 0.6277406 -0.32412994 -0.8017334 0.15702537 -0.24976444
25286 -0.39937952 -0.016138867 -0.1422613 0.83560026 0.821436 -1.0801737 0.9628592 -0.6870418 -0.08388079 0.50070935 -1.02431 -0.4878305 0.31827602 -0.9726864 1.2226732 -1.0444372 -0.53243196 0.3634864 0.42052418 -0.67171544 0.12602255 0.7507423 0.14810033 0.51497567 0.09824006 -0.58210933 -0.3586093 -0.14274485 -0.149963 -0.301705 0.91354036 0.41857952
17379 -0.05281789 -1.1954613 -0.26716208 0.7031459 0.47368655 -0.8862303 -0.41939294 -0.6730169 -1.1397171 -0.8006066 -0.30893013 -0.2696143 0.65784556 -0.65752167 0.74094605 -0.71432185 -0.40887305 0.86866885 -0.77717656 -0.7814767 -0.26007098 -0.3957056 -0.2312445 -0.28829017 -0.42613 -0.5408875 -0.13018662 0.5131689 0.48509288 -0.066871725 -0.24955788 -1.0647855
3310 -0.37798014 -0.76279134 -0.72792166 -0.41381344 0.6592207 -0.26789027 -0.22500442 -0.5234536 0.7779711 0.106129 0.5492186 0.43464947 0.80590415 -0.5500602 -0.50678027 -0.110713854 -0.31225285 0.79100424 0.34675255 -0.3770061 -0.68108094 0.37065068 0.67808366 -0.50651747 -0.44940883 -0.21151341 -0.6396917 0.4801547 -0.5850227 -0.5027714 -0.91022533 -0.7826137
17113 -0.030946027 -0.26361698 0.83899564 0.055603698 0.19948567 -0.7660621 -0.89179164 -0.9096777 0.23221906 0.6530607 -0.39186487 -0.5988928 1.2242457 -1.3028995 -0.40491074 0.23268068 -0.20865029 0.12109544 -1.0978049 1.0398993 -0.023706486 0.37712574 -0.23084532 0.011464586 -1.134914 -1.136054 -0.5825617 -0.06305288 -1.2875134 0.07529496 0.08869412 0.28080732
8471 -0.9921809 -1.1594341 0.42879298 0.27626967 1.3525383 0.5338757 -0.07150569 -0.8532337 0.31303954 0.112922 0.47000057 -0.062126387 0.48755112 -0.06667805 -0.051107135 -1.3657362 -0.31235495 0.6414431 -0.13106044 0.48374742 -0.6103005 -0.0683889 -0.6736007 -0.71941423 -0.4027912 -1.3302269 0.34629756 0.8976302 -0.4433631 0.22658205 0.49339318 -0.1076568
10350 0.2742846 -0.39386964 0.3712635 -0.35651234 0.9795853 0.6446861 -0.6740476 -0.73103285 -0.23971397 -0.07051489 0.38429213 0.91182005 1.9866437 0.067189656 -0.4022013 -0.54130256 -0.9902939 -0.19810282 -0.049281467 -0.30020484 -0.277086 0.28821164 0.0011236442 -1.0197707 0.06981929 -1.2630043 -1.2123996 -0.121240854 -0.2584665 -0.5558856 -0.89584583 -1.0620172
9241 -0.63221556 -0.9941594 -0.24076407 1.1092856 -0.34380457 -0.8418336 -0.45331365 -0.21129382 -0.16488987 0.48212105 -0.076952755 0.27852815 0.7139005 -0.8775635 -0.050846018 -0.6905054 0.5114281 0.569352 -0.054062292 0.12249025 -0.5771098 0.41533488 0.56786734 0.629915 -0.29824406 -0.5107215 -0.27840284 -0.42109832 -0.97275716 -0.25685605 0.2165114 -0.9807453
14952 -0.23036328 -0.8904064 0.29537076 1.020527 0.49844012 -0.37108076 -0.88004893 -0.66576976 0.5212208 0.846043 -0.21070988 -0.47604752 0.90618104 -0.6197777 0.09491985 -0.6452022 -0.0943736 0.7089197 -0.071350046 0.08519968 -0.43086565 -0.0462937 0.5045553 1.0306705 -0.565888 -0.76706064 -0.24284582 -0.57414466 -1.5852396 -0.43090424 0.45869905 -0.49376073
23665 -0.34100923 -0.025260799 0.69016486 0.6091424 -0.46966898 -0.03402653 -0.9481387 -1.8928237 -0.9379996 0.28531504 -0.07679127 -0.5212456 0.8925624 0.06080385 -0.19401808 -1.1073618 -1.9775168 0.37234154 -0.0029220958 0.028845208 0.50306875 0.40397936 0.6078272 0.73944503 -0.60228616 -0.9993685 -0.99362415 -0.013789295 -0.39266932 -0.3909195 -0.136599 0.9648909
3716 -0.14464931 -0.60728306 0.5840034 -0.5375313 1.1912199 -1.45976 0.90186024 -1.1293579 -0.62444615 -0.13255104 0.3730201 -0.06651418 0.97715116 0.5900383 -0.5329973 0.23822418 -1.615388 -0.5449842 0.095406495 0.4958252 -0.64862645 -0.65091157 -1.0507655 0.52380335 -0.35417813 -1.0988095 0.20575146 0.8035552 -0.5353084 -0.6769028 0.6662681 -0.27696645
22555 -0.9026107 -0.35136542 -0.27951652 0.11635077 -0.37375635 -0.33072382 0.25910938 0.13643384 -0.4098772 -0.4379842 -0.5879956 -1.462622 1.0984956 -0.7208054 0.47304106 0.29360753 -0.71079504 -0.26543584 -0.31847453 -0.7344522 -0.4615748 1.0429486 -0.45028117 0.9353262 -0.2861894 -1.7481145 -0.407472 -0.059683014 -0.07675177 -0.068341576 0.05386253 -0.10135903
21943 -0.13740295 -1.7287778 0.48479062 -0.6378172 -0.03415455 -0.5168312 -0.06225895 -0.37276283 0.3819806 0.8232406 -0.58258426 0.07630216 0.043980207 0.4812347 0.29746297 -1.1733315 -0.92895603 -0.017686224 -0.26601297 1.0584177 -0.95143265 -0.4195675 0.20714787 0.17254177 -0.32017007 -1.0402215 0.30749893 0.12976834 -0.3926612 -0.39076513 0.56356674 -0.33085188
12720 0.078714006 -0.4099546 0.6591293 -0.94278646 0.75983584 -1.5445228 -0.67243856 -0.63150734 0.04296355 0.18088984 -0.28322756 -0.017916372 1.9869041 -0.0524569 0.26243138 -0.44236025 -0.47023425 0.83298546 -0.3770935 0.6988437 -0.62231505 0.17655993 -0.32286283 -1.1524268 -0.67030495 -0.5943508 -0.18571818 0.4242484 -0.8948466 0.94965494 0.2517111 0.025645476
18140 -0.89896953 -0.5074053 0.49959886 0.14340726 0.9750385 0.14119951 -0.14400178 -0.6216282 -0.05646161 0.9439642 0.3820356 -0.084542364 0.06781373 -0.12050671 -0.09548763 -0.9989434 -0.38922805 0.22822875 -0.20542629 -0.31571606 -0.72742075 0.3210217 0.07999121 -0.7083854 0.103234924 -1.2799826 0.3370405 0.2249652 0.26151457 -0.7587964 0.55248916 -0.46665838
18719 -0.11067981 -0.160897 0.18179144 0.32551458 0.029127056 -0.12338663 0.5673165 0.124229535 -0.8656293 -0.37837577 -0.6012772 -0.51527643 0.8255023 -1.1103243 -0.04066343 -0.112423904 0.100482404 0.08306972 0.60542464 1.3014026 0.13652739 0.4215569 0.46544924 0.41094613 -0.022529518 -0.44315583 -0.86398166 0.81457984 -0.52813464 -0.23382488 -0.3851792 -0.45897228
22876 -0.036269497 0.37500912 -0.32153422 -0.3352114 0.47744632 0.46653295 0.4374197 -0.5780578 -0.22859164 -0.32194543 -0.2945735 -0.15949278 0.4391953 -1.2411991 1.2946723 -0.30455858 -1.7549881 -0.26805574 0.0009139078 0.0038906168 -1.0664774 -0.9979532 -0.2323624 0.53624916 0.5121481 -1.2438817 -1.0315275 -0.36098057 -0.94384176 -0.45228007 -0.3159898 -0.5557123
23967 -0.62128425 -0.27653232 0.11809659 0.20679101 0.5885814 -0.43931392 0.044154905 0.46851265 -0.067940414 0.13941607 0.0141078085 1.2805519 -0.24270768 -0.26334453 0.2610441 0.5147513 -1.5320224 -0.14570726 0.62838054 0.4665249 0.2923713 -0.31303933 0.04936293 0.32630488 -0.0734108 -1.1890471 -0.42352837 0.13816984 -0.10318917 -0.9701334 -0.2698734 0.0053398064
19048 -1.2109379 -0.3022774 0.29624572 -0.25905836 -0.74922514 -0.77573156 0.33105615 -1.2010534 0.77548057 -0.3338144 -0.4110322 0.17005281 1.1611408 0.46568316 -0.2634166 -1.2732593 -1.0559539 0.48763502 -0.06654984 0.60128164 -0.42849082 -0.47536382 -0.6651347 0.8974863 0.3228825 -1.1896707 -0.20002383 0.031852055 -0.22875819 -0.97287494 -0.3025925 0.65325415
15144 0.44214383 -0.4949948 0.8947058 -0.35585898 -0.30917767 0.09193101 0.3768363 -0.58950037 -0.5495873 0.49381134 -1.3319771 0.22160527 1.651547 -1.2804965 0.70661235 0.14282615 -1.025652 -0.19936089 0.522574 0.20674035 -0.79670656 0.48221445 0.33869752 0.7410003 0.11932725 0.08004645 -0.23874944 -0.118781246 0.16890498 -0.056990936 -0.38077462 -0.43070358
18540 -0.7420813 -0.26537606 0.26351923 -0.20743507 0.2017603 -0.6043408 -0.4123166 -0.0059910114 -1.1395409 0.11441559 -0.28171405 0.7575443 0.33440804 -0.9890844 0.26469392 -0.07022258 -0.79002213 -0.5094818 0.2123739 0.19267341 0.13850427 -0.74892056 0.03487934 -0.5300517 -0.31678742 -0.70780766 -1.0359042 -0.82239383 0.66664976 -0.4457872 -0.654508 0.07576658
18415 1.1641904 -1.1860211 -1.5217177 1.0486581 1.2050297 -0.7911404 -1.5243891 -1.3300711 -1.2543235 0.26371717 -1.9046682 -2.008978 2.3565557 0.71611196 -0.4143313 -1.6439824 -4.097501 0.8053462 0.8096482 0.86655366 -0.20155409 -0.596607 -0.4802846 0.40259185 0.8054264 -1.3311965 -1.1548976 0.8667625 -0.86561865 0.6502789 -0.60909045 -0.29050097
7504 -0.52759445 -0.33164325 -0.0722948 -0.062384237 0.44692323 -1.4379474 -0.24771744 -0.092501506 -0.4308759 0.09842577 -0.944141 -0.59704643 1.1426188 0.005464273 0.9461052 -0.25175318 -0.53774315 0.50299835 0.17937338 -0.40988055 0.29400465 -1.4282289 0.74299824 0.7034585 -0.43909955 -0.06469659 -0.6562783 -0.5901306 -0.3253163 -0.89954627 0.2715183 -0.7086388
5993 -0.7528165 -0.65952176 -0.34898454 -0.49435714 0.24146564 -1.1546162 0.083958015 0.1496181 0.30180755 0.14378445 -0.20871124 0.19354887 0.7100515 -0.43788427 -0.21060225 -0.6420137 -0.06457464 0.380915 0.28475106 -1.1495701 -0.58174056 -0.111003965 -0.41436613 0.34453714 -0.92803067 -0.97267944 -0.40132877 0.27333307 0.163489 0.50127405 -0.41818562 -0.7691101
13813 -1.5977709 -1.3245595 -0.31566182 -0.20393077 -0.33458954 -0.60695213 -0.42179 -0.36421853 0.20940991 -0.102069244 -0.2085436 0.2772381 0.54921603 -0.004202036 0.5499363 -0.52982986 -0.30538926 -0.20380577 -0.45992175 1.0894951 -0.91684926 -0.0062738387 0.819661 0.7338287 0.16216217 -0.8829123 0.026992742 1.045092 -0.4966079 0.0710914 0.5730233 0.62774175
17228 0.12763552 -1.7223626 0.84153765 -0.62649554 -0.18073751 -0.10652983 -0.0706764 -0.038368296 -0.13080595 0.7092088 -0.50560635 0.0137676 0.20530882 0.10835584 0.7358687 -1.6416981 -0.82946473 -0.056448195 0.13898961 1.0926 -0.948355 -0.74436057 0.40423378 0.168951 -0.58193034 -0.67611295 -0.32561764 0.052471902 -0.5949906 -0.16075458 0.5043084 -0.08232793
18453 -0.18085319 -0.07897543 0.51647407 -0.39605558 0.90428054 0.18612936 -0.33165696 -0.71574247 -0.61460155 -0.3247933 0.5314816 0.8611676 2.1871705 -0.094511494 -0.26826724 -0.05196222 -0.89990526 -0.30327058 0.088204324 -0.932614 -0.12605134 0.40931028 -0.08790774 -0.8946754 -0.022738028 -1.3774594 -0.40591332 0.35282877 -0.037989024 -0.39029536 -0.21742292 -0.6700161
21125 -0.8220151 -0.28737053 0.015403558 -0.2547091 0.095948376 -0.32311556 0.13378595 -0.67637515 0.25356418 1.0566194 -0.61516714 0.38188812 1.6185747 -1.0000966 0.12823759 0.22872108 -0.84814537 0.11335312 -0.4153832 1.680608 1.08516 -0.3798025 0.5849612 -0.0960489 -0.57189196 -0.5093895 0.3701386 0.66829944 -0.18586488 0.113289416 0.032480616 0.59106725
6823 -0.7758819 -0.88406104 0.1989716 -0.04199268 0.16321331 -0.30810204 -0.80098206 0.23055531 -0.6978998 -0.635314 -0.6534458 0.85734797 1.3095936 -0.4986738 -0.4031525 -0.46174666 -1.0596795 -0.93797827 -0.70188975 0.74803555 1.2036059 -0.725501 0.60968846 -0.96190375 0.7805713 -1.0757097 -0.8466981 0.18135963 -0.17065808 0.21093938 -0.3419127 -0.10443705
2165 -0.69582874 0.33021986 -0.51349026 0.15768152 -0.20466335 -0.0012852323 0.32021168 -1.5161823 -0.70333964 -0.19574448 -0.077233665 -0.34137866 0.6359015 -0.17666338 0.72885454 -1.0121158 -0.99625003 0.12963827 0.032666326 -0.13611874 -0.9543704 -0.6327127 0.0069926493 0.21217903 0.70173585 -1.4926382 -0.89233303 -0.85272306 -0.66103524 -0.716834 -0.69967484 0.3167227
7197 0.19363324 -0.49686894 0.23139994 -0.06422207 1.0017309 0.48260823 -0.64477277 -0.6312604 -0.50776094 -0.24801219 0.47700357 1.0240864 2.255035 0.11163676 -0.30528072 -0.4731617 -0.98268044 -0.40588704 0.29871103 -0.3662539 -0.11111355 0.01864337 -0.07264045 -0.87130386 0.02171533 -1.6249903 -0.7998511 -0.06731858 -0.22387557 -0.46551356 -0.60001934 -0.6884339
6023 0.28334767 -0.61572987 -1.0482482 -0.45822763 0.17705202 -0.78997314 0.10120456 -0.25351727 -1.093785 -0.049231596 0.37293187 0.11023084 0.72511274 -0.3023141 -0.18695898 -1.6489518 -1.2004076 1.4164256 -0.09913102 0.07672385 -0.5000318 -0.4736803 1.0449133 0.20723897 0.7187965 -1.1895962 -0.22353293 -0.042072922 -0.2440862 -0.55066746 1.0193864 -0.07622809
4755 0.23670088 -0.49394175 0.19726416 -0.10373682 1.0080034 0.5275244 -0.67316514 -0.60100406 -0.5276685 -0.1511219 0.44704333 1.0125676 2.270213 0.07623847 -0.33803815 -0.3591218 -1.0853611 -0.36456951 0.18673496 -0.32287794 -0.05874194 -0.046504214 -0.0062474003 -0.89881366 -0.0526062 -1.5904257 -0.7826121 -0.07232699 -0.2702616 -0.40288904 -0.6031842 -0.6804022
18215 -0.711029 0.11333417 -0.12303344 -0.022736687 -0.48650086 -0.40679935 -0.031232115 -0.5038523 -0.5133857 0.7078707 -0.7469399 0.9321096 1.9399834 -1.0166427 0.3293517 0.27975577 -1.5167395 -0.18147019 -0.35837308 1.3347318 1.1012199 -0.7451758 0.87414694 -0.70638156 -0.73282593 -0.5772936 -0.04431585 0.5601719 0.16889131 0.29722944 -0.18448389 0.46969113
10310 -0.1723576 -0.50574857 0.42127463 -1.0739739 0.5845513 -1.2781662 0.11428514 0.035503242 -0.6827065 0.0020903493 -0.20094877 0.5316991 0.49734312 -0.85972095 -0.012749554 -0.4209707 -0.0873683 -0.97511053 0.076989755 0.25981212 0.20903009 0.42964876 -0.44447875 0.9114761 -0.82772905 -0.020672703 -1.2515805 -0.28262675 -0.3294971 0.40161508 -0.48499104 -0.2484186
9579 -0.7117371 -0.41648832 -1.2988435 0.7932497 0.08784106 0.41816667 -1.9790874 -2.1923819 0.5578693 -0.0364636 0.18507607 -0.5262637 3.434098 -1.9463457 -0.6147829 -0.6780517 -2.9337795 1.2001063 0.1340858 1.3827573 0.08596218 -0.2758309 -0.13270245 -0.23374353 1.5643895 -1.521459 -3.0456765 1.9438725 -2.2731798 1.5083551 0.97668576 -1.113035
14123 -0.8627272 -1.4105558 -0.2569043 -0.43223184 0.21665503 -0.35850272 0.17456588 -0.16641676 -0.3078901 -0.28386757 -0.54208565 -0.5811212 1.2557985 -0.768683 0.10622282 -0.5513771 -0.2095776 -0.15028372 -0.5562612 1.039393 1.5540218 -0.71262825 0.1844024 0.09180593 0.59837 -0.8064424 -0.09878962 0.73456293 -0.1828224 0.48043594 0.02858346 0.4977374
23452 -0.68420625 -0.757305 0.14649326 0.13787708 0.0736917 -0.002892314 0.40882763 -0.054314904 0.09131546 0.052335512 -0.82509685 -0.42588982 0.6326382 0.048015866 -0.27611768 -0.45255685 0.123111024 0.53814566 0.80354464 0.40967613 0.5017814 0.6144646 0.77952147 -0.629915 -0.33925214 -0.48826134 -1.2092348 0.33006042 -0.07878762 0.1537461 -0.43247795 0.21721756
16654 0.24054837 -0.51525974 0.15210831 -0.038853455 0.9791246 0.46569932 -0.6355807 -0.66503066 -0.4765874 -0.24833462 0.4202447 1.0465931 2.2653944 0.13310781 -0.35051727 -0.4020282 -1.0565631 -0.39011744 0.21123521 -0.44697055 -0.10940418 0.09829472 -0.00086843065 -0.92410725 -0.02761871 -1.6293447 -0.7346577 -0.09517041 -0.25238505 -0.42679876 -0.56775886 -0.6793779
17559 -0.8974791 -1.5433381 0.14962624 -0.450073 -0.16569667 -0.6967852 -0.36979753 -0.52364874 0.5389706 0.4345672 -0.06264407 0.12917481 0.265769 0.49360985 0.5290723 -0.78517514 -0.8012048 -0.32177708 -0.2782958 1.2788846 -0.8613542 -0.024210501 0.31762686 0.7068001 -0.32089865 -0.66243243 0.003731806 0.8103111 -0.072595514 0.3744375 0.46632904 -0.01602136
5156 0.8542353 -0.50141466 -0.6397287 0.015214635 1.7445217 -0.6738562 0.79380125 -0.41270787 -1.4496315 0.51810074 -2.0323215 -0.04972242 4.1218734 0.77298564 -0.73396784 -1.9878141 -2.539513 -1.7771021 -2.1465566 1.4803708 1.0666051 -0.6410208 0.31668717 1.3938031 0.43279302 -1.4808043 -0.8501852 0.14692959 -0.45538124 0.018843576 1.7119893 -1.792841
9656 0.13907343 -0.50868016 0.26252446 -0.04491693 1.0694534 0.4186359 -0.73777175 -0.64158124 -0.5247098 -0.26322085 0.45031813 1.0494269 2.2542922 0.12005679 -0.37026736 -0.48390785 -0.9896443 -0.39522997 0.28923798 -0.3751332 -0.09702926 0.004724311 -0.044448175 -0.87916243 0.019831719 -1.6173753 -0.76692796 -0.05735134 -0.2873764 -0.39556915 -0.5224411 -0.7249053
2535 0.15962528 -0.5116799 0.28993824 -0.06218039 1.0321608 0.511313 -0.7121167 -0.61999285 -0.5185047 -0.18664666 0.406798 1.0501511 2.245295 0.09244436 -0.3633016 -0.40450326 -1.0014298 -0.33915386 0.27163118 -0.42991388 -0.10635168 0.032849737 -0.093125686 -0.8940301 -0.04358646 -1.6386245 -0.804114 -0.09799887 -0.2995814 -0.4181526 -0.5907142 -0.7230138
17911 -0.9263199 -0.07003156 0.843748 -0.028171455 0.1223945 -0.11013029 -0.03909107 -0.12420728 0.5382204 1.2482605 0.13272268 0.3934918 0.5598672 0.31353557 0.5961609 -0.9118563 -0.97691816 -0.1367643 0.06037689 0.47377214 0.14538744 -0.33426625 0.75520635 0.41597962 -1.1139954 -0.65651125 -0.5742289 0.53348124 0.8003837 -0.6796966 0.73499715 -0.19603968
