1005 64
1 0.07907589 -0.01902143 0.59014183 0.52704805 -0.10736966 0.24372415 -0.23766641 0.51549333 -0.5978879 -0.13650309 0.69001234 0.11383 0.00951297 0.43124983 0.46075654 0.43598837 0.13805503 -0.75961494 -0.49104708 -0.19281527 0.26813668 0.018495388 0.50880253 -0.5188684 0.14245874 -0.82160676 -0.054350264 0.28336626 -0.04173005 -0.36835465 -0.49790987 -0.11818056 -0.23035243 -0.99632114 -0.7881477 0.2882216 -0.036332693 -0.3322049 0.28640836 0.060113434 0.3459239 0.43871084 -0.5460771 -0.100732625 -0.25051874 -0.32362965 -0.22752555 0.6338595 -0.20257992 -0.25464955 -0.701726 0.8641897 0.7446359 -0.83665746 0.56986177 0.07127423 0.27161783 -0.42324233 -0.52185285 -0.13200784 -0.37804303 -0.379595 -0.46935093 -0.37813118
130 0.15225108 -0.21929522 0.655846 0.35002342 -0.33252674 0.27811366 -0.25430918 -0.10687206 -0.51037574 0.21462291 0.57087517 -0.5123945 -0.4668051 0.06842447 -0.06373861 -1.1343058 0.06294411 -0.84562844 0.4656071 0.0935742 -0.48919111 0.07091374 0.23791122 -0.44675708 0.3968333 -0.32428494 -0.4823562 0.030587982 0.0028871193 -0.56492436 0.26750943 0.62012905 -0.28887397 -0.23480777 -0.26788902 0.9297397 -0.3961158 0.73815477 0.18420383 0.39779925 -0.109768555 -0.5432628 0.03778118 0.68414754 0.2137078 -0.4164537 0.16394226 0.16421397 -0.31315193 0.07984055 -0.09730803 0.8319324 0.9644683 -0.72873294 -0.21083266 0.49141395 0.34464502 -0.13350263 0.61438453 -0.9357612 0.25693446 -0.76159996 0.29990014 0.53355277
532 -0.88691604 0.021008205 0.7829936 0.35705602 0.44144166 -0.18462004 0.9272891 0.19654591 -0.32356393 0.46241003 1.3109914 0.9151187 0.25862712 0.16073608 0.30634496 -0.11417424 -0.008078912 -0.49982473 -0.26662818 -0.017995048 -0.3905329 -0.2775745 0.2878183 -0.6902759 -0.5224861 0.13519129 0.6151018 0.45382947 0.536933 -0.35096 0.6979766 0.264709 -0.040636525 0.061800748 -0.8308722 -0.6559705 -0.45466802 0.32848155 -0.028844755 -0.20080817 0.063641176 1.0127163 -0.38965014 -0.16967896 0.9799438 -0.06817596 0.009758087 0.059968892 -0.2536092 -0.52676326 0.031904656 -0.33136958 -0.21144594 0.06555864 0.52239794 0.7947564 -0.46601683 -0.8038411 0.9433141 -0.46350482 0.16786878 -0.5494742 0.41808367 -0.70107347
227 -0.038576093 -0.65965194 0.6322553 -0.4054913 0.48004463 0.11723395 -0.5256688 0.47982112 -1.2485265 -0.487927 0.4716946 -0.35050002 -0.13203456 0.83240575 0.43950167 0.6070135 -0.78693646 -0.09601924 -0.83870864 -0.6861929 -0.03483814 0.4365148 0.18387444 -0.55119807 -0.09220815 0.027608987 -0.02335242 0.20218748 -1.1347004 -0.29011378 -0.22102953 -1.0643582 -0.63646954 0.07365668 -0.053437136 1.4275542 -0.651749 0.050186668 -0.1991656 0.19809368 -0.6359011 0.5593931 -1.239666 -0.45287135 -0.5930604 0.8439028 0.55512416 -0.53632313 0.10737401 -0.4791619 -0.52069306 -0.040933598 0.63017035 0.3891598 0.29387307 0.22806631 0.6168483 -0.70808285 0.19167167 -0.14029332 0.027301162 -0.20463817 -0.08941442 0.7302705
160 0.16705915 -0.16458717 0.50390834 0.37722182 -0.12302582 -0.032482114 0.111049905 -0.2508006 -0.2201926 -0.087808624 0.30963442 -0.07464925 -0.1133608 -0.45910382 0.062386528 0.0861463 0.0047152736 -0.26536974 0.03428779 0.13510737 0.11795299 0.35941255 0.025223343 -0.0032968963 -0.19273347 -0.061247148 -0.1897731 0.15850797 -0.004018117 -0.41211087 0.071442656 0.019470459 -0.11175857 -0.024864646 0.003201895 0.04595759 -0.30694503 0.11627667 -0.02371596 0.08335619 -0.17021789 0.42358154 0.026845329 -0.09655615 -0.08394797 -0.054109417 0.38892403 -0.13905954 -0.11612279 -0.059633877 0.19836377 -0.106983356 0.15966104 0.12169025 0.088761784 0.11420093 0.083593376 -0.05891062 -0.0555787 -0.17072192 -0.22684164 0.0025672386 0.11468501 -0.123915754
319 -0.4397119 -0.9960118 0.86436534 0.53536654 -0.65292114 0.33962107 -0.21318716 0.78173584 -0.072361685 -0.0005648371 0.24086583 0.14691114 -0.9506505 0.21519999 -0.12835166 -0.040263217 0.7760567 -0.6440139 0.102205366 0.49910825 0.35622513 1.1390305 -0.40498996 -0.9406561 -0.3067679 0.49308807 -0.75929147 -0.04424728 -0.44699562 -0.6476085 0.4452418 0.5007931 -0.18911934 -0.16304754 -0.29528117 -0.43121007 -1.0031602 0.4972444 -0.59001994 -0.5779067 -0.66573364 0.9556723 0.21956319 0.073551565 -0.23399039 -1.025557 0.6226037 0.92913264 0.081646 -1.9421086 -0.12018449 -0.5018044 -0.12741205 -0.030013816 0.44381902 0.65576845 -1.0630898 -0.05043607 0.16242693 0.08818379 -0.5612093 -0.12580408 0.62759393 -0.13015732
365 -0.0347064 0.009370338 0.2588594 -0.0058381516 0.21587247 -0.14898257 -0.11893862 -0.812894 -0.21328762 -0.47181585 0.13104261 -0.3213068 0.033470653 -0.35957295 0.46754465 0.3115304 -0.40195662 0.07253927 -0.2772344 -0.12769517 -0.121601 0.25217748 0.19813974 -0.55890936 -0.13539071 0.17931241 -0.28699577 -0.21671131 -0.27612367 -0.19817893 0.2833383 0.021761844 -0.51454425 -0.57746255 0.18415423 -0.31143078 0.002457945 -0.09579039 0.11584104 -0.12265131 0.12913582 0.3637675 -0.45001876 -0.24853194 0.2468406 -0.18532534 0.31285885 -0.042323492 0.060560994 -0.60748297 0.28860527 -0.09935537 0.0252378 -0.47484544 -0.52996993 0.21954301 -0.16824861 -0.14114223 0.08670801 -0.08406265 -0.22517058 0.17771658 -0.043873675 0.44870836
62 -0.094849564 -0.07239348 0.39014807 0.13346265 0.14233866 -0.06882698 -0.15885794 -0.23914507 -0.17136051 0.027799588 0.06863416 -0.12064478 0.08402971 -0.24701902 -0.13961293 0.20319507 -0.2756077 -0.15939012 0.22697903 -0.123425834 0.34781435 -0.21507448 -0.34096092 -0.2895934 0.0300702 0.23922908 -0.23859212 -0.3038729 0.0041515036 -0.50489414 0.1842676 -0.046051335 -0.12563232 -0.13687444 -0.27109116 0.12694997 -0.3514089 0.061652683 -0.15542568 -0.053109843 0.1708447 0.16673279 -0.14594881 -0.19136506 0.0017583452 -0.1546753 0.2961561 0.17950873 -0.2549777 -0.16712514 -0.07565261 -0.3673769 -0.028979205 0.23043686 0.1501615 0.1482173 -0.015460847 0.05200355 -0.073659174 0.06276039 -0.11247816 -0.2428787 0.10450265 -0.078366585
402 -0.63161373 0.32119048 -0.014698579 0.5080698 0.12672006 0.5857449 0.914331 -0.5715631 -1.0408715 0.83928084 -0.6254638 0.48631406 -0.8925437 -0.38909447 -0.1869732 0.35664952 -0.7041623 0.11813505 0.98467445 0.30947027 -0.16893734 -0.5469159 -0.7055158 -0.46937758 -0.60644484 0.45301667 0.33055094 -0.4620171 0.45885223 -1.0671859 -0.78849965 0.8463447 -0.8464451 -0.59426457 0.66474724 0.52323943 -1.0559092 -0.580123 -0.4118798 -0.56107646 -0.45705143 1.6410102 -0.8931757 0.06063475 -0.2956584 -0.46561262 0.5985603 -0.19596313 -0.38148084 0.42633328 0.3314632 -0.09779586 2.0113242 -0.9607645 -0.085265085 0.7001734 -0.55620474 -1.1681448 0.27426308 1.4680215 -0.23299782 -0.030598966 0.33351827 1.5602945
86 0.2436631 -0.07538933 0.05206519 0.12567404 0.052621823 0.06718388 0.17118241 -0.57272154 -0.087551095 -0.44025606 0.098479815 0.071502976 -0.065403275 0.0100502325 0.00021746542 0.052505977 -0.16092095 -0.1962913 0.12967427 0.03882721 -0.1355801 -0.2678119 -0.17932707 -0.030252535 -0.10497479 -0.030346835 -0.21428709 0.257537 -0.049973615 -0.4662378 0.15778406 -0.21320048 -0.23767845 -0.4273831 -0.26203158 0.2533937 -0.2339854 -0.050497398 0.07062918 0.1731011 0.083111145 -0.025920385 -0.02719802 -0.16331814 -0.16653849 0.10189118 0.45848453 0.26481915 -0.14273518 -0.59756327 -0.121179044 -0.07731938 -0.11081938 0.14233904 -0.0458831 0.3364377 0.26984856 -0.09173071 0.045947846 -0.041732624 0.22587161 -0.3148116 -0.022447357 -0.36679575
107 -0.11269228 -0.21974899 0.40762058 0.1955509 0.20443837 -0.0492328 -0.03590614 0.042204577 -0.13707286 -0.12816244 0.13623199 0.18821323 0.047666002 0.06164835 -0.08641839 0.13779911 0.09105567 -0.3437225 -0.002303267 0.020552639 0.20624396 -0.13723545 -0.0713063 -0.24145302 -0.14149855 -0.022488888 -0.44149506 -0.1565117 0.108891465 -0.43403146 0.31379035 0.053741723 0.09467104 0.0054737753 -0.2976921 -0.14866273 -0.17151552 0.22544707 -0.09949746 -0.17473786 -0.1152704 0.32516858 -0.033562973 0.018592723 -0.07485967 -0.1371548 0.38526043 0.16937879 -0.18354818 -0.14963745 0.09062936 -0.42103446 0.16350852 0.22571413 0.107255526 0.09157851 0.002823158 -0.067856275 0.0632802 -0.13114269 -0.16357566 -0.26847345 -0.037597828 -0.057427563
121 -0.32693785 -0.22033615 0.5289899 0.25224614 0.17122126 0.1096567 0.05872979 -0.25536373 -0.017986039 0.27809897 0.039026994 -0.114178695 -0.12928097 0.10389929 0.1511607 0.2626117 -0.17740192 -0.11202962 -0.06152494 -0.06415978 0.24492249 -0.11909249 -0.20116629 -0.037906203 0.05621355 -0.009736849 -0.34279332 0.14241165 0.008203691 -0.22023118 0.2546476 -0.05252133 -0.23023683 0.2127332 -0.21261793 0.010375514 0.035718486 0.12212041 -0.08491436 0.25821212 0.17997034 0.11116975 -0.11802932 0.23289482 -0.08821784 -0.25013623 0.22723655 0.27361244 0.053001225 -0.14243881 -0.2109458 0.043165024 0.17497914 -0.06139131 0.052058343 0.050288793 0.19605099 -0.26827773 0.08365782 -0.11539192 0.124018684 0.010911862 -0.052521985 -0.09632133
683 -0.23433983 -0.8775605 0.58662367 0.0035199104 0.44573885 1.1855904 0.4793934 0.98293334 0.7038206 0.10641455 1.1181605 -0.33645934 -0.21458687 -0.11143115 -0.31819716 -0.45374957 -0.5993968 -0.24447319 0.20304586 0.21272583 -0.17460339 -0.06455711 0.35563728 -1.2836337 -1.018067 0.18816847 -0.36030507 0.008190398 -0.15919775 -0.6441502 -0.48750767 0.5572318 -2.015341 0.79949915 0.2644762 0.6521914 0.24465434 0.025261642 0.742882 -0.37992835 -0.4677685 0.9253138 -0.6349993 -0.40459558 0.9189887 -0.7095518 0.9741886 -1.382577 -0.2530275 -1.5153877 -0.13020262 -0.9069247 0.7657504 0.15683173 0.20543079 0.19632839 1.1409034 -0.41909564 -0.14048585 -0.29502484 0.62682474 -0.68864846 0.6580921 0.32156146
434 -0.21228898 0.09666079 0.28320217 0.11445705 0.31607783 0.026754012 -0.038067803 -0.25670692 0.28611252 0.21915244 0.036643516 -0.24150762 0.23041041 -0.17653231 0.14010528 0.3834253 0.06640052 0.06793891 0.11780785 -0.023465673 0.10170774 0.03932117 0.11997695 -0.1497979 -0.05625816 0.072924785 -0.18285123 -0.17991935 0.12057971 -0.10768324 0.35140294 0.054150663 -0.17690848 -0.037013374 -0.25680077 0.18125643 -0.24639851 -0.0787524 -0.2635097 -0.025678411 0.091114074 0.090508975 -0.011166752 -0.05596618 -0.15178196 0.16579774 0.18159662 0.22246638 -0.22696191 -0.15379559 0.004106749 -0.1511493 0.40070397 -0.022975527 -0.035234306 0.21404864 0.009335605 -0.22510876 0.07746673 -0.026546441 -0.20997974 -0.15327184 -0.10698019 -0.013954332
183 -0.03186535 0.09384207 0.079780154 -0.057634022 0.46590787 -0.03357994 -0.10223736 -0.20926148 -0.0399129 0.19715935 0.40651035 -0.23156364 -0.29731002 -0.112744056 0.2269367 0.13758028 0.04649268 -0.083390445 -0.15373896 -0.09513534 0.04149588 0.28057683 -0.10714178 -0.28672957 0.07865519 -0.06949581 -0.23833837 -0.3100733 0.049937826 -0.28390384 0.06214206 0.09912163 -0.23956558 0.046479706 -0.15059815 -0.0054710745 -0.005239177 0.43490785 0.052183013 0.086293295 0.2685907 0.13479146 0.005433379 0.0759962 -0.060794126 -0.031734567 0.39941323 -0.022654014 -0.029703276 -0.06237516 0.015181784 -0.05936534 -0.06582836 -0.024293045 -0.1612312 0.33119085 0.06668187 -0.1962357 -0.10323177 0.12371068 -0.25640246 -0.4807218 0.24181178 -0.23108818
129 -0.14039238 0.16942336 0.07569873 -0.22832485 0.29991183 -0.010521257 -0.12581646 -0.35767815 -0.07730495 0.15040646 0.07581149 -0.08237732 -0.021568647 -0.087512165 -0.10725863 -0.0891536 -0.15623762 -0.07791506 0.023155969 0.079151906 -0.06531396 0.49111927 -0.080489494 0.051793613 -0.24081476 -0.23805983 -0.30831188 -0.14828134 0.17536755 -0.007752781 0.15311134 -0.14187305 -0.23144607 -0.13593407 -0.42736244 0.29201 -0.012493932 0.28115422 0.08288262 0.023122638 -0.0413997 0.13451912 -0.29683346 0.031129358 0.095639475 -0.28628868 0.27624804 -0.037329104 -0.02615068 -0.2471956 -0.16428822 0.24281509 0.29391703 -0.12204281 -0.17379004 0.40564293 -0.1820558 -0.04007369 0.11285794 0.08624061 -0.102018274 -0.48095846 0.20801426 -0.06690754
628 -1.1058888 0.81020886 0.9838678 0.14169662 0.5333695 0.6843678 0.20960839 0.86817497 -0.9600212 -0.063695215 1.1605822 0.064609006 -0.41250983 -0.017875565 0.250193 -0.30558643 0.25359705 0.05027828 -0.6072788 0.4646544 0.1080803 0.7813088 0.691501 0.5624167 -1.2643774 -0.1842383 -0.48035493 0.7290559 -0.36313605 -1.7716713 0.36316693 0.3055489 -0.6079284 -0.29977012 0.5028971 0.5824003 -0.60845244 -0.1422287 0.15873879 0.34023404 -1.3398299 0.9268393 -0.42486778 -0.577902 -0.13665137 0.57682717 0.8056343 0.39904973 -1.0790805 -0.4538631 0.09692096 1.2479324 0.993655 -0.69984424 -6.1186365e-05 1.3553927 -0.61337227 0.7446384 1.4090421 0.25778633 -0.37780482 0.25240165 -0.06411465 0.26853704
128 -0.100543514 0.1291213 0.06975848 -0.17065138 0.44877294 -0.057597112 0.08812919 -0.00886159 -0.12973182 -0.19695665 0.02037564 -0.15473945 0.042037286 -0.06427229 -0.006670319 0.23766872 -0.09027253 0.037457902 -0.2902184 0.1808618 0.2143318 0.13286461 0.061157703 -0.18768011 -0.21397407 -0.0060723173 -0.122642666 -0.16852999 0.12130255 -0.4217186 0.27998474 0.028604683 -0.18801379 -0.18180832 -0.15526056 -0.05063949 -0.31850848 0.1891561 0.1320419 -0.1300271 -0.007903656 -0.048363853 0.26263297 0.07265555 -0.17686366 0.01988365 0.07035121 -0.1324555 0.26509637 0.012584641 -0.49130106 0.10288459 0.43130162 -0.1428929 -0.15682085 0.37873468 0.05475339 -0.34329376 -0.0874537 -0.36168978 0.15830065 -0.025029648 0.14028057 -0.20121476
5 0.41057315 0.14940347 0.08165593 0.23984233 -0.11240443 0.024478216 0.039398 0.22208129 -0.109631464 -0.029087396 -0.023717362 -0.33964399 -0.37262702 -0.16780235 0.048506662 0.081180155 -0.12319808 0.040022556 0.065272756 -0.12758887 0.04408062 0.01832847 -0.19211493 -0.63606226 -0.38467908 0.25971314 -0.038118217 -0.12081855 0.3998229 -0.2574168 -0.11153246 -0.12617926 -0.36025736 -0.052808296 -0.20832446 -0.19608808 -0.16008097 -0.31156632 0.110402666 -0.09728353 -0.17186028 0.015860574 -0.22635455 -0.09911658 -0.23695703 -0.23423125 -0.03752711 -0.069508485 -0.07615083 -0.3765761 0.18378401 -0.33180267 0.26511803 -0.29701176 -0.094180234 0.50418514 0.23270409 -0.25744408 0.5585592 0.23067436 -0.17115407 -0.12746632 -0.10577435 -0.71656096
64 0.5466667 0.036041766 -0.1746704 0.38338897 0.37020382 -0.0007364286 0.010119473 -0.05449923 -0.09247409 0.36359546 -0.258076 0.02199017 -0.17662878 0.034034934 0.39714888 -0.06582638 0.10140184 -0.0711106 -0.255555 -0.2873058 0.003395388 0.055760242 -0.038840476 -0.553481 -0.28801203 -0.008717026 -0.14101763 -0.026662579 0.13719608 -0.42456585 0.104219966 0.19822422 -0.26469085 0.037200626 0.1034439 0.16637348 0.027004989 -0.4185016 0.10081529 -0.26847583 -0.12985452 0.32657552 0.09084969 -0.22059387 -0.3138496 0.061076593 0.42073277 -0.19659834 -0.014647109 -0.26846692 -0.09792219 -0.13933782 0.37284508 -0.124945596 0.057429817 0.25202167 -0.013967256 0.035967566 0.20087649 -0.049012206 -0.082281694 -0.2530009 -0.13139889 -0.16605876
166 -0.29962516 -0.04443867 0.31569847 0.38120064 0.15797934 -0.23269856 -0.17307946 -0.16193064 0.014769942 0.07742837 -0.05661622 0.13340382 0.01672239 -0.28123984 0.037248157 0.11458614 -0.019944461 -0.22396265 0.08157067 0.3385872 -0.22510715 0.2301485 0.11124014 -0.38375568 -0.25160676 0.13592261 -0.33252332 0.13306183 0.14506333 -0.20518836 -0.042219043 0.0089061875 -0.34486425 -0.11002065 0.18470858 0.017847609 0.034551412 -0.18830873 -0.27954635 0.11848688 -0.15196972 0.22716518 -0.17754424 0.14805926 -0.014283358 -0.047465585 0.24936742 0.26363042 0.09684583 0.12485338 -0.056824323 -0.1179821 0.159369 0.3873596 -0.036891297 0.41123188 0.37471592 0.061607596 -0.25706175 -0.2316905 -0.099791095 -0.22794893 -0.1711817 -0.26159135
106 0.04099302 -0.05695899 0.31014284 -0.008605791 0.23628904 -0.13808113 -0.53444237 0.24145462 -0.21519406 0.017027989 0.14475724 -0.34996614 0.063474275 -0.16692129 -0.31997922 0.62034076 -0.02817463 -0.12292421 -0.13357283 0.12429649 -0.08586084 0.08494274 0.22608137 -0.12845607 -0.23562643 -0.011249949 -0.12558976 0.13206546 -0.13084903 -0.27471748 0.2999752 0.0094740335 -0.2943358 -0.38048917 -0.09601488 -0.0151942335 -0.06324138 0.11228583 -0.22641562 0.3622027 0.2223555 0.28511667 -0.2405628 0.06266143 0.012291754 -0.04051671 0.40373963 0.11705545 -0.07683574 -0.19429551 -0.24683665 0.09084633 0.21840866 0.1405775 0.07201885 -0.18372503 -0.061189067 -0.18770838 0.1968243 0.079696395 -0.2177232 -0.17749164 -0.16897483 -0.20373434
21 -0.0010991313 -0.2383344 0.38864866 -0.1971682 0.31762162 -0.18002158 -0.1945537 0.007088613 -0.059339676 0.122965746 0.26608425 -0.06751805 -0.009602258 0.2989277 -0.1610784 0.29440972 -0.33584633 -0.20566179 0.03693521 -0.192046 -0.33425334 -0.16431442 0.15724969 -0.2542695 -0.43765166 0.06454805 -0.21011516 0.024077998 0.109274276 -0.207657 0.20413984 0.04271142 0.24580823 -0.29370165 0.08018204 0.08795845 0.04982661 0.47092804 -0.16080497 0.09212891 -0.10129623 0.30814108 -0.1494331 0.19563547 0.067722745 0.010423202 0.2563858 0.2824172 0.39899355 -0.14067796 -0.35450423 0.2384865 0.50478756 -0.20050496 -0.044642963 -0.12775102 0.05070021 -0.2842255 0.026458727 0.24209371 -0.15776043 0.008556303 -0.15967757 -0.2678541
849 0.41142815 -0.34918243 0.6088226 -1.3293688 0.20364358 0.1437239 -0.00638648 0.5280464 0.45606744 0.5192945 1.132021 0.12436668 -0.23811637 -0.23594402 -0.2799334 0.28376245 0.7608884 -1.2952638 1.1701819 0.29706666 1.1980318 0.13404438 0.15958263 -1.7459271 0.4652441 1.4204097 -0.32138494 1.6733217 0.15846354 -1.1552684 0.22059536 0.5087394 -0.7804643 1.5333354 0.5051452 -0.017473709 -0.3935417 1.3575015 0.63698524 -0.60748875 -0.45985633 1.1147234 -0.78081656 -0.5153164 -0.7202705 0.56294847 1.3745807 0.027813628 -1.2774966 -0.39010912 0.44615445 0.29857674 0.35471264 -0.9713561 0.34308264 1.4180039 0.83169 -0.98049706 0.39470884 -0.10797403 0.5287825 0.697833 -0.05091342 -0.19442873
82 -0.36387813 -0.2753895 0.4471167 0.12185386 0.29273778 0.035168614 0.0052102823 -0.45806092 -0.13217519 0.08510407 0.0699921 -0.23221514 -0.28568938 0.035746206 -0.023200883 0.15775748 -0.2011524 -0.2732246 -0.21381323 -0.05060979 0.4852308 -0.17306834 -0.10804333 0.031868223 -0.15605778 0.08751809 -0.39799228 -0.071402006 -0.13902365 -0.34204853 0.14806828 -0.009591777 -0.2931635 -0.032373272 -0.31046197 0.036390416 -0.24491268 0.055210855 -0.08904971 0.19504465 0.010920029 -0.0050508305 -0.2115054 -0.02210182 0.111244366 -0.18679819 0.16737448 -0.081933305 0.026873171 0.09178933 -0.26285324 -0.037346415 0.11817237 0.08284359 0.247479 0.1658089 0.28643224 -0.031427257 0.17881621 -0.08685485 -0.0015383873 -0.09285983 0.1422424 -0.11091365
105 -0.36031866 0.13107577 0.15652075 0.22121978 -0.08111669 -0.26068684 -0.14829798 -0.18885377 0.27413368 0.03456928 0.08049876 -0.41253003 -0.21433334 -0.025123691 0.03969468 0.34386352 -0.09955458 -0.13078296 0.1802148 -0.21395107 0.16815533 -0.0020523213 0.2039017 -0.18661484 0.08850745 0.09991941 -0.44706044 0.12223569 -0.05226871 -0.26296604 0.3023879 -0.09361262 -0.063068464 0.19591703 -0.20533799 -0.3161612 -0.167836 0.04800169 -0.06782473 -0.0497761 -0.07229714 0.17120863 0.020433417 0.06633318 -0.035673056 -0.007965695 0.37712216 0.108415544 -0.052758463 -0.28859317 -0.23996402 -0.014594242 0.4321669 0.07766142 -0.1420835 0.14228086 0.300356 -0.24055213 -0.047182243 0.027057912 0.11739599 -0.013874782 -0.12896903 -0.04844263
301 0.19489408 -0.3181483 0.1649448 0.1847477 0.08958162 0.29309082 0.2300408 -0.07853725 -0.062712856 -0.30197862 0.055665273 -0.22258508 0.20877765 -0.25015616 0.021349667 -0.20364752 -0.022995265 -0.3528717 -0.057598874 -0.33411303 0.099192314 0.084623955 -0.012756269 -0.4693699 -0.20817706 0.14012863 0.15127924 -0.25422788 0.23050384 -0.14419588 -0.022015866 0.15446919 -0.7135757 -0.01494861 -0.012147127 0.23048598 -0.30008167 0.17326318 -0.28541684 0.009896774 -0.04304514 0.26858202 0.29673928 -0.118275955 0.17710365 0.09676015 0.21704845 0.4368712 0.26218414 -0.012842832 -0.11502691 0.12043875 0.105529435 0.40306082 0.5209224 0.23441966 0.19218773 -0.5688244 0.03595927 0.028226582 -0.4117629 -0.39027423 -0.09777214 0.08773999
211 -0.28037983 0.11069597 0.28842387 -0.25465232 0.26871058 0.17939062 0.2940766 0.22157815 -0.27892065 0.26190022 0.09074744 -0.21155137 0.01850575 -0.021763427 -0.085440464 0.34346583 -0.15761521 -0.02937648 0.32033962 0.15410711 -0.1235117 -0.11450359 0.10641507 -0.2225791 -0.08278798 0.12258709 -0.13178797 0.12821357 0.07272263 -0.09500591 0.012749455 0.39891213 -0.357862 0.2747814 -0.11902559 -0.0016337417 -0.24115327 0.22550926 0.18966177 -0.11002204 0.17754652 0.44574073 -0.2783277 -0.062198173 0.36238557 -0.03198603 0.08681039 -0.068550006 0.14772439 -0.38551077 0.0072002006 -0.2496376 0.17886002 0.0633447 -0.25736037 0.17924161 -0.08519649 -0.26146838 0.14744507 0.345907 0.12674887 -0.17221355 0.0814121 -0.36019456
283 -0.20188078 0.08222755 0.45557994 0.084582485 0.041131765 -0.16216615 -0.07216826 0.0934631 0.053810686 -0.023125371 0.015220496 0.029285733 0.10669307 -0.03719408 -0.04679532 0.2674676 0.2731819 0.03033845 0.1441114 0.2694112 0.28367054 -0.04428558 -0.0037560938 -0.21433106 -0.37665272 0.20936045 -0.2764552 0.0010430698 -0.14714567 -0.46022657 0.4697217 0.06252502 -0.089445785 0.026311519 -0.25869903 0.43327957 0.18394147 -0.3318137 -0.08012466 0.19392861 0.015252061 0.42770377 -0.12639563 0.09613955 -0.06583715 -0.18650801 0.12297223 -0.074941754 0.029331304 -0.017021326 -0.2037285 0.169345 0.22844227 -0.1955821 -0.15328036 0.13239974 0.3728278 -0.02646756 0.19529882 0.13787273 0.29228485 0.010303966 -0.029802497 0.15498564
256 -0.08155287 -0.17599182 0.35066086 -0.017435886 0.18689589 0.029303392 -0.072727636 -0.10402472 -0.14091274 -0.087023124 -0.026114792 -0.3220327 -0.09347252 0.052811414 0.23165669 0.66734487 -0.0031546701 -0.11086437 0.19935966 -0.0924122 0.073665924 0.115247265 -0.018855387 -0.19654167 -0.39722747 -0.103563465 -0.375786 -0.16844542 0.089353755 -0.3705936 0.37043098 0.17109095 -0.123740725 0.021858662 -0.28077814 -0.059139755 -0.06720604 0.08613612 -0.012620838 -0.033729013 0.15958834 0.07256098 0.15701614 -0.013684113 0.27779564 -0.16183405 0.24589163 0.030488627 -0.12296887 -0.058589168 -0.18133602 0.010206183 0.10366 -0.2791688 -0.09474677 0.030055007 -0.07278284 -0.13040511 0.23876601 0.2358097 0.10831924 -0.12288401 -0.13548806 0.17921309
383 0.30622733 1.0305848 -0.071717665 0.91023266 0.54209757 0.60857075 0.5012255 0.3678793 -1.5540894 1.4785007 1.160845 0.3133085 0.6852863 -1.2835528 -1.0653892 0.18838634 -1.054881 -0.30192584 -0.08159989 0.25785014 0.31921595 0.51925427 -1.0424095 -0.43956208 -0.4269134 1.2509747 -0.36717322 0.370555 0.023310732 -1.3090054 -0.7584934 -0.28591406 -1.3038664 -0.58865494 -0.9927736 1.104982 -0.13647278 -0.34137785 -0.18397523 0.32308063 -1.6712152 0.9608094 -0.27551323 0.5856314 0.32138184 0.85385376 0.71728206 1.0550973 -1.441964 -0.37608764 -0.51852894 1.1517316 0.54211277 -0.63377756 -0.20089874 1.3385001 0.903569 0.23666072 0.7367898 -0.5578189 -0.24568741 0.7476262 -0.64345473 0.044030417
44 -0.24464905 0.15793934 0.08045236 0.06023432 0.20189849 -0.41569477 -0.04711966 -0.03718484 -0.0023916601 -0.28348958 0.27237284 -0.21843646 -0.03777162 -0.31335533 0.09129139 0.21004963 -0.15450327 0.14928071 -0.23682782 -0.091056064 0.22266243 0.1874726 0.44902894 0.011499926 0.17726664 0.48813543 0.024210509 0.19287346 0.20179433 -0.4139861 0.39591178 -0.030109657 -0.21513548 -0.1805499 0.08752577 0.23375116 -0.23801753 0.115162015 0.37783074 0.085791 0.27479374 0.1474545 -0.36002183 0.24866076 0.22856294 -0.16787179 0.56243515 0.17790581 0.1409344 -0.4575299 0.048565555 -0.27435544 0.1093293 -0.14421867 -0.055010233 0.3738395 -0.15360953 -0.21967256 -0.4195742 -0.32670525 0.15966521 -0.0015224054 0.038030256 0.05634443
333 0.04002024 -0.29617587 0.30823544 0.28488812 0.16305336 -0.14846584 -0.12826952 -0.3456248 0.14143823 -0.08143434 0.13361216 0.22259925 -0.40947843 -0.09990909 0.12103667 0.43689093 0.2983717 0.011194976 0.12816519 0.1426236 0.08120665 -0.31750754 -0.02320316 -0.41113183 -0.42997724 -0.098388635 -0.095970206 0.13804372 -0.04660498 -0.07320621 0.20754153 -0.23983006 0.06869623 0.57301444 -0.22075108 0.050450996 -0.39655656 -0.1669997 0.3182381 0.2589771 -0.12039466 -0.03327941 -0.57016295 0.35707536 0.040424995 0.2051269 0.1807599 0.32160512 -0.042242955 -0.0316497 -0.102312446 -0.053232662 0.3601516 -0.028449416 -0.05686845 0.44644764 -0.10894587 0.06500187 0.054383423 0.26586717 -0.32434598 -0.3001662 -0.029504951 0.0045876387
377 -0.16295148 0.22280727 0.26107013 -0.07268429 -0.10346429 -0.048905432 0.078709364 -0.025733361 -0.47266558 -0.18305847 -0.033693887 0.14379847 0.05386098 0.1465014 0.21386956 0.095724806 0.018688772 -0.13145645 0.10435473 0.11256464 0.25338888 -0.13219875 -0.34777468 -0.16876578 -0.15623161 -0.07972299 -0.2275809 0.07026254 -0.20744444 -0.14785129 -0.2816842 0.038509116 -0.72175163 -0.438135 -0.1266091 0.4681381 -0.39626968 -0.085846014 -0.062489383 -0.21023464 -0.3110269 0.3358462 -0.020416677 0.29380512 0.017999081 -0.06263491 0.26243904 -0.12946099 -0.34216776 0.39664266 -0.49278444 0.49486026 0.43256366 -0.08536347 -0.23943333 0.44469008 -0.18262856 -0.22257474 0.26158845 -0.29270786 -0.08658013 0.03136656 0.16206329 0.056455735
87 -0.42540517 -0.21788315 -0.028209718 -0.060885716 0.28038028 -0.08366566 -0.086975306 -0.29650682 -0.061681204 0.03700668 -0.008085274 -0.07126294 -0.10395933 0.10643953 0.1912054 0.32635927 -0.23438928 -0.097437054 -0.061254036 0.17927249 -0.06017051 0.09086659 0.12268148 -0.21565256 0.03635634 -0.30260342 -0.50546616 0.36778265 -0.13787039 -0.016336305 0.5364883 -0.1333312 -0.27260315 0.22676045 -0.14494927 -0.045431077 -0.28781766 0.058301207 -0.17718598 0.001346937 -0.09586086 0.28605145 -0.17851424 0.054841675 -0.20296362 0.048798177 0.18468387 0.17218837 -0.008692482 -0.26773533 -0.10238494 -0.09539706 0.40889227 0.24786085 -0.07854438 -0.1473665 0.15240374 -0.22998565 0.12379573 0.13108328 -0.010570519 -0.21530262 0.1169413 0.14623185
420 -0.13877338 0.045557797 0.2725802 -0.10934642 0.23879418 0.01231652 0.1735981 -0.2952646 -0.39318135 0.1414346 0.015961245 -0.3672545 -0.49109304 -0.15346567 -0.013255051 0.05599261 -0.11858176 0.03232725 -0.08297457 -0.06493331 0.6244882 -0.2160924 0.25043166 -0.22468002 -0.304399 0.287761 -0.2622806 -0.038782526 0.089227006 0.023388807 -0.24062103 0.21429741 -0.37076712 -0.2939603 -0.086258866 -0.1307962 -0.2674719 0.37728843 -0.30544654 0.0066017397 -0.15623967 0.23683281 0.043350067 -0.01905685 0.052558955 -0.29036912 0.25121164 0.21965772 0.28612015 -0.0331138 -0.06290883 -0.29147956 0.19502953 -0.08164915 0.0069988677 0.05594845 0.16056351 -0.30617005 0.09501926 0.26328415 -0.118168704 -0.19743942 -0.19362795 0.05191843
114 0.052619 -0.1500286 0.36097518 -0.2930685 0.46057698 -0.046277612 0.107575685 -0.2110925 0.189032 -0.14264548 0.09040362 -0.1323868 -0.295863 -0.11159937 -0.006662659 0.027357621 0.0607198 0.19316618 0.109882034 0.10560941 -0.014653733 0.08896108 -0.07391 -0.43949327 -0.36105955 -0.030616546 -0.04677772 -0.22456302 0.106920764 -0.2715396 0.30805635 -0.09978672 -0.095760785 0.40535563 -0.35551015 0.20605065 -0.12587625 0.0036303177 0.1539216 0.36128592 0.08748257 0.15651232 -0.08621701 0.048009846 0.16187178 0.15427352 0.123562686 0.10702083 0.13479872 -0.26750827 -0.16979979 0.06030537 0.32681662 0.101058245 -0.12381721 0.21141466 -0.08093415 -0.14445522 -0.112597436 -0.14206444 -0.36055487 -0.03264321 -0.17923693 0.03965182
249 -0.22576581 0.043015078 0.3553665 -0.06735692 0.08054108 -0.27292642 -0.124090664 -0.11563213 0.13171177 0.0070596044 0.032326907 -0.23069966 0.040896963 -0.040298164 0.20955402 0.3620277 -0.12071297 0.035188846 0.11784409 -0.010658169 0.09319012 -0.02288286 -0.052398976 -0.17365555 -0.06021321 0.0968967 -0.24801897 0.14623809 0.038078133 -0.13309649 0.35855094 0.085878395 -0.33048025 -0.13132109 -0.22646812 -0.15236157 -0.21927235 0.070356406 0.03371151 -0.053467486 0.0565241 0.22350605 -0.29243812 0.21003857 0.0011342928 -0.057400398 0.1587365 0.04052555 0.11185678 -0.26917455 0.12252808 -0.0077396818 0.29315096 -0.10471394 0.08934749 0.19341043 0.15627505 -0.1018547 0.024158485 0.15879545 -0.033013556 -0.22771193 0.16290657 0.06276983
451 0.0070587075 -0.03536144 0.3933878 0.17117503 0.087558895 -0.15417466 -0.08655593 -0.70290804 -0.14796272 -0.4726408 0.12491094 -0.49362233 -0.15716903 -0.31289738 0.3412175 0.24029598 -0.35461482 0.11659818 -0.21906482 -0.03865825 -0.1121295 0.21333122 0.29548848 -0.5647718 -0.051067747 0.33264524 -0.30096126 -0.11948233 -0.28450906 -0.115151286 0.27139926 -0.007571681 -0.45692307 -0.5665624 0.29010338 -0.13531558 0.009331705 -0.058428362 0.24722412 -0.09402268 0.18670242 0.28178254 -0.42434758 -0.2403325 0.042031016 -0.040161073 0.38611835 0.018539174 -0.014839231 -0.5978298 0.36854586 0.0071712816 0.056508407 -0.5758712 -0.5206889 0.27776623 -0.26426968 -0.14880806 -0.04769458 -0.096902505 -0.051381875 -0.10346316 -0.1298337 0.5127691
28 0.42641583 -0.06545853 0.107934184 -0.3748427 0.4145781 -0.2013946 -0.2130458 -0.29344496 -0.09148704 -0.35369036 0.23120953 -0.2533478 -0.18267067 -0.12753636 0.33964148 -0.116603635 0.059451006 0.021288007 -0.021393392 0.08035355 -0.23934822 0.13669468 -0.11570199 -0.18777445 -0.10018041 0.096423924 -0.3241877 -0.16457498 0.19349384 -0.2140923 -0.07521254 0.121418886 0.10081863 0.34881267 -0.21078429 -0.01713491 -0.22095929 -0.076258525 -0.42143118 0.34640124 0.18862464 0.14800759 -0.09579802 0.08145482 -0.093555115 -0.34995875 0.19646066 0.06044319 0.04643319 -0.34391963 -0.14957778 0.15948112 0.5225519 -0.022858756 0.0664866 0.35253286 -0.15517008 -0.41724372 -0.37151957 -0.040497277 0.06291557 0.00417323 0.036028057 0.1074511
280 -0.10272403 0.11293573 0.069763765 -0.23506837 0.1943719 0.023993496 -0.23903528 -0.06655657 -0.27759877 0.013500566 -0.20936714 -0.16797014 0.13407743 -0.12873192 0.20427638 -0.12806343 0.49386144 -0.06525035 0.004186742 -0.04816221 0.2720255 0.25563243 -0.01936545 -0.18874921 -0.24944869 -0.18461446 -0.44493568 -0.022583649 -0.06904203 -0.47342375 -0.0069640293 -0.22326148 -0.35404354 -0.11237854 -0.36058632 0.25342456 -0.095156446 -0.034341704 0.08685103 0.13229269 0.15199192 0.02109533 0.16656896 0.23982866 0.21237513 -0.12151012 0.14451854 -0.011913293 0.21645088 0.1242725 -0.13674346 0.22004306 0.5457407 -0.3141834 -0.038264308 0.24247506 -0.16670078 0.06876839 -0.07539734 0.05937393 -0.0017814882 -0.2687202 0.22462289 -0.0018488605
96 0.23296283 -0.4471161 0.31301597 -0.20076813 0.25402513 0.0667201 0.34645763 -0.12718154 -0.1437878 0.029634938 0.1857987 -0.18359584 -0.36220008 -0.09707319 -0.21853633 -0.1584782 0.052367672 -0.16578202 0.11440487 -0.24138546 -0.30789915 -0.23794167 0.12765382 -0.38704443 -0.22752339 0.21326709 -0.12102012 0.22437216 -0.19794199 -0.31084865 -0.025850313 0.0061907507 0.27501118 0.35392568 -0.09571883 -0.35005823 -0.4007625 0.18521623 0.06420971 0.41895282 0.038588643 0.320541 0.20050158 -0.63824666 0.0034274405 -0.03630597 0.21212685 0.32891598 0.007511 -0.16131477 -0.31770867 -0.25380126 0.4649319 -0.10922251 -0.1588899 0.429625 0.21866746 0.100096814 0.11714494 0.1999842 -0.12237203 -0.10737881 0.15448135 -0.33358967
479 -0.80372053 1.0027571 1.8268336 -0.45067498 -1.1955458 -1.0815407 -0.23953635 -0.8090644 -0.035473026 0.11760699 0.9474316 -0.7669292 0.5378192 -0.19488975 -0.39904016 0.20038794 0.7944371 0.07475129 -0.48208597 -0.15969834 -0.1095853 0.38961548 0.51219606 -1.7677202 -1.0317343 -1.2585561 -0.23305148 0.35397235 0.33874992 -0.32485843 0.011232827 -0.6780199 -1.4968258 0.7411176 -0.74010426 0.83171266 0.33405498 -0.67940605 -0.2917116 1.1721171 -1.2301725 0.28887796 0.53105134 -1.6704396 -0.35267097 -0.75989723 1.302062 0.8713968 -0.85041475 1.0859298 0.24793491 1.2070656 1.1888274 -3.2496262 -1.2531111 0.93656087 -0.18060574 -1.2512686 0.09842608 -0.4014649 -0.65557057 0.56791425 0.329351 -0.69934064
820 -0.2401949 0.10303558 -0.25603166 -0.027705487 0.41166195 0.03452789 -0.09453506 -0.13811237 0.16078356 -0.095968656 0.07605041 -0.059510242 -0.07631362 -0.3933955 -0.046889998 0.17145526 -0.08296013 -0.18262933 -0.18563774 0.28010872 0.1630568 0.26527503 0.14387886 -0.28078362 -0.24901073 -0.037972037 -0.14235812 -0.16252196 -0.05073506 -0.39949584 0.2931285 -0.34746957 -0.17676784 -0.085089214 -0.116697215 0.064221874 -0.4780199 0.120745346 0.06768707 -0.29930636 -0.14648862 -0.18564346 0.2881701 -0.0074079833 -0.11106321 0.18414107 -0.054608718 -0.035172954 0.18249363 0.07395486 -0.40925542 -0.048491176 0.38508192 -0.36245647 0.35256234 0.46109125 0.17550805 -0.4497114 0.20252968 -0.20394126 0.064832814 -0.0961815 0.06572497 -0.060477287
165 0.14650999 -0.08798495 -0.013488298 -0.042320486 0.4502081 0.04433271 -0.012981332 -0.11419277 -0.25739494 -0.10004893 0.23463765 -0.051091604 -0.28620005 -0.064673044 0.18135002 0.26224783 0.05700211 0.02931253 -0.09759797 0.0783099 -0.032930993 -0.34643292 0.06412698 -0.2302735 -0.28130314 -0.07793383 -0.1909112 -0.2578292 0.32291302 -0.18143158 0.084461816 -0.26195574 0.021391073 0.28781727 -0.29285055 0.13710839 -0.3310624 0.020290779 -0.3903036 0.2615026 0.12258467 -0.032139674 0.107829146 -0.25661546 0.15720761 -0.15023471 0.08921809 0.14869125 0.23452914 -0.016759628 -0.20625706 -0.120975964 0.4624524 -0.16254829 -0.34292206 0.60737574 -0.16558549 -0.15888508 -0.25672665 -0.20456555 -0.08203633 0.07456883 0.021043576 0.12759845
282 -0.21960723 0.05560674 0.3973607 0.17264998 0.12230479 -0.1390483 -0.15561798 0.0725065 -0.19842015 0.08941107 0.099156454 -0.03827591 -0.15205012 0.038808312 -0.206623 0.3119008 0.15184784 -0.19982667 0.15185405 -0.102670126 -0.24821831 -0.08177703 0.06471592 -0.26657212 -0.14260066 -0.06629571 -0.33346984 -0.040018134 -0.026445815 -0.18956558 0.18080427 -0.07357619 0.05874112 0.051925864 -0.030026456 -0.04011469 0.01509941 -0.3038974 -0.33887514 0.15404256 0.024173157 0.26569724 -0.014154335 0.076415256 -0.246222 -0.27227968 0.4103858 0.21333227 -0.012094251 -0.12563589 0.039698362 -0.19037122 0.13481551 0.2314644 0.24308728 0.19315003 0.3039499 -0.22277345 0.05217274 -0.0134047065 0.16383153 -0.5210214 -0.12879835 0.3350568
63 -0.20542927 -0.08773521 0.2373622 -0.2920102 0.4150364 -0.26179206 0.22141866 0.12733395 -0.19626679 -0.01041141 0.37119976 -0.113251254 -0.011193739 -0.16943905 -0.041535787 0.31293154 -0.010865374 -0.14859073 0.2754653 0.028642572 0.0029939478 0.2941949 0.0675087 -0.4778818 -0.0061093397 0.30710542 -0.23503949 0.036117397 -0.0009745417 0.08127195 0.13351226 0.35414734 -0.15696652 0.40830156 -0.092710085 0.025213705 -0.027821869 0.11650927 -0.15105526 -0.08089359 -0.24680777 0.37802193 -0.12940766 0.1012898 0.29303342 -0.053656872 -0.3232086 0.0280639 -0.2138691 -0.39019915 -0.034657713 -0.19075821 0.08913854 -0.21777579 -0.026087316 0.23157527 0.17119166 -0.230361 0.22621907 -0.16773269 0.2450297 -0.091439545 0.04486183 -0.2463715
81 -0.12044283 -0.027418932 0.092349485 -0.1620333 0.3160455 -0.25853148 -0.0395268 -0.2794997 -0.13453864 -0.071911536 0.5126891 -0.41656512 0.013260005 -0.09595885 -0.2614513 0.23733948 0.19226119 -0.11133572 0.17171605 -0.11077678 -0.061153162 0.16510561 0.14804968 -0.32763523 0.35878792 0.14852716 -0.21945116 -0.061337423 -0.029691556 -0.30385035 0.19833845 0.2214651 0.02190234 -0.2239961 -0.30699882 -0.10070507 0.0012085085 0.055598002 -0.083944045 0.11746664 -0.18478984 0.21386755 -0.12346716 -0.049557485 0.17844054 0.18812717 0.28239337 -0.20888291 0.114351116 -0.24626534 -0.33266678 -0.105630286 0.37788656 0.05522159 0.16328637 -0.10224704 -0.07371869 -0.45821986 -0.19518119 0.1759852 -0.01097759 0.06678698 -0.058424335 0.00727893
212 -0.18138875 -0.06684117 0.27672517 0.24299614 0.05255523 -0.13872668 -0.21822418 -0.098942444 -0.060508467 0.11352819 0.059545983 -0.3747083 0.18475364 0.028145941 -0.038396172 0.29358256 0.041014407 -0.15219745 -0.008996018 0.011930334 0.03150296 -0.07813773 0.18727557 -0.19325504 -0.24416387 -0.058980506 -0.36165732 -0.007337404 -0.0792743 -0.16789322 0.44315398 0.113955535 0.039786194 0.25574192 -0.14064004 -0.0823539 -0.14325343 -0.0007529675 -0.32546344 -0.0048040766 -0.081594035 -0.08136526 -0.3981977 -0.03129357 0.3455575 0.0039597536 0.33886996 0.15691517 -0.061474737 -0.1330625 -0.19142593 -0.26389456 0.38024336 -0.09607438 0.027874393 0.13389744 0.25263497 -0.24070221 -0.048086148 -0.03149846 0.043730795 -0.026034266 -0.20460196 -0.11037016
639 -0.15698636 -0.9241601 0.9264739 0.60337055 0.009272211 -0.97675914 0.77992344 -0.23105009 0.4667062 1.5272952 -0.8936096 -1.0652032 0.19385245 -0.2358114 0.10317039 1.7209909 0.6840568 -0.3883849 -0.08693624 -0.25701267 -0.76254207 0.7151912 0.21931744 -1.4771099 -0.66559356 0.4748187 -1.5567732 1.0616726 1.3291212 -0.039417803 0.18953064 0.5310686 -0.6550356 0.03574212 -0.14635797 0.69140947 0.2224317 0.0075668376 2.020117 -0.2747346 -1.580466 1.3153313 1.5673034 -0.18258893 -0.087021515 -1.4160285 -0.24357484 1.7863985 -0.89147574 -0.9518711 -0.9558412 -1.1211112 0.5982329 -0.4745483 1.056787 1.6125476 0.09434728 -1.0261236 0.8028316 -0.9169237 -0.6044881 -0.24854355 0.6589839 -0.2998118
115 0.11401211 -0.16397658 0.016618103 -0.029007452 0.47670624 -0.107546754 -0.3616925 -0.17507347 -0.021901809 0.15650506 0.10169747 -0.07936218 -0.49232656 -0.36773095 0.12202879 0.44556302 0.06448294 -0.19565675 0.20358525 0.010591301 0.0845986 -0.15038995 0.07258846 -0.31979093 -0.19393358 -0.21057177 -0.04473629 0.2685532 0.032444168 -0.037548218 0.32872975 -0.18706614 -0.0331339 0.4063396 -0.23274726 0.07828761 -0.2359405 -0.104023695 -0.30593735 0.04248806 0.03837568 0.02223025 0.060676824 -0.2568063 0.21178491 -0.1297403 0.15038638 0.11096419 0.17182915 -0.11486644 -0.18132913 -0.05247637 0.29783583 -0.09440679 -0.116653845 0.39922515 0.12589742 0.07696297 -0.07871108 -0.20048754 -0.017765261 0.1855147 0.020185934 0.018605215
6 0.019699264 0.06886782 0.10662045 0.62693506 0.4217839 0.10976957 0.40273294 -0.017845653 0.08470884 0.0055430243 0.3673151 -0.40083092 0.022846693 -0.19537604 -0.117572516 -0.2625289 0.2740296 -0.4708032 0.07370304 -0.07588242 -0.03574832 0.34522414 -0.14217703 -0.5396044 -0.22413231 0.07333927 -0.3560325 0.17606321 0.5945971 -0.10178689 -0.008811684 0.4204296 -0.29362273 -0.002691704 0.010136253 0.0037005944 0.17397487 -0.28219393 0.21422072 -0.4335463 -0.36989695 0.08018272 0.012766728 -0.43032855 -0.025025224 0.027649852 0.06688135 -0.19760808 -0.121566676 -0.09296539 0.11902378 -0.015105695 0.40516123 -0.14232452 0.053386837 0.1946964 -0.15593466 -0.102719165 0.20476823 0.09180004 0.23344408 -0.20898923 -0.030816996 -0.5723064
58 -0.35610628 -0.28351167 0.18736574 0.06314926 0.30183414 0.03972501 0.015198717 0.026842535 0.0674049 0.2957991 0.38447523 -0.023061378 -0.104165055 -0.17388767 0.13154332 0.36772048 -0.09328511 -0.077817604 0.19401301 0.14804783 -0.038225845 0.19419 -0.024076222 -0.4067752 -0.17700952 0.26525965 -0.14305745 0.32044855 -0.23720656 0.1709743 0.14311981 0.1649696 -0.15965477 0.2688341 -0.05368167 0.2930957 -0.13396603 -0.21639511 -0.1106075 0.10739572 -0.27095366 0.3183268 -0.1174548 0.09793759 0.3032014 -0.16222915 -0.17197205 -0.005981013 -0.07910048 -0.13122535 -0.047203295 -0.3351411 0.15382172 -0.028733568 0.14531326 0.29788032 0.07927061 -0.078273356 0.096280545 0.13474584 0.34438813 -0.54011387 -0.07611947 -0.29204372
141 -0.29420826 0.031118192 0.06496568 0.3737553 0.28626266 -0.11160975 0.24317932 -0.5251179 0.096691884 -0.4524085 0.13836548 0.01660206 -0.10571807 -0.24176966 0.12319066 0.07319771 0.0518603 -0.063337125 -0.42150167 -0.207831 0.19836551 0.13026029 0.45704708 -0.24761939 -0.034783322 0.322644 -0.22154096 0.33172312 -0.012515093 -0.3544849 0.21455865 -0.10181092 -0.17919852 -0.47656816 0.407426 0.11892883 -0.16614807 -0.13252845 0.16767491 -0.08363937 0.035022553 0.14681153 -0.26031932 0.2832653 0.18596564 -0.25942117 0.36413184 0.02914905 0.5693402 -0.56216455 0.090072684 -0.28502408 0.16579081 -0.3367565 -0.28416178 0.33543974 -0.3144393 0.030377645 -0.2934557 -0.026015269 0.042726733 -0.10922144 0.09352166 0.04299463
169 0.35567906 -0.0025819372 0.21193989 -0.30262887 0.41501972 -0.14519148 0.08404135 0.15908408 -0.19670153 -0.03988978 0.060998715 -0.15483348 -0.26764873 -0.21525683 0.06331667 0.484675 0.1019944 0.11577177 0.16315766 -0.24923961 -0.073370814 -0.08836537 0.11926328 -0.20884435 -0.2597853 -0.13435072 -0.08036323 -0.04255381 0.16685149 -0.055652745 0.15260759 -0.07352127 0.34438837 0.16357927 -0.31508076 0.13846363 -0.14944622 0.12167195 -0.17977138 -0.01450854 0.10387868 0.2832386 0.05745816 -0.14769295 0.14023034 -0.3216542 0.11442019 0.087332696 0.0037636247 -0.40750015 -0.2305176 0.09706392 0.45519373 -0.041076597 -0.19927678 0.46624148 0.002428413 -0.03773011 -0.07610864 -0.0974282 0.007883403 -0.113812365 -0.073949315 -0.021348042
142 -0.26566562 0.27713874 0.45883465 0.23805092 0.24755241 -0.2804381 -0.045279726 -0.058384374 -0.21653461 -0.034095857 0.00956193 -0.033712555 -0.04616593 0.09470105 -0.11409092 0.33827084 -0.1953091 -0.20821907 0.07268344 -0.062580325 -0.09861719 0.13202675 -0.15198486 -0.3724884 0.005398577 0.20593613 -0.42563513 0.061739735 -0.24617812 -0.33304736 0.036236532 -0.13460147 0.02379812 0.08512202 -0.29349822 -0.17846231 -0.09576022 0.05331281 -0.42134622 0.042588845 0.13574015 0.10329571 0.10184223 -0.20269918 0.0868801 -0.1596087 0.35694703 0.27873176 -0.061457157 0.007842081 -0.09742828 -0.12248524 0.069269754 0.020448945 0.16389805 0.14892071 0.2714285 -0.013046253 -0.2294399 0.05994742 -0.1211399 -0.34661683 -0.32768512 0.05920106
340 -0.09121656 0.2187458 0.25824326 0.026838543 0.41376936 -0.15659857 0.03709635 0.04219777 -0.1029523 -0.022937521 -0.021467647 -0.13747986 -0.25268593 -0.14176093 -0.08798268 0.12606107 -0.21598631 0.04146058 0.18299736 -0.1324542 0.050204635 -0.37972087 -0.16336979 0.025617471 -0.37490848 -0.19293563 -0.4752851 -0.020225612 -0.07640005 -0.3628441 -0.064657055 -0.11292148 -0.16338369 -0.015357647 -0.09933333 -0.2824318 -0.14758603 -0.18279992 -0.0347399 0.27173078 0.008545506 -0.15536837 -0.35804057 -0.3472028 0.007261697 0.3772466 0.08778942 0.31510353 0.27336723 -0.29308036 -0.3294923 0.0579491 0.33609 -0.15532374 0.12798837 0.055454787 -0.3299484 -0.40498692 -0.2017804 -0.50104207 0.31940398 -0.4341084 0.28787825 0.16335604
968 0.8713006 0.85760516 0.19074914 -0.16232029 -0.08613495 -1.411153 0.7054964 -2.1225352 -0.41147688 1.3872589 1.4457846 -0.9745418 -0.52600753 -1.8924327 -0.14011794 -0.19360967 0.40154997 -0.25566056 -0.14624244 0.3475791 -1.2581226 -0.4226092 0.035726614 -1.8529675 -0.069603026 1.4927555 0.34741336 0.96188456 0.25819334 -1.2067662 0.7266172 -0.4455871 -1.042106 -0.1940228 -1.2635176 -0.42304868 0.59862673 -0.45691708 -0.5022383 0.75755775 0.39169973 -0.742608 -0.22433351 0.8655356 0.22597365 0.7270654 1.9170008 0.6041961 0.1023951 -0.55306 0.087833665 0.6596532 0.12598981 -0.43942702 0.48152384 0.5522148 -1.6626706 -1.487858 1.2875965 0.49808633 0.025534116 -1.0625658 -0.83242947 -0.62707734
424 -0.3180551 -0.14924334 0.29004622 0.17148566 0.4469624 -0.2941832 -0.11286826 -0.072025 -0.30358395 0.2559231 0.03159201 -0.26145262 0.2464534 0.044295993 -0.115481086 0.09728793 -0.22860622 -0.13723068 0.1881107 -0.13516301 0.09285157 -0.05486301 0.11833922 -0.019883037 -0.15322189 0.19554405 -0.14523108 -0.0024843717 0.08544387 -0.4241586 0.044016507 -0.057867914 -0.0014512762 0.20563456 -0.35110232 -0.20418975 -0.100690156 -0.16003135 -0.05146012 0.25804654 0.040870037 0.26442087 0.3372494 -0.09355071 0.03177493 -0.15688714 0.4133626 -0.0063463883 -0.027355213 -0.28110924 -0.10696535 0.047101725 -0.04122917 0.14351675 0.1932917 0.38982606 0.34683233 -0.12047626 0.19399405 0.13243183 -0.097032085 -0.26271495 -0.18342529 0.25750494
170 0.100753926 -0.3868274 0.20760123 -0.072169915 0.39528584 -0.14075284 -0.30856866 -0.16703434 -0.0584631 -0.016935473 0.2602591 -0.35083878 -0.15855679 -0.22793834 0.14987856 0.46215835 0.21856833 -0.06721262 0.29100308 -0.1468567 0.061950244 -0.3886439 0.041881565 -0.19332056 -0.22870287 -0.023115203 0.0360502 0.16357729 0.015953127 0.22398761 -0.23202194 -0.10934429 0.10509438 0.1711998 -0.31196955 -0.059931614 -0.653919 -0.06578102 -0.14978364 0.12249078 0.1887787 0.038467836 0.23131326 -0.082495496 -0.11431 -0.33663097 0.38415992 -0.04559077 0.012153904 -0.4881894 -0.2288102 0.18263493 0.30915686 -0.11765233 -0.4894221 0.28980002 0.037990727 -0.03104798 -0.22933479 -0.2867172 -0.24031667 -0.0036394887 0.0335764 0.106006585
438 0.4456894 -0.07277228 0.1444553 0.0060684276 0.5484557 -0.10673725 0.1419439 0.1622635 -0.23235628 -0.3256795 0.22650552 -0.14116308 -0.105081975 0.037114948 0.5518213 0.19333144 -0.018755283 0.092023335 -0.16350114 -0.36347333 -0.5010611 -0.008749994 -0.3822313 -0.29844287 -0.32141107 -0.04000473 -0.06262983 -0.01318805 0.3737767 0.05399692 0.021668378 -0.49720597 0.04260924 0.34921783 -0.21626812 -0.051456176 -0.29322982 -0.12577611 -0.1969672 0.22584501 -0.11361293 0.05358121 0.2185612 -0.27931854 0.32604173 -0.49665245 0.531304 0.22939458 0.07306066 -0.42314819 -0.21075192 0.09009368 0.3162954 -0.0051998068 -0.16241421 0.36872047 -0.29745615 0.14198637 0.022298213 -0.0009962878 0.021831313 0.0512175 0.16121496 -0.035136443
329 0.0013672381 0.16062732 0.19629174 -0.31224996 0.1370925 -0.13509497 -0.06473751 -0.18131122 -0.31137568 -0.012102706 0.2171263 -0.0610913 -0.039425075 -0.10085021 -0.34028125 0.34745938 -0.090755485 -0.052932456 0.0010951803 0.07696113 0.017494002 0.054328248 0.011677263 -0.3846635 0.21196356 -0.2167056 -0.17518076 -0.2631313 -8.7516586e-05 -0.46367192 0.24034321 0.537536 -0.09974326 0.2713479 -0.14001392 -0.17858998 0.17110638 0.04068183 -0.036296614 0.39659715 0.028847802 0.35366532 -0.10380289 -0.17626911 -0.16845274 0.019449247 0.19767456 0.053740934 -0.15187098 -0.41890207 -0.41821444 -0.12987596 0.5550948 0.022383811 -0.15709189 0.083217084 -0.10843197 -0.025630457 -0.112346835 0.058380254 -0.45707795 -0.28465444 0.028113028 -0.10772928
646 -1.0217825 -0.3782079 1.0086927 -0.2540765 1.0703596 -0.112678535 0.36045521 0.5429481 -0.7385874 -0.32974172 -0.6539155 -0.85959464 -1.2483196 -0.7273031 -0.8701707 1.276005 -1.1469163 -0.45339578 0.6809783 0.672898 0.7777333 -0.35224444 -0.40657166 -1.7856729 -0.47178888 -0.1110875 0.5230308 1.1767011 -0.14727749 -0.20117043 0.29829767 0.8470585 -0.3976052 1.060257 0.69242173 0.47015885 -0.8300241 -0.25270247 0.40434363 -0.8850826 0.90944386 0.85804284 -0.40820065 -0.44954005 0.013409936 -0.64434093 1.6405222 -1.12293 -1.0693111 -1.7479678 0.83144516 -0.5917445 0.82571447 0.7860506 0.15305188 1.4236811 -0.4678016 0.76012385 0.07706185 -0.1401539 0.10096736 -1.8552284 1.6108047 -1.202192
630 -0.25398102 -1.2746974 1.3517797 -0.56923217 0.12931952 -0.2947593 2.0244668 0.49761796 0.18417306 0.1267153 1.3281524 -1.5092952 -0.34121892 -1.8486819 -0.4818816 -0.6072491 -0.061605815 -0.6445358 2.1498237 0.5473443 0.28772366 0.8743835 1.6348329 -0.8082922 -1.1400318 1.4528217 -1.5615222 -0.2962565 -1.2959391 -0.92849624 0.27972764 -0.67358935 -0.4439923 0.9036639 -1.427295 -0.25733507 -0.2925233 -0.73182106 -0.09146081 1.5788255 0.95018494 1.3141972 0.526769 -1.0472447 -0.28994802 -0.38663566 0.56020766 -0.11898198 -1.3753847 0.59382236 -0.14434235 1.4278555 1.811642 -1.9158943 0.98403883 0.49636915 -0.72824544 -1.1659164 0.92261285 0.30630183 0.83580554 -1.4714576 0.045523647 -0.118580796
494 0.3077984 0.19016138 0.25325826 0.18701364 -0.09445926 0.37645024 0.14839965 -0.7167934 -0.2101868 0.12629683 0.23605493 -0.07164851 0.079668865 0.00069229346 -0.12833281 -0.006336124 0.038094897 -0.16959886 -0.52591527 -0.12151045 0.018607585 -0.3464449 -0.13526212 -0.053968146 -0.40064943 -0.012815054 -0.1320653 0.062205896 0.14915533 -0.29969722 0.21651344 0.0077494946 0.032731846 -0.057862494 -0.518204 0.3195522 -0.21669267 -0.3808324 -0.11416043 -0.030807452 0.09950474 0.47827077 0.113511235 -0.018545654 -0.084006526 0.09940044 0.33563164 0.17814188 0.043754123 -0.4140418 -0.047238678 -0.055377588 0.15883826 0.3348004 -0.06543162 0.35332584 0.062376868 -0.18041134 -0.44016552 -0.073940225 0.25607488 -0.38501853 0.01031589 0.050165847
757 0.697223 -0.20881021 0.9781941 -1.5959296 -0.6144036 -1.2988428 -0.8773485 -0.9811883 -1.7698728 1.5540031 0.64188313 -0.3818413 -0.59747034 -0.07627161 0.30715826 0.9723727 -0.023483228 1.1317075 0.17276363 -0.37836394 0.9945632 -0.16985457 -1.8823305 -1.7801253 -0.92339635 0.9556335 -2.1191416 0.20180668 0.37921527 -0.4204434 1.4881953 -0.35176018 0.54990196 0.67564833 -0.7692302 0.3360949 -1.0019381 -1.5673428 0.72373915 1.0087816 -0.26377591 1.6283746 -0.45588356 0.19402023 0.6385936 -1.2965691 1.1596135 -0.25549227 1.195529 -0.33381405 0.6886059 0.39997932 0.8312351 -2.1179323 -0.7482998 2.1657972 0.11811423 -0.09541347 -0.7830962 1.1099318 -0.19849122 -0.083558746 -0.82193714 0.090800926
4 -0.3637574 -0.14841539 0.3833757 0.18372896 0.35724825 -0.27491915 0.32816836 -0.07470234 0.020476354 -0.04761034 0.4659534 0.16692202 0.043445606 -0.05780947 -0.0076926844 0.40229487 0.13244548 -0.024159744 0.44190934 0.014971505 -0.11810798 0.33070618 -0.13471165 -0.49326146 3.9909857e-05 0.24862689 0.033125646 0.068412036 -0.15112428 0.102777235 -0.011794509 0.4265645 -0.3337696 0.33922794 -0.13698317 0.21567398 -0.14877412 -0.10071209 -0.043527886 0.22629493 -0.2007619 0.23271424 0.120178066 -0.11145237 0.33750945 -0.31563097 -0.30154613 -0.13622707 -0.15439996 -0.28137392 0.12030195 -0.29325888 0.27322564 -0.167263 -0.21117698 0.09101864 -0.048079852 -0.30851993 0.08456951 -0.062419463 0.19854684 -0.36376974 -0.032035634 -0.35180843
533 -0.106433965 0.26197016 0.23024844 0.20392342 0.17229433 0.030399997 0.04530977 -0.44417614 0.014990364 -0.21286775 0.6720682 -0.1848507 -0.17721042 -0.17273363 0.18729144 0.024380157 -0.261122 0.08423635 0.46312365 -0.009225815 -0.096066 0.1248876 0.4023406 -0.39449865 0.009265007 0.10822933 -0.07726791 0.26749903 0.31518227 0.14435157 0.1764601 -0.10819427 -0.22614054 -0.39059806 -0.17225179 0.019361304 -0.48272988 0.011967327 -0.24203922 -0.17226124 0.045057744 0.31283328 0.087328546 0.019736767 -0.42979956 -0.16354744 0.36419347 0.15199742 -0.107132815 -0.03120557 -0.13527636 -0.056603223 0.102326244 0.24983975 0.0048206104 0.14945327 -0.021963907 0.26248485 0.23890264 -0.01530263 -0.14100114 -0.08119135 0.17649107 -0.007480396
405 -0.11701591 -0.27758884 0.5941118 0.040403757 0.53642994 -0.4935471 0.2766527 -0.05530233 0.03424689 0.23233533 -0.18374792 0.10579094 0.19395415 0.07488132 0.0066932603 0.6208107 -0.048041757 0.073988125 -0.1072194 -0.20180988 0.18749997 0.30790386 -0.08438379 -0.10105381 -0.14401233 0.13722627 -0.24885787 -0.10417305 0.09925165 -0.2810758 0.13550577 -0.0974045 -0.12425365 0.13166606 -0.13156457 0.010115063 -0.011726743 0.028869355 -0.16569366 0.093870565 -0.0046154656 0.2930115 -0.35379428 0.06090978 -0.07507596 0.03254778 0.2974789 0.017206356 0.13051227 -0.33558065 -0.04278512 0.14041312 0.38390195 0.11872119 -0.34259307 -0.1225411 -0.16961093 -0.046179783 0.19261287 -0.31073448 0.047362916 -0.18358515 -0.10391037 0.22886564
637 -0.83084184 -0.42082474 1.2976087 0.9622118 -0.34572425 -0.08813115 0.2935657 -0.2916102 0.6284922 1.6173195 -0.061470523 -0.012253806 -0.64667577 0.31035942 -0.36445123 2.3028605 0.5639348 -1.1955568 -0.18281193 -0.27017707 0.88445795 -0.3162585 1.1302379 -1.6013457 -1.312736 1.0919751 -0.3998216 -0.62268126 -0.6748075 -0.37033692 1.7568632 0.0768608 -2.039856 0.6467243 -0.75153404 0.9490935 -0.37488446 1.2879245 -0.3654815 0.36537573 -1.1555657 0.40444103 1.0873722 -0.76496905 -0.6750736 -0.5055278 0.11356698 0.6998212 -0.16492116 -0.24696408 -0.12679264 -0.0785535 -0.5486092 0.038689017 -0.84199 3.0575292 -0.9611059 -0.54784524 0.5199642 -0.84687465 0.35081097 -0.82489115 -0.050962985 -0.21894217
113 0.045433804 -0.24797976 0.101067565 -0.29090476 0.3371675 -0.020844217 0.15093802 -0.26260513 -0.16025297 -0.3490036 0.12498778 -0.13529573 -0.52547526 -0.17651424 0.09557336 -0.15013765 0.2429895 0.12842594 0.13284273 0.00623294 -0.049746472 -0.25112647 -0.13678043 -0.2534159 -0.2646657 -0.35863286 0.19179991 0.019593619 -0.096548654 -0.44799772 0.17099705 -0.37285733 -0.038164016 0.6629367 -0.2880931 0.12636389 -0.055844072 -0.3655143 0.27471286 0.06515254 0.19978838 0.3094172 0.031605255 0.06580262 0.053218104 -0.26178923 0.34607404 0.26569656 -0.040068153 -0.07333682 -0.3081416 -0.097853266 0.40409845 -0.12359111 -0.07612141 0.27226454 -0.23271364 -0.11464975 -0.44822288 -0.20777097 -0.5457682 -0.10105767 0.15252294 -0.12256228
137 -0.16070893 -0.23675522 0.15600772 -0.23513904 0.5203061 -0.12528302 0.013995066 -0.08702436 -0.51348037 0.009930863 0.5924696 -0.06167726 -0.05771153 0.05130224 -0.118503556 -0.08785948 0.019180413 -0.22855897 0.6192215 -0.079482235 -0.32757512 0.3419935 0.0887948 -0.6022745 0.056045793 0.2036236 -0.23616327 -0.18087143 -0.005496049 0.26955533 0.2302879 0.24965554 -0.1240645 0.052971896 0.229759 -0.05211806 0.07960916 0.037890796 -0.21067803 0.06716708 -0.358217 0.5875232 -0.10159036 0.14937252 0.32954878 0.15203789 -0.15247327 0.012295339 -0.16927662 -0.4186358 -0.21418564 -0.3288828 0.22585467 0.027566126 0.01189036 0.112316504 0.09182528 -0.26920208 0.002184767 0.056006018 0.18210438 -0.06442741 -0.06959841 -0.24097988
74 -0.27385503 -0.03544076 -0.14537509 0.19198398 0.16726212 -0.20684633 -0.36541554 0.27351335 -0.054074023 -0.046241622 0.24029614 -0.11794171 -0.22036558 0.23771949 0.07154572 0.45714805 -0.06206872 0.022046125 -0.19713354 -0.05522279 -0.16878514 -0.27035093 -0.44371763 -0.4385538 -0.27194065 -0.40931675 -0.10629589 0.4655045 -0.21224533 -0.17190495 -0.45392072 -0.17780028 -0.14901912 -0.38301626 -0.02655058 0.24400242 -0.019125467 -0.11766353 -0.0012111254 0.24820265 -0.008435348 0.5267349 -0.2693111 0.04932925 0.044046924 0.143205 0.6002925 0.14163394 0.27017513 -0.18080187 -0.21958448 -0.011378641 0.107644044 0.04922365 0.021095505 0.110456444 -0.20332837 -0.20994228 0.026415348 -0.30053592 -0.2298998 -0.27489093 -0.08763794 -0.041798197
215 -0.11688105 -0.034435213 0.3105993 -0.18973091 0.35222504 -0.12070015 -0.28475675 0.42913663 0.04067667 -0.21206558 0.14609298 -0.58513576 0.060263366 0.14007674 -0.11859956 0.15182877 0.09420157 0.28504917 -0.26045084 0.2793503 -0.05242525 -0.1875896 -0.06141191 -0.3782949 0.043479405 -0.38301593 0.07200069 -0.023875488 -0.38278916 -0.32013193 -0.06516921 -0.14239699 -0.5580702 -0.4500865 -0.2444514 0.28025138 -0.110557444 0.0252146 -0.2894418 0.112378344 -0.35939407 0.60958445 0.24779487 0.12332133 -0.0068365945 0.1868389 0.37321323 -0.11423345 0.09217254 -0.115619294 0.007906414 -0.08191399 0.22565621 -0.15993595 0.39205724 0.010061458 0.25440744 -0.033087783 0.055883687 -0.0020167928 0.144634 -0.12443761 0.06224724 -0.29902658
232 -0.02438188 0.34085414 0.065349296 0.17627232 0.13269897 0.3109315 0.1818756 -0.19970512 -0.39965746 -0.23618583 -0.1224316 -0.30442336 -0.18602864 -0.23562348 0.15601107 0.12920807 0.06756179 0.07496346 -0.007254128 -0.14605089 0.26597124 0.403076 0.025980296 -0.35416055 -0.23942225 -0.27017644 -0.1576743 0.67104316 0.048994783 -0.45869562 -0.17825322 -0.32597938 -0.35693863 -0.21367295 0.08592772 0.7245449 -0.035358373 0.0077064643 0.038255997 -0.47665194 0.06850838 0.12503421 -0.029359275 0.3522812 0.0066562267 -0.29039735 0.19764058 0.19722334 -0.06898144 -0.054253418 -0.3950371 0.2034406 -0.16050142 -0.3831665 -0.054258503 0.25832435 -0.05110928 0.37268108 -0.008022581 -0.22547664 -0.4802965 -0.0977055 0.39352486 -0.22747782
366 -0.19496402 0.17898786 0.6305085 0.0044333986 0.2951443 -0.16306104 -0.07727201 -0.16338834 0.25783774 0.13354437 0.35905722 -0.0068528177 -0.03518092 -0.07856257 0.015016833 0.52651465 0.010000082 -0.36697918 -0.12292176 -0.17845458 0.35307124 -0.39241293 -0.30351493 -0.40148476 -0.079312466 -0.28411072 -0.30587664 0.059007965 0.02343576 -0.30779704 0.23724955 -0.093283854 -0.032102063 0.07570591 0.08660608 0.44173065 0.029922478 -0.27375975 -0.3467521 0.36318105 -0.021881469 0.090317406 0.08602375 0.12890525 0.04311711 -0.049245868 0.14653379 0.42989585 0.19883643 -0.18360545 0.1644659 -0.14622305 -0.21095653 0.07228198 0.514074 0.19771115 0.25977123 -0.03147476 0.1347351 0.04000133 0.13432713 -0.21113168 0.027460933 0.14532946
83 -0.27246088 0.1170967 0.24846205 0.10533317 0.08400223 -0.03997676 -0.10900412 -0.3486949 -0.32943338 -0.09148585 -0.383823 0.13389651 0.15596512 -0.1779956 -0.1303623 0.18784493 -0.12064597 -0.40411305 -0.14477283 -0.016975798 0.114973396 0.038472027 0.15139547 -0.23096728 -0.44514728 -0.1335491 -0.1378612 0.31241864 -0.36552912 -0.2729778 0.15834893 0.17411931 -0.30450672 0.23144573 -0.20011702 0.10960583 -0.16960305 0.018469835 -0.25508365 0.19902694 0.01486544 -0.0006581718 -0.046882853 0.17583382 -0.015783664 -0.10761275 0.1532009 0.36553892 0.23416784 -0.20574929 0.03354395 -0.17209178 0.31221306 0.14589164 -0.014089699 0.10094581 0.20299032 -0.07659119 0.07635458 0.2599932 0.09357319 -0.11195706 0.12874451 -0.15220039
11 -0.07367183 0.27949956 0.21786702 0.09848627 0.21881784 0.0485315 0.14745772 -0.18890187 -0.025468526 -0.17361747 -0.013191777 -0.20769027 -0.42363775 -0.17983095 -0.062874556 0.21770395 -0.0759874 -0.20936838 -0.2533648 -0.4065264 -0.30429736 0.052734416 0.63168883 -0.037563767 0.27295053 0.21988183 -0.29662555 0.024464296 0.09308657 -0.44472206 0.26516065 0.15231021 -0.3741547 -0.54336935 0.6083464 0.058601294 -0.21238878 0.46354222 0.25242078 -0.16088681 0.058102313 0.4547998 -0.27258635 -0.04941667 -0.13123782 0.06328729 0.32240066 0.3104166 0.21956907 -0.56076705 0.18328172 -0.19247852 0.080317624 -0.1328783 -0.20026015 0.5401634 -0.19199753 -0.18952484 -0.17333904 -0.16258186 -0.08523639 0.01906179 0.292157 -0.26055056
473 -0.2799789 -0.29177007 0.10438801 0.10952482 0.7763791 -0.056180198 -0.024865456 -0.22381078 -0.29821205 -0.17760128 0.2888057 -0.5292179 0.11082934 -0.082795404 0.0640888 0.15370269 -0.23345532 -0.033306524 0.22752616 -0.11714061 0.011989021 0.15445305 -0.08431405 -0.35308492 0.10718596 0.17909436 0.30170435 0.37841842 0.5017504 -0.27558804 0.027306331 -0.0027919337 -0.08283708 -0.014253461 -0.22121948 -0.16384028 0.035460815 0.15970176 -0.3793164 -0.022137076 0.14947465 -0.22234249 -0.28887966 0.23895897 -0.08137195 0.06756795 0.28587615 0.37566566 -0.19065623 -0.14965536 -0.068272725 0.15250632 0.41399834 0.13662137 0.25815693 0.025319975 -0.17381422 -0.008222797 -0.24338043 0.30020234 -0.28338617 0.013328854 0.15075018 -0.1090851
61 -0.06896838 0.424778 0.40464404 0.29406536 0.30885532 -0.19928035 0.17833936 0.033956893 -0.11819287 -0.3139961 0.021596305 0.009842429 0.07012886 -0.18862726 0.61680114 -0.07599068 -0.15421101 -0.005602115 0.067072 0.06369811 0.16581877 -0.12380889 0.17036562 -0.1461436 0.30834663 0.30357197 0.22776437 0.47948664 -0.20638697 -0.47075173 -0.34159935 0.12296058 -0.030995965 -0.1849362 0.0010603868 0.8393546 -0.14587605 0.041856006 -0.26536667 -0.26638532 -0.1806433 0.35975912 0.08779952 0.23075508 0.003535948 0.32055306 0.5931063 0.22698638 0.06283327 -0.17195435 -0.12910646 0.37099198 0.08327821 -0.51713735 -0.35867172 0.3498852 0.060078517 0.09911207 0.292033 -0.30120242 -0.15774626 0.28595078 0.04596733 0.28158054
303 -0.029236212 -0.32811266 0.30967638 -0.26485154 0.19355509 -0.13250703 0.12062318 0.09833066 0.09660111 0.07852764 0.15925612 -0.26844153 0.10871871 -0.2294676 0.11428994 0.04368023 0.05525402 -0.055417765 0.2697303 -0.109295174 0.06938474 0.33949915 0.34997192 -0.5334949 -0.0046777083 0.38828734 -0.47825283 -0.23445915 -0.252247 0.01444821 0.16328505 -0.03613926 -0.037750658 0.2537765 -0.3298888 -0.2069601 -0.014711954 -0.020516712 -0.115910195 0.34506604 -0.0053512226 0.47612458 -0.1399899 -0.03944413 0.16403964 -0.020632328 -0.10334396 -0.0010835283 0.0644244 -0.25267985 -0.24949567 -0.027453031 0.1891151 -0.12600848 -0.100458354 0.15795064 0.0043085767 -0.056837853 0.09325007 0.005251443 -0.019206412 -0.4413695 0.14693786 -0.43202123
133 -0.12780182 0.34504688 -0.031867873 -0.11666092 0.38988137 -0.15610921 0.027228123 -0.021237316 -0.10655586 0.0070054634 -0.083638996 -0.008182199 -0.25614163 -0.26716724 -0.055491667 0.15258391 0.051881257 -0.099647015 -0.13687241 0.117024936 0.084652066 0.163189 -0.17786211 -0.19571751 -0.40716678 -0.10213079 -0.040419444 -0.073064506 0.6254809 -0.6316292 -0.21236768 -0.19034141 -0.09180062 -0.07832353 -0.055907793 -0.035377067 -0.2570059 0.20069386 0.0027475473 0.11660382 -0.04114394 -0.04933359 -0.02644575 -0.07042425 0.35867393 -0.19236474 0.06425223 0.37964854 0.079025514 -0.06797534 -0.088224664 0.21844868 0.5054587 -0.20486775 0.0012903278 0.37470376 -0.03621465 -0.25023523 -0.025365107 0.06614579 -0.04845752 -0.01813488 0.3255678 0.31136936
977 -1.0499389 -1.7965529 1.754934 0.6998055 -0.1410829 -0.68772686 0.49183103 0.33701372 -0.2688342 0.18532015 -0.46096224 -1.6606184 -0.9332575 -0.7482072 -1.6060938 1.4573685 -0.6959879 -0.3936383 -0.14054698 1.1922199 0.6822144 1.5434651 1.1598406 -1.7279878 1.0253719 1.2723068 -0.71698874 0.22888759 -0.6824889 -0.8338862 -0.08751239 -1.3059708 -2.1454012 0.07670837 -0.034185752 -0.5323421 0.25296158 -0.9777319 0.3540712 0.60569954 -1.0983001 0.3975641 1.9058585 -0.12922391 -0.49608678 -0.5221826 0.57711464 -0.059760723 -0.35448363 -0.44771644 -0.87139493 -0.043359168 0.62390816 -0.21007523 -0.10107342 1.6455722 -0.17652954 -0.6115288 0.6777894 0.65936816 0.53690016 -1.0477386 0.11759382 -0.5285076
19 -0.1315073 0.3014468 0.012150995 0.39648703 0.2068475 -0.27645412 0.29550105 -0.18023066 0.099769175 -0.26681554 0.12652674 -0.05539375 -0.09890401 -0.26013806 -0.050436642 0.28779274 -0.012231401 -0.09133171 -0.388756 0.0027633603 0.074463196 0.017472355 0.51937497 -0.41112545 0.21856804 0.3045055 -0.14029783 0.21484469 -0.19036788 0.064439975 0.3380449 -0.062937796 -0.6012902 -0.28814912 0.022219796 0.21035762 0.07976862 0.19545855 -0.18948951 0.039432276 0.14490408 0.2048837 -0.36879453 0.27684972 0.11747211 0.026933199 0.57366604 0.38188568 0.18352425 -0.531553 0.116081014 -0.27786687 0.25135854 -0.3565904 0.04997291 0.21263814 -0.31572592 0.12204836 -0.36081877 -0.031394053 0.15634471 0.064440645 0.084387526 0.22751608
493 -0.47215882 0.16273852 -0.053583626 -0.13224487 0.19212086 0.045087133 -0.51511014 -0.41146493 -0.08004253 0.28286254 -0.033972494 -0.067405954 -0.209905 -0.12143757 0.14759594 0.15746616 -0.04529706 -0.09676656 0.26029134 0.008114041 -0.12921612 0.42809263 0.02175835 0.12314443 -0.24151663 -0.34208307 -0.18068033 0.18564555 0.15393673 -0.26792532 -0.08730709 -0.17249192 -0.32890233 0.11853287 -0.5555879 0.35776433 0.2519241 0.029729012 0.12013567 -0.18209986 -0.1562016 -0.06534375 -0.09641322 -0.06642935 0.15166341 -0.26564646 0.4046278 0.03397586 -0.06274363 -0.019082332 -0.13621119 0.1527977 0.2802622 -0.40913674 0.10300267 0.3540988 -0.090052135 -0.057543 -0.019061636 0.042593267 0.008803843 -0.5237244 0.3078667 0.057326842
23 0.2707871 -0.15428762 -0.018254964 -0.20733774 0.27729708 0.09085291 -0.30716974 -0.16645606 -0.1247414 -0.23678522 0.30086833 -0.069677085 -0.10166075 -0.23332264 0.21969421 0.1468735 -0.15348995 -0.17321023 -0.33386055 0.29944322 -0.33953726 -0.2881066 -0.39661637 -0.14216813 -0.10599178 0.123957776 -0.011180614 0.1870279 0.24775033 0.053721998 0.010035841 -0.15200207 0.12475367 0.3960519 -0.44574577 0.025060229 -0.37988794 -0.15010084 -0.12615006 0.15727495 -0.048361212 0.22905147 0.030923132 0.041303758 -0.16272298 -0.4539523 0.34127158 0.30803838 0.15795432 -0.18663292 -0.2375274 -0.20341401 0.52342486 0.010075154 0.082039595 0.57498837 -0.21350715 -0.39477703 -0.21325761 -0.20395306 0.010053531 0.08808713 0.057539742 0.05510851
252 -0.21156226 -0.30892703 0.17191792 -0.05573352 0.28787956 0.21826868 0.19305992 0.11775356 -0.13397281 0.19860421 0.5009122 -0.19117619 -0.16078217 0.00268746 0.17647417 0.19066682 0.24180527 -0.22693 0.3464514 0.075838625 0.031223476 0.30562794 0.20508209 -0.45440882 -0.11486621 0.25542742 -0.24565734 0.16672459 -0.24088953 0.01660602 0.063854344 0.13418551 -0.111557506 0.47824892 -0.10931617 0.04430431 -0.25652686 0.11517351 -0.168199 0.18124439 -0.11248165 0.4016 -0.20587154 -0.07659177 -0.1101521 -0.08821695 -0.02882543 -0.01974767 0.12210505 -0.086779 -0.078766815 -0.35735565 0.014583745 -0.018023737 0.016521456 0.34751895 -0.04056992 -0.01594532 0.1536626 0.23096447 0.3793379 -0.16525093 0.093598254 -0.4655641
419 0.12285604 -0.059411578 0.20517513 0.03491714 0.3637634 -0.083891235 -0.12362556 -0.03290886 -0.2167107 0.38203657 -0.20031622 -0.35933116 0.37379777 -0.015992997 -0.1438937 0.016653042 -0.052176602 -0.05800663 0.18504457 -0.025356231 0.2180481 0.23851015 -0.12666342 -0.2202353 -0.051292233 -0.45624292 -0.19566576 -0.020609226 0.1900502 -0.43955642 0.10322113 -0.024262104 -0.30421084 0.2460024 0.14809486 -0.29143164 -0.41443095 0.093728036 -0.028384443 0.24417704 0.19052783 -0.14232507 -0.5627577 -0.3117234 0.1835146 0.041267026 0.46935973 0.16799152 -0.1670737 -0.4254261 -0.3713436 -0.023961589 0.3219593 -0.14195141 -0.038608108 -0.019289376 -0.14867625 -0.09161674 0.08855592 -0.028234078 -0.07301842 -0.20787528 0.1511083 0.13501705
631 -0.36280718 -0.9270117 1.5253772 0.11189744 1.1993979 1.0552589 -1.7242508 -0.6015187 0.0600021 0.64835083 -0.5412682 -1.5502971 0.66140634 -0.77498794 -1.0440811 0.398928 0.029317267 -1.4077402 0.65640676 0.7284599 0.3241614 -0.27089027 0.23415592 -1.8478557 0.64557385 0.8048726 -1.7595768 0.33108914 -0.5787292 -0.86407703 -0.16830133 0.033118345 -1.9597385 -0.17798649 0.12629978 -0.12061215 -0.7937152 0.3380366 -1.2728765 0.22617339 -1.7305677 1.4584644 2.0712044 -1.0795398 0.07493829 0.976721 0.007503379 0.45879516 -0.8878394 -0.543511 1.1305112 -0.5400147 -0.84191495 0.15019625 -0.70337695 1.6437944 -1.1923438 -0.7175514 -0.5091048 0.016377166 -0.43509468 -1.9034028 1.5701226 -0.3692147
269 -0.326457 -0.43438697 -0.21995132 0.35772207 0.33715343 -0.074722365 -0.38745186 0.006586091 -0.11573762 0.13636261 0.43043092 0.22403522 -0.014239878 -0.0922482 -0.366104 0.09197126 -0.38792154 0.09613778 0.47021127 -0.2281697 -0.011982396 0.21518396 0.37553957 -0.3472483 -0.25151336 0.123118155 -0.45740235 -0.030250125 -0.13784781 -0.15814123 0.15658875 0.28422555 -0.30898622 0.36104226 -0.4785084 -0.18813445 -0.15482554 -0.16906546 -0.19633834 -0.42938915 -0.011635472 0.3145978 -0.13835734 0.21774666 -0.27691635 -0.020359498 0.17507555 0.33428743 0.63098496 -0.10055328 0.07518634 0.10667343 0.16324978 -0.20801604 0.08267043 0.07505912 0.17723191 -0.2413234 0.13276811 -0.12941214 -0.091176376 -0.10618439 0.023056008 0.12156919
371 -0.0339112 0.06379293 0.15304612 -0.007662154 0.5202511 -0.056129694 -0.035038188 -0.13094012 0.0983479 0.10474849 -0.16189446 -0.022531727 0.33344406 0.03399169 0.017418494 0.049772643 -0.24493328 0.084314585 0.31997117 -0.0007050429 0.07143618 0.06820029 0.4916473 -0.7671435 -0.09765408 0.20949638 -0.289516 -0.10266931 -0.13220301 -0.23294395 0.26206928 0.13668768 -0.14277264 0.05781948 -0.30259827 -0.1107993 -0.30246294 0.03920561 -0.19037512 0.2606036 0.30548126 0.29563996 -0.21090017 0.15832266 -0.16158955 -0.40623173 -0.04018235 -0.109212875 -0.34355906 -0.5038505 -0.09612824 0.08504827 0.26181698 0.06356728 -0.002347206 -0.050012328 -0.10576344 -0.1393512 -0.010459818 -0.1968078 -0.08251554 -0.266039 -0.19083516 0.062275846
498 -0.064049125 0.17419936 0.33634302 0.61293566 0.45294407 -0.26889628 0.21674639 -0.30395535 -0.07965319 -0.29683894 0.076491565 -0.4266601 -0.075739846 -0.015285343 0.018613808 -0.26845804 -0.13736008 0.025417143 0.04929668 -0.2266049 -0.09730272 0.42153132 0.3429693 -0.09012662 0.43768314 0.07068292 -0.0838639 0.110246055 -0.19226348 -0.27881315 0.0819653 -0.23732682 -0.32364532 -0.49766144 0.5268721 0.3293255 -0.015036199 -0.50109076 0.41632417 -0.27774212 0.41140324 0.22205004 -0.09144097 0.07500068 0.015246243 -0.019452354 0.3609778 0.30187416 0.28797883 -0.19823335 0.07172163 -0.41334063 0.32465127 -0.1922928 0.050629795 0.27672505 -0.17780007 -0.3237434 0.11314766 -0.24219798 0.23602962 0.13955721 0.5299773 -0.115142226
116 0.23778905 -0.21722509 0.27895012 0.10617952 0.67388046 0.05121186 -0.20840192 -0.05046736 -0.25200495 0.023163125 0.040451847 -0.25187632 -0.374456 -0.18404254 0.13458592 0.20842098 0.22451581 -0.10381198 0.03532319 0.19591787 -0.024447309 -0.28328142 -0.12315789 -0.2718695 -0.18498033 -0.15077607 0.06935312 -0.06482396 0.19537501 -0.052066512 0.04611576 -0.50967205 0.02800854 0.20877856 -0.1713964 -0.05618116 -0.3289373 0.11413583 -0.2877994 0.3781464 0.32948053 0.15980296 0.19993956 -0.34348166 0.16213882 -0.12096027 0.1676618 0.21861324 0.21406458 -0.032204054 -0.03691118 0.08974616 0.54325056 -0.21038622 -0.2641358 0.39097044 -0.2714361 -0.13490908 -0.24053131 -0.098455764 -0.21899262 0.05598036 0.17889026 0.07844161
296 -0.35346532 0.15864298 -0.017269408 0.13771844 0.07168831 -0.0009934974 -0.3517142 0.23696023 -0.21541674 -0.15366815 -0.017150704 -0.017420348 0.28179416 -0.21573584 0.2993237 0.034568798 0.06065976 -0.1741886 0.116362005 0.14199233 0.5538727 -0.17326243 -0.048092116 -0.34249195 -0.18309411 0.21579853 -0.2286354 0.024335641 -0.28029802 -0.5415928 0.13640976 0.39343143 -0.03654895 0.028927317 -0.15605372 0.21348397 0.013974292 -0.17850454 0.020703105 -0.17146546 -0.41307804 0.27420044 -0.007795665 0.061677914 0.07037391 -0.030626288 0.5788251 0.09714716 -0.42019516 0.10807268 -0.2843661 0.65425414 0.4372776 -0.20129146 -0.1355689 0.122196056 -0.2048895 -0.18706664 0.1541688 0.07711454 0.17518824 0.34426755 0.43257302 -0.15208247
290 -0.3788392 -0.010826246 -0.11072308 -0.28733972 0.18810995 0.19434825 0.041360583 -0.32934666 -0.5097173 0.16344179 -0.10060992 -0.13163295 -0.09052415 -0.016393587 -0.13692468 0.2527243 0.28515643 -0.21422453 0.27575612 -0.0780303 -0.15299454 0.16630913 0.094510205 -0.013075014 -0.12705873 -0.17939606 -0.1978459 -0.121192865 0.21045281 -0.48862424 0.05709875 0.1933849 -0.36508456 -0.023957359 -0.53047466 0.39494047 0.12902173 -0.26358917 -0.07703766 0.21770872 -0.2948107 -0.2721249 0.109474406 -0.029527763 -0.012742192 -0.06998894 0.24363708 0.14026545 0.4169688 -0.5066417 -0.17118472 0.25202507 0.29375818 0.25158146 -0.2747145 -0.110064015 -0.08337743 0.091370925 0.26861942 -0.52619827 -0.0028172347 -0.41446766 0.28957772 -0.045009915
411 0.12854539 -0.108622715 0.7553461 0.053467024 0.46675313 0.23701349 0.29654208 0.17350312 -0.06549181 0.026411215 0.41319236 -0.39109316 -0.5103618 0.022377513 -0.10108264 0.34328082 0.2029292 0.11389938 0.03389389 0.11642099 -0.15256162 0.036910377 -0.2372803 -0.60575145 -0.24420537 0.34982193 0.29425654 0.20877033 -0.058518052 0.28526068 0.004538441 0.2963681 0.056013282 0.17011659 0.06267585 -0.026292708 -0.30206645 -0.027817229 0.21338564 -0.14956865 0.083232 0.12376027 0.016455518 -0.15503481 0.2910544 0.1394895 0.20331463 -0.15882671 -0.00825908 -0.31613648 0.19584024 -0.12882082 0.4928209 0.056769673 -0.05519548 0.21772595 0.24157019 0.058226842 0.20849638 0.09014018 0.09021963 -0.5149869 0.23271199 -0.31565484
546 -0.12176228 -0.18171662 0.1332981 -0.096054465 0.037811052 -0.13245519 -0.04196839 -0.080830716 -0.41230148 -0.06501831 -0.09887663 -0.25419053 0.048045028 0.3318777 0.06642883 0.3693385 -0.029681422 -0.10988047 0.35773715 0.3640087 0.084274724 0.21642028 0.121418506 -0.21675052 0.034501635 0.16570197 -0.22962612 0.40819886 0.10815184 0.085103646 0.888933 0.0053505106 -0.32542387 -0.015007504 -0.072244205 0.013730175 -0.13083157 -0.13975093 -0.47194242 -0.016133381 -0.10453393 0.0054382123 -0.2872331 -0.27605492 -0.09983572 0.02060962 0.35757262 0.45344666 0.20533574 0.33904108 -0.06431174 -0.048444808 0.23236613 0.17938407 0.3015768 0.438512 -0.045209754 -0.058981508 0.20621146 -0.22397713 -0.031273227 -0.19137108 0.12906434 -0.17249776
367 0.14368105 -0.24796101 0.2668069 -0.16729055 0.3450125 -0.17884085 -0.028718224 -0.0002649429 -0.2737759 0.11755807 0.06407515 -0.21998097 -0.31315812 -0.053361017 -0.060818102 0.10817539 0.038042806 0.13101377 -0.13893738 -0.3243252 0.0010053591 -0.058775567 -0.22375482 -0.23196442 -0.14596532 0.12744802 -0.18505698 -0.08815445 0.2568503 -0.153437 0.43265048 -0.13030897 0.14905566 0.22963032 -0.35312435 -0.0880147 -0.39909166 0.052914366 0.13652973 0.39951614 -0.04900183 0.2691239 -0.056377035 0.044528186 0.0790069 -0.16753106 0.31784064 0.048362505 0.16593419 -0.27905193 -0.27060357 0.10664096 0.33237994 -0.06478031 -0.012308686 0.52411234 -0.09636828 -0.026352007 -0.4986896 -0.22433007 -0.083637394 0.2008495 -0.09702213 0.17064235
172 0.16464005 0.41161883 0.27030987 -0.09981228 0.47937325 0.005794849 -0.4085434 -0.21922427 0.06027048 -0.09013151 -0.11674135 0.28143048 -0.10686437 -0.037247695 0.114494406 -0.30220383 0.050782766 -0.09997277 -0.048655402 0.23673935 0.086891435 0.24636354 -0.1778451 -0.102340735 -0.07612121 -0.13974519 -0.23524696 -0.1313008 0.09121085 -0.3024807 -0.12420057 -0.36269027 -0.43862975 0.10191731 -0.31124535 0.029718596 -0.05929464 0.08212409 0.14822678 0.0040560486 -0.12290933 -0.07487538 0.22156578 0.05398911 0.37466872 0.07500328 0.4538716 0.1520913 -0.013156157 0.084495254 -0.39690238 -0.07819031 0.50641465 -0.35923716 -0.14443402 0.41189334 -0.033848833 -0.14776899 0.14339484 -0.106228866 0.044605106 -0.065708764 0.36091274 0.12206247
362 -0.24528253 0.0365855 0.09826558 0.15248448 0.583173 -0.25269645 0.4222754 -0.14888239 -0.08113246 -0.35443363 0.1339797 -0.14209718 -0.16395879 -0.14621854 0.19286692 0.41904378 0.06135058 0.052864537 0.028136421 0.11614406 -0.09604844 -0.17897585 0.4002974 0.19221824 0.22934428 0.27229807 -0.32608566 -0.26379132 0.13827062 -0.17882173 0.23245119 -0.09558856 -0.28110704 -0.327206 -0.058975555 0.027935764 0.18268926 -0.026438756 0.1720953 -0.11788694 0.0025008337 0.043520693 -0.12070185 0.3205757 -0.19782762 -0.18966803 0.53550714 -0.02724591 0.25494698 -0.30025795 0.31017214 -0.32960758 0.06270915 -0.41469878 -0.113093555 0.32353157 -0.008339841 -0.3912179 -0.25231162 -0.0054804133 -0.072176516 -0.30306107 0.13593723 0.11053907
184 0.16331172 -0.18932554 -0.16512457 -0.043303277 0.37129006 -0.52772677 0.0884397 -0.3990151 -0.20702285 0.21910885 0.419908 -0.11594794 -0.26289064 -0.01259416 -0.24043432 0.43754056 -0.030786416 -0.3757938 -0.08156462 0.17544276 0.05065271 -0.0048502753 0.037863124 -0.52487457 0.07125662 0.23592427 -0.10632396 0.15360317 -0.11572575 -0.2457697 0.12576832 -0.019658966 -0.2814979 -0.21956716 -0.2910605 0.06880429 0.39823842 0.011787431 -0.5954613 0.06599176 -0.10800004 -0.15147977 -0.33184877 0.104983374 0.31543478 -0.07181619 0.37887004 -0.076269954 0.11347174 -0.24224354 -0.1798057 0.13489372 0.2268266 0.12663119 0.2555157 -0.07743525 -0.17981862 -0.26563722 -0.037356254 0.24619697 -0.1869332 -0.060095318 0.07493435 -0.04341955
80 -0.18672864 0.09986173 0.3519857 0.21036136 0.400011 0.035375874 -0.019544287 -0.07400816 -0.27075785 0.1114902 0.3103417 -0.09432643 -0.07610101 -0.12655975 -0.22340101 0.18316932 0.15632305 -0.07446215 0.14446667 -0.14790246 -0.029922862 0.025633376 -0.33684754 -0.25412115 -0.03434172 0.1392022 -0.58210963 0.124088585 -0.3110097 0.08534494 0.25456133 0.36443713 -0.08132925 -0.21388197 -0.1333171 -0.22569647 0.5513634 -0.1541329 -0.22966649 0.4443142 0.04388045 0.24785428 0.05297504 0.23415664 0.014456857 0.056827653 0.2226912 -0.36027765 0.03421207 -0.2859157 -0.6137029 -0.08459935 0.30390415 0.12859473 0.26204 0.41407633 -0.16995806 -0.35058606 -0.102168724 0.19975743 -0.5202387 0.018918868 -0.08627904 -0.25300956
16 -0.1469506 -0.22364382 0.15879285 0.04529962 0.4865103 -0.10101148 0.09121465 0.28585026 -0.48228493 0.28113598 0.19233538 -0.40384606 0.32548276 -0.046027195 -0.0022738483 0.3614811 -0.06834452 -0.1446936 -0.04261466 -0.14333092 0.27215442 0.07656278 0.22371532 -0.063474305 -0.26250285 0.10758632 -0.2828636 -0.1714786 0.23654558 -0.17429651 0.44392046 0.12583284 -0.10846603 0.10305877 -0.405886 -0.32119662 0.24519849 -0.14908202 -0.09394182 0.12200895 0.15922242 0.28426793 0.3613861 0.10390323 0.025402429 -0.019041574 0.5882278 0.11434546 0.12595922 -0.33490247 0.029016033 0.2237998 0.098116644 0.045275606 -0.014781445 0.18465228 0.22637169 0.03802898 0.31700924 0.03949348 0.07084234 -0.1386534 -0.24423873 0.10324876
13 0.27467245 -0.2564634 0.30661258 0.008475071 0.17596321 -0.04754221 0.16203877 -0.2711694 -0.4528964 -0.05070679 0.102121696 -0.10503135 -0.23680213 -0.37957698 0.22174564 -0.20186509 -0.24970953 -0.18313402 0.030941421 0.056922026 0.0023598464 -0.31348926 -0.13149804 -0.5362258 0.29268408 0.00909596 -0.19703946 0.097740926 0.34689927 0.046561636 -0.08153419 0.07238948 -0.23458833 0.15732372 -0.09941447 -0.08879787 -0.17692362 0.32992768 -0.020579789 -0.13928214 -0.0008828916 0.2066484 0.3056585 -0.008316847 -0.20922849 -0.17992294 0.26141566 0.14579666 0.15179208 -0.15173605 -0.58370554 -0.5594447 0.24228281 0.014873841 -0.29805675 -0.2523691 0.00068498676 -0.44537356 0.25151175 0.02165199 0.08446104 -0.3562359 0.11710851 -0.24571268
210 -0.1312193 -0.3134937 0.15944637 -0.040065553 0.31813887 0.15124722 -0.065137595 0.09631914 0.0550852 0.09309283 -0.22922127 -0.44280395 -0.16564672 -0.0029627236 -0.24653785 0.19706593 -0.2111519 -0.22949894 0.1504099 -0.016615562 -0.022776905 0.34201834 0.37942672 -0.4814698 -0.10941096 0.2640737 -0.28724602 -0.22968893 -0.17097324 -0.28335676 0.21791743 0.37178668 -0.16827835 0.25742808 -0.45370507 -0.116988055 0.1276623 -0.25591844 -0.2332029 -0.026319938 0.021052733 0.44028902 -0.12144058 0.08312441 0.16731171 0.10826769 -0.18480174 0.27099887 0.07783023 -0.41825566 -0.17403974 0.013072601 -0.015390803 0.072905354 -0.12519579 0.30331853 -0.21770844 -0.17413703 0.1868472 -0.13933796 0.18996327 -0.12888734 0.1891576 0.037409183
7 -0.011653138 0.18433489 0.19473927 0.12526731 0.04985629 -0.0560344 0.1670725 -0.3449187 -0.15860666 -0.43721387 0.15609317 -0.10893063 -0.109107815 -0.2548859 0.16815567 0.32961157 -0.22017632 0.096207015 -0.289576 -0.06474283 0.13320664 0.09814931 0.41094017 -0.13142975 0.21096472 0.48303658 -0.18589276 0.08153942 -0.25689733 -0.09253801 0.20643829 -0.093518645 -0.413505 -0.4682455 0.29825783 0.098971575 -0.21953945 -0.048188552 0.14934757 -0.1621011 0.053329285 0.15586399 -0.54985684 0.1449125 0.3519999 -0.17411998 0.5314908 0.21363643 0.56885743 -0.86653394 0.21416411 -0.26359427 0.12324808 -0.44250283 0.013613401 0.34831333 -0.11314432 -0.035573084 -0.01134419 -0.11217921 -0.18158735 -0.09048944 0.17426282 0.035786953
393 -0.28611493 0.23947322 0.11551307 0.30979806 0.039717797 -0.083922304 -0.19541024 -0.017333146 -0.027398061 -0.30087447 0.029864797 0.24185997 0.16198045 -0.07882432 0.2978553 0.07910182 0.21095434 -0.07105203 0.251106 0.28634194 0.097119376 -0.19313714 -0.024415188 -0.17052191 -0.13462844 0.08019152 -0.020633962 0.34589794 -0.41291788 -0.20545186 0.3977779 0.40709874 -0.11462251 0.16409321 -0.27706063 0.29058608 -0.050106414 -0.1886455 -0.05994375 -0.028617773 -0.7622881 0.15158911 -0.13297355 0.029260717 -0.08003295 -0.034352 0.4520539 0.22911274 0.070859514 -0.002936195 -0.26104432 0.7162719 0.17733617 -0.021839472 0.0031962877 0.43428385 0.066340566 -0.47486907 0.13700531 0.03991802 0.07238035 0.20140916 0.23626122 0.16924831
404 -0.30357784 0.17083631 -0.116915606 0.24477516 0.51857066 0.1848861 -0.1679864 -0.29057872 0.13872877 0.4742484 0.12062971 0.568092 0.06120544 0.119575344 0.17072815 0.064530335 -0.17349474 0.10835527 0.35999328 0.047864314 -0.19168843 -0.18765962 0.27940094 -0.4603467 -0.18205962 0.18182264 -0.2574465 0.2970623 -0.4544915 -0.41180715 0.30831224 0.013976429 -0.10365878 0.13332126 -0.48306862 -0.12776563 -0.30945957 -0.12526749 -0.080259845 -0.03973073 -0.13085735 0.083605625 -0.17646827 -0.06351749 -0.036289994 -0.51938796 0.14557381 0.16684121 0.12508106 -0.33609205 0.19599314 -0.056757864 0.13858724 0.18273963 0.43875787 0.028980875 0.08901785 -0.4941397 0.042373516 -0.28108284 -0.010596445 -0.30769536 -0.23319776 -0.044071905
2 0.039108966 -0.24914469 0.40057677 0.23511939 0.32961878 -0.17444526 0.39908603 0.093136616 -0.10044617 0.16846831 0.40846333 0.06420246 0.2238889 0.18544199 -0.037169963 0.24750926 0.13138154 -0.070186 0.21843654 0.10922319 -0.059605524 0.3221418 -0.12233094 -0.55189705 -0.09981222 0.34779045 -0.14727125 0.14335722 -0.1637629 0.0803155 0.08251016 0.4559102 -0.23241375 0.41927472 -0.037194245 0.36909112 -0.18243268 -0.23234576 -0.0024529423 -0.14169933 -0.22434501 0.18600154 -0.08675011 -0.012678491 0.2646771 -0.13354966 -0.32314906 0.08053438 -0.1455791 -0.31063756 0.3504407 -0.35180372 0.34807068 -0.073864914 -0.24857034 0.08828315 -0.01435261 -0.41022044 0.15912274 0.012937847 0.26022443 -0.36347207 -0.015793605 -0.30421862
459 -0.117108755 0.2991732 0.16865267 -0.024532834 0.30159926 0.2520726 0.029443143 0.3700556 -0.10740118 -0.07379453 0.55186117 -0.50582826 0.092526615 -0.01039415 0.117947176 0.57998055 0.009831912 0.1614273 -0.2606681 -0.08787503 -0.30919123 -0.15965307 -0.07430097 -0.07619873 0.0026457564 0.04326216 -0.12618135 0.39780515 -0.37121886 -0.2265172 -0.16231944 -0.18271688 -0.50756603 -0.65887475 -0.28664684 0.0558112 0.109850615 0.21462171 -0.21612881 0.3075142 0.43662232 0.43021938 -0.31547812 0.116485894 -0.32412702 -0.037878536 0.5076996 0.42471308 -0.096146785 -0.0349054 -0.047676478 -0.10250074 0.3545871 -0.030726964 -0.15042807 -0.14006138 0.23616077 -0.04578107 -0.18475966 -0.04205006 -0.20124933 -0.02106383 0.25682548 0.12014589
180 -0.114934884 0.018362377 0.10533717 0.07753852 -0.020790538 0.28146228 -0.21468006 -0.20291546 -0.04834898 -0.07384189 -0.02142999 0.17789312 -0.10428494 -0.5400219 0.2289274 0.07510918 -0.07380465 -0.15928453 0.15272743 -0.15893532 -0.16707599 0.12274558 -0.023920275 -0.34720507 -0.062624715 -0.36228165 0.022333067 0.13191798 -0.37122056 -0.27951384 0.16738279 0.104988106 -0.2108756 -0.17724332 -0.27658233 -0.07776724 -0.4737193 0.04128476 -0.33689466 -0.1308888 -0.818604 -0.1352143 -0.22445229 0.57787025 0.36929017 -0.027340053 0.46138147 0.088212535 -0.05611031 0.3759883 -0.03217674 0.055972643 0.27785453 -0.47378218 -0.07803398 0.21004683 -0.14534229 -0.29030934 0.14496085 -0.43825635 0.11225061 -0.02823817 0.019453218 0.017413443
51 -0.08343428 -0.018737398 0.16737962 -0.12330957 0.47880003 0.07968859 0.22033115 -0.29684642 -0.40237814 -0.22154601 0.02336839 -0.056640282 -0.12856859 0.01159961 0.22305578 0.15861817 0.10536621 0.08519893 -0.14056939 0.20887046 0.176156 0.31000042 0.15303211 -0.43793043 -0.1291284 0.14947441 0.14195235 -0.15202922 0.35410112 -0.85401046 -0.14475422 -0.2237047 0.21579053 -0.20103037 0.27493095 0.13978367 -0.55094075 0.15641434 0.04733789 -0.028052095 0.4283255 -0.1720028 0.5078224 0.09951546 -0.30990607 -0.25980714 0.24644512 0.16662136 0.036324795 -0.02229013 -0.47362745 -0.08316563 0.25002244 -0.3555551 0.22621556 0.28083205 -0.0073892926 -0.19224788 -0.12204725 -0.116026714 0.30411464 -0.15426949 -0.05021515 0.06488692
285 -0.19431747 -0.19385733 0.1519591 0.0051968344 0.49946934 -0.014287601 0.24249564 0.022208095 -0.07305702 -0.105825774 0.31842923 0.31799638 -0.26051828 0.07066918 0.011770389 -0.01441925 -0.1168283 -0.23879737 0.379434 -0.012507633 -0.0026032105 0.1396202 0.23016521 -0.23538382 -0.0007308473 0.1401545 -0.17134373 -0.072976515 0.08427529 0.3378098 0.049943365 0.21255226 -0.4716066 0.34769717 -0.20406039 0.2551837 -0.18632159 -0.07695888 -0.04737642 0.30683455 -0.30994645 0.5083174 0.15884835 0.05414817 0.41899776 -0.14191826 -0.00019776764 -0.050491586 -0.33589894 -0.38643253 -0.11866532 -0.16085082 -0.12151366 -0.30571836 -0.045525044 0.26764145 0.41247967 -0.075857945 0.31026062 0.22509678 0.084480055 -0.5625516 0.23147328 -0.35059124
46 -0.02171415 -0.44223335 0.3574198 0.055459894 0.54547936 -0.38372865 -0.166756 0.20180741 -0.32200316 -0.018920701 0.15433778 0.14875294 0.30325133 -0.21805547 -0.48891336 0.15803024 -0.23962326 0.09905204 0.46785063 -0.1701427 -0.11728193 0.25895268 0.30155975 -0.36151096 -0.08822359 0.15211251 -0.37612125 -0.19682053 0.16726455 -0.18048745 0.2413788 0.30473664 -0.15731241 0.31726077 -0.40019286 -0.018100102 -0.1346889 0.06967007 -0.00047981375 -0.18622905 0.20022878 0.55140233 0.02780125 0.055188503 -0.30200034 0.00889425 -0.08019694 0.27465525 0.27979738 -0.16092637 0.0075967563 0.17242256 0.2514413 -0.15749599 -0.08621808 0.0005999645 0.063936666 -0.113504104 0.08257627 -0.14558099 0.03904906 -0.16021906 0.04029537 -0.0071185306
20 0.04985807 -0.103690214 0.3362719 -0.21137254 0.34952214 -0.3954252 -0.40423116 -0.16149077 0.04691427 -0.045886733 0.38553375 -0.052599024 -0.03026226 0.2710763 -0.28497016 0.19777782 -0.35966983 -0.57706237 -0.09803431 -0.19145544 -0.22916578 -0.1648055 0.12164582 -0.18872926 -0.49706098 0.13125476 -0.15037248 0.23050004 -0.264103 -0.19534191 -0.009474099 0.06929737 0.059533466 -0.35932815 0.27540186 0.17809972 0.07326061 0.37238735 -0.21342894 0.6604899 -0.11823078 0.50283504 0.11434268 0.15273808 -0.05193347 0.004714202 0.20696454 0.17096753 0.25822064 -0.076987974 -0.14037248 -0.015800925 0.42039162 0.11024227 0.078438655 0.19507532 0.05745059 -0.36298326 -0.11953433 0.36937696 -0.17653577 -0.11883872 0.025237989 -0.3011064
506 -0.06973761 0.35557523 0.13552158 0.1530499 0.08642213 -0.15303984 0.009442579 -0.19373398 -0.17397268 -0.1103661 0.26587954 -0.18165359 0.26500577 0.16066423 0.32285985 0.22390492 0.027936727 -0.111609384 -0.26977384 -0.024536835 0.05460365 0.0004615118 0.44667476 -0.19371921 -0.1012163 0.643259 0.1665609 0.06267249 -0.29571015 -0.3034424 0.28050685 0.0053215767 -0.39567426 -0.10029355 0.26702458 0.42669463 -0.30330124 -0.08364562 0.11316263 -0.17872958 0.23082465 0.02257196 -0.21519956 0.26755422 0.23282908 -0.13036805 0.45195585 0.34159672 0.5168375 -0.4627812 0.5755409 -0.45875385 0.14341709 -0.0041047195 -0.2575436 0.31452176 -0.33962446 -0.29071876 -0.27419886 0.007034789 0.108122066 -0.17291258 0.46196175 0.10094652
41 0.020048471 0.15952389 -0.33004525 -0.023836348 0.17525753 0.06308818 -0.005550522 -0.19293018 -0.050168477 0.018224267 0.10944204 -0.025930814 -0.11372881 -0.3721907 -0.07074152 0.3348708 0.06477612 -0.21878338 0.18862535 0.21479984 0.34467733 0.20693931 -0.10997301 -0.12990414 -0.2741376 -0.38588652 -0.060802486 -0.063401945 -0.080608964 -0.4750331 0.14094627 -0.5315475 0.24041787 0.07299768 -0.016137669 0.08355542 -0.34257448 0.028353084 -0.009682083 -0.0655422 0.09365351 0.063095905 0.32539585 0.08912332 -0.080907345 0.13745476 0.07932492 0.1964532 0.09946305 -0.04252041 -0.22926064 -0.06921035 0.7183711 -0.51000047 0.16381684 0.5434978 -0.06972832 -0.33339727 0.17253038 -0.13717723 0.18385254 -0.029831033 0.0604945 -0.13556589
474 -0.06665938 0.1866794 -0.03634543 0.015262468 0.040834315 0.2786947 -0.26153946 -0.16872826 -0.22187613 0.2620172 0.19567607 -0.0032676477 -0.013781642 0.02412113 -0.022992685 0.6785616 0.0040047853 0.034695454 0.15861589 0.10760937 -0.17703205 -0.10527405 -0.1591118 -0.1355916 0.2909898 -0.103622705 0.01646433 0.060977 -0.3959295 -0.3995392 0.1611683 0.45588008 0.003330442 0.487816 -0.02220633 -0.1366222 0.012486434 0.07526885 -0.14932097 0.1211324 -0.24493514 0.19597583 -0.049064953 -0.033316717 -0.042108513 -0.16275632 0.4023333 0.39130077 0.40535 -0.23465152 -0.40474087 -0.32705125 0.34996936 -0.2432926 0.27883995 0.26073965 0.003503057 -0.15273021 -0.082851134 -0.07364232 -0.244159 -0.4970638 0.01375119 -0.013736749
440 0.056207772 0.32723466 0.48832476 0.10218528 0.33369926 0.36481014 -0.10505776 -0.33480048 0.3459613 0.010428405 0.096570574 -0.26797172 -0.21839353 -0.07281261 0.071862206 -0.39055791 -0.078055486 0.198479 0.07862661 -0.4005785 0.22622794 0.5931497 0.12387475 -0.0787226 0.0052658473 -0.18405807 -0.36229065 0.4015149 0.23556104 -0.062179912 -0.048318006 -0.10808379 -0.069608316 -0.32786778 -0.20024766 0.74645084 -0.24062444 -0.3141543 -0.048987962 -0.44824314 0.0567796 0.1797158 0.124073595 0.038945347 -0.1896271 0.18777977 0.44096163 0.25599527 0.10131517 -0.20452061 -0.3873823 -0.20088726 -0.11916832 -0.43003097 -0.28252566 0.34814212 0.01797854 -0.13334039 0.10205404 -0.15141091 -0.22319649 0.12832129 0.45941955 0.0024517132
152 -0.36500236 0.17935704 0.5343659 0.46213996 -0.07399415 -0.05267009 -0.4225499 -0.10153948 -0.24928422 0.019835455 -0.06404685 0.1282592 0.053999882 0.16883154 0.37080917 0.3904203 -0.2632275 -0.07587767 0.22230215 0.14811194 -0.4524869 -0.18557245 0.18793581 -0.50555867 -0.48419607 -0.25928795 -0.5543026 -0.07013759 -0.21599062 -0.22680153 0.46130463 -0.02640817 -0.015662124 0.22978029 -0.28686574 0.22384779 -0.018446622 0.10483026 -0.29391423 0.21801053 -0.21616457 -0.11613833 0.2755533 0.13737197 0.15188989 0.23480126 0.10093153 0.1330857 0.10099819 -0.35948893 -0.00763298 -0.21631253 0.055109967 -0.2232088 -0.045862623 -0.02121319 -0.109826215 -0.24376391 -0.1325221 0.19783 0.005266979 0.25309235 -0.14426328 -0.21960627
518 -0.2712633 -0.03566608 0.06081475 -0.11727834 0.051857203 -0.023738625 -0.2127923 0.27002907 -0.0144944675 0.064013995 0.047983244 -0.012455077 -0.37834662 0.1487871 0.28703934 0.5948312 -0.07702629 -0.118769825 0.33856523 0.17074122 -0.21956386 0.021476105 0.39747268 -0.33312485 -0.18225586 0.009211962 -0.7461785 0.5374896 0.2092865 -0.15907986 0.61131895 0.34974155 -0.26103473 -0.120940685 -0.21350788 0.11547524 -0.37566337 -0.06543136 0.041801196 0.2593013 0.19074684 0.1810885 -0.032659687 0.248813 0.031950638 0.15051457 0.38484877 -0.07569918 0.056849666 0.0695185 -0.0679158 -0.11334871 -0.04177535 -0.10369261 0.1412775 0.014152008 0.04396827 -0.209421 0.0033820516 0.17509104 0.06691258 -0.20441759 -0.051668968 0.31685424
168 -0.2290024 0.2439352 -0.0220583 -0.3125616 0.17398916 0.19865291 -0.3837796 -0.11375994 -0.1787319 0.22404175 0.059879847 0.084320426 -0.33393538 -0.2230751 0.14121532 -0.28384688 0.07597623 -0.3103218 -0.02679435 0.115275994 -0.061876696 0.47037077 0.004829784 -0.14077014 -0.32017997 -0.029732073 -0.0026727102 -0.04810112 0.48467243 -0.20468143 -0.15429522 -0.28913063 -0.38488698 0.12087324 -0.43898463 0.4326511 -0.187052 0.055343993 -0.0690801 -0.13774458 -0.2270224 -0.24517882 0.12975353 -0.066600725 0.032642014 -0.004725283 0.5065162 -0.072791316 0.06801625 -0.29260474 -0.31095755 0.2078134 0.2295856 -0.25788277 -0.34612724 0.21656527 -0.10669409 -0.054081373 -0.3371605 -0.10251778 -0.21358159 -0.53794104 0.21386005 -0.24701619
455 0.2790121 -0.24653006 0.22900818 -0.004997019 0.5698031 0.13891166 0.17196839 0.03364534 -0.080109835 -0.015166614 0.2831069 -0.014052967 -0.63587487 -0.27925444 0.11633817 0.0585818 0.1569335 -0.020266984 0.13261019 -0.012056533 -0.19286057 -0.39460447 -0.13931246 -0.43950146 -0.27866378 -0.13488723 0.057483222 -0.115114994 -0.026782332 -0.18120775 0.027962005 -0.5665353 -0.02221626 0.61558354 -0.3281846 -0.031930592 -0.4496511 -0.11476923 0.19884193 0.18940978 0.31253415 0.19252256 0.0074603474 -0.32179472 0.37151378 0.03650588 0.30982465 0.11340174 0.3041418 -0.2073398 -0.19189064 -0.034585077 0.44742256 0.12781541 -0.33616218 0.5338123 -0.026266979 0.09870821 0.13345478 0.22095002 -0.18579459 -0.09893981 -0.07441283 -0.122675434
30 0.4431384 -0.2539911 0.10041551 -0.31683087 0.38054407 0.0865446 -0.11294945 -0.17920151 -0.031582423 -0.37592152 0.2254046 -0.07714414 -0.3090628 -0.28063256 0.14409713 0.41637692 -0.05354222 0.21252325 -0.12525307 0.15256082 -0.089296184 -0.16044213 -0.28945425 -0.028006801 -0.31561556 0.16807078 -0.23171039 0.09822841 0.40995988 -0.10420174 0.027747538 -0.16701053 -0.061773192 0.4182806 -0.33395582 0.31260002 -0.23735386 0.0533138 -0.2766642 0.26994872 0.15404569 0.0034029153 0.22343929 0.18186219 0.04904545 -0.36128506 0.35043988 0.24237992 -0.0051611224 -0.31517574 -0.055233434 0.056475516 0.4551918 -0.22052705 0.3232513 0.5572162 -0.10229721 -0.15753147 -0.18831186 -0.25414777 0.0650724 0.17048417 0.077464625 0.061560754
856 -0.2178122 0.33345354 -0.011840343 0.1709437 0.073123954 -0.20505656 -0.039272353 -0.14889914 -0.05263512 -0.2616028 0.19681631 -0.16382612 -0.14481083 -0.35340115 0.2855547 0.35276088 -0.26919365 -0.022919998 -0.13952379 0.14775509 -0.08750669 0.07840607 0.12994663 -0.070897095 0.0061357706 0.49691138 -0.13505962 0.11252771 -0.44730642 0.04978537 0.21578433 0.19551708 -0.21364522 -0.2757041 0.047251098 0.35283422 -0.11028194 0.013008694 0.2726 0.082214534 -0.024176238 0.021115223 -0.4388605 0.2597164 0.17082971 -0.20797205 0.45104292 0.5890408 0.49118397 -0.32982448 0.218662 -0.49818337 0.16360176 -0.32333156 0.14577569 0.38196933 -0.012466678 -0.024513602 -0.18440992 -0.28363812 0.00010767176 -0.31941256 0.028933546 -0.023139266
375 0.15498741 0.21463294 0.50566065 0.20526566 0.17830685 0.20831889 0.09874206 0.09753625 -0.16350308 0.039388362 0.22215012 0.10454051 -0.21048802 -0.035871994 -0.26925343 0.5647269 0.33647388 0.10991945 0.30362836 -0.16096354 -0.08804135 -0.070467696 -0.22063854 -0.18366557 0.3384515 0.11707161 -0.07264359 -0.08241658 -0.19469506 -0.37023005 0.09865649 0.19142216 0.034543373 0.3017958 0.0599161 -0.16936268 0.1828018 -0.017897042 -0.12779678 0.20654845 -0.2018201 0.2273248 0.101258874 -0.013160928 -0.15016125 -0.09688049 0.5163639 -0.2989518 0.6145468 -0.41374508 -0.7135238 -0.0639274 0.48465067 0.012863072 0.056681443 0.18442084 -0.16305453 0.0025368189 0.043962125 0.11002686 -0.37566242 -0.4845995 -0.055792887 -0.021435939
17 -0.45827568 0.21782477 -0.046412975 0.27438718 -0.12396304 -0.18906663 -0.23979612 0.16609979 0.07226884 -0.13318455 0.30111358 -0.3241572 0.24126643 0.30452147 -0.022972124 0.42915463 0.019792406 -0.087723255 -0.14306541 0.1673759 -0.10920671 -0.24172242 -0.118283965 -0.41984 -0.24165682 -0.46277553 -0.0017359856 0.41307926 -0.06991901 -0.19422986 -0.027174145 -0.1858674 -0.17806375 -0.12757184 -0.48417905 -0.103924535 -0.23199403 0.024295585 -0.17765187 0.17214543 -0.24453814 0.62282383 -0.27194825 0.055767495 -0.0089085335 0.018127225 0.39951888 0.2655325 0.2614494 0.051638875 -0.05905924 0.09653142 -0.05184151 -0.1872407 0.35500687 0.21083263 -0.1642993 -0.31613278 0.28579873 -0.28198168 -0.028278396 -0.05554047 0.018793054 -0.07636057
295 -0.18871816 0.26349625 0.1863691 0.2646148 0.1754522 -0.16579825 -0.08961472 0.36281276 -0.13243024 -0.11176994 -0.08177335 -0.022145519 0.40637755 -0.36469173 -0.047072336 -0.024397744 0.3551559 0.01563466 -0.18210252 0.4437782 0.19000813 -0.5073418 0.039372202 0.075869195 -0.38260213 -0.014765743 -0.20066206 0.030259019 -0.28596666 -0.2877588 0.14610797 0.30146724 -0.5291057 -0.17115942 -0.3261069 0.5468601 0.07263849 -0.23523264 -0.2717832 -0.010650536 -0.2928604 0.33806476 -0.24673061 -0.15373321 0.028474212 0.20413272 0.50740707 0.16236281 -0.50537896 -0.23746397 -0.2601605 0.53249687 -0.022440152 -0.22682308 -0.0033557997 0.35877776 0.18038802 -0.21265492 0.14922965 -0.04984463 -0.08018223 -0.13269098 0.28397313 0.087047465
173 0.002736456 0.16066043 0.24626835 -0.16119713 0.18709831 -0.5952452 -0.15551533 0.060540665 0.022557458 0.12339644 -0.033761855 -0.082864486 -0.17713444 0.47247332 0.17171784 0.06922948 -0.3578219 -0.5013388 0.3145362 -0.43182266 -0.14947437 -0.37166986 0.15057565 -0.27508426 -0.34106016 0.074872755 -0.32617345 0.29509518 -0.05543646 -0.21745957 0.31791788 0.20605256 -0.105074085 -0.03889874 0.10159203 -0.017759044 -0.1348514 0.07264178 -0.048475873 0.07929409 -0.3278349 -0.034130823 0.10730742 -0.2386833 -0.044779096 0.16946846 0.28065997 0.27486315 0.3028249 -0.12885633 0.06659564 -0.06347732 0.5261766 0.04148547 0.38584682 0.032386847 -0.25484553 -0.4144158 -0.23917857 -0.31648508 -0.09659265 -0.2870992 -0.04100681 -0.270709
704 -1.5290551 -2.0405457 0.20559067 0.89569193 -0.2182925 1.4992555 0.6954416 1.289303 -1.7656721 -1.00869 1.4352385 1.4299413 0.37476155 0.8125529 -0.622227 2.8414774 -0.8671694 -1.75046 0.12160178 0.48077604 0.9451295 -1.7231479 -0.38538048 -1.3390924 0.036488675 -0.046463177 -1.5271161 -1.6860924 0.80681765 -2.082869 1.2048734 0.9321607 1.0134419 0.40336546 -2.4613795 1.2713429 -1.6382867 1.3819774 -0.61840683 0.057495758 -1.0820298 1.5114353 0.23000138 0.59686714 -0.8314934 0.06950504 1.7743464 0.07810933 -0.31091967 -0.34981847 0.3106601 -0.9669679 2.0098596 -0.87056696 -0.586785 0.5956524 -0.008542767 -0.6384503 -1.0915698 -0.5875711 -0.28756624 -0.7333966 -0.47009027 -1.0327263
155 0.16838448 -0.02273181 0.33320954 -0.23567483 0.39788258 -0.14794426 -0.21657732 0.010537778 -0.124078155 0.10945156 0.41246963 -0.09116539 0.14557762 0.14023423 0.27782664 -0.13354164 -0.09234107 -0.04815488 0.37977535 0.29935786 0.18587275 -0.06909132 0.15784258 -0.45424497 0.4307808 -0.2908091 -0.22774282 0.19931917 0.26417002 -0.19720836 0.2887367 0.3537791 -0.6632792 -0.24371518 -0.13378999 -0.1577298 -0.47814643 0.39912862 0.20202468 0.29881194 -0.19342728 0.38440982 0.2371815 0.21367443 0.09423548 0.011623772 0.010878823 0.3718581 0.13629165 -0.32552505 0.151194 0.454956 0.2669026 0.36544698 0.3744519 0.25427347 0.23431863 0.05830668 0.022936262 0.22339721 0.022561887 0.054163445 -0.25772202 -0.07655696
659 -2.129025 0.53844583 0.8190986 0.26214167 0.17205715 -0.47667763 0.5610197 0.34622434 -1.0568558 -0.27728745 0.26601633 -0.49022076 1.0462453 1.4192603 0.08769154 1.0170525 -0.7034659 -0.8783127 -0.2443757 0.35624564 0.63187003 -0.17783801 -1.3189888 -0.3418815 -0.6497112 0.47872478 -1.1731142 -0.7599605 -0.90843934 0.17132245 -0.6907349 -0.6397822 -0.5156325 -1.6084237 0.23104803 1.0586537 -1.6155787 -0.76207674 -0.16303417 0.32971287 -1.8130583 0.23737164 -1.470753 0.78715646 0.57468694 -0.18182777 0.703049 -0.33350134 -0.62803346 0.09907415 -1.3576871 1.5618896 2.517273 -2.2594016 -0.45112538 2.5352476 -0.28170982 -1.7876115 0.9242012 0.5569815 -0.08454486 -0.29470298 -0.547712 -1.0604918
884 -0.11273786 -0.8482594 0.18366762 0.74639624 0.9081111 0.9783676 0.34134203 -0.34008944 -0.73510313 -0.3059635 2.6920145 0.6799378 0.27491298 -1.1032863 0.480763 1.2723007 -0.2008751 1.2630407 0.7951024 0.29470614 -0.68583554 1.8457177 -0.42944926 -1.55847 -0.78427327 -0.28983802 -2.2370038 1.7342906 0.4788775 -0.37313852 1.3737999 -0.98955876 -2.250998 0.41511568 0.7271751 -0.018152742 -0.10657163 -0.1467437 -0.52893686 -0.27586767 -0.25618476 0.8113248 0.021243125 -1.4332962 1.7020173 0.39239344 -0.040102147 -1.9517577 -1.6831379 -0.44086912 -0.33325967 -0.4123535 2.9022768 -0.033575207 1.4969741 1.2790552 0.39427656 -1.6361617 0.70923114 0.31271914 0.23684712 -1.6166093 -0.33384636 0.42121136
35 0.1663086 -0.2791341 0.10988911 -0.26483816 0.49667674 0.10181407 -0.10780621 -0.09929526 -0.10620042 -0.27979213 0.15437864 0.03328541 -0.20284152 -0.18891796 0.2904267 -0.15782306 0.23792565 -0.13784145 -0.1084735 0.0035476752 -0.29593918 -0.10407799 -0.37333432 -0.056347486 -0.07100466 0.13941103 -0.120775744 -0.07866376 0.51670086 -0.092484966 0.114383526 -0.20974807 -0.14548117 0.39284945 -0.30890036 0.12259856 -0.46543187 -0.1284834 -0.17035006 0.22480804 0.32530776 0.055327687 0.082252055 0.12860365 -0.12993634 -0.49565065 0.25705707 0.031387273 0.10217791 -0.35623297 -0.27863064 0.053857055 0.344665 -0.21641383 0.13172983 0.5365173 -0.2731726 -0.4970217 -0.3781086 -0.12864405 -0.092356 0.10325121 0.03135447 -0.048358135
174 -0.15950929 -0.17573093 0.25961727 0.3237961 0.34779796 -0.118316114 0.19899827 0.18757348 -0.57618576 -0.033327077 0.25110275 -0.052121833 -0.083598785 -0.04904477 -0.03942699 -0.12710562 0.015586859 0.014876241 0.39651525 -0.28528702 0.27105886 0.18784864 0.15090257 -0.4510007 -0.23760046 0.33070147 -0.18903841 -0.17288339 -0.12675007 0.123068586 0.15879215 0.5523211 -0.21091202 0.42160723 -0.19287114 -0.0020007077 0.26736072 -0.22406286 0.05071893 0.008933797 -0.14669494 0.75121427 -0.16929552 0.34376675 0.034165073 0.08595101 -0.17769346 -0.06288246 -0.24112923 -0.19302005 -0.12675937 -0.034823164 0.23980328 -0.09841001 0.22315888 0.34021854 0.16470145 -0.063951336 0.056198243 -0.33126405 0.30292815 -0.041417122 0.09554278 -0.34918723
