1005 64
160 0.06831703 -0.29613653 -0.26726082 0.28099677 -0.10897442 -0.004489627 0.020581432 -0.18042937 -0.33024943 0.01771572 -0.04769398 -0.04108322 0.06855069 0.10102547 -0.07784118 0.33782315 0.090692066 -0.1052278 -0.26644292 0.46668282 0.2991605 0.445101 0.16463175 -0.36236283 -0.12988932 0.018284604 -0.09348264 -0.009085176 0.10362387 -0.14113846 0.11623915 -0.08495313 -0.28315485 -0.10880967 0.17037196 -0.2433831 -0.0048154616 -0.038250726 -0.051001884 0.06512537 -0.4679992 0.14613411 -0.058893573 0.10652278 0.030728273 -0.31528538 -0.23802762 -0.18544687 0.274591 0.48532727 -0.15761387 0.024819532 0.2555568 0.36470166 0.09780171 -0.17206892 0.022013497 -0.24582304 -0.18189777 0.3118537 -0.3239093 -0.24747331 -0.038648233 0.06338592
107 0.004340662 -0.25832435 0.13835184 0.2794748 -0.16340017 -0.26607203 0.21376637 0.123832844 -0.36632842 -0.085748956 0.31852022 -0.3557364 0.11043037 -0.25102547 -0.0997627 0.043543484 -0.0054033417 -0.21128057 0.05563408 0.33912498 0.21271119 0.3011413 0.19802202 -0.33391064 -0.10824568 0.40699458 -0.4433673 0.044297833 0.029434385 -0.40893495 0.10833143 -0.0750898 -0.2634428 -0.4374535 -0.1596238 0.05154142 -0.14897664 -0.03742405 0.29020673 0.07827661 -0.0024578213 -0.35232174 0.08600538 -0.10669209 -0.008541547 -0.09057961 0.046799 -0.52390176 0.12953499 0.34947857 -0.09209512 -0.10594643 0.14234847 0.36211625 0.14554515 -0.6814501 -0.12661763 -0.53807783 0.07109128 -0.11012501 -0.21855487 -0.5078044 0.07030564 0.14233698
62 -0.26277697 -0.23862997 0.13953139 0.2523286 0.020866856 -0.38796663 0.15893978 0.07309747 -0.28282055 -0.091334306 0.3068404 -0.16088569 0.12634078 -0.36534885 -0.13236511 0.31185657 -0.119021334 -0.22246082 0.13690044 0.6354356 0.22150145 0.47293553 0.24352515 -0.19670306 -0.04840275 0.052609067 -0.5378028 0.18370135 0.22698843 -0.42230856 0.303929 0.029633215 0.06747099 -0.16192473 0.018900463 0.17801085 -0.054858916 -0.090946525 0.07195913 -0.0972459 0.0013719433 -0.033425786 0.06445672 -0.000812624 0.4150532 0.18242472 -0.09177892 -0.223939 -0.00028452574 0.2187819 0.010933313 -0.16938473 0.2984623 0.3962312 0.399581 -0.6218362 0.07867367 -0.3553951 0.039612163 0.05638608 -0.31476033 -0.44665954 0.009652141 0.21940911
86 -0.6353843 -0.32983422 -0.0054542664 0.3674638 0.20621262 -0.120053 -0.110237 0.081795365 -0.14651302 0.17645036 -0.08080452 -0.22223155 -0.2749883 -0.0035904164 0.10308635 0.111194365 -0.33311838 -0.17768614 0.11317417 0.5753485 0.18152477 0.24234287 -0.2827151 -0.16426115 -0.13227494 0.06560903 -0.45718864 0.10195343 0.03486739 -0.2604575 0.26905304 -0.28412876 -0.15194236 -0.13347931 0.16013494 -0.14732754 -0.32408085 -0.09167043 -0.39910042 -0.071005546 -0.19090147 0.317804 0.055631172 -0.6021455 0.1626525 0.14481685 0.122542396 -0.24843112 -0.2396436 -0.13758074 -0.39759472 -0.24618188 0.1105178 0.28610268 0.26247624 -0.5673739 -0.064882666 -0.3236409 0.009134266 -0.0062298253 -0.5508726 -0.5171506 -0.3554627 -0.2532496
5 -0.19166803 0.045549907 -0.04436747 0.18799207 0.082566954 0.079280585 0.27956843 0.22952934 -0.4290056 0.6017564 -0.028161554 -0.116507255 -0.42712218 -0.3080267 0.049897235 0.32094052 -0.3914609 -0.16278414 0.13588493 0.8515548 0.2653252 0.14707433 0.0055494993 -0.30334255 -0.016112825 -0.24223092 -0.6483907 -0.10443349 0.22946426 0.00038290388 -0.11784301 -0.21172167 -0.040127363 -0.6319786 0.031585768 0.15485363 0.2967382 -0.23188241 -0.31404707 0.32917508 0.03806095 0.19571881 -0.15370217 -0.11209002 0.12947612 0.23795551 -0.2275991 -0.27798685 0.17031881 0.48406363 -0.3779854 0.038399465 -0.0034506575 -0.13406996 0.6176802 -0.017600957 0.06636827 -0.36836964 -0.25118 -0.19960517 -0.2984881 -0.6768139 -0.65687174 -0.2644782
365 0.23757516 -0.81334543 0.36145574 0.71182126 -0.5356641 0.10029978 0.84578204 0.0055005644 -0.3434564 0.115709044 0.03835622 -0.3542933 -0.41497615 -0.6157708 0.4083076 0.5588427 0.3292802 -0.41332912 -0.3734235 1.0340219 0.467246 0.70445997 0.33592 -0.045288682 0.049164522 0.36244228 -0.4633477 0.1872839 0.014322393 -0.077364884 0.19105992 -0.019691546 -0.377926 -1.180993 -0.29175216 -0.24247295 0.12835924 -0.041500587 0.21242434 -0.14703049 -0.026264206 0.21423897 0.21062857 0.03576558 0.3267128 -0.113301225 -0.42487633 0.3310561 -0.12557967 -0.29720977 0.26521415 -0.24046376 0.21742317 0.4753367 0.013489502 -0.7496346 -0.47024137 0.433814 -0.46170443 0.3878635 -0.64053315 -0.24666108 0.18603595 0.085157804
121 -0.17581867 -0.33999324 0.22361203 0.12636842 -0.04201574 -0.34037012 0.09065391 -0.3066223 -0.3214496 -0.24600911 0.0492118 -0.053008623 0.020420343 -0.16842575 -0.05104645 0.062277786 -0.009161533 -0.15670265 0.100864924 0.26490143 0.2963976 0.6264233 -0.19145569 -0.23850659 -0.37185097 0.09245698 -0.41197488 0.5088527 -0.007115297 0.049933586 0.1690841 -0.13928242 -0.3930096 -0.026246816 0.20633645 -0.122724086 -0.55917734 -0.21894878 0.1183464 0.061138123 -0.12753811 -0.11510033 0.20830467 0.026139159 0.035114307 0.0333959 -0.0016205243 -0.47582775 0.4572948 0.23450992 -0.08435206 -0.07565091 0.012372029 0.22406276 0.1874111 -0.318541 0.33403257 -0.13876593 -0.07967028 0.43572062 -0.21057808 -0.42401466 0.08838326 0.12957895
1 0.49926966 -0.80636096 0.091026865 0.47067413 0.995646 -0.08692017 -0.0051473114 -0.54596555 -0.96916443 -0.7510739 0.24215113 -0.3260016 0.13710487 -0.51405853 0.26641333 0.37691268 -0.3757508 0.09964151 0.8203091 0.78788567 -0.23474592 0.86236984 -0.29654208 0.3602114 -0.65487635 0.24912247 0.25993302 0.6251698 -0.119004495 0.97237325 0.6218548 -0.7165911 -0.72131234 -0.73071885 0.18995881 -0.2014102 -0.39650398 -0.5533434 0.72545856 0.23944706 -0.8222 -0.21000528 0.31162605 -0.68251157 0.48100436 -0.67537326 0.20860364 -0.7221015 0.42406344 0.28356126 -0.018792069 -0.16491807 -0.45212445 0.10295874 0.13369496 -0.62027377 -0.5662024 -0.11680224 0.19806659 0.03703573 -0.5435083 -0.77197576 -0.6140335 -0.2105495
128 -0.06661391 -0.49758294 -0.16256902 0.19590855 0.15933807 -0.30869713 0.25510985 0.0026556642 -0.50751007 -0.18331209 0.12016045 -0.19226943 -0.3007151 -0.21205638 0.36113837 0.2353216 -0.47837776 0.45407632 0.046398263 0.7316579 0.6600179 0.19071817 -0.22664733 0.30908358 -0.054417532 0.3194628 -0.5077881 0.029886948 0.19560914 -0.006617711 -0.11333438 -0.31469834 -0.3642907 -0.2920037 -0.10336202 -0.3059054 -0.13823797 0.23415212 -0.06166116 -0.37505674 -0.19640614 0.0583532 0.06856949 -0.12368842 0.28180072 -0.3232553 -0.1679381 -0.7409259 0.41741693 -0.03854754 0.064919405 -0.3939051 0.08652985 0.23182933 0.19349799 -0.32008648 -0.31595746 -0.374741 -0.17912838 0.7512746 -0.46599746 -0.08092879 -0.049822032 0.15447044
64 0.00010607549 -0.27231082 -0.02982689 0.35001713 0.39093336 0.08986295 0.086862855 0.24697132 -0.68794966 0.121605486 -0.055485293 -0.36337462 -0.022052925 -0.038124625 0.0565329 0.41777167 -0.49064606 0.11514025 0.22014225 0.25101522 0.050986756 0.19676024 0.3156504 -0.8546155 0.03963085 -0.17283566 -0.36091784 0.019452175 0.058253493 0.17294824 -0.041884515 -0.2911635 -0.20549457 -0.5297715 -0.27441475 0.0023116732 -0.03637163 0.22856498 -0.2574809 0.07443892 0.12619403 -0.032997184 -0.21072489 -0.04677344 0.30704114 -0.08398811 -0.19447128 -0.3553168 0.13160197 0.45303923 -0.22274166 0.09432929 0.104909375 -0.03390697 0.27958703 -0.31855917 0.1485971 -0.27047428 -0.03695942 -0.22615448 -0.39100516 -0.36143795 -0.31529906 -0.121339425
211 0.14719565 -0.18784657 0.5122031 0.049654838 0.039347235 -0.1671293 -0.033911597 -0.45273766 -0.525328 -0.24329974 0.2701398 -0.74307775 -0.05524776 0.00019150255 -0.054531418 -0.011632379 -0.13345344 -0.56142974 -0.051279142 0.6676228 0.19283535 0.41752255 0.56879115 -0.24340148 -0.3045024 0.32396266 -0.020914778 0.14292024 0.09734397 0.12993763 -0.061469432 0.073556565 -0.43325508 -0.65112877 0.058494296 -0.25641432 -0.041655686 -0.051000815 -0.18729147 0.36593667 0.083205596 0.09421866 -0.09891641 0.0244748 0.1819588 0.10052026 0.12799819 -0.32445437 0.5507095 0.38717252 0.054771446 0.2015297 0.2179998 -0.020320607 0.082038835 -0.0064722346 -0.18601176 -0.0012202049 -0.11862162 0.3580258 0.080614425 -0.2928824 0.23646897 0.009699036
106 0.1854638 -0.47641414 0.43197292 0.101737455 0.09337016 -0.42561096 0.13995783 0.07271644 -0.67815363 -0.58159244 -0.30951047 -0.52341586 0.06513449 -0.33252853 0.02523901 0.15997243 -0.045623224 -0.2509576 0.27795315 0.5586033 -0.08891735 0.80995446 -0.10397025 -0.04046166 0.093537584 0.18324165 -0.38265198 0.52755105 -0.16272 -0.07881446 0.06887502 -0.48152778 -0.37343276 -0.8165029 0.025798026 -0.41078573 -0.3038435 -0.7025389 0.20940466 0.20027444 -0.20095685 -0.21127473 0.087137245 -0.2011069 0.6111666 0.015549668 -0.19747494 -0.096030414 0.20119126 0.02709176 -0.021378955 0.30307078 -0.28315753 0.40933815 -0.25446892 -0.5641627 -0.65138316 -0.0084847035 -0.14384732 0.36875838 -0.43999133 -0.13712849 -0.06228068 0.052785043
129 -0.28399608 -0.07576595 0.29495385 0.35202193 0.30189693 -0.37499076 -0.10781371 0.013815961 -0.2647208 -0.33936453 -0.06297179 -0.43242195 -0.011426223 -0.23786014 -0.101397544 0.32541704 0.08660935 0.0018840008 0.3023498 0.9514962 0.5397793 0.68503994 0.24995045 0.1099093 -0.2908951 0.1375604 -0.39946955 0.10489541 0.21926753 -0.045830138 -0.19699405 -0.14978811 -0.109885596 -0.17808717 -0.008565323 0.021814002 0.024649713 0.072759956 0.14481425 -0.24266881 -0.16865002 -0.052768774 0.4275083 -0.21205895 0.40122527 0.19034311 0.30571938 -0.526085 0.1251518 -0.054748375 0.36755624 -0.07203597 0.24249533 0.6994723 -0.03888472 -0.45542702 0.339801 -0.2650244 -0.26036945 0.07020434 -0.37310368 -0.20493965 0.02859058 -0.16974755
183 -0.41703504 -0.13496387 0.1322122 0.5695689 0.24240412 0.118055254 0.5048004 -0.21398994 -0.29092187 -0.29273278 0.14914139 -0.363815 0.25862062 -0.2877135 0.016292717 0.21115081 0.18529882 -0.153518 0.14076705 0.6847813 0.6606698 0.23860706 0.16147296 0.052328918 -0.55619717 0.056881517 -0.056808323 0.041883677 0.04074721 -0.11897821 -0.059142273 0.20595366 -0.25618523 -0.37669274 -0.0019409461 0.060161617 -0.059665192 0.12314036 0.08856583 -0.008266533 0.17687455 -0.0035349596 0.34001145 -0.04793102 0.23539014 0.08116927 0.23088893 -0.6706914 0.46863428 -0.15448706 0.23873995 0.17363007 0.40099585 0.31743306 -0.099595375 -0.63329273 -0.04542453 -0.20901509 -0.4338089 0.22748742 -0.14119329 -0.36002773 -0.03505323 0.14634305
82 0.18770924 -0.28743201 0.09948573 0.1319832 -0.021514673 -0.47776726 -0.0906755 0.15744144 -0.17951149 -0.1755664 -0.1813507 -0.20600411 -0.13199474 -0.26408026 0.037973873 0.36537343 -0.31737673 0.019217696 0.010208078 0.64894295 0.24964622 0.41136852 -0.014871934 -0.4020753 -0.19068752 0.04834598 -0.571889 0.3790147 0.06012552 -0.49720654 0.24381629 -0.21495429 -0.13483341 -0.11006317 -0.00034433234 0.10261728 -0.073833644 -0.13756146 0.16100182 -0.062407512 -0.1934293 0.03370059 0.1601614 0.02182739 0.356216 0.063033156 0.13228416 -0.4320763 0.014149689 0.32787552 -0.16357894 0.11354633 0.15671083 0.32675087 0.2920054 -0.48103604 0.0055443146 -0.21985245 -0.04525885 0.18309295 -0.4514092 -0.125731 -0.028231358 0.27676103
434 -0.29000887 -0.19151886 0.05337654 0.15662925 -0.08406353 -0.24659765 0.16651815 -0.32312664 -0.30392492 -0.33049366 0.17733447 -0.2116511 -0.13058372 -0.4052095 -0.07756032 0.17516947 0.12083596 -0.3082435 0.22252755 0.49676597 0.4274603 0.5115099 0.1826513 0.023072496 -0.2206541 0.17894691 -0.5428861 0.2917426 0.16051894 -0.072722204 -0.1725839 -0.100755386 -0.15679906 -0.34478438 -0.058491908 -0.10117429 -0.12895912 -0.008806509 0.19408527 0.063280694 -0.09042817 -0.31191602 0.15162712 -0.040672358 0.14931114 0.03257558 0.093201086 -0.41155538 0.18053688 0.08447114 0.02761079 -0.2532355 0.15162352 0.12709573 0.2692264 -0.43302166 0.11126068 -0.34895295 -0.090350315 0.058367144 -0.26418346 -0.45835602 0.19402744 0.08943183
166 0.08130698 -0.32461572 0.1552668 -0.06912225 -0.13252811 -0.20641866 0.23465699 -0.28168583 -0.000797407 0.3313414 -0.07518131 -0.12337295 -0.11405564 -0.0840226 -0.102627225 0.27193007 -0.1118712 -0.23835714 -0.08560186 0.44684324 0.30118233 0.48181197 -0.03978298 0.041244417 -0.30054495 0.28524545 -0.34267065 0.3605104 0.13029267 -0.0632974 0.1762096 -0.16847177 -0.18073422 -0.108112864 0.26469186 0.08573906 -0.36628115 -0.17710239 0.06573744 -0.032743305 -0.355401 -0.13966446 0.2484218 -0.19517066 -0.20825356 -0.26691988 -0.020997576 -0.14357795 0.16144215 0.40248626 -0.058404267 0.024769507 0.14798883 0.15151215 0.0452621 -0.39938378 0.042914882 -0.17006572 0.068962485 0.5777208 -0.6017121 -0.36999282 -0.14424647 0.14367063
21 -0.07165333 0.017470976 0.09406789 -0.043086376 0.115094654 -0.38633025 0.028884793 0.16197127 -0.48969245 -0.20479032 0.19050695 -0.8301757 0.06506784 0.02520344 0.02756601 0.21864614 0.034518328 -0.25908968 0.13091236 0.6570286 0.24448527 0.21856546 0.14357731 0.12472127 0.022070358 -0.07720354 -0.046506356 0.15123615 -0.23675776 -0.36078608 -0.41405454 -0.9227601 -0.48799917 -0.3129691 -0.10636076 -0.7536549 -0.43511635 -0.19924183 -0.36592883 0.0077311094 -0.29213375 -0.25357985 0.12522145 -0.15975294 0.28255552 -0.15480046 -0.12643857 -0.16935542 0.21868818 0.38270235 -0.0723807 -0.24327013 0.12478549 0.40843305 0.0013158895 -0.20781137 -0.1976486 -0.5170169 -0.099760614 0.7752606 -0.66688627 0.2760883 0.3727675 -0.073317125
130 0.936995 -0.38259923 -0.4810947 0.00035947934 0.097533815 0.192243 0.093971536 -0.55145556 -0.6232229 -0.10282945 0.36277267 -0.5751468 -0.38862428 0.5761169 0.33554283 1.0438671 -0.32897732 -0.40687642 -0.2078051 1.6318917 0.4925989 1.1313106 0.33229658 -0.29299447 -1.141357 0.5709207 -0.26443496 -0.33122313 0.22122122 0.49818346 -0.36526307 -0.5256756 -0.11188266 -0.04112297 -0.37836668 -0.9998876 0.3904024 0.35150152 0.089386806 0.26674357 -0.7049847 0.3054263 0.2976164 -0.81425357 -0.17185499 -0.32158613 -0.51613545 -0.8751766 0.41957164 0.3067345 0.9942898 -0.78872645 0.86730707 0.803676 -0.057839006 0.39365563 0.7096201 -0.8527906 -0.65471613 -0.14279114 -1.3518406 -0.52603996 -0.39673522 -0.45194697
333 -0.056925006 -0.441146 -0.006192085 -0.22276166 -0.025718767 0.011529175 0.12996267 -0.23565185 -0.59884155 -0.110181205 -0.4974461 -0.04205205 -0.36636135 -0.111853614 -0.4469432 0.2995465 0.17913719 -0.309167 0.033743963 0.6110449 0.17718762 0.44557783 -0.035139445 -0.03099589 -0.43118986 0.22977257 -0.53614014 0.36487257 0.15999557 -0.44885057 0.6237102 -0.13072391 -0.56465596 -0.26526994 0.063378915 0.06216269 -0.0978738 -0.24897873 -0.33096167 -0.53690284 -0.25832018 0.33807883 0.3710182 0.3200116 -0.20052189 -0.04027501 0.584643 -0.29194605 0.32414263 0.3101606 -0.14565967 0.105502345 0.05645535 -0.1548004 0.4629889 -0.05685656 0.7552088 -0.024153575 0.18561597 0.31794518 -0.3888606 -0.8649474 0.6704319 0.11030558
420 -0.26364547 -0.39612532 -0.0017973583 0.23722355 -0.08397165 -0.18901898 0.28607443 -0.069255605 -0.360064 0.260145 0.057595644 -0.17085345 -0.001532003 -0.27609235 0.14207155 0.14817357 0.074471615 0.0938599 -0.29127756 0.53337866 0.24338177 0.48309997 0.0625927 -0.23637915 -0.2715592 -0.056729637 -0.60437113 -0.11210579 -0.007486029 -0.34200493 -0.2101187 -0.1854564 -0.4118617 -0.066813454 -0.102276884 -0.04560564 -0.0578159 0.15039629 0.16969943 -0.117323585 -0.12874828 -0.18114214 0.123181656 0.20951647 0.18254991 0.20939952 -0.21560222 -0.3577934 0.34971434 0.33662727 0.25719908 0.4092973 0.22523946 0.41665787 0.18521187 -0.033108838 -0.37807786 -0.17333828 -0.20615321 0.19080558 -0.51306397 -0.24590877 0.16800243 0.30334046
280 0.33375967 -0.2735617 0.1659894 -0.044340864 0.66931957 0.015640676 -0.10464065 0.26329073 -0.70156556 -0.09583638 -0.10035789 -0.4637638 -0.20589978 -0.09048376 0.06555697 0.4623301 -0.10950901 0.26411518 0.36361602 0.90072095 0.36732066 0.6673619 0.16573103 -0.07268442 -0.37697846 -0.17646623 -0.37381938 0.06884543 -0.22572102 0.19858213 -0.19287935 -0.31316262 -0.08152823 -0.18071362 -0.06827971 -0.24373744 -0.22323179 -0.22203146 0.30292997 -0.3842067 -0.3438274 0.113676526 0.56176245 -0.33391497 0.3686675 -0.23058048 0.047717243 -0.47487926 0.26034853 -0.25932834 0.20646761 -0.15799284 0.14143454 0.11592813 -0.1257804 -0.18249881 0.2254387 0.0033265061 -0.10945965 0.082814455 -0.5979508 -0.45080754 0.014978868 0.13250479
377 0.35875216 -0.2691783 -0.123227045 0.513126 0.13882427 -0.18552919 -0.36054906 0.25595912 -0.5699492 -0.007854775 -0.3200668 -0.772114 0.52469015 -0.17803459 -0.13442416 0.112352975 -0.45382217 0.18004939 0.2709252 0.89404416 0.5224717 0.3473221 -0.29554698 0.062450718 0.084604464 0.04399125 -0.24828897 -0.13794746 0.0674236 0.22712103 0.14570715 -0.69539213 -0.12052199 -0.45587182 0.11072706 -0.452214 0.059375394 0.17951366 -0.18946862 -0.34378508 -0.670755 0.08474383 0.19349161 -0.014313799 0.3137329 -0.16138017 -0.2903115 -0.5751903 0.06589957 0.399377 0.47252774 -0.11033764 -0.5112988 0.20223537 0.027576508 -0.29829955 0.4133265 -0.35237578 0.2707229 -0.001383405 -0.9423486 -0.49363315 -0.14034258 -0.5420543
283 0.46692553 -0.25381437 0.1470215 0.078935966 0.06575647 -0.2827159 -0.16196151 -0.33025622 -0.6698999 -0.31754804 -0.39228565 -0.37145546 0.10141653 -0.084757626 -0.028456666 0.27248916 -0.17639785 -0.047339693 0.23082776 0.6893692 0.37885973 0.88184136 0.05285712 -0.043789808 0.19796099 0.7245388 -0.3975469 0.33991003 0.39792493 0.23619246 0.2833984 -0.1302049 -0.37821457 -0.59048843 0.06037783 -0.052752584 0.07418569 0.032136228 0.09894903 -0.24248882 -0.18577974 -0.035951182 0.071809135 0.061052553 -0.0691026 0.173103 0.22539653 -0.45726186 0.2272123 0.39512664 -0.06321804 -0.015940607 -0.25537473 -0.15155359 0.27599174 -0.20284584 0.019124232 -0.1310904 -0.19989647 0.36980405 -0.23234314 -0.22046886 0.07032659 -0.046534333
105 -0.21141633 -0.54157835 0.20203117 0.25375766 0.12102356 -0.325146 0.07910553 0.016469732 -0.2547128 -0.015477162 -0.09936674 -0.43966985 0.15508728 -0.20866765 0.07789083 0.35735908 0.3367443 -0.13270618 0.20865914 0.52320516 0.5435173 0.4696085 0.12674393 -0.18589805 -0.0727415 0.038733203 -0.40492582 0.21295954 0.20900057 -0.63227034 0.07873057 -0.052817687 -0.066181906 -0.16836303 -0.13427715 0.16611163 -0.17549844 -0.2170474 0.13057953 0.07910967 -0.35901147 -0.1541606 0.3510619 -0.05057222 -0.05786468 -0.00034079613 -0.006314136 -0.42248493 0.06792975 0.26216033 -0.12382018 0.012114305 0.0916254 0.32078773 0.18176523 -0.5531132 -0.24537824 -0.4998835 -0.187061 0.627542 -0.25502372 -0.1723114 0.15031603 0.31369328
256 0.07297057 -0.41904375 0.048394512 0.32336906 -0.035778113 -0.2958606 0.05075954 -0.006956913 -0.40628266 -0.70411074 0.13702239 -0.6631208 0.0452366 -0.2540864 0.2280007 0.36366203 -0.045248345 0.014374062 0.2449656 0.8072684 0.4870768 0.776144 0.31742424 0.23386273 -0.23183402 0.39359567 -0.14911659 0.3004059 -0.09150557 -0.24854256 0.11252182 -0.3031511 -0.012529097 -0.73548466 0.012932049 0.06575719 0.24941906 -0.26186898 0.2821507 -0.27445346 -0.09766444 -0.032455154 0.058139917 0.231538 0.27776778 0.15146613 -0.0305993 -0.44633725 0.19305946 0.44763663 -0.19529237 -0.26737896 0.25789317 0.15488794 0.21045867 -0.44835773 0.011582875 -0.18744893 -0.32479352 0.44878262 -0.2386854 -0.00046623367 -0.011813794 0.38372684
6 0.12154136 0.14289609 -0.33222964 0.2493912 0.36977047 0.048159637 0.27280182 0.079935834 -0.14119017 0.27080232 -0.083636135 -0.32453665 0.4477871 -0.13695744 -0.22396894 0.4559182 -0.016746929 -0.44994918 -0.1714954 0.8953172 0.009552406 0.3898086 0.16835321 -0.23802996 -0.41028872 -0.028539771 0.040727306 -0.35200375 0.5110808 0.3725103 -0.39348564 0.09089686 -0.108906664 -0.4339696 0.06375921 -0.22483493 0.1895234 0.15961458 -0.025663314 0.37068114 0.29644912 0.09958228 -0.24504893 0.053240046 0.38577393 0.036696006 0.14840333 -0.44194773 0.38439497 0.4335541 0.48289716 -0.38785294 0.29581603 -0.028882215 0.31520844 -0.55926985 0.051003844 -0.4638097 -0.18759176 0.13913824 -0.5444084 -0.2953201 -0.15057284 -0.41924343
301 0.03753008 -0.35388651 0.012701094 -0.012772797 0.20671342 -0.11394435 0.044210743 0.057559114 -0.6622698 0.6395946 0.18704829 -0.18538676 0.13332927 -0.16313198 0.25650755 0.19718793 -0.19712947 0.10509818 -0.104007736 0.33033353 0.038361594 0.44202402 0.21886146 -0.39411837 -0.48598415 -0.29752496 -0.097618595 -0.01993001 0.028230049 0.061506167 -0.18859565 -0.53231794 -0.44553074 0.015127365 -0.089956805 -0.21563055 -0.1473709 -0.021654977 0.022091849 0.11932203 -0.44173428 -0.25787017 0.09327772 -0.17625521 0.3209351 0.033486616 -0.23284549 -0.27713796 0.5132617 0.3732731 0.0031036169 0.64401567 0.057192806 0.28599438 0.32679814 -0.10736647 -0.15339342 -0.20517628 -0.06841438 0.3702669 -0.30232453 -0.11439441 0.059743688 0.41109952
114 0.017147154 -0.75217086 -0.11744441 -0.116803944 -0.14182054 -0.14773603 0.28548676 0.042323925 -0.6406818 -0.2560773 -0.07492398 -0.13859712 -0.4267733 -0.27205732 -0.05114005 0.2824418 0.3144364 -0.30263093 -0.00021864401 0.40812317 0.5576612 0.56857413 0.3134119 -0.08432315 -0.39068878 -0.11424711 -0.25472027 0.45194983 0.29822594 -0.31059718 -0.19064094 -0.33964422 -0.23087955 -0.75709516 -0.41376594 -0.08467547 -0.28979552 -0.13522227 -0.16582206 -0.3058041 0.34476507 0.1615062 0.2004642 -0.10286356 0.5582046 0.19082703 0.1524152 -0.23181775 0.06801509 -0.03382659 -0.31245428 0.1439651 0.26682806 0.10301255 0.19279023 -0.28273153 0.24463603 0.006738493 -0.26508096 0.26390412 -0.38471532 -0.54757744 0.3843834 0.05584284
63 0.33496594 -0.24698989 0.116618484 0.079302005 -0.09978782 -0.26855373 0.22545652 -0.4431032 -0.27888474 0.095049776 -0.05942092 -0.2087459 0.18329434 -0.19597189 -0.36894086 0.35137913 0.33884764 -0.43351787 -0.07784201 0.7078608 0.027701603 0.44809076 0.18642715 -0.087428905 -0.46536198 0.40334532 -0.27307653 -0.11847218 0.77899575 -0.15249047 -0.06754885 0.19546333 -0.47812027 -0.42350715 -0.063787386 -0.43993238 0.14718263 0.24288905 -0.082948975 0.4539065 0.22343144 -0.052587103 -0.283177 -0.15522139 0.41138047 0.08870657 0.107276656 -0.52485114 0.25360766 0.3435773 0.2326207 0.22946818 0.6603032 0.08080292 0.1277129 -0.15686278 -0.3049082 -0.2809316 -0.36141756 0.11870337 -0.19338958 -0.38297236 0.2750283 0.037849095
215 -0.19451629 0.0840498 -0.12628306 0.6382164 0.19948651 0.13000143 0.13521178 -0.2650297 -0.5591918 0.09373384 -0.28633228 -0.8409114 0.6643067 -0.34313768 -0.14762907 0.18275747 -0.3565914 -0.25232175 0.15262267 0.49443778 0.63922477 0.09316716 0.122766264 0.25685346 -0.02603304 0.2932631 -0.34132195 0.09171254 -0.25752726 0.037979342 -0.1573141 -0.53311217 -0.548107 -0.6256131 0.058697674 0.020020613 0.10642125 -0.10305755 0.29873788 -0.043020304 -0.6226196 -0.49969062 0.16463128 -0.031459503 0.13884202 0.55110866 -0.44591895 -0.42741778 0.105015196 0.3630097 0.13195239 0.64014435 -0.31245446 0.18097009 -0.1268194 -0.7021074 -0.40532646 -0.108642906 -0.012379573 0.44809866 -0.5308576 -0.5857838 -0.25264844 0.12962256
170 -0.19039007 -0.5634158 -0.03951445 0.19767176 -0.056951527 -0.18426299 0.41413084 -0.12129761 -0.69755894 -0.41877216 -0.045989312 -0.41810685 -0.31613463 -0.48941943 0.0319101 0.24746087 0.45245308 0.0528981 0.05132009 0.6701426 0.49495652 0.3715328 0.30446565 -0.27054405 -0.09088466 -0.11742667 -0.6263634 0.43295425 0.24918458 -0.118928835 -0.029293863 -0.09288861 -0.17886269 -0.7997131 -0.32130626 -0.10094826 -0.14347751 0.18411124 -0.41871375 -0.21381374 0.3458162 -0.22667965 0.1140345 0.44189847 0.79079837 0.08317389 0.1099741 -0.4213292 -0.12419624 -0.18989334 -0.40278712 0.17557144 0.4054836 0.14688395 0.26352134 -0.4548667 -0.02142207 -0.0018398445 -0.14233044 0.25702983 -0.31780684 -0.30293092 0.1349068 0.1366803
820 -0.05958985 -0.35701925 0.0052490556 0.26467395 0.06534789 -0.31462678 0.13585334 0.12090466 -0.4419068 0.11096261 -0.026189452 -0.124327935 -0.11414742 -0.18055078 0.10718941 0.3110987 -0.5660291 0.37624907 0.15440354 0.67209077 0.8438927 0.35623163 -0.044885818 0.0775708 -0.17745513 0.26205948 -0.51109904 0.2650008 0.22240342 -0.16623342 -0.17295055 -0.09801075 -0.108510196 0.019204564 -0.033661168 -0.05622278 0.09508176 0.12677048 -0.09717095 -0.22107929 -0.3946893 0.034364667 0.3588015 0.082215145 0.008311043 -0.37110683 0.029912304 -0.52334076 0.42863932 0.029326236 -0.049123127 -0.35258508 0.21148463 0.10769259 0.2203796 -0.34637776 -0.06358626 -0.32223377 -0.12004847 0.6879279 -0.5666945 -0.19774148 -0.043725543 0.15662129
96 0.1801329 -0.3821786 -0.1478158 -0.07553141 0.013854648 0.023048108 0.26176283 0.2726512 -0.82547176 -0.052623622 0.15069708 -0.40559745 -0.36005393 -0.1013922 -0.15629698 0.07247219 0.21769837 -0.45809495 -0.065542296 0.69480073 0.12472844 -0.007063024 0.41043183 -0.45538273 -0.70607734 -0.4331983 -0.036926493 -0.020924961 -0.1604234 -0.3708508 -0.15724549 -0.45541367 -0.44305766 -0.74722266 -0.11895206 -0.4581221 -0.14491408 -0.15538926 -0.43560982 0.19076043 0.1938033 0.4358355 -0.18308797 0.16579413 0.567729 0.1975688 0.032707155 -0.2901989 0.25201762 0.5990425 -0.6476186 0.21490622 0.55084085 -0.10109175 0.51716745 -0.03549109 -0.107411385 -0.18975504 -0.24762252 0.5286531 -0.4014817 -0.3523058 0.19869299 0.0918674
424 0.07090892 -0.17063066 0.25150517 -0.08524667 0.18098046 -0.33904403 -0.037089095 -0.099953905 -0.56339544 -0.26630318 0.28518432 -0.3889847 -0.14573695 -0.23548725 -0.03880252 -0.029266842 0.2098175 -0.0015914164 0.28736463 0.36086056 0.2055338 0.7993854 0.2643836 -0.32024395 -0.15656073 0.10177216 -0.26324075 0.555491 0.18197998 0.26972476 -0.16211449 -0.1516319 -0.33327967 -0.5187951 0.13447899 -0.12008471 -0.25590912 -0.28762394 0.04312122 0.009209708 0.09397143 -0.38162163 0.32880676 0.006644733 0.4649083 0.103271976 0.057971835 -0.5061939 0.30027333 0.10475156 -0.21751054 0.25721875 0.19453669 0.3110753 -0.021924343 -0.47496948 0.028236307 -0.35223836 -0.0074780253 0.06949858 -0.11202206 -0.37050542 0.09503924 -0.16359052
81 -0.18328829 -0.33102795 0.20053206 -0.05577556 0.2065495 -0.29176894 0.43161285 0.085970916 -0.50028706 -0.4546732 0.2509084 -0.31184155 0.2223483 -0.25987902 -0.019546874 0.26484096 0.4770132 -0.48753557 0.17558601 0.68266064 -0.053063497 0.36250272 0.07505994 0.06698214 -0.025308091 -0.21184464 -0.42401466 -0.106565215 0.11392476 -0.25041568 -0.0343853 -0.15823953 -0.4558977 -0.45181566 -0.3084974 -0.0786562 -0.40564013 0.019065851 0.10967382 0.17143507 -0.036681574 -0.23450273 0.11306566 -0.016284496 0.42101455 0.048883732 0.10032484 -0.46564025 0.40095034 0.2666312 0.09466717 -0.06700319 0.17782386 0.60713947 0.17251009 -0.6836653 -0.5361137 -0.4165554 -0.41750056 0.65787035 -0.5170424 -0.27411786 0.46877143 0.15623794
142 -0.018737013 -0.3539285 0.008313385 0.16494083 0.053388588 -0.39263505 -0.13579224 -0.026517883 -0.3937744 0.10416165 0.0061344355 -0.25252306 0.21396127 -0.33547163 -0.08019605 0.08706045 -0.009254977 0.1801914 0.3836215 0.23217691 0.10497782 0.63469505 0.061136473 -0.1681417 -0.08589908 -0.006917428 -0.3960885 0.5425406 0.15483655 -0.28344646 0.13528354 -0.3584899 -0.060266174 -0.1205817 0.15182617 0.09646242 -0.29745182 -0.46004957 0.13535532 -0.27141136 -0.30551252 -0.49527472 0.14630778 -0.12579966 0.19104454 -0.14304039 -0.03562077 -0.32794347 0.15337384 0.685821 -0.14025608 0.2024026 0.099723786 0.42102697 0.24591395 -0.44492725 0.20046408 -0.37868628 0.08411763 0.40544835 -0.60861206 -0.48679942 -0.078145064 0.004504945
87 0.15159738 -0.40882584 0.46868086 0.121472694 -0.20401886 -0.57126665 -0.00876861 0.030746792 -0.21522018 -0.3658184 -0.08158074 -0.49341956 -0.10708896 -0.041694507 -0.2570036 0.2124289 0.109996594 -0.26729015 0.02677193 0.6757825 0.53272134 0.6167567 0.2131556 -0.091325015 -0.27465054 0.21575989 -0.3210137 0.41317984 0.21899281 -0.49384272 0.024942901 -0.11779738 -0.14545193 -0.44064164 0.24803835 -0.16667446 -0.40624374 -0.42736965 0.013610557 0.10784736 -0.24373123 -0.13310045 0.57955676 -0.08915691 -0.27868938 0.26645365 -0.067653134 -0.3133831 0.07594276 0.19923732 0.10706004 -0.06791803 -0.077559896 0.29155397 -0.28387722 -0.32290494 -0.10837887 -0.42761895 0.034618225 0.48849624 -0.11954166 -0.38762417 0.43184868 0.14710768
137 0.51196676 -0.23899858 0.07000421 0.16489708 -0.1008933 -0.39169577 0.70278776 -0.2855086 -0.46456218 0.032386947 0.573337 -0.1968645 0.4491983 -0.3716326 0.026007244 0.14286159 0.6387677 -0.6352314 0.1696788 0.91646296 0.05587032 0.52069277 0.28892034 0.0001640748 -0.3259004 0.30880398 0.21325076 0.13069235 0.48656628 0.026527274 0.16127837 -0.1667571 -0.5598429 -0.5658693 -0.09581317 -0.6982675 -0.018963056 -0.0072810496 0.10921567 0.35975662 0.16567011 -0.12501371 -0.31908476 0.11500454 0.5573587 -0.18676756 -0.047230367 0.06932094 0.4200877 0.81373405 0.04065868 0.11001085 0.42105222 0.23580101 0.5483489 -0.7283456 -0.52629244 0.021364208 -0.4565366 0.5282762 -0.4221236 -0.22528413 0.17975329 -0.21598208
290 0.50250393 -0.45137274 0.23473208 -0.2867821 0.5832188 -0.37697577 -0.28405404 -0.023058005 -0.7723266 -0.0013139257 0.21218269 -0.25702024 -0.2622955 0.1629509 -0.33800104 0.28150243 0.21668829 0.0022559105 -0.2445938 0.7281655 0.5180879 0.9286776 0.035471484 -0.37780055 -0.78428316 0.3152271 -0.20913 -0.44079018 0.018783301 0.1128983 -0.64080524 -0.3230669 -0.12922753 -0.0536145 0.038229 -0.35485613 -0.7020189 -0.34687266 0.49352422 0.13303411 0.5444871 0.30456573 0.1979765 -0.4075331 0.13639821 0.005173225 0.66420376 -0.8056248 0.29879105 -0.36098805 0.16052613 -0.15632299 -0.11496206 -0.013782772 -0.02203764 -0.6316869 -0.16561522 -0.43735006 0.099113576 -0.25415996 -0.46958533 -0.24987714 -0.17931916 -0.13704117
28 -0.19547157 -0.28330946 -0.5074578 -0.07862872 0.33289695 -0.12063776 0.345927 -0.06564968 -0.5868289 -0.54458857 -0.09327908 -0.06935317 -0.32055166 -0.32643777 0.10121286 0.122536115 0.017153675 -0.20135163 -0.049188565 0.66055226 0.62136954 0.22160274 0.16758546 -0.10227051 -0.4114725 -0.15025303 -0.3648611 0.2064337 0.07108546 -0.25392836 -0.07968075 -0.39493898 -0.26337907 -0.3851875 -0.34072265 -0.5406864 -0.8020116 0.16722119 -0.59265953 -0.14309432 0.028644895 -0.13684703 0.056498565 0.010416005 0.816014 0.16072102 0.14594637 -0.6090807 0.039678093 0.13485608 -0.20275928 0.08983408 0.28824982 0.4918069 -0.058432326 -0.24810345 0.12163319 -0.36203033 -0.46496034 0.084722325 -0.28339055 -0.09068743 0.35039914 -0.009982491
141 -0.53328717 -0.7639508 0.25963238 0.21432213 -0.18029918 0.42227024 0.66618633 -0.049293168 -0.03490707 0.63696826 0.27436125 -0.17716031 -0.5309673 -0.26041305 0.060559627 0.52226126 0.20234306 -0.5653233 -0.37836027 0.74437356 0.32244322 0.1898559 0.09302302 -0.59575385 -0.16491039 0.116187796 -0.36394858 -0.20219763 0.022277208 -0.22259992 0.1523482 0.044087503 -0.4719295 -0.03734356 -0.31757766 -0.14440112 -0.4892533 -0.0003840932 -0.3858757 0.06951414 -0.30837646 0.1557381 0.28301406 -0.35801387 -0.22237417 -0.37321186 -0.18397143 -0.27788278 0.18380618 0.06637535 -0.020653397 -0.44811633 0.5109902 0.48876473 -0.21958901 -0.5914783 -0.19777352 -0.030221796 -0.17296581 0.43598366 -0.98592687 -0.1914665 0.1140077 -0.04680375
44 -0.55525964 -0.5704294 0.43439987 -0.12042778 0.0020940665 0.14094779 0.2937066 -0.619546 -0.12211538 0.2290696 0.30898628 -0.25788754 -0.4744059 -0.13450836 0.013269184 0.42865694 0.43928868 -0.5824036 0.16064398 0.40097287 0.41808584 0.57785094 0.021410324 -0.8481329 -0.07015451 0.1868808 -0.4419841 0.114166334 0.12188167 -0.24672382 0.26941103 0.29722852 -0.54893315 0.020119911 -0.21902107 -0.030634167 -0.7346281 -0.31979692 -0.5787168 0.043510973 -0.24743636 -0.282348 0.46383014 -0.4627316 -0.035928037 -0.44731858 -0.21895358 -0.5972649 0.06965923 -0.14566529 -0.13302663 -0.24202093 0.31896442 0.13784617 -0.40710193 -0.58191895 -0.2513757 -0.13523504 -0.17721649 0.26998183 -0.46325418 -0.3190708 0.13641298 -0.09413241
329 0.018544927 -0.6323573 -0.018848715 0.3805357 0.37060758 -0.0854766 0.17919856 0.20227423 -0.785252 -0.4660054 0.17430797 -0.29402858 0.14192551 -0.16535652 0.022955908 0.019944131 0.53998864 -0.446067 0.008253458 0.4915346 0.30253524 0.4261716 0.26562515 -0.34408548 -0.34013185 0.036995202 -0.30827966 -0.23566383 0.18850514 -0.31275636 0.033296153 -0.18458787 -0.3460778 -0.9584877 -0.25768337 -0.25059912 -0.23573044 0.02558607 0.25700212 0.14827035 0.43869698 0.13405327 0.17319778 0.10080581 0.124705836 0.22019827 -0.19047232 -0.5323542 0.49840584 0.17280315 -0.027711604 0.22480004 -0.10787484 0.7466221 0.19247025 -0.5481144 0.04033351 -0.3994641 -0.55489355 0.08475151 0.054100033 -0.273416 0.084517896 0.08462475
249 0.018459018 -0.4910691 0.23897992 0.01402966 -0.20758127 0.004407488 0.4099085 0.036777236 -0.23994778 -0.2092396 -0.008873049 -0.44212815 -0.18607523 -0.25511673 0.07964086 0.27736115 0.42692035 -0.2709021 -0.054675095 0.5748537 0.3144297 0.2699082 0.29994062 0.054769784 0.16544929 0.40799585 -0.46147323 0.19031467 0.13602838 -0.21304558 0.056585778 -0.11843404 -0.2660134 -0.4879043 -0.32951167 -0.2308951 -0.5021672 -0.23032546 -0.054445934 -0.27840486 -0.21944039 -0.3292827 0.05394512 -0.15440266 -0.049618024 -0.046437975 -0.06533727 -0.16146939 0.1014058 0.38244557 -0.1608165 -0.21798375 0.10483469 0.44200683 -0.059255157 -0.67636377 -0.0029363427 -0.11686226 -0.11652353 0.2981722 -0.41176862 -0.35785666 0.50345093 -0.102658615
366 -0.5985109 -0.26088995 -0.027359745 0.43703124 0.017352276 -0.3455662 0.24814564 -0.4928947 -0.4969848 -0.11021132 -0.10162922 -0.16873913 -0.042646825 -0.4110199 -0.0081871925 0.08562102 -0.06825643 -0.34933484 0.25790602 0.41812977 0.2344938 0.30129844 -0.30220503 -0.22724327 0.2063219 0.28333318 -0.46562678 0.25120467 -0.084617175 -0.1552341 0.55439883 -0.09447964 -0.23700254 0.040289707 0.17561673 0.12242387 0.14077641 -0.20723207 -0.08724274 -0.032560203 -0.21283865 -0.19660299 0.016177423 0.13888046 0.13284498 0.38422522 0.14750965 -0.11203003 0.12553477 0.3636713 -0.40267766 0.22324376 0.042407382 -0.11673903 0.4715269 -0.7695956 0.036289196 -0.24060419 0.1736599 0.30453494 -0.5918452 -0.50711054 0.17555763 0.26111326
459 -0.6835867 -0.66556656 0.21516642 0.30311662 0.22475587 0.13167004 0.43639803 -0.66293526 -0.371416 -0.3033878 -0.22898936 -0.5517333 0.104431964 -0.3841499 0.3051549 0.25523642 0.06043401 -0.6229373 0.28329623 0.5418473 0.13786979 0.43105024 -0.17833187 0.17985548 0.06258984 0.16348545 -0.21771385 0.5186705 -0.0783246 0.003597875 0.21725366 -0.33113316 -0.5755894 -0.47846076 -0.070720255 0.028716054 -0.8101707 -0.06038646 -0.30427495 -0.15807927 -0.5285127 -0.29431817 0.23191111 -0.1326029 0.17318577 0.04852705 -0.3662575 -0.27161986 0.28789797 -0.17558746 0.19750318 0.4347428 -0.34414783 0.5504738 -0.46541607 -0.45078337 -0.32804134 0.20010118 0.27718666 0.51760066 -0.7128228 -0.2939429 0.13299525 -0.2832056
165 -0.1937106 -0.64165694 -0.12951347 0.23265931 0.28084484 0.08207092 0.28533843 -0.003963171 -0.51546586 -0.35007334 0.12991421 -0.34957862 -0.5884388 -0.374796 -0.050143313 0.14135043 0.046644337 0.20740591 -0.09556321 0.81780106 0.718191 0.17503911 0.2795607 -0.12776206 -0.645109 -0.30407125 -0.5146999 0.05167457 -0.21132877 -0.19330025 -0.19864847 -0.030455498 -0.11015419 -0.42237186 -0.033713005 -0.17909318 -0.36967263 -0.044923104 -0.056870393 -0.4477692 0.018019859 0.4012065 0.25294852 0.2448411 0.5110083 0.28678676 -0.11919544 -0.52584094 0.10590158 -0.28345248 -0.25336805 0.20913565 0.31523067 0.20324159 0.21764636 -0.21721894 0.103482254 -0.17385559 -0.1942163 0.4786013 -0.5110712 -0.48077723 0.013305202 0.38304502
115 0.35835135 -0.5076811 -0.14382455 -0.0024599736 -0.07668003 -0.30436653 -0.10066542 -0.20345002 -0.492007 -0.4994843 -0.25119358 -0.57771754 -0.38677007 -0.14898695 -0.038779333 0.34435612 -0.08866403 -0.0077378005 -0.027252665 0.80753624 0.43076947 0.46437123 0.21950547 0.26284012 -0.2901014 -0.1374767 -0.53874457 0.4191612 -0.04237021 -0.5359189 0.17576964 -0.32523456 -0.07373461 -0.43158355 -0.048338164 -0.3968901 -0.2567033 -0.24356687 -0.23525026 -0.20396015 0.06928374 0.28720376 -0.16868967 0.12670545 0.4695957 0.021436088 0.29140076 -0.27865964 -0.03672057 0.40889692 -0.3504135 -0.12328876 0.4980686 -0.017782938 0.455891 -0.015135762 0.08254241 -0.0773722 -0.10054834 0.5312559 -0.39733192 -0.46935984 0.27462095 0.46536756
282 0.02371054 -0.22274484 0.18287511 0.1260896 0.043841258 -0.53929514 -0.040048365 -0.22478683 -0.44192186 -0.21431935 -0.04447402 -0.40976176 0.042733554 -0.3480655 -0.13149875 0.13041824 0.1055882 -0.11463825 0.2000423 0.46071512 0.16148874 0.68784356 0.11021049 0.054992914 -0.15879942 0.21684723 -0.39981002 0.5412039 0.17802459 -0.43326986 0.23286743 -0.2562709 -0.08197475 -0.16091482 0.18983878 0.015426171 -0.3200464 -0.34883308 0.11886334 0.028829709 -0.15005846 -0.28025964 0.1170303 0.18685168 0.25100398 0.26245582 0.2441194 -0.42827857 0.031856723 0.5231862 -0.24926333 0.20689398 0.07756081 0.19097672 0.3219628 -0.45292535 0.027469037 -0.4299674 0.037398823 0.25186765 -0.3592954 -0.32917333 0.15900968 0.072133675
405 -0.06187081 -0.28149188 -0.11537322 0.07109119 -0.057040285 -0.32313028 -0.19124112 0.1820358 -0.35953555 -0.1054255 0.540748 -0.54414827 -0.40837553 -0.09941494 -0.15637638 0.033115927 0.35784623 -0.46949503 0.05345862 0.6449083 0.08878841 0.35736114 0.4995173 -0.2517956 -0.019875897 0.4480789 -0.060927585 0.24922629 0.49964052 0.00513523 -0.2741831 -0.26306894 -0.086906634 -0.5611409 -0.02523068 -0.6184549 -0.48491552 -0.43990207 -0.19262931 -0.08223405 0.20141003 -0.4197966 -0.06265703 -0.06482239 0.29665843 0.103841625 0.2804737 -0.2378268 0.1505706 0.5080619 0.07999177 -0.17501281 -0.15807246 0.16974753 0.1906667 -0.57345825 -0.06982741 -0.30231908 0.19490127 0.2785206 -0.38397002 -0.14932907 0.33196643 -0.54357606
533 0.0050083306 -0.18307984 0.2594189 -0.022342652 -0.13540874 0.025017252 0.42065126 -0.3776474 0.18062666 0.009209821 -0.16695073 0.0037723703 -0.11054052 -0.31243387 -0.16993418 0.184673 0.055073507 -0.4274742 -0.079043046 0.5594403 0.44613045 0.38707274 -0.08081617 -0.03216844 -0.3518932 0.40813184 -0.37557665 0.08801008 0.23274817 0.28336775 0.12746744 -0.17241457 -0.14297728 -0.10850741 0.19380288 -0.06783133 -0.30363503 -0.16309606 -0.22675255 0.020475987 -0.21586412 -0.20621178 0.030568432 -0.25161925 0.030134806 -0.2852003 -0.007636534 -0.44693568 0.10305854 0.310321 0.08028699 0.08979341 -0.09629809 0.16012059 -0.03966863 -0.1709437 -0.18970625 -0.184133 -0.15379637 0.10310841 -0.48813674 -0.6570329 0.21746 -0.33356622
493 0.021683661 -0.047703177 0.4802401 0.15573105 0.4509186 -0.51591647 -0.42616412 -0.07072069 -0.4933171 -0.35010916 0.1650543 -0.74688923 -0.129833 0.024769362 -0.2594467 0.57938975 0.07492323 -0.0032477381 0.47704184 0.9464748 0.26262283 1.067201 0.2944065 0.115122765 -0.46335113 0.23399512 -0.43852127 0.37814987 -0.07590801 -0.16608933 -0.0868467 -0.1210656 -0.21206763 -0.16481766 0.043785688 0.12884298 -0.18336126 -0.24826898 0.34554744 -0.15662795 -0.21463639 -0.031187745 0.76699436 -0.12868111 -0.087822266 0.058433868 0.46655652 -0.71616346 0.019352242 -0.1152352 0.34948632 -0.5080536 0.26098606 0.24760237 -0.2743506 -0.81359 0.6562965 -0.4629744 0.011165188 -0.009416321 -0.4793805 -0.27694294 -0.20679137 -0.13144256
232 -0.44157657 -0.4077143 0.017078685 0.43815035 0.6733181 0.49240553 0.046498537 -0.24867547 -0.5115595 0.22885966 -0.2481024 -0.25528675 -0.15592933 -0.10947073 -0.15929408 0.53505415 -0.55675685 -0.10954327 0.1955309 0.8661781 0.30911165 0.44063848 -0.015536926 -0.21075705 -0.44029057 0.06341868 -0.022537041 -0.105967894 0.07970549 0.86381227 0.22916326 -0.098060355 -0.42771924 -0.2996542 0.12138908 -0.13564044 0.16308464 0.12596168 -0.39298603 0.10254583 -0.6942317 0.19160408 0.43114156 -0.22014757 -0.14654894 -0.4331027 0.064346455 -0.5256046 0.4324021 -0.17350976 0.24575512 -0.2892698 -0.055847216 -0.0021077786 -0.41478986 -0.0035791069 0.22267163 -0.074419074 0.26491994 0.020607255 -0.6752562 -0.39392972 -0.30334228 -0.31821376
340 0.045060992 -0.7733704 0.23972595 -0.021268828 0.32322848 -0.072518535 -0.020820536 0.031001747 -0.77851003 0.063804254 0.20692846 -0.4986324 -0.342969 -0.12769593 0.48653877 0.38192803 0.010352002 0.17073427 0.07104358 0.7783453 0.098156184 0.50636864 -0.09451355 0.07734901 -0.43120062 -0.26537946 -0.5315175 0.23362903 -0.044806786 -0.6782533 0.19158435 -0.2537232 0.19692661 0.17811437 -0.28323975 0.0034732912 -0.29584986 -0.23276588 0.16623123 -0.3767649 -0.18449122 -0.09532136 -0.14101058 0.016300717 0.58034015 -0.1715525 0.20224491 -0.09542944 0.013851386 0.18758646 0.049245823 0.33744356 -0.0437636 0.16338085 0.4666778 -0.29089049 0.03055048 -0.26120973 0.0037842563 0.31029987 -0.8304886 -0.29815337 0.24799618 0.3610155
83 0.25777477 -0.48163792 0.069197655 -0.030282628 -0.11729458 -0.53499705 0.019587783 -0.10776677 -0.44115663 0.06126261 0.02300028 -0.2528518 -0.028976437 0.09881431 -0.04873246 -0.051161848 -0.0033159298 -0.19278923 0.008594836 0.41801205 0.0980067 0.7525983 -0.079683386 -0.041838218 0.053423047 0.34311545 -0.15774228 0.27181223 0.3211962 -0.24138664 0.32600543 -0.018024513 -0.45528907 -0.18697387 0.2723869 -0.0974815 -0.506533 -0.1805287 0.07057127 0.057199508 -0.1727623 0.08235298 -0.009253858 -0.21598358 -0.31206992 -0.028223172 0.27312502 -0.44091272 0.24726637 0.5123444 -0.11481822 -0.084292464 0.17164123 0.33650658 -0.027398894 -0.24453343 0.097638644 -0.35521296 -0.071909636 0.3541472 -0.4501016 -0.2677279 0.26094976 -0.10798175
212 -0.013357444 -0.6306495 0.30343744 0.1899 -0.25904155 -0.28561783 -0.0909588 -0.09777249 -0.39761454 -0.28085855 -0.16306104 -0.6065979 0.029388143 -0.05640339 0.0036809535 0.052079502 0.33029413 -0.32208672 -0.08590764 0.41086227 0.15477182 0.8164154 0.08659438 -0.06233387 -0.17313522 0.16567527 -0.50654936 0.120389715 0.1994362 -0.57513785 0.2797306 -0.07941116 -0.23988599 -0.42560083 -0.059699267 0.032182384 -0.4235387 -0.44119686 0.28729615 0.07762015 -0.12280116 -0.1465473 0.17571788 -0.05699105 -0.13181223 0.19395556 0.1473022 -0.43800735 0.014401916 0.35528824 -0.090144336 0.11264989 0.2532724 0.5304298 -0.013467181 -0.34598175 -0.08877757 -0.2921515 -0.3588173 0.1445591 -0.23691207 -0.45994553 0.23706599 0.35948756
532 0.6280518 -0.057324585 -0.34806684 0.6550208 -0.34047204 -0.5776766 0.17736611 -1.3420222 -0.6359737 0.22472385 0.8317056 -1.224284 -0.46083724 -0.5036487 -0.6006547 0.0630879 0.23678567 -0.9058342 -0.15243444 1.7611274 0.15185115 0.30788037 0.81316733 -0.009161938 -0.5368266 1.4457091 0.3813133 0.7992355 0.35286394 -0.23807728 0.92745435 0.47854513 -0.8920114 -0.55906683 0.044943422 -0.9964795 -0.06188196 -0.879368 -0.3988484 0.47742957 0.08062829 0.08712831 -0.5688745 0.05711785 0.28292596 0.1922311 0.5139029 -0.2172417 0.66879326 0.97912157 -0.20256656 -0.3641333 0.395173 -0.7230705 0.5056258 -1.4137586 -0.23919307 -0.33849564 1.1196249 0.18590406 -0.6100323 -0.9259331 -0.32588407 -0.75789917
13 0.088477634 -0.4502247 -0.19876508 0.1968772 -0.008598359 -0.08820622 0.26202717 0.19459884 -0.7214929 0.48573157 0.5672882 -0.19547836 -0.13961999 0.103363074 0.122267105 0.07542891 -0.11695241 -0.013341751 -0.49156046 0.4906466 0.47188255 0.3127754 -0.041244514 -0.076717906 -0.9612778 -0.25944635 -0.3529479 -0.11711585 -0.13270655 -0.0159902 -0.36912698 -0.08477194 -0.19976808 0.0682019 0.15127945 -0.44990948 -0.36207405 0.09750835 0.14073241 0.024278874 -0.027348937 -0.039315164 -0.16003674 -0.097805865 0.28019413 0.05903375 -0.053276427 -0.40512308 0.5439501 0.12232351 0.06771926 0.20287013 0.2620419 0.31342873 0.15195788 -0.11738907 -0.2956963 -0.3766786 -0.45804906 0.37433767 -0.40722248 -0.21782807 0.20925064 0.27313516
168 -0.28155303 -0.21456282 -0.27599704 0.5260854 0.51121205 -0.15641345 -0.37780043 0.09251671 -0.7235239 0.022503886 -0.068087846 -0.51800966 -0.1547138 0.10260471 -0.2699613 0.41862947 -0.35496724 0.08675624 0.30601737 0.6588992 0.5321367 0.884321 0.20766245 -0.3651693 -0.46164522 -0.006624881 -0.15312715 -0.005136629 0.15528663 0.016749846 -0.2483132 -0.13933367 -0.1360436 -0.18050571 -0.19578919 -0.014307919 0.11734703 0.101871006 0.08310893 -0.1869078 0.10077922 0.4982917 0.30101538 -0.12117503 0.20060189 0.0016539546 0.37493032 -0.44406402 0.397408 0.054368272 0.15855986 -0.3599713 0.4987397 0.17626451 0.055639595 -0.48040015 0.9065468 -0.2900852 0.05041298 -0.20748296 -0.4656301 -0.3522197 -0.13293332 -0.35161364
393 0.32420766 -0.5738225 0.083115466 0.29354012 -0.1964491 -0.3491421 -0.2559618 -0.5561639 -0.24748127 -0.18750419 -0.6927349 -0.6378339 0.25536996 0.08755798 -0.10055697 0.423398 -0.0991577 -0.1233422 -0.18587989 0.62876093 0.07721896 0.7321018 -0.20031059 -0.15390095 0.4705449 0.4279611 -0.40044925 -0.08251678 0.4875931 -0.15396297 0.72373646 -0.4443158 -0.5650242 -0.23507243 -0.25341657 -0.042927604 -0.21495895 0.06587861 -0.11991113 0.023416987 -0.3751003 0.057963397 0.07133228 0.029651232 -0.57897395 -0.21494664 0.13108605 -0.6846607 0.10551606 0.6520207 0.021757884 -0.1055715 -0.17820361 0.26759008 -0.20000353 -0.28664505 0.21101338 -0.5124293 0.06266358 -0.05983847 -0.6282466 -0.26533175 0.30403373 -0.23979244
498 -0.56191397 -0.5053678 0.14120384 0.09422803 0.17083624 0.24123535 0.55535614 -0.64304954 -0.22231407 0.48816818 0.3112772 -0.124129005 -0.024293851 -0.22616147 0.035980556 0.52667874 0.080768704 -0.4113077 0.095599614 0.75028825 0.049627867 0.4638557 -0.02933613 -0.40957958 -0.27445444 0.03404211 0.111293316 -0.12899412 0.30765742 0.3183101 0.27935067 -0.019567749 -0.3837819 0.16340734 -0.24654497 -0.3453175 -0.38532507 0.20029284 -0.30432114 0.27489096 -0.590211 -0.108256236 0.3608644 -0.5434721 -0.023622485 -0.58967465 -0.2540165 -0.08398287 0.27023655 -0.18233523 0.38290384 -0.27689368 0.07762733 0.17933547 -0.31679466 -0.4806405 -0.15199609 -0.08475721 0.12664224 0.29865405 -0.7747058 -0.1800787 -0.15764742 -0.33188915
74 -0.45184672 -0.025192631 0.09843846 0.37759084 0.48404866 0.041906875 -0.0099483365 -0.23470259 -0.5955276 0.0007258177 -0.17700072 -0.7217859 0.29548645 -0.25859892 -0.15277655 -0.026511282 0.13296336 -0.34011087 0.46524763 0.65287477 0.27745244 0.05863673 -0.03215672 0.12663715 -0.24446787 -0.05736351 0.16864108 0.61645675 -0.25837842 0.2756804 0.25846624 -0.6907285 -0.40898985 -0.48833072 0.24505928 -0.39371192 -0.29798448 -0.3481134 -0.36664116 -0.22292082 -0.6469206 -0.28922817 0.36175472 -0.22163811 0.32210296 0.21812202 -0.06783875 -0.037854556 -0.10738992 0.21023421 -0.0061211344 0.52769387 -0.11916895 0.039752368 0.060931094 -0.5693102 -0.08905915 0.055887606 0.5336355 0.61981267 -0.8109105 -0.5939075 -0.10933025 -0.29972693
191 0.36590886 -0.016371107 -0.2091969 0.61675304 -0.10806456 0.1375461 0.09237229 0.11488046 -0.60344946 0.37903506 -0.11482114 -0.7385147 -0.33545956 -0.14032474 0.523261 0.62928987 -0.5745138 -0.2036497 -0.23671982 0.70729977 0.5012937 0.5064294 0.3359727 0.10979426 -0.27494073 0.35403264 -0.74218184 -0.47122037 -0.4403368 0.0028833125 -0.33496138 -0.49192095 -0.1538756 -0.55644464 -0.54037964 -0.4534759 0.17843898 0.18421237 0.36889687 0.15234071 -0.5734305 0.024869213 0.04560079 -0.23176612 -0.19190246 -0.013200112 -0.56689006 -0.28831512 -0.06253645 0.50692284 0.19888042 -0.1909148 0.20125508 0.404727 0.03348584 0.18923405 -0.061361026 -0.523785 -0.57495224 0.11725943 -0.7075758 -0.412434 -0.46714762 0.16870834
494 -0.13344404 -0.38489756 -0.19533467 -0.038363468 0.109960936 -0.15615359 0.24539217 -0.107742295 -0.20754339 -0.19625223 0.12331132 -0.25733292 -0.063017964 -0.20891069 0.06908314 0.3015446 -0.0016017378 -0.087153 0.14805561 0.2613964 0.41228652 0.29833442 -0.046293944 -0.12165424 -0.2385473 -0.07989051 -0.43973562 0.24946126 -0.11084816 -0.41788572 -0.0051160348 -0.21398717 -0.11687943 -0.109324366 -0.023779426 -0.047441654 -0.7313653 -0.08001412 -0.09633961 -0.10549674 -0.09345931 -0.14064737 0.2121753 -0.3391522 0.13483033 -0.0849149 0.15486743 -0.7237049 0.069394134 0.001053297 0.04413924 -0.15876235 0.0912653 0.4655198 0.23495786 -0.496168 0.045741435 -0.46752647 0.009613232 0.13938192 -0.44699797 -0.47830346 -0.14206555 0.014316334
269 0.6707442 -0.4829254 0.19058928 -0.12008374 -0.26521468 -0.5398558 -0.062227685 -0.33442175 -0.5497121 0.44979578 0.29142103 -0.18158968 -0.02935422 -0.20009205 -0.33373106 0.03130774 0.017962279 -0.16708629 0.077962555 0.10625998 0.29436958 0.8585529 -0.0932202 -0.36023393 -0.13335854 0.13099456 -0.5785497 0.7361171 0.40989202 -0.15023369 0.01677753 -0.46764994 -0.43988594 0.18726495 -0.05318166 -0.18296145 -0.6439872 -0.36800858 0.03212259 -0.0855034 -0.085254036 -0.8026268 -0.17838214 -0.04885711 0.36959195 -0.31744614 -0.18248855 -0.36421663 0.25007614 0.6975325 0.10041647 0.51944613 0.046719447 0.28737408 0.078321524 -0.26467532 -0.0065396503 -0.33062366 -0.35049108 0.29599655 -0.8113893 -0.5482104 0.5973648 -0.055292875
451 0.21009146 -1.0189452 0.5312991 0.62955034 -0.47135118 0.059393574 1.0291147 -0.09178314 -0.31096807 0.40915966 0.29073492 -0.37827745 -0.60741353 -0.67663175 0.35079062 0.61515075 0.45396265 -0.62137485 -0.29211205 1.0080789 0.3905273 0.85330874 0.19504091 -0.18407017 -0.18850303 0.44715726 -0.5191071 0.19995448 0.074427776 0.043733925 0.17180932 0.15126863 -0.32470492 -0.9510931 -0.32636032 -0.21109521 0.15994734 -0.007894699 0.082231835 0.037146423 -0.06309092 0.3400222 0.10046523 -0.08415122 0.062022723 -0.26196054 -0.60515493 0.32661977 -0.06942279 -0.25339997 0.3848766 -0.46189207 0.41919616 0.38633388 -0.18463197 -0.9581806 -0.48569873 0.45683837 -0.49338695 0.47008258 -0.94621605 -0.20021966 0.16759287 -0.12481581
303 0.19418105 -0.56086075 0.16579561 0.015636275 -0.13406591 -0.1252847 0.3841648 -0.08234539 -0.5416892 -0.031145554 0.24294902 -0.002836363 -0.202207 -0.3213961 -0.19552347 0.12839231 0.60127324 -0.5009339 0.02376838 0.8543014 0.27622747 0.54558545 0.46241578 -0.45529422 -0.589272 -0.022082869 -0.16485809 0.29023787 0.30916533 -0.055801503 -0.22205217 0.10080153 -0.2841071 -0.6320845 -0.066652544 -0.30011505 0.13110171 -0.3598786 0.09410761 0.3181977 0.30444896 -0.09569518 0.15315299 0.24458578 0.6553376 0.13179189 0.2326115 -0.25190407 0.34737635 0.19214459 -0.06031282 0.22981513 0.5072688 -0.0012428062 -0.013143501 -0.33700827 -0.19697803 0.036433842 -0.39331076 0.50085706 -0.053635873 -0.3989507 0.20542264 0.15511025
58 0.12578529 0.06776992 0.13421531 0.09563112 -0.18192062 -0.23481402 0.08742586 -0.5952556 -0.13892268 0.016301773 -0.3106665 -0.2562844 0.16084714 -0.03040111 -0.56779176 0.082134865 0.23527569 -0.63833886 0.16854154 0.6889294 0.44839776 0.6075189 0.22405455 -0.251194 -0.46252868 0.33891597 -0.37125266 0.19594963 0.43433887 -0.005550749 0.38046825 0.16504173 -0.22946066 -0.07060361 0.51144564 -0.1825446 0.1916923 -0.4920129 0.10484158 0.5292318 -0.14583567 0.0307599 0.14275613 -0.14960521 0.04845349 0.42992142 0.22013474 -0.35801297 0.14779314 0.8704848 -0.054948606 0.44383535 0.3413224 -0.1285559 0.28757614 -0.4474129 -0.12149057 -0.362194 -0.19682778 0.48908877 -0.23536271 -0.82808995 -0.1521489 0.17688993
7 -0.57625777 -0.7627632 0.67445976 0.46861842 -0.21073364 0.43367153 0.53379524 -0.3558828 -0.08150793 0.59408784 0.05396713 -0.31715584 -0.33593357 -0.46370956 0.056922097 0.54180855 0.17377928 -0.75688523 -0.24490818 0.8433408 0.17975944 0.5193267 0.018466918 -0.58202785 0.11486977 0.17813092 -0.49078268 -0.11594812 0.08047215 -0.07133394 0.48072964 0.0014216196 -0.64830565 -0.2989373 -0.37429482 -0.063181676 -0.36665812 -0.106106885 -0.26723 0.15875638 -0.43985838 -0.030877957 0.3796184 -0.37423146 -0.10661203 -0.2095262 -0.45958203 -0.07321082 -0.028388673 -0.16374306 0.25324082 -0.15766212 0.13962424 0.48399854 -0.39514473 -0.68251705 -0.44417486 0.18883277 -0.07051651 0.294653 -1.0729613 -0.38450274 0.10241314 -0.062089052
133 -0.17906162 -0.41054362 -0.38553485 0.47595325 0.3737803 -0.17962953 0.1721327 -0.06293353 -0.50394857 -0.2098428 -0.008763532 -0.34477207 -0.18090472 -0.08988445 0.40314266 0.45276538 -0.19800289 0.19933696 -0.030082636 0.8952405 0.51536876 0.41586015 -0.14120075 -0.020907277 -0.043912616 -0.037240382 -0.2822333 0.005490576 -0.001197408 -0.228691 0.2845888 -0.10479224 -0.03550364 -0.081951074 -0.021564173 -0.19367954 -0.19594559 0.049239624 -0.16063079 -0.21061417 0.0015327189 0.36917546 0.19661772 -0.019375693 0.18751903 -0.13355538 0.070657946 -0.26380086 -0.033866283 -0.031696793 -0.024277274 -0.41619313 0.16649093 0.1906627 0.33413598 -0.2880858 0.2905953 -0.3142113 0.072853826 0.21099608 -0.6731283 -0.09264163 0.1430153 -0.053453997
4 0.34183386 0.08802682 -0.3708273 0.099924274 -0.2352555 -0.42073 0.0673706 -0.47584125 -0.30107597 0.15544522 0.26595968 -0.19211864 0.023342306 0.09919459 -0.3706442 0.002017944 0.17876133 -0.5898629 0.08471606 0.783527 0.40823442 0.5513964 0.39297512 -0.28160164 -0.47939783 0.36677402 -0.11689323 0.30035743 0.5279416 0.012757621 0.07810553 0.08043582 -0.20070338 -0.3905529 0.2661739 -0.31301874 0.03285971 -0.32860145 -0.38398185 0.5025806 0.22964317 0.09234231 -0.03973715 -0.031852804 0.30818945 0.1099671 0.110826984 -0.13832733 0.167831 0.6826155 -0.24469124 -0.1177073 0.5679831 0.08431779 0.24878594 -0.53444576 0.10023316 -0.14509957 -0.30562866 0.31095102 -0.24964517 -0.50836825 -0.2555259 -0.103425555
438 -0.42002332 -0.2966534 -0.46964788 0.01479858 0.29748905 0.14945012 0.36044782 -0.2791885 -0.5530357 -0.3542557 0.18289392 -0.36184314 -0.46427774 -0.37457645 -0.17130509 0.15935354 0.08499357 -0.20578727 -0.14252703 0.6543729 0.35249284 0.040781733 0.30561304 -0.30981484 -0.34305555 -0.032175783 -0.12591362 0.32294315 0.1366495 0.06733969 0.008564396 -0.35130545 -0.39043683 -0.45033088 -0.29724568 -0.42054775 -0.46305782 0.21237876 -0.7300583 -0.28425184 0.30772996 -0.14475742 0.0054253982 0.14802444 0.7267643 0.24488863 0.2300394 -0.4310267 -0.0066663506 0.020276975 -0.44008034 -0.07818431 0.077752665 -0.094265364 0.13069493 -0.45930117 0.30330643 -0.16705619 0.35080025 -0.066254094 -0.50045 -0.4613883 0.19599937 -0.42188248
20 -0.088634044 -0.1727262 0.2038144 -0.026798435 0.26460293 -0.39734954 0.18500769 0.13340436 -0.6386634 0.06933118 0.10944727 -0.5978177 0.22690266 -0.24321674 -0.04954245 0.028062101 0.20758359 -0.41659787 0.44035834 0.77123135 -0.2975152 0.041124336 -0.02010542 -0.06470138 -0.16252655 -0.12772188 0.23303251 0.15652166 -0.301333 -0.41357148 0.23610607 -0.71365726 -0.57570624 -0.2675491 -0.007118762 -0.5852361 -0.34312233 -0.47974434 -0.2756732 0.23125991 -0.32269153 -0.085696675 -0.09746159 -0.3233441 0.4554253 -0.14348406 0.13122706 -0.035656463 0.28125632 0.6468715 -0.2271473 -0.019902939 0.36045733 0.23976362 0.289479 -0.9153627 -0.57757205 -0.35359994 0.06285099 0.8323839 -0.75034034 0.05109743 0.008424625 0.06978978
61 -0.3333358 -0.64925855 0.03307633 0.57093924 -0.0897795 0.398555 0.15920126 -0.4158143 -0.62477046 0.38420707 -0.5991314 -0.6275805 -0.37978736 -0.10239609 0.010149531 0.44127795 -0.42864385 -0.3491489 -0.28317156 0.5949446 0.30514288 0.66778684 -0.023757419 -0.60750186 0.26554015 0.48841104 -0.15298472 -0.25709006 0.24109226 0.4135866 0.5940207 -0.21985637 -0.5315457 -0.22682062 -0.3661555 -0.3518186 -0.1953771 0.40246004 -0.39176062 -0.20113257 -0.7151413 -0.07871131 0.22147278 -0.102862276 -0.41663978 -0.2758922 -0.36123177 -0.69959694 0.21011785 -0.0069948817 0.3084204 0.17501652 -0.46755108 -0.16019611 -0.36413988 0.17788047 -0.053143464 -0.0680778 0.25406095 0.06817845 -0.7019777 -0.33203197 0.25511232 -0.48861384
173 -0.22232912 -0.40978935 0.47088218 0.11734102 0.09675416 -0.49952495 -0.0841483 0.008472524 -0.71573246 0.23373653 0.291459 -0.6187678 0.1209764 -0.14255844 0.19077744 0.23942715 0.095574796 -0.21137574 0.30170664 0.44173643 0.05636542 0.1833637 0.018815607 -0.32836184 -0.25982717 0.004849183 -0.10061294 0.4447414 -0.096765555 -0.83373857 0.41459736 -0.6205212 -0.249411 0.040325563 -0.2988887 -0.29567373 -0.45167693 -0.304106 -0.19866355 0.13922565 -0.1566739 -0.01615052 -0.021432722 -0.42150435 0.24207303 -0.18670617 0.21953718 0.06309102 -0.1407645 0.62891096 -0.470756 -0.020770429 0.1263668 0.06818785 0.55677927 -0.78723025 -0.34260386 -0.3974277 -0.004595001 0.5425847 -0.6446777 -0.0752792 0.19189413 0.41880807
80 -0.15177031 -0.33387113 0.46129018 0.0141950315 0.37195525 -0.45323995 0.19402331 -0.21688086 -0.4537549 -0.6831409 0.114402846 -0.42274532 0.46562567 -0.41689774 -0.020768376 0.3355789 0.5481672 -0.54192007 0.28436947 1.1294235 -0.18534774 0.49141628 0.06681427 0.2545216 -0.33574694 -0.31320536 -0.2546888 0.18042032 0.06600488 -0.52400947 0.12510236 -0.1714048 -0.36401793 -0.43094972 -0.12121344 -0.15843263 -0.434376 -0.07651655 0.12588136 0.1030556 -0.16701852 -0.11727159 0.06622828 0.36449188 0.6632158 0.09517261 0.02175331 -0.38014507 0.18706064 0.4560494 0.05073495 0.023729512 0.1662208 0.42250505 0.28323433 -0.6485861 -0.39478606 -0.4898164 -0.15084954 0.76951927 -0.3629953 -0.044748798 0.034386806 0.2699715
2 0.40405685 0.16486576 -0.4294324 0.14429192 -0.25769144 -0.27616087 0.10554771 -0.48319548 -0.2589731 0.30468148 -0.048600104 -0.06797837 0.14843588 -0.16620542 -0.62630695 0.09608914 0.14335668 -0.6382756 -0.03003002 0.8130794 0.22607057 0.29980803 0.30738667 -0.29285887 -0.4589723 0.35862026 -0.30992153 -0.10955771 0.63572276 0.0016426671 0.09473523 0.19598393 -0.25397313 -0.24831414 0.37315822 -0.47622535 0.19525746 -0.2819226 -0.3301312 0.61285895 0.00013179937 0.023319427 -0.3139846 -0.06641401 0.3290285 0.051903322 0.0124632325 -0.37845963 0.22179806 0.8477308 0.022461692 0.04630267 0.42497107 -0.07043561 0.26729912 -0.42088142 -0.02581463 -0.46558493 -0.20221485 0.15862413 -0.4576623 -0.60315293 -0.056214646 -0.21230954
252 0.34512386 -0.2635012 0.2161048 0.14127308 -0.37271932 -0.2541801 0.29822135 -0.6537557 -0.12017968 -0.042710878 -0.040101502 -0.19882411 -0.22482674 -0.35225648 -0.48200446 0.27069697 0.17842045 -0.56048095 0.071821645 1.0213939 0.066297755 0.5032563 0.362939 -0.2025721 -0.58701 0.38863376 -0.17258692 0.2555964 0.3685679 -0.38910902 0.25963178 0.30510375 -0.18798397 -0.3760613 0.1952397 -0.26985353 0.26788175 -0.31348467 -0.23080656 0.5050999 0.054866005 0.12947127 -0.11450344 0.0815636 0.24124932 0.17618136 0.5093389 -0.44327003 0.28622186 0.5969637 -0.15544455 0.23090807 0.54693264 -0.19515623 0.23260282 -0.19776933 -0.0130729275 -0.15873557 -0.03864211 0.17732443 -0.0460704 -0.6867155 0.21351425 -0.011913204
19 -0.84970176 -0.5399153 0.5563674 0.30377954 -0.044327285 -0.12471888 0.574538 -0.7046271 0.036191687 0.25503713 0.065486394 -0.18177047 -0.26481995 -0.45445842 -0.15715209 0.3670289 0.16318223 -0.76413685 -0.040653933 0.5744403 0.30064747 0.57187235 -0.26934722 -0.3618135 -0.02059268 0.34771442 -0.6191263 0.22320001 0.051213436 -0.46009257 0.5423243 -0.025913442 -0.50612575 0.279539 -0.027889002 0.3176252 -0.45094398 -0.1713847 -0.32241997 0.021900332 -0.40888187 -0.20278367 0.60054505 -0.3852172 -0.052319422 -0.03502829 -0.27689183 -0.29838404 0.2273239 -0.13281356 0.07522693 0.23240866 0.15188013 0.52523 -0.35197857 -0.6114347 -0.32233223 0.15054527 -0.005869972 0.5520645 -1.0282607 -0.27381334 0.14942545 0.055762965
546 0.02875763 -0.34858054 0.5087537 0.13780488 -0.10906438 -0.3341529 -0.32967398 -0.120939136 -0.03205583 0.018406598 -0.48210827 -0.44344318 0.31544155 -0.20533684 -0.074396305 0.26479644 -0.059337337 -0.18853913 0.095290884 0.7597714 0.34908167 0.57687676 0.009151707 0.046172936 -0.06447588 0.12880456 -0.4130267 -0.048643515 0.32957602 -0.20544736 0.40666085 -0.27440998 -0.17549163 -0.04726905 0.038294327 -0.029908154 -0.1749766 -0.29757693 0.09801449 0.036391355 -0.2499142 0.008440624 0.08985277 -0.14745812 0.017297389 0.12841107 0.15200044 -0.20344815 0.07236102 0.4287905 0.1570431 -0.12104622 -0.033560313 0.3443663 0.007956813 -0.5475883 -0.08558048 -0.25862888 -0.062373124 0.26679713 -0.6716714 -0.30591375 0.29054162 0.3407521
169 -0.04917253 -0.45638695 -0.18455762 0.116395 0.07815181 -0.16228113 0.25855127 -0.02616093 -0.5772931 -0.5824824 0.1956336 -0.4189674 -0.4138489 -0.49933976 0.024084596 0.30909866 0.12586969 -0.11204765 0.03699811 0.86455256 0.4321392 0.36728626 0.23737209 0.11064594 -0.3028122 0.050140064 -0.49659133 0.33320192 0.22972675 -0.48409924 -0.052703705 -0.15795752 -0.034901507 -0.7164325 -0.29622662 -0.08528467 -0.043322608 0.041295536 -0.09086311 -0.31058162 0.25173217 0.09032888 0.05506566 0.31121558 0.5453796 0.074336715 0.3505099 -0.48213875 0.123011425 0.056895193 -0.22699696 -0.22911973 0.28541055 -0.024151409 0.5128672 -0.4756815 0.0027493767 -0.16249289 -0.02043267 0.3461325 -0.30658963 -0.30031192 0.23051982 0.018823333
371 0.1924851 -0.5898936 0.31696534 -0.011788692 -0.32550126 -0.5177949 0.38441816 0.1385561 -0.44599253 -0.1921238 0.41729933 -0.17788559 -0.26573133 -0.5869416 0.18893307 0.24943697 0.043025464 -0.18386286 0.2530799 0.49765164 0.32602745 0.5095881 0.4348607 -0.43348253 0.056980945 0.26645976 -0.6902704 0.5597911 0.6178317 -0.25917903 -0.29957557 -0.12269295 0.02559851 -0.9480175 -0.37910005 -0.10755539 -0.21730693 -0.26125923 -0.13438283 -0.09846764 0.24568048 -0.43865812 0.2793986 -0.3582043 0.6256307 -0.17469169 -0.14533593 -0.34576556 -0.045707103 0.026453769 0.07297382 0.009254819 0.10577421 0.31944963 0.29630634 -0.58020914 -0.3160459 -0.33574176 -0.08219051 0.28565156 -0.07983022 -0.48590842 -0.044612028 -0.29518703
113 -0.38024038 -0.5220743 -0.33615258 0.18291444 0.3006029 0.3209716 0.34356353 0.15509385 -1.1215988 -0.024243526 -0.13126656 -0.45834583 -0.49084467 -0.065142944 -0.056889135 0.17115402 -0.035237983 -0.24316432 -0.049162667 0.66892505 0.4967218 0.31066224 0.010456455 -0.07711472 -0.5197004 -0.13802701 -0.09393793 0.13143887 -0.17217825 -0.09098525 -0.06771974 -0.33610046 -0.4760133 -0.5947278 -0.36052942 -0.097902946 -0.21759507 0.13121101 -0.35556862 -0.3879678 0.16440523 0.41863894 0.25018054 0.27521533 0.2538369 0.14088161 0.36024043 -0.45184478 0.45533857 -0.06860913 -0.49850458 -0.06365818 0.20714977 -0.15749669 -0.016520118 -0.29793113 0.5344444 0.101846926 0.122845486 -0.006995718 -0.53036445 -0.62263066 0.49971154 -0.13200742
473 -0.18317856 -0.26577488 0.083610415 -0.11376589 0.43206313 -0.15135765 0.268279 0.036882635 -0.36957368 -0.20149066 -0.11821172 -0.09457055 0.26219177 -0.28351825 -0.24307214 0.10468046 0.31807432 -0.3473864 0.040665235 0.6501225 -0.05203929 0.579114 0.00028114597 0.002568871 -0.35983643 -0.3474382 -0.3769786 -0.024663683 0.06379128 -0.21155255 0.19061509 -0.31097123 -0.32156333 -0.051346436 0.017010693 -0.2137957 -0.5462277 -0.19408125 0.038811512 -0.052868895 -0.03703126 -0.31233716 0.102430314 -0.136433 0.46926844 0.024821356 -0.085791595 -0.48965383 0.25922993 -0.0076662055 0.44790798 0.0622604 -0.1141519 0.54164696 -0.17742108 -0.37626344 0.038200993 -0.41393432 -0.14057003 0.3918265 -0.44030735 -0.3747928 0.4338976 0.20366196
189 -0.2893798 0.11348876 -0.0840189 0.1547089 0.6535169 -0.15883993 0.23177132 -0.18919335 -0.23996773 -0.35046598 0.047646966 -0.22156386 0.4486868 -0.47978872 -0.092282735 0.3143037 -0.13260278 -0.57664514 0.45882678 0.7740952 -0.15296654 0.41415963 -0.5036756 0.15734081 -0.067805134 -0.25706205 -0.33209142 -0.0639852 -0.23816349 -0.022460021 0.3120633 -0.5076926 -0.44881016 -0.13516036 0.014073285 -0.15193456 -0.37347782 -0.20156358 0.08561706 0.19062026 -0.36796322 -0.24774519 0.066371 -0.17467606 0.529833 -0.020050697 -0.18600112 -0.43784326 0.28318548 0.1732103 0.30311823 -0.08867625 -0.13918869 0.5740777 0.042819545 -0.772502 -0.38124898 -0.2432834 -0.24348892 0.42075738 -0.7395771 -0.13834354 -0.06212368 0.10376455
11 -0.659275 -0.46818522 0.5696995 0.19276986 0.118954994 0.19399272 0.2377147 -0.1690353 -0.24232897 0.11640604 0.13993166 -0.4534087 -0.23390615 0.058116894 0.23315746 0.47286797 0.25962505 -0.6048533 0.065092 0.6219101 0.049305145 0.31944743 0.20871574 -0.6558694 -0.3809791 -0.016812785 -0.18106078 -0.1636471 0.07690573 -0.09349743 0.12927358 -0.06924575 -0.4002264 -0.19267918 -0.1997696 -0.21724236 -0.17106065 -0.08108971 -0.30000776 0.43376413 -0.4342061 0.27647215 0.56049335 -0.45121214 -0.07992931 -0.30489445 -0.45419165 -0.2661197 0.3564779 -0.07788552 0.050577197 -0.112332486 0.5751099 0.5241167 -0.31439903 -0.08890956 -0.3421334 -0.11322581 -0.25997835 0.5126106 -0.5216803 0.036742955 -0.2520053 0.0581161
285 0.13949344 0.0032966258 -0.10579687 0.2198782 -0.07770501 -0.30295464 0.21290226 -0.23272166 -0.3792904 0.11014275 0.40576527 -0.43549994 0.021906316 0.08041501 -0.24914928 0.11276692 0.08925799 -0.3225784 0.20353332 1.2377051 0.41746357 0.41134682 0.47871017 -0.06840987 -0.5799064 0.4041388 0.093833305 0.07591786 0.46661937 0.034310937 0.020253211 0.22193262 -0.20619352 -0.46459642 -0.052578747 -0.49741873 0.42296118 -0.056553416 -0.0032040079 0.56347233 0.2891717 0.29006615 -0.049544476 -0.04088882 0.41831827 0.09278224 0.4946638 -0.35185948 0.306486 0.56673545 0.14325717 -0.23577121 1.0006486 0.06738752 0.17955886 -0.6073022 0.026265742 -0.027638566 -0.29748785 0.08811272 -0.25468737 -0.2740778 -0.07752536 -0.28541636
227 -0.3562951 -0.083476126 0.1279868 0.8835149 0.020027641 -0.1179207 -0.5475644 0.33234832 -1.0340487 0.31948194 -0.58845735 -1.1219147 0.40601262 -0.32766214 -0.8401263 -0.31582138 -0.12098609 -0.9062596 0.300459 1.0721213 0.6814491 0.10246321 0.6076806 -0.7572013 0.40027216 0.010073154 -0.3281769 0.34571245 -0.11967573 -0.29745972 -0.14950025 -0.94326633 -0.36198735 -0.8807549 0.17709051 -1.1451864 -0.49992624 -0.57930046 -0.8819276 -0.17292261 -0.85252327 -0.52220017 0.48777634 -0.3004663 0.4875309 0.717708 -1.0970902 -0.04504685 -0.5705443 0.5081592 0.700459 0.7818706 -0.57031286 0.5042844 -0.73879886 -0.59799844 -0.2346932 -0.7754184 0.44259295 0.4363001 -1.0908464 -0.85896385 0.23093064 -0.50346315
419 -0.15557523 -0.50544494 0.35477984 0.36571538 0.08012977 -0.24294917 0.11828545 0.09403205 -0.68454224 -0.14974545 0.15730947 -0.526183 -0.16150881 -0.4037476 0.21999674 0.13062312 0.050358504 0.0016525364 0.13317089 0.5315449 0.24833986 0.7102156 0.19930468 -0.050504994 -0.30914393 0.049203344 -0.43825978 0.33978412 0.11279285 -0.36146176 -0.011314599 0.09145426 0.11378288 -0.6011668 -0.124896385 -0.018182904 -0.113490336 -0.10423596 0.20406494 -0.17527923 0.16938992 -0.014996909 0.219425 -0.05747539 0.34373912 -0.0016811051 0.15542187 -0.2743415 0.20399852 -0.11408858 0.018646827 0.087199286 0.11125484 0.16005601 0.04567742 -0.5220053 0.2767839 -0.25101963 -0.040346153 0.13380036 -0.20456083 -0.26840916 0.043433927 -0.028751487
184 -0.22873941 -0.32580224 0.33410898 0.06081246 0.42375153 -0.33289418 0.16836055 0.018194674 -0.05196717 0.0012790699 0.086461954 -0.107057825 0.31140932 -0.5325727 -0.11586124 0.35124442 0.30296126 -0.6341444 0.11649981 0.6611275 0.018251417 0.5441105 -0.33446428 -0.03295158 -0.40260088 -0.25258106 -0.32091036 -0.088497445 0.061591417 -0.34477684 0.044920634 -0.37725195 -0.3538168 -0.03780122 0.045777626 0.03856879 -0.5279871 -0.42370728 0.38040859 0.29432687 -0.039769925 0.019236056 0.1810929 -0.2873311 0.5170064 0.017479645 0.25268593 -0.5034961 0.21128252 -0.042534307 0.23315997 0.13275455 -0.18863526 0.60946953 0.12414849 -1.0076975 -0.5243783 -0.6001091 -0.36943993 0.51147383 -0.7679609 -0.28658512 0.14613551 0.19762862
295 0.15276434 -0.47076306 0.013191366 0.41143143 0.017673979 -0.10713978 -0.033966336 -0.6006615 -0.44130948 0.034968387 -0.59902084 -0.6961393 0.12629466 -0.24792278 0.06253277 0.42872643 -0.459782 -0.250982 -0.018124906 0.60217315 -0.019277563 0.79669887 -0.24103476 -0.13671273 0.53788114 0.6003884 -0.06591729 0.0650259 0.20964439 0.1292072 0.38695183 -0.38152614 -0.55496234 -0.21057846 -0.14515807 -0.07885031 -0.18615861 -0.002746662 0.015410621 -0.037852835 -0.3765363 -0.22147252 -0.22710896 0.030351482 -0.13002431 -0.1932453 -0.21790108 -0.48435453 0.2596109 0.38051936 0.14722835 0.16571778 -0.57504195 0.018398631 -0.071457446 -0.41686058 -0.1956279 -0.22301674 0.16881602 0.035947677 -0.7395009 -0.111949526 0.0985251 -0.35733947
411 0.030052025 0.21911488 -0.11537511 0.2224467 0.21862777 0.017284827 0.08958065 -0.25557423 -0.6755176 -0.22379652 -0.27256694 -0.7098383 0.31859943 -0.1639494 -0.28171092 -0.025159221 -0.047864653 -0.5419609 0.03695737 0.75870633 0.07038554 -0.07071515 0.21509728 -0.17851275 -0.2822319 -0.16487099 -0.2071206 0.015014005 0.25883988 0.091290645 0.04496661 -0.17454687 -0.3087481 -0.70637816 0.14885707 -0.29538852 0.007499193 -0.2419204 -0.45090604 0.33891165 0.020027341 0.015181824 -0.33569437 0.08916164 0.67466944 0.3600049 -0.022314342 -0.3394932 0.22412084 0.720725 -0.115614824 0.3330087 0.37161627 -0.1673894 0.39036298 -0.11305157 -0.154066 -0.097772956 -0.26292077 0.23403761 -0.3463771 -0.45141998 -0.3573815 0.007750001
89 0.064834155 -0.35709506 0.056130063 0.15453652 -0.09350123 0.111686334 0.17271167 -0.1252418 -0.52389556 0.028885655 0.23773909 -0.397663 -0.33077788 -0.119015254 -0.30495417 0.05735644 0.33606684 -0.3975529 -0.07114054 1.1472267 0.28229046 0.04678217 0.62317485 -0.69423354 -0.90174335 0.08340652 0.041680515 -0.03173996 0.053513233 -0.4281698 0.031368174 0.1455933 -0.29039437 -0.36339763 0.09520138 -0.42331746 0.18677579 -0.27763826 -0.18955478 0.34480047 0.1874729 0.36658773 -0.21364716 0.35935664 0.4483791 0.27850154 0.50956285 -0.6437641 0.30900708 0.67097914 -0.3168633 0.38704532 0.61699647 -0.31395295 0.36288062 -0.3299072 -0.064763464 -0.20512179 -0.11597946 0.300988 -0.09007294 -0.39090002 0.043498147 0.25806385
375 -0.16382782 -0.42191136 0.024675893 0.14941806 0.24604653 -0.21264356 0.04266747 0.19688496 -1.0865028 -0.459867 0.19339047 -0.5670792 0.18298507 0.10662664 -0.1302306 -0.11389173 0.28425643 -0.43114135 0.027600044 0.5280071 -0.12223988 0.08074537 0.12652823 -0.38338056 -0.19996224 -0.2757918 -0.20349698 0.05168638 -0.024490021 -0.24084392 -0.057609428 -0.3288592 -0.5393597 -0.8387622 -0.07857023 -0.37050602 -0.7439811 -0.17164977 0.012039367 0.2732488 0.2300621 -0.022394793 -0.17086822 0.39917597 0.33464652 0.2776992 0.014053453 -0.5348199 0.55445176 0.98061955 -0.38765475 0.31543437 -0.15486667 0.2087963 0.19481516 -0.42675674 -0.15739623 -0.6154252 -0.04921238 0.43948653 -0.19145297 -0.28222218 0.027332975 -0.0775673
23 -0.36994407 -0.23368068 -0.42478657 0.0030775173 0.12791641 -0.12214342 0.29447252 -0.420945 -0.28971037 -0.37993103 0.032585654 -0.044259377 -0.28439566 -0.39414996 -0.16916302 0.20776837 -0.15361196 -0.0034111878 -0.027979925 0.494248 0.79178035 0.17845707 0.025939727 -0.19495688 -0.6827044 -0.16560124 -0.50058174 0.37862167 0.024056973 -0.175796 0.0073675113 -0.15089116 -0.20780733 -0.0133313155 0.10421896 -0.1656622 -0.80965066 -0.109177545 -0.65408635 -0.16969705 0.0054011303 -0.041174885 0.2550693 -0.051211644 0.5944391 0.20031975 -0.010990054 -0.74215263 0.101877086 0.08049563 -0.34722996 0.21026151 0.44947365 0.17742465 0.30183706 -0.2166026 0.2516676 -0.28703484 -0.11640722 0.2245496 -0.35355952 -0.47316623 -0.06348502 0.22473449
116 -0.14874552 -0.5230199 -0.30724683 0.20703976 0.3664126 -0.043436315 0.23403068 -0.041076344 -0.78548265 -0.53675485 -0.18800792 -0.41420346 -0.5136154 -0.43431264 -0.10002878 0.22455786 -0.02225117 0.12130952 0.10135356 0.84967047 0.4417042 0.29364976 0.2477997 0.0128496075 -0.49312282 -0.24022557 -0.53898484 0.3320216 -0.0055610533 -0.21990237 -0.09162012 -0.34939742 -0.26694706 -0.59233886 -0.1705005 -0.37326372 -0.2907104 0.1722416 -0.53684264 -0.48262283 0.049482845 0.2520927 0.20034815 0.2875967 0.80807704 0.251638 0.07381647 -0.49518114 0.13506542 -0.056403253 -0.32572618 0.1105264 0.30551398 0.05897645 0.41845924 -0.055875596 0.4407302 -0.19157057 0.028498124 0.21323459 -0.39801434 -0.5451084 0.35682845 0.23773988
152 0.22824873 -0.49280092 0.05018564 0.16367078 -0.45010525 -0.64681065 0.055014994 -0.4473567 -0.3084961 -0.20130618 0.31844693 -0.66443825 -0.12643297 0.09383961 0.103542596 0.38014993 -0.07921968 -0.2989644 0.12657434 0.7006463 0.48391262 0.6146224 0.035931207 0.4815563 -0.22693974 0.4575945 -0.23000583 0.6830153 -0.018798077 -0.72083884 0.21616611 -0.2714209 -0.08414144 -0.2341472 0.19895637 -0.068312466 -0.20548612 -0.245099 0.27114564 -0.11789293 -0.32672185 0.10611996 0.10015105 -0.0034867772 -0.18307492 -0.15594009 0.0011704642 -0.03386857 -0.26383433 0.4619832 -0.22652702 -0.47296083 0.6259388 0.3149003 0.17312042 -0.5342513 0.11845332 -0.23423891 0.012793753 0.7252461 -0.51684964 -0.26227632 -0.1294279 0.2713731
404 0.63821983 -0.38516697 0.34561518 0.019685112 -0.45276046 -0.78447115 -0.23324978 -0.35892826 -0.3328082 0.21284032 0.21273223 -0.49937716 -0.38490015 -0.2725156 -0.2827097 0.3903056 -0.20304473 -0.39877403 0.073638864 0.33863267 -0.012403037 0.62721467 0.29779452 -0.51278526 -0.20088348 0.3492808 -0.5802762 1.2524754 0.31146437 -0.7775049 0.5508346 -0.20302899 -0.02373644 -0.10014928 -0.26563263 -0.22959086 -0.4297581 -0.8169817 -0.03713576 0.16014875 0.073468745 -0.37325817 0.05824924 -0.39569694 0.28465214 -0.08365991 0.123512805 -0.07544508 -0.2639166 0.46948534 -0.27969483 -0.06308745 0.16272055 -0.30530006 0.35033777 -0.914529 0.16248389 -0.43358716 0.5603635 0.28668448 -0.35874695 -0.60596734 -0.24772796 -0.1063667
93 -0.3003359 -0.21377324 -0.28909063 0.2270914 0.68462247 -0.13263792 0.08992628 0.23177831 -0.7476963 -0.13848494 0.35224456 -0.41248637 -0.23573738 -0.077087834 -0.24385095 0.24075082 -0.4095561 0.29194644 0.14397837 0.69084823 0.54717004 0.13444367 0.09839751 -0.23540965 -0.730438 -0.21621008 -0.3838301 0.23077333 -0.19058312 -0.4100486 -0.15278503 -0.19182256 -0.12525687 -0.09605896 -0.030263988 -0.20538725 -0.31432697 0.21236831 -0.19104576 -0.31473377 0.058936615 0.35650998 0.4219486 -0.047793515 0.49618652 -0.044740446 0.29398322 -0.64314365 0.22390142 -0.16469567 -0.24325515 -0.3011861 0.35630473 0.0808342 0.124154516 -0.5795068 0.52096134 -0.5698958 0.1910061 0.07660063 -0.5488721 -0.37183484 -0.3737691 0.010190309
41 -0.1470492 -0.46468523 -0.08578561 0.32992408 0.3480054 -0.3206293 0.052980065 -0.014606642 -0.6465383 -0.38116363 0.23103084 -0.29608756 -0.11849624 -0.09380888 -0.027903488 0.2236749 -0.34931546 0.28999296 0.30124992 0.7892346 0.6975297 0.13162199 -0.11836056 0.34575957 -0.5025337 0.23123144 -0.37163115 0.3084447 0.032656435 -0.20386681 0.013422047 -0.06079059 -0.11657934 -0.0627874 0.031631757 -0.10086001 -0.16504091 -0.038024824 -0.017025042 -0.224712 -0.28699794 0.049083695 0.458604 -0.21740867 0.05020805 -0.23825143 0.41924006 -0.79005015 0.1945183 0.11819224 -0.14633864 -0.3797858 0.26216707 -0.08569781 0.2176433 -0.4514673 0.02468132 -0.5678776 0.11358855 0.5223264 -0.32039618 -0.4025229 -0.28342813 0.110270076
180 0.5127146 -0.104090914 -0.12591392 0.50168586 -0.22336414 -0.2384484 -0.06198432 -0.29634118 -0.4156986 0.19940163 -0.05646117 -0.71302074 -0.1851204 0.10760648 0.33041805 0.560011 -0.49005505 -0.13472655 -0.13123377 0.5569892 0.45805436 0.8179268 0.10401337 0.18889134 -0.16023885 0.58025503 -0.44525823 -0.14443547 -0.25891772 -0.14831313 -0.055260733 -0.42518502 -0.11604984 -0.19991414 -0.24612473 -0.18643223 0.016933266 -0.013295028 0.53925514 0.058779433 -0.7605453 -0.15355174 0.17910631 -0.23118421 -0.53621864 -0.2524325 -0.36760825 -0.48709917 -0.08085692 0.57545364 0.1947347 -0.2654216 0.19883144 0.42791915 -0.29433277 -0.023321537 0.3098377 -0.55423784 -0.39810058 0.1334453 -0.79359084 -0.3095867 -0.25114375 0.1705533
509 -0.30199215 -0.105943225 -0.11316239 0.41160294 -0.035711404 -0.35860085 0.12992169 0.05638041 -0.1479562 0.01736299 -0.042912696 -0.5784609 0.3672664 -0.4028531 -0.09650537 0.10065619 0.07948151 -0.77153456 -0.34444392 0.5032135 0.16315867 0.27047992 -0.36145908 -0.3693678 -0.38505995 -0.36475444 -0.25497648 -0.19696178 -0.03416743 -1.0560157 0.27916753 -0.60727954 -0.36594906 0.10452305 0.07341781 0.03656538 -0.78909975 -0.240801 0.0068284012 0.1941873 -0.1432531 0.18138821 0.1502409 0.075488985 0.46630684 0.009181182 0.13558637 -0.27420586 0.081836015 0.2160091 -0.1228372 0.25555283 -0.008094052 0.6212245 0.12079689 -0.928552 -0.5206119 -0.7499124 -0.31048992 0.40099186 -1.0033492 -0.07007079 0.17141692 0.3478683
306 -0.5597945 0.07717691 0.062046584 0.50075525 0.2586001 -0.24229242 0.23146686 0.15482485 -1.0423021 -0.0046117036 0.39767173 -0.72051233 0.1972906 -0.34309095 -0.1755676 0.028477482 -0.028232157 -0.6681416 0.043611005 0.27238435 0.21659599 0.080268554 -0.1893715 -0.6137564 0.12575625 -0.1258726 -0.3918389 -0.15820849 -0.561336 -0.74913675 0.22421342 -0.46011376 -0.6776006 -0.31394476 -0.5774584 0.032156225 -0.07112252 0.20979032 -0.103675984 0.2508348 0.07628711 -0.065166555 0.080152646 0.46045232 0.15335122 0.18537247 -0.2375597 -0.37369198 0.008985483 0.33170077 -0.5108196 -0.4258765 0.42352882 0.080443874 0.058457028 -1.2244177 -0.18516268 -0.45151684 0.019627694 0.15033412 -0.8042349 0.02108349 0.0937632 0.33358648
51 -0.17834245 -0.68526673 -0.47765684 0.29009804 0.44299343 -0.14173943 0.35501105 -0.07170558 -0.69225425 -0.35548458 0.4621244 0.14926325 -0.3902901 -0.23092085 0.34422076 0.29508263 -0.6430632 0.36014614 0.0025186522 0.37813222 0.4821316 0.009624449 -0.02500739 -0.36884454 -0.34955186 0.21248186 -0.41859138 0.31258893 0.17364377 0.12677342 0.21740873 -0.1348493 -0.17514977 -0.25357953 -0.19234447 -0.17011204 -0.45135793 0.21492586 -0.3079958 -0.28968048 0.012780647 0.046371885 0.2120492 -0.23807894 0.39419568 -0.5692733 -0.118422695 -0.7910006 0.34429634 0.029007243 -0.3584149 -0.39852366 -0.11699429 0.17922105 0.33680016 -0.47210488 0.07398144 -0.52220064 0.17445897 0.33502832 -0.32235888 -0.30271858 -0.45084065 -0.1994816
17 -0.09522555 -0.3589419 0.093771465 0.47503126 0.13555387 0.010751726 0.13582179 -0.80065966 -0.2581279 -0.21792051 -0.25747746 -0.6304747 0.12341321 -0.5245244 0.03218452 0.07311847 0.0040226844 -0.2072283 0.15948297 0.60434896 0.31170085 0.22238639 -0.26162997 0.31173772 -0.12898204 0.3835003 -0.09047017 0.6516777 0.0030258796 0.04072991 0.6109984 -0.3299935 -0.48504388 -0.42200246 0.21149378 -0.030479345 -0.22177996 -0.25586507 0.0021452191 -0.21967041 -0.64254653 -0.17592913 0.24793963 0.015682664 -0.04193757 0.16547883 0.13104843 -0.30785167 0.15642247 0.22063158 -0.08359676 0.36019057 -0.37230295 -0.011574587 0.111074924 -0.6404352 -0.21177346 0.06627651 0.55549556 0.3883947 -0.5921282 -0.6599464 -0.14542627 -0.288283
231 -0.07209575 -0.16618086 -0.16532092 0.5604975 0.36722594 0.2913525 -0.13539806 0.033020753 -0.68388337 0.2656877 -0.18953946 -0.7451775 -0.09922211 0.04596726 0.3258527 0.64956826 -0.5383014 -0.14286163 -0.023615355 0.76728094 0.47446635 0.6734815 0.192441 -0.088943556 -0.47456932 0.3496223 -0.063792035 -0.44691816 -0.27645394 0.20045115 -0.2188353 -0.45451105 -0.09833995 -0.26120326 -0.36391845 -0.35966733 0.2186614 0.10086833 0.14522074 -0.12588085 -0.7586717 0.18514726 0.46797824 -0.34663945 -0.19028251 0.0025365744 -0.25228834 -0.27632466 0.1816491 0.023309352 0.46500763 -0.28055462 0.17384742 0.39095372 -0.29240218 -0.16623668 0.31554148 -0.32599923 0.104616985 -0.025301695 -0.7617857 -0.40085104 -0.25405234 -0.3539753
14 -0.16150375 -0.57532114 0.05394479 0.15412973 0.52266955 -0.009979822 -0.05412037 -0.13347062 -0.7992553 0.034565445 -0.28553227 -0.5214947 -0.31176275 0.15886198 -0.10204199 0.42399076 -0.30981228 0.2206443 0.024802912 0.71435225 0.08187352 0.958191 -0.09905884 -0.23781757 -0.04797926 -0.010122522 -0.087674916 0.13336226 0.08526626 0.17358911 0.16917811 -0.30768114 -0.29472497 -0.034138534 -0.25670058 -0.046369746 -0.3095923 0.32983965 -0.08481047 -0.48916182 -0.14117593 0.23373455 0.3398648 -0.15941663 0.06276526 -0.1573933 0.11032035 -0.54375374 0.2557241 -0.2863726 0.30121788 -0.017630352 -0.25243223 0.025641026 -0.18120846 -0.34741718 0.5034116 -0.21550238 0.44134387 -0.069312215 -0.78215736 -0.31064162 0.10581714 -0.3111644
172 0.10402794 -0.39564592 -0.30558658 0.4033634 0.472889 -0.17231227 -0.19288057 0.109876774 -0.8345429 -0.2719886 -0.21467069 -0.48690912 -0.040928897 -0.093933456 -0.0005158479 0.4155929 -0.48422137 0.4626985 0.2537653 1.0204717 0.4966093 0.41500413 0.078598686 0.18091162 -0.30759153 0.054941937 -0.32077944 0.1920826 -0.07984429 -0.13097669 0.015767451 -0.3276274 0.008653844 -0.40120363 -0.059628997 -0.14579327 -0.030984012 0.09890528 -0.013968097 -0.47197545 -0.35803616 0.2671708 0.33000138 -0.13152848 0.28318155 -0.03403711 0.20302244 -0.48247576 0.10683363 0.08583235 0.036478683 -0.37558413 0.23296818 0.21584074 0.22715391 -0.27936321 0.64035594 -0.29310733 0.20311688 0.1429652 -0.49903843 -0.37411666 -0.032130018 -0.01570132
856 -0.47988737 -0.4274713 0.4850439 -0.025883244 -0.17304 0.25865442 0.4688919 -0.5220423 0.09878896 0.46109265 0.18260649 -0.12916426 -0.32649192 -0.10225013 -0.2522909 0.39295262 0.32143718 -0.7367981 -0.009585762 0.5615984 0.5074098 0.4446846 0.07111817 -0.5388876 -0.21905023 0.349206 -0.44694802 0.2570736 0.39429107 0.041391358 0.45353246 0.26228538 -0.4384947 0.19377784 0.000806934 0.109726444 -0.5987696 -0.29563683 -0.31151345 0.108509555 -0.31893513 -0.21722898 0.40271166 -0.55105543 -0.3024389 -0.18238969 -0.13038892 -0.36819842 0.19139174 0.10376649 0.08433468 -0.040692423 0.36129642 0.3257867 -0.23624656 -0.53133374 -0.062972955 -0.13385415 -0.0985325 0.45703655 -0.77293706 -0.66984284 0.2219097 -0.097812034
155 0.36111024 -0.60261095 0.05798673 0.14970043 -0.084895454 -0.22541122 0.29126006 -0.27166417 -0.36166158 -0.4544304 -0.2002192 -0.35142204 -0.020956215 -0.115507655 0.055465437 0.21226737 0.2817957 -0.10193893 0.038577165 0.40886182 -0.08233625 0.35953298 0.26439217 -0.039087128 -0.12947312 0.44386345 -0.2740635 0.044649538 0.3441512 -0.1393575 0.41372564 -0.29381606 -0.28227276 -0.7401211 -0.15040703 -0.4593066 -0.10275793 0.10364379 -0.15276834 -0.04621256 -0.063167736 0.041471407 0.103908665 -0.62729883 0.2229918 -0.1963614 -0.29364938 -0.16982578 0.10432551 0.23756269 0.035148192 0.18240285 0.22769581 0.42127162 0.30509377 0.05198912 -0.1406314 -0.19726849 0.06503225 -0.16939762 -0.07375292 -0.6621405 0.3164072 -0.05142647
92 -0.47914624 -0.26262596 0.09844213 0.3006157 0.0357762 -0.26840803 0.36790302 -0.3747017 -0.48982024 0.22650929 0.5606312 -0.47192627 0.31505305 -0.035864405 0.18336485 0.33807775 0.39405304 -0.70591754 0.34365276 0.64354837 -0.27109414 0.29406685 0.28843743 -0.24030402 -0.4931106 -0.18030284 0.43749648 0.0018385034 -0.03935909 -0.5046563 0.22744831 -0.5347877 -0.31927493 -0.39123175 -0.06235876 -0.59454846 -0.21912079 0.035789464 -0.33611807 0.48684964 -0.2020314 0.5196422 0.20732929 -0.3097827 0.4156632 -0.5987119 -0.23614973 0.55469805 -0.087937325 0.6586601 -0.3639577 -0.34217545 0.753736 0.21135385 0.51977825 -0.65110683 -0.41976103 -0.0719892 0.001986806 0.88962895 -0.6404329 0.07086686 -0.21505117 0.06590371
35 -0.382548 -0.23531733 -0.5002627 0.03751747 0.34346277 -0.1743537 0.18664362 -0.18958561 -0.67807716 -0.47167444 0.12882015 -0.102711916 -0.4357832 -0.2920029 0.062767506 0.14737448 -0.048249263 0.14199033 -0.008090081 0.63310283 0.66437876 0.33679944 0.12899767 -0.292108 -0.611285 -0.26536667 -0.52431196 0.32494876 0.018484013 -0.23362498 0.02071758 -0.28013238 -0.19598612 -0.11016257 -0.16030131 -0.29790375 -0.7457129 0.12384007 -0.43395045 -0.2253812 0.26401314 -0.022145908 0.16074143 0.08890689 0.82914317 0.0740867 0.10739963 -0.83524495 0.19145025 0.051628046 -0.3241523 0.035185717 0.46082452 0.30017748 0.16290678 -0.36390367 0.5101051 -0.42727306 -0.2925237 0.049965587 -0.42033228 -0.3230225 0.0016780056 0.104420915
296 0.5396152 -0.35488042 -0.28887025 0.58095694 0.1159223 -0.45611802 -0.32518792 -0.11479956 -0.7035702 -0.40760747 -0.383585 -0.8443566 0.50376403 0.033312213 0.061078034 0.5788691 -0.3486001 0.08211861 -0.059667688 0.9398141 0.4921583 0.7283121 -0.016817387 0.11619198 0.47318473 0.45719218 -0.34761795 -0.24716327 0.41912425 -0.10876604 0.09312234 -0.6299087 -0.3125933 -0.47124618 -0.3116761 -0.1627298 0.024584305 0.23552492 0.061434656 -0.21325418 -0.27533156 0.022997346 -0.12926008 0.24738635 -0.17456748 -0.03211298 0.035897706 -0.7003285 0.13885546 0.63744646 0.1348331 -0.255776 -0.200851 0.179463 0.0572757 -0.42526647 0.19969963 -0.4644399 -0.016320355 0.113533616 -0.54688495 -0.10924459 0.3175672 -0.047299046
518 -0.030933661 -0.29687598 0.4853374 -0.02886516 -0.1641566 -0.33862582 -0.12599964 -0.30981687 -0.14182593 -0.6338367 -0.2730194 -0.5116606 0.05888427 -0.022755329 0.14166693 0.41907245 0.10653585 -0.34459817 0.37927806 0.5662059 0.40787807 0.5651846 0.18950139 0.0651052 -0.2530689 0.546433 -0.31812975 0.27639282 0.14256372 -0.34383425 0.33452395 -0.48559287 -0.103236414 -0.22661684 0.030921865 -0.27984354 -0.18120418 -0.33841068 0.081471585 0.0974008 -0.48785785 -0.09524261 0.33665442 -0.4165188 -0.074693285 0.11144714 -0.037656166 -0.3372355 0.13458815 0.46661422 0.004874481 0.0007198561 0.26570535 0.38461855 -0.016011454 -0.15023932 -0.2336085 -0.32241577 -0.3912241 0.3615156 -0.3367809 -0.3300575 0.22695403 0.34400147
271 0.80129725 0.070779294 -0.021407563 0.041845087 -0.08528089 -0.5098276 0.13390999 -0.25285795 -0.55283606 0.04933866 0.11212638 -0.32562825 0.012886108 -0.2421753 -0.36590594 0.17299321 -0.3530756 -0.32163626 0.09025948 0.80905473 0.3162641 0.31560257 0.40153545 -0.29438564 -0.56448686 0.21361716 -0.1404258 0.39790893 0.49853566 -0.0031182421 0.07107123 -0.20923086 -0.065553725 -0.47853932 0.28115505 -0.30186528 0.16304977 -0.44551367 -0.37639418 0.35226908 0.06534348 -0.15913886 -0.33653903 0.027290747 0.8162672 0.103981405 0.13940476 -0.31860182 0.24511643 0.9111017 -0.243563 0.5384882 0.40953845 -0.1970596 0.5687757 -0.20692088 -0.2535782 -0.29581982 -0.32289532 0.2930873 -0.27898377 -0.45096532 0.056687273 -0.029789187
30 -0.23150949 -0.30447003 -0.62684476 -0.008386331 0.30721295 -0.23087975 0.19587557 -0.28160077 -0.53409046 -0.65651655 0.13204908 0.14379494 -0.4392634 -0.32431728 0.045901805 0.2664246 -0.18612163 0.06774965 0.010773078 0.6782814 0.77245647 0.20382483 0.053328205 -0.26449928 -0.6394055 0.007391186 -0.5845666 0.216238 -0.19498017 -0.16671744 0.3316197 -0.33925632 -0.09058281 -0.08032923 -0.038426552 -0.3965265 -0.72450423 0.018485611 -0.34101942 -0.29046994 0.0074448455 0.156225 0.1098156 -0.09326834 0.6230459 0.08502639 -0.050535172 -0.8314914 0.07080558 0.26402915 -0.5131997 -0.096983664 0.38293794 0.18544373 0.39232847 -0.31468523 0.40864843 -0.4820504 -0.28096205 0.090651914 -0.37609288 -0.22479734 -0.20895691 0.31074
177 -0.4487935 -0.3246788 -0.32505777 0.4884493 0.4786331 0.3253221 0.46408823 -0.47788894 -0.4799176 0.1300485 -0.5623947 -0.68615645 0.07313193 -0.23598479 0.13749596 0.29135936 -0.6105303 -0.14561972 -0.062396295 0.8960518 0.5706464 0.018130867 -0.38166317 0.35110104 -0.23992191 0.07147103 0.019468265 0.065005854 -0.28331596 0.22575514 0.2580719 -0.6146568 -0.42142057 -0.25357425 -0.078879975 -0.19638811 -0.090525694 0.39944994 -0.19383273 -0.21675122 -0.68334526 0.053269655 0.42177942 -0.19822448 -0.18249294 0.06778284 0.048450734 -0.48496625 0.4510988 -0.1607722 0.20709509 0.0841394 -0.36161155 0.10817921 -0.24697816 -0.44695342 0.3386527 -0.16894467 0.51770407 0.24376576 -1.0260932 -0.45040596 -0.2374367 -0.36514902
16 0.2597788 -0.3935808 0.22317466 0.1476905 0.11106428 -0.2666481 -0.022196166 -0.04716218 -0.49255496 -0.4378624 -0.007960189 -0.66342527 0.2533487 -0.23317125 -0.11997729 0.1443106 0.15201823 0.045662865 0.08690613 0.4211321 0.12959044 0.8114662 0.070418544 -0.2675002 -0.0674441 0.031847097 -0.4387589 0.27423334 0.31539813 0.082579665 -0.08338718 -0.28077784 -0.2591904 -0.5183618 -0.17642993 -0.22869237 -0.22821784 -0.11130784 0.28855798 0.047242176 0.42947295 -0.505935 -0.2615662 0.014000314 0.63524914 0.07471087 0.05039288 -0.62241995 0.24424376 0.24418963 0.032964468 0.27953684 0.084856994 0.16406454 0.124412455 -0.54556787 -0.33825624 -0.38564962 -0.06259068 0.09027369 -0.27519044 -0.21919197 0.2944246 0.10309748
12 -0.63374025 -0.76528984 0.37373406 0.5275178 -0.24601822 0.19907233 0.65457076 -0.21223654 -0.27665222 0.3847568 0.31641012 -0.24564491 -0.48421687 -0.31526372 0.04749215 0.40644127 0.27299997 -0.5049716 -0.38606957 0.6741484 0.42744213 0.7185966 0.1748521 -0.4608642 -0.30670917 0.3038324 -0.61519676 -0.17875436 0.051650714 -0.017753096 0.09087283 0.27732348 -0.39402384 -0.17592615 -0.3909472 0.06795151 -0.34039903 0.050129063 -0.010242839 0.04791202 -0.01712567 0.095386714 0.48924738 -0.3297477 -0.11231676 -0.078339115 -0.273767 -0.2399607 0.19343455 -0.4245151 0.3694631 -0.13772205 0.4275291 0.6790702 -0.39424843 -0.4995426 -0.07413639 0.05905831 -0.24990447 0.19592498 -0.7853038 -0.16375133 0.11765001 -0.009866878
108 -0.31143406 -0.8161952 0.2454435 0.48814273 0.337211 -0.07844028 0.018152874 0.16010723 -1.0223403 -0.22582366 0.08366454 -0.42777926 0.23519492 0.060062554 -0.048222017 -0.2005829 0.316445 -0.24160647 -0.23885588 0.15598738 0.07997997 0.34579623 0.06375652 -0.8400478 -0.6233969 0.0013805161 -0.4492311 -0.3636478 0.13953573 -0.5029701 0.27328756 -0.11725853 -0.38941625 -0.6241941 0.11922388 -0.122993335 -0.9328833 -0.088597536 0.42985544 0.2626197 0.1292717 0.34268272 0.31400713 -0.100488216 -0.085847795 0.23046696 -0.062065355 -0.84059346 0.6380033 0.53984255 -0.03592219 0.61151975 -0.19202843 0.6989492 -0.037729856 -0.5749813 -0.0334654 -0.84725434 -0.041478183 -0.22768745 -0.04431803 -0.66392964 -0.3218194 0.030733332
342 0.5749862 -0.09062423 -0.36693123 0.5494112 0.27637953 -0.10748491 -0.14533813 -0.08078438 -0.91083336 0.15826009 0.15306534 -0.55752337 -0.11078768 -0.12651421 0.39853734 0.46665916 -0.71421784 0.24825902 0.07374961 0.8905043 0.67346424 0.7319925 0.1407596 0.3150139 -0.5744622 0.546121 -0.3233129 -0.12990227 -0.2220903 0.27802032 -0.27457276 -0.5828409 -0.103556514 -0.20941748 -0.15419158 -0.48354158 0.26308796 0.11148284 0.38505483 -0.16357455 -0.76290435 -0.11357576 0.1115279 -0.25640818 0.15599276 -0.2810145 -0.28143847 -0.6971145 0.29280627 0.27240232 0.3692986 -0.16806917 -0.14587778 0.19549993 -0.046707403 0.07984953 0.17739034 -0.49308434 -0.21889405 -0.052057933 -0.58066344 -0.49330246 -0.26797864 -0.0060123703
618 0.9355974 -0.7676632 0.3966334 0.06519439 -0.07075269 -0.18597127 -0.33826143 -0.011749152 -0.7132957 0.75267005 -0.033628117 -0.77302384 -0.5256628 -0.16508128 -0.5915353 0.6084212 -0.6705085 -0.16103566 0.2886936 0.3533335 -0.16352098 1.2715567 0.4866235 -1.4682593 -0.15144402 0.23083319 -0.80235213 1.2725492 0.46533927 -0.4193091 0.461078 -0.43566766 -0.22731481 -0.3420564 -0.5584732 -0.38235936 -0.2568692 -0.47745356 0.02086828 0.102375396 0.12485234 -0.45799664 0.26599237 -1.0206841 0.61215985 -0.13511428 -0.34460282 -0.20717548 -0.46713123 0.44329044 -0.20320071 0.1811545 0.20604098 -0.2072855 0.12914805 -0.71541923 0.4304683 -0.59904677 0.6236997 -0.15689373 -0.5801299 -0.9802413 -0.26403418 -0.1357847
209 0.2488751 -0.3623839 0.072850585 0.3911538 -0.33563834 -0.30434683 -0.081392266 -0.22769907 -0.45131811 0.3938088 -0.039720576 -0.21289822 0.027903447 -0.16592088 -0.35398293 0.34033927 0.14862895 -0.24408828 -0.12945947 0.6117369 0.4279354 0.75278807 0.22692111 -0.60304886 -0.5739459 -0.06465837 -0.27182603 0.09893011 0.67677563 0.017680679 0.16983363 0.2765415 -0.38931 0.08194142 0.20128502 -0.1945086 0.24421401 -0.0036097865 -0.26895213 0.35541934 0.10037271 -0.19584128 0.21587393 0.1800455 0.3271386 0.071603894 -0.13584754 -0.36545667 0.41028613 0.3501083 -0.116371565 0.20356837 0.67656606 -0.27200967 0.13079911 -0.006379344 -0.044478416 -0.07600054 -0.14261012 0.20553462 -0.18942837 0.12734702 -0.020699471 0.37108877
210 0.41215265 -0.3110098 0.5207171 0.002021824 -0.19292995 -0.66461396 -0.13187413 -0.102387786 -0.38083145 -0.00629739 0.027360173 -0.3133048 0.026010016 -0.21139863 -0.036440153 0.26690316 0.1393314 -0.18823473 0.150117 0.83754873 0.31942666 0.7527715 0.3930597 -0.5361221 -0.2936122 0.39416003 -0.39896834 0.34919548 0.59572357 -0.2512844 -0.11363582 -0.0799096 -0.071918994 -0.5607259 0.05955744 -0.10088049 0.20512453 -0.32430613 -0.014911707 0.22660492 -0.06999091 -0.15799482 0.35564464 0.14371184 0.1652715 0.16654314 0.07425233 -0.34299698 0.2180918 0.29103523 0.048847318 0.2815482 0.2831235 -0.09661134 0.22999446 -0.3956128 -0.28550097 -0.18803069 -0.23259002 0.49287912 -0.061955906 -0.06317821 -0.009389887 0.19261146
327 -0.19912912 -0.30129448 0.14405598 0.03289319 0.35736057 -0.06235257 0.13038658 0.8701317 -0.8114478 0.34301415 0.22486869 -0.849554 -0.27403462 0.01635006 0.366091 0.43057868 -0.09355979 -0.2520631 -0.105689794 0.79995567 0.028362231 -0.21153727 0.04363664 -0.49128994 -0.23187244 -0.23617215 -0.108345665 -0.33022353 -0.4999713 -0.7653898 -0.008372258 -0.540985 -0.49541038 -0.048828267 -0.36050525 -0.35454586 -0.2614713 -0.25362754 -0.33038646 0.3257135 -0.30136216 0.49576485 -0.07737864 -0.25287175 0.00933995 -0.25411493 0.1843178 -0.16043603 0.37359697 0.5856285 -0.43981594 -0.37528947 0.57328665 0.35622686 0.19624315 -0.8142807 -0.39954412 -0.5966638 -0.36321726 0.6700966 -0.8780584 0.33047265 0.22943658 0.04491834
367 -0.26555932 -0.49855193 -0.100160636 -0.029468624 0.015923254 -0.29779002 0.24762996 -0.20934808 -0.6828905 -0.70463336 0.007882685 -0.20159379 -0.20202984 -0.3959206 0.051375613 0.08496026 0.40446895 -0.051057607 0.02511969 0.5573651 0.3879639 0.46845534 0.1589324 -0.17403664 -0.30157053 0.003779215 -0.71081644 0.31165987 0.04085215 -0.34694672 -0.03631781 -0.22181934 -0.25526825 -0.49320865 -0.14239956 -0.23979282 -0.5702013 -0.012875866 -0.24955843 -0.36477375 0.1800654 -0.1511089 0.18519649 0.23621948 0.6664494 0.19731723 0.103152424 -0.6691813 0.26032785 0.24051596 -0.331758 0.11070271 0.34632587 0.36262286 0.32099557 -0.31796208 0.13631046 -0.30486923 -0.30567917 0.37478092 -0.27397597 -0.23295346 0.42133182 0.31468084
362 -0.5529852 -0.65648246 0.38253555 0.12856346 0.12573661 0.25034052 0.6707562 -0.25660864 -0.22487058 0.0663099 0.4532244 -0.070401475 -0.4570103 -0.38358694 0.25477585 0.5431098 0.0960288 -0.16566546 0.15625532 0.5881707 0.42169556 0.53137386 -0.028514426 -0.23258293 -0.25514212 -0.0834487 -0.4519688 0.1515403 -0.029494066 0.11153013 0.15062535 0.033917014 -0.32025343 -0.07335835 -0.28527516 0.012329052 -0.5235338 0.08458315 -0.035119902 -0.04414693 -0.36883625 -0.1393838 0.39985782 -0.3621295 0.116343 -0.4747477 -0.42190918 -0.3532598 0.24244592 -0.40340173 0.20901701 -0.3496731 0.2906112 0.6026705 -0.32055178 -0.5912525 -0.18799213 0.07777181 -0.30070648 0.31807628 -0.83612853 -0.26488614 -0.033953857 0.035417795
221 -0.096564345 -0.18369733 0.3065044 0.5040307 0.5660141 -0.2241099 -0.037742946 -0.46561813 -0.49215624 -0.32509935 -0.26268822 -0.7731148 0.3997785 -0.40495357 0.16000968 0.21413451 -0.32108304 0.0068418337 0.46897987 0.66717654 0.24088953 0.50368416 -0.28010112 0.22989304 -0.11997504 0.30141118 -0.102065615 0.5351963 0.064398035 0.1338391 0.21034274 -0.5142703 -0.35922232 -0.5458843 0.14001173 0.010790873 -0.14112748 -0.16631389 0.30789968 -0.16530551 -0.4837411 -0.34078467 0.45811218 -0.15044355 0.2354619 0.15756568 0.1944534 -0.55490893 0.24905458 0.03169915 0.20054826 0.42892432 -0.32282105 0.19858386 -0.08736925 -0.8314194 -0.16909915 -0.16211565 0.3628576 0.36488098 -0.64703286 -0.42146567 -0.42445242 -0.27553707
450 -0.38694328 -0.5378911 -0.0201698 0.577494 0.6253729 0.13245408 -0.17573616 -0.080017105 -0.77754265 -0.41294512 0.2979708 -0.43215454 0.038894 -0.11779533 0.08979717 0.6776074 -0.0044626687 0.0889587 0.42090213 0.8757432 0.29599217 0.57060134 0.13656229 0.10222252 -0.34461096 -0.12937807 -0.12837496 0.17309706 -0.0268016 -0.12054876 0.2576762 0.10244891 -0.023512874 -0.25001183 0.024281582 0.2612208 -0.07453575 0.034582846 0.2583087 -0.13919564 -0.36444005 0.05629514 0.5923485 -0.05239215 0.08480819 -0.072847515 0.37418517 -0.5189076 0.078980386 -0.01821519 0.21193823 -0.4719278 0.27092955 0.41799784 -0.13085744 -0.6360775 0.4961566 -0.32539353 0.043532744 -0.20334247 -0.67660487 -0.24570177 -0.33261877 -0.12753826
213 -0.20518 -0.72255695 0.2945197 0.40537903 0.029337818 0.36339754 0.5823061 -0.61808103 -0.16736597 0.5656466 -0.23074794 -0.2699985 -0.36717787 -0.35496977 -0.07459225 0.87514806 -0.017060885 -0.6500311 -0.28363425 0.702407 -0.003329606 0.6749653 -0.024882436 -0.64786553 -0.08190185 0.3713885 -0.42460644 -0.38766536 0.41208202 0.20561993 0.48162845 0.09377154 -0.6844824 -0.17328644 -0.45615053 -0.071409024 -0.16098487 0.2972258 -0.57974684 0.20728081 -0.45624402 0.18175901 0.26425406 -0.64387614 -0.17460352 -0.630424 -0.6477813 -0.3542785 0.2899846 -0.26646966 0.47359312 -0.0973631 0.21290207 0.35784626 -0.52765876 -0.20868427 -0.18346353 0.057471294 -0.046576105 -0.14468369 -1.0352476 -0.44408634 0.24234228 -0.36368403
474 0.01633816 -0.60761356 0.25791183 0.29594252 -0.006548821 -0.26013213 0.09496144 -0.2030597 -0.72141963 -0.27901366 -0.050345156 -0.3460322 0.30660397 -0.032915726 -0.10355381 -0.122007094 0.42817932 -0.15885168 -0.062333833 0.17488028 0.37970263 0.3598288 0.051483046 -0.45643413 -0.53520525 0.27380258 -0.5588626 0.09992598 0.25730422 -0.51616067 0.4100318 -0.12555252 -0.3160827 -0.29748902 0.20887798 -0.06674355 -0.7979948 -0.30581242 0.25541192 0.17533113 -0.037821766 -0.059760667 0.22549872 0.13199343 -0.24429084 0.19092834 0.11250721 -0.78277737 0.37359622 0.7237334 -0.27758628 0.51314986 -0.0645388 0.38371795 0.18553166 -0.36346295 0.021074923 -0.73600936 -0.26915273 0.12817857 0.0065374197 -0.50549763 -0.017694615 0.22882082
412 0.44439247 0.10117898 -0.15097263 -0.073976204 -0.12861972 -0.27498004 0.28029385 -0.38619715 -0.36181918 0.14319263 0.11023865 0.021058997 0.23696007 -0.098653615 -0.47275862 0.099357486 0.26069626 -0.62890244 0.15407968 1.0523803 0.08871379 0.56454027 0.34011534 -0.28056297 -0.68007714 0.12385146 -0.23918453 0.07262021 0.34531906 0.023087597 0.08976023 -0.019430948 -0.34647533 -0.33273008 0.45533744 -0.5656605 0.19439606 -0.27237317 -0.17979145 0.72372454 -0.0010515016 0.06741334 -0.24270622 -0.05017387 0.48672518 0.10315009 -0.0149655985 -0.30511695 0.34922427 0.97688395 0.06630494 0.10116039 0.57815266 0.050010547 0.33478516 -0.3054383 -0.15743132 -0.33072326 -0.55365443 0.5639316 -0.40393856 -0.5220315 -0.07775688 0.08192557
208 0.4847214 -0.036533996 0.1896097 0.22498898 -0.35599786 -0.5720895 0.3615292 -0.6530662 -0.3106338 -0.032664314 0.35605112 -0.6761447 0.25631186 -0.10688003 0.0881002 0.15404856 0.32445583 -0.71907204 0.07072696 1.2798231 0.2370362 0.39909613 0.6449291 0.074542716 -0.24681257 0.70048124 -0.0625142 0.25374278 0.6169467 0.08876573 0.23172987 0.055860735 -0.39981124 -0.9876602 0.054210857 -0.6163706 0.35013697 -0.2009645 -0.25137797 0.6203842 0.06610002 0.04509253 0.008108805 -0.1949193 0.28622022 0.11334219 0.046956893 -0.041111667 0.4825698 0.7663929 0.18431772 -0.01691328 0.7385868 0.16374433 0.5150061 -0.64396465 -0.5361735 0.030275121 -0.2913351 0.3725865 -0.108898275 -0.50380063 -0.10950465 -0.25167614
46 0.763351 -0.41554654 0.06883887 -0.04314384 0.14819129 -0.4241361 0.07037309 -0.12372798 -0.8496546 -0.09452359 0.3255305 -0.08772186 0.17762183 -0.30132955 -0.25182745 0.06578478 0.28031945 0.038324222 0.1925304 0.3932143 0.20495576 0.9682111 0.27946258 -0.32891664 -0.38158023 0.24975368 -0.37786093 0.25381213 0.6863422 0.44470143 -0.32781568 -0.32855698 -0.4626949 -0.3205492 0.16359301 -0.36327603 -0.2683582 -0.21110061 0.12907264 0.12220756 0.21544248 -0.6581075 -0.20328072 0.101597324 0.7654043 -0.16686118 0.011001232 -0.6737184 0.59029686 0.5068205 0.0175314 0.42971805 0.1188025 0.27617028 0.3348338 -0.25111666 -0.12358644 -0.276352 -0.55872184 0.16055574 -0.34770742 -0.3681858 0.5387763 -0.111456685
