1005 32
1 0.42512092 -1.0861067 0.3352745 0.32998788 -0.23569809 -1.3646929 0.28888473 -0.07500748 -0.10597161 0.6413597 0.8082208 -0.08740963 -0.3218712 0.39082745 -0.18865867 0.008697086 -0.22943091 0.643145 -0.7246263 -0.50410306 0.77417535 -0.23347335 -0.16384134 0.67997336 -0.27142194 0.31602105 0.3124713 0.92683965 -1.1962467 -0.5057084 -0.60419834 0.813001
130 0.67168 0.12874791 -1.3709476 -0.34578848 0.22991417 -0.35494864 -0.0051239817 -0.64354724 -0.78926325 -0.2903634 0.40011355 1.2177254 -0.33279318 -0.5545024 -0.17914899 0.57127565 0.3759787 0.92510843 -0.6048032 0.07863495 0.30536202 0.21847194 0.8111217 -0.14160752 -0.58130926 -0.531925 -0.2935928 1.4883952 -1.226925 0.5030201 0.061831973 0.12813476
532 -0.32541993 0.6674802 -0.5583634 -0.006913931 0.38933444 -0.27969173 0.48136675 0.5975106 -1.3100384 -0.68066317 1.031627 0.304077 -0.87740153 -0.9170454 0.872868 -1.1309491 -0.6323803 -0.02465454 1.7268628 0.6295629 0.102196194 0.39183357 0.3193683 -1.0602529 -0.6086715 0.40500653 0.0103447465 -0.030280298 0.15678799 0.13322565 0.96976846 0.5647472
227 -0.7241019 -0.31695965 0.2601374 0.7594697 -0.6618006 -1.3183045 0.002650337 0.18266757 -0.7873329 -0.5429325 0.36779913 1.5379714 -0.41923764 -0.88932246 0.052582204 -0.0805389 1.1415669 0.63695383 -1.7076129 -0.6471964 0.25270176 0.7575752 -0.8537689 -0.8199205 -0.1886149 -0.6538469 0.049483266 -0.027303403 -0.41080827 -0.5327602 0.061498318 1.2691331
160 -0.16990964 0.119634956 -0.111955486 -0.16941783 0.20238969 -0.19292374 0.09110391 0.04299254 -0.08690362 -0.016186435 0.13286652 0.06282443 -0.21568413 -0.15866622 -0.15847303 -0.20639783 0.10401542 0.4909248 0.16529837 0.008657449 0.18400966 0.16429462 0.0019286341 -0.06785602 -0.2588449 0.22361073 -0.13226289 -0.11656336 -0.6189405 0.16446675 0.04953172 0.21530417
319 -1.0508672 -0.81112814 0.29330367 0.66471964 0.68476206 -0.036457982 0.98872614 -0.41418174 0.68938565 0.71721417 0.7004265 -0.024067974 -0.270226 -2.1508133 0.33970368 -0.710095 0.38373902 0.76558954 -0.32187113 -0.46180412 0.16622809 -0.56256497 0.041692737 -0.60220444 -0.35609862 1.3211709 0.27213508 -2.1868653 -1.2179775 0.38417068 0.55697995 0.86451906
365 -0.39687273 -0.61284554 -0.56062406 -0.044408366 0.4843299 -0.6188267 -0.08975532 0.05536401 -0.12271988 -0.22481747 0.14450787 -0.0086893 -0.45573702 -0.43594503 -0.070810646 0.078390904 0.97943753 0.26544023 0.66327685 -0.54984874 0.014253649 0.4551915 0.27049887 0.60766554 0.4750395 0.22114584 0.42440563 -0.12895824 -0.17656508 -0.11034468 0.10793871 0.507015
62 -0.0236297 0.08697739 -0.30291584 0.029586306 0.38342032 -0.43909177 -0.062383987 -0.023916224 -0.008000503 -0.08135094 0.089276515 -0.15319964 -0.21500708 -0.03070945 0.12889312 -0.19265509 0.14379705 0.09346701 0.04417958 -0.08337758 -0.05038982 -0.0510396 -0.32846263 0.0690399 -0.4663177 0.09674202 -0.04715615 -0.33461034 -0.20982744 0.22622432 0.042532153 0.46609244
86 -0.17633283 -0.10267455 -0.2028474 0.39883533 0.49660534 -0.45640594 -0.19349906 -0.2300981 -0.2417387 -0.026398819 0.21203221 -0.060224507 -0.08992223 -0.08232748 0.45010883 0.2054154 0.16249485 -0.0022391714 0.24619028 0.12381255 -0.2741755 0.2725635 -0.10322387 -0.40313855 -0.3779771 -0.042804323 -0.1295553 -0.0043211007 -0.24745151 -0.06330104 -0.27917898 0.32522723
402 0.32058537 -0.18266273 -0.23329811 -0.023029186 1.900254 -1.2317898 -0.00036462196 -0.21285886 -0.494329 -0.2778398 1.3137211 -1.1876365 -1.9043267 -0.40141478 0.049125783 -0.83467716 -0.41661644 -0.19657819 1.5412954 0.58740336 1.6731796 -0.4100535 0.90815496 0.93850654 -0.6594411 -0.34353614 -0.5327401 0.1982161 -1.5600322 0.47528026 -0.62888676 -0.36839136
107 -0.11599468 0.3538834 -0.2527993 -0.19276467 0.35001925 -0.35783008 -0.05987839 0.032963376 0.011537053 0.014816342 0.04352741 -0.059430417 -0.13523822 -0.3655936 0.032001436 -0.25085768 0.28825384 0.17377414 0.080099896 -0.14236958 0.15881573 -0.21023957 -0.30244422 -0.24844718 -0.4376111 0.09507009 -0.14713688 -0.25715822 -0.18654197 0.22244826 0.16404983 0.48928595
121 -0.028345441 -0.19104792 -0.19489129 0.052725717 -0.040086746 -0.13074604 -0.07960702 -0.04353061 -0.2805135 -0.123446524 -0.05103904 0.23513614 -0.14095475 -0.33584023 0.21841303 -0.21529321 -0.008796833 0.30830532 0.11137254 -0.27307332 0.008351025 -0.23430212 -0.04947753 0.1479936 -0.63566786 0.030971782 0.09939088 -0.045590617 -0.11413365 0.060298286 -0.16046093 0.3609362
683 1.15196 0.5637372 0.13725428 0.055094924 -0.866135 -0.8213719 -0.63322824 1.0036107 -0.030910993 0.22318035 0.5741445 0.2662796 0.32359287 -1.3388188 1.2960942 -0.98053527 -0.95395184 -0.09412682 1.2925203 -1.4075122 0.15761037 0.09970531 1.1941392 -0.037621025 -1.4082743 2.326721 -1.5288585 0.32049444 -1.4834105 0.49947616 0.46493113 0.99482864
183 0.022712074 -0.12536879 -0.27235213 -0.223137 0.116204746 -0.26384804 0.28560352 -0.10826328 0.19547673 -0.22984312 0.1247661 0.06267391 -0.10924218 -0.5026938 0.49455965 -0.00088371226 0.33570847 0.2222168 0.21742961 -0.04166179 0.117134884 -0.18661363 -0.36377233 0.20927562 -0.17412077 0.26432592 -0.3800638 0.07444953 -0.23516624 -0.10795231 0.06273171 0.12509051
434 0.004559866 -0.24428438 -0.30260664 0.113737926 0.07724358 -0.21933272 -0.04124223 0.021430027 -0.22817245 0.0052421596 -0.051253047 0.11012325 -0.12338336 -0.34872133 0.2066522 -0.31062797 0.096253596 0.117435426 0.19336857 -0.28535518 0.0034457531 -0.027041012 -0.30115128 0.21294178 -0.2853329 0.0061786976 -0.0802591 0.07487923 -0.2367182 0.18751621 0.31718323 0.14696768
129 -0.007162187 -0.30678636 -0.28377238 -0.2642944 0.20587192 -0.5266907 0.31646648 -0.23329507 -0.21856473 -0.47280103 0.20583181 0.17360859 -0.034562238 -0.44393283 0.4653584 -0.020989738 0.28563148 0.0241149 -0.049494993 0.084156424 -0.28990626 -0.07884721 -0.28478682 0.0890806 -0.0765897 0.26438132 -0.059827805 0.3862251 -0.22000146 0.2362014 0.09129215 -0.06385803
628 0.03227586 -0.69564193 0.03220942 -0.8822984 0.5494948 -0.5149693 0.1731789 0.7371075 -3.023119 0.7825029 1.5161405 0.42207548 -1.799491 -1.116505 0.95992196 -0.56417453 -0.8315164 1.0648133 0.5059679 -0.46254116 -0.19893298 0.57081646 0.8297673 0.76372206 0.75041854 0.71578985 -1.1156958 0.69443274 -0.78161544 -0.43581137 -1.0668573 0.684978
64 -0.12437309 -0.05107076 -0.635479 -0.011715927 -0.20373055 -0.19729418 -0.20422804 -0.33001935 -0.0560657 0.48011395 0.5210851 0.12135802 -0.06050737 -0.28158066 0.14306298 -0.16212308 0.22059427 -0.2059209 0.25473607 -0.33348975 0.12710205 0.00737483 -0.22228014 0.14703427 -0.264738 0.21220455 -0.6790275 -0.20199217 -0.21544693 -0.1521796 -0.23487161 -0.04249645
5 -0.27139693 0.14063376 -0.40452835 0.3188133 0.2069339 -0.43585864 -0.20207918 0.062948756 0.31492737 0.14165814 0.46703827 0.41218236 -0.3053986 -0.51206475 0.24953333 -0.2492579 -0.38923007 -0.4314998 0.11845393 -0.3065824 0.13277195 -0.036039546 0.07869125 0.033908434 0.12018809 0.37351456 -0.15221949 -0.32611114 -0.3442481 0.1817513 -0.35299248 0.0006608748
128 -0.3136915 0.009781489 -0.26037532 -0.075314045 0.20029773 -0.4264437 0.09309628 -0.11951401 -0.11728239 0.029110163 0.08215023 -0.00042166145 -0.19259314 -0.5733255 -0.1122014 0.2897272 -0.15535149 0.11354177 0.012729683 -0.60307294 0.06057746 0.058094997 -0.33997035 0.34312022 -0.32502222 0.11345454 -0.25789267 0.36827508 -0.10879225 -0.19674222 0.08150499 -0.097686045
106 0.038278297 -0.28351292 0.026412163 -0.14508107 0.093081355 -0.88510144 -0.26948357 0.020664582 0.0807518 0.1964488 -0.092239976 0.23337337 -0.15751068 -0.40568697 0.352306 -0.60274124 -0.24326058 0.420516 0.088245764 -0.24018781 0.12189828 0.02223084 -0.14459983 0.059197064 0.021588452 0.024588516 0.0184616 0.35652614 0.011425855 -0.12604639 0.061882332 0.4553543
166 -0.050076555 -0.36985704 -0.15290987 -0.18413866 0.14750162 -0.14779261 -0.28102356 0.1342145 -0.3211772 -0.022714099 0.17122388 -0.036777373 0.115564495 -0.28127748 -0.041188076 -0.32004216 -0.02685762 0.23907353 0.05930382 -0.162581 0.31614798 0.21841499 -0.32191432 -0.43557167 -0.3881666 0.3697571 -0.17870207 0.011450268 -0.18493654 0.004849444 -0.06250492 0.25191647
21 -0.20130402 -0.07871533 0.14831668 -0.37103504 0.2429975 -0.4173463 -0.24921802 -0.38856906 0.19774966 0.028775414 0.1581357 0.6126433 -0.01769453 -0.4018475 -0.007945152 -0.33751097 -0.23387355 0.16094288 0.13312048 0.0650475 0.1599234 0.22109872 -0.25644252 0.2879014 -0.30624828 0.22430247 0.12809764 0.3020933 -0.21144234 -0.10476559 -0.12629777 0.60151815
82 -0.0024983012 0.15973352 -0.106016286 0.083431765 0.19321096 -0.3828966 -0.18861355 -0.07558601 -0.15946887 -0.17779332 0.086798795 0.107724994 -0.14941303 -0.4480588 0.10145022 -0.122460246 0.14900157 0.30552405 -0.1344324 -0.18020132 -0.073399365 -0.24447073 -0.17115854 -0.08001058 -0.45786506 0.0017190896 -0.10859723 -0.004267477 -0.16327125 0.10219054 -0.2585981 0.32623437
301 -0.062687784 -0.08203481 -0.2625181 0.006923585 0.31515205 -0.1863522 0.14746815 -0.23235802 -0.08234001 -0.55485386 0.15711427 -0.026057296 -0.09068724 -0.08132042 0.001039899 -0.415815 -0.28149277 0.11085577 -0.34668556 0.02953172 0.7361374 0.029815225 -0.1234278 0.2764083 -0.45929533 -0.11284388 -0.19287337 -0.45871392 -0.3425807 -0.40143815 -0.0998199 0.3015384
105 -0.1288279 -0.06910363 0.037444927 0.08422736 0.11396112 -0.16848406 -0.32330963 -0.12252449 -0.13181598 0.072958 -0.04614613 0.11646812 -0.14288315 -0.55824584 0.2982456 -0.20096633 0.16741152 0.4305841 0.09356104 -0.2798775 0.014946691 -0.12198454 -0.23160395 0.3118636 -0.38692772 0.27611363 0.11351154 -0.02261867 -0.07640036 0.122643605 -0.069842495 0.18115859
849 0.51591 1.662209 -0.4696385 1.2044163 0.38975266 0.9130945 -0.6173173 -1.4873669 -1.2563019 0.28494078 1.199403 -0.35949942 -1.4929582 -2.8487654 0.5914367 0.31373373 -0.38162774 2.589777 0.14579943 -1.2392168 0.5824563 -0.7466161 -0.11767822 -1.0207654 0.57512516 0.5768892 -0.60646963 -1.0638026 -1.2646221 -1.112942 1.5193671 0.66559845
211 0.27666235 -0.05486295 -0.14810783 -0.11183937 0.0287399 -0.21135686 -0.11514205 -0.13110341 0.10474871 -0.27992773 0.22909676 -0.15542628 -0.43715993 -0.51218575 0.5913911 -0.14542821 -0.17223912 -0.057438377 0.43779725 -0.12272875 0.41756302 0.110785104 0.19921482 0.1645313 -0.18885635 0.5681296 0.11851106 0.036909025 -0.09143001 0.21217002 0.105550185 0.24368697
383 -0.05331645 0.3276659 -1.2724413 -1.6784167 -0.52958715 -2.2065253 0.60047895 0.36338392 -2.4117403 0.013372701 0.9619197 0.7228196 -1.9832163 -0.7829038 -0.5256845 0.094308354 -0.30626103 0.23019554 -0.47908065 0.24800885 1.3089144 -0.11967035 0.84293693 -0.95508915 -1.5665439 0.8072766 -1.0567609 -0.1743027 -0.34100434 -0.41360706 -0.99403566 0.61647314
333 -0.2333291 0.07974042 -0.030902842 0.07949433 0.16256969 -0.17245181 -0.6610294 0.16149984 -0.0044735884 -0.18697605 -0.058278766 0.24935053 -0.122911066 0.21234782 0.56477857 0.10196437 -0.03874199 0.32670826 0.045229778 -0.59746075 0.15387869 -0.14810555 -0.40371314 -0.41960627 -0.16572677 0.1630378 -0.36666185 -0.057396222 -0.686608 0.59730613 0.15504633 0.22493793
256 -0.1471808 -0.096758485 -0.19890863 -0.16046444 0.12251775 -0.28910866 -0.04033719 -0.14862204 -0.036160916 -0.28229606 0.1742067 0.13251077 -0.11458921 -0.49535403 0.132483 -0.2844362 0.2086668 0.22520107 0.2652268 -0.417577 -0.017868219 -0.15156913 -0.033499952 0.33486986 -0.29751208 0.048130587 -0.07046617 0.15687159 0.040793307 0.5479767 -0.060709096 0.27197686
283 -0.07890311 -0.0611229 -0.052330814 -0.12942125 -0.005781558 -0.3520344 -0.07152974 -0.23561214 -0.63642055 0.14816599 0.12565437 -0.047752902 -0.27417263 -0.22598468 -0.09938043 -0.13702255 -0.17101821 0.28131554 0.04128054 -0.4043276 0.071259856 -0.19383688 0.014986288 -0.16891997 -0.23761326 0.38974598 -0.2116662 0.09318712 -0.015093431 0.28801244 0.02929094 0.41546002
377 -0.30206516 -0.19042939 0.103867725 0.026263582 0.09771779 -0.7849273 0.050260462 -0.36676976 -0.72919947 -0.12780598 0.594492 -0.20293128 -0.6535566 -0.36819896 -0.23913293 0.17821643 -0.116245694 0.14454743 -0.44325373 0.18229583 0.21352486 0.2199132 0.25413877 0.05178048 -0.26350546 -0.31732583 -0.35356116 0.16371442 -0.3494223 0.09845211 -0.12319309 -0.015984006
44 0.1431618 -0.10188753 -0.35491598 -0.0055942126 0.54823685 -0.6189057 0.09053151 0.019757273 -0.47128192 -0.07656205 -0.7235749 0.087895915 0.18221754 -0.34698987 0.22975065 0.13804214 0.3585057 0.4540675 0.30070668 -0.47229865 0.24762487 0.33677843 -0.029452272 0.067656085 -0.1584793 0.5874333 0.12248516 -0.16893354 -0.15031464 -0.3519046 -0.12532969 0.30863798
420 -0.18308812 0.18790159 -0.20839673 0.19616331 0.23436846 -0.421761 -0.27866873 0.059693925 0.05649765 -0.40712944 0.13874048 0.01871202 -0.08307904 -0.48038635 0.016121622 -0.19133113 0.09878851 0.034164906 0.09441586 0.04154464 0.43172508 -0.19219624 0.14459877 0.5934565 -0.49338168 0.18068616 -0.24704298 -0.15260231 -0.1063354 -0.015828794 -0.35887003 0.20772684
87 -0.098147176 -0.37557358 -0.036196183 0.14804532 0.09046672 -0.09984899 -0.49617544 -0.008791848 -0.17476417 -0.18507127 0.18614446 0.13194858 -0.11438163 -0.58592707 0.5588695 0.023107603 0.16883563 0.26710996 -0.041666936 -0.23948047 0.048068114 -0.045156177 -0.18459801 -0.010394845 -0.390955 0.16967699 0.20671616 0.18967997 0.07866744 0.014955952 0.3443078 0.18521091
114 -0.124760106 -0.13005371 -0.21235684 -0.16403633 -0.08610818 -0.27904692 -0.19513711 -0.14556144 -0.046699937 -0.53362405 0.24926251 0.36500132 -0.118183695 0.011716372 0.27943894 0.029923793 -0.09216569 0.21222202 0.33936778 -0.6352552 -0.019256243 -0.28240448 -0.5402188 0.023179565 -0.06466868 0.015624119 -0.15714785 -0.060264893 -0.4382986 0.12987638 0.16598177 0.3401714
249 -0.06108817 -0.1514176 -0.15528569 0.09110883 0.34664163 -0.34601098 -0.24885494 -0.098209254 -0.20833364 0.0016221692 -0.06689023 0.0015755343 -0.046875194 -0.47227877 0.3329442 -0.07774792 0.109119266 0.22852598 0.14967135 -0.29992503 0.22478598 -0.09648764 -0.04795055 0.21261303 -0.129348 0.20733804 0.068212435 -0.003810474 0.04622896 0.21445343 0.1441983 0.2746734
280 -0.07340863 -0.0626637 -0.36984986 -0.23963095 0.06650914 -0.5809331 -0.021516891 -0.30814895 -0.40289837 -0.35035437 0.45926115 -0.3177572 0.09669436 -0.22998685 0.11615412 -0.0041167457 0.11618678 0.1445658 -0.13450502 -0.3257058 -0.025864974 -0.04947746 -0.1210886 0.16851315 -0.06560053 0.011437467 -0.31753647 0.43359268 -0.41999882 0.051404215 -0.14534824 -0.114941806
96 -0.27428547 0.38732862 0.19266805 -0.042168945 -0.18869129 0.0066840476 -0.27899656 -0.610113 0.33377922 -0.22386438 0.28421435 0.32301363 -0.4482869 -0.049216006 0.665514 -0.07815243 0.022030927 -0.062675044 0.4924888 -0.20594586 0.26404944 0.2058344 -0.3678365 -0.09502895 -0.35486454 0.09369978 -0.06955185 -0.24212794 -0.7678186 0.028557831 0.04993734 0.25049904
451 -0.30622244 -0.62950903 -0.5907652 0.035166137 0.47345564 -0.5752719 -0.12931831 0.11761007 -0.17581128 -0.19599763 0.0407006 -0.008123271 -0.4406834 -0.42966008 -0.036821574 0.13124491 0.9448571 0.3179334 0.6411673 -0.4354362 0.07620521 0.50122505 0.267165 0.5467873 0.41654435 0.29369816 0.3731437 -0.16261283 -0.2079644 -0.19145724 0.013776248 0.4569559
28 -0.49701163 -0.12274736 -0.4665216 0.13697447 0.21001567 -0.22660846 0.12123055 -0.541001 0.0107971765 -0.43111295 -0.17893635 0.16714871 -0.27794924 -0.20507586 0.03633999 0.1046956 0.0061029117 0.17588201 0.40477103 -0.13450985 0.13686419 -0.22292905 -0.81299347 0.13871874 -0.15504274 0.030814238 0.07215467 0.2340663 -0.34761277 -0.09495742 0.1465883 0.17396183
479 -1.6255311 -1.9596263 -1.3831267 0.49392563 -1.4415936 -0.94071794 0.6698221 -1.2116584 -3.255099 -0.71389806 1.6565256 1.1159103 -0.5048461 -0.1250684 1.8260883 -0.065802805 -0.585694 -0.5989397 0.50014496 0.7000354 0.505501 -0.8645315 0.9304775 1.5091301 0.6062584 -0.45212713 0.46185082 0.13042666 -2.788927 1.8584932 0.41106758 1.5809149
820 -0.2884687 0.027770517 -0.18885882 0.1931644 0.49624178 -0.34027082 0.07425635 0.26046345 -0.15847549 0.14988282 0.35585713 0.05989193 0.006049675 -0.49405092 0.101872206 0.016052073 -0.044567697 0.15342101 -0.052083023 -0.6530435 0.010858924 -0.014594204 -0.29154813 0.09198042 -0.403173 0.0022013597 -0.28228423 0.30208266 -0.28624398 -0.10178893 0.15197238 -0.50585055
165 -0.6703005 0.04106309 -0.3369864 0.20413376 0.043113455 -0.2875621 -0.09265553 -0.31667525 0.15158288 -0.46160138 -0.05669182 0.05216723 -0.15054335 -0.019517697 0.13812566 -0.09669008 0.0748147 0.2267697 0.4421956 -0.54863566 0.090703644 -0.22300267 -0.2684713 0.07728493 -0.38056934 -0.06256506 -0.05827565 0.3842144 -0.5769553 0.12524962 -0.18796398 -0.023119852
282 -0.08475597 -0.14149307 -0.34627452 -0.03549736 0.12904932 -0.28109637 -0.08173028 -0.14038996 -0.09935004 0.022769315 0.0527994 -0.023428716 -0.0145456605 -0.22826403 0.23596442 -0.3524905 -0.039792668 0.17222266 0.01738218 -0.13259155 0.30049786 -0.05043725 -0.22024663 -0.30428797 -0.66098726 -0.11481654 0.041787922 -0.009230873 0.07490216 0.059505265 0.018370127 0.5610035
63 0.29402867 0.27155104 -0.223295 0.23515484 0.12968257 0.24792048 0.20937683 -0.13561252 -0.14411733 -0.37602705 0.42660034 0.11982085 -0.41756663 -0.60983515 0.23560597 -0.23164193 -0.14938751 0.060914017 0.21891168 -0.37834272 0.3085394 0.08593765 -0.19166082 0.031150237 -0.14428282 0.58065367 0.12163204 0.072001465 0.04115033 -0.021723755 0.22529015 0.47276738
212 -0.16862166 -0.07426627 -0.10465974 -0.07202612 0.19676918 -0.19480376 -0.32604957 0.15611337 -0.13387035 0.11194316 -0.17896876 0.055533387 -0.2407279 -0.35692716 0.37829208 -0.38443342 0.25187635 0.3066224 0.09914489 -0.1919239 0.18133843 -0.01065544 -0.35690787 0.07875157 -0.36731574 0.2524796 0.098196164 0.31275198 -0.039920125 0.33878085 -0.101210885 0.22626318
81 0.11335973 -0.008976304 -0.26710868 0.121735014 0.32233632 -0.32731065 0.049031492 -0.06302124 0.2812216 -0.060169 -0.0663395 -0.013062007 -0.34532985 -0.4155991 0.32357123 -0.2287681 0.026630253 0.665417 0.06463206 0.18530941 -0.06730498 0.014168925 -0.4742349 0.4360695 -0.102892414 0.2093263 -0.12119646 0.25409564 -0.051620033 -0.04548804 0.16176413 0.6446172
141 -0.108960025 -0.2650956 -0.502087 0.16316399 0.5806711 -0.44460744 -0.14731191 0.17090073 -0.21749836 0.034125417 -0.17723936 -0.043930717 -0.018457985 -0.30804363 0.02040583 0.34097257 0.6211978 0.3601925 0.47150373 -0.3474225 0.09276673 0.5404953 0.018435927 0.19127753 -0.09142644 0.7548172 0.033596113 -0.2879408 -0.35503855 -0.4142221 -0.4241612 0.28689402
58 0.31214982 0.061110172 -0.12669462 0.5105881 0.013902121 0.30267575 -0.014702309 0.101485014 -0.2245446 -0.10106485 0.23486349 0.028220417 -0.29547974 -0.4101471 0.48244005 -0.400337 -0.037583616 0.021653969 0.0459732 -0.2892824 0.5521412 0.18085583 -0.23838985 -0.3444945 -0.3395512 0.42444432 0.046939 0.036290463 -0.23370312 0.20689945 0.0781858 0.33507454
115 -0.57804644 0.059153307 -0.18931758 0.2874688 0.10417 -0.008762894 -0.43020728 -0.42861632 0.014377085 -0.19795148 0.123725675 -0.026624577 0.05248204 -0.1198922 0.27109417 -0.4225316 0.08715627 0.2730062 0.4271071 -0.5832615 0.033097632 -0.13543609 -0.20715575 0.034861136 -0.20140377 0.118629105 -0.07414211 0.23115842 -0.4137985 0.26432788 -0.09071457 0.054375924
6 0.1007401 0.21971393 -0.7532992 0.18845546 0.04894182 0.15438594 0.11944234 -0.078902714 -0.13476132 0.050299775 0.4769303 0.24958767 -0.25090206 -0.35472202 0.09115731 -0.4204035 -0.1374227 -0.20949833 0.014962976 0.088857844 0.26870924 0.11887862 -0.28698218 0.11064117 0.13242468 0.88354486 -0.5426382 0.15774755 -0.22633104 0.12065378 -0.26845568 0.13489261
169 -0.44056606 0.20488992 -0.26526424 -0.022168819 -0.1803993 -0.3845262 -0.057819504 -0.50568086 0.1377944 -0.3021494 0.11084454 0.07867053 -0.19350068 -0.15421838 0.21894468 -0.11906008 -0.020766335 0.14952981 0.42776433 -0.45313835 0.031144738 -0.039893467 -0.35497558 0.25048876 -0.13773343 0.2104107 0.1350167 0.20315817 -0.3230513 0.20440125 0.02808376 0.114099436
639 -1.4319559 0.565486 -1.1785178 -0.28034645 -1.0993291 0.054814745 0.8450315 -0.52371657 -2.2464101 -0.58245385 1.5012255 1.0281029 2.0913548 -3.2403762 1.3396074 0.20956837 -0.34124383 -0.55287933 -0.85551274 -1.867904 0.77975935 0.18872347 -0.055241045 -0.6921444 -2.115238 0.3252522 0.7241394 -2.869241 -0.57396764 0.7528487 0.46789515 1.0953927
340 -0.28075248 0.18647146 -0.25114164 -0.053518422 0.26855144 -0.5119074 -0.17009062 -0.060229383 -0.3566294 -0.19143823 0.15619694 0.20425366 -0.4172706 0.40755755 0.63067645 -0.11267218 0.073078975 -0.17378634 0.068226136 -0.44183782 0.16205838 0.315758 -0.5425218 0.35314763 -0.5078355 -0.23668319 0.103886954 0.4591258 0.18898667 0.007269333 -0.28834653 0.11114989
142 0.049027972 -0.11608047 -0.12849803 0.007322332 0.13778879 -0.41653636 -0.11052764 -0.038582608 -0.040176544 0.026399063 0.14027394 0.06335816 -0.11001292 -0.0076832133 0.19461684 -0.32210988 0.13715385 0.413157 -0.04447635 -0.13275534 0.25243577 -0.04710001 -0.3431705 -0.16935611 -0.72714895 0.10753587 -0.026075637 -0.08426997 -0.021030026 0.060747795 -0.029522292 0.24347904
968 -0.26421154 -0.63396734 -2.9859796 0.5965432 0.9342533 -0.4675912 -0.85820365 -0.31497148 -1.6350002 -1.364306 0.17047118 1.3342472 -0.6070888 -0.5149663 2.4238527 -1.8807399 -0.53561026 1.6633533 0.64137787 1.2794781 -0.23341341 -0.10650909 -0.6081639 0.33748567 1.5539306 -0.17965978 -0.7633545 -0.7195241 -0.76009697 -1.1173573 -0.3170598 2.4418912
424 -0.01919059 0.034927204 -0.0701466 -0.11875731 0.045029845 -0.49975872 -0.005317984 -0.3987909 -0.070255674 -0.1817332 0.14551346 -0.021900332 -0.10034754 -0.14949124 0.17582831 -0.52507275 0.06746832 0.16082649 0.14736816 -0.35590744 0.04681081 -0.26299363 -0.02675205 -0.04590312 -0.7158282 0.10238033 -0.26100716 -0.18448968 0.12647952 -0.00084145024 0.09519273 0.3117368
170 -0.52247244 0.051568367 -0.20352016 0.44126266 -0.09181944 -0.45770007 -0.05076665 -0.8044703 0.37743464 -0.2454715 -0.12876229 0.0021872346 -0.17607598 0.05364212 0.2600246 -0.3604425 0.26363343 0.106330775 0.16752611 -0.5585996 0.03960022 0.018078694 -0.18738356 0.15551904 -0.13461314 0.016972287 0.08752682 0.17456844 -0.4869587 0.30570316 0.21375498 0.17094196
757 -1.1646317 -1.4652615 -2.192937 0.3075908 0.8009807 -0.04083348 -2.161241 -2.573069 0.79243076 -0.95600706 0.13411006 0.366152 -0.73255914 -1.6748673 -0.6583681 1.2658592 -2.6195688 1.6118441 -0.7322605 -2.7036612 1.2034594 -1.5744135 -1.305873 0.93926436 -1.4785118 1.769089 -0.20689803 -1.5923338 -1.2241874 2.6985428 -2.4650688 2.1755562
438 -0.8265633 0.08905662 -0.48714158 0.36385503 -0.14944012 -0.22394945 0.17347692 -0.64591277 0.07444528 -0.56464136 0.01852914 0.43009043 -0.24374409 0.1976947 0.44742626 0.019775558 0.10080778 -0.0033682825 0.45008907 -0.2923704 0.20481221 0.078313224 -0.44222724 -0.07894011 -0.06412824 0.13536572 -0.06351206 0.01398647 -0.3700258 0.15314105 -0.24640767 0.07647811
646 -0.2721039 1.8864182 -1.7505932 0.30863014 -1.0290774 -1.6882594 -0.19637233 -0.13748649 -1.3672689 -0.5121707 -0.2008286 -0.8992305 -1.2551485 -1.3735452 2.9195082 -0.11338681 -1.5506783 -0.5355043 0.20570147 -0.77727675 1.9517622 -0.5762171 0.05164479 -0.12181391 -0.2547025 2.1888604 1.1710836 -0.07980542 -0.7056743 1.7999791 1.9446976 1.0298134
329 0.20029406 -0.057962943 -0.31920856 -0.6447069 0.05617257 -0.27825975 0.049929045 -0.34329844 0.23587804 0.08965139 0.14157186 -0.077459745 -0.44216895 -0.25564024 0.54696965 0.08976684 -0.20038949 0.46256942 0.4272101 -0.19438769 -0.054949995 -0.12860024 -0.32387754 0.41903684 -0.22211729 0.0369021 -0.04545342 0.16177596 -0.23045585 0.013086105 0.33812776 0.6254917
494 -0.31394786 -0.32188097 -0.53700167 0.19180873 -0.053339165 -0.45242485 -0.037424106 -0.31303936 0.021254888 -0.068536736 -0.09161553 -0.4279237 -0.25283852 -0.13348159 0.12675971 -0.031066025 0.09701145 -0.017400933 0.0684029 0.05916156 -0.14480516 -0.035252232 -0.25499552 -0.39677435 -0.6813583 0.1777022 -0.08319638 -0.054090533 -0.29977378 -0.05484088 -0.43768466 0.3361665
405 -0.060700405 0.123792775 -0.50629675 -0.36484143 -0.329902 -0.3015938 0.044123426 -0.17473304 -0.17619316 -0.10535454 0.10260051 0.5095451 -0.13979715 -0.26001233 0.16839635 -0.3361267 0.21895133 0.4151613 -0.0037776276 -0.63729876 -0.028522989 0.19021 -0.40970072 0.14996603 -0.17577273 0.15991169 0.118565544 -0.14651741 0.28390795 0.011855074 0.02650772 0.45331126
533 -0.0092443125 -0.36897144 -0.24078895 0.56959593 0.28946584 -0.3436707 -0.24873231 -0.092043996 -0.08687363 -0.22558816 0.00911087 0.15240663 0.11995126 -0.09476614 0.038327675 -0.090926506 -0.031027284 0.1954072 0.25517955 0.080649115 -0.0331917 0.29332304 0.033292387 0.28356868 -0.39907223 0.37872303 -0.20508352 0.016776918 -0.31552652 0.034064796 0.5740257 0.1644502
113 -0.5109082 -0.058538325 -0.086949624 -0.35109073 0.046814702 -0.30703273 -0.07713574 -0.17588991 -0.055644352 -0.5375573 0.22789817 0.09045647 -0.07534644 0.31190816 0.4441794 0.20813945 -0.20775557 0.12711547 0.25952014 -0.5619793 0.01733193 -0.4182915 -0.48073992 -0.04827782 -0.10166873 0.11201985 -0.21384422 -0.04510297 -1.0557934 0.046496183 0.061670106 0.21629016
630 0.06287128 1.1456723 1.388494 1.3336464 0.46876818 -1.7817532 0.65683794 -1.7628325 -0.19437304 -1.1595978 2.2121332 0.010730414 -3.1987684 -0.42561826 4.3328347 -0.48898694 0.8612329 0.26954848 -0.6252038 -1.0105101 -0.6693482 1.3621975 -0.8148557 0.4985175 -0.22566344 1.2842534 1.0136021 0.382136 -0.48359454 0.056190655 2.0837247 0.1036579
74 -0.67692 -0.34348038 -0.01989729 0.1293683 0.05793471 -0.6458594 -0.08329364 0.10677489 -0.09235548 0.23877782 0.59318864 0.10735928 0.123270236 0.1381506 0.40714374 -0.12972678 0.008035864 0.32691604 -0.0814929 0.033273738 0.5662829 0.40706688 -0.121110864 -0.2765222 -0.16205046 -0.21774328 -0.17815408 0.15591447 0.03683258 -0.19143455 -0.2922298 0.6984745
83 -0.14606665 -0.23517583 -0.116449386 -0.17486991 0.062071413 -0.10797889 -0.533058 -0.0025915995 -0.37369266 0.0030688704 0.023204314 -0.1777095 -0.14225946 -0.38576427 0.18383014 -0.11909493 -0.013523398 0.123224825 -0.056596693 -0.16934772 0.029630676 0.037604775 -0.11680232 -0.2585888 -0.67659235 0.33738744 0.21624796 0.1691903 -0.2054788 0.13472676 -0.13836673 0.3044575
137 0.47431362 0.090666525 -0.13558546 0.182759 0.21503595 0.20601945 0.08076302 -0.17186406 0.068887435 -0.48475 0.44922388 0.09271249 -0.6255875 -0.45818767 -0.0033573855 -0.41436684 -0.03013195 -0.09247703 0.27253383 0.0119450465 0.24588719 0.31368634 -0.26808694 0.17865667 -0.24934795 0.41089725 -0.026648868 0.17829783 -0.20464109 -0.0802473 0.38581392 0.88619673
366 -0.17500527 -0.060208105 -0.36620632 0.22771455 0.1121017 -0.07753587 -0.17320594 0.10762055 -0.39600152 0.1563344 0.08577182 -0.18016295 0.14248389 -0.011196233 0.160991 -0.05191592 -0.09227266 0.24571083 0.21476965 -0.24759805 0.28793448 -0.004351782 -0.2746807 -0.15873802 -0.6541665 -0.030868098 -0.054341074 -0.13193934 -0.0007218656 0.17838235 -0.26116997 0.91673064
4 0.43466288 0.34334207 -0.3612237 0.2676342 0.0043268944 0.31656164 0.40314564 0.050155472 -0.15597618 -0.2089789 0.463905 0.37263206 -0.39845395 -0.25958592 0.310852 -0.44854572 -0.11987228 0.15069228 0.2568102 -0.32395285 0.39418218 0.18162814 0.017153755 -0.12123329 -0.23556353 0.5198349 0.34421408 0.051731195 -0.27469167 0.3159653 0.110224 0.6002634
215 -0.5204461 -0.07192964 0.04852269 0.2706161 -0.14645402 -0.7015744 0.1983027 0.3790842 -0.23077789 0.53378665 0.2932147 0.037080966 -0.042210545 -0.463166 0.3848041 0.10557149 -0.09374099 0.061559934 -0.2471783 0.0064530587 0.6384559 -0.092773296 -0.23998375 0.14204988 0.005941024 -0.1137168 -0.30358383 0.25728878 -0.15644665 -0.25487834 0.2824371 0.6503428
232 -0.21861413 -0.5198325 -0.25108543 -0.14342003 0.31302726 -0.59391373 0.20763272 -0.17702474 -0.5004318 -0.12081388 0.57679653 -0.076607116 0.30203113 0.04536676 0.02472995 0.32560384 -0.24297969 0.30009627 -0.15488951 -0.23243873 -0.1331242 0.555846 0.09336415 0.1437988 -0.07703348 0.659127 -0.31822345 -0.15514538 -0.5482429 0.19931409 -0.45899734 -0.30040172
473 -0.08997944 -0.061834987 -0.32620752 0.22110143 0.29178295 -0.3809378 -0.16906679 -0.0787731 -0.09205556 -0.30060375 -0.19741975 0.21254689 0.09341583 -0.051635303 0.24151097 -0.25175327 -0.33365127 0.4037366 0.077898145 0.02042511 0.06163345 -0.053669572 -0.5515308 0.47016373 -0.09564964 0.5478746 -0.3378998 0.20038117 -0.099145606 -0.19803865 0.16321282 0.27479228
637 -1.4980465 -0.20868745 -1.7140274 0.39390096 -1.6775588 0.20840578 -0.6394908 -2.2847505 -0.99245256 -0.46540532 1.8480506 -0.8948619 -0.21981363 -2.5324423 2.4081655 -2.507516 0.6439022 1.5902525 -1.4554443 1.0127227 0.76117253 -0.23949468 -0.32743847 0.06739198 -1.0591472 1.8365047 1.9002124 -2.2521124 -0.5124563 0.98794156 -0.71680313 0.8531779
11 0.112584144 -0.46592122 -0.2197763 -0.37245607 0.5953813 -0.47157207 -0.06971159 -0.1808851 -0.13469301 -0.012986207 -0.15426925 0.20131585 0.013129275 -0.62700135 0.3963428 0.16124247 0.38591018 0.15364474 0.7461876 -0.053506106 0.31836495 0.6642014 0.04438731 0.36136633 -0.07400544 0.5045223 -0.07373664 -0.5443861 -0.26964074 -0.5542577 -0.26588488 0.11168467
977 -0.042326223 0.8486712 0.39836156 0.21361046 -1.4580817 -2.122799 -0.8468611 0.018483214 -0.033721093 -0.30236715 1.8443478 -1.9163772 -1.2868854 -3.2833924 1.7300808 -0.95944 -1.0046296 -1.1705502 -1.3947735 -2.014687 -0.46867543 -0.31333286 0.2574235 -0.03468986 -2.5456755 1.6555645 0.949268 -1.7404445 -3.2464836 -1.0341129 0.53681904 0.36929882
61 -0.4675511 0.004396812 -0.23063506 0.04499972 -0.299033 -0.42394203 0.23498333 -0.24820323 -1.0915997 0.20226191 0.082604505 -0.14437392 -0.1358113 0.020092146 -0.104399495 0.10726702 0.08989274 0.7886313 -0.027231622 -0.13249014 0.2058193 0.74314004 0.32806805 0.32853663 -0.09025481 0.3134114 -0.47985992 -0.23932728 -0.38325068 -0.02836665 0.16346143 -0.08982938
133 -0.3119722 0.18995352 -0.366132 -0.1267533 0.4377275 -0.5578752 0.18185909 -0.099603 -0.43481836 -0.32459667 0.21510918 -0.0038362725 0.064164065 -0.10822065 0.064893425 0.04427648 -0.09805485 -0.05814167 0.38465986 -0.37038517 0.2638498 -0.27904433 -0.2178888 0.16899687 -0.21732089 0.05480512 -0.19584195 0.27838394 -0.26213008 0.16801308 -0.41202626 -0.111524485
493 0.057476748 -0.3962335 -0.35616186 -0.22970511 0.2320787 -0.3809662 0.27840894 -0.13303462 -0.5049549 -0.28465855 0.25776437 -0.16208221 0.4915792 -0.32348275 0.693918 -0.40323848 0.23274632 0.057473782 -0.09310734 -0.038423866 -0.29226404 -0.19213632 -0.10778438 0.018995676 -0.40678644 0.21837516 -0.13593267 0.57820284 -0.4346813 0.38093984 -0.1500516 -0.25160637
23 -0.77513885 -0.15249133 -0.39285034 0.44448626 0.27308232 -0.2357088 0.051143613 -0.39119923 -0.0182017 -0.41306236 -0.45206183 -0.0011501715 -0.023989327 -0.15715691 0.34218162 -0.025581282 -0.24531114 0.14290749 0.18378007 -0.26749992 0.3072736 -0.37903413 -0.47548428 -0.24738443 -0.3706395 -0.13166468 0.06246308 0.17129771 -0.61915815 -0.07223393 0.23409264 0.050305996
303 0.25991538 0.13185993 0.20568804 -0.05619339 -0.072018065 -0.15926944 0.09560598 -0.1745388 0.1781398 -0.429778 0.3562716 0.2298774 -0.5654761 -0.49413 0.5181202 -0.3537999 0.12679683 0.05236703 0.029479714 -0.3165023 0.17466646 0.24312268 -0.45370388 0.18135752 -0.10359854 0.4923623 0.16383338 -0.069617935 -0.15593097 -0.033131722 0.33788526 0.1258835
19 -0.21435992 -0.25833765 -0.3554899 0.3096509 0.3562217 -0.5294996 -0.27116495 0.34875068 -0.33789888 -0.13407215 -0.34681126 0.050724387 0.05285882 -0.33051935 0.4962149 0.22831899 0.46449324 0.69542843 0.26922175 -0.013624359 0.092507295 0.38074946 0.2974068 0.2973195 -0.30633372 0.6207435 0.124725066 -0.28940606 0.038165413 -0.24400795 -0.038049582 0.41294813
252 0.17879172 0.13047084 0.107910246 0.33235988 -0.10481017 0.33285108 0.0011673017 -0.06999168 -0.002106724 -0.22448786 0.4263863 0.010116879 -0.42590207 -0.5161751 0.58691114 -0.31412116 0.08053688 0.08239951 0.053828888 -0.28267115 0.3932897 0.19017957 -0.1496812 -0.1487007 -0.31518334 0.58305746 0.038101308 0.029463412 -0.2723867 0.13097689 0.15553318 0.18934874
269 -0.26405838 -0.2831989 -0.2883892 -0.17053592 0.5563979 -0.008637548 -0.4741672 -0.058404356 0.07480603 -0.17537531 0.35627276 0.18992414 -0.2681186 -0.13638872 0.14039563 -0.7552246 0.21414097 -0.15428792 -0.30036193 -0.46681008 0.21502757 -0.17769103 0.22686024 0.16544159 -0.6250827 0.5373969 -0.043937985 -0.10648561 -0.0017729967 -0.23052178 0.75441235 0.14598484
419 -0.071171425 -0.014698955 -0.4584891 -0.24035858 0.09936807 -0.56563777 -0.13272609 -0.10943097 -0.106096 -0.04795961 0.12248939 0.1734154 -0.035599884 0.07104691 0.7019117 0.0007680179 0.19199716 -0.086961746 0.15215051 -0.3233841 0.1770545 0.16518445 -0.48776084 0.50935346 -0.1623477 -0.035483375 -0.07576883 0.21037649 0.10667606 0.5372916 0.11215716 0.19382563
371 0.3966968 -0.05673239 -0.33312824 0.14560598 -0.0809915 -0.77117467 -0.22705552 -0.27715027 -0.035251297 -0.057027042 0.41625652 0.14738488 -0.29982153 -0.20964837 -0.063343994 -0.0865415 0.14282525 0.12925023 0.36791107 -0.33063716 -0.034018043 -0.08886466 -0.46102124 0.23312218 -0.5037467 0.28885692 0.44375435 -0.21962196 0.029412527 0.013524983 0.55435926 0.1209121
116 -0.6918969 0.12172282 -0.21629055 0.28582194 -0.09037888 -0.43079343 -0.05757593 -0.49777195 0.22825018 -0.54205924 0.14974043 0.04180663 -0.08822882 0.10917026 0.23330855 -0.13799757 0.06033519 0.1754878 0.4970845 -0.551434 0.22836432 -0.18347184 -0.30785474 0.14451295 -0.11439192 -0.12229996 -0.06592735 0.24096641 -0.69477516 0.08623765 -0.1282031 0.058191363
498 -0.2136869 -0.33002284 -0.37635058 0.2106072 0.4967631 -0.41422558 0.27900377 0.31259307 -0.30734193 0.054473117 -0.077115215 0.31910592 0.13825288 -0.117782675 0.1248688 0.09891124 0.39467025 0.12522492 0.29571265 -0.20774521 -0.05432847 1.1766983 0.0603576 0.28777602 -0.2359434 0.54712677 -0.20520647 -0.23455942 -0.36255005 -0.38548297 0.0361 0.102723695
290 0.19685298 -0.34376132 -0.8711052 -0.4208911 0.07132589 -0.18242572 -0.014612578 -0.39311317 -0.31568214 -0.38277775 0.3612086 -0.105481364 -0.023532005 -0.16908138 0.5159959 -0.39673725 -0.1698471 0.20863955 -0.25612053 -0.5315409 -0.5906915 0.0845134 0.12428507 -0.21116665 -0.29942045 -0.16167538 -0.06817918 0.3855602 -0.06955734 0.024279455 -0.21414395 0.24908249
411 0.14761885 0.4716606 -0.26817092 0.37964538 -0.35895228 -0.085466854 0.083969004 -0.13108258 0.21967627 0.16671093 -0.037498027 0.2862242 -0.35738513 -0.4027356 0.67049176 -0.29361483 -0.2928991 -0.14065573 0.23586059 -0.5079221 0.4274262 0.26040244 -0.083256215 -0.17693503 0.07247938 0.4865638 -0.34586594 0.075179495 -0.34312785 0.4044945 0.12123591 0.4244035
367 -0.36795282 0.042969637 -0.26228297 0.046613153 0.1399885 -0.33986107 -0.21338677 -0.63405365 0.20060654 -0.4033682 -0.12414542 0.24910636 -0.3198546 -0.115389876 0.18019234 0.069450095 0.07713973 0.28602925 0.17935815 -0.50335693 0.1917841 -0.4604983 -0.46096638 0.06839376 -0.24170883 -0.041125365 -0.044276938 -0.13452473 -0.27185082 0.24003235 -0.1964188 0.34816307
296 -0.47711635 0.10450521 -0.03830137 -0.12681656 0.1364426 -0.3574673 -0.03374598 -0.50006247 -1.0240052 0.38810962 0.25449237 -0.09054328 -0.5991011 -0.4227771 -0.19163631 -0.05561411 0.097496785 0.32098815 -0.3780506 -0.083116874 -0.001785612 -0.14753205 -0.029974002 0.23688468 -0.005944598 0.298384 -0.3118145 -0.005567696 -0.09430731 0.38063386 0.04772443 0.11843896
631 -0.37102443 -1.7040184 -0.6468331 0.5912853 -0.4370774 -0.22946616 1.7236279 -1.2694155 -1.3180926 0.15730885 -0.4319068 -0.46500352 -1.3226929 -4.2870913 2.8112533 0.2398531 0.008315105 -2.1410477 -1.0612711 -0.124881834 1.4221036 0.50318485 -0.7299944 2.1316223 -1.7302239 0.85823673 0.03011626 -1.0133458 -1.136948 -2.0421104 1.3843517 0.36651543
546 -0.0090432 -0.2680674 -0.055939782 0.350765 0.586491 0.1631912 -0.49705788 -0.24853604 -0.43926856 -0.06760848 0.008487916 0.14842758 0.1605792 -0.34134933 0.5203746 -0.6196915 -0.23913972 0.4497489 -0.14167105 -0.2416855 0.1409822 0.1856768 -0.08817796 0.07072506 -0.2187948 -0.039852377 -0.12720948 0.20496838 -0.07715346 0.017628537 0.34317157 0.034228485
80 0.1315932 -0.1771929 0.06499277 0.14704172 0.15245526 -0.2366745 -0.112877935 -0.1997911 0.2024522 0.02747686 -0.11715459 0.25452906 -0.86887366 -0.32588696 0.16259646 -0.5305747 -0.2790184 0.42784125 0.27472275 0.1515371 -0.27874887 0.12765685 -0.49925992 0.09859693 -0.3117429 0.056714647 -0.5211718 0.1143057 -0.052363556 -0.023756692 -0.10095795 0.77687573
172 -0.25512844 0.030612128 -0.3969327 0.018775802 -0.045410946 -0.43296754 0.085035495 0.040885407 -0.49061435 -0.420311 0.1835149 -0.034060556 0.14177574 -0.28529203 0.1885604 0.1445442 0.26509148 -0.015655449 -0.11300449 -0.173481 -0.19870989 -0.08515072 -0.1696373 0.214844 -0.3610839 -0.10160336 -0.6552347 0.28901252 -0.56793064 0.3001882 0.05639677 -0.07024744
210 -0.059493832 -0.23650336 0.099426836 -0.022691058 -0.068010956 -0.19518685 -0.04917126 -0.18715116 -0.10021214 -0.3798968 0.4230346 -0.23798344 -0.3149075 -0.6511782 0.40784398 -0.5491601 -0.040286798 -0.18717083 -0.017668378 -0.55018306 0.050387338 0.08805847 -0.30810758 0.30565166 -0.211749 0.3460901 0.20624521 -0.46699768 0.13110644 -0.062419873 0.2044043 0.3106126
13 -0.27726462 0.21887553 -0.5506795 0.06248609 0.09848726 0.11134868 -0.065983824 -0.21029772 0.45522988 -0.4709549 0.1593544 -0.030950718 -0.25675932 -0.33261058 0.18532453 0.18129045 -0.34480748 0.06290414 -0.20585921 0.022052357 0.26456478 0.33170468 0.0016845088 0.35707426 -0.75774723 0.21235853 -0.15280321 0.03943529 -0.34113082 0.052471038 0.0056821853 0.21207428
184 -0.14025609 0.10446704 -0.44594854 0.13071422 0.5166082 -0.26428044 -0.37795898 0.13300854 0.1095792 -0.12416185 0.15297402 0.1448741 -0.10824471 -0.390178 0.3268855 -0.5465398 -0.24925277 0.72538245 -0.036602322 0.30390275 -0.37435007 -0.10617937 -0.3270099 0.17703788 -0.017624749 0.21298158 -0.24309056 0.15292352 -0.16171797 -0.27174768 -0.14674671 0.5880181
16 -0.2277697 -0.0063351835 -0.28441975 -0.20731054 -0.19453381 -0.4492312 -0.08982868 -0.34684965 -0.033232417 -0.19054869 0.0047188736 0.13036107 -0.265496 -0.574309 0.15677364 -0.59831566 0.1260906 0.17096727 0.1683074 -0.51413536 0.097356394 -0.2185464 0.16178185 0.03665343 -0.31584582 0.17992207 -0.3964624 0.10443607 0.45087698 -0.0849973 0.10997084 0.34917864
404 0.35624725 -0.005742103 -0.43086615 0.30130216 0.31144238 -0.38775146 -0.45334575 0.04022778 -0.43916178 0.2808887 0.47861964 0.18315145 -0.14906618 0.00813003 0.36903128 -0.774914 0.2242803 0.10024443 0.32302585 -0.18149363 0.046017315 -0.35761312 -0.26631764 -0.37437934 -0.87979424 0.12300698 0.33416012 -0.3228376 -0.09398124 -0.07033052 0.4465736 -0.16054283
459 -0.24241912 -0.6109382 0.1273048 0.2810262 -0.10202625 -1.0498797 0.06006848 0.21421087 -0.14676443 0.13396661 -0.31877336 0.1366354 -0.18429178 -0.14103222 0.5639605 -0.03568276 -0.14920337 0.19877598 0.21174751 0.10338997 0.44245887 0.16213979 0.1083171 0.2379339 -0.20705527 -0.01716978 -0.17301911 0.37341395 -0.007061518 -0.35690948 0.092325635 0.5805138
362 -0.11310422 -0.2047675 -0.42860654 0.043425612 0.612561 -0.5456721 0.23915975 0.28996128 -0.04097614 -0.2637513 -0.30863813 0.18726383 -0.2774518 -0.48168272 0.23526415 0.0013053457 0.4534595 0.33373734 0.44932166 -0.19437316 0.09183965 0.18641424 0.20751467 0.1278057 -0.20238885 0.27402452 -0.35650954 -0.14539254 0.0957587 -0.35529783 -0.0397034 0.119851775
7 -0.045322176 -0.29319617 -0.52441543 0.19176988 0.6880416 -0.6025549 -0.14956392 0.13452268 -0.22500464 -0.07740386 -0.35080233 0.05236767 -0.13049214 -0.24968854 0.35323414 0.09901462 0.6599603 0.47723755 0.27324674 -0.44831598 0.19696413 0.67514294 0.53540856 0.31187382 0.12585716 0.5040378 0.068956055 -0.40973833 -0.26669794 -0.11921342 -0.31963027 0.26134825
393 -0.43077582 -0.18135025 0.18370882 0.106997535 0.3310636 -0.06788034 -0.22756357 -0.4469118 -1.1758076 0.37672353 0.07030967 0.049219735 -0.52654713 -0.048670065 0.05259064 -0.2135507 -0.13792644 0.4398156 -0.27814394 -0.07526194 0.2487236 -0.13428001 0.18342791 -0.05227937 -0.30708817 0.2422923 -0.18303119 0.073295005 -0.19448078 0.3777419 0.22067398 0.014276941
2 0.36576706 0.3134458 -0.51185673 0.2941883 0.040258564 0.3871087 0.2842682 0.09344449 -0.01453379 0.033645153 0.40011564 0.2952761 -0.43675146 -0.32499024 0.37035227 -0.44673538 -0.12930036 -0.052568197 0.03076701 -0.40395617 0.49491742 0.32229853 -0.078654915 -0.26872438 -0.2373505 0.7628996 0.1404525 -0.073332034 -0.2853482 0.07181787 0.14173506 0.42581207
51 -0.19834161 0.107735544 -0.5828067 0.17062145 0.3754635 -0.5068013 0.44249883 -0.0771239 -0.015446571 0.052631725 0.22138788 -0.044419706 0.14505166 -0.13991046 -0.27384713 0.51019806 -0.25298205 0.24760358 0.40469077 -0.7808015 -0.07895337 -0.065609254 -0.31005242 0.22983032 -0.80105186 0.13505635 -0.2381721 -0.037058044 -0.35048783 -0.16304065 -0.11836561 -0.20835857
20 -0.036171313 0.006418616 0.21736294 -0.30670482 0.22018309 -0.5199543 -0.31158054 -0.40114972 0.13994382 0.25746793 -0.0128106605 0.42058843 0.14639744 -0.50980866 0.09203845 -0.28088164 -0.22626013 0.13134316 0.28334153 0.2829427 0.24443999 0.4441371 -0.37205592 -0.1482883 -0.4582317 -0.07112028 -0.010497921 0.19353248 -0.41620448 -0.36743826 -0.10773609 0.9766039
506 -0.102061965 -0.16671357 -0.42130223 0.044497855 0.5094666 -0.35847288 -0.06332609 0.16431373 -0.22234134 0.13065964 -0.64919585 -0.22622812 0.033650734 -0.39832175 0.34661618 -0.129257 0.4806956 0.21209581 0.34141 -0.46231934 0.2866617 0.58873564 0.42066938 -0.07400337 -0.27147317 0.7153528 0.15111853 -0.13081288 -0.4012556 -0.22424892 -0.109604426 0.14232194
180 -0.28431922 -0.27062204 -0.64474744 -0.21981709 0.32337123 -0.027120292 -0.34717578 0.23736879 -0.6479746 0.01680058 0.26730007 -0.05900637 -0.37007985 -0.58914316 -0.03364568 -0.27718678 0.18285806 0.24128874 -0.34029597 0.16399734 0.42184693 0.2016165 -0.1506225 0.10102646 -0.14302003 -0.43924597 0.15026276 0.14941847 -0.66207725 0.61499125 0.045374513 -0.3338305
46 -0.040101595 -0.03184033 -0.25440088 -0.4772453 0.16669977 -0.20755132 -0.13386391 -0.3931853 0.1678532 -0.414697 0.38413227 0.21300516 -0.36314768 -0.15421782 -0.009549034 -0.51903564 0.08693743 -0.07882013 -0.2593023 -0.50226307 0.19775344 -0.012512385 -0.08384228 0.19007204 -0.45968935 0.61096525 0.13928287 -0.007900815 0.11426976 -0.22826372 0.9009626 0.5119305
285 0.5145509 0.29707146 -0.009472738 0.28994465 -0.07705008 0.005555763 0.24432582 -0.11115779 -0.15428732 -0.549631 0.45332488 0.31171143 -0.2666787 -0.6537545 0.42080784 -0.17077248 0.06309522 -0.2884314 0.151051 0.04753651 0.29467162 0.04503261 0.17421167 -0.1133358 -0.5133794 0.44966564 -0.3758763 0.039849218 -0.26338768 0.2669348 0.25817415 0.3849694
474 0.037756678 -0.26611173 -0.32885733 -0.30442697 0.29056686 0.19382942 -0.015845962 -0.14239506 0.13191153 0.34384274 -0.027150502 -0.36037096 -0.32009542 0.022977326 0.83407104 -0.24850456 -0.17751348 0.55774426 0.22260046 -0.330678 0.36903095 0.026582936 -0.21300544 0.14852077 -0.8000543 -0.09595657 -0.16698281 -0.0029406173 -0.1892518 0.1777184 0.12126649 0.13005406
152 -0.3838081 -0.44060102 0.16807768 -0.08855131 0.17208847 -0.0566773 -0.4439013 0.20616819 -0.116973706 0.1183415 0.27694798 0.25613552 -0.3302976 -0.2032165 0.0064683417 -0.2578861 0.26681632 0.2667201 0.28750145 -0.098270245 -0.13204245 -0.0282662 -0.11654406 0.023362318 -0.78072333 0.3071657 0.33774278 0.27142397 -0.28688127 0.4940517 -0.20380527 0.3697029
41 -0.53067577 0.25267687 -0.17975937 0.12073785 0.33489853 -0.2185292 0.12364297 0.062638074 -0.10705364 -0.021145178 0.4796776 -0.062446877 0.14699543 -0.3839313 0.17265631 0.1763787 -0.11827195 0.37334374 0.16964075 -0.65188587 -0.16935053 0.14395091 -0.32748103 -0.027479887 -0.49806285 -0.08918196 -0.11533902 0.4798284 -0.48017126 0.03309856 0.0056364145 -0.44350696
168 -0.06617742 -0.39233485 -0.58588254 -0.16419981 0.18624347 -0.44376564 0.35072222 -0.23599993 -0.3129496 -0.28775886 0.19205758 0.04910316 0.19781789 -0.29047963 0.51360816 -0.09270621 0.11397226 -0.28246987 -0.5079303 -0.17264047 -0.18663377 -0.24313982 -0.34785956 -0.0034607425 -0.1404354 0.15409924 -0.49200797 0.2550068 -0.66055405 0.23831023 -0.30488077 -0.29374227
518 0.15231499 -0.4661266 0.06483702 0.13371503 0.44041964 -0.21955371 -0.55758876 -0.20108739 -0.06489326 -0.12851018 0.22887887 0.3630962 0.057666052 -0.6610172 0.2651873 -0.19697419 -0.012361265 0.47193545 0.18473466 -0.24203418 0.25689203 0.029595964 0.1215452 -0.10589794 -0.43925092 -0.055878196 -0.093993194 0.11876786 0.20295244 0.35243258 0.19587715 0.27421173
440 -0.26265007 -0.62215066 -0.24459177 0.23804557 0.08311598 -0.3865965 0.4163323 -0.07689984 -0.45199245 -0.028059635 0.16862439 0.26454288 0.36182442 -0.07612729 0.11296823 -0.049451802 0.11041735 -0.24806054 -0.21622081 0.012151725 -0.28393242 0.645799 -0.1476153 0.55544317 -0.3177994 0.42053694 -0.48646185 -0.30449212 -0.5389234 0.35960495 -0.034995623 0.025016926
375 0.073546685 0.03580915 -0.4582311 -0.30793405 -0.16603485 -0.18456098 0.07658553 -0.35960382 0.4726338 0.28402594 -0.022439323 -0.07490827 -0.80518824 0.03179297 0.6078455 -0.21907394 -0.4015944 0.63411015 0.25067028 -0.20532142 -0.057629086 0.22549255 -0.24481632 0.29853636 -0.5425265 -0.087584384 -0.46499276 -0.31574205 -0.13727055 0.1994324 -0.18336706 0.45280215
455 -0.59546536 0.19833961 -0.18006736 0.15079765 -0.44571215 -0.31944042 -0.35560706 -0.26505968 0.39268443 -0.70237786 0.302903 0.11334731 -0.42690966 0.14286025 0.6591257 0.03698615 -0.05734542 0.11453015 0.4816422 -0.6032571 0.124831945 -0.1795895 -0.14239627 -0.24533358 -0.156958 0.11273648 -0.40723875 -0.059740495 -0.85491544 0.23896927 -0.110903956 0.016507374
295 -0.3782739 -0.08528242 0.15891007 -0.13793486 0.04457118 -0.81211245 0.2531767 -0.23028882 -1.1327806 0.31671917 0.094733566 -0.033223774 -0.6554044 -0.0079004215 0.3101943 -0.10776377 0.0013655869 0.17542736 -0.20580165 0.018547641 0.14027107 -0.23393762 0.078816555 -0.109464616 0.03335172 0.12747134 -0.51238716 0.18251157 0.039332688 0.080885604 0.07811415 0.33211246
659 -2.0968418 -0.91589785 0.016127074 -0.16934496 -0.16083257 -4.325495 -0.23618852 -2.443187 -1.3451935 -0.5584565 1.8456782 1.0255194 -2.9923267 -0.76667506 1.0090376 0.13007563 -0.38589856 0.6542873 -1.9787279 1.8282107 1.2324113 0.49994177 2.5949752 -0.1132876 -0.9618317 0.72355497 1.3495235 1.3507196 -1.7959363 0.053765118 -0.0913004 0.018984806
30 -0.7205036 0.11696342 -0.48118463 0.45841685 0.24981299 -0.27008036 0.12156507 -0.447629 -0.14571336 -0.4300886 -0.4101026 0.28924453 0.020808266 -0.18863718 0.1855922 0.00769869 -0.21396022 0.13642299 0.5147618 -0.52779603 0.03842464 -0.41670403 -0.43995932 -0.087901644 -0.41848046 -0.06561119 -0.07844382 0.04843686 -0.44947186 -0.065767236 0.018529307 -0.009947924
17 -0.6216963 -0.34195685 0.14916392 0.17888348 0.2539855 -0.54716784 -0.023975521 0.19491975 -0.37921453 0.1976366 0.62515366 -0.048873488 0.19842468 -0.022182625 0.45775354 -0.23352024 -0.18756133 0.4859684 0.0632157 0.10518965 0.50410193 -0.037897933 0.071678855 -0.22127527 -0.2558324 -0.0461585 0.20074524 0.30603826 0.05118542 0.10644787 0.16929643 0.46570957
173 -0.039016318 0.28253865 -0.0627937 -0.059072908 0.54812133 -0.06355756 -0.5944223 -0.43999356 -0.26142088 0.26969248 0.3090359 0.55872387 0.25888303 -0.2087988 0.4652389 -0.31652972 0.07584683 0.16297555 0.12017909 -0.1478229 0.25392047 0.30806348 -0.4701512 0.23779854 -0.48171484 -0.2485265 0.13240975 0.032172374 -0.05673241 -0.21798936 -0.15627554 0.4679233
856 -0.01464362 -0.36732757 -0.339947 0.16300154 0.78574383 -0.22730432 -0.2922316 0.4121779 -0.35336187 -0.057887256 -0.5056113 0.012617691 -0.023227274 -0.20266996 0.4224074 0.06042913 0.5664689 0.43316472 0.17529123 -0.4332595 0.49910057 0.4808944 0.18611044 -0.13876724 -0.2999392 0.36587757 -0.14683768 -0.28576848 -0.12078497 -0.109213464 -0.14166042 0.26355603
157 -0.43939185 0.035929494 -0.4745372 -0.21004406 -0.19392112 -0.36642945 -0.02721752 -0.43326068 -1.0476811 0.1422197 0.32403064 0.24892642 -0.65631604 -0.6117704 -0.4083895 -0.03651387 -0.3747182 0.22623526 -0.30778918 0.11362661 0.40918446 0.16099155 0.19414502 0.099091746 0.05883159 0.14980395 -0.5192734 0.061148386 -0.33157173 0.19694194 0.06574874 -0.23418026
35 -0.5224753 -0.19156688 -0.49193436 0.38725448 0.23912488 -0.40011042 0.3470194 -0.7150979 0.08390255 -0.65844274 -0.16987014 0.2092355 -0.21336845 -0.13183983 0.19166726 0.11916034 -0.22806324 0.060444262 0.2586677 -0.20960854 0.08549125 -0.4455873 -0.5232912 -0.18215406 -0.24408062 -0.082486056 -0.13434447 0.013101547 -0.61541504 -0.19023131 0.08949111 0.005536152
884 2.118777 1.4356513 1.0022233 2.0350485 0.7256691 -1.3273302 2.505209 -2.3031697 -0.69618857 1.1223646 2.2747371 0.41444993 -0.7230645 -1.5665587 3.320868 -2.8783534 -0.16097535 -1.1671242 1.6888598 -2.0606914 -0.24168138 -0.94471586 -0.635002 0.44469258 -1.2882099 4.335371 0.4837122 2.3332586 -1.9685729 -1.0686295 -0.43261147 1.2581133
704 -0.57952917 1.5435431 -1.3259388 -0.609247 2.8625786 -2.2648036 0.42023292 0.3151494 0.53914046 0.6948092 1.060719 -0.24721824 -0.77547586 -2.5213976 -0.9644276 -1.7823547 0.6522458 0.9216966 0.06047842 -0.9331843 0.80821544 -0.764968 -0.8425367 -1.1897099 -1.3071793 0.54606205 -0.17718075 0.0074359 -1.265905 2.425434 0.8456238 2.2611492
174 0.22021513 0.30294937 0.048758935 0.045088198 -0.07977529 0.066735014 0.24041456 -0.23005353 -0.35931882 -0.17277014 0.36822224 0.13272928 -0.72469074 -0.5283994 -0.23456384 -0.37337026 -0.13768372 -0.16602454 -0.12711124 -0.3578294 0.3405489 0.034301627 -0.05439556 0.07863357 -0.41995665 0.7170365 -0.22794646 -0.010061291 0.08130304 -0.056822654 0.17290083 0.6253207
890 0.5410319 0.022540381 -1.3414798 0.96676695 -1.3009825 -0.26602268 1.2186776 -0.19737051 -1.1967773 -1.9702779 -1.6697001 1.2858648 -0.42234483 -3.5497777 1.9040707 -2.397434 -0.7571735 1.8131993 -0.18854877 -0.8675587 -1.5583799 0.28362978 0.9358083 1.4446443 -3.303651 0.42225018 1.6125525 -0.71390235 -0.9274357 -0.3393 -0.20929138 2.4940033
450 -0.013770954 -0.010168716 -0.12306535 -0.15855382 0.05665842 -0.7548632 0.41211286 -0.17365834 -0.17667183 -0.31121886 0.2792832 -0.016703896 -0.036613792 -0.0951605 0.54523915 0.101450235 0.46659762 -0.21091254 -0.34117022 0.07717899 -0.080566004 -0.024006557 -0.06648017 0.47580507 -0.5930558 0.26631215 -0.048000127 0.3709397 -0.49626622 0.5159717 -0.42994186 -0.16487171
189 -0.09840111 -0.06601782 -0.089358285 0.461815 0.2571346 -0.8668458 -0.13950272 0.046650197 0.35954714 -0.0012850552 0.123212814 0.012880736 -0.3539827 -0.14583492 0.16680112 -0.48796958 -0.38600263 0.5738249 -0.40646857 0.56130713 -0.1670527 0.20277818 -0.16630471 0.30428675 -0.16974534 0.11665333 -0.07028192 0.16733395 -0.26716134 -0.24945399 -0.1769604 0.7662181
155 0.4270098 -0.15132987 -0.120360054 0.31696838 0.21538867 -0.2766631 -0.5782507 -0.48957625 -0.27402553 -0.17732258 0.48494267 0.04489442 -0.007591149 -0.3368692 0.016408145 0.3432421 -0.068804994 0.3928782 0.02685113 -0.051217217 0.6577648 -0.37551102 -0.1127115 0.3326573 -0.23316106 0.1454537 -0.1571725 0.09427968 -0.1435802 -0.23868793 0.5582057 0.4222328
636 0.67829263 0.29544207 -1.437191 -0.81482863 -1.3515798 -1.8326838 -0.38114002 -0.7978758 -0.52521247 -2.8389685 1.9280732 -0.5072543 -0.17261866 -1.4348351 3.3362546 -2.3285775 -2.0607789 1.0305302 0.37991968 0.14999199 2.428009 -0.17415042 1.5307082 1.899142 -0.58697164 3.4534528 2.1948164 0.6278753 -1.2947606 0.25238732 0.017232496 1.559749
784 0.11359188 0.61667794 -1.1471988 0.3052197 -1.3195087 -1.519941 1.0162107 -0.284019 -0.23654233 0.69542146 0.8804062 1.2671165 -1.0668565 -0.78430104 2.7276092 -1.3686763 -2.0286121 0.68133456 0.29831162 -1.6945715 2.1026049 0.37106478 -0.40417308 -0.058394 -0.42395937 1.6454824 -1.7812288 1.1313217 -1.1510512 3.5046055 0.38602018 1.9344524
179 -0.53501934 0.06436089 -0.32958445 -0.18212399 0.2812371 -0.36518478 -0.029310597 -0.2850082 -1.0454092 0.24114242 0.38484296 -0.13375077 -0.76697516 -0.2232357 -0.35150415 -0.13081972 0.15334424 0.27857694 -0.33050913 -0.036723673 0.41692203 0.108999535 -0.1035955 0.45633742 0.31728593 -0.1309589 -0.1124711 0.14660038 -0.7123977 0.29349798 0.13307098 -0.27335384
27 -0.8747041 -0.17134841 -0.5019953 0.49167284 0.04159094 -0.16036882 0.49347904 -0.57526743 0.10980737 -0.4430822 -0.30059648 0.15966126 -0.25410542 -0.150124 0.068852395 -0.012309981 -0.0839245 0.067990005 0.47911587 -0.4120904 0.12336215 -0.33371165 -0.46856892 -0.13842364 -0.50952625 -0.16254137 -0.031601466 0.16466758 -0.7970472 -0.32618877 -0.10913674 0.009725723
40 -0.8099515 -0.3139422 -0.35734805 0.43614453 0.19851637 -0.2793107 -0.074243695 -0.34691155 0.35518163 -0.74318177 -0.24784274 0.24303354 -0.3611847 0.29047433 0.30443037 0.17189492 -0.2766855 -0.09959854 0.2607063 -0.6053589 0.11446317 -0.3687681 -0.2619928 -0.17737274 -0.4503774 0.068412155 -0.18715721 0.35548586 -0.9763692 -0.21748185 0.26962852 0.10499456
271 0.22718957 0.06601865 -0.25380874 0.36772746 -0.09055017 0.038198896 -0.3723229 -0.25862488 0.4037756 -0.036697768 0.46800897 0.2542739 -0.45119616 -0.63891965 0.44875282 -0.35478532 0.037217874 -0.40995827 -0.05673977 -0.17399271 0.42526928 0.3188988 0.101244085 -0.36882815 -0.32830396 0.50336874 -0.14274968 0.023769744 -0.07117112 0.21385722 0.2373095 0.5399739
89 -0.02278762 0.3580239 -0.0042468784 -0.038761485 -0.40883833 0.26366803 0.25500658 0.010907542 0.30754936 -0.35584635 0.39904755 0.30479848 -0.60132456 -0.23909573 0.6700703 -0.25767136 0.18552294 -0.016264634 0.28977475 -0.3598914 0.54885966 0.43437365 -0.3239995 -0.08711089 -0.30496076 0.24633825 -0.4550565 -0.13531826 -0.50092137 -0.0360931 0.19445424 0.08939967
421 -0.0783656 -0.49468976 -0.5644434 0.5290433 0.4550308 -0.5393501 0.078442335 0.4262917 -0.30222824 0.045757487 -0.5364699 -0.059826124 -0.41622156 -0.20935671 0.2515322 -0.070607916 0.7127381 0.05711431 0.43751627 -0.3497466 0.16891019 0.71138835 0.23100069 -0.14312652 0.1227639 0.062260285 -0.27829343 -0.06453266 -0.2763226 -0.2420074 0.20554446 0.4326419
3 0.5111707 0.3027315 -0.36113298 0.2660899 -0.13631958 0.120778725 0.38364795 0.13540359 -0.05193241 -0.19301184 0.49428487 0.16189864 -0.45587352 -0.42463547 0.17406085 -0.44279107 -0.11462892 -0.019655587 0.09396876 -0.426578 0.38853678 0.2620764 -0.49758753 -0.06085188 -0.09180555 0.704507 0.22460388 -0.034765977 -0.23329939 0.020208456 0.3358065 0.53501517
14 -0.18139392 -0.020265924 -0.4920936 -0.051494896 0.22679439 -0.467551 0.20353691 -0.2524789 -0.7168108 -0.28745586 0.44916785 -0.0653738 0.26010826 0.16698569 0.14254045 0.27921632 0.16594334 0.2438972 -0.23645663 -0.33598602 -0.15557131 0.35046318 -0.12816606 0.11729176 -0.062259812 0.17133917 -0.663206 0.33561814 -0.37513387 0.07399905 -0.3419479 -0.053314094
191 -0.39035088 -0.088145316 -0.8489319 -0.24352252 0.13565488 -0.24102192 -0.2772042 0.019213373 -0.46728703 0.27192277 0.30429646 0.011359373 -0.605404 -0.8737713 -0.43345493 -0.23584794 -0.06941957 0.08275274 -0.2501381 0.1035907 0.41801736 0.25459203 0.09952226 0.23474753 0.027312547 -0.45225683 0.040510457 0.059532627 -0.74919647 0.42856896 -0.25585508 -0.19934624
93 -0.39713055 -0.0571425 -0.36775917 0.0034492295 0.124626495 -0.22893806 0.35954905 -0.3082376 -0.06868701 -0.3176658 0.13990626 -0.13786532 0.45414567 -0.32131284 0.32456827 0.04584013 0.017129943 -0.14069477 0.24424945 -0.21297902 -0.16177033 -0.25577605 -0.17776455 0.37423933 -0.7553838 0.18845977 -0.60609424 0.4881492 -0.608869 -0.21107402 -0.45578793 -0.05863327
412 0.55069774 0.3215251 -0.17407495 0.6719988 0.014702931 0.31740046 0.30228382 0.058240708 -0.07962447 -0.09334169 0.5258989 0.28765035 -0.31747574 -0.52835137 0.47343388 -0.50343186 -0.036937643 -0.09122478 0.2021043 -0.4341369 0.3719798 0.16753156 -0.13350333 -0.044755444 -0.21915865 0.821326 -0.05205895 0.24862984 -0.25916862 -0.09257727 0.27032188 0.28320625
48 -0.7785017 -0.14663534 0.022172196 -0.027168268 -0.022007396 0.21015975 -0.49096423 0.05118405 0.079635754 -0.43907303 0.26708248 0.42568266 -0.6813408 0.11916114 0.6895962 0.28167528 0.11560527 0.17821096 0.28089163 -0.6190767 -0.1674317 -0.5600625 -0.24048784 -0.2887356 -0.4357615 0.20303613 -0.08572492 0.07159255 -0.74046683 -0.02991578 -0.23180771 0.29716393
509 -0.40481848 0.4091011 -0.26008552 0.06994337 0.77871317 -0.119240426 -0.17718755 -0.102505066 0.34894395 0.23186222 0.13078597 0.20155278 -0.21050519 -0.48542398 0.666265 -0.4930315 0.2033417 0.8017113 -0.2564579 0.48037887 -0.20487632 0.021284929 -0.39424035 0.24450532 -0.3058293 -0.0026238265 -0.31782568 0.32598397 -0.115563706 -0.53771573 -0.14179859 0.50903064
209 -0.11743687 -0.092049666 0.12769075 0.0134893935 -0.039517876 0.04616838 -0.074571 -0.13312185 -0.026318813 -0.16268717 0.20566848 -0.19167489 -0.17668256 -0.85296327 0.48215848 -0.43403637 -0.0044361535 -0.15385084 -0.2048201 -0.37794974 0.28004843 0.11066663 -0.13517487 0.09996905 -0.37753648 0.51229966 0.16206744 -0.5881635 -0.21095596 -0.19311118 0.2584108 0.26771355
417 -0.72948074 0.100008406 -0.20420223 -0.025717176 0.23837273 -0.34651554 0.0034191175 0.033027813 0.24053743 -0.5631273 0.14613964 0.20402756 -0.28427705 0.31945848 0.36727723 0.05118214 -0.115623206 0.037724975 0.47438297 -0.5093354 -0.0802469 -0.35609803 -0.34984145 -0.26463744 -0.21043731 -0.043050755 -0.26839837 -0.25796062 -1.005655 0.2938828 0.019185854 0.27442792
29 -0.78017193 -0.08050971 -0.4115353 0.36214963 0.26385316 -0.49774656 0.2658213 -0.44070047 0.04341233 -0.5268772 -0.23500727 0.30923876 -0.15862091 0.009823309 0.31571677 0.19103774 -0.36048362 -0.20147337 0.43631354 -0.14912148 0.33800167 -0.42786443 -0.4766342 0.007897634 -0.33784315 -0.010528449 -0.07837241 0.014753218 -0.46402544 -0.2962695 -0.048120193 0.24267633
221 -0.40504053 -0.49061826 -0.16872637 0.14487736 0.01837159 -0.7838084 0.3969934 0.039870612 -0.15362324 0.16524968 0.69285953 -0.013608281 0.35972303 0.007147133 0.3126748 -0.3788761 0.18803287 0.39079678 0.011027969 -0.08678908 0.4260228 -0.13430911 0.038300343 -0.13501495 0.007698157 -0.008956097 -0.31118345 0.4146177 0.08650041 -0.08655629 -0.20662461 0.5718097
222 -0.5378648 -0.34897664 0.101913676 0.23375142 -0.05974143 -0.99280226 0.06241289 0.020123707 0.059560373 0.13711569 0.3733569 0.05685197 0.04896938 -0.2630877 0.22654544 -0.19335674 0.22942902 0.21966335 -0.18731166 0.09720682 0.2699559 0.2028155 0.049197048 0.0766521 -0.076870054 -0.176147 0.06609356 0.21964006 0.06260294 -0.17054413 -0.02073932 1.0790596
358 -0.07141198 -0.44714537 -0.2550967 0.15528178 0.48520413 -0.7042038 0.07155314 0.13519134 -0.5284048 -0.08957347 -0.4662715 0.14143458 0.18506458 -0.15112445 0.5138005 0.1740894 0.5165851 0.572056 0.2769925 -0.25302982 0.5053535 0.81673753 0.33319345 0.094159156 -0.045310598 0.4979804 0.13464695 -0.30513895 -0.51898694 -0.5953509 -0.40124434 0.19880308
108 0.22633606 -0.20235498 -0.8613321 -0.48365408 0.17092699 0.075391665 0.15569484 -0.32637274 0.32661685 0.31652 0.17590027 -0.4291288 -0.36514813 0.0072537847 0.87182426 -0.012835396 -0.5216948 0.80194193 0.31858653 -0.13552524 0.14805974 -0.15364707 0.012863289 0.6040658 -0.8262287 -0.07721696 -0.39564455 -0.06954949 -0.23850045 -0.25984854 -0.05371656 0.35617572
57 0.38858175 0.5279632 -0.05179676 0.32778758 -0.14264765 0.3320025 0.00017190036 0.025166089 -0.054979052 -0.28506282 0.50605494 0.007601639 -0.5083303 -0.8456549 0.45261708 -0.57116824 -0.22918747 -0.031520795 0.37994698 -0.13171564 0.20378363 0.4304185 -0.10183613 -0.35866466 -0.09083724 0.6317236 -0.2407114 -0.027082765 -0.55654126 0.1581531 0.21611705 0.40663394
466 0.0038557502 -0.6297593 -0.7756496 0.11581963 0.6300037 -0.55860513 0.1820054 0.1436176 -0.36697972 0.1706021 -0.42617851 0.18399586 -0.43136206 -0.30400372 0.058112133 0.24856244 0.52963686 0.052019928 0.27856308 -0.34342945 0.058831077 0.7114327 0.22019815 -0.01376745 0.23875865 0.43883386 -0.06315744 -0.47735983 -0.44318643 -0.28130415 -0.28638694 0.40817976
499 -0.04897888 -0.5164143 -0.09234171 0.23974 0.5457107 -0.5198567 0.27331114 0.10713273 -0.67633086 -0.060060266 -0.5107924 -0.217888 -0.11295764 -0.013415743 0.1555301 -0.027686222 0.43932512 0.38068295 0.15303016 -0.502277 0.13568266 0.9788748 0.22319788 0.20780355 -0.05221459 0.8106362 -0.13675891 -0.63770616 -0.6478556 -0.39974496 -0.36673838 0.18432929
426 0.31860128 -0.4801892 -0.08494968 -0.35723922 0.45829663 -0.33175966 0.3133451 -0.19461966 -0.39663097 -0.4966204 0.3660747 0.6135747 0.2646863 -0.24064372 0.38530916 0.037180018 0.19367783 -0.014275465 -0.14455585 -0.06312758 -0.29994282 -0.16757092 0.013847792 -0.19299057 -0.25865012 -0.08687966 -0.7328172 0.019447565 -0.77468204 0.2704568 -0.30223855 0.16314332
84 -0.40895358 -0.3345413 -0.16097744 -0.009871065 -0.05701816 0.07960049 -0.22381698 0.29884052 -0.35244426 0.195776 0.0029276381 -0.09122362 -0.42693254 0.14294834 0.49117276 -0.23001775 0.3285383 0.08242368 0.108483694 -0.043272104 -0.08073997 -0.2780715 -0.20559408 -0.2287295 -0.715129 0.52217937 0.3556066 0.18761635 -0.4657076 0.13298689 -0.16461816 0.37623423
208 0.6881279 0.0910126 -0.19296297 0.6139757 0.12828797 0.10736725 0.09670296 -0.11281457 -0.12369834 -0.51862 0.71607506 0.09113463 -0.34434623 -0.62340677 0.27850956 0.022931885 -0.36850008 -0.09907609 0.28308463 -0.24970339 0.59641 -0.06890187 -0.039351005 0.27937362 -0.17530245 0.47057548 0.08454327 0.04632259 -0.115604214 0.2718866 0.44218743 0.64814734
132 0.09009721 0.07596937 -0.11144435 0.21108383 -0.05492616 -0.06862661 0.068901 0.018211631 -0.06403023 -0.10302266 0.375478 0.08053756 -0.4404703 -0.7417432 0.42254633 -0.44254416 -0.23376088 -0.2112337 0.22506066 -0.41769108 0.2411188 0.12715346 0.12444343 -0.19619769 -0.35812655 0.27375436 0.22075707 -0.24159151 0.13250755 0.31411523 0.18961218 0.45733967
12 -0.23772344 -0.06895976 -0.76379913 0.0420022 0.38274136 -0.5743111 -0.090403914 0.08842911 -0.24250358 -0.2819522 -0.2139958 0.18636805 -0.13646385 -0.49415958 0.3810625 0.5778131 0.6249385 0.71260804 0.15523742 0.05403181 0.16548839 0.601482 0.36553296 0.04138264 -0.2725105 0.5214915 0.15013094 -0.65286076 0.002636441 -0.105556846 -0.24495114 0.07475717
338 -0.7907257 0.21681872 -0.3671227 0.031616252 -0.37222534 -0.20208673 -0.05328014 -0.5293594 0.2500971 -0.46908247 0.11584248 0.013027739 -0.2726627 -0.20711564 0.29318884 -0.24623528 0.26781377 0.27530256 0.6529076 -0.49237043 -0.10515408 -0.35807908 -0.021001523 0.09070421 -0.22257605 0.021309482 -0.011214571 0.1108813 -0.604558 0.09058199 -0.009527561 0.1553646
181 -0.43130577 0.07927385 -0.16762662 -0.32661572 0.19479571 -0.30921796 0.2335779 -0.15537536 -1.226922 0.24551633 0.31169796 -0.04468665 -0.48012775 -0.119649634 -0.19820487 -0.06965858 -0.12417859 0.25606665 -0.43053198 -0.05830397 0.1989821 -0.115835376 0.13342445 0.28643396 -0.005047321 0.35014606 -0.62028 0.0058560255 -0.51044625 0.3043001 0.0014815707 -0.017549481
213 0.034935124 -0.5161633 -0.42106006 0.379104 0.45934042 -0.49041706 -0.28369823 -0.09258837 -0.7597671 -0.01433564 -0.4261295 0.005573084 -0.30026844 -0.04282325 0.16220267 0.37791002 0.50798696 0.5033026 0.26882282 -0.32635686 0.28335667 0.86301625 0.240368 0.40238062 0.13283402 0.68856895 -0.30912364 -0.33311445 -0.3720303 -0.56121075 0.22775665 0.22917566
379 -0.40674797 0.08576411 -0.086748466 -0.0065444456 -0.22640838 -0.32836148 0.15343171 -0.5313203 -1.0967289 0.3871888 0.487917 0.19023614 -0.8227461 -0.25621727 -0.314356 -0.19970198 -0.24933895 0.14751293 -0.050226014 0.013141286 0.1343987 0.109226696 0.52155435 0.0860327 -0.07707611 0.54112387 -0.7688973 0.08000453 -0.06622924 0.16932327 -0.0077928137 0.24520873
214 -0.3532515 -0.10951619 -0.4702549 -0.48859176 -0.054867506 -0.6410029 -0.1744001 0.14181904 -0.36240214 -0.12368226 0.3993364 -0.06758659 0.051082913 -0.8264153 -0.15078329 0.07144777 -0.38189325 0.12612617 -0.36635512 0.2650266 0.08687854 0.41744658 -0.33781067 0.25699362 -0.21428289 -0.06488265 -0.060147677 0.11897593 -0.69309556 0.28472897 0.22858767 -0.30827522
15 -0.068561554 0.17608134 -0.34203526 -0.16126378 0.4804305 -0.30644342 0.060309935 0.033658486 0.052831095 -0.3509568 0.29729083 0.43163842 -0.5531918 -0.14746848 -0.007113012 -0.57431954 0.34825662 -0.015599153 -0.29702488 -0.30343518 0.07859922 -0.057885777 0.3128712 0.088840045 -0.8790704 0.77174294 -0.17940387 -0.07068889 0.17593771 -0.4204759 0.9192429 0.008221798
859 0.44443327 0.31953016 -0.06713954 0.30626324 0.21508545 0.45221028 0.10401485 -0.0085041765 -0.20565279 0.02214741 0.27660456 0.09267968 -0.34822577 -0.5675686 0.26750043 -0.469341 -0.106621526 0.19736928 0.13531756 -0.49036568 0.5368721 0.08749175 -0.33570516 -0.17407046 -0.18047993 0.53415674 0.0371631 0.12263437 -0.30248186 -0.03650965 -0.0031876147 0.47152492
368 -0.049735155 -0.34057626 -0.11374335 -0.03574908 0.12336181 -0.3541874 0.5241332 -0.60935545 -0.8935804 0.55293995 0.32069466 0.04759657 -0.510325 0.4231682 -0.058103375 -0.071156755 -0.53176415 0.64615893 -0.37016144 0.0016291105 0.11355004 0.053026196 -0.0072400426 0.18768972 -0.19502957 0.2704748 -0.47366512 -0.27935806 -0.54368913 0.18294007 -0.18017647 0.16570626
526 0.11957493 -0.37211177 -0.18662238 0.030699203 0.35209745 -0.54574656 0.67915237 -0.33600697 -0.6299289 -0.22477785 0.005730031 -0.040210884 0.32096943 -0.30178726 0.24254367 0.055040725 0.41715547 -0.10067526 -0.5296434 -0.26257342 -0.2133693 -0.025332645 0.14587598 0.34673378 -0.2829743 0.092256315 -0.59105307 0.03567046 -0.637339 0.22506756 -0.38929358 0.088234365
103 -0.45856127 0.06595102 0.16145541 0.15120688 0.20556128 -0.578925 0.2442351 -0.470849 -1.114691 0.4267958 0.2834873 -0.22089009 -0.49617735 -0.025334815 -0.014482373 0.021293044 -0.12372256 0.39641196 -0.3790067 0.10237863 0.13647237 0.060017608 0.036836594 0.12330453 0.025304489 0.32277447 -0.46939763 0.1067172 -0.46505928 0.26241714 0.19791275 -0.0255866
529 -0.0023560473 -0.59916896 -0.58639216 0.0561701 0.61571497 -0.5224346 0.05747047 0.35243744 -0.5299534 -0.12425918 -0.47849575 -0.15055563 -0.41868895 -0.22716686 0.17555298 0.10292974 0.6140243 0.2801891 0.54389024 -0.36010048 0.22835606 0.8949744 -0.055733215 -0.05261142 0.09119471 0.46506268 -0.07227538 -0.23716785 -0.42193952 -0.6870998 0.06396328 0.21622632
245 -0.5000313 0.12615165 0.075303935 -0.32404786 0.22611257 -0.16322027 -0.26751637 -0.22839053 0.111950286 -0.66050464 0.3234237 0.2796069 -0.2160792 0.12274999 0.5244277 -0.036435 0.103138134 0.22874397 0.38216728 -0.7029939 -0.07815988 -0.44073677 -0.13925043 0.14789437 0.09394226 -0.11576383 -0.11182246 -0.22122635 -0.9810344 -0.0040075197 0.068014346 0.44481066
265 -0.25006944 -0.56889415 -0.7122026 0.24413694 0.3376053 -0.49154168 -0.2557135 0.019142704 -0.4708062 -0.21630724 -0.0673618 -0.0276538 0.07585293 -0.22327368 0.16967265 0.53690034 0.67225313 0.62845176 0.34127346 -0.17834109 0.094439276 0.9024516 0.33808497 0.5644609 -0.05650696 0.7750377 0.10991217 -0.43031827 -0.2163942 -0.20877346 0.111253835 0.27623823
231 -0.2729864 -0.47139156 -0.84543955 -0.15872706 0.4452976 -0.25423744 0.33664316 -0.23009352 -0.45304 -0.006867806 0.5537485 -0.018121516 0.050517038 -0.34557006 -0.13308445 0.22272435 0.056840025 0.12809889 -0.71466374 -0.035900924 0.11207608 0.33766165 -0.0054859864 0.009260416 0.14983736 -0.3974712 -0.5846924 -0.20490563 -0.7383651 0.54963976 -0.18595947 0.1456574
162 -0.28805953 0.23619115 -0.025633968 0.20660834 0.17684074 0.07023743 -0.10551833 0.6189542 -0.6505988 0.1688145 0.290593 0.1937535 -0.6591048 0.022524117 0.21082146 -0.3884139 0.04721825 0.31407052 0.14611617 0.08357071 0.1119175 -0.5374223 -0.28106397 -0.049937658 -0.6421052 0.5249691 0.0079036355 0.15274389 -0.13589548 0.1664934 0.1852505 0.19581185
661 0.04005845 -0.3848226 -0.3239944 0.27638814 0.40362504 -0.5403275 -0.29253972 0.21436587 -0.17610681 -0.34824243 -0.3780682 0.11784974 -0.08819232 -0.45595586 0.5230338 0.38232702 0.30697784 0.7275504 0.3051966 -0.003021238 0.29329374 0.48090538 0.5345797 0.39871636 -0.4076708 0.63373625 0.14375415 -0.33515 -0.07523583 -0.20551507 -0.27827844 0.20766327
36 -0.77111495 0.02908452 -0.15133035 -0.025193812 0.13582772 -0.33726668 0.18037748 -0.7140652 0.0402404 -0.38087922 -0.28741384 0.55751467 -0.14336136 -0.19563618 0.38744107 0.32378757 -0.24688002 0.027152805 0.18782032 -0.23633958 0.15852517 -0.39338937 -0.6482964 -0.04122767 -0.37560213 0.22347006 0.25761303 0.14036986 -0.4668461 -0.08965637 -0.15246983 0.22821416
612 -0.3545368 -0.18945426 -0.15285842 -0.012437955 0.21212043 0.51658183 0.11797185 0.12554196 -0.3607581 0.5617629 0.47358498 0.2993912 -0.3284335 -0.03237211 0.64161325 -0.5626726 0.5054746 0.53650403 0.22284782 -0.07826957 0.45305115 -0.16246332 -0.17597313 -0.16158889 -0.7339239 0.24682426 0.52936375 0.36724827 -0.15106773 0.14344142 -0.08244887 -0.044191364
361 -0.68273073 0.25224683 -0.16105668 0.24897362 0.15961365 -0.29203188 0.0013103088 -0.27572212 0.107104175 -0.7104625 0.01089958 0.43996015 -0.2342089 0.21035749 0.46558234 -0.021656381 -0.10521421 0.17162517 0.40796512 -0.5645327 0.112593375 -0.5373838 -0.26977184 -0.08610482 -0.21164465 -0.19450828 -0.11304463 -0.15100046 -0.96191585 0.09477574 -0.038865414 0.17864794
932 0.032193948 0.036356665 -0.0051356014 0.14522071 0.2975887 -0.31942227 -0.36415946 -0.080282584 -0.23674305 -0.046820506 -0.15101257 -0.057071544 -0.033204563 -0.21994261 0.16380335 -0.22582377 0.3523082 0.020993147 -0.098229215 -0.3452141 0.4876502 -0.07563335 -0.56419647 -0.18661305 -0.59111947 0.15925784 0.0882197 0.018396685 -0.05387364 0.24220279 0.1434501 0.2924905
356 0.13756025 -0.0021164946 -0.42485204 -0.4465975 0.2801036 -0.20901564 0.4365405 -0.08363013 0.21328646 0.24337377 0.008681683 0.042326353 -0.5452083 -0.19227089 0.51548004 -0.41806802 0.009848268 0.8850433 0.24235685 -0.20901756 -0.034326617 -0.055349138 -0.19293226 0.137621 -0.47617766 -0.13391018 -0.10206473 -0.057300627 0.12823322 -0.032652736 0.025586639 0.5102944
60 -0.6988535 0.13917845 -0.08135689 -0.039541382 0.1298604 -0.5467092 0.19678487 -0.11143093 -1.1026824 0.24141003 0.41676253 -0.13804312 -0.2781484 -0.07039535 -0.12459809 0.18923347 -0.11785719 0.26926503 -0.41013426 0.03048125 0.13138331 0.044976663 0.28824693 0.41503486 -0.08687803 0.24067143 -0.6842269 0.2448813 -0.42991507 0.4738855 0.10347768 0.16445625
69 -0.25526643 0.41104946 -0.28892338 -0.10140415 0.5662098 -0.33877563 -0.12519081 -0.0054025752 0.3634827 0.27201414 0.03948539 0.22153822 -0.27199328 -0.36154327 0.5644748 -0.34758338 0.035393268 0.6623557 0.07805399 0.58498335 -0.23989649 0.11868897 -0.39907196 0.37057793 -0.50379217 0.082342476 -0.354489 0.1832937 -0.13129704 -0.4854995 -0.13370551 0.5689591
569 -0.16198981 -0.21333008 -0.28006768 0.28600323 0.76356083 -0.63632077 0.11761222 0.10297379 -0.2014091 -0.21598819 -0.032977033 -0.007400806 -0.20148057 -0.32532585 0.17413464 0.5471326 0.8442375 0.9296692 0.40723726 -0.28959224 0.1738389 0.53369325 0.32617903 0.354075 0.10446578 0.6090666 0.6032684 -0.39870697 -0.3096385 -0.22257368 0.059867524 0.36673388
318 -0.37644586 0.040459517 0.039136913 -0.25533113 0.16501579 -0.25676757 -0.25019616 -0.11731599 0.14069726 -0.5332906 0.33234355 0.38142446 -0.33177856 0.039221715 0.5651146 0.050291475 -0.08003275 0.14434524 0.11044138 -0.54126656 -0.27499735 -0.3606354 -0.06424326 -0.25486398 -0.15156426 -0.11271074 -0.24666044 -0.15516143 -0.82099676 0.1057968 -0.2533631 0.42315546
143 -0.087548286 0.14522754 -0.4761402 -0.47632885 -0.00932085 -0.23319592 0.14643113 -0.32764155 -0.04179636 0.34920138 0.071893394 -0.2300129 -0.019071829 -0.25463545 0.64008856 0.32165384 -0.25512987 0.323007 0.13236499 -0.36422175 -0.29660615 0.24270801 -0.22150856 0.31987366 -0.95281225 -0.238725 -0.3555881 0.185299 -0.1501926 -0.06937693 -0.16394705 0.32368195
495 -0.18215369 -0.09653728 -0.015961025 -0.24907373 -0.2251294 -0.7498208 -0.16617818 -0.4221475 -0.028319538 -0.123895444 0.26729363 0.16384026 -0.16160466 -0.59333664 -0.011632462 0.1734095 0.028998725 0.37042022 -0.2956372 -0.23977073 0.23268127 -0.116332844 -0.03960656 0.31762683 -0.04724495 -0.0030244214 0.3100288 0.02780285 -0.045090944 0.17298421 0.42995432 0.5968519
305 0.413354 0.29147363 -0.47749895 0.4585934 -0.2446804 0.20535357 -0.0032420096 0.11390691 0.06720288 -0.20996961 0.3942047 0.16485038 -0.617683 -0.83158743 0.36838388 -0.3676594 -0.3355655 -0.40106833 0.30880272 -0.33342704 0.4427859 0.2119879 0.1389997 -0.20216347 -0.12682857 0.6718754 -0.3024206 0.086973555 -0.28379396 0.17852704 -0.17272991 0.4811894
441 0.017063804 -0.3327927 -0.27940723 0.26811248 0.59684134 -0.3589157 -0.083523855 0.2907772 -0.49009475 -0.18070464 -0.48543984 0.13986495 -0.032770474 -0.29903632 0.4266043 0.1495073 0.3756734 0.638587 0.3611117 -0.30628476 0.1364849 0.4435952 0.07815379 -0.1696482 -0.20980503 0.42497072 0.21123204 -0.49005896 -0.16594438 -0.17564945 -0.014225791 0.2490877
342 -0.4506607 0.18541728 -0.55452645 -0.31106153 0.41468912 -0.48630896 -0.13023461 0.022281002 -0.6166946 -0.02021143 0.5182809 -0.112865396 -0.21848804 -0.6157835 -0.2620477 0.13077697 -0.11137738 0.07975555 -0.6868701 -0.057815257 0.12623267 0.25092873 0.11131896 0.43386173 -0.20314692 -0.27720258 -0.15633973 0.17080425 -0.591413 0.43258816 0.17058374 -0.28121474
161 -0.13337855 -0.3050748 -0.4498419 -0.014678557 0.31615844 -0.61684245 -0.2646392 0.08214907 -0.2908641 -0.32617646 -0.085658565 0.30892098 -0.057168003 -0.464277 0.13210672 0.34889284 0.6015937 0.86153084 0.39313957 -0.07653431 0.04320244 0.361374 0.04110303 0.42181075 0.034525894 0.59662217 0.42430082 -0.3371838 0.056299318 -0.03886543 -0.09137611 0.35122448
42 -0.2903256 -0.26571438 -0.12764123 0.014947369 0.0090116905 -0.36479667 -0.33330154 0.05738306 -0.052249864 0.2655326 -0.04111688 -0.03898458 0.15780216 -0.6458179 0.49557006 -0.28520936 -0.18160626 0.44472262 0.0018644362 -0.36201608 0.09479643 -0.05452337 -0.34726515 0.011146984 -0.08738369 0.050866093 -0.08573421 0.3305272 -0.016968463 -0.022470135 0.07165476 0.33018926
47 -0.7603117 0.17371312 -0.1650735 -0.077034794 0.18441601 -0.31118035 -0.12806135 0.18229283 -0.007871164 -0.77354753 0.2492491 0.18007419 -0.2731855 0.3096166 0.67077684 0.12892425 -0.10041067 -0.028298475 0.240918 -0.5753237 -0.09987272 -0.07861136 -0.24125925 -0.1979092 -0.17875805 -0.22745195 -0.29049575 0.1876913 -0.92222315 0.17720564 0.086166136 0.05405183
653 -0.9373698 -0.7334358 -1.0593574 0.26292324 1.184194 -2.2537658 0.16812776 -1.035639 -1.3770581 -0.5686751 1.9440732 0.18296285 -1.4951179 -2.149293 1.2448851 -1.5024954 -0.17537017 1.3689572 -0.2896981 -1.4635752 1.2469317 0.5084298 -1.4432696 0.39486444 -1.7373228 0.889714 -0.6316351 0.6939433 -1.042709 1.7581555 -0.007064627 1.6913706
731 -0.8194987 -0.9214255 -0.97399867 0.19221275 0.80614054 -2.2185695 0.545306 -0.7213339 -1.3476949 -0.5530571 1.7259711 0.4032278 -1.398921 -2.4305496 1.3998108 -1.5598689 -0.21599229 1.2701991 -0.38758308 -1.4565501 1.2810599 0.24850722 -1.4459838 0.5690823 -2.0123525 0.93084276 -0.76025516 0.91806436 -1.0376825 1.7845399 -0.09020881 1.7973304
772 -1.005801 -0.94198203 -0.97894996 0.2775801 0.96852535 -2.1730878 0.29205206 -0.8859887 -1.1979841 -0.6687707 1.8473563 0.3371549 -1.5683445 -2.2113686 1.2698973 -1.4876148 -0.117589094 1.1771486 -0.39358756 -1.4376465 1.4717046 0.52221054 -1.4379108 0.5391896 -1.9747876 1.0037062 -0.7829614 0.83667517 -0.9989067 1.6256595 -0.12959285 1.5265148
808 -0.23420174 -0.7839044 -0.6740185 2.61243 -1.1048669 -2.5533936 0.24603029 -1.6907681 -1.471428 2.1019049 1.6919878 0.7489572 -1.6308392 -1.2098498 3.366535 1.3798028 -2.3990636 -0.59465563 -0.41953173 -2.6856806 0.5205138 0.7318847 1.5744456 -0.3153208 -3.0689507 -0.4103319 2.0991309 1.1411895 -3.5211914 -0.34611434 2.0914903 3.3769896
633 -0.9181616 -0.8872623 -0.8501814 0.2458751 1.04937 -2.2362702 0.32461694 -0.84958696 -1.2799019 -0.5679813 1.8591557 0.2961107 -1.4862047 -2.3531094 1.222057 -1.4241327 -0.04286001 1.2466038 -0.21453407 -1.5367932 1.426951 0.46635458 -1.4894648 0.48494637 -1.87215 1.0517765 -0.8347783 0.8524581 -1.0367428 1.7635962 -0.08794107 1.5971099
660 -2.0570793 2.5214818 -4.3628607 0.9730366 -0.2183386 -1.0698109 -0.7666817 1.3892719 -3.0357378 -2.1194358 0.5258308 3.2407546 -1.5893031 -1.5016395 1.8751693 -2.1069279 -0.6597297 2.290917 -2.3851087 -2.4774177 2.2258992 -0.61200607 -0.2035954 -0.07036687 -2.016028 -1.5176582 0.39128515 -0.6977154 -2.0371733 -0.81953543 1.5648352 -0.0420516
703 -1.0968448 -0.8697069 -0.9537196 0.29810116 1.0746589 -2.247047 0.4307733 -0.8831032 -1.2039257 -0.55856776 1.9027193 0.3861533 -1.4962898 -2.271518 1.1266056 -1.3021951 -0.08340058 1.2796763 -0.2876767 -1.379824 1.2950402 0.43426573 -1.4129122 0.39727914 -1.927006 1.0876998 -0.8620045 0.953471 -0.94403285 1.690693 0.014229661 1.7100341
658 -0.9946368 -0.900879 -0.89814204 0.17673872 1.1468968 -2.2104578 0.34586978 -0.92626727 -1.1580557 -0.47618383 1.9271942 0.33422548 -1.4681128 -2.3330173 1.206014 -1.4259777 -0.0761458 1.2610549 -0.2530691 -1.4871905 1.3699163 0.600145 -1.4350277 0.49519855 -1.896915 1.0452306 -0.8787672 0.9732739 -1.0197085 1.6663138 -0.044279963 1.6468105
798 -2.387119 0.13474385 -3.9245958 -0.48502144 -2.7426293 -1.3890926 -0.65101457 -1.7330935 -1.0686204 0.17351203 2.2731752 0.85188425 -0.92617816 -1.9687427 3.9363048 1.067295 -0.70416826 0.23758036 -2.1682074 -2.2445586 2.524816 -1.5975578 -0.55303013 1.5411173 -1.6889149 3.1518676 0.5509684 1.803334 -1.6107525 -2.0740263 -0.32690486 0.10533417
746 0.26928893 0.043041296 -2.8752558 0.99142355 -0.06306014 -1.726333 -2.409269 -2.272067 -2.0536814 0.047311105 1.5090202 1.7558012 -0.6966588 -0.4545761 4.326592 -1.3238112 -1.641197 -0.031683102 -2.8934116 -0.9141069 2.1217928 -0.7377111 -0.3087488 0.8040387 -0.8651922 2.8258884 3.4055889 1.5549784 -2.7698212 -0.4165322 -1.1015965 1.0863385
684 -2.9577494 0.21543138 -2.1995506 1.1397258 0.36086354 -1.3667904 -2.937032 1.0539885 -2.3453486 -0.045830302 1.1049027 0.4922389 -2.0755367 -2.7311985 4.8603816 0.5789486 -2.0381615 0.9561451 0.3959808 -1.5609102 2.6489425 -0.656506 0.9905904 0.6710658 -1.8887286 0.35994652 1.2997802 0.17800014 -2.1859663 -1.4463289 2.1849227 -1.0456368
744 -3.311776 0.8510872 -3.8718743 -1.5795643 0.65713966 -1.1941878 -2.4820194 -1.5877013 -3.2669 -0.37551838 0.9352985 2.9991853 -1.30489 -0.11844073 4.288629 -2.4191186 -1.9466136 0.7651305 -1.6956533 -0.1991798 0.9333541 1.0128372 -0.115583725 -0.044439543 -0.38226196 -0.18513319 1.2349712 1.2610394 -1.9429326 0.429168 2.6677542 0.82695633
732 -1.9280012 1.6439091 -1.1558152 -1.4437634 1.2350211 -4.2430677 -0.9223996 -0.6407023 -2.9184823 -2.216012 0.036377277 0.292471 -2.030476 -0.8299962 4.1744103 -3.8283446 -0.18579677 1.8133034 -0.26751077 1.3834656 0.026010627 -0.5517314 0.50582236 0.7738105 -0.4858286 -0.19819395 2.6669743 1.0261747 -3.1801584 -0.2392944 0.7679585 0.5059783
648 -1.0449233 -0.9761547 -0.96075904 0.24677975 0.95215535 -2.1138675 0.2398257 -1.0071903 -1.1910019 -0.40970603 1.9086467 0.44820836 -1.4091814 -2.2745566 1.3089805 -1.4774401 -0.16732909 1.1726793 -0.2244497 -1.516837 1.3766406 0.4791896 -1.458338 0.42862648 -1.9436553 1.0061852 -0.8126415 0.8730068 -0.9924022 1.6397761 -0.1549126 1.7072899
580 -1.6009396 -0.50937545 -2.225431 2.403832 -1.3551216 -3.2771075 -2.102075 -2.5050666 -1.858414 0.98095196 0.2785678 1.0953325 -1.1851788 -2.1221554 0.7481816 0.076351024 -1.3977884 1.6255592 -2.7097294 -0.5563101 -1.9877955 -0.006400279 0.032995705 0.37982112 -1.9718043 1.2985915 1.8328259 0.52869976 -3.362948 -0.6051962 2.6519744 3.5236056
670 -0.88068146 -0.75117505 -0.81987596 0.20694901 0.916568 -2.3360398 0.12489979 -1.0499878 -1.1274297 -0.42214462 1.8990525 0.1653051 -1.4033666 -2.153086 1.2599071 -1.4335805 -0.26048273 0.95070195 -0.32682252 -1.6197722 1.4655491 0.54330647 -1.4191482 0.7842404 -2.044911 1.2592598 -0.7122549 1.0904571 -0.98524725 1.8133357 -0.05403234 1.7099937
675 -1.0484767 -0.80459815 -0.7629962 0.08926748 1.1950567 -2.179958 0.36303797 -0.75764775 -1.1553588 -0.54792887 1.9866979 0.47451574 -1.602286 -2.2859263 1.4117802 -1.2863569 -0.11562653 1.3147458 -0.44286892 -1.3724782 1.4162233 0.2967848 -1.3902358 0.6126184 -1.904861 1.16416 -0.8420711 1.0790783 -0.9170617 1.7710286 -0.118607745 1.6396573
691 -1.0322099 -0.814586 -0.89292574 0.268582 1.0301332 -2.2533336 0.4196206 -0.87967706 -1.2537963 -0.5287845 1.9217404 0.34225017 -1.5115491 -2.227252 1.1828996 -1.4018425 0.029567834 1.281261 -0.34461933 -1.5528208 1.4178922 0.56741124 -1.5291259 0.5485203 -1.8562702 1.0655152 -0.80654055 0.9068143 -1.0019644 1.7131567 0.03610734 1.6112049
711 0.51499844 -0.35366654 -2.792766 0.09960887 -0.68898654 -1.1599346 -1.9428693 -0.24082918 -2.2965848 -0.16499804 1.7100074 3.5134857 -1.7309667 -0.95350736 3.4479492 -0.7811403 -2.040323 1.7495527 -0.5783932 -1.5157137 1.0308585 0.24011706 0.16274871 -1.1847804 -1.0544727 -0.64617246 1.5262759 0.82214147 -3.7260137 -2.7588425 1.2990158 2.1606278
427 -0.47048527 -0.18607159 -0.13754539 0.49119076 0.48140395 0.27029026 -0.46732944 -0.3698493 0.06589577 -0.21543503 -0.067936234 0.053793494 -0.18302117 0.11643855 0.5634821 -0.08840694 0.13879651 0.4870714 -0.108705685 -0.5463931 0.4715288 -0.14923301 -0.39916644 -0.24574296 -0.3337172 -0.123884186 0.109965555 -0.09861393 -0.44829637 0.38321957 -0.08966055 0.07319826
464 -0.36009923 0.12486553 -0.2517604 -0.09591141 -0.3359066 -0.9290506 -0.13245304 -0.04527411 -0.23799229 -0.7719537 0.07105713 -0.4017561 -0.032388598 -0.1495508 0.560795 -0.16126801 0.013273014 -0.012139791 0.1798383 -0.24951388 0.017747723 -0.153567 -0.124298915 0.057213895 -0.271565 0.13099368 -0.38060534 0.5859222 -0.43597016 -0.22558534 -0.31671292 -0.33850014
167 -0.19010602 -0.0551369 -0.45982522 0.15553157 0.30499303 -0.37811524 0.19012211 -0.34302318 -0.3930943 -0.12132265 0.5117011 -0.20243466 -0.15371063 -0.34987924 -0.10157741 0.55701596 0.042621203 0.11658569 -0.5539159 -0.5225136 -0.040640432 0.30952016 -0.19133739 0.25198668 -0.2392847 -0.21208481 -0.53431755 0.49219555 -0.44986367 0.31272784 -0.19504909 -0.22859089
950 -0.1872155 -0.46267354 -0.12081889 0.07782569 0.4328351 0.3429825 -0.39398947 0.21450867 -0.24562377 0.06417224 -0.06778389 -0.18650745 0.13863719 -0.1069386 0.51908165 -0.042732455 0.120639764 0.41596323 0.0755029 -0.42143503 0.9928509 0.41881636 -0.48261786 -0.4167051 -0.3003049 0.3434333 -0.56190324 -0.5561996 -0.104421005 0.065004006 -0.15908127 0.22149283
151 -0.65167004 0.05683385 -0.3053662 0.70381516 0.17676635 -0.38056666 0.18733971 -0.8507953 0.26740927 -0.45649302 -0.030429251 0.16879272 -0.24190053 0.25568208 0.20518017 0.042672142 0.060598634 0.38509837 0.22108738 -0.40507126 0.15832631 -0.35256317 -0.31366062 -0.3596879 -0.50850636 -0.21248433 0.043148972 -0.017049368 -0.6439897 0.12212483 -0.0349158 0.1022061
177 -0.8270684 -0.716335 -0.34231952 0.01403212 -0.13581951 -0.5083367 0.103738904 0.1444871 -0.5045254 0.2846659 0.5862826 4.2565325e-06 0.34072623 -0.098097645 0.13019945 0.2356241 -0.34940583 -0.08356415 0.03325665 0.39593646 0.32729727 0.38475367 -0.11181531 0.01734988 -0.20033062 0.028248105 -0.55629444 0.15721948 -0.56165284 0.18452981 0.30082935 0.29551595
351 -0.087312244 -0.21861099 -0.33869016 -0.35798678 -0.060533583 -0.46288738 -0.3080437 -0.20458966 -0.53961414 -0.09577271 0.4706526 -0.03469415 -0.45780888 -0.5670427 -0.30953938 0.38011548 -0.18238401 0.40300888 -0.22686492 -0.024894163 0.2501847 0.07018858 -0.16131942 0.6609277 -0.014740894 0.1298958 0.14727049 0.27299047 -0.42123142 0.4239882 0.27020332 -0.13327762
236 -0.019559033 -0.31627166 0.21876381 0.26010415 0.22802424 0.004201831 0.06970056 -0.06159827 -0.030408854 -0.2567663 0.51485837 -0.2751118 -0.20328328 -0.6077527 0.44789252 -0.42557636 -0.17787908 -0.06465899 0.08979151 -0.36935562 0.1108207 -0.05907701 -0.4104406 0.3419439 -0.32438248 0.61568815 0.39581183 -0.73834664 -0.12370545 0.044419836 0.45611626 0.31524345
525 0.12460582 -0.4638218 -0.32719398 0.5771908 0.6351729 -0.5767712 0.014593733 -0.032818913 -0.4577425 0.0039219665 -0.45644692 -0.10623235 0.120253846 -0.17829373 0.42027742 0.1584949 0.68614656 0.31684467 0.25071234 -0.26949465 0.1928722 0.90352416 0.079315 -0.058958583 -0.0356705 0.64996535 -0.12917762 -0.57303315 -0.66806376 -0.5655633 -0.20044112 0.20264432
79 -0.49092585 0.45072836 -0.25295484 -0.13481373 0.48162615 -0.64148635 0.05187917 0.4931824 -0.29753947 -0.418842 0.3166051 -0.0652904 -0.053574096 0.52430826 -0.13254163 -0.10679685 -0.0994726 0.026732825 0.36342785 -0.60723925 0.04512597 0.2733846 -0.32281414 0.16807897 -0.6295509 -0.00815493 -0.29253596 0.3114989 -0.17709436 0.43733662 -0.26924527 0.24118535
486 -0.0069882334 -0.15100719 -0.09683496 -0.507194 0.49952602 -0.36470106 0.09343551 -0.2904709 -0.08833317 -0.22936688 0.4073971 0.19966914 -0.18914686 -0.267298 0.34392536 0.3996755 -0.14961582 0.21250275 0.33272436 -0.055010434 -0.21926302 -0.38052347 -0.48409328 0.04231601 0.09158456 0.42977577 -0.5279148 0.041219324 -0.578256 0.035181277 -0.035626084 0.019873865
263 -0.3053483 -0.00052969885 -0.071864545 -0.4780633 0.0062259226 -0.35418904 -0.15209621 -0.2572995 0.017182618 -0.7563913 0.3408503 0.4039805 -0.21232128 0.2867801 0.44228545 -0.025421252 -0.1185172 0.1782007 0.15621395 -0.7202404 -0.20027763 -0.23125458 -0.10257206 -0.26927644 -0.079052806 0.06228006 -0.21419114 -0.152163 -0.7326812 0.20960382 -0.07195066 0.3463957
430 -0.10578276 0.06716595 -0.38265932 -0.024949403 0.6162412 -0.64392596 0.15020263 0.029009748 -0.102704585 -0.13270423 -0.34006888 -0.032522622 0.17099644 -0.57241046 0.41306585 0.11288321 0.5145451 0.038482845 0.43786 -0.33589512 -0.0023935414 0.3732946 0.56084365 -0.060108796 0.103014044 0.7544728 -0.091235064 -0.07342007 -0.22496663 0.14519463 -0.078450456 0.23709568
531 -0.25885844 0.11720095 -0.29487416 -0.1996218 0.17466614 -0.62416804 -0.32638708 -0.11121623 -0.08221123 -0.6552989 0.12575838 0.15014558 -0.030791866 0.3487437 -0.0062925844 -0.29411387 0.04284317 0.19554535 0.5681994 -0.6340544 0.21011284 0.24595395 -0.4329921 0.36827224 -0.40010834 -0.09658179 0.13375106 0.19702852 -0.056764703 0.6236153 -0.4335469 0.2884665
320 -0.31627607 -0.38143152 0.08424033 -0.00025902907 0.17616868 -0.6426554 -0.10949163 -0.11059757 -1.11015 0.2966721 0.23269725 -0.03768026 -0.72398555 0.02191517 -0.25036672 0.07097452 -0.53341085 0.22035176 -0.0350573 -0.10405221 0.06943987 0.36975178 0.17870708 0.225242 0.07913069 0.3855776 -0.54861975 0.24881865 -0.57103384 0.225825 0.25314555 -0.23691708
261 -0.52802265 0.0050471686 -0.348999 0.7377432 0.29810083 -0.21043345 -0.17913441 -0.7053265 0.39276278 -0.37538272 -0.036687024 0.23259522 -0.34487423 0.06451407 0.27961162 0.27445388 0.17258196 0.16124555 0.21243362 -0.6012941 0.1869771 -0.44228712 -0.39984763 -0.26053455 -0.33167976 -0.08544088 -0.21282342 -0.09069468 -0.7000545 0.25385484 -0.3897498 0.08971551
549 -0.13073179 0.14705306 -0.10374354 0.3269426 0.31288722 -0.5757207 -0.102819905 0.40243328 0.098347925 0.27849925 0.036203176 0.26043507 -0.032909796 -0.1176902 0.34716055 -0.24671413 0.0743569 0.8023902 -0.18913633 0.33900285 -0.17844167 -0.08770447 -0.23569849 0.43038067 -0.22625619 0.45911252 -0.32545692 0.29789034 -0.16842964 -0.43314227 -0.08107493 0.7975425
458 -0.0024528778 -0.36803478 -0.31999978 0.1962791 0.10224841 -0.45607132 0.24657124 -0.20875172 -0.22049846 -0.07212896 0.22659199 0.3095263 0.016382003 -0.3589816 0.4733253 -0.21261977 0.3277713 -0.27136272 -0.24422589 0.30775118 -0.24557886 -0.41620433 0.04154287 0.2921743 -0.53813696 0.4247512 -0.35391977 0.16510648 -0.43909207 0.571631 -0.64030164 -0.1166766
357 0.29843196 -0.16193086 -0.42613706 -0.45732003 0.32248956 -0.27492464 0.14897138 -0.22919227 0.30542696 0.3071755 -0.009617519 0.009800345 -0.36682555 -0.3413368 0.5794689 -0.41852045 -0.15137196 0.5947962 0.15703228 -0.2232598 -0.14840785 -0.21977445 -0.031329866 0.22652927 -0.54372585 -0.3024196 -0.40123454 -0.052806295 -0.13857108 0.09378834 -0.21746145 0.44253063
707 -0.2627968 -0.2353087 -0.09475687 0.49420074 0.29320207 -0.61880004 -0.24198152 0.24684402 -0.483776 -0.33556277 0.110768445 -0.09572468 -0.0040900614 0.0024651128 0.56438285 0.40960723 0.4725415 0.93104005 0.19290328 -0.027088003 0.4667456 0.9661326 0.462955 0.04278047 -0.031043705 0.6800122 -0.26731604 -0.3493646 -0.117611684 -0.47774434 -0.19085199 0.12057583
460 -0.11672485 -0.2756769 -0.11687324 0.45309466 -0.018816521 -0.50610745 0.065644436 -0.07604437 0.3068924 -0.014210006 -0.1722454 -0.3163363 -0.17533594 -0.42765018 0.6376819 -0.50305855 -0.26001376 0.2678306 -0.26143032 -0.005911051 -0.025199806 0.5816608 -0.4777532 0.4430346 -0.11016749 -0.1852218 -0.15582444 0.05972385 -0.22594857 0.47716933 0.51298326 0.22338592
452 -0.11951684 -0.3779966 -0.615722 0.16201048 0.5186378 -0.44534427 -0.14322788 0.31470656 -0.34567487 -0.28768548 -0.25837135 0.2525734 -0.34969082 -0.2827574 0.05204552 0.13181302 0.81589425 0.62851554 0.3694428 -0.38998136 0.0845367 0.75822365 0.52699643 0.49299672 0.022379035 0.4436267 0.22791713 -0.46286905 -0.37257704 -0.28343365 -0.289541 0.4374624
504 0.08766893 -0.3124906 -0.35666254 0.2922045 0.95243293 -0.62684315 0.15523773 -0.037166882 -0.25086135 -0.05623468 -0.6236708 -0.28117386 -0.08395987 -0.22437572 0.15058441 0.072419 0.64128613 0.3650723 0.3076002 -0.15865403 0.19185789 0.6753746 0.33892477 -0.11894318 -0.23467553 0.595731 0.19901581 -0.3624125 -0.69666433 -0.30709425 -0.3131407 0.28988537
145 0.106423594 -0.25081593 -0.16750346 0.0911938 0.257572 0.09395988 -0.5911512 -0.26872215 -0.17327109 0.052928273 0.10242606 0.1968962 0.073931664 -0.21770562 0.54255384 -0.66323954 0.014391982 0.5500504 -0.02088236 -0.27547848 0.19879672 0.13971558 -0.2938102 -0.18811063 -0.10219406 0.115254365 0.20518431 0.1594206 -0.18343885 0.3965546 0.48569337 0.2513316
201 -0.39854428 0.07276156 -0.23167565 -0.01538064 0.51605624 -0.48713762 0.3856029 -0.010798454 -0.13522102 0.36992493 0.5430422 -0.14569564 -0.03640852 -0.62822837 -0.018587302 0.5187 -0.19339968 0.115425155 -0.029427115 -0.6128715 -0.22698347 0.17625892 -0.1931822 0.0465495 -0.47889653 0.05541591 -0.32559818 0.34029496 -0.28907803 0.00417132 -0.1202119 -0.2788467
443 -0.7855099 -0.004270141 -0.23177022 0.25425014 0.21988441 -0.16007136 -0.140174 0.04941665 0.10636106 -0.80026704 0.3532983 0.21069317 -0.13177234 0.38991347 0.5341889 0.124153696 -0.32974818 0.23982039 0.21817054 -0.7977438 0.0071998737 -0.29996943 -0.2240222 -0.279522 -0.13712119 -0.1828193 -0.057179313 0.030921856 -0.9825247 -0.045623366 -0.02447405 0.2473136
339 -0.90778285 0.38381177 -0.15503286 0.23620783 0.106435604 -0.18639876 0.038505767 -0.48483318 -0.120803155 -0.6184662 0.044834204 0.19782852 -0.29843855 0.3243563 0.21375999 -0.24646166 0.105897844 0.039869796 0.4258047 -0.54608035 0.10681766 0.0056567495 -0.47171378 0.2360141 -0.1678121 -0.32492054 -0.09093716 0.23140296 -0.90084887 -0.07147994 -0.23164935 0.08561038
306 -0.23087461 0.47161904 -0.14495547 -0.09191282 0.61558104 -0.101856075 -0.14503556 -0.10894348 0.0034811704 0.7791216 0.09869917 0.32869214 0.21994303 -0.36203775 0.4655384 -0.00045240056 0.13223235 -0.01717682 0.19624162 -0.02561785 0.10048379 0.015992744 -0.3458146 0.91757506 -0.42884168 -0.1521015 -0.03029229 0.0724415 -0.72628707 -0.2053089 -0.04419003 0.790773
194 0.61245686 0.22448173 -0.38980162 0.61313117 0.07040694 0.33998185 0.2395828 0.032846663 -0.037853193 -0.13721979 0.6680174 0.28063172 -0.31663382 -0.51439106 0.29144877 -0.40820616 -0.38581172 -0.038886394 0.27630058 -0.4429631 0.48765454 0.46164116 -0.14041863 -0.15788838 -0.027955139 0.7373278 0.23425622 0.043759555 -0.38103965 0.26622406 0.013824404 0.522174
10 -0.33926013 0.48997483 -0.24452366 -0.23245119 0.42707926 -0.24801302 -0.16049914 -0.47264 -0.16180116 0.121397756 -0.2350662 0.52123255 -0.052961007 -0.23548663 0.68210065 0.16564557 -0.09107558 -0.053617403 0.23420288 -0.060272194 0.11677253 0.41920578 -0.5677142 0.33116364 -0.5177708 -0.095768675 0.2193571 -0.035345532 -0.07702822 -0.4191195 -0.42785028 0.5700123
520 0.46102047 0.34693703 -0.0011848828 0.16961691 0.12884887 0.3061634 0.25974524 -0.1462417 -0.10844852 -0.38294753 0.49982506 0.40466416 -0.3741058 -0.5643076 0.04299073 -0.420438 -0.1394466 -0.15128133 0.40805337 0.02413908 0.57082725 0.4244794 -0.11455654 -0.18488081 -0.30050075 0.54982394 -0.054820802 0.29117146 -0.4411544 -0.14739345 0.32874683 0.6684914
243 -0.02129301 -0.3304721 0.15174885 0.51886547 -0.06008204 0.123444274 0.050385576 0.08830006 0.10403598 0.10109939 0.4362792 -0.43318576 -0.32811162 -0.8560279 0.66499513 -0.80130213 -0.385677 0.08580221 -0.117561325 -0.6545478 -0.093658365 0.2967863 -0.25923866 -0.0651274 -0.17296825 0.4010012 -0.06774895 -0.64928746 -0.1484145 -0.003499623 -0.04141626 0.20603909
223 -0.6492577 -0.4295247 -0.12283555 0.036150195 -0.23344374 -0.6584254 0.0046102703 0.03095871 -0.07843015 0.21420732 0.46907657 -0.031336196 0.07758268 -0.09357644 0.49321786 -0.037609387 0.1790519 0.36972937 0.11622619 0.12563233 0.6089529 0.23584768 0.14986193 -0.18811496 -0.284924 -0.17466724 0.054224253 0.25471008 0.055068906 -0.082407676 -0.02313427 0.55230343
18 -0.5777197 0.026424365 -0.23886095 0.28936225 0.45417273 -0.7436332 0.18784022 -0.08120514 -0.49568123 0.2518094 0.76688033 -0.41823176 0.12960505 0.1497096 0.24555358 0.24452367 -0.22086877 0.19250447 -0.05170399 -0.07947323 0.2806721 0.08259707 0.17061447 -0.10311979 0.028669458 -0.07784468 -0.12792782 0.014181209 0.030812206 0.23979186 0.058576494 0.70162743
226 -0.5134248 -0.4020634 -0.103151366 0.25824168 0.035617623 -0.71927893 0.11038075 0.14358634 -0.32653233 -0.16719069 0.432571 0.347986 0.2659612 0.011403174 0.3163731 -0.16247049 -0.09501749 0.3930669 -0.10768053 -0.29009542 0.050346203 0.26350635 -0.1373572 -0.088069215 -0.2312769 -0.32256174 0.19469821 0.17253391 0.123027846 0.18933366 -0.027007716 0.44618034
206 -0.2954152 -0.1263465 -0.6060798 -0.050815035 0.53091216 -0.36672565 0.55517 -0.3986083 -0.28300604 -0.0041928086 0.6820923 -0.0606046 0.23835716 -0.66494715 -0.21717659 0.41717556 -0.32525843 0.13471828 -0.5228645 -0.3518841 -0.21245836 0.39109474 -0.32371774 -0.27446985 -0.3017998 0.08546274 0.0048721 0.3013955 -0.54683304 0.0794764 -0.29975313 -0.4050118
158 -0.099792354 -0.2225805 0.10245015 0.19061509 0.11320155 0.21332443 0.13902712 0.13968638 -0.2668462 -0.20563579 0.28055838 -0.25664735 -0.10108789 -0.66476864 0.5193709 -0.609351 -0.22573759 -0.029436609 -0.115426205 -0.68616784 0.32044855 0.32061985 -0.5492337 0.02948812 -0.26045403 0.40135342 0.11163614 -1.094438 -0.09593692 -0.077521786 0.10538739 0.4269719
272 -0.23594387 -0.12069006 -0.65620345 0.012224735 0.6671276 0.13445896 0.06427749 -0.26419574 0.33703876 0.010254392 0.59675276 0.09035397 -0.21527176 0.15436843 0.27604014 -0.90568876 0.2271599 -0.20917568 -0.43171665 -0.075426206 0.27733564 0.17599837 0.251415 -0.03597954 -0.62287706 0.8231658 0.23483075 0.5679544 0.06675408 -0.3358192 0.46599758 0.38281757
59 0.5246936 0.51907784 -0.17775187 0.30835444 -0.0023014583 0.25557372 0.24772029 0.011007115 0.052574392 -0.30649018 0.47364604 0.26020566 -0.59934574 -0.4916415 0.33792257 -0.3559993 -0.100831516 -0.158561 0.12589665 -0.26017457 0.5964853 0.45269462 -0.14964084 -0.35341573 -0.09629302 0.7412133 0.11910057 0.11516531 -0.582307 0.065401584 0.006985534 0.49665195
593 -0.19203833 -0.21365061 -0.36315855 0.08825992 0.4429256 -0.6505726 0.04592143 0.13457894 -0.4090623 0.13262275 0.38256603 -0.098616 -0.61464095 -0.41228908 -0.024152378 0.5329723 -0.3173916 -0.19073308 -0.19595319 -0.48486456 -0.31996405 0.72181296 -0.29653594 0.17340751 -0.6534874 -0.28793347 -0.25796524 0.5816851 -0.39861077 -0.14005035 -0.0035140691 -0.6221698
100 0.45021382 0.1908339 -0.5581528 0.31023374 0.21281463 -1.0164993 -0.1386898 -0.32109022 0.11184649 0.48895895 0.5234475 0.36737758 -0.3545045 -0.018155945 -0.117666446 -0.5746301 0.0857807 -0.16610354 0.23738936 -0.19258146 0.08618295 -0.062171057 -0.3231521 -0.31798077 -0.8354983 -0.095901825 0.27424085 -0.5855128 -0.46866786 -0.16527161 0.42563388 -0.30048385
8 -0.06226028 -0.2995851 -0.4511955 0.17916709 0.86611843 -0.41470876 -0.09411287 0.11726066 -0.3634541 -0.23464228 -0.2965175 -0.03612392 -0.060330067 -0.21981141 0.36298898 0.27062437 0.618187 0.5197899 0.20421399 -0.21992902 0.30122995 0.6997605 0.44610485 0.03530927 -0.21005061 0.41438076 0.1934301 -0.6649639 -0.33890456 -0.32695776 -0.3284098 0.41377097
327 -0.1383064 0.5172825 0.20082103 -0.50270784 0.8621165 -0.38318056 -0.36364695 -0.35476384 0.06447184 0.5100811 0.06279266 0.5679795 0.15918551 -0.54999346 0.508305 0.12531942 -0.23955378 -0.074387945 0.19273928 -0.06940775 0.44476247 0.3252558 -0.48173025 0.4280174 -0.25803405 0.33808494 -0.090396225 0.060957305 -0.46168506 -0.58929163 -0.38949248 0.2662208
515 -0.06089995 -0.58910936 -0.7299481 -0.04615776 -0.07535706 -0.20562728 0.2443311 -0.26494595 -0.22526102 -0.057213865 0.48570177 -0.2322723 0.092215985 -0.4019067 0.43850803 0.2933029 0.03132682 -0.37649596 -0.43094727 0.17317171 -0.25841475 0.28759983 -0.20316443 0.021424584 -0.37313884 0.46177128 -0.4654853 0.4711586 -0.6546529 0.51434666 -0.2030065 -0.19123961
233 -0.22048661 -0.10607371 0.080726385 0.1986798 0.07715384 0.021948798 -0.113009356 0.039225046 -0.4162863 0.026898637 0.17392287 -0.32868874 -0.13796918 -0.40953314 0.71063787 -0.75876 0.005235248 0.21116833 0.26986358 -0.19431388 -0.0330938 0.25945967 -0.44356164 -0.08713123 -0.572084 0.27526852 0.54863435 -0.5947518 -0.08268953 0.14748098 0.25395375 0.03413228
482 -0.44732782 0.34744367 -0.23239039 0.022276293 0.16968988 -0.42078248 -0.10403462 0.22031604 -0.41608173 -0.5677961 0.47864956 0.22916962 -0.56979984 0.55128604 0.6945944 0.2997955 0.093742535 -0.26402202 -0.03096372 -0.19158274 -0.06255455 0.5536646 -0.48371178 0.46141085 -0.7166987 -0.57115203 -0.40737146 0.32310402 -0.101097494 0.027190574 -0.5041928 0.2784414
218 -0.7231716 -0.19360043 -0.14692076 0.23888648 0.04884422 -0.7988022 0.30224994 0.28945994 -0.17665882 0.33426672 0.7053672 0.0010294026 0.011504484 -0.10035137 0.30454406 0.24909909 -0.22571743 0.109828986 -0.056009445 -0.21054856 0.33517087 0.27390385 0.014086128 -0.034911565 -0.44135273 -0.2635901 0.03948006 0.42961615 0.15843365 -0.20973513 -0.22219923 0.5055622
513 -0.29235718 -0.54764974 -0.08838797 0.39776543 0.24395151 -0.13594194 -0.620114 -0.3517208 0.17432971 0.067404486 0.39374954 0.17577735 0.14362058 -0.3391241 0.58052105 -0.42438892 0.11301125 0.286279 0.15648298 -0.16358979 0.10796688 0.2544885 0.10968505 0.30346078 -0.26449177 -0.10245117 -0.058305606 0.25355554 0.14114575 -0.11062871 0.1338747 0.45063123
360 -0.1634649 -0.32091904 -0.1832646 0.5126176 0.31167725 -0.64900255 -0.32894325 -0.1701143 -0.03342958 -0.09337577 -0.11210898 -0.10573552 -0.018996753 -0.4422891 0.043793622 0.24764097 0.7512482 0.33800438 0.65217686 -0.35924476 0.0994254 0.5315799 0.022947242 0.6595995 -0.026972303 0.8818089 0.28640133 -0.62929296 -0.26999342 -0.10484782 0.21109636 0.23500828
25 -0.7817849 -0.13205974 -0.1550872 0.34733388 0.2601837 -0.38106197 0.3442422 -0.3513093 -0.13625154 -0.49291053 -0.54050606 0.69532734 -0.21968685 0.014431154 0.5575698 -0.035919193 -0.5668276 -0.15343669 0.293192 -0.1252426 0.39539957 -0.4736391 -0.3421872 0.17758508 -0.57809174 0.048049368 0.2518541 0.14569558 -0.5147231 -0.21331972 -0.11010502 0.0253114
376 -0.4622148 0.046063367 -0.27903104 0.12078178 0.263044 -0.3288962 0.27595598 -0.5970859 -1.1555152 0.62806255 0.44116527 0.013022307 -0.67979115 -0.009295857 -0.19425577 -0.070769064 -0.076789044 0.35326436 -0.36428437 -0.011631205 0.2626273 -0.048405122 0.16778235 0.12112712 0.059232187 0.19609606 -0.46126145 -0.22002763 -0.33458704 0.2913541 -0.055529177 -0.030730236
