1005 256
160 0.0513116 -0.051623944 -0.0070192553 0.19886386 0.27302673 -0.08305701 -0.05433922 0.0923984 -0.2820608 -0.009759905 0.025006924 -0.024659997 0.010403955 -0.020920506 -0.013824172 0.13576162 -0.05080452 0.0027225628 -0.07534296 0.20999978 0.12834194 -0.02602359 -0.04685637 -0.07918233 -0.09010694 0.066035904 0.09136985 0.25978687 -0.05943556 0.053254303 -0.04787508 0.09333504 -0.033269588 0.043103755 -0.026120836 -0.025652057 0.07505809 -0.060819834 0.00042400695 -0.032738548 -0.022982713 0.089814186 0.07056654 -0.11028401 0.032371048 -0.024148196 0.033891477 -0.11299111 0.120288126 0.013427865 -0.17588769 -0.19939592 -0.10878409 -0.01582581 -0.10324477 -0.04786063 0.07577961 -0.35805225 0.15908252 0.1878926 -0.05515856 0.118553735 0.054034423 0.19246934 0.002262484 -0.12926269 -0.06080378 0.15080352 -0.16981816 -0.08468516 -0.007805123 0.058916003 -0.028775364 -0.23883808 -0.048175402 -0.1538971 0.03375974 -0.04034493 -0.21598962 0.11391545 -0.0518913 0.04901091 0.018315505 0.014094445 -0.09184044 0.26515645 -0.013193931 -0.07385763 -0.051643353 0.14771962 0.089015394 -0.17992239 -0.01953955 -0.07852667 0.078262515 -0.053561896 0.06692838 -0.20457579 0.08332822 -0.10311701 -0.15939383 0.056007672 0.1300882 -0.016396986 0.016242735 -0.0795748 -0.066994004 0.024419572 0.19305336 -0.14909703 0.082209125 -0.13897409 0.082476504 -0.04193314 0.02273449 0.1085203 -0.149623 -0.12613802 0.02848983 -0.1269751 -0.006976524 -0.13202569 -0.0444575 -0.026993452 0.01079655 0.016896218 0.035820693 -0.03791999 0.006476648 0.26522827 0.10870343 0.070482515 0.06339498 -0.15572543 0.101912424 0.08956343 0.111890465 0.12472365 0.1002583 -0.076648496 0.12572224 -0.17421784 0.1389292 0.041038875 -0.27645725 -0.15729633 -0.08921537 -0.021079734 0.17554118 0.039282043 0.09784842 -0.118388444 -0.21928747 0.06968552 -0.109384865 0.12996358 0.23330553 0.15233333 -0.018883899 -0.17950894 -0.04607679 -0.075964354 0.11035992 0.03961447 0.120150454 -0.058947053 -0.074421875 0.2550519 -0.032254428 0.060350455 0.014492717 -0.10829804 0.080535725 0.06995679 -0.03464433 -0.087560005 -0.13484423 -0.020115681 0.15431495 0.033332076 -0.05871426 0.07775527 -0.0001274922 -0.03776551 -0.007265394 -0.031943053 -0.17131591 -0.1390985 0.028235056 0.0023065403 0.20143887 -0.11152612 0.050178245 0.10804982 0.16141412 0.0045404895 -0.009625586 -0.08590054 -0.12088592 0.07141863 -0.09501393 0.11764908 0.04451076 0.1408603 0.04269339 0.039119605 -0.0743845 -0.09203606 -0.0126376515 -0.1242356 0.057123702 0.04144017 0.19979402 0.013932448 -0.06688408 0.02014558 0.24345392 -0.043181878 -0.05488671 -0.072102234 -0.121852815 0.13671544 0.036160253 -0.033633437 -0.073317096 -0.059822183 -0.104708806 0.07598489 -0.04153008 0.023692884 -0.084340736 0.10283 -0.06958826 0.10707695 -0.08476667 0.05518218 0.07418861 -0.025955772 0.062352166 0.040234298 -0.06874511 0.078742646 0.13423985 -0.08118124 0.03056894 -0.15745617 0.11902666 -0.015013723 -0.026472576 -0.17731947 -0.11171236 0.067036614 -0.18832 -0.11345798 0.08960771 0.112239406
86 0.19337119 -0.2195391 0.03304579 0.041700963 -0.0025362263 0.08753422 0.059153106 0.21078299 -0.04731875 0.065837525 -0.017615685 0.095273875 0.015754782 -0.18485247 -0.02864339 -0.09137026 0.052117888 0.006324204 -0.15730977 0.34708187 0.087863125 0.10314458 0.05924208 -0.032985743 -0.0701048 0.09245257 0.15922205 0.15021951 0.1844429 -0.1487005 -0.08686695 0.033922303 0.03460117 -0.18320815 -0.049038228 0.33604965 0.1367144 -0.06949236 0.07649428 -0.019652171 0.05481911 -0.103409074 0.116834804 -0.31079182 -0.017419893 0.11339356 -0.033085402 0.07170668 0.076248035 -0.069891684 -0.052515212 -0.10366593 -0.043017086 -0.055472642 -0.2569486 -0.0021406377 0.06735393 -0.22594348 0.19489425 0.112066634 0.053027753 0.012658356 0.04251556 0.12215265 0.0823796 0.09898397 0.119147405 0.106393725 -0.006816004 -0.013439003 0.033662327 -0.021734463 -0.06565027 -0.13493593 -0.013125754 -0.17751841 0.031844605 0.06787042 -0.006367575 0.055316426 -0.027537588 0.06633743 -0.13859089 -0.19196133 0.079981424 0.44947404 -0.023310604 -0.0068593556 -0.08695365 0.07643654 0.013308145 -0.050119493 0.15587783 -0.20972636 -0.03707132 -0.08788022 -0.11362259 -0.094018474 0.035351913 0.03233623 -0.13531974 0.02419553 0.06613028 0.040594198 0.09888124 -0.1923416 0.11672692 0.18108907 0.28738636 -0.095803 0.02853536 -0.0119483145 0.10058497 -0.04683156 -0.15313493 -0.084075466 -0.00063304673 -0.0459677 0.058281347 -0.06813241 -0.120928 -0.02821035 -0.09195897 -0.06467177 -0.05132045 -0.0293918 0.011706664 0.14214237 -0.055228826 0.09127458 -0.031225516 -0.0085291425 0.19165888 -0.0073018456 -0.028647866 -0.04844875 -0.0008196701 0.058506124 0.19852622 -0.09399087 0.07596176 -0.1458213 -0.010723687 0.22380596 -0.29773805 -0.085188024 -0.052110825 -0.127106 0.011706819 0.23121318 -0.14584117 -0.24528266 -0.100024894 -0.0829641 -0.20769592 0.0401166 0.14509507 0.08076301 -0.26574233 -0.027990788 0.031983245 0.03787807 -0.0418311 -0.07650503 0.16138022 -0.048062652 0.06732356 0.30394495 0.037229523 -0.0079239635 0.041026 0.0107881855 0.023078965 -0.08400491 -0.06211717 -0.13646936 0.029672109 -0.08798976 0.14060584 -0.08619642 0.028543778 0.074768946 -0.015197146 -0.016984269 0.059474077 -0.024115004 -0.3277298 -0.060827956 -0.023337254 0.04445548 0.041814096 -0.22882482 0.13591045 -0.07623344 0.37210485 0.0032748263 0.04183885 -0.09473208 -0.2444026 0.05510314 -0.17808203 0.0031124502 0.12690374 0.16765994 -0.05458818 -0.06531171 0.09484378 -0.107477434 -0.027354019 0.14056347 0.037101373 0.17152117 0.24789101 0.08324454 -0.015623236 0.10070367 0.19257139 -0.04964652 -0.030203784 0.2599897 0.12985171 -0.0130354585 0.13488875 -0.058227494 0.11010262 0.114003465 -0.14694633 -0.028441984 0.17455158 0.081353575 -0.08496278 -0.10131906 -0.040397152 -0.009086754 -0.028083744 0.14394675 -0.011978982 -0.11606549 0.15193574 0.015417846 0.031573057 -0.14637631 0.016892651 -0.10313315 -0.080430835 -0.02529552 0.09413523 -0.003373074 -0.019356716 0.00443678 0.053359013 -0.08024167 -0.048771374 -0.18288371 -0.19362243 -0.0880234
5 -0.17240103 -0.08466318 -0.04585034 0.19718885 0.14808132 0.059909906 0.15025918 0.020573115 -0.055804774 -0.010660841 0.2166909 -0.04408524 -0.19225776 -0.03442887 0.17450564 -0.028850133 -0.18839829 0.25501058 -0.02369571 0.2517132 0.14059316 0.1060545 0.1217069 -0.12348226 -0.008575124 0.15944524 0.14049284 0.24077109 0.10869102 -0.26962292 -0.19655348 0.20803063 0.0716196 -0.07524084 -0.047390793 0.4020831 0.029927924 -0.12391812 -0.10194022 -0.17456448 0.22278093 0.037250374 0.21444301 -0.3507585 0.16047037 0.04112437 -0.23779477 -0.11071212 0.16879308 -0.121082656 0.0023835073 -0.30701736 -0.031574775 0.0076384377 -0.37175518 -0.05735128 0.096895106 -0.21425943 0.19983973 0.05024873 -0.10106879 -0.0009081534 0.121975005 0.11587489 -0.05495553 0.12763903 -0.05990042 0.05136744 -0.07624268 0.020707393 -0.008706327 -0.01682494 0.10813043 -0.29384255 0.06523908 -0.08844216 -0.21805592 0.088658504 -0.08115221 0.10844128 -0.33660343 0.075497165 0.018625332 -0.0390215 0.067274176 0.15088439 0.23913838 -0.1773497 0.022795038 0.14578818 0.054098986 -0.09584437 -0.15994647 -0.05003254 0.11500271 0.11604686 0.0068199527 -0.043258425 0.07974662 -0.13015321 -0.16207631 -0.052283697 0.05443493 -0.07297302 -0.030764854 0.15031877 -0.05878906 0.09407683 0.2301044 0.03368961 0.27260724 -0.046587378 0.16165277 0.26593035 -0.1639499 0.16867615 -0.19230348 -0.09597206 0.016822029 -0.0062644016 -0.14097671 0.20379739 0.011341088 0.10810188 -0.14232624 -0.1819866 0.12023115 0.24890013 -0.08796772 0.025665531 -0.085911326 0.09358505 0.25759113 0.13893929 0.020062897 -0.034847528 0.009132932 -0.04081905 0.19038266 -0.17019084 0.08456114 -0.12278469 0.20309393 -0.019863792 -0.2915617 -0.21633136 -0.07967445 -0.25619528 0.17457098 0.041175686 -0.05834281 -0.12923665 -0.5049018 0.18237633 -0.13450556 -0.10868816 -0.02882902 -0.07830799 -0.11040372 -0.048242573 0.15509073 0.2742206 0.10278716 -0.053195756 0.14723319 0.0046907584 0.034858678 0.40113932 0.05556986 0.009946394 -0.15932755 0.06040346 0.08363354 -0.16692403 -0.15869527 -0.06852494 -0.0993018 -0.08168147 0.19646837 -0.05198754 0.05752363 0.17781593 0.1672162 -0.15868887 -0.1582945 0.068943955 -0.0821146 0.0494304 0.14846532 0.14599466 0.11884774 0.022161113 0.15066254 -0.16490456 0.35866204 -0.016256774 -0.14019448 -0.2358282 -0.14580949 -0.0049557257 -0.032534026 0.062425446 0.10843337 0.07528309 -0.05953641 0.09832473 -0.09752254 -0.41482168 -0.10535009 0.008745917 0.14461192 0.14981261 0.15790479 0.30061278 0.05243097 0.048932042 0.112837724 -0.05609276 -0.21092059 0.1876598 -0.08574122 0.2055269 0.049669135 0.10137624 0.087259956 0.03297812 -0.12391582 -0.0070309285 0.071059994 0.14203396 -0.04441182 -0.023880696 -0.08819925 0.24630071 0.110680394 0.20553342 0.1455106 -0.1845533 0.095522724 0.1620134 0.057735156 -0.2780796 -0.06380635 -0.22216974 -0.07094957 -0.0968014 -0.0067463233 0.04711538 -0.1366698 -0.3474282 -0.15832977 -0.01503798 -0.036071934 -0.2149866 -0.20605059 0.27756077
107 0.20657739 -0.054980703 -0.024029259 0.13078387 0.11179715 0.11425603 0.0003223777 -0.0012372611 -0.13148566 0.112720236 0.16987959 0.09970552 -0.07044047 -0.21511243 0.0128838215 0.20574401 0.1094772 0.06362285 -0.20701419 0.037494138 0.096953586 0.021858025 -0.045951236 -0.23026176 -0.07386955 0.06253595 0.10451335 0.15472984 -0.17067891 -0.1995342 0.09997999 0.09367145 -0.11631091 0.015928723 0.019315498 0.17794101 0.20975731 -0.2051995 0.051648237 -0.12194198 0.029858636 0.10861573 0.028344095 -0.21640688 0.12453493 0.03800544 0.10569419 -0.21866827 0.039094716 -0.014790589 0.036256455 -0.055469412 -0.025524946 0.02396728 -0.356374 -0.056728322 0.10046059 -0.13239175 0.110163935 0.12222818 -0.09785446 -0.0029500504 0.09605062 0.16046783 0.124108836 -0.108911455 0.14176479 -0.0018545411 0.053411886 -0.024056803 0.037765015 -0.041380554 0.017659146 -0.26504734 -0.11340161 -0.26975244 -0.1122303 -0.06372165 -0.09859975 0.118165225 -0.049298342 0.0024000788 -0.07402315 0.040608495 0.057355095 0.3016112 0.07561353 -0.16353501 -0.055088066 0.19542056 0.028763888 -0.1736016 0.043279395 -0.088447444 -0.012084962 0.05717265 0.23232178 -0.14800964 -0.16655631 -0.15631294 -0.1549346 -0.013994842 -0.086569525 0.059791528 -0.092748836 -0.00015416664 0.048168775 0.110612035 0.16371252 -0.17813893 0.059127524 -0.1546754 0.027417753 0.042217758 0.09608275 0.027318532 0.04117574 -0.11328919 -0.07993463 0.012803966 -0.1752365 -0.09773872 -0.021798607 -0.046546716 -0.035313748 0.010044039 0.14577809 0.039344873 0.11111628 0.05532788 0.0676765 0.13041721 0.049804837 -0.044085834 -0.21359572 0.05260776 0.037405685 0.21461448 -0.020063693 0.00012134361 0.13898504 0.100141145 0.12029932 0.11370168 -0.23897682 -0.037205152 0.018064138 0.18255752 0.20808046 0.14023945 -0.035684243 -0.08176175 -0.071509965 0.0920863 -0.2815343 0.005808305 0.18550247 0.09480516 -0.12428497 -0.042625044 0.020654107 -0.006277932 0.13059722 0.07722271 0.18276887 -0.05124967 -0.13682084 0.22267208 0.04721892 0.13366799 -0.059695378 -0.0043486087 -0.15718733 -0.042005133 -0.08378482 -0.11593476 -0.039169475 0.0686349 0.21855977 0.049847305 0.15695356 -0.019814964 0.16227384 -0.08641261 0.06249892 0.20742053 -0.2776491 -0.17263795 -0.12894627 0.14418145 0.11842753 -0.036785115 0.0792389 0.15031925 0.28712937 0.10780776 0.07199686 -0.03931516 -0.10183028 0.047962192 -0.13964204 0.062053528 -0.004034665 0.1176684 -0.090931125 -0.13841058 -0.13830096 -0.21220692 -0.038845204 -0.20299363 -0.025909748 0.21080253 0.17537878 -0.042719744 -0.026069738 0.20403995 0.022181896 0.021680107 -0.10803757 -0.050551776 0.03197722 0.122773916 0.11172792 0.079453915 0.05932069 -0.0315955 -0.12234065 -0.1897055 0.026516292 0.11120741 -0.20861451 -0.04045862 -0.011547724 -0.0014592009 -0.100905605 0.12278965 0.14670555 -0.18998553 0.14745897 -0.04084389 -0.11901817 0.010104386 0.046191115 -0.03900505 -0.20121533 -0.19092509 0.040598236 0.112676956 -0.07837357 -0.007228972 -0.08290955 0.02670554 -0.21100904 0.08170672 -0.00763997 0.20302995
62 0.004085625 -0.12563775 -0.07995001 0.10758627 0.17953677 0.16137232 0.11747582 0.059411455 -0.17134564 0.078731865 0.05813477 0.025752122 0.110217966 -0.12087918 -0.13725317 0.08611879 0.13712125 0.015614664 -0.14722465 0.20358191 0.08835774 -0.0779775 -0.1069009 -0.16367602 -0.052271534 0.03814626 0.14830875 0.087743886 0.04334921 -0.16401297 0.026585098 0.118443854 -0.11238706 -0.10192921 -0.00022568804 0.23658188 0.13528086 -0.0631017 0.155599 -0.07260393 -0.0039058516 0.029546546 0.014841759 -0.13801685 -0.0046484163 0.005942202 -0.017607491 0.069275334 0.104067214 0.13296779 -0.021155847 -0.060412385 0.12945607 0.13869081 -0.2297456 0.1536632 -0.0051474143 -0.21915543 0.043166306 0.23886472 0.021878751 0.006915969 0.14730902 0.14131223 0.13014296 -0.24721675 0.03348333 0.12254871 0.006885105 0.0045277984 0.0645494 -0.12201317 0.0049901484 -0.16620341 -0.10816219 -0.102127686 -0.0682594 -0.05454098 -0.026370253 0.23596098 -0.049057543 -0.017935088 0.030715749 0.0016467957 0.043305106 0.28246173 -0.032697577 -0.13174933 -0.03545737 0.17963804 0.106310606 -0.18341106 -0.0342577 -0.1995729 0.024345653 -0.16103362 -0.02720846 -0.07552717 -0.12356076 -0.12613808 -0.23193374 -0.043481514 -0.032652996 0.06643506 -0.07051244 -0.18231414 0.057870243 -0.02777013 0.28893453 -0.10740768 -0.007220452 -0.17006841 0.14516187 -0.017271541 -0.024316395 -0.083276466 -0.08558743 -0.047859497 0.07343174 -0.07905328 -0.08834164 -0.14280073 0.049423818 0.017115911 -0.04816908 -0.07252392 0.07601383 0.10791557 0.04815442 -0.049585763 -0.05132463 0.049667634 0.020029724 0.0035500797 -0.052488964 0.11005502 0.16305628 0.15959355 0.018137569 -0.09753007 0.08339931 -0.015193883 0.16677499 0.09592462 -0.4001449 -0.22827613 -0.039179035 0.061369143 0.054177914 0.17913052 -0.08438762 -0.05633417 -0.09670737 -0.008426167 -0.17916358 0.019374464 0.1085117 0.09967499 -0.104308195 -0.060363423 0.08393247 0.0957889 0.017674718 0.03090694 0.14183328 0.06788766 -0.22958934 0.12349318 0.019428745 -0.044040844 -0.04610827 0.024940701 -0.0492533 0.059456557 -0.18664844 -0.09402659 -0.106232904 0.035459116 0.26566586 0.017867738 0.049207173 -0.049882405 0.03663925 0.02912013 0.107894346 0.03726398 -0.23204684 -0.057597786 -0.17449842 -0.013205755 0.14971076 -0.11907507 0.08303132 0.1572691 0.15833572 -0.09392621 -0.033550497 0.00014956338 -0.12896138 0.06607584 -0.17412679 0.0340711 -0.034860786 0.06741535 -0.0019192805 0.023527984 -0.051910702 -0.0660063 -0.0380433 -0.08071396 -0.05017739 -0.020106556 0.22501339 -0.047955018 -0.01838427 0.09366033 0.09008359 0.13620044 -0.13647829 0.022318387 0.045647405 -0.016936118 0.06308718 -0.08651199 0.056142416 -0.04021182 -0.15554276 -0.12658587 -0.03906821 0.04998597 -0.16131678 -0.10967653 0.03838561 -0.12962538 -0.07433056 0.1936973 -0.07143969 -0.09043991 0.120316334 0.04386218 -0.005789449 -0.05966095 0.07459682 0.09062889 -0.22711775 -0.18308455 0.13907152 -0.009142254 -0.2120538 -0.07095675 -0.03733161 0.052024636 -0.048555557 -0.22249417 -0.077916004 0.14131041
434 0.17390306 0.0841283 -0.07882917 0.18674724 0.059144005 0.07472255 0.027543783 0.02629771 -0.090416975 0.19025594 -0.027544873 -0.021988822 0.047175772 -0.08906788 -0.05014801 0.15953733 0.13116436 0.018691797 -0.09749796 0.15529588 0.009325223 0.05488936 -0.03383611 -0.23757963 -0.11751903 0.096576475 0.17841327 0.019146908 -0.17634967 -0.15976803 -0.1478369 0.17410445 -0.10519088 -0.083859205 0.024264337 0.24997765 0.066784166 -0.07744218 0.12783235 -0.19872577 0.026143968 0.1342472 0.04968845 -0.22668862 0.08670625 0.03676317 -0.06761312 0.0034977351 0.06635508 0.07563193 -0.018113656 -0.03902829 -0.024735155 0.08386648 -0.15287568 0.038538404 0.06776211 -0.13584879 0.07793643 0.13019246 0.050898112 -0.026851675 0.02892331 0.0978228 0.07046811 -0.17554319 0.06352181 0.087508544 0.05864444 -0.08558021 -0.03277133 -0.15197666 -0.104656674 -0.16116296 -0.10028907 0.051370833 -0.076845534 -0.09386009 -0.1577728 0.17157088 -0.09268682 -0.037358668 0.11179779 0.10702791 0.15182146 0.2186299 0.045397744 -0.15955718 -0.07515356 0.05917039 -0.006064601 -0.09002152 0.04280648 -0.11905375 0.09970068 0.0038970844 0.009377478 -0.04230753 -0.10809122 -0.30664194 -0.16659948 -0.050256997 0.07709432 0.0047739395 0.016497072 -0.050726693 0.109996974 0.15045701 0.25757182 -0.12966439 0.087389074 -0.12289522 0.20333408 -0.0068249055 -0.021232886 -0.029539546 -0.007234636 -0.056353234 -0.07588679 0.14233088 -0.14744817 -0.04923388 0.075261354 -0.095380805 0.007326869 -0.059770826 0.14461796 0.101045564 0.08238681 0.014513864 0.050058577 0.070303224 0.014901406 0.09734503 -0.016141972 0.07834066 0.20115107 0.18235561 0.15404883 0.03283289 0.010602582 0.039057877 0.26233134 0.036748637 -0.35730964 -0.13469632 0.14730623 0.0872359 0.15606345 0.18913984 -0.11728891 -0.11084689 -0.19874631 0.075324975 -0.1912844 0.032784835 0.2892975 0.021425102 -0.05430392 0.001842942 0.026091423 0.07542349 0.031135457 0.03371904 0.13628468 0.025891278 -0.1983648 0.19219235 0.11467095 0.1374192 -0.051807377 0.04982873 0.0966235 -0.013218681 -0.25609797 -0.19957647 -0.032751247 0.072918005 0.2659817 0.15610085 0.09623537 -0.060103588 0.07580869 -0.029977037 0.16205166 0.020944087 -0.12819831 -0.057986133 -0.16590782 -0.08911572 0.016861876 -0.15772247 0.09602466 0.16369818 0.035667825 -0.042952657 0.027841879 -0.08883553 -0.06671899 -0.05109831 -0.20394127 0.010350687 0.072176084 -0.034641664 -0.18038066 -0.058387294 -0.050320312 -0.15668634 -0.0010103305 -0.18334432 0.01767433 0.17777027 0.17228329 -0.049127005 0.07599156 0.14270416 0.110097975 0.12565236 -0.18162797 -0.075212374 0.18272337 0.033470143 0.013588876 0.10575299 -0.013250105 -0.060237214 -0.03525686 0.017179525 -0.09352366 0.07639033 -0.26467288 -0.098447405 0.010337451 -0.07486898 -0.18698081 0.22364178 -0.02135227 -0.09373164 0.14236845 -0.04401413 -0.0020007312 -0.08175371 -0.08981912 -0.033606503 -0.22458836 -0.004131603 0.11186763 0.11257747 -0.15982494 -0.0872233 -0.15568586 0.058668125 -0.09957234 -0.08899796 -0.11182052 0.011705724
1 0.16220236 -0.2981805 -0.2949011 0.62750375 0.5421372 -0.06921573 -0.2369289 0.33355156 -0.061024867 0.32741964 -0.24780306 -0.38508728 0.15753184 -0.35426664 -0.3082737 0.019742161 0.23913917 0.53710073 -0.16023837 0.5994725 0.532524 -0.12635757 0.36202553 0.11958747 0.11752327 -0.019159425 0.19709915 0.09652806 0.36634395 -0.296575 -0.24174175 0.5361848 0.029829325 0.22007333 -0.32143885 0.050871376 0.3201864 -0.18560576 0.43760672 0.33609006 0.014818224 0.11508159 0.065090746 -0.31219167 -0.103413574 0.02497486 -0.005127942 0.076762274 -0.0068122735 0.26105458 -0.2875737 -0.6208933 0.3100163 0.5084618 -0.22506104 0.20506944 -0.1710442 -0.4833777 -0.09497897 0.41879466 0.2661195 0.5207418 0.38999224 0.3471286 0.0998514 -0.5874416 0.04066129 0.042462587 0.3177496 0.08811289 0.021872414 0.14448594 -0.1535514 -0.042413395 -0.2768969 -0.44851005 -0.3591259 0.21769458 -0.4497655 0.35266316 -0.48927686 -0.07657782 0.0968504 -0.3927378 0.21840191 0.37320048 0.1700529 -0.0023398763 -0.104887635 0.502009 0.16901173 -0.645166 -0.31264317 -0.42141154 -0.006541386 -0.064834155 0.03432493 -0.35251942 0.11857706 0.028109362 -0.16813305 -0.15652889 -0.31033266 -0.42577037 -0.27212328 -0.24814034 -0.34974635 0.15847187 0.46563947 0.022444908 -0.4148021 -0.49489865 0.44142032 0.15646788 -0.2302961 -0.31333607 -0.012019004 0.04726541 0.012618612 0.07862997 -0.23782775 -0.6046818 -0.30468062 0.12763551 0.0865538 0.08929478 0.14551948 0.15547806 0.08277466 0.23309392 -0.41218796 0.29566753 0.054528426 0.01819751 0.3443159 0.3400612 -0.0018215702 0.06906999 -0.035371784 -0.4304314 0.4059215 -0.3730497 0.4266223 -0.08527605 -0.31352043 -0.45525175 -0.5376833 -0.33089137 -0.22680241 0.060840104 -0.32504046 -0.16448277 -0.30456203 -0.07033669 0.04443271 0.2541811 0.45254228 0.2669415 -0.25896615 0.23622042 -0.16636837 -0.016602224 -0.24964714 0.21560866 0.035412923 0.32532668 0.031187525 -0.027052794 0.21394402 -0.25670812 0.3209021 0.14903566 -0.12434103 -0.15682828 -0.34614778 -0.3146829 0.38367173 -0.13994639 0.39609525 -0.27093884 0.08608649 0.02383332 0.4179949 -0.26191202 0.25362733 -0.13224368 -0.40734354 -0.26739797 -0.23321156 -0.041628573 0.0038513977 -0.281997 0.1593368 -0.103157304 0.023084838 -0.04569202 -0.43597534 -0.077953175 0.023524825 0.37401247 -0.5577918 0.26524523 0.2581366 -0.0014807119 0.3313307 -0.16694064 0.12214548 0.2066454 0.0070056804 -0.19338225 -0.04342224 -0.012610722 0.20929976 0.10349336 0.08320694 0.45241457 0.60270226 0.007644066 0.113684356 -0.10467236 0.15766157 0.34880048 -0.022073666 0.25668943 -0.18340245 -0.20840324 -0.453444 0.24691299 0.2216483 0.20642124 -0.057997096 0.15954012 0.42367756 -0.10746657 0.2089988 0.0096091125 0.0661509 0.23237377 0.3656949 0.3626203 0.2609556 0.30016905 0.25407168 0.19556506 -0.39547536 0.112470664 0.32214576 -0.017361082 0.050770152 0.07122033 0.25703803 0.19480415 0.35140777 -0.19400996 0.30042708 0.23036945
129 0.18059139 -0.006894102 0.1917529 0.12843972 -0.01837959 0.1316245 0.034352876 0.0873607 -0.06257741 0.16199398 -0.15678743 0.10222253 0.07944631 -0.12526606 -0.112440355 0.2258824 -0.08157565 0.11119621 -0.38500845 0.16081291 0.20148891 -0.017905932 0.08882046 -0.31797636 -0.06761103 0.103669085 0.36251003 0.20198573 0.055560976 -0.17529893 -0.108777806 0.1255293 -0.1602761 0.016995165 -0.117018506 0.25333855 0.06902318 0.05054557 0.14730674 -0.07558475 -0.10064237 0.072174355 -0.017627303 -0.20797312 0.188664 0.107909806 0.110716425 0.017359631 0.20625369 0.01854265 -0.14029653 -0.06303516 -0.022810021 0.18655983 -0.16492203 0.26800513 0.15842684 -0.058144283 0.055911392 0.08623337 0.16588552 0.11407655 0.11885057 0.16006963 0.064648114 -0.13016121 0.057156347 -0.015583634 0.20721056 -0.048824783 0.067558855 -0.19979961 -0.27014163 -0.09439187 -0.016701296 -0.14872597 -0.09815832 -0.105353616 -0.034418058 0.07466241 -0.066994146 -0.09514747 0.2371658 -0.08903918 0.3271524 0.21889584 0.000732761 -0.22907588 -0.1347366 -0.0035169814 -0.07342931 -0.12823005 0.021319848 -0.32821324 -0.13936198 0.10306674 -0.15264733 -0.09515599 -0.031606995 -0.23707815 -0.26701245 -0.02651038 0.12960151 -0.051824313 -0.16427267 -0.23575343 0.07452574 0.025461521 0.28014046 -0.0018610583 -0.106198005 -0.24733508 0.13798846 0.05358695 -0.12521698 -0.07927579 -0.051259663 -0.08733967 0.06844525 -0.058244407 -0.18417732 -0.065432355 0.044122968 0.05093267 0.10608692 -0.06604498 0.07697656 -0.038686343 0.19566499 0.21742721 0.028777856 -0.03072192 -0.33355975 -0.020976376 -0.015609793 0.017971024 0.0266358 0.15985231 0.077482305 -0.015249753 0.03940034 -0.06434898 0.14549385 0.051246125 -0.28314137 -0.10551643 0.2177404 0.023624565 -0.02402178 0.25857458 -0.11600666 -0.24685855 0.024486974 0.024993775 -0.2197446 -0.015211169 0.26957402 0.08695373 -0.091667354 0.009852702 -0.043572392 0.028697807 -0.08417208 0.07004078 0.18160012 0.19741054 0.020622415 0.35172173 -0.1140081 0.16633949 0.11041633 -0.036556456 0.016268192 0.078890406 -0.34157994 -0.16276588 0.1276297 0.11061759 0.17039248 0.08561529 0.14458801 0.0517336 -0.018009948 0.017970279 0.17057952 0.06000245 -0.25441447 -0.011610157 0.033985946 -0.08483186 0.034727074 -0.02354223 0.09077596 0.03791993 -0.028025484 -0.105265364 -0.012953212 -0.05427905 -0.077122405 -0.019480271 -0.2973522 -0.1439337 0.072038256 -0.12137633 -0.26530838 0.00491648 0.089859836 0.06626262 -0.058218356 -0.07918294 0.08128544 0.25199887 0.21773092 0.068537205 -0.023146596 0.3328402 0.23735292 0.23904651 -0.33972162 -0.07344929 0.19195773 0.07206372 0.044930678 0.11892934 0.10052974 -0.14103302 -0.18835476 0.13809665 0.056258436 0.100396015 -0.21740536 -0.029311338 0.10380395 0.00849289 0.08009436 0.12741265 -0.14942588 -0.0986851 0.121194236 0.045782927 -0.06092736 -0.032155886 -0.083502956 -0.12358053 -0.34480143 -0.1670196 0.31625384 0.06311634 -0.162252 -0.10625314 -0.20180117 0.30256134 -0.07494395 -0.18287854 0.010204097 -0.11108767
130 0.2803758 0.16398394 0.13706578 0.25015527 0.4555534 -0.008238339 -0.16168785 0.30724892 -0.1997845 0.028317489 -0.3059376 -0.20359835 0.09995328 0.07986833 0.13302547 -0.05454314 -0.55628437 0.3095729 -0.3694055 0.49895754 0.76324236 -0.24668266 0.15218653 -0.25985566 -0.40774283 0.26297134 0.5881862 0.60568136 0.03841583 0.022733627 -0.29101998 0.2788827 -0.33014166 0.04531767 -0.10355818 0.10609409 -0.09306274 0.29153818 0.2624103 -0.087924376 0.063903846 0.4049985 -0.04511964 -0.09707677 0.37044498 0.34866107 0.09421552 -0.27441573 0.49811962 -0.18410124 -0.46929494 -0.4661004 -0.089849114 0.4061639 -0.19273414 0.20404844 -0.21303108 -0.35982865 -0.0441503 0.31223562 -0.027126785 0.6409967 0.25229615 0.6536135 0.30418447 -0.081503026 -0.21667905 -0.21457806 0.28280804 -0.19811454 -0.050150592 -0.0029736075 -0.24798644 -0.50546974 -0.07746247 -0.28556204 -0.119337454 0.0147185875 -0.34035793 0.4243848 -0.053892117 0.23332871 0.4565814 -0.24657749 0.2819981 0.1806691 0.25962657 -0.3744671 -0.108181246 -0.14812054 -0.102245785 -0.56611097 -0.39627185 -0.37245438 -0.0270536 -0.010737177 -0.20638657 -0.59217787 0.1671596 -0.49834228 -0.85292757 -0.033619303 0.41309652 0.12313348 -0.6357362 -0.09461868 -0.21581061 -0.29582992 0.50035137 -0.012501047 -0.16485505 -0.5573024 0.316131 0.31764886 -0.29575422 0.20204946 -0.20076974 -0.2668925 0.21931534 0.066784106 -0.46356064 -0.12585643 0.12830493 0.17969233 0.051885247 -0.18819563 0.16963273 -0.1619131 0.02225372 0.5895994 0.17381603 0.57781714 -0.38176775 -0.25056484 0.2509709 0.016033353 -0.05341243 0.36809933 0.1395884 -0.08805085 -0.17214398 -0.023550605 0.64170796 -0.36285082 -0.50785804 -0.3842722 -0.4766072 -0.15232308 0.20475572 0.4438766 -0.25175282 -0.06656788 -0.40645352 0.20854403 -0.28156903 0.53270453 0.58456504 -0.007502461 -0.2027264 -0.083359435 0.03553014 -0.31009373 -0.20298393 -0.17937316 0.28697515 0.173231 -0.13615274 0.5506115 -0.28873807 0.187092 0.154022 0.030257884 -0.060543545 0.047960445 -0.44666395 0.026336323 0.1464781 0.27726877 0.101816095 0.2650151 0.26520413 -0.009597044 -0.09119899 0.17047414 -0.16122426 -0.11785003 -0.3986725 0.163438 0.21709746 0.07964664 0.20564274 0.12266984 0.31207585 -0.05802943 0.109222 -0.403105 -0.19833454 -0.25090694 -0.12448924 0.3127952 -0.3030315 -0.10804768 0.49728116 -0.04427324 -0.24597184 0.33036286 -0.018292904 0.06525286 -0.19906768 -0.46242842 0.08008196 0.2922281 0.1638085 0.13365711 -0.08074115 0.5825516 0.689302 0.18235251 -0.35687953 -0.20515203 -0.27544448 0.5841633 -0.16556332 0.21044527 -0.05344523 -0.33655384 -0.65807134 0.40118787 -0.10443927 0.0801697 -0.07593138 0.43912876 -0.19239758 0.51436013 0.14935021 0.22412705 0.167407 0.051751886 0.3040957 0.2692054 0.015208025 -0.03455218 0.03854534 -0.5186354 -0.545553 -0.1819714 0.1978706 -0.4355428 -0.31271824 -0.38419074 -0.20677152 0.36890322 -0.3311028 -0.41471672 0.40402794 -0.09356083
64 -0.02906669 -0.15585984 0.024048507 0.21990769 0.28245994 -0.048675038 0.17164402 -0.077877074 -0.064449936 0.15275966 0.14209478 -0.0812273 0.11272388 -0.122467965 0.027431566 0.039575636 -0.06631585 -0.033877287 -0.24612074 0.23162615 0.14923625 -0.028361082 -0.15376706 -0.029276019 0.043423135 0.13455202 0.2024726 0.24387033 0.008615033 -0.09162926 0.0059120436 0.11103157 -0.014686715 -0.06688009 -0.023949811 0.21166822 0.23861367 0.06250875 0.118700944 0.027065996 -0.053563982 0.010592871 0.07264035 -0.1586534 0.20328854 0.03033208 0.14547932 -0.19602332 0.270834 0.11635056 -0.022214944 0.0023685447 -0.034059852 0.14389162 -0.1625764 0.16063839 0.016233206 -0.30541047 -0.06994519 0.27586147 -0.05218248 0.14838889 0.080589265 0.09458027 0.060438033 0.060521405 -0.12444605 0.08377477 -0.052070603 0.11996365 0.18707523 0.07218212 -0.08822574 -0.23572455 -0.16268595 0.011928111 -0.25847715 -0.20288026 0.07681924 0.04300444 -0.09073891 0.10632793 -0.069377385 -0.051719517 -0.05128435 0.23907843 0.11081138 -0.2407769 -0.15757324 0.1791757 0.034555953 -0.12793538 0.045247603 -0.20627405 -0.13338517 0.088601045 -0.090122305 -0.10206462 0.0016097825 -0.084710106 -0.356713 -0.09756502 0.1728946 0.07656493 -0.22733699 0.016296368 0.04139923 0.056207545 -0.051857825 -0.031214826 0.008802687 -0.14735436 0.1504484 0.1700718 -0.03693704 -0.014700381 0.04085029 0.1036124 -0.027338326 0.021260923 -0.14225952 -0.043294538 0.03005879 0.012756838 -0.06733951 -0.072804086 0.008834089 0.17771973 0.11193392 0.017162826 -0.07417511 -0.0020360944 0.06736632 -0.11967387 -0.069491446 -0.042726703 -0.025694698 0.33118966 0.098232605 -0.05913682 0.011525707 -0.2299408 0.11801668 0.027427517 -0.38175714 -0.017478721 -0.09534022 0.07274631 0.19997112 -0.073378935 0.060031187 -0.06330587 -0.058334447 0.13709013 -0.18629928 0.11333503 0.10084084 -0.035588652 -0.016321814 -0.042932745 0.16980417 -0.011266113 0.0055368734 -0.19475682 -0.0050686244 0.091914415 -0.098141275 0.18570803 0.0063546756 0.02447123 0.09900817 -0.0066670165 -0.021242075 0.031816255 -0.04457985 0.028376736 -0.0039381343 -0.14911646 0.121209584 -0.044931438 0.114417106 0.11003648 0.02829823 -0.09069043 0.13532022 -0.04485789 -0.1854787 -0.28422323 -0.1276039 0.13199714 0.04202909 -0.08484624 0.18136764 -0.029635893 0.3273857 -0.043754824 -0.04168106 0.07399965 -0.08562377 -0.012080495 -0.022772858 0.10174535 0.01645591 0.17350496 -0.15897308 0.015674029 -0.02695734 -0.037896555 0.01526695 -0.0975565 0.09927875 0.22908589 0.119548246 0.2741221 0.006186385 0.007227852 0.14058776 0.022810234 -0.20942034 0.045121923 0.03828104 0.07190204 -0.09052807 0.06170364 0.19401714 0.012035277 -0.07285319 -0.054978974 -0.117599815 0.10018833 -0.2039336 0.01781193 0.1506932 0.009851907 -0.10390604 0.059501287 0.04159142 -0.1953236 0.1390881 0.016856793 -0.17221934 -0.00868269 0.050871413 -0.06499403 -0.16243081 -0.1976165 0.05799994 0.07502506 -0.1982322 0.059560355 -0.05021556 0.044465672 -0.16033167 -0.13291878 -0.26541677 0.025711948
128 0.31152284 -0.12603448 0.07233236 0.2888909 0.13498126 0.016283846 0.17818062 -0.07226403 -0.013106688 0.10036452 -0.10076872 -0.09013276 -0.13450037 -0.32768166 -0.08152151 0.25527975 0.071789645 0.31312695 -0.16835128 0.21528615 0.08955654 0.018469676 -0.038632344 -0.10564069 -0.07428694 0.11973399 0.31887442 0.17954345 0.14156443 -0.122795865 -0.20845339 0.30445534 0.01776959 -0.15383391 -0.008602951 0.21785982 0.0030134465 -0.013611039 0.20524734 -0.03557635 0.0041077514 0.2205487 0.1172221 -0.24088885 0.2526424 0.056992374 0.12097709 -0.08162351 0.01810366 0.08773273 -0.04709411 0.04423178 -0.101613894 0.24131502 -0.066174604 0.2090145 0.076388866 -0.20130244 0.010996617 0.07534106 0.13818954 0.04336617 0.033373676 -0.23058082 0.017571593 -0.25194722 -0.13287707 0.17107414 0.11489073 0.0013129332 0.1070992 0.061784342 -0.1181911 -0.111176446 -0.016486742 -0.20035645 -0.34340245 0.12889668 -0.25027445 0.10436274 -0.19265625 -0.12970735 0.10493728 0.093141705 0.14640231 0.06922557 0.12022082 -0.17657924 -0.013771965 0.21293306 0.015650406 0.03428455 0.0017776123 -0.20820622 -0.07815229 0.2802944 0.08376518 -0.06917191 -0.029730637 -0.20790477 -0.17726493 -0.19637191 -0.1176333 -0.08214212 -0.17378691 0.0123931505 -0.10068775 0.14075713 0.026227046 -0.01963112 0.005915569 -0.1731766 0.2328853 0.10945358 -0.29298657 -0.15568888 0.14824149 0.011015538 -0.025326105 0.08529266 -0.19883703 -0.10465241 0.07852268 0.18533081 -0.12988664 -0.15329774 0.11132606 0.1013531 0.22390254 0.06267792 -0.18684508 0.029787028 -0.00035126135 0.015535743 -0.011676308 -0.06243751 0.09185995 0.1146926 0.070292674 -0.22484505 0.16231476 -0.047399044 0.30422202 0.18311083 -0.2517981 -0.20829445 0.015613523 -0.050976407 0.027062744 0.011692676 -0.13583912 -0.3229465 -0.20027027 0.12119125 -0.18497892 -0.046252865 -0.006370226 0.07935423 -0.08949205 0.032987 0.005725495 0.16978064 -0.1707865 0.12695485 -0.05583513 -0.01564067 0.06321663 0.15405037 -0.12553531 0.13094003 0.07863272 0.0332719 -0.06509934 -0.08316247 -0.2405699 -0.26019448 0.09756048 -0.0043567508 0.29158875 -0.05587551 0.17251371 0.098568596 0.060509056 -0.24143295 -0.0061707827 -0.104271285 -0.24072985 0.05417082 -0.10328844 -0.038119525 0.042772014 -0.22845103 0.1306879 -0.104398794 0.10309759 -0.14051636 -0.059599135 0.034415625 -0.089948915 -0.104030594 -0.25164214 0.013495592 0.07855482 -0.1005182 -0.09928225 -0.12765183 -0.06053903 -0.018280944 0.021158163 -0.038317855 0.0729542 0.3574822 0.13537802 -0.046275876 -0.02766586 0.07465354 0.16913381 -0.13181737 -0.19929677 -0.11356723 0.16956039 0.09571803 0.1723308 0.26690054 0.1044343 -0.1378269 -0.24493372 0.020620994 -0.21250355 0.12866521 -0.32279605 0.08902055 0.14047472 -0.14477701 -0.034081828 0.21393214 -0.030487185 -0.24011062 0.17759027 0.085571535 -0.044787556 -0.028951693 0.09878012 0.12281858 -0.20209564 -0.050802168 0.2268061 0.2568157 -0.21497314 0.15159172 -0.12612939 -0.00456105 0.04751015 -0.21439536 -0.12329954 0.20712972
365 0.27864632 -0.07984273 -0.20449433 0.28571975 0.6102775 0.13890044 0.12613043 0.24143396 -0.17907849 0.009354256 -0.043765884 -0.09488618 0.16682628 -0.052498765 0.089349926 0.14431633 0.15540034 -0.31568924 -0.20757805 0.36741748 0.22803552 0.08821353 -0.28287166 -0.39235312 -0.3421496 0.41077444 0.3777204 -0.06333625 0.0003495572 0.04672321 -0.3546879 0.0024393313 0.08968421 0.31895217 -0.23220201 0.35070422 -0.071101494 -0.13727267 0.24952985 -0.25233606 0.059820265 0.16993406 -0.07633226 -0.08780775 0.17904213 -0.14570814 -0.07393299 0.022367436 0.026336383 0.061067168 -0.23395786 -0.1754884 0.062069543 0.14384647 -0.20085546 -0.07542665 0.33001652 -0.3675061 0.033698842 -0.12908255 -0.09625273 0.15098834 -0.10749711 0.24629779 -0.18246223 -0.52254224 -0.30400422 0.23262358 -0.084520176 -0.042236242 0.10891567 -0.1203183 -0.2293714 -0.31402108 -0.08073076 -0.05495408 -0.20661949 -0.14146322 -0.21046178 0.15572987 -0.414852 -0.07258062 0.22608335 0.19693676 0.114210024 0.117693536 0.002190143 -0.18995233 0.093809515 0.24536277 0.029368721 -0.2304794 -0.37606916 -0.072621986 -0.051429145 -0.13388316 0.20758097 0.14573224 0.07471271 -0.18558024 -0.046007097 -0.24971181 -0.03094896 -0.3773907 -0.024938593 -0.13427582 -0.06285297 0.26025677 0.48146152 0.0590485 0.043830357 0.12599003 0.14774595 -0.03628811 -0.2417153 -0.029052155 -0.41758662 0.0002621756 0.09970688 -0.011686794 -0.21621795 -0.40149757 0.2487415 0.08463596 -0.22066854 -0.30336025 0.21702759 0.14670146 0.023326615 0.16896722 -0.19589232 0.3188645 0.103719294 -0.0057692295 0.113109864 0.17092785 0.049457382 0.18287665 0.004730717 -0.25968164 0.080163166 0.008407623 0.5861563 0.16488703 -0.23854361 -0.47821894 0.0640239 0.36949062 -0.02173688 0.29007956 0.010217031 -0.13288628 -0.5162707 0.08566781 -0.09035273 0.29740578 0.06738854 -0.1057316 -0.1346282 -0.39941445 -0.010949582 0.10594836 0.020777293 0.24006964 -0.13846184 0.06263336 -0.29277533 0.12793401 0.015114178 0.089286 -0.17005917 0.1658076 0.09596099 -0.04845318 -0.0020207388 -0.19858633 -0.04628724 0.11670422 0.2262244 0.16407606 0.11367026 -0.22895603 -0.00976166 -0.15814447 0.059432365 -0.12921824 -0.22970931 0.16303587 -0.3010081 -0.066800505 0.25652117 0.066047 0.079985805 0.32709515 0.24581073 -0.3460077 -0.0062389323 -0.3276458 -0.22717997 -0.1847614 -0.18456542 0.0032050684 0.29816517 -0.16469693 0.16877422 -0.22451444 -0.06186712 -0.15524448 -0.0147034805 -0.0773374 -0.08868749 0.15243575 -0.027952053 -0.11738718 0.05795944 0.23268262 0.4559642 -0.28910303 -0.018555218 -0.2245982 0.16537765 0.38679934 -0.061250225 0.23436366 -0.20069018 -0.15264368 -0.17292593 0.09688105 -0.18030244 -0.203775 -0.16733772 0.04825827 0.033071753 -0.15127581 -0.113903746 0.23306839 -0.014550969 0.29659027 0.17170104 0.21631868 0.059750523 -0.23865037 -0.026814675 0.1783743 -0.046552386 -0.3347454 0.19367346 0.19221602 -0.42756233 -0.1471089 -0.20873767 0.18409047 -0.039640114 -0.47010309 -0.11534093 -0.029670147
183 0.004023281 -0.06282848 0.015404061 0.14893694 0.1308653 0.09743 0.13662204 0.018665265 -0.13360763 0.19430406 -0.07428459 0.0005570983 0.15562029 -0.009163979 -0.080330424 0.12779893 0.01657688 -0.060962915 -0.29189992 0.22910306 0.16487336 -0.038284317 -0.02387832 -0.14240901 0.014149488 0.118923984 0.23122029 0.077249594 -0.0023590669 -0.009299227 -0.038164802 0.06673007 -0.08184154 0.13669729 -0.053955387 0.059873905 0.17117658 0.04370225 0.121037126 0.056338347 -0.09977338 0.0018025188 0.0634367 -0.12860586 0.12663919 -0.024651032 0.13377142 0.012067961 0.17890553 0.08679896 -0.04376334 -0.07768075 0.054097526 0.13634486 -0.10617922 0.10602227 0.08997054 0.03599395 0.16290039 0.17378695 0.077382736 0.058028743 0.18141915 0.113153175 0.020838348 -0.28918386 -0.08018241 0.06497517 0.113539055 -0.08655843 0.1452649 -0.1881694 -0.10788424 -0.15351887 -0.07205949 -0.039979786 -0.06181045 -0.106561676 -0.043821942 0.10531159 -0.1863736 -0.02991682 0.06647955 -0.04299627 0.05851168 0.18975282 -0.062137492 -0.12790297 -0.048051868 0.18433909 -0.041244157 -0.26469815 -0.036447726 -0.270756 -0.15067728 0.042505916 -0.05367045 -0.12122752 -0.061057203 -0.19685109 -0.14589964 -0.017756984 0.10317643 -0.082187295 -0.16208866 -0.1933691 0.02496401 0.023776883 0.3190038 -0.054305613 -0.14577472 -0.31843543 0.065566204 0.06890825 0.007137633 -0.031264335 -0.14797159 -0.004922679 0.065593086 -0.047001548 -0.15101427 -0.20564507 0.108918406 -0.039170574 0.106770076 -0.12178831 0.2007109 -0.0065958756 0.11155857 0.109699376 0.034217164 0.05135555 -0.20246859 -0.13447446 -0.0085655935 0.024215775 0.065477036 0.19589381 0.10044625 0.01562664 0.037808336 -0.098206826 0.16971883 0.14295198 -0.21877758 -0.09168199 0.09696016 0.09655355 0.10334729 0.022111453 -0.006994374 -0.23126239 -0.102126546 0.1045917 -0.18969375 0.03135031 0.10655007 0.06707567 -0.04091879 -0.12897041 0.05816359 0.06358352 -0.00950344 0.032019358 0.007575484 0.14225326 -0.071928136 0.16265334 -0.12464574 0.063975446 0.10596291 -0.030384533 -0.053152837 0.019499777 -0.29787618 -0.07559124 0.0549794 0.05743537 0.13713427 0.053756982 0.05993522 -0.0024488554 0.027690684 -0.032045856 0.1174938 0.037157055 -0.32091025 -0.13376284 -0.027676145 -0.09773514 0.08939238 0.050432626 0.068696976 0.19278309 0.05778063 -0.18548411 -0.040538695 -0.09574936 -0.10979668 -0.0016680206 -0.19805387 -0.08217831 0.017388962 0.018485058 -0.024055846 -0.06298885 0.073181175 0.035953075 -0.098788194 -0.09225226 0.046839975 0.15721947 0.17194448 0.037764862 0.020522702 0.20337176 0.13637573 0.29621562 -0.26836842 -0.11085194 0.010615108 0.10885351 0.055798665 0.08976915 0.009870833 -0.17897657 -0.13069528 0.14335588 0.014959226 0.040113058 -0.15825678 -0.08111435 0.05294303 0.011558708 0.040987466 0.21563764 -0.046256613 -0.09466641 0.05828389 0.053451538 -0.11329035 -0.017177073 0.03426875 -0.028168995 -0.2620095 -0.15580472 0.15484694 0.15745668 -0.13708569 -0.16422328 -0.19777262 0.10765445 -0.0341357 -0.14601465 0.058093928 -0.04689656
166 0.16316308 0.056340072 -0.09296294 0.23155145 0.18126364 -0.029384054 -0.053788368 0.087228656 -0.20523866 -0.018999455 -0.059946105 -0.0084156 -0.03462779 -0.18097901 -0.12595522 0.18984616 0.045151874 0.17789562 -0.055824667 0.21052474 0.16305381 0.10963288 0.0012458612 -0.15705694 -0.121596396 0.0036252816 0.10232955 0.14543366 0.03978419 -0.14396489 -0.032123964 0.21199708 -0.081359826 -0.15502283 -0.056806363 0.10995464 0.07703663 -0.05371361 0.12585683 -0.08138502 0.12027914 0.0185378 0.014082317 -0.09140622 -0.0031156929 0.018939625 -0.049247675 -0.07687971 0.07871977 -0.017855326 -0.01822414 -0.24299622 -0.0064453627 0.020214705 -0.24835236 0.0660746 0.03383395 -0.3397206 -0.050662044 0.10475429 0.1059001 0.149584 0.010701084 0.2064506 0.02157405 -0.18786444 0.05258382 0.08075292 -0.108027376 0.0058501284 -0.032010533 -0.033005375 -0.08475457 -0.1386187 -0.013149524 -0.13316068 -0.054323297 -0.11411156 -0.2584575 0.17370209 0.10084737 -0.057297144 0.14683671 -0.016709957 0.124600254 0.16900386 0.02402533 -0.16657403 -0.034385182 0.14170377 0.06515453 -0.06988314 -0.050028145 -0.18176037 0.09811244 0.011477339 0.027835662 -0.14545691 0.04039738 -0.20504197 -0.25226554 0.04593776 -0.022425083 0.021915382 -0.024737015 -0.10718552 -0.017766872 0.058447544 0.21984434 -0.16340718 0.07222926 -0.036033716 0.28661767 0.009907294 -0.06795711 -0.013315683 -0.042038944 -0.08445587 -0.1014011 -0.066852205 -0.02898867 -0.090071104 -0.1310057 -0.00020773846 -0.11627547 0.017138958 0.089368895 -0.05242661 0.03157414 0.123846985 0.11515315 -0.039986525 -0.0110310465 0.004739071 0.13624503 0.13089223 0.17418332 0.15567061 -0.008765266 -0.059789553 0.128743 -0.054159965 0.22946559 -0.13021205 -0.19201617 -0.24671789 -0.032714218 0.06843174 -0.040771738 0.1697127 0.020176914 -0.002532177 -0.1570867 0.024815492 -0.09575012 0.042214278 0.33492756 0.23329656 -0.14137298 0.07553107 0.029692816 0.009800778 0.036141217 0.042249482 0.15135553 -0.0097822165 -0.12885168 0.24659534 0.06470392 0.012247209 -0.07560241 0.0048178355 0.13045774 0.056991454 -0.06461093 -0.16949765 -0.11280419 0.0643622 0.22360283 -0.010069335 0.036954775 0.040027764 0.060081538 -0.025803326 0.124891624 0.013924968 -0.15671292 0.083741456 -0.10716361 -0.03373263 0.25312555 -0.04685614 0.020308672 -0.018944753 0.07566332 -0.01329622 -0.06560531 -0.0840207 -0.026911626 0.08114873 -0.16778931 0.1282125 0.12640554 -0.028039953 -0.03297765 0.019604884 -0.033205442 -0.11051531 0.07580745 -0.1282699 0.011226115 0.10532293 0.17360835 0.052853703 -0.09332038 0.13666874 0.23387319 -0.072110884 -0.10678671 -0.004587751 0.04744199 0.10111024 0.08697706 0.033594694 -0.056608822 -0.060440805 -0.08552627 0.12208244 -0.031243518 0.038859494 -0.040328022 0.01667353 0.023082387 0.035732727 -0.029990291 0.0664206 0.006815459 -0.027102256 0.05101374 0.13329257 -0.03075967 0.040579796 0.017984876 -0.055221707 -0.056747332 -0.12281109 0.12721747 -0.10064912 -0.14721093 -0.14197384 -0.04587466 0.105561204 -0.1838173 -0.11525045 0.090092465 0.12024044
333 -0.15111472 0.23649502 0.022931278 0.06633895 0.018207083 0.2007608 0.1794718 -0.18526521 -0.25843635 0.08041414 -0.09500398 0.070587374 0.057481002 -0.06464428 0.04627983 0.20124978 0.19436736 0.1732463 0.09571295 0.17852186 -0.14335234 0.08760815 -0.081442714 -0.13241464 -0.07471101 0.021779379 0.2392677 0.1380369 -0.1631089 -0.27705124 0.068916865 0.11118923 -0.16786897 -0.09900215 0.17190094 0.31035233 0.11923461 -0.32746783 0.012866494 0.009378317 -0.045612454 0.21099038 0.11593992 -0.23469502 0.035798766 -0.19641253 -0.10539399 0.042530045 0.20436092 0.036066897 0.024780761 -0.16825597 -0.07742748 0.15015954 -0.40397424 -0.029210249 0.012394574 -0.13828096 0.33049095 0.05101571 0.0039191535 -0.11105591 0.0999021 0.1244555 0.18963166 -0.05201845 -0.013125249 0.2033996 -0.18302552 -0.24032545 -0.08014274 -0.2478315 0.013466596 0.006101352 -0.07780828 -0.17981438 -0.011348317 -0.084145784 -0.2875824 0.11582423 0.030453507 -0.011936892 -0.025028253 0.061159834 -0.03511701 0.30515757 0.09234122 -0.15808062 -0.03506351 0.25456062 0.21850549 -0.06234026 0.1715326 -0.33938274 0.082710564 -0.0070692096 -0.11739842 -0.16897324 0.13919605 -0.28586945 0.0019810593 -0.11367717 0.09494026 0.25105134 0.05840026 0.0050407094 0.06279065 0.0344217 0.18868051 -0.13831908 0.22231518 -0.25048968 0.25436288 0.17849499 -0.16090555 -0.06637426 0.0028799586 -0.29301938 -0.18566823 -0.09160616 0.008644867 -0.14567776 -0.028424233 -0.10262914 -0.08481489 -0.1338567 0.044166557 -0.03717006 -0.14302886 -0.02200618 0.11017889 0.06595702 -0.023533432 -0.050176825 0.041178614 -0.055456348 0.1192373 0.20867696 0.17420189 0.08937014 0.11876126 0.101297125 -0.02709465 0.18588793 -0.45982304 -0.060323518 -0.08952234 -0.14983344 0.3668152 0.011879612 -0.25134662 -0.05010101 -0.33202782 0.050034292 -0.3069072 0.08201936 0.43142956 0.0786035 -0.10205314 -0.055000126 0.10720881 -0.005606317 0.26114368 -0.011720253 0.15919858 -0.08678134 -0.2282709 0.37488246 0.05889817 -0.11233834 -0.13341162 -0.08742351 0.056914 0.074706845 -0.22803949 -0.11278804 -0.16795233 -0.052900415 0.32748094 0.13784757 0.102461465 0.13552691 -0.15445195 0.074746996 0.009715283 0.24731812 -0.31657296 -0.17150831 -0.12163744 -0.006621952 0.29269037 -0.33297616 0.061884828 0.15833662 0.012905562 -0.028064724 0.10106196 0.09067586 -0.08039192 0.026084935 -0.14434287 0.1758641 -0.07374333 0.14718795 -0.2619404 0.04946485 -0.27802858 -0.10127504 -0.038600676 -0.24095452 -0.036169384 0.114984386 0.43746388 -0.11663024 -0.14230666 -0.11685825 0.009609443 0.030603938 -0.24189787 0.07261944 0.03317712 0.038971 0.13794415 -0.059971355 0.06034209 0.14114778 -0.19278276 -0.07854211 -0.0003753316 0.239118 -0.16811113 -0.022691544 0.046914652 0.18713981 -0.20597038 0.4455775 0.23523723 -0.2716651 -0.040016863 0.005718368 0.13102557 -0.00014511491 0.233713 -0.07101997 -0.04533305 -0.057302948 0.29920158 0.082333796 -0.14554125 -0.15728848 -0.12708119 0.10057992 -0.1597187 -0.032001477 0.024861787 0.20969224
121 0.18567587 -0.049775034 -0.07448916 0.114850976 0.13466966 0.1626437 0.040967524 0.12675121 -0.07684712 0.115866475 0.009018179 0.023996407 0.11972517 -0.22609682 -0.09424808 0.1274164 0.0916853 -0.054102097 -0.019208645 0.07132372 0.16720699 -0.003875953 -0.0050954497 -0.19885871 -0.20835514 0.037341952 0.1415873 0.059777007 -0.14875811 -0.17344892 -0.030791592 0.07098544 -0.1260572 -0.004273989 0.004728306 0.13331734 0.062356852 -0.09177093 0.116059296 -0.06306986 0.04976516 0.03695121 -0.08279851 -0.01095396 -0.0519715 -0.009368679 -0.016472286 0.095712304 0.124301806 -0.008397339 -0.018414885 -0.11931166 -0.021479374 0.2139297 -0.27686265 0.06341805 -0.008172701 -0.2242086 -0.09142974 0.149088 0.07909322 0.09975435 0.058668926 0.17719746 0.10138614 -0.11690468 0.06589623 0.05363759 0.00074464077 0.060327813 -0.096032046 -0.1737972 -0.12672406 -0.030560045 -0.10938234 -0.16157985 0.027005777 -0.037205283 -0.027908344 0.22842135 0.020991428 0.06985307 0.0673073 0.0025553643 0.11695999 0.2693861 -0.10947718 -0.228575 0.012427184 0.011015187 0.012379293 -0.15605372 0.09123601 -0.15370971 -0.020534769 -0.15715837 -0.08916964 -0.044479154 -0.015055263 -0.1339154 -0.1881887 0.04291502 0.015313678 0.035006825 -0.08944456 -0.27187815 0.09344519 0.16293366 0.317498 -0.1483324 -0.047989663 -0.23141351 0.2737791 0.04048882 0.010411531 -0.119429514 -0.024570113 -0.11941317 -0.0976379 -0.054554675 -0.105935946 -0.18852904 -0.034845933 -0.07555264 -0.005876867 0.06314116 0.086785644 -0.010206045 -0.08546148 0.11053755 0.04171209 0.09549563 -0.0135312425 -0.01903629 0.054759964 0.050063197 0.16816434 0.21818903 0.024142826 -0.06759392 0.07777044 -0.06488629 0.1734397 0.0060375924 -0.27922595 -0.26827008 -0.08153843 0.08497684 0.11528445 0.24183698 -0.18156406 -0.053508762 -0.1200589 -0.014795517 -0.15576817 0.046421688 0.36895227 0.20110394 -0.09761038 -0.025741298 -0.08228321 -0.020558601 -0.066082746 -0.046292696 0.06355976 -0.07132587 -0.2148763 0.10565547 0.06509199 0.008205917 0.04648417 -0.0074085384 0.064981885 -0.073722 -0.12998141 -0.18016009 -0.06998665 0.04491706 0.27622885 0.10188002 0.032956805 -0.11855064 -0.024127183 0.12132568 0.1526407 0.037061192 -0.20048532 -0.08400627 -0.24409188 -0.06544998 0.2136582 -0.22603656 0.019684428 0.21821752 0.17816968 0.01355681 0.056901805 0.010812881 -0.028718803 0.1283906 -0.11660333 0.104659215 -0.05564202 0.0012392736 -0.053850345 -0.021818744 -0.09628801 0.008894938 -0.0055140997 -0.12426572 -0.15075566 0.17424856 0.32879293 -0.13004875 -0.013549434 0.07795422 0.07521209 0.17467186 -0.15196732 -0.1572337 0.077259995 -0.01866295 0.15898137 -0.062064234 -0.046553493 0.03879149 -0.23610851 -0.112756796 0.21035972 0.099260524 -0.1187453 -0.08390728 0.09166632 -0.11003555 -0.13567708 0.16993645 0.018231891 0.008809915 0.029690772 0.0047942144 -0.0691417 0.13014933 -0.084044114 -0.080731265 -0.16032375 -0.1404231 0.15789123 -0.06447655 -0.15347259 -0.08345978 -0.122014776 0.078496054 -0.07399643 0.005494901 -0.0035814606 0.037379596
106 0.104135185 -0.08698655 -0.22235897 0.27558094 0.20529982 0.11175585 0.05604545 -0.088268146 -0.10023346 0.2177321 -0.009403414 -0.26333177 0.15281232 -0.10672349 -0.043333214 0.26902848 0.20947741 0.2395591 -0.07225871 0.080766305 0.2792757 0.07162492 0.068602204 -0.17915644 -0.007936328 -0.044503953 0.020558512 -0.11933298 0.14530331 -0.2206282 -0.042920034 0.16678263 -0.06737089 0.057081115 -0.27158928 0.22611974 0.13358042 -0.18799521 0.16724727 -0.042148117 0.072196014 0.015141062 0.114115074 -0.24345915 -0.011403607 -0.060066387 -0.11374917 0.078254245 -0.07594247 0.14175609 -0.1473687 -0.24678916 0.17486365 0.18748355 -0.3800142 0.05561851 -0.040412743 -0.24317591 -0.1020517 0.16939004 0.14182222 0.02558726 0.121041946 0.22841372 0.0052560074 -0.39669707 0.10527705 0.09959197 0.00964772 -0.0050439066 -0.10329586 -0.13689609 -0.043497104 -0.1452682 -0.027905907 -0.17350784 -0.27133715 -0.01452984 -0.304186 0.18941404 -0.3850138 0.032609355 0.19879283 -0.04793109 0.33864588 0.17402554 0.04478804 -0.20372744 0.052584857 0.43056387 0.09251663 -0.25946316 -0.3232277 -0.15720776 0.17702557 0.04862421 -0.012292664 -0.08029057 -0.21131103 -0.08976169 0.059386447 -0.09177236 -0.10559937 -0.19390148 -0.0900403 -0.18226448 -0.031992327 0.11302976 0.4370581 -0.035066336 -0.030582614 -0.20002876 0.24058634 0.19832997 0.026665885 -0.04019842 -0.16433707 -0.11036681 -0.111147024 0.038750455 -0.11108984 -0.112487786 0.035641227 0.11692415 0.009685775 -0.110575385 0.27273446 0.03157261 0.022151936 0.048488524 0.041703317 0.22887665 0.038908135 -0.03284483 0.133393 0.26855752 0.15235779 0.055527773 0.12977909 -0.12444519 0.15068017 -0.1111666 0.4377881 -0.06419616 -0.15792777 -0.29408208 -0.07456702 0.05908328 -0.06866223 0.0060143606 -0.19161196 -0.17576079 -0.29034045 0.16934483 0.056203198 -0.09044634 0.19833344 0.19784598 -0.1447607 0.05281561 -0.00574186 0.24805762 0.006469293 0.21281157 0.07998221 0.16349283 -0.10018723 0.07084614 0.12747842 0.044402815 -0.11687308 0.08377624 -0.15529096 -0.029709855 -0.46467683 -0.14435382 -0.094387986 -0.007548419 0.4607199 -0.049923792 0.009458362 -0.115995064 0.19638401 -0.25586647 0.17347492 0.1380675 -0.29057142 -0.049208574 -0.15277465 -0.102166265 0.34079728 -0.10311971 0.06505872 0.08691059 0.0452897 -0.12184662 -0.08441752 -0.21751972 -0.044620506 0.073656335 -0.49132258 0.022106264 0.033701845 -0.20712663 0.09511339 -0.15936401 -0.057732694 -0.17044817 -0.007458872 -0.23396084 -0.11253674 0.050046466 0.36794347 0.0467117 0.10115415 0.20218374 0.12501182 0.17170577 -0.07528336 -0.13998443 0.035741996 0.23200116 0.11353215 -0.043640904 -0.17218466 -0.27486563 -0.15468131 0.07072777 0.018827667 0.053867966 -0.019911423 0.0071832403 0.13656197 -0.09345777 -0.013164457 0.21150501 0.061470557 -0.06215266 0.05646178 0.17636919 0.10200691 -0.055925217 0.10218559 0.08597711 -0.1350509 0.011566558 -0.0035385606 0.20997155 -0.18775119 -0.14789233 -0.111365534 0.13815999 0.019115673 -0.11841667 0.09022128 0.2170119
21 0.12738939 -0.123701826 -0.055588257 0.26994082 0.35952 0.10185065 0.15058823 -0.0871385 0.014736165 0.052029725 0.2891575 -0.09677271 -0.15803076 -0.09124475 0.008362709 0.24431658 0.22031744 0.045255113 -0.09307704 0.049592048 0.20945823 0.048802882 -0.020313825 -0.26866692 0.0044821594 0.0066998964 0.16621631 -0.031183831 -0.0016078985 -0.29122052 -0.08694676 0.17406555 0.07422165 0.20927218 -0.05614801 0.25834686 0.04901003 -0.2315005 0.16510159 0.028981576 -0.011902418 0.10837231 0.2196662 -0.27343604 -0.07088411 -0.04518502 -0.05892049 -0.09449935 -0.044990063 0.16020656 -0.10155518 -0.035916705 0.17854899 0.18414193 -0.28329 0.061702497 -0.030896237 -0.30720213 -0.052369203 0.050959982 0.005851835 0.0049992525 0.056153815 0.06598217 -0.15615444 -0.2328341 0.015297324 0.21008435 0.045989335 -0.03827096 0.023651857 0.039958358 0.02897835 -0.035814278 -0.089190915 -0.29523405 -0.37089574 0.04253577 -0.19282332 0.11666764 -0.35823497 0.1338286 -0.033856057 0.028288579 0.22012135 0.16310531 0.15830173 -0.22002472 -0.01762766 0.35948792 0.114966646 -0.24983265 -0.19356161 -0.10488685 -0.07320013 0.01437401 0.13941963 -0.07453951 -0.011154978 -0.15459685 -0.021469656 0.0141813215 -0.16898713 -0.3389133 -0.23762178 -0.020217575 -0.21766348 0.1449048 0.1372378 0.07350985 0.069366165 -0.22964951 0.13634065 0.3383505 -0.107867464 -0.04305747 -0.0035605042 -0.2523734 -0.019589894 0.0010124341 -0.2520874 -0.02661852 0.12817615 -0.020194765 -0.13777578 -0.08037048 0.23227897 0.08815798 0.029166542 0.11863556 -0.19271106 0.36610115 0.15709908 0.024518777 -0.0229966 0.13639437 -0.04810989 0.14222008 0.02290585 -0.17863402 0.17924923 -0.11504685 0.3651224 -0.0594488 -0.3289637 -0.18628718 -0.16146483 -0.2117323 0.18575625 -0.022819914 -0.2715569 -0.291892 -0.4100982 0.08788887 -0.027405316 0.22460605 0.1986844 0.119188644 0.06820205 0.04043285 -0.15993959 0.1950503 0.14236203 0.07196215 -0.022995163 0.0787953 -0.08378249 0.11281786 -0.052620105 0.099267185 0.010171551 0.21555753 -0.17842296 -0.22926895 -0.13858971 -0.123297654 0.030266898 -0.10271072 0.42382464 -0.1318929 0.11418043 0.12585647 0.31210163 -0.14458507 0.07457839 0.13084067 -0.30531973 -0.17795384 -0.11373027 0.05339379 0.1518135 -0.15390952 0.0018759503 0.15564452 0.30913934 -0.0022712068 -0.022937529 -0.11018932 -0.05848968 0.071909785 -0.32213825 -0.04867105 -0.01774495 -0.06691989 0.11495877 -0.14065151 0.028708598 -0.1461049 0.091553956 -0.1891842 -0.071591504 0.33786625 0.3280072 -0.06713805 0.23781025 0.22605917 -0.15413064 0.027596338 -0.1840463 -0.037082117 0.07498862 0.32884732 0.16441382 0.2463444 -0.08101145 -0.17295977 -0.15581083 0.056316976 0.10643565 0.29440916 -0.14753243 0.094576366 0.10036123 0.022178184 0.10550464 0.25515032 0.16084151 -0.017686583 0.22960041 0.055454697 -0.048740506 -0.02053408 0.026057271 -0.13320859 -0.2978452 -0.06326354 0.063582905 0.11187683 -0.11081611 -0.039884403 -0.14151905 0.060085043 0.1278256 0.0801699 -0.119680166 0.22549
211 -0.26307464 -0.018781295 -0.095688514 0.18699041 0.23545508 0.10190112 0.176132 -0.067151435 -0.22548607 0.21982095 -0.012974343 -0.059225537 0.12984438 -0.0530802 -0.020580558 0.17866093 -0.02520423 -0.08712988 -0.17819032 0.22707711 0.09879791 -0.036713764 -0.021187091 -0.1351926 -0.007976296 0.008873723 -0.018246373 0.022268452 0.079594 -0.054683983 -0.02203241 0.123845965 -0.06021988 0.15988673 -0.0906076 0.17636926 0.23529251 -0.031643607 0.07809419 -0.014039099 -0.010244792 0.04619342 0.16458516 0.016382316 0.24030435 -0.06108676 0.11821105 -0.03138681 0.2766098 0.12488529 0.056651995 -0.17666465 -0.048411336 0.04538889 -0.30166543 -0.025751095 0.2508084 -0.18078563 0.19507 0.16787975 -0.031062147 0.035078183 0.05467399 0.2893984 0.068889044 -0.2274869 -0.07674514 0.017293105 -0.01692552 -0.05999028 0.02308997 -0.30908534 -0.1320956 -0.14046414 -0.1701192 -0.038936026 -0.09091009 -0.25189787 -0.10093019 0.1617512 -0.33533713 -0.070796095 0.12153306 -0.013278209 -0.026204841 0.17732087 0.20022145 -0.046081275 0.023663178 0.19456843 -0.012120834 -0.44539142 -0.21727921 -0.30299988 -0.11393114 0.08282711 -0.11169897 -0.06387053 0.0067869346 -0.08388338 -0.15281725 0.021800626 0.026117677 -0.123377375 -0.18444644 -0.064549364 0.11914491 0.08725592 0.28135303 -0.108330645 0.12610716 -0.178925 0.15892707 0.08312385 0.0355227 -0.17601812 -0.20562337 0.0015174373 -0.11233176 -0.055884548 -0.008748806 -0.116198294 -0.07749177 0.083370745 0.21192539 -0.11597905 0.12316147 0.09031337 0.03237193 0.121082574 -0.014627302 -0.047561333 -0.13036862 -0.098124035 0.027068404 0.049970545 0.034953702 0.08954387 0.02005417 0.026071645 -0.0032224623 -0.20324473 0.17720969 0.14252886 -0.17710876 -0.08016733 0.035421185 0.033953574 0.12989591 0.03964672 0.08248545 -0.1575193 -0.17247115 0.02078041 -0.21475095 -0.16772339 0.16073295 0.13418202 -0.098079644 -0.077544235 0.21949725 0.2803475 -0.059709657 0.10101031 0.09982657 0.16222908 -0.10130863 0.21798572 0.024588898 -0.06556801 -0.017674046 -0.094179966 -0.03999459 -0.07499596 -0.31535682 -0.115079045 -0.12287527 -0.023866696 0.3127916 0.048785508 0.03697589 0.014964891 0.09018948 -0.09136516 0.14673091 0.18446407 -0.206022 -0.13549393 -0.15471499 0.043170013 0.24107423 -0.013558797 0.16040124 0.10104805 0.102110274 -0.15735279 0.03816732 -0.085238636 -0.110111564 0.021345278 -0.16342323 0.022784393 0.0073002456 0.108920336 -0.048816822 0.090697445 -0.11750688 -0.18406235 -0.09986533 -0.104905136 -0.0030218803 0.002529394 0.36296317 0.16562425 -0.019930532 0.13629843 0.21972577 0.23195858 -0.2014798 -0.054701995 -0.09626627 0.12960134 0.0805996 -0.030821795 -0.014371868 -0.09128431 -0.09973741 0.044240437 0.03348743 0.00039027375 -0.051237043 -0.13564067 0.06930617 0.15809314 -0.045067873 0.21056387 -0.07578586 -0.10831996 0.014623954 0.12338914 -0.11999265 -0.07125338 0.001771524 -0.028268773 -0.2513578 -0.32228938 0.1841837 0.033552587 -0.28844213 -0.30178168 -0.20322181 0.07443607 -0.0040375316 -0.14457041 -0.03730334 0.10606427
105 0.084098935 -0.012930751 -0.09892031 0.111063056 0.10166138 0.14256802 0.07525925 0.00435213 -0.16492562 0.20645472 -0.13217776 -0.06867242 0.1134712 -0.24022266 -0.1551896 0.11835405 0.22940913 -0.058419168 -0.026047032 0.056361996 0.08209495 0.003391748 0.034856312 -0.31521776 -0.16070104 0.0089526195 0.09820968 -0.12348417 -0.09003822 -0.22024219 -0.0704325 0.21487601 0.02117413 0.07828857 0.05668268 0.2548567 0.118571885 -0.0829722 0.12850201 -0.19391316 -0.04671648 0.1803006 -0.0038816524 -0.22786665 -0.06921587 -0.040691894 -0.042786732 0.015550665 0.1215484 0.08543415 0.063378595 0.03749761 0.03020399 0.045686856 -0.18850762 0.089026205 0.1357451 -0.2826245 0.029352354 0.090363264 0.07033218 0.055633463 0.13933745 -0.016083647 0.09886614 -0.18367301 0.08780269 0.060451493 -0.017833726 -0.0063139857 -0.06850233 -0.12331143 -0.11157985 -0.099897966 -0.12023247 0.025399983 -0.08596146 -0.10664781 -0.062011704 0.24103603 -0.12265898 0.060851254 0.07908646 0.1431283 0.24770577 0.1732983 0.08785251 -0.09001076 -0.06785827 0.1081513 0.053795572 -0.2625478 0.11868287 -0.20276873 0.07424598 -0.015064006 -0.13553189 -0.047876846 -0.08383594 -0.25021678 -0.094197 -0.054670542 -0.017360209 0.014757896 -0.13136747 -0.024618903 0.11736834 0.16656929 0.19081046 -0.04504361 0.08213217 -0.23033094 0.21472006 0.04494983 0.04830414 -0.15386872 0.017024294 -0.023370467 -0.20835271 0.0023897167 -0.23475152 -0.03470976 0.006327378 -0.12224152 0.079731755 -0.06853983 0.08445709 -0.08244406 0.104706205 0.10925004 0.058914598 0.13324124 -0.135289 0.06660237 0.070322484 0.10913486 0.13079984 0.10675282 0.14838716 -0.021736229 0.01943068 -0.163194 0.20543179 -0.036558717 -0.33199295 -0.13056976 0.070386 0.044007555 0.12203834 0.21181567 -0.1375412 -0.16934432 -0.2110484 -0.019262971 -0.17592299 0.031507522 0.38835976 0.123877116 -0.02698081 0.072177775 -0.01783404 0.12624797 -0.054084737 0.012152004 0.048205942 0.085119836 -0.17462619 0.14145665 0.082622334 0.040912796 0.05813237 -0.03928474 0.108250864 0.023634575 -0.2768518 -0.30709448 -0.07362948 -0.0654622 0.29460907 0.12192155 -0.005445736 0.044056356 0.15704575 -0.03162613 0.2493621 0.028587703 -0.13095443 -0.19309826 -0.23476985 -0.16805452 0.15361458 -0.22950466 0.025423681 0.2577317 0.11083508 0.019468695 0.012828817 -0.019627443 0.0053459615 0.05411335 -0.27225688 -0.032045227 0.008825723 0.051903695 -0.12169612 -0.04623734 -0.04579873 -0.15250053 0.041464664 -0.13032828 0.0027082334 0.09586613 0.33187637 0.07541137 0.048012476 0.15845676 0.22196616 0.22704268 -0.12520266 -0.09235282 0.08095621 0.0073248697 0.052604612 0.034621727 -0.041361842 -0.0650401 -0.14361617 0.029399557 0.05486497 0.20596123 -0.14722314 -0.055051632 0.03207702 -0.0076214927 -0.10665012 0.1840883 -0.03711732 -0.019793876 0.094031215 -0.07749374 -0.06873233 -0.028637128 -0.14003989 -0.04642989 -0.25529203 -0.032074824 0.15971765 0.008125621 -0.14483185 -0.12985186 -0.17972611 0.06835651 0.023705386 -0.026002562 -0.22499637 -0.02226299
44 0.18711776 -0.22200915 -0.0282145 0.25892976 0.02618825 0.1888239 -0.05513094 0.19315583 -0.10441088 0.16651289 -0.2276552 0.04056276 0.10238495 -0.35551623 -0.21291834 0.33880427 -0.06691313 -0.09565981 0.039771378 0.11717608 0.12061002 0.11116615 -0.007292989 -0.3226005 -0.1028106 0.20918235 0.27604902 -0.04253373 -0.07575526 0.038854692 -0.104878806 -0.024364844 0.020869283 0.05251329 -0.10457095 0.1707068 0.030554077 -0.12140892 -0.05072001 -0.27701312 0.068457775 -0.02421133 -0.071935594 -0.21656924 -0.057222497 0.03579845 -0.013505398 0.16611317 0.15410925 -0.10532728 -0.14243008 -0.13512377 -0.15755846 -0.21121544 -0.4778531 -0.04814411 0.31045768 -0.110276386 0.2611182 0.010637246 0.0816118 0.12475901 0.24913113 0.23506962 -0.011811991 -0.18418811 0.0435712 0.14016867 -0.009663199 0.22551247 -0.118610725 -0.117886454 -0.09438203 -0.43394652 0.028199311 -0.13893248 0.03342068 -0.1887334 -0.13184784 0.18451135 -0.07444188 0.09621779 -0.02312241 0.08443777 0.09028684 0.2796583 -0.34644267 -0.2047567 -0.08087114 0.08595961 -0.14561768 -0.18090785 0.24762288 -0.15991926 0.030823741 0.023965813 -0.022099871 0.0058248225 -0.07402252 -0.17599092 -0.03240839 0.038545746 0.11136267 -0.06741652 0.16501206 -0.4768053 0.14147276 0.20328082 0.4901712 -0.11925901 0.07969365 -0.29289457 0.30929843 -0.16487913 0.047565 0.03457957 -0.1385155 -0.124066554 -0.0109767895 -0.11901553 -0.18554 -0.25860196 0.10190291 -0.17701541 0.09299634 -0.0037864682 0.13937621 0.016133107 -0.07274661 0.23096786 0.1096616 -0.10897428 0.060073975 0.042971756 0.17103939 0.097914636 0.33447966 0.14950533 0.23748717 -0.13295193 0.19598727 -0.18483792 0.13627498 0.23583005 -0.21592551 -0.4315853 -0.006530345 0.2734119 0.21594515 0.27190688 -0.054354187 -0.29616186 0.033059686 0.11103913 -0.0867003 -0.16720372 0.17266491 0.19034684 -0.10821923 -0.2654498 -0.06749255 0.13754717 -0.068619184 0.056551795 0.0120071815 -0.2665451 -0.15966459 0.45889553 0.022614526 0.14965437 0.05723147 -0.10398314 0.05378316 0.14947091 -0.25935572 -0.41637152 -0.019896192 0.082924925 0.27425882 0.23939405 -0.0057862187 -0.26437572 0.11990958 0.004742583 0.08615405 -0.08140569 -0.33813122 -0.088909656 -0.009031182 -0.29117867 0.29422814 -0.21178001 -0.121227786 0.27994862 0.34870663 -0.028539956 0.040016536 0.016831325 -0.14563802 0.040851157 -0.2527518 0.17973763 0.031671498 0.0896417 -0.08690017 0.008199608 0.21648428 -0.19152893 0.10938782 0.03266957 0.05731 0.1598787 0.38304073 0.10664237 -0.27646193 -0.044105165 0.13438606 0.22450872 -0.09977436 -0.0031053575 0.0032142298 -0.13357437 0.0812934 -0.13342158 0.006172002 0.0017644244 -0.2261287 0.16911384 0.25233445 0.1111455 -0.10285727 -0.18831182 -0.09807815 -0.14205693 -0.18084 0.085811526 -0.022925127 -0.20941952 0.026509298 0.21272641 -0.18848841 -0.027954403 -0.15161556 -0.22115615 0.028958041 -0.2316131 0.018254602 0.19828157 0.03450055 -0.27563852 -0.21239372 0.09579488 -0.12905386 -0.1425935 -0.01314545 -0.2174892
82 0.12355034 0.07621819 -0.10494388 0.005651497 0.04658768 0.1336229 0.08921364 0.03995776 -0.14591958 0.18039672 -0.19932815 -0.09806661 0.115446 -0.24342483 -0.006159472 0.036071066 0.17543939 -0.05296665 -0.10477789 0.010840764 0.14190379 -0.05295167 0.06716138 -0.105852656 -0.201785 -0.0893994 0.062005002 0.042841915 -0.14073247 -0.18120536 -0.025302343 0.11816975 -0.015274787 0.01894483 0.051328514 0.2609544 0.100963905 -0.114493646 0.15216719 -0.061124764 -0.055673208 0.19430442 -0.03042532 -0.06931731 0.00831106 -0.0571245 0.006732348 0.09740291 0.16957167 0.094756104 0.074891366 0.04208992 -0.025641568 0.08061744 -0.25814265 0.074959315 0.049248986 -0.33455828 0.019959664 0.16398825 -0.0024709061 0.018297235 -0.015036361 0.1974231 0.22724158 -0.08343747 0.04045392 0.010721493 0.0010954223 0.037354317 -0.10660451 -0.0994465 -0.02601364 -0.07548549 -0.097149454 -0.09652917 -0.07058976 -0.036960173 -0.1264965 0.3073421 -0.15137804 -0.02586714 0.07087849 -0.0059212213 0.15677024 0.24606274 0.115154475 -0.11185788 0.06630545 0.08617194 -0.0032445968 -0.17811377 0.064769655 -0.16488214 0.036188304 -0.08349393 -0.10561971 -0.0663376 0.017000211 -0.17170659 -0.22000428 -0.08326077 0.08175415 0.1392796 -0.13477711 -0.1129543 0.015090563 0.13195717 0.23481293 -0.06013438 0.121658064 -0.17324224 0.28947246 0.06844803 -0.08440559 -0.15734647 0.0004322818 0.030757943 -0.13078006 0.06892857 -0.18158004 -0.13221893 -0.03776302 -0.06355044 0.0031655526 -0.11571234 -0.002961727 0.020858344 -0.017455105 0.12422164 0.0995017 0.19037709 -0.07417542 0.02656787 0.0105100265 -0.0076024947 0.17848597 0.1957547 0.180303 0.09096285 -0.1288396 -0.012967958 0.2993391 0.022212164 -0.3145007 -0.1400602 0.017608818 -0.010940691 0.14283082 0.24815246 -0.10883447 -0.051188216 -0.1645928 -0.04904701 -0.16229936 0.0853926 0.3785203 0.16758646 -0.05481604 -0.08994317 0.041674614 0.09049058 -0.11013229 -0.059097107 0.17348096 0.074425325 -0.119391695 0.17861885 -0.05126817 0.018288188 0.00021299513 -0.15567201 0.038066003 -0.026852302 -0.19476841 -0.20967823 -0.012548591 -0.06309373 0.30823687 0.025834309 0.053031884 -0.13051163 -0.012524979 0.030987231 0.18183596 0.01120544 -0.19897199 -0.10327715 -0.08684696 -0.03205372 0.19752851 -0.31051606 0.12930538 0.18288577 0.12921979 -0.06841942 0.12973873 -0.09256532 -0.00053958973 0.16166866 -0.106766365 0.14777105 0.09187082 0.10209733 -0.17105791 0.0037589618 -0.1195139 -0.08482101 -0.042424437 -0.1510289 -0.08833516 0.09594472 0.2999791 -0.004026407 0.08489501 0.062304452 0.21342131 0.015188237 -0.14261624 -0.04059181 0.098280184 -0.032660805 0.03925493 -0.052844483 0.11741535 0.047980726 -0.20029043 -0.04969486 0.051946312 -0.0059410622 -0.13811131 0.019804148 0.10407081 -0.0670105 -0.22895056 0.17613196 0.13190664 -0.055987816 0.070588365 -0.05396681 -0.020352583 -0.042202953 0.041674446 0.022888916 -0.22806129 -0.10721162 0.14039885 -0.15956531 -0.2537747 -0.03158895 -0.11694172 -0.0065831332 -0.05585754 -0.11301559 0.030113246 0.0006935645
165 0.11157418 0.026736677 -0.00060024124 0.38098198 0.05012132 0.15582472 0.094539866 -0.012548384 0.009565261 0.25788835 -0.004161195 0.11265009 0.023570923 -0.15468054 0.017048843 0.2890492 0.04894268 0.11409962 -0.1094544 0.31030557 0.044765748 0.0093223415 -0.12577729 -0.092073195 0.115772724 0.13321917 0.33937204 0.35662767 -0.18231472 -0.040889625 -0.13843736 0.14025888 -0.20364965 -0.060848527 0.029640032 0.19321533 0.0005811056 -0.30099463 0.04552157 0.22640622 -0.08652994 -0.0049520666 -0.023687316 -0.11577803 0.33206552 0.0017304795 -0.03987341 0.122760974 0.13422352 0.19089629 -0.108569086 -0.22297683 -0.19283324 0.30377984 -0.35613656 0.04371696 0.014014059 0.050177995 0.22568087 0.032466017 0.004047976 -0.1460038 -0.05299847 0.09900121 0.032146305 -0.21097685 -0.13869251 0.26659817 0.0042829877 -0.0052514845 0.07807233 -0.21955515 -0.08410634 -0.11691504 -0.02653225 -0.24724784 -0.16533315 -0.01831486 -0.20430134 0.020554619 -0.17737065 -0.13318796 0.0986898 0.012521947 -0.093915984 0.2697654 -0.009131111 -0.3147077 0.060838368 0.114605084 -0.022419801 0.12683205 -0.0016507428 -0.28138018 -0.15281081 0.16158581 0.102961555 -0.17426045 0.08967836 -0.19167492 -0.035610594 -0.0069296 -0.009588016 0.00061117526 0.00882198 -0.32553816 -0.05895602 0.12818119 0.31160703 -0.23002672 0.02547521 -0.25646663 0.25533712 0.079531394 -0.19517745 -0.021345632 -0.104051925 -0.20971222 0.059587464 -0.024697298 -0.03528545 -0.3163546 0.08971733 0.14434007 0.053107586 -0.027451258 0.2291282 0.22044933 -0.081694715 -0.026590727 -0.06432726 -0.092853144 0.04453711 -0.068926856 0.038131606 -0.14142537 0.18654121 0.25563717 0.014093953 -0.060731694 0.18901226 0.07996414 0.26173154 0.37628806 -0.24665314 -0.17725971 0.04944442 0.09329982 0.16623138 -0.00012064402 0.022926135 -0.09017392 -0.29334337 0.09046762 -0.28336573 -0.14411907 0.10792921 0.11883043 -0.07907322 -0.14895187 -0.09495223 -0.05741125 0.027166154 0.08214764 0.016242655 -0.06976995 0.09840773 0.28714076 -0.04952721 0.11804043 -0.0144767 0.08783444 0.017896088 -0.039822258 -0.22558372 -0.033717416 0.06962936 0.1226675 0.3720323 0.1033152 0.17123611 -0.0038347226 -0.080719255 0.012732186 -0.018634921 0.046911586 -0.47098285 -0.10164349 -0.085272565 0.08388016 0.24171408 -0.15919554 0.18667142 0.031362023 -0.008745483 -0.19523309 0.03955907 0.007106252 -0.08831567 -0.09964236 -0.104867734 0.098813035 0.02284017 -0.024731774 -0.09139885 -0.10612168 0.046413854 0.12852864 -0.079480045 -0.09510173 0.0026051935 0.24865377 0.31476805 -0.114630595 -0.12389822 -0.0032827463 0.008554904 0.021625958 -0.3483163 -0.100243635 0.19380084 0.04937805 0.18688278 0.1851488 0.18002938 -0.021291213 -0.16717294 0.06671679 -0.014073379 0.085441336 -0.33300102 0.018719967 0.22677489 -0.08426074 -0.16733587 0.3213141 0.12756184 -0.4043976 0.030094406 0.092780255 0.07204354 0.09359943 0.14604561 0.02992964 -0.11516606 -0.1944559 0.3779115 0.15705511 -0.16815454 -0.030715879 -0.14556924 0.24975818 -0.17690212 -0.07766709 0.1166053 0.15256643
405 0.11551572 -0.10905843 0.100841135 0.33491594 0.18613209 0.09677 0.20142378 0.0932396 -0.08596591 0.37293696 0.12777275 -0.014957198 0.1826845 -0.27826774 0.013158284 0.25062594 0.020830426 0.12606387 -0.22025132 0.11562985 0.12849593 -0.0371018 -0.15083495 -0.3059005 -0.10103148 0.14641944 0.13901132 0.19771336 -0.10709169 -0.21899062 0.07734499 0.09997699 -0.18065773 0.23794381 -0.08075843 0.25788984 0.1890638 -0.08465039 -0.061597507 0.15312779 0.040673245 -0.23415144 0.045829993 -0.14729755 0.2666762 -0.14429916 0.0016713296 -0.040594693 0.043030176 0.0018145703 -0.021067392 -0.09119301 0.070369296 0.124227844 -0.1053542 0.03657178 0.005144582 -0.14674082 -0.12625055 0.10710398 0.023015698 0.2276122 0.030448757 0.2326467 0.07380703 -0.05073706 -0.019731892 0.034267552 -0.025306838 0.17024806 -0.1255698 -0.08432502 0.03324552 -0.13723062 -0.051020686 -0.2378034 -0.22984672 -0.17158845 -0.093899444 0.29465425 -0.17293504 0.06789257 0.1311826 0.06628938 0.081922606 0.13797948 0.17981215 -0.31087205 0.081662215 0.14037497 0.10854464 -0.153509 0.10695031 -0.1383616 -0.15572505 0.124536656 -0.07484697 -0.010066104 -0.07675774 -0.19157173 -0.23119967 -0.041872457 -0.05038531 -0.17943211 -0.1412919 -0.050112523 0.049945105 0.16948394 0.03742677 -0.1749079 0.042997964 -0.24535035 0.258736 0.2268794 -0.038688455 0.0064534424 -0.06321914 -0.14995442 -0.09867086 0.040273637 -0.11008807 0.07962852 -0.0038142598 0.14086029 -0.025452944 0.048214294 0.18032204 0.19184183 0.008920199 -0.10925638 0.22445211 -0.060251404 -0.06434098 0.05196749 -0.12298455 0.14564739 0.14513852 0.31016833 -0.04540408 -0.090441175 -0.09703893 -0.059717897 0.20826888 -0.025654327 -0.16278543 -0.14320241 0.13061361 0.14700012 0.15951146 -0.057293586 0.0008609265 -0.1866166 -0.24166179 0.21539958 -0.058867957 -0.017781373 0.27903983 0.13932392 -0.19026296 -0.036437247 -0.06116385 0.057521034 0.18425356 0.030931326 0.05604337 0.023011839 -0.21125665 0.12997541 0.13900717 0.052826323 -0.062346634 -0.07236234 -0.08491723 -0.14423433 -0.291323 -0.050485548 -0.27539927 0.12444932 0.42524618 0.025829619 0.08381012 0.03851858 0.008945935 -0.19886494 0.17294925 0.12875912 -0.08418962 -0.11704507 -0.2196203 0.058361724 0.22073004 -0.11960826 -0.0063683107 0.24404305 0.12612322 0.07308154 -0.0017904642 -0.09122373 0.020601213 0.05269308 -0.21321367 0.031687964 -0.12874447 -0.22967781 -0.061730262 0.017787555 -0.07306395 -0.069847785 -0.08784509 -0.14257178 -0.0462115 0.16391593 0.38704997 -0.0273708 -0.0032244541 0.062324494 0.09269036 0.18714063 -0.1072524 -0.28892973 0.2526996 0.1543876 0.124283805 0.15139526 0.13439883 -0.1891913 -0.07638566 -0.2662354 0.050125606 -0.01095527 -0.17212999 -0.07873267 0.13789319 -0.033103038 -0.08248783 0.053700842 0.10566157 -0.1662639 0.1737656 -0.004736115 -0.2304854 0.056781225 -0.08687091 0.038250584 -0.2005542 -0.24253005 0.28426412 0.2137317 -0.23785001 -0.030656265 -0.27799815 0.19799447 -0.19263798 -0.19251414 -0.11707262 0.2456964
420 0.1756439 -0.07449901 -0.06998473 0.24327375 0.13914283 0.03126146 0.08369107 0.015285055 -0.032920685 0.056742255 0.000526896 -0.08830851 -0.0634826 -0.26267552 -0.070779674 0.21936943 0.15561764 0.045980904 -0.09241568 0.21946408 0.14022644 0.058570456 0.013873046 -0.12896578 -0.20585078 0.17903078 0.19092835 -0.02621409 0.05186954 -0.09794164 -0.22228497 0.25780737 0.03303955 0.04195095 -0.034196664 0.11423077 0.015196564 -0.087373644 0.05435194 -0.015559961 0.046099212 0.045263354 0.18570639 -0.12500659 0.027618406 -0.035495628 -0.04804736 -0.03913383 0.0951107 0.05285116 0.025563018 -0.01903488 0.09472527 0.1283585 -0.08946432 0.079898454 0.01896964 -0.29302782 -0.06389388 0.09947464 0.193813 0.037819542 -0.1070976 -0.1184429 -0.06750961 -0.16683075 -0.07100665 0.12624556 -0.038791735 0.050396293 -0.0028095238 -0.043375447 -0.10546793 0.030978695 0.09359255 -0.07494157 -0.19790779 0.10810274 -0.19821161 0.16919674 -0.22738975 -0.06531654 0.18877774 0.08703791 0.12359049 0.11127268 -0.012355098 0.022245131 0.03872861 0.110041715 -0.0118397735 0.005981132 0.08568419 -0.15386555 -0.008693966 0.10207504 0.0934379 -0.06240054 0.13315414 -0.1858506 -0.22109814 -0.0356181 -0.028453669 -0.09356847 -0.04837057 -0.039986506 -0.12401046 0.21451338 0.26723498 0.02847983 0.07134346 -0.12962125 0.194523 -0.0036801957 -0.15935619 -0.034662265 -0.049709283 -0.033541784 -0.075012855 -0.019941725 -0.16103886 -0.13883577 0.036747877 -0.017349461 -0.1105802 -0.05907165 0.02861269 0.09687634 0.03377229 0.14445409 -0.18590283 0.026461707 0.008869706 0.12339395 0.046751477 -0.03699649 0.18097758 0.06481733 0.023856217 -0.14014766 0.18038706 -0.19919565 0.29790205 -0.05729141 -0.33308876 -0.2344868 0.055458438 -0.071796596 0.14449696 0.018507715 -0.049413834 -0.28024665 -0.2856433 -0.08349823 -0.13835408 0.050461307 0.1681809 0.21988717 0.03693277 -0.04360327 -0.099357985 0.20053992 -0.079777814 0.059578314 -0.017509347 0.042841334 -0.022234734 0.098734476 -0.08369702 0.09754239 -0.035313133 -0.071847126 0.015157462 -0.18193306 -0.02098394 -0.3196335 0.038017068 -0.09261729 0.31635776 -0.1077356 -0.012041667 0.08337746 0.116096675 -0.19423296 0.09122193 -0.05719424 -0.13562128 0.06288969 0.027576188 -0.09951471 0.20062938 -0.26403832 -0.004506145 0.047093403 0.13693006 -0.06862861 -0.07662822 -0.13110062 -0.033367023 -0.021362962 -0.089338794 0.019700224 0.056435633 -0.121105134 -0.0005241405 -0.033663645 0.009313217 -0.0634941 0.09111381 0.09238452 0.1341552 0.2085852 0.2141814 0.014803 0.13766642 -0.0040810513 0.13707492 -0.015259696 -0.1844932 -0.076273404 0.06937748 0.11479084 0.13550968 0.14924231 0.01878157 -0.043385223 -0.075802006 0.12987985 -0.015173381 0.14172463 -0.25623143 0.047890056 0.051684983 -0.043321863 -0.085241474 0.21444033 -0.062354058 -0.031306844 0.0629738 0.084080905 -0.069092825 0.057015173 -0.032678135 -0.13157886 -0.054993067 0.051508002 0.18337446 0.046940327 -0.14963634 -0.122473 -0.22845319 -0.072554626 0.04130237 -0.15503325 -0.07426304 0.07855768
301 0.18305644 -0.084715195 -0.26903298 0.438673 0.17265774 0.065707944 -0.050194956 0.09086795 -0.0018746513 -0.0029509354 0.17955813 -0.013216266 -0.04103459 -0.23098607 -0.11506963 0.14818084 0.104398265 0.08687132 -0.16593154 0.3088766 0.2061923 0.008027339 -0.092576526 -0.090022914 0.09516903 0.13123018 0.115987316 0.09958719 -0.025957385 -0.05166042 -0.073187046 0.306236 0.015721591 -0.060835883 0.15592702 0.0040883734 0.10029098 -0.22201881 -0.0036447174 0.13264073 0.13097285 -0.14572378 0.13372579 -0.21444368 0.007855595 0.0028262832 -0.054850575 -0.17473221 0.10959018 0.10737977 0.07670115 -0.0960154 0.084118426 -0.041372582 -0.24142107 -0.08124639 -0.008575771 -0.17375916 0.071205184 0.22227897 0.024363212 0.08522934 0.0019950012 -0.0025575613 -0.03592599 -0.13924193 0.050540496 0.11149727 0.10411004 0.063756965 0.10455107 0.005089499 -0.06668231 -0.09677978 -0.038915515 -0.09729192 -0.14928907 0.07429155 -0.034626268 0.03893782 -0.1256825 -0.0148313 0.0021833843 -0.11096225 -0.07043319 0.20258518 -0.11902874 -0.10053702 -0.10990922 0.13178001 0.08086647 -0.10848353 0.013751367 -0.12538163 -0.15240648 0.114625946 0.28376737 -0.22786959 0.013785627 -0.19137514 -0.28697973 0.113066666 -0.16692123 -0.06848938 -0.023806997 -0.088389084 -0.20373993 0.07126392 0.2720982 -0.15068266 0.033546537 -0.30297238 0.1519529 0.006176089 0.09521194 0.06644603 0.027904212 -0.10224696 -0.07013266 -0.0047684326 -0.18946454 -0.3349815 -0.09382203 -0.07139639 -0.107212864 0.12891525 0.088875264 0.11154645 -0.052290592 0.06838438 -0.17596862 0.009957356 0.19664589 0.16227315 -0.08488657 0.05497596 0.11113642 0.1605527 -0.12557037 -0.14242218 0.22447944 -0.16395217 0.0633936 0.022628278 -0.19519064 -0.10094329 -0.13332991 -0.032188054 0.14939609 -0.035422616 0.052991115 -0.030726178 -0.05062834 -0.107479855 -0.14838186 -0.030022526 0.13837239 0.119442 -0.044950135 -0.111654945 -0.12581232 0.09209981 0.03294903 0.120020546 0.03214358 -0.14226948 0.043354325 0.13805032 0.028988844 0.06511585 0.0024634893 0.00018853204 -0.13230206 -0.004186244 -0.014851072 -0.1890755 0.089503266 -0.030726999 0.22798817 -0.16347815 -0.045538787 0.14024957 0.2595722 -0.14068452 -0.032794647 0.04716811 -0.26587996 -0.10936318 -0.007880744 0.08193782 0.08569668 0.01891482 0.03710281 -0.026173497 0.22278857 0.075907834 -0.076449834 -0.083491795 -0.16979708 0.16200638 -0.021880683 0.17036936 -0.080652624 0.14293669 0.19264422 -0.09229504 0.00015791392 0.012524246 0.0907264 0.04300312 0.13040645 0.13407585 0.22186467 -0.046178754 -0.07396288 0.1330233 0.080583066 -0.008619484 0.0012031028 0.052618697 -0.015949685 0.14114045 0.065339155 0.06635393 -0.080210425 -0.05978396 -0.06780909 0.19162984 0.09425003 0.16952357 -0.119780965 -0.091315426 0.12115765 -0.15286314 0.011926979 0.24430493 0.08569814 -0.12260259 0.20896956 0.065190405 -0.07318028 0.17461881 0.008358745 -0.24583836 -0.07425378 -0.05729541 0.023707489 0.048944194 -0.032065127 -0.059195466 -0.014740824 -0.14198568 -0.08240176 0.041476246 0.0023665708 0.035961293
6 0.09705187 -0.1400363 -0.01092893 0.11105883 0.29513222 -0.042175595 -0.024829768 0.0064617884 -0.28135687 -0.06650764 -0.0069416743 -0.12903729 0.081457384 -0.27891222 -0.022674212 0.050955236 -0.052151803 -0.045010913 -0.40315172 0.46005636 0.26241183 -0.10636971 -0.07242317 -0.094326586 -0.20159765 0.2134471 0.11623345 0.08113132 0.3067497 0.047823943 0.000144776 0.30151623 0.16077459 0.1391181 0.0012895936 0.047395974 0.26527634 0.07790445 0.0928367 0.026518933 -0.020000787 0.12570947 0.24844337 -0.16427661 0.19003312 -0.09157407 0.08400256 -0.35721347 0.2973255 0.017525408 0.07958311 0.00089297217 -0.07081304 -0.13168202 -0.0876281 -0.0069606216 0.08596183 -0.41342393 0.087593615 0.25430927 -0.06804184 0.2509774 -0.06664855 0.0025509915 0.032336302 0.004459762 -0.051163003 -0.028222717 -0.027488645 -0.092644855 0.1645109 0.09742255 -0.16162454 -0.13671048 0.022314662 -0.08357401 -0.045309085 -0.026992653 -0.0014471994 0.13605215 -0.22634426 0.057242874 0.07545153 -0.0796462 -0.022788497 0.1428031 0.14200431 0.19952041 -0.15017638 0.07971113 -0.055022128 -0.29497153 -0.010137866 -0.32252258 -0.16461407 0.2199081 0.040647026 -0.2786803 0.12240496 -0.043328825 -0.46497855 -0.0028904993 0.026815465 -0.042332485 -0.28480005 0.25295958 -0.08426318 0.061412837 0.09910948 0.079385705 0.099584825 -0.23077153 0.0073014945 -0.0012509951 -0.09863883 -0.041324314 -0.090044096 0.07584094 -0.15582862 -0.10758254 -0.23346108 -0.055495106 -0.0692131 -0.011445048 -0.019345893 -0.15037276 -0.076489344 -0.19511838 0.17320974 0.28903615 0.015658408 0.11269952 -0.16283269 -0.029105844 -0.08889835 0.03629848 -0.13153806 0.11119275 -0.1124037 -0.090840854 -0.014374114 -0.32554126 0.098040804 -0.06632984 -0.25278035 0.12282445 0.037382532 -0.07274167 0.14413786 0.035210766 0.050943077 -0.1858122 -0.09475867 -0.14396763 -0.25581035 0.25418353 0.17935094 0.09044542 0.0055754585 -0.11382446 0.09588048 0.057487115 -0.10324981 0.043278933 0.0060217367 0.120704226 -0.024290463 0.119176716 -0.19835125 0.05330861 0.017985854 -0.21592167 -0.1696916 -0.0863723 0.0030177005 -0.19710849 0.06823191 -0.17048553 0.017269205 -0.18783243 -0.11114726 0.22093056 0.15125448 -0.17485183 0.076084904 0.06063142 -0.28633922 -0.038619995 0.055231035 0.1299791 0.08080922 -0.04209007 0.12125882 -0.12980154 0.32701698 -0.19473779 -0.091190025 -0.06344761 -0.19900559 0.1881676 -0.08372606 -0.08982752 0.1589393 0.12590824 0.017609706 -0.0030226205 -0.06090772 -0.10777801 0.09414557 0.17028302 0.27646038 0.14014512 0.0749328 0.2606597 0.03314787 0.18387161 0.42214435 -0.013139245 0.046306346 0.093105115 -0.1256393 0.32400778 -0.036453944 0.17526272 0.007204974 -0.17446832 -0.2233521 0.34491268 -0.014779937 0.16083242 -0.16514364 0.10458884 -0.07831348 0.20323889 0.067370914 0.19441621 -0.018831862 0.07932748 0.18661645 -0.006038988 -0.2632448 0.0011685935 -0.027475154 -0.3107007 -0.1448087 -0.015553922 0.07017969 -0.04827764 -0.16664256 -0.2250882 -0.12387563 -0.2101972 -0.01642213 -0.14586267 -0.17375758 -0.057874262
280 0.24578506 0.05626209 0.1015497 0.24355446 0.067307204 0.043830037 0.014818896 0.050004467 -0.016329994 0.16925752 -0.19749328 0.00926226 0.059729677 -0.18519191 0.01227435 0.12475489 -0.06442135 0.26129627 -0.2636888 0.1622301 0.1416417 -0.049356747 -0.026591131 -0.086990006 -0.11953449 0.08993058 0.32226485 0.36275762 -0.016193707 -0.22286332 -0.04801857 0.186245 -0.18907075 -0.03927842 -0.05924024 0.31397983 0.030685203 -0.017665539 0.17153607 0.04953498 -0.10871177 0.0886403 -0.03760522 -0.17092949 0.2593504 0.018140974 0.028180588 0.046445854 0.11617765 0.087116055 -0.23360264 -0.116036326 -0.06138373 0.39208043 -0.18121772 0.23646292 -0.0088877175 -0.10606698 -0.029130245 0.15079153 0.11374003 0.14867477 0.12944232 0.1504919 0.11984169 -0.044522703 -0.14528762 0.06107698 0.1416656 -0.068606235 0.0053859414 -0.0070276964 -0.109307244 -0.17861857 -0.053477164 -0.2622871 -0.19633892 0.032309745 -0.16253681 0.16977127 -0.104867116 -0.050070908 0.08477642 -0.12650123 0.22237054 0.22933091 0.089687996 -0.26289728 -0.0121259 0.13125248 0.07282235 -0.017618854 0.109774105 -0.3128523 -0.15003754 0.06412261 -0.07009879 -0.18373276 0.08915761 -0.18512644 -0.2627394 -0.20700257 0.040914513 0.10093575 -0.17575182 -0.22172825 0.014091705 0.052668598 0.10087544 -0.039920542 -0.13205066 -0.26367512 0.30907455 0.20533986 -0.34156504 -0.08083301 0.030537367 -0.04812939 0.115050934 0.05678355 -0.14794964 -0.1596103 0.091613755 0.1624232 -0.034247193 -0.04700854 0.06750268 0.11698682 0.04559477 0.08069554 -0.04520621 0.08380774 -0.093976565 -0.047913652 0.05314804 -0.043867137 -0.030420568 0.24584068 0.067972496 -0.06174527 0.031077484 0.0431366 0.25456697 0.14303112 -0.2886115 -0.120643504 0.011017671 -0.007272638 0.020934884 0.1277695 -0.14622243 -0.17530431 -0.19970095 0.065308206 -0.13848224 0.121030025 0.2412736 -0.014805567 -0.13101776 -0.023460262 -0.07081377 -0.14304589 -0.14472982 0.009955208 0.15154848 0.11018305 0.06733823 0.2463965 -0.07216539 0.08957774 0.15878287 0.03832687 -0.055031706 -0.06380571 -0.2970132 -0.008432802 0.1621809 0.08221148 0.2662718 0.050738934 0.24963708 0.047513835 -0.118770465 0.021636976 0.0342027 -0.08018762 -0.29301378 -0.058036365 0.020583428 0.12488039 0.05652 -0.22024806 0.17198813 -0.031627677 0.051399387 -0.070465125 -0.042355046 -0.005418724 0.024710597 -0.00088896 -0.16046561 0.08175768 0.049177203 -0.0494849 -0.2642963 -0.07480109 0.0129869105 0.15199304 -0.042706646 -0.1614691 -0.031662952 0.21790183 0.13973269 -0.09884357 0.045644414 0.16782218 0.2075013 0.045933828 -0.30146328 -0.0579214 0.2949893 0.05736679 0.093201935 0.15972523 0.23573577 -0.12134153 -0.28333056 -0.08879732 -0.13400505 0.039532896 -0.26810753 0.18227677 0.21989721 0.0154696265 -0.056176 0.07301547 0.06834756 -0.1789149 0.16315596 0.13591033 0.04890842 -0.017444018 0.19942072 0.01021386 -0.2252992 -0.0939032 0.35330734 -0.0056549725 -0.24853308 0.10711694 -0.0989164 0.27990326 -0.058761355 -0.17612933 0.028799707 0.05405934
114 0.011738037 0.10579626 -0.00888945 0.15631689 0.060685508 0.20077209 0.19591175 -0.09814668 -0.24392436 0.119147584 0.048805464 0.039057445 0.15219216 -0.16708054 0.09479634 0.25915927 0.17317383 0.24514355 -0.012724812 0.20832373 0.046502322 0.043521482 -0.153711 -0.14416066 -0.07781057 0.06973015 0.32600576 0.036325812 -0.0063842344 -0.2292893 -0.018204406 0.07936947 -0.21144369 0.0024543996 -0.026053272 0.28842133 0.19536616 -0.26281354 0.13924311 0.08895409 -0.066260435 0.13939877 0.14936455 -0.122985914 0.17327076 -0.1587183 -0.07460714 0.053582404 0.10357473 0.15879963 0.029730583 -0.1487834 0.06325904 0.21879466 -0.3319405 0.082347184 -0.022564108 -0.10935273 0.08243003 0.048923463 0.06821692 -0.03612393 -0.032921653 -0.030063344 0.102375306 -0.20838585 -0.08936822 0.19233869 -0.0360835 -0.1795201 0.10047521 -0.2647858 -0.05626745 0.111764394 0.04950659 -0.27299383 -0.10191695 0.0029525312 -0.23367555 0.11932675 -0.14097825 -0.13711555 0.117131956 -0.017609078 0.055763803 0.27495125 0.04312312 -0.19254786 0.16040327 0.24546665 0.029723004 -0.035821307 -0.0026864333 -0.46004742 -0.07877269 0.078741685 -0.08942412 -0.13118497 0.14867543 -0.20741355 -0.117343396 -0.11446907 0.022378426 0.16172841 -0.10484475 -0.09604405 0.1017176 0.16311586 0.21965878 -0.06878604 -0.04403788 -0.285016 0.24187206 0.13731596 -0.29665795 -0.06944 -0.06405066 -0.14319812 -0.10836345 -0.041508418 -0.006134751 -0.15710728 0.007697457 0.029119307 -0.14028575 -0.12942672 0.11612798 0.106009915 -0.0038539574 -0.14687397 0.07053976 -0.007262969 -0.1413675 -0.091938324 -0.014698846 -0.007034459 0.08988947 0.09053674 0.089902945 -0.026616992 0.05267475 0.111666985 0.09034251 0.222009 -0.30301228 -0.097906396 0.1298273 -0.040391784 0.13734072 0.039981447 -0.23893367 -0.12479598 -0.2769606 -0.04203522 -0.32747963 0.021903211 0.20860596 0.059362438 -0.1358128 -0.12231656 0.13169514 0.13758564 0.058841277 0.18303758 0.014460869 0.08288804 -0.16623954 0.16959356 -0.012402758 0.012586826 -0.22950195 -0.012756743 -0.03022862 -0.13574761 -0.28911543 -0.08634735 -0.098789975 0.036281377 0.32633802 0.07800953 0.11966555 0.07058747 0.012647628 0.100854956 0.02880053 0.23880692 -0.46464214 -0.0072014662 -0.1743064 0.14932011 0.38910925 -0.3258438 0.19942726 0.012015245 0.044816 -0.2295401 0.11344087 0.07079084 -0.08420316 -0.028566184 -0.22249416 0.046339124 -0.042053565 0.0271176 -0.022484215 0.028263187 -0.23910859 0.019028937 -0.14408009 0.024181377 -0.13774113 0.10223273 0.29750982 -0.21754922 -0.07192435 -0.06614217 -0.04427383 0.17557718 -0.26978186 -0.16116698 0.15424468 0.14246699 0.23125954 0.1383803 0.10461938 -0.08120832 -0.24329393 -0.017509324 0.054821428 0.18066078 -0.2843198 -0.03952216 0.15710507 0.019411577 -0.09358552 0.32334077 0.062352773 -0.23748249 -0.019931694 0.0475921 0.06011721 0.005692706 0.13537829 0.011721981 -0.0908188 -0.14482467 0.22616987 0.1816762 -0.37152296 -0.04275896 -0.19741155 0.011646036 -0.044122707 -0.14436986 0.0043881773 0.23842782
58 -0.11572475 0.012807043 -0.18414801 0.123591386 0.17401874 -0.070809945 0.0707772 -0.019017784 -0.24642497 0.10390476 -0.08454774 0.03432904 0.020016126 -0.23686999 -0.08856985 0.12253992 -0.0090684 -0.013157246 -0.10124997 0.322186 0.07108377 0.067063056 -0.07654445 -0.1377976 -0.12438929 0.029599035 -0.17667463 -0.022253178 0.04966056 -0.13364051 -0.045614637 0.24815789 0.101165235 -0.12598798 0.106062144 0.17300723 0.17393552 -0.029682672 0.0533688 -0.099288575 0.08572153 0.029084463 0.21605761 -0.21214746 0.09409968 -0.021426525 0.01951372 -0.13527541 0.26328328 -0.043852042 0.1685105 -0.08747323 -0.08039615 -0.119361795 -0.46998575 -0.15094316 0.18657953 -0.49114865 0.17251536 0.28597608 -0.08342528 0.16374484 -0.04876838 0.28581223 0.090154216 -0.021441188 0.10156185 0.03751544 -0.232194 -0.06727029 -0.025587715 -0.16391762 -0.1605159 -0.14263348 -0.10214318 0.0032873352 0.0630735 -0.2022684 -0.14395775 0.14019452 -0.14993799 -0.085080996 0.04048222 0.06257501 0.044035546 0.31364775 0.2561805 0.1307913 -0.08772108 0.12203516 -0.007835073 -0.31716558 0.013356929 -0.3244893 0.055446677 0.11748292 -0.06510552 -0.27145994 0.039909992 -0.19946308 -0.26871023 0.19741295 0.12461966 0.0845972 -0.03634852 0.12448432 0.18252927 0.23949195 0.18653712 -0.17597708 0.29279375 0.08239349 0.25334886 -0.06897593 0.022137336 -0.15034793 -0.09346348 -0.0016635485 -0.25389108 -0.045721572 -0.033512466 0.0020879796 -0.24068758 -0.17838912 0.14182314 -0.11829929 0.004340908 0.02870417 0.043402743 0.24579793 0.063393034 -0.0147285 -0.101739086 0.06511926 0.050751954 0.038060494 0.20300327 0.16170941 0.21670265 0.0911469 0.014806693 -0.20176685 0.0067810235 0.0084017925 -0.2902299 -0.123487264 -0.047372587 -0.16571799 0.23154153 0.1952866 0.15491246 -0.17551523 -0.17625277 -0.093589164 -0.36796457 -0.013349402 0.40540534 0.3683075 -0.17646675 0.07882834 0.26135385 0.22775884 0.049578622 -0.012296155 0.26519793 0.07969008 -0.203779 0.3776794 0.12660573 -0.0006171035 -0.19797252 -0.21350545 0.08255201 -0.07248753 -0.16798396 -0.16597097 -0.21370573 -0.029892392 0.3846501 0.022039916 -0.08877758 0.21356851 0.06139159 -0.17025782 0.20119374 0.17641178 -0.17520106 -0.010254509 -0.19660003 0.10180461 0.25798365 -0.16917306 0.06857328 -0.0040373593 0.1940852 0.047638476 -0.104325026 -0.013991698 -0.2307668 0.07249795 -0.13370104 0.14469425 0.14935301 0.13424669 -0.17084709 0.13055791 -0.10703662 -0.40666443 -0.06472545 -0.03004594 0.017401475 0.12662289 0.3704136 0.2672512 0.010912035 0.112866655 0.3056203 0.005493582 -0.040130243 0.08685396 -0.11538983 0.10287938 0.11035854 0.0143827805 -0.0013127443 -0.0202418 -0.1743923 0.21512415 0.038721412 0.00025199668 -0.056247003 -0.01270542 -0.04595357 0.18986587 -0.1654182 0.23957516 -0.046783626 -0.109718144 -0.011372513 0.033454053 -0.17638604 -0.12994805 -0.017651103 -0.12768152 -0.16334759 -0.10727293 0.1250152 -0.08291203 -0.14930204 -0.38897732 -0.07954406 -0.20122914 -0.12878089 -0.059699357 -0.072655104 0.1462947
256 0.085993655 0.11987203 -0.040957026 0.2284063 0.17224695 0.08709731 0.17356238 -0.045185633 -0.020953009 0.29482657 0.024278402 -0.058553416 0.02207163 0.068585135 0.066797055 0.14901261 0.16927746 0.024977215 -0.19497481 0.22481586 0.08159011 0.028639585 -0.0014175946 -0.106737554 -0.034106508 0.01043206 0.24523968 0.20324183 -0.13096134 -0.21774037 -0.15766941 0.21262912 -0.21125777 0.0133189345 -0.037614506 0.32750565 0.040259603 -0.113244824 0.22569378 -0.08660149 -0.047281135 0.19476941 -0.011646544 -0.09340833 0.21464343 -0.013316553 0.0031574357 -0.012283784 0.1270615 0.19381732 -0.09288746 -0.14130028 -0.052991517 0.4151755 -0.16105956 0.043533888 0.036311314 -0.060406752 0.12707256 0.18061271 0.074969225 -0.0783566 -0.048929695 0.09916085 0.049731206 -0.22690938 -0.08898328 0.10094606 0.06401466 -0.09004688 -0.04775681 -0.2474193 -0.113434896 -0.06685952 -0.2510615 0.0013290526 -0.21926692 -0.041142255 -0.25023127 0.10052649 -0.2644451 -0.12932202 0.22523226 0.053839363 0.1238084 0.21124598 0.20914243 -0.32151166 -0.006240413 0.22569863 0.069535375 -0.1673425 -0.19529726 -0.18371189 -0.013987885 -0.030835625 0.014005588 -0.06335892 -0.06711232 -0.19350852 -0.057469323 -0.16130179 -0.006249417 -0.033097424 -0.1501498 -0.03623337 -0.03746711 0.14941707 0.33792937 -0.11471356 0.051856995 -0.16189754 0.13469794 0.20442685 -0.031503692 -0.053533286 -0.09782154 -0.07974223 -0.043177605 0.17456195 -0.09095477 -0.058386724 0.09666006 0.033377696 0.076030664 -0.14222603 0.24453393 0.18295048 0.0865466 0.02344073 -0.10682624 0.22992939 -0.013914374 -0.044610627 -0.03553169 -0.018921196 -0.0005026391 0.19505274 0.04798599 0.050739326 0.025211323 0.12962882 0.4251159 0.13859315 -0.36212352 -0.11654172 0.08243065 0.04858769 0.092064686 0.03934628 -0.1287841 -0.11271823 -0.39872536 0.11722158 -0.23091015 0.057215184 0.22566737 -0.041802224 -0.02737549 -0.043754287 0.028584428 0.10330103 -0.028002204 -0.006132311 0.19114295 0.12684585 -0.030278413 0.18544441 0.056747355 0.023513861 0.021073196 0.0942489 0.072776265 -0.046996586 -0.32145932 0.026624624 -0.041376546 0.055510122 0.32729638 0.03248624 0.23072858 -0.05040343 -0.004568558 -0.078411184 0.122502476 0.092115834 -0.13137007 -0.12472654 -0.2649584 0.05168071 0.012604832 -0.0043324498 0.29028672 0.16559173 -0.034286108 -0.08322315 0.010461187 -0.15808554 -0.0026847774 -0.15880176 -0.16714583 -0.015622587 -0.0061507523 -0.11710834 -0.11479182 -0.14240755 -0.1537852 -0.04317014 -0.1405254 -0.32803413 -0.096635334 0.25547078 0.22642665 -0.09897304 0.19879493 0.27116957 0.10205425 0.044531867 -0.23832975 -0.22919662 0.123404555 0.16877666 0.053353153 0.112065375 -0.024537576 -0.057247493 -0.051875032 -0.13672261 -0.11450418 0.011895599 -0.23050483 -0.06073984 0.2089861 -0.044692524 -0.10886824 0.35257554 0.021175804 -0.13073376 0.104435235 -0.009489059 0.15611762 -0.024771877 0.11529534 0.101058505 -0.30845606 -0.1197758 0.32648334 0.0955473 -0.22299482 -0.006833063 -0.20858115 0.30374113 -0.07747049 -0.058596 -0.00023672773 0.16765685
377 0.4358178 0.031650864 0.10279665 0.22386293 0.24905571 -0.13679047 -0.058692627 -0.025025256 -0.14749086 -0.020534521 -0.40970278 -0.076649435 0.056595694 -0.3559234 0.029568097 -0.100535266 0.15526223 0.14429253 -0.31356952 0.5091991 0.07228326 -0.12069771 -0.0061814 0.13538708 -0.08529832 0.094055995 0.13481079 0.4320005 0.32217523 -0.08266061 0.01558781 0.43136132 -0.16964716 -0.31051558 0.09968499 0.21430364 0.19005178 0.008986845 0.32864425 0.06437005 0.04467929 0.11733123 0.03663652 -0.3437531 0.12245167 -0.07878503 -0.10042744 -0.1355711 0.08088224 0.036389366 -0.0606039 -0.11360758 -0.16064154 0.16482621 0.038449485 0.088170305 -0.14297071 -0.49583393 0.069481865 0.39188322 -0.06285524 0.058256727 0.03284136 -0.0071490062 0.26181802 -0.10379255 0.056713678 -0.040298443 0.15223975 -0.13297874 -0.13453788 0.34881598 0.017733388 -0.24389265 -0.24406329 -0.1141741 -0.11687657 0.15944399 -0.36855397 0.28634295 -0.119067825 0.15650968 0.12891054 -0.10852173 0.005573307 0.34302726 0.22419569 0.011153335 -0.20783488 0.12357041 0.20118174 -0.081675716 0.19035316 -0.22268997 -0.05565589 -0.051121693 0.15297331 -0.19906569 0.041450597 -0.03522828 -0.28722382 -0.31415248 -0.10726633 0.06797152 -0.085986756 0.047086403 -0.16565172 -0.16874632 0.13732322 -0.1822921 0.14973694 -0.27169698 0.15139729 0.07146717 -0.20681143 -0.13826615 0.076117076 0.045146912 -0.011766671 0.12087502 -0.25628015 -0.18938541 -0.066677205 0.17422712 -0.10352358 -0.063483484 -0.06307447 -0.043850597 0.021828642 -0.0027089585 -0.14340734 0.15948138 0.18972316 0.10630685 -0.017598841 -0.023091126 0.07301431 0.27536738 -0.16860218 -0.12712249 0.043585613 -0.06834704 0.26559755 0.17783217 -0.47659296 -0.13583973 -0.119449526 -0.19966057 0.020811468 0.2202821 -0.21535993 -0.1099497 -0.1267663 0.01507537 -0.14726251 0.25307125 0.38947177 -0.04640862 -0.20056984 -0.029900778 -0.078574985 -0.17016527 -0.06819249 -0.027281577 0.114981316 -0.027796393 -0.05824714 0.05397267 -0.020956606 -0.15677164 0.121907964 -0.15390065 -0.06872174 0.01085307 -0.14478695 -0.16020042 0.03599354 -0.15269433 0.21242552 -0.22247903 0.16380708 0.006154395 -0.12550023 -0.17994532 0.05439799 -0.069920994 -0.2789969 -0.030494753 -0.053828627 0.08787634 -0.21966244 -0.26022574 0.23372498 -0.102903 0.021498892 -0.14742227 -0.20521273 -0.0588407 -0.1016614 0.09248003 -0.21971084 0.142398 0.2575199 0.12032444 -0.18051165 -0.09174544 -0.114516094 0.05111334 0.10781496 -0.0985472 0.18265335 0.06899048 0.15307377 -0.06844699 0.09009944 0.12698373 0.62290144 -0.24194042 0.12229373 0.17958052 0.27865273 0.15431088 -0.08052944 0.090348646 0.08292446 0.06345175 -0.26513565 -0.094370864 -0.33312702 0.1040033 -0.36943582 0.22541292 0.09901498 -0.07029743 -0.1589984 0.12791173 0.18400674 0.05107374 0.2997413 -0.07245215 0.114308484 -0.046436224 0.17741682 0.20304455 -0.27913132 0.24045251 0.3816022 -0.08197301 -0.2314291 0.16500919 0.015983168 0.011187329 0.078183256 -0.2650513 -0.06312214 0.24002331
137 -0.026792178 -0.016044712 -0.096175715 0.22825567 0.35663688 0.13314052 0.08067816 -0.039728142 -0.2825209 0.08051759 0.1626569 0.0029600735 0.12526964 -0.15443932 0.015598041 0.29692748 0.05080077 -0.21885721 -0.27056688 0.31508034 0.2289655 0.0404782 -0.19525313 -0.25499433 -0.25328535 0.22314852 0.1113316 -0.21504562 0.087101676 -0.034026038 -0.14103714 0.16288942 0.062014464 0.30144382 0.007945799 0.10164901 0.15342857 -0.07822685 0.101988085 0.0507407 0.024991939 0.066448 0.3259713 0.021430634 0.23837596 -0.14520307 0.09543369 -0.15683317 0.2894778 0.09225395 0.19406372 -0.002870592 0.07477959 -0.113491446 -0.27842453 -0.08559666 0.25521848 -0.39997408 0.12555823 0.14337006 -0.008736937 0.1601897 -0.2384252 0.102181554 -0.07077809 -0.34668964 -0.10543189 0.13202359 -0.10754724 -0.0888067 0.046870608 -0.3081145 -0.26375076 0.057940427 0.038105074 -0.101967685 -0.060491405 -0.1660371 -0.11501381 0.08864378 -0.39901033 -0.11592507 0.31698865 0.11774327 0.053991508 0.10811856 0.17074603 0.074987695 0.097702935 0.15672892 -0.16982311 -0.41861227 -0.19684261 -0.40011415 -0.20018046 0.19751549 0.0932912 -0.118708976 0.14119767 -0.14318168 -0.29180998 0.15938386 -0.0032749544 -0.22412725 -0.17245868 0.057655524 -0.0020522573 0.24533096 0.25105566 -0.0010143142 0.21100782 -0.09507247 0.1418181 -0.07255347 -0.017527666 -0.05632431 -0.27935252 -0.13964349 -0.21803287 -0.11113565 -0.110236965 -0.2172488 -0.044645466 -0.07302461 0.012165268 -0.11438164 0.069032885 -0.025157832 0.054155782 0.34588626 0.009020782 0.009612322 -0.25974017 -0.010121634 -0.005369973 0.0373763 0.049956176 0.086519085 -0.046298143 0.03364792 -0.044089843 -0.2860724 0.17628284 0.043439426 -0.22241166 -0.10447702 0.18870994 -0.019580457 0.17759995 0.07275945 0.089079954 -0.29332775 -0.27308685 -0.14088765 -0.31650525 0.06222967 0.28920382 0.31607574 0.014686517 -0.19738033 0.09887385 0.3956663 0.051708877 0.25589344 0.025112964 0.15804003 -0.2633536 0.19264586 -0.12273488 0.19214296 -0.22261903 -0.18264379 -0.14710128 -0.21935901 -0.13870218 -0.25101867 -0.081767865 -0.040687885 0.44106928 -0.01282461 -0.14623307 0.06716474 0.24376917 -0.108327724 0.2205822 0.25298184 -0.3512737 0.023143591 -0.15066421 0.09171576 0.32633123 -0.14846754 0.029361885 0.14296652 0.24272886 -0.25070125 0.07138728 -0.12844615 -0.1834021 0.030772064 -0.19015417 -0.08629475 0.037427053 0.055500437 0.11786334 0.052178796 -0.10215175 -0.2078074 0.03511292 0.11833481 0.030738633 0.24001168 0.35053533 -0.031858064 -0.015021441 0.080861636 0.21751988 0.14932624 -0.19206806 -0.20579566 -0.11490274 0.44397798 0.16739517 0.15592231 -0.13496909 -0.18806827 -0.062283847 0.31815907 0.12860794 0.033170674 -0.1812574 -0.046791155 -0.046896383 0.17739344 -0.026565105 0.35052872 -0.12463838 0.007714673 0.06784919 0.14072767 -0.25847012 -0.0023937854 -0.060762238 -0.230894 -0.14222373 -0.28657433 0.15772256 0.11891972 -0.33097017 -0.38383034 -0.33483353 -0.14844684 -0.018464273 -0.09756135 -0.0789971 0.018728474
