1005 256
1 0.050064582 -0.18342273 -0.085860364 0.42184675 0.17850901 -0.40869233 -0.047498617 0.03768176 -0.2493325 -0.028541524 0.3364436 -0.43094274 -0.06428346 0.21680966 -0.16557804 0.3243115 0.19693607 0.029850464 -0.1164758 0.14920768 0.050333597 0.008620305 0.22276773 -0.3092502 -0.034521107 -0.22824398 -0.43159068 0.35882452 0.13837749 0.06659867 -0.22329655 0.23998992 0.018887201 -0.13941374 0.05807488 0.11973959 0.13655151 -0.055365097 -0.26671088 -0.59731674 -0.2818512 0.08616491 0.10448719 -0.08691917 0.52130294 0.16922812 0.16645552 -0.04786451 0.37169558 -0.25448075 -0.3890622 0.07988545 0.03004822 0.5836721 -0.14374532 -0.2847465 0.35456115 -0.28884244 -0.111232616 0.26264948 0.017576639 0.43937382 0.170386 0.09986246 -0.046534702 0.52400166 0.088453256 -0.2404392 -0.08708296 0.36682343 0.24462242 0.07533463 -0.21504344 -0.1570992 0.3844883 0.35895562 0.15325372 -0.25207844 0.13809174 0.38988858 -0.0883346 -0.051217474 -0.004463524 -0.24221924 -0.32900205 -0.16936338 0.004370532 0.20872003 -0.20119296 -0.22161041 0.25095302 -0.17104653 0.24535914 -0.2992609 -0.07877162 0.4399822 -0.03603702 0.018924877 -0.060881957 -0.2560862 -0.6821137 -0.56970006 0.0048014214 -0.4120169 0.41249916 -0.0314902 -0.15644906 0.39610803 0.023035666 0.019790197 -0.013983416 -0.6048034 0.11826513 0.114167504 0.19380833 -0.37918347 0.46065253 0.25345615 -0.2953149 -0.017209247 -0.13783157 -0.061426587 -0.39621466 -0.6907501 0.053452007 -0.05084198 0.08298711 0.5023982 -0.009247482 0.084148616 -0.23545901 -0.42660928 -0.07743281 0.16724157 -0.34557658 -0.11411997 0.16330944 -0.17991851 0.12115817 0.2673475 0.13371192 0.09478759 0.22373259 -0.05851521 -0.23824479 -0.090344414 0.3913586 -0.049728405 0.086176224 -0.035458304 0.16963261 -0.23924124 -0.03570863 0.15142904 -0.06656382 0.13832325 0.36650655 0.08377611 -0.05869782 -0.09192229 -0.29039592 -0.0014204073 -0.0527468 0.08462077 0.0051410906 0.3183436 0.13784656 0.3304734 -0.010240212 0.2977256 -0.008935509 0.042594843 0.27625012 0.16043176 0.024895756 0.06698552 -0.00082653156 0.3148478 -0.012117547 -0.047956847 -0.27156428 -0.20862727 -0.0484897 0.12567069 -0.003800421 0.08580873 -0.11236306 0.030293878 -0.38537586 0.11181912 -0.24850854 -0.3213638 0.075886145 0.09208504 0.19370365 -0.5545795 0.15418556 0.104997456 -0.0993314 0.16478753 0.016295154 0.031374823 -0.093172185 0.43758965 0.041008424 0.45883307 0.05788548 0.18665265 -0.13730963 0.03607601 0.15894097 -0.037361346 0.14480206 -0.122147426 0.06216773 0.05565502 0.2651054 -0.24140474 0.08750369 0.079380155 -0.16715737 -0.3759735 0.051864896 0.2733926 -0.03835572 0.12616858 0.049900394 -0.4998787 -0.4286452 0.22840616 -0.01796778 0.60606986 0.22056326 -0.14914313 -0.20695508 -0.09543378 0.031653572 0.2505439 -0.04460935 -0.059284113 -0.093851365 0.11425696 -0.16997318 0.2254814 0.05033423 -0.18265232 -0.32299137 0.1960654 -0.025176158 0.11398925 -0.32741395 -0.15805818 -0.19916527 -0.10826911 -0.17355786 -0.3874682
130 -0.18256071 0.06768518 -0.035891913 0.53965425 0.29016998 -0.014480868 -0.04575184 -0.0732034 -0.07408533 0.26067817 -0.11525711 -0.36378798 -0.5763795 -0.16244899 -0.23754007 0.53089917 0.06875195 0.276893 -0.35832405 0.49806836 0.5146502 -0.41020617 0.1422046 0.23779841 -0.21314523 -0.2752526 -0.43079296 0.35828584 0.074489504 0.2387108 -0.030060941 0.39041337 0.43399858 -0.40784255 -0.06831023 0.2436008 0.19763839 0.01590603 0.22231847 -0.51397777 -0.35644564 -0.17909265 0.24248731 -0.3190303 -0.17480758 0.60246426 0.3483609 0.046098214 0.33500743 0.009847341 -0.030455995 0.056501277 -0.3194517 -0.39615706 0.24130921 -0.2004746 0.17641972 -0.14770184 -0.16073881 -0.16708626 -0.20700873 -0.22922462 -0.27026024 0.1870358 0.047704134 -0.015279107 -0.075910814 -0.082418434 -0.21731952 -0.05430632 -0.46075958 0.12428622 0.1866973 -0.29402617 -0.038713753 0.03244439 -0.31478602 0.3705236 0.3144706 0.38127437 -0.17953144 -0.3037446 -0.19685665 -0.31968984 0.2113269 0.14710161 -0.23052134 -0.17311852 0.2473913 0.2134259 -0.4131835 -0.54083335 -0.13479641 -0.22802404 -0.2900053 0.038424477 -0.030826524 -0.011304864 0.5062013 -0.046614833 -0.25420478 -0.34186178 0.2536649 -0.37320122 0.4370925 -0.26662627 0.42386088 -0.028072242 0.086601146 -0.09416895 0.21257555 0.07853293 0.14131454 -0.3537561 0.28735337 -0.3282476 0.44381818 0.010871669 0.10380063 0.25934628 -0.19662182 0.6216386 0.05489383 -0.22341312 0.09940948 0.36743388 0.022823054 0.18324234 0.21134895 -0.19625807 -0.2505805 -0.075075656 0.21523756 -0.34314975 -0.25613087 0.017029943 0.15867655 -0.20199504 -0.22216614 -0.090313904 -0.23060115 0.089950524 0.45476022 -0.24918583 -0.34439412 0.089193694 -0.056913495 -0.0009723606 0.19985402 -0.07491199 -0.28979108 -0.21753354 -0.28690645 0.010881069 0.11840547 0.5156494 -0.25159085 0.065346144 -0.21217358 -0.06416994 -0.16873877 -0.098138064 0.20478863 0.35504287 -0.1765779 -0.06107269 0.12501414 0.2488867 -0.17383042 -0.17973003 0.28558686 0.372221 -0.25769743 0.31967434 0.25363573 -0.043831073 0.0049027125 -0.04014203 0.30128607 0.21412478 0.272552 0.43087718 0.010322259 0.07542297 -0.32061914 -0.15029384 0.11158537 -0.33341423 -0.10167247 -0.13999104 -0.55261594 -0.09981794 -0.019308668 -0.35543352 0.2410118 0.08001695 0.02425611 -0.1233477 0.2367779 -0.05171697 -0.10027183 0.027901985 0.4172164 0.10687821 -0.2314593 0.08220596 0.14791921 -0.323878 -0.20621884 -0.020036267 0.29148498 -0.00048163792 -0.049925216 0.018489212 -0.060323603 -0.11014008 0.032994192 0.15466458 0.18102796 -0.16766015 0.3008178 -0.14225109 0.16606054 0.345026 -0.21531057 -0.33414245 -0.12767504 -0.6496872 -0.21363829 0.11408939 -0.16734591 0.25561678 0.107877605 0.4642628 0.27308586 -0.43205577 -0.028410686 0.35451707 0.11086419 -0.23020749 0.012938443 0.06483587 -0.009520064 -0.039320197 -0.42342344 -0.20515619 -0.043657213 0.2941279 0.07821784 -0.08957624 -0.2160516 0.18368034 0.17290317 -0.12892695 -0.049382485 0.10200329
532 0.077520154 -0.057536386 -0.4144988 -0.15652703 0.48535514 -0.10077408 0.13867302 -0.042597465 0.3047202 0.2832797 0.1880153 -0.24501239 -0.20584878 0.15704042 -0.15186423 -0.10533829 -0.15576704 0.013841714 -0.013005231 -0.30898467 -0.45644364 -0.21562862 -0.25298914 0.26661354 0.3722995 0.30803803 -0.30608368 0.20840745 0.30128 0.17312221 0.31764427 0.047089748 0.08706317 -0.27540714 0.0763193 0.47762665 -0.26483527 0.015453953 0.3170904 0.11791766 0.20391186 0.11436896 0.014965214 -0.115076184 0.3825842 0.18784131 -0.33124316 0.0022558165 -0.024277773 0.26961097 0.36410058 -0.22530285 0.14537992 -0.13531311 -0.18029495 0.073997684 -0.13508464 -0.1961994 0.2790019 0.048655227 0.09201659 0.11179183 0.4487119 0.59484106 0.35064402 0.19843937 0.42490056 0.40283585 0.4885232 0.84371924 -0.018213142 -0.2895389 0.049077213 -0.268323 -0.23883162 -0.30081463 -0.042526517 0.036898375 -0.14817706 0.46402076 -0.5705543 0.23790084 0.16574016 -0.3267291 -0.25304657 -0.362107 -0.3415379 0.20162217 -0.13094974 -0.042993862 0.23039769 -0.1104582 -0.024199013 -0.08947759 0.27940542 0.07815089 0.38120148 0.20767999 0.6553483 -0.5253637 0.6603678 -0.3587156 -0.41298893 0.01268557 0.39548644 -0.34561518 -0.29925242 0.20072798 0.24290335 0.44528985 0.33006155 0.2261502 -0.079052106 -0.048930727 0.10729437 -0.31463057 0.55668336 -0.36889356 -0.10085685 0.22480704 -0.054407787 0.28016388 -0.26165926 -0.02271118 -0.17939213 -0.2962299 -0.24360904 0.13054389 0.30066815 -0.40230528 -0.35687488 0.075050145 -0.04113383 0.11261562 -0.032686997 -0.0486817 -0.02482345 -0.05866306 -0.1230759 -0.64901567 -0.26125443 0.11472066 0.14708473 -0.17381178 0.35664168 -0.16863473 -0.4819359 0.031124603 -0.20381594 0.10429334 -0.052034687 0.19344923 0.009218475 -0.13283113 -0.097618885 -0.42576498 0.4912765 0.08774511 -0.2423126 0.110212155 0.13682975 -0.1114491 0.31920695 0.55617636 -0.078713015 -0.30092773 0.309389 0.31366843 -0.2371761 -0.09419679 0.2002748 -0.046505034 -0.15610182 -0.06608128 -0.14589788 -0.37846726 -0.14153403 -0.0002940959 0.5892589 0.37239417 0.09177405 -0.4806238 -0.0534293 0.28024107 -0.15108447 0.03632042 -0.08422562 0.03798335 -0.029552512 0.19292137 -0.32170817 -0.05690766 -0.057338037 0.36674708 0.06552261 -0.25818977 0.25249702 0.36663947 -0.5047626 0.64949507 -0.47080964 -0.21467687 0.3943665 0.5824836 0.29995927 0.2194542 0.06864113 0.25921905 -0.014305499 0.12656145 0.32400134 -0.04075354 0.011247394 0.11944118 -0.2571752 -0.2519003 0.07347176 0.10503027 0.056018088 -0.18701518 0.07274912 0.43705526 -0.30257118 0.014049757 -0.1634899 0.19724706 -0.27254346 0.44665506 0.21437345 0.4172625 -0.3548547 -0.040937718 0.029806776 0.37448663 -0.3040767 -0.042632 -0.0735636 0.65539825 -0.09757797 -0.24202152 0.79680216 -0.14063193 -0.52357537 -0.14146866 -0.33769014 -0.52886856 -0.32940444 -0.039776117 0.13173446 -0.03392501 -0.18331069 0.30261782 -0.25101542 0.39727378 -0.027150488 0.32524228
227 0.35691842 -0.40824774 -0.14493738 0.47302926 0.5515614 -0.5123287 -0.06643149 0.0813492 -0.13521649 0.11244885 0.28699654 -0.12514915 -0.6731954 0.32398126 -0.004226971 0.29916477 -0.42767665 -0.22691952 0.1303143 0.44794264 0.11497679 0.21894112 0.09013758 0.12578164 -0.2701011 -7.6935e-05 -0.21520606 -0.029512469 0.046496898 -0.07309458 -0.30233127 0.4717988 -0.31363708 -0.021459915 0.3125558 0.03239288 -0.18509881 0.2167201 -0.050896637 -0.3614204 -0.16095853 -0.2816446 -0.040828343 0.14004223 0.18298881 -0.029496495 -0.05320055 -0.09392119 0.31596446 -0.594474 -0.39121166 -0.22024247 0.110983945 0.39773288 -0.020417523 -0.4278493 0.44939047 0.10572471 -0.28791884 0.5263676 -0.17599018 -0.6474061 -0.06939922 -0.22880764 0.53929514 -0.07239868 0.022415392 -0.29285917 0.4075266 0.48727167 -0.32698867 0.07585228 -0.12932958 -0.4281396 0.28489244 0.45436355 -0.17700866 -0.096806295 0.24539332 0.047906514 -0.85628486 -0.34931374 0.22446147 -0.116459295 0.024474474 -0.039521113 0.038209144 0.175058 0.15946887 0.40466025 0.34808028 0.11866633 -0.1312644 -0.5374363 0.14345914 -0.08821971 -0.4394661 0.12884958 0.46309987 -0.032783132 -0.16379471 -0.4570792 -0.11156114 -0.600151 0.18079637 0.0038079065 0.19758785 -0.09164219 -0.2895302 0.05542715 -0.066116765 0.29428676 -0.15860577 -0.096824646 0.11472486 0.16974804 -0.1658302 -0.5352684 0.033269268 -0.21201605 0.11948876 0.06389136 0.16343495 -0.18539397 0.3387728 -0.11964766 0.23571813 0.36114627 0.17969011 0.072087556 -0.41663048 0.19189967 -0.49390325 -0.40903443 -0.20348689 0.44553226 -0.015451581 -0.6277755 -0.30683148 -0.22437695 -0.2824561 -0.13851501 -0.31035292 -0.39505312 0.33253944 -0.515813 0.07592874 0.4475119 0.07004494 0.012282463 0.06935988 -0.07389243 -0.026475806 -0.21848245 -0.023818234 -0.07864542 0.36897552 0.40800655 -0.4629176 -0.2426142 -0.2254481 -0.14738369 0.12464012 0.021650324 -0.26961398 0.20510748 0.36365092 0.13289812 0.02978321 0.37259924 0.2301629 -0.33887145 0.2708696 0.030770116 0.12171313 -0.026851946 0.0044957823 0.15758069 -0.17762537 0.6223749 -0.17830157 0.621496 0.063753195 0.16730785 -0.5363003 0.3471236 -0.11269475 -0.40317023 -0.4283465 -0.3744538 -0.16064253 0.37908822 -0.50175846 0.26619202 -0.44751367 -0.1414593 0.09189541 -0.1520269 -0.3466218 -0.055829693 -0.44644806 0.40749797 0.21265507 0.003361697 0.14419919 -0.29355246 0.3553231 0.06469553 -0.23448622 0.49875993 -0.14324848 0.27246684 0.8792886 0.20246601 0.0096813375 -0.37558612 0.44826388 -0.18000092 0.27444756 -0.29610112 0.37221304 0.09015916 -0.015961193 0.23840502 0.28992912 -0.071964234 0.030382128 -0.3898779 -0.19621153 0.21404634 -0.29547244 -0.2201112 0.45252022 -0.15514433 0.30270395 0.034412 0.22313465 0.21617235 0.116275646 -0.4189373 0.32058463 0.0041939076 -0.14892177 0.39477026 0.3778322 -0.3293891 0.445122 0.13745013 -0.0085018 -0.42030564 -0.095063925 -0.45774913 -0.44372785 0.22711685 0.18510938 -0.26832065
160 0.076694995 0.048292 0.011703871 0.15112491 0.20695627 0.07167381 0.013627822 -0.15917818 0.13248722 0.19484125 -0.026493207 -0.16893665 0.11349897 0.0046836603 0.1135627 0.18380848 -0.021493558 -0.10775732 -0.05901609 0.08753849 -0.08850266 0.020252448 -0.015248903 -0.3452737 -0.047974247 0.14083818 -0.048007116 -0.3226564 0.15547867 0.066336356 -0.09340933 0.059582695 -0.0050989212 -0.04832518 -0.03701624 0.03775027 0.074693225 -0.21067657 -0.0033601986 0.101939395 -0.3533047 0.066963136 0.004372543 0.007855332 -0.0064740176 0.13609499 0.031713646 0.023509253 -0.008654305 -0.29361644 -0.058790747 0.04528698 -0.049374238 0.13654947 -0.06806892 -0.06983512 0.15053166 0.062034726 -0.018311717 0.07798717 0.1303694 -0.0009283422 0.05309469 0.09162586 -0.04064711 0.12521546 0.0069310074 0.20738259 0.07487879 0.12064178 -0.06279413 0.10500275 0.0057842326 -0.106781706 0.023707965 0.0053224936 0.004221436 0.17407863 -0.17202088 0.3199176 0.05809617 0.029741285 0.025164021 0.038155176 -0.19454373 -0.08727374 -0.030194012 0.086274266 -0.027096584 0.14955828 -0.18219648 0.038570255 -0.11128295 -0.093043886 0.039604988 0.07665852 -0.084265515 0.11887671 0.3470431 0.093140796 -0.0112875365 -0.068694346 -0.1089744 -0.2618513 -0.07326842 -0.3062263 -0.03409296 -0.003087565 0.04175762 -0.12807417 -0.11688268 -0.04533316 -0.06964064 0.014162691 -0.0074686534 -0.035104368 0.009802292 -0.13456915 0.14467153 0.1964633 -0.1824224 0.22791804 -0.18367739 -0.035980795 -0.0071726516 -0.31929812 -0.09014299 -0.056257036 -0.053052995 0.06730995 -0.06528997 0.09649424 -0.09089241 -0.03663585 0.16867301 0.23577811 0.019396942 -0.23256502 0.05863643 -0.16780725 0.022283256 0.20339334 0.17130862 0.20958853 -0.020009901 -0.09673559 -0.23054926 0.034319814 0.058219265 0.08096452 0.05970304 -0.03103658 -0.11893286 -0.057859138 0.16137739 0.140842 0.08347884 0.12793678 -0.042058237 0.010431047 -0.064052865 -0.018600259 0.1472533 -0.08103546 0.014221772 -0.13877173 0.06537966 0.06857783 -0.18755034 0.0084379325 0.20020045 0.1555564 0.03893378 0.06560519 -0.23570156 -0.026812427 -0.17650853 0.010915645 0.03614147 -0.055121914 0.14872777 -0.07766653 0.064462185 -0.0969031 -0.07964105 -0.022826325 0.007861345 -0.17103292 -0.16633184 0.044324767 -0.0022266433 0.054470662 0.017623605 0.11544822 -0.16125193 -0.0029672042 0.06993353 0.037729986 -0.11079321 0.25809062 -0.08762977 -0.1587674 -0.12843406 0.08802577 -0.12416113 0.13642734 -0.040063698 -0.1239499 -0.2655486 -0.19197291 0.032357078 0.0014611199 -0.004319965 0.18435596 -0.033117443 -0.028236285 -0.0051407404 0.0421405 -0.06191677 0.052758224 -0.16280393 0.14537044 -0.024841027 0.19837135 -0.037530705 0.0069026034 -0.11839309 -0.26611194 0.0304077 0.123655364 0.027486198 0.24510795 0.026938034 0.21192873 0.079663746 -0.058998294 -0.09956821 0.1449702 0.1614985 0.07897535 0.017637672 0.1258956 0.05505608 0.020083364 -0.04744519 0.06310973 0.09332064 0.14656113 -0.12103183 -0.17998618 -0.08152685 -0.052231204 0.095669135 0.1291048 0.06720567 0.021192012
319 0.20585775 0.28809202 -0.49479076 0.93882 0.7616424 0.16281521 -0.27204624 -0.22403835 -0.35715455 -0.00027300866 -0.08539777 -0.12809463 0.5563447 -0.29626232 0.22808413 -0.03556158 -0.013882646 -0.15172128 -0.3000888 1.2184463 0.31955 -0.15495506 0.2022658 -0.14883012 -0.08433936 -0.27921534 -0.36749431 -0.36301264 0.3783244 0.14940386 -0.55478704 0.030938186 -0.20601095 -0.0476636 0.050645016 0.5857975 -0.008547919 0.02417081 0.27674267 0.044718537 0.4283602 0.68683 -0.114112385 0.41532955 0.4309553 0.52090365 -0.37078065 -0.16925977 -0.07459112 -0.43243432 0.01992638 -0.06275361 0.2578971 0.13670942 0.42748427 -0.1934123 -0.3199684 -0.4600597 -0.105588764 0.04294358 -0.31647944 -0.7674771 -0.0010996822 0.65840197 0.5658168 -0.018272465 -0.06801772 0.17443235 0.42223027 0.048755765 0.25864387 -0.044616625 -0.040339805 -0.72635496 -0.19972584 -0.26393557 -0.21900254 0.1323695 -0.23765379 0.10322956 -0.67473274 0.33107555 0.15328817 0.3925055 -0.041929547 0.21107112 0.1506541 0.28901955 0.017045733 -0.111399084 -0.03267816 0.43991005 0.07087109 -0.38726997 0.7948701 -0.3406403 -0.04577414 0.36438313 0.3980912 -0.49712044 0.13017276 -0.3826673 -0.0109585505 0.050965186 -0.3335572 -0.28283322 0.0068542683 -0.5348027 -0.21841446 0.4271654 0.25319347 -0.21657906 -0.18089482 0.24375722 0.25386107 -0.32525107 0.32502782 -0.23837927 -0.18514286 0.24518368 0.23767617 0.37685642 -0.24138351 -0.40496156 -0.0887509 -0.2513675 0.19100596 0.20863321 0.28849512 -0.31547844 -0.22645742 0.25265592 -0.09083179 0.06930817 0.03392226 0.5080142 -0.07254705 -0.22215497 0.20825452 -0.09110091 0.049723 0.0007420735 -0.41456786 -0.014535959 -0.38099426 0.09954767 -0.46176872 -0.039925456 0.20837462 -0.32643068 -0.43005136 0.31805366 0.1290743 -0.6798248 0.0032864523 -0.20397621 0.45211712 0.39955127 -0.2438646 0.28089055 0.30016077 0.059037145 -0.37345174 0.2500537 -0.063050635 0.020360025 -0.23039787 -0.16863823 -0.3985462 0.010005791 0.23491706 0.68661 0.057194166 0.11434127 -0.6405988 -0.42975497 0.4031346 -0.259145 0.36498174 -0.053685244 -0.036775623 0.0052970783 -0.2631371 0.22246477 0.107082374 -0.2599522 0.20055832 -0.70934474 -0.1615584 0.40718067 -0.056099832 -0.2751141 0.20242007 -0.066715 0.21138646 -0.5505975 0.033210393 -0.92167515 -0.23401503 0.19941589 -0.56352586 0.1764369 0.29617265 0.12502328 0.37370443 0.4944372 0.9085318 0.0872077 0.41347948 -0.32295114 0.8757101 0.04346345 -0.10914408 0.2590044 0.03856599 0.116080485 0.47005603 0.26359564 0.04480695 -0.3048857 -0.069461145 0.87712723 0.033172492 0.4412598 -0.047143597 -0.054185413 0.020911539 -0.7094135 -0.311032 -0.09164498 -0.12508337 0.2573204 -0.5528533 0.28544965 -0.18983468 -0.037708856 -0.08335335 0.25580534 0.48095462 -0.061813474 0.10000786 0.33517274 -0.09995862 -0.34686008 0.033438228 0.11474893 -0.3007642 0.3374587 -0.19832382 -0.21228267 -0.05506221 -0.5075795 -0.17184833 0.026417214 0.16653435 0.019563587
365 0.00023010375 0.22405112 -0.15760227 0.06316354 0.07733496 -0.18961272 -0.18351921 -0.09513748 -0.11782253 0.05053732 0.2898599 -0.30058622 0.027605182 -0.055459853 -0.07783267 -0.04397905 -0.006940456 -0.21146697 0.2011616 -0.26536843 0.16668728 -0.101887695 0.099714525 -0.12007285 -0.11592994 -0.026792664 0.073568195 -0.15819868 -0.10902384 -0.054963842 -0.061454117 -0.15096153 0.15308607 -0.07246571 -0.2386408 0.30715308 -0.1841323 -0.22069252 0.16560367 -0.17347239 -0.049391624 0.011297563 -0.08192617 -0.19848774 0.1969614 0.024780255 -0.22912458 -0.009655011 0.014974543 -0.3644055 -0.04800867 0.31204998 0.087503046 0.2950554 -0.075889006 -0.055336416 0.37199545 -0.056790043 0.053026494 0.16819529 0.46118328 0.007257797 0.0028959014 0.09608272 -0.03613481 -0.038714137 -0.1384794 0.00089521933 0.19620575 0.07552941 0.25173333 -0.29964045 0.17808592 -0.044970013 -0.0368924 -0.050946392 0.20447329 -0.04359461 0.3222289 0.24454601 -0.12549521 0.13078316 0.10799346 0.11868396 0.093776606 0.05121744 0.22576474 -0.12967893 -0.07488907 0.27004153 0.067510806 -0.17594908 0.09524062 0.07747901 0.12520401 -0.05350329 -0.05233149 0.34197333 0.1483243 -0.003829712 0.13576634 0.019064222 0.19842193 -0.07751369 -0.17711087 -0.021050813 -0.071185894 -0.10863831 0.10049196 0.07987438 0.05254043 0.07428435 -0.07803989 -0.36945343 0.015245443 -0.07831389 -0.050820593 -0.062530495 -0.16855764 -0.06596999 -0.19177997 0.09716254 0.31239906 -0.09001024 0.088649824 -0.08559517 -0.11723399 -0.10895829 0.09109312 -0.078905396 -0.39971435 0.03615039 0.10066243 0.032142337 -0.10638826 0.2648877 -0.1993275 -0.01741253 0.24363096 0.1132035 -0.055232298 0.018075503 -0.079114266 0.067189224 -0.08544018 0.10268646 -0.24317624 0.34391817 0.06749911 0.058071848 0.10503439 0.032375336 0.12541644 0.17589635 0.13755964 -0.06482196 -0.004154094 0.2604186 -0.19381271 -0.21343969 0.09912488 0.112792395 -0.10566463 -0.018012919 0.031382136 0.17265154 0.020701578 0.13305236 -0.15391491 0.13916558 0.21722324 -0.03461181 -0.025415927 0.3305365 -0.038878247 -0.014322486 -0.0440417 0.037242357 0.23800921 0.14024948 0.028714761 0.32385886 -0.25168994 0.054733977 0.14055425 0.017895103 -0.26609746 -0.01437779 -0.21823673 0.23806773 -0.31869584 0.030781822 0.020529388 -0.07317823 0.03689313 0.13893573 -0.08901878 -0.054641046 -0.08835151 0.10585713 0.081616014 0.17983855 0.01005577 0.1344556 0.09694477 0.1982475 0.009472958 -0.24115059 -0.2191721 -0.014246074 0.28141668 0.022965614 -0.060942583 -0.020266064 -0.041801445 -0.001608157 0.2866384 0.5787153 -0.36610633 0.033370573 0.00609049 -0.07554831 0.08934737 0.0641027 0.039535776 0.13118035 -0.0270385 -0.070541956 -0.14510795 -0.053577427 -0.19637026 -0.06624021 0.00019381846 0.13313863 0.17924121 -0.16941997 0.24578707 0.07317938 0.09312619 -0.32085216 -0.15734653 -0.057865705 0.028082432 -0.041142162 -0.15382469 -0.23056716 0.12897801 -0.15554835 0.1340965 -0.26516512 -0.089579076 0.0055484716 0.022995617 0.05985352 -0.20318647 -0.303366
62 0.06840501 0.025763543 -0.057742633 0.15334255 -0.056167826 -0.061784986 -0.07869486 -0.020446368 -0.0395202 0.039795436 -0.18385227 -0.07973882 0.098767124 -0.07918163 0.0028610497 0.059181537 -0.05302471 -0.07346289 -0.055418152 -0.016265156 0.110852264 0.1078231 0.010900361 -0.014871971 -0.1467092 -0.11771478 -0.036419615 -0.0113713825 0.09534801 0.016080862 -0.19275568 0.12514411 -0.037676334 -0.11329997 -0.035895936 0.3647135 -0.25703037 -0.12533423 -0.0046822745 -0.11601198 -0.13332677 0.072691716 -0.10380498 -0.013271921 -0.037626877 0.094125055 0.040748935 -0.05375502 -0.16461855 -0.2152043 0.015433523 -0.050837956 -0.017564708 0.18536405 -0.10367341 -0.272441 0.015610246 0.072613955 0.10346051 -0.082907796 0.060413428 0.14426358 -0.051799648 0.04124472 -0.12586764 -0.23983857 0.059093297 0.06711638 0.2260093 -0.012460218 0.01679914 -0.12529431 0.05858207 -0.08559426 -0.14674194 0.15283738 0.053371973 0.08107392 0.0037606359 -0.04982879 -0.25076035 0.032334678 -0.026766127 -0.19486164 0.12637374 -0.038114827 0.088186055 0.037578173 0.09921743 -0.16227654 -0.046063315 0.014564535 -0.13372257 -0.1839003 -0.014047919 0.2308088 0.062485415 0.17259726 0.024380429 0.008746097 0.24360974 -0.24335653 -0.03315406 -0.06325083 0.023120288 -0.056773525 -0.0007255179 -0.0866618 0.118044764 0.35972264 0.026541267 0.028648555 0.08173284 -0.019791603 -0.06122888 -0.054942925 -0.27234071 -0.0006440345 -0.17343208 -0.046309095 -0.12982862 0.06126273 -0.12735815 0.08903452 0.10167202 -0.08789822 -0.15475084 0.034997135 0.13258895 -0.080325894 -0.0034609956 0.010976086 -0.06484403 -0.12849179 0.29578662 -0.022814969 0.048329238 -0.09928939 0.09302403 -0.11469064 0.18349618 -0.015541576 0.15660754 0.13170482 -0.106927454 -0.19863747 -0.014081573 -0.008465952 0.10288017 0.14280847 0.04669369 0.07171269 0.06472342 0.12342137 0.08349593 -0.101794794 -0.06773242 -0.07942612 -0.2759496 0.10753089 -0.05045241 -0.10115487 0.27591953 0.028590716 -0.12626503 -0.02671034 -0.11618442 0.2787653 -0.051855724 0.30208123 0.047245383 0.1427667 0.19473939 0.018749405 0.09163466 0.11398018 0.040640146 0.015205295 0.06928997 0.0047813384 0.25886828 0.11947117 -0.11800985 0.13422212 -0.07792863 -0.107657455 -0.1763928 -0.100176595 0.006014989 0.15797304 0.15309407 0.0667723 -0.06717722 -0.016438194 0.15171322 0.3144629 -0.032323115 0.13832772 -0.07847146 0.15759575 -0.080788635 0.07750795 -0.10862733 0.07978634 0.2563313 0.18648957 0.10408738 0.021832518 0.10604916 -0.109422356 0.006825893 0.15587857 -0.02181124 0.1656546 0.08177144 -0.15635611 0.053696267 -0.027137246 0.1021195 0.16767204 -0.14065944 -0.09819343 -0.04044445 0.15614347 0.2631674 0.15628618 0.007384404 -0.11651492 -0.106279686 0.15663919 -0.16893908 0.10452257 -0.25015697 0.09900709 -0.27708003 -0.007229225 0.15166314 0.12629165 0.021379815 -0.07789322 0.01246196 -0.17643593 0.16174829 -0.1721126 -0.0015850202 -0.028904622 -0.004377308 -0.007260157 0.1105739 -0.039402638 -0.16375734 0.0373816 -0.03099609 -0.030930098 -0.030638738 0.084211
86 -0.007002673 0.122680075 -0.017872415 0.16821313 -0.05584468 -0.0686582 -0.21297802 0.23966628 -0.014118664 -0.13389803 0.05348658 -0.25768012 -0.11346748 0.003962582 -0.19382468 0.20947017 0.056699216 -0.08440527 -0.025081115 -0.2172605 -0.01596765 0.043019634 0.17914905 -0.101247415 -0.12076475 -0.17422044 0.22021514 0.20039143 0.14862192 -0.07807645 -0.06441697 0.102502346 0.083887115 -0.0055587 -0.18218583 0.22916527 -0.031623848 0.002529113 -0.008448844 0.23463315 0.31966174 -0.002421029 -0.1507878 0.014220953 0.094693154 0.23106743 -0.1228861 -0.08124491 -0.20400111 -0.1020747 -0.16422117 0.047168225 0.1561604 -0.008381421 0.124372 0.057505812 0.09323632 -0.062652186 -0.2533974 0.011038495 0.1376431 0.06281397 -0.013592591 0.11547874 -0.020937733 -0.046630852 -0.16837296 -0.05606604 0.11507212 0.19845158 -0.18709904 0.09326025 0.24855864 0.10226397 0.017829249 -0.0745255 0.09506968 0.19951668 -0.09569554 0.092857055 0.092183225 -0.2501935 0.08801815 -0.09304781 0.21860293 -0.036999464 -0.043536175 0.050634947 0.17701666 -0.07912834 -0.05087787 0.049848568 -0.097989745 -0.20704348 0.03749249 0.17039248 -0.025096662 0.10379575 0.18425581 -0.14160301 0.07433619 -0.29625365 0.119890645 0.025427703 -0.08906371 -0.021076405 0.072763994 0.14002256 -0.019577842 0.22331786 -0.10223177 -0.06171942 -0.09822443 0.13155283 -0.07036823 -0.12323557 -0.14487109 -0.057997596 -0.09334511 0.12299094 0.21610494 0.12051831 0.11954359 0.17728682 -0.019068262 -0.20116694 0.33009437 -0.13800423 -0.11772327 -0.09505307 -0.1451809 -0.07359754 0.036238454 -0.098979525 0.15745296 0.01596665 0.092627145 0.019319048 0.09452931 -0.109456 -0.106760666 0.094331235 0.16901423 -0.17238024 0.24948388 -0.09767722 0.28643626 -0.21875155 -0.124878205 0.14128682 -0.15257804 0.00017255296 -0.032247152 -0.10890162 0.22535415 0.05082301 0.10449181 0.190218 -0.24567984 -0.036910553 0.30812234 -0.20085058 0.09347025 -0.035914436 -0.043250356 0.13000655 0.14451645 0.43080986 0.13536595 0.2879716 0.23730317 0.1965053 0.08402512 -0.023931192 -0.12261964 0.13398309 0.14365663 0.07858197 0.08876299 -0.20192607 0.043243658 -0.040881634 -0.109257646 0.11851161 -0.070071794 -0.06667042 0.06178325 -0.116691574 0.103950456 0.027828544 -0.09619862 0.13063437 0.07576458 0.039699573 -0.088676296 -0.09231637 0.028564181 0.039796267 -0.14272705 -0.003984245 0.0021262344 0.041385848 0.055457573 0.08635127 0.08633267 0.19587897 0.1391926 -0.0017983356 -0.016703432 -0.08105495 0.08703769 -0.01597263 -0.13092639 0.03233852 -0.113456115 -0.10159239 0.15214655 0.060904928 0.08201141 -0.13993783 0.21420212 0.010415856 0.042857125 -0.02588724 0.052268762 0.15110928 -0.029915974 -0.20721494 -0.1203572 0.009211333 0.24607237 0.092219315 -0.10301345 0.109739944 0.100789934 -0.1277512 -0.09963901 0.1460943 -0.08648003 -0.1991655 -0.15335937 -0.10698925 -0.13675262 -0.32146195 0.028693676 0.12914638 0.3122284 -0.01064233 -0.22955683 -0.24690711 -0.23385876 -0.032269865 -0.19169338 0.061390527 0.07071614 -0.1338498
107 -0.16869187 0.020476654 -0.1799498 0.21798576 0.37969577 -0.09365094 -0.11840796 0.037994243 0.038320046 0.07886328 0.032045614 0.057726767 0.063657366 -0.056992486 0.010412563 -0.057343468 0.1488375 -0.098727815 0.016818749 0.098045014 -0.18952264 0.10106324 0.06884878 -0.08023254 0.045728177 0.09044206 -0.15152822 -0.05312122 0.00037092762 -0.03240843 -0.04294132 0.055108886 0.13113196 -0.11033549 0.02988893 0.27201194 -0.29090866 -0.03398479 0.18257183 -0.13128473 -0.102513306 -0.08498754 -0.04161718 0.21682636 -0.03209089 0.2936286 0.10655547 -0.031580493 -0.107966356 -0.09547124 0.059964355 -0.116322055 -0.031139122 0.16407076 -0.06717323 0.051880926 -0.0663032 0.027222564 -0.060238548 -0.017754052 0.089907154 -0.13631205 0.240881 -0.06074429 0.03962409 0.19904943 0.07414198 -0.037179444 0.22462437 0.045128092 0.03660394 -0.070764445 -0.0042826897 -0.14008848 -0.084782146 0.077151686 -0.04618328 0.049538944 -0.15785015 -0.08438598 -0.34881946 0.14496045 0.018414153 -0.021981627 0.06573208 -0.06976471 0.047375336 0.14409102 -0.046134017 -0.20835184 -0.10391834 0.04030362 -0.3153113 -0.012038178 0.028355418 -0.05319022 0.24935205 0.043897267 -0.007034601 -0.15034987 0.1538904 -0.18506056 -0.06316502 -0.21370818 -0.044194352 -0.23188746 0.1720449 -0.049509205 -0.060655057 0.14608337 0.021736456 0.10778026 -0.040565774 -0.1595946 -0.16814835 -0.06143551 -0.12742743 0.029056534 0.00050631666 0.029078554 -0.12037681 0.06509913 -0.1059965 -0.2152354 -0.0034270962 -0.100028776 0.06740383 0.05889552 0.050204467 -0.00081252016 -0.15681893 -0.05057787 0.03353428 -0.15792616 0.15569109 0.061350916 0.05587923 -0.054111604 -0.005700067 0.017174903 0.19852398 0.04174119 0.018939702 0.11034887 -0.01452951 -0.32608172 -0.029176736 -0.08951594 0.2538739 0.09768012 -0.10661265 0.08978355 0.042595834 -0.08290492 -0.010285335 0.027606752 0.14893037 0.0866602 -0.06255717 0.07242467 0.05187015 -0.09209618 0.32117763 0.024222123 -0.024034988 0.068678476 0.077422015 -0.0380462 -0.05663471 0.058588922 0.26240775 0.107139006 0.23269422 0.028892472 -0.06283282 0.09233512 -0.06690786 0.19342086 0.23094016 0.0030460893 0.21349052 0.040632863 0.062123895 -0.042550106 -0.061266594 -0.00235747 0.055237833 -0.102455385 -0.12319809 0.086029686 -0.06878266 0.10191281 0.01789953 0.009580122 0.020885473 0.17951639 0.06052105 -0.057853278 -0.0995869 -0.0072782557 -0.12841965 -0.070149824 -0.009520104 0.048199445 0.29456505 0.038249016 0.2047021 0.15864919 0.011707077 -0.19202705 0.04506491 0.213561 -0.25452211 0.13161176 -0.026783455 0.020245293 0.024378326 -0.08076172 -0.16822349 0.073390596 -0.09548257 0.24657856 -0.0086277025 -0.0414273 0.22471708 0.08529202 -0.16468976 -0.23464146 -0.04520461 0.036351357 0.07205978 -0.026965056 -0.019105759 -0.083812885 -0.193655 -0.16419588 -0.025290044 0.07457333 -0.0319014 0.15417537 -0.0028598045 -0.08183115 0.019333232 -0.062063474 -0.20505065 -0.03094428 0.016966837 0.06917767 0.0016276017 -0.16630605 -0.16743135 -0.23578314 0.016289713 0.11223494 0.054212827 0.13435014
121 -0.08054431 -0.11211791 0.0571059 0.01911778 -0.15336554 -0.098471485 0.17044564 0.058693364 -0.19512127 0.13241974 0.00825918 -0.24090183 0.031556122 -0.09774957 -0.23963815 0.12788902 0.041045118 0.15724212 -0.031414498 -0.017511802 0.08219902 -0.1405917 0.022735998 0.0118717905 -0.030241352 0.0028990596 -0.074951194 0.054317925 -0.17904577 -0.10706519 -0.109685615 0.07987903 0.15789196 -0.015537894 0.123128936 0.0008332283 0.046593983 0.016651003 0.098498836 -0.014122644 -0.14955272 -0.05538492 -0.03287361 -0.057598934 0.09125211 0.23111434 0.2589377 -0.13255097 -0.1131142 -0.0240442 0.057676427 -0.15983635 0.003152622 0.038275346 -0.11667415 -0.16144024 -0.0038696697 0.034852754 -0.1738476 0.18375139 0.18260813 -0.20244472 -0.029041389 -0.10166614 -0.0015888921 -0.12770736 0.07348083 0.12779623 0.1904053 -0.014458015 0.1288188 0.041946467 0.122737646 0.059747692 -0.103353105 -0.0909783 0.018677747 -0.243049 -0.043795377 0.09830752 -0.15695092 -0.1399248 -0.104174204 -0.04791387 0.08396347 0.057513185 -0.089866444 -0.075497344 -0.1083283 0.13773616 -0.05078003 -0.086097516 -0.117068075 -0.1691198 0.095282316 -0.049008407 -0.080461055 0.0645409 0.081423394 -0.07681543 0.062248297 -0.19750702 -0.10073694 -0.0936529 -0.14725137 -0.064188644 -0.24549025 0.0076419353 0.22786719 0.07404015 0.03834685 -0.21797103 0.070626944 -0.0899422 -0.22445102 -0.3405302 -0.12871355 -0.07037216 0.17000167 0.09290954 -0.06272593 -0.061629716 -0.32016605 -0.042990226 0.10784149 -0.14333795 0.048419196 -0.2116351 0.08560933 0.085352644 -0.11745899 0.07273693 -0.0068542445 -0.1665944 0.082656324 0.03157635 -0.025880456 -0.11903236 -0.0022041507 0.07650618 0.082763396 0.11640471 -0.03498099 0.07276282 0.08669005 -0.26102772 -0.07062059 -0.17901954 0.019131493 0.04310341 -0.0061180163 0.33496404 0.1464324 -0.1462227 -0.063303806 -0.024436573 0.01678007 -0.1129632 -0.13335833 -0.14840545 -0.14060718 -0.093730584 -0.072372675 0.46253493 0.11968343 0.07624488 0.0842218 0.061275274 0.12670246 0.10253248 0.23937137 0.11699049 0.08341966 0.001968982 0.068482816 -0.17743494 -0.293345 0.019356612 0.12240987 -0.15949562 0.09145178 -0.19563615 -0.06170269 -0.011589358 0.011912917 0.13936372 0.07855483 -0.014476738 -0.13176969 0.1750415 0.1314543 -0.29121354 -0.023335354 -0.05755301 -0.03213448 -0.0077191866 0.019600738 0.06704423 -0.050518744 -0.0068716183 -0.12484367 -0.15782069 -0.09642503 -0.003112861 0.063603535 0.18712327 0.037904575 -0.0640581 -0.06926992 0.12886576 0.1309502 0.0059867357 -0.055764258 0.06750057 0.013688328 -0.11853564 0.30531967 0.09238486 -0.27917075 -0.13029875 -0.030484216 -0.11400669 0.19520183 -0.092199005 0.058863148 0.024939524 -0.006376479 -0.19251846 -0.031052873 -0.02122922 0.0070437007 0.036512583 0.15106702 0.09985281 -0.11224243 -0.012558138 0.038773794 0.11052908 -0.013210471 -0.033358432 0.10561332 -0.2865904 0.052974395 -0.111378364 -0.03887723 -0.12591839 0.059560485 0.09835036 -0.039137684 -0.12419746 -0.21120709 -0.17852025 0.02644482 0.053780567 0.091510564 0.05186899
402 0.5337189 -0.18187255 -0.15398614 -0.056505345 0.07453017 0.60996336 0.49721116 0.54831815 -0.37185922 0.65608 0.1274791 -0.696253 0.17892736 -0.020323744 -0.29199275 0.5063286 0.3797441 -0.75517625 -0.211968 0.44468498 0.92138153 -0.020629788 -0.23446986 -0.57738405 -0.69190055 0.72373766 -0.2331953 0.29920483 0.08668 0.3218197 -0.48465994 -0.22102873 0.8627975 0.046975818 0.10716916 0.13282928 -0.13247095 -0.1375667 0.56371284 -0.3085938 -0.66677123 0.10351345 -0.59810674 -0.31559092 0.34473893 -0.38303944 -0.020460997 -0.38554987 0.31693035 0.14328906 -0.6997 -0.27067348 0.029052274 0.35552132 -0.01662542 -0.43604735 0.22034144 0.34903452 0.07945916 0.09155023 0.03915047 -0.2081724 -0.42172575 0.2742041 0.41854188 -0.08236195 0.10818329 0.2986878 0.16714886 0.62355286 0.31535977 0.03465799 -0.080394 0.1288419 0.17292975 0.15856333 0.009356377 -0.24112529 0.07563071 -0.4121749 -0.6939912 0.45264646 0.37647605 0.1287515 -0.38945302 -0.26349035 -0.05566599 -0.12270826 0.54146284 0.12331333 0.41421473 0.118509516 -0.3799542 -0.0590934 -0.41443673 0.7858206 0.03275238 0.2574949 0.6652781 0.73518133 0.0799758 -0.6046938 0.39549112 -0.78488606 -0.08790693 -0.10385215 0.043483682 0.2622597 0.4749911 -0.0035483283 0.4818408 0.1316542 0.1021348 -0.41929486 -0.23260906 0.53874606 -0.025269214 -0.017023753 -0.32277554 0.69218713 0.25780785 0.2727806 -0.3807343 0.11728446 -0.33464935 0.5100753 0.6759311 0.28076068 -0.38105962 0.28171024 -0.46682677 0.23630519 -0.19269392 -0.020761246 0.044380292 -0.28089246 0.04650881 0.063767485 0.09170063 -0.23276474 0.22589475 0.42896944 0.4772588 0.0774109 0.009123547 -0.4089585 -0.5317596 -0.21206169 -0.20212835 -0.045032326 0.23067088 -0.39808968 0.05060042 -0.03191035 -0.51899034 0.6472639 -0.25688758 -0.29101562 -0.5786196 -0.12787072 0.0089856805 -0.09808697 0.33325267 0.58299816 -0.10914152 -0.24140523 0.3470859 0.39127865 -0.3122058 0.7152882 0.07088223 -0.036747035 0.124705374 0.4154267 -0.4718398 0.22083715 0.039891306 0.07836483 0.62334996 0.2751024 0.27753794 0.20277615 0.01298671 0.17687851 0.5856753 0.07684992 -0.13447121 0.0666707 -0.589637 0.33363354 0.08764933 0.34256408 -0.2667787 0.096053675 -0.37456068 -0.23116724 0.03301109 -0.36139035 -0.4128216 0.0592948 -0.330645 -0.019789688 0.30810076 -0.08066418 0.526664 -0.21963729 -0.013169681 0.37221915 -0.09997551 0.0900023 0.39498964 -0.08142459 -0.0857883 -0.24858256 -0.43815342 -0.061668493 0.36244583 0.13594794 0.6914864 0.10512973 0.26529026 0.5187062 -0.76079065 -0.049670927 -0.6468025 -0.045986965 -0.31902015 0.04863848 -0.37729922 -0.4829877 0.19878252 -0.29365045 0.36444965 0.61931497 -0.10381364 0.09255572 0.22221215 0.96821254 -0.65617514 -0.20976952 -0.14134923 -0.28737003 -0.34428036 0.51879084 0.11421379 0.071888365 0.1764425 -0.058045626 -0.3914887 0.22691625 -0.3491767 0.23094833 0.18098302 -0.4338578 -0.41333967 0.5399024
683 0.058562573 -0.3540584 -0.0150718205 0.5163165 0.24685292 -0.32189274 0.12865686 -0.37107652 -0.3753071 0.16968855 0.33127937 0.021115778 0.2397042 0.15806569 0.29361853 0.6104406 0.14339875 0.21327497 0.17846134 0.25255656 -0.27936366 -0.33477634 0.40934563 -0.40734828 -0.26329356 0.57811695 0.078719005 0.12149356 1.0091995 -0.02770587 0.072847724 0.25597128 -0.0485649 -1.0405867 -0.082554676 0.45564422 0.33475548 0.27551296 0.08381734 -0.08832213 1.0005571 -0.422607 -0.011608896 0.5479306 0.25392774 -0.007223961 0.26066425 -0.05670387 0.781179 -0.38158736 0.47816068 -0.32572165 0.34750244 0.0051422813 -0.16137357 -0.21017152 0.000121239835 0.32593042 0.33925077 0.47666463 -0.21868624 -0.32472253 0.003638343 0.8173351 0.20846936 0.37636417 -0.22330844 0.25933903 0.6716895 -0.30114558 -0.14705773 0.017501237 -0.3822876 -0.0993735 -0.99678326 -0.29747552 0.30598545 0.00531766 0.010841221 0.2775952 -0.08511827 0.09801205 -0.15841527 -0.16555494 -0.21757703 -0.11926326 0.4660367 -0.0646847 -0.22512217 0.17969643 0.1413734 -0.14484492 -0.011048366 -0.26522663 -0.166329 0.13069363 0.04074704 0.9160877 0.4814546 -0.0066593215 0.64628285 0.0036052086 0.28012437 -0.12936927 -0.020320185 -0.43742916 0.0018718184 -0.36592746 0.21240416 -0.07346266 -0.014767233 -0.7914081 0.14247122 -0.36018413 0.04149009 0.08784786 0.21888311 -0.19759223 0.08192377 0.08653413 -0.078927 0.06585843 -0.26421556 0.36529118 -0.41266367 -0.09385692 0.05177178 -0.10011594 0.6383777 -0.6087937 0.011206458 -0.7456031 0.10152761 -0.2153301 -0.22938463 0.24835238 0.35040587 -0.5733559 0.08330756 -0.2816831 -0.017580502 0.6254642 0.07345053 0.20963894 -0.10694848 -0.9127031 -0.19738995 -0.46723983 -0.41937998 0.0786904 -0.24190205 -0.4295279 0.07277045 -0.44562313 -0.16681366 -0.15680762 -0.066258244 -0.25106683 -0.26495028 0.0010235318 0.047489487 -0.2825145 0.9429955 0.69989914 -0.2837732 -0.2144029 0.3234532 0.25932688 -0.20898575 -0.082059205 0.4927788 0.12606315 0.25163752 0.15161824 -0.4722829 -0.07561214 0.58061785 0.43011636 0.08797263 0.8004566 -0.064894356 -0.44859216 -0.42706662 0.1798357 -0.69333214 0.40427583 -0.59642226 0.43216133 -0.48582456 0.28929913 -0.3227033 0.24043037 0.004068956 -0.00240573 0.25498122 -0.3541918 -0.5377098 0.3511049 -0.07037648 0.44829398 -0.40561575 0.26203343 0.11438636 0.27032992 -0.41981208 -0.18634239 0.6711143 -0.13624139 -0.42779973 -0.35449585 -0.009527206 -0.2025841 -0.18919732 -0.49769285 -0.34573686 0.1843156 -0.17354855 0.60726327 -0.47602904 0.13112696 -0.364232 0.49999282 0.18392093 0.02753322 -0.5435834 -0.07648182 -0.42908296 -0.88642657 -0.0848126 0.18690953 -0.6509568 -0.30388945 -0.083349906 0.63034093 0.12284553 -0.2187089 0.08868845 0.33849835 -0.07442589 0.05032723 0.052491136 0.089427926 -0.5193087 0.14566514 0.2690014 -0.33568493 -0.12713498 0.51551414 0.1617116 -0.5789522 -0.2638016 -0.22619583 -0.13038164 0.6287742 0.25267604 0.85301584
183 -0.11715639 -0.1683125 0.117228 -0.05110937 0.0027011684 -0.13233866 -0.022026367 0.15161836 -0.1360562 0.02879896 0.006119734 -0.04061826 0.1387554 0.143374 -0.08777556 -0.07398365 0.034083743 -0.3021707 0.25611308 0.2843764 -0.07494459 -0.20536345 0.078527495 0.08046921 -0.1298181 -0.21594775 0.006737361 -0.04614105 0.0804832 -0.11747188 0.15664962 0.09735934 0.049705256 -0.02246362 -0.10245475 -0.076475255 0.14518361 0.043325394 -0.063794814 -0.2824675 -0.18417348 -0.014417141 0.019015681 0.043682802 -0.016499957 0.14169274 -0.03083524 -0.027342634 -0.112427115 -0.027889738 0.083087906 -0.10936772 0.16536258 0.04943583 -0.17316027 -0.1937874 0.10258141 0.046914548 -0.15273651 -0.03318221 -0.0050454917 -0.087243065 -0.112132564 -0.12474007 0.1924825 -0.0704485 -0.16405636 0.14503063 0.21026646 0.04638054 0.071820535 -0.0043202643 -0.023063425 -0.022910368 -0.10543477 -0.03974041 -0.07026692 0.058652915 0.03168927 -0.014861998 -0.11756524 0.09414261 -0.015981933 -0.24131979 0.20559177 -0.01954733 0.056510568 -0.19773896 0.036944702 0.026125127 -0.21205382 0.07345636 0.095883854 -0.061642308 -0.11210485 0.13091497 0.10756117 0.04671217 0.15811686 0.042110834 -0.057331827 0.06658883 0.06293798 -0.03290126 0.029462691 -0.11377265 -0.11613814 0.082128786 0.0020588967 0.098538026 0.0901264 -0.14388934 -0.19408125 0.1304228 0.1394806 -0.14570367 0.024138737 0.15423994 -0.10276658 -0.32836398 -0.09612803 0.051573187 0.04299517 0.16543415 -0.21782532 -0.25086328 0.063172325 -0.01070378 0.05314538 0.0851593 -0.13243358 -0.091810845 0.0390338 -0.13584177 -0.09106236 0.10147681 0.030416846 -0.08939178 -0.0456255 -0.04585332 0.051419172 0.047861546 0.19051252 0.23456241 0.07962039 -0.18019085 -0.13116023 0.23567599 0.06118212 -0.024050627 -0.030177005 0.11233736 -0.06829849 -0.25502765 0.10574764 -0.14337175 -0.11702293 0.09416714 0.008643209 0.10681495 -0.0016186857 0.071553186 -0.18338984 -0.046323944 0.21225819 -0.08294293 0.16849877 0.081091665 -0.33336434 0.33717665 0.016246896 -0.08818864 0.10610772 0.040295355 0.026177755 -0.003501341 -0.080783315 0.12907302 0.16241615 -0.004470656 0.36126214 0.011495036 -0.21534973 -0.06706559 -0.15298134 0.110532075 -0.18056081 0.21267444 0.022300664 0.19389468 -0.1547555 -0.09371273 0.09233976 0.13830335 -0.16250122 0.034609616 0.15899323 -0.1451396 -0.026393253 -0.059058297 -0.07551272 0.07878515 0.21395221 0.008531795 0.20951849 0.10294607 0.2789688 0.13384256 -0.14370123 -0.029838458 0.10121293 -0.0037160753 -0.08181598 0.13372345 0.03980074 0.011819723 0.13486631 0.115967155 0.06005557 0.06391223 -0.08470559 -0.07094674 -0.11061049 0.17558528 0.101348676 -0.034907896 -0.14422254 -0.034265082 -0.04418634 -0.09692487 -0.05721655 -0.0926111 -0.06437183 0.21783595 -0.22481395 -0.3059936 0.028202564 0.24311498 0.14554508 0.0009068315 -0.1078315 0.09160303 -0.044644285 -0.19353297 -0.06992735 -0.35783955 0.029465854 0.083444595 0.009068498 -0.2475022 -0.13229857 0.07670683 -0.09196381 0.14729136 0.08426464 0.026413584
434 0.01958468 -0.11350003 -0.22359496 -0.053025063 0.052112576 0.07374391 -0.0076246993 0.29980928 0.18767601 -0.08455966 -0.03987795 0.13128574 -0.11103383 -0.043463312 0.13098124 0.054493252 0.07838555 -0.12921257 0.01771488 -0.037576526 0.25730756 -0.07123878 0.095715426 -0.052965228 0.18786782 0.067893595 -0.12463184 0.04425633 0.1411749 0.14018762 0.11127289 -0.0076017836 0.051178772 -0.021561572 -0.12801038 0.06961132 0.035621434 -0.105323195 0.16092145 -0.060442206 0.015800294 0.033528946 0.020310668 0.026082905 0.27928007 0.12387671 -0.14560734 -0.10752646 -0.11274466 -0.29120222 -0.076155476 -0.05707344 -0.084587336 -0.000381971 -0.16654813 -0.14844818 -0.1758022 0.07518783 0.014367417 -0.06562441 0.096965365 -0.16122192 0.0654176 -0.17266384 0.10386841 0.006751925 0.028556725 0.006864242 0.17887908 0.052838545 0.19159736 -0.07421757 -0.00845477 0.07177412 0.1700232 -0.18313508 0.16607481 0.024840638 -0.051519 -0.040952027 -0.008171147 0.12012847 0.12191965 -0.15795444 -0.07401423 -0.028960481 0.023678249 0.10894927 0.110323705 -0.027550215 -0.077645905 -0.086224586 -0.14475346 -0.107212 -0.1272811 0.007873996 -0.042939607 0.27823392 -0.023463259 0.042521145 -0.032992348 -0.17249513 -0.107689194 -0.18148719 0.0028511423 -0.1712763 0.21764308 0.2572447 -0.23359346 0.12731929 -0.16368365 -0.11020886 0.034400847 -0.1761769 -0.32290503 -0.09085426 0.07677383 -0.10685345 0.02449166 0.09194285 -0.13517092 0.027753938 -0.24750613 -0.04616485 0.07738137 -0.05186198 0.076878406 0.052006155 0.17869024 0.034216467 -0.1395051 -0.01670796 -0.042396564 -0.05086895 0.015678987 -0.123987794 0.01430098 -0.06552235 0.0897856 -0.14776741 0.107516095 -0.05091427 0.09154407 0.15610005 0.29743 -0.21538982 -0.22342162 0.033684164 0.35251686 -0.10634092 0.066093154 0.14333086 0.031358153 -0.12486977 -0.08175244 -0.06857079 -0.13100876 -0.0057115927 0.069807544 -0.056850154 0.031341355 0.05652768 0.14819741 0.0715507 0.079110265 0.13715734 -0.07351597 0.159755 -0.03344605 0.3256465 0.09674818 0.028165895 0.026961602 0.07962551 -0.0044554914 0.039517187 -0.02029902 0.15168871 0.11432044 -0.09187197 0.113831505 -0.03847237 -0.302135 -0.005258414 -0.01734211 0.021950882 -0.13173965 -0.0533317 -0.2076456 0.09299858 -0.015547527 -0.065625116 0.10070099 0.107111834 0.008149942 0.07253701 -0.03694598 0.047006432 -0.111609496 -0.047571387 0.10211593 -0.007038445 0.121168666 0.23868385 -0.06770849 0.03782588 0.13501592 -0.049048577 0.084668785 -0.21079896 0.16787243 0.04112426 0.095286444 0.111874536 0.048128583 0.066827044 0.1777818 0.066181 0.13803156 -0.19782355 -0.0049544834 0.04783594 -0.012036915 -0.16742492 0.10357096 -0.1503772 -0.1445142 0.033915203 0.027677111 -0.020291988 -0.117703885 0.043294664 0.009228187 0.150453 0.14275141 -0.27481133 0.11593109 -0.14316612 0.0018745984 -0.17840233 -0.1648846 0.031802844 0.015785877 -0.045739785 0.15492886 -0.044661727 0.07308436 0.034328658 0.25979644 -0.17323637 -0.31808266 0.08235345 0.07749418 0.04053871 -0.24888706 -0.0070808083
129 -0.10303773 -0.037094567 0.14438164 0.20550394 0.053804863 -0.17572157 0.030928154 0.20613387 0.073214315 0.04040509 -0.067032665 -0.0845754 -0.03423641 -0.03981149 -0.26785353 0.03701049 -0.23393951 0.031181855 -0.039442986 0.07466471 -0.022385677 -0.17163575 0.112203315 -0.06524145 -0.10144154 0.039672174 0.1294998 -0.0620475 -0.11692796 -0.029033074 0.066654794 -0.005960057 -0.0096911825 -0.07419373 -0.021851668 0.038826175 0.06001574 0.08558502 -0.055878166 -0.20365742 -0.09219377 -0.18533783 0.008319549 -0.13935536 -0.016943 0.13232467 -0.076434374 0.038550895 0.20161133 0.030261023 0.033000503 -0.1551588 0.07890394 0.09523749 -0.18174031 -0.20290625 -0.065299086 -0.046203583 -0.027150542 -0.014522288 0.21808352 -0.2383077 -0.039368354 0.027011791 0.109021574 -0.014720466 0.17018339 0.12759893 0.11500531 0.009023654 0.2055347 -0.043468185 0.05062745 -0.14127325 -0.15602957 -0.00955545 0.0038862773 0.13957115 -0.068097584 0.0827548 0.15830572 0.034347713 0.21982463 -0.11418671 0.018264234 -0.20401956 -0.082125254 0.020456066 0.17035058 -0.09142454 -0.21321367 -0.2147289 0.19332905 -0.10998649 0.020006105 0.10796944 0.010281128 0.084137306 0.09927004 0.031404585 -0.22478324 -0.29253495 0.014257326 -0.22753134 -0.041088957 0.13366763 0.020202955 0.21488288 -0.08617204 0.025833974 -0.049741946 0.12096163 -0.1128404 0.093994 -0.11404998 -0.10970454 0.14925894 0.20538959 0.15597475 -0.069216244 -0.054226466 0.2933045 -0.08028851 0.028124029 -0.09414737 -0.0831275 -0.02918508 -0.25857335 0.10724807 0.13108277 -0.23049033 0.050791703 -0.037952952 -0.20397611 0.02372647 0.051932514 -0.094490916 -0.049343772 -0.13807222 -0.0035436058 -0.2973753 0.18772382 0.083119236 -0.032849822 0.13276857 -0.21360502 -0.09382641 0.046401106 -0.087446325 -0.20955677 -0.110797465 0.09494052 0.026848033 -0.06790901 0.039915226 -0.16463983 -0.14158762 -0.12520015 -0.061341364 -0.044571646 0.23409817 -0.099958025 0.15720889 0.1611848 0.006824607 0.03609927 0.02925323 -0.19072756 -0.18338284 0.1501909 0.0033821585 0.16568944 -0.101319835 0.120408036 0.07077524 -0.16431907 -0.027873568 0.00043659465 0.15535061 0.12614036 0.24680966 0.15753034 -0.13309908 0.06941308 0.16034245 0.023454078 -0.096851364 0.16604264 -0.007187637 -0.028796883 -0.26152378 0.035905056 -0.07625112 -0.02180545 0.037914105 -0.0034168116 -0.07244381 0.03793412 -0.06612435 0.20034193 0.005410803 0.043493718 -0.060379412 -0.021668052 0.054836616 0.022902407 0.098820314 -0.036271583 -0.022280123 -0.15847866 0.16416167 0.086644985 0.08262301 0.16287304 -0.16480397 -0.06483732 0.20355204 -0.06813175 0.18626802 -0.19444008 -0.14038818 0.040719543 0.12174874 0.12679425 0.15506898 -0.1849295 0.043852 -0.18678537 0.1061643 -0.09029178 0.009132064 0.014857175 -0.22960886 0.16474992 -0.051100664 -0.15150224 -0.048414443 0.32780203 -0.034490474 -0.22373708 -0.34344232 0.04717981 0.06476986 0.019760622 0.108529255 -0.34834284 0.17654261 0.1440831 0.119463645 -0.120546095 0.032139145 0.0071638515 -0.07810351 0.020001728 -0.15504588 0.26052716
64 0.06847997 -0.051812027 -0.08054656 0.062442623 0.26256648 -0.23016818 -0.05551671 0.07207236 -0.0022237124 0.060711846 0.03703706 -0.06417487 -0.00927976 0.1814128 -0.09873803 0.4711569 -0.08136763 -0.064028785 -0.14033082 0.07161236 0.072803445 -0.1845993 -0.04152368 -0.038763143 -0.013547896 -0.08014109 -0.050340164 -0.01753393 0.068836465 -0.16996258 0.04577103 0.022558026 0.10237905 -0.07731388 0.20747301 0.23967059 -0.2094062 0.05213982 0.23594004 0.14994438 0.1408716 -0.11590415 -0.065590166 -0.047783695 0.052862678 0.111091256 0.10240154 -0.31056514 0.18239455 0.062625274 0.044303697 -0.24578574 0.028019512 0.31460592 -0.15016572 -0.04476632 0.056927126 0.09575094 0.17707622 -0.16210127 0.1644655 -0.1184596 -0.061648637 0.20087203 0.08259882 -0.14975473 0.030416783 -0.053455275 -0.0076468005 0.14649199 -0.29203597 -0.19118752 0.14824206 0.17862521 0.08844096 -0.12509722 0.43141067 -0.030850079 0.05699833 -0.0217873 -0.019613555 -0.10036273 0.07992422 0.117043555 0.2805962 0.07226303 -0.04242537 0.057439536 -0.19137156 -0.096329644 -0.34268084 0.09247664 0.06819847 0.037019994 0.064449474 -0.023070427 0.14095387 0.259282 0.39681 0.19447659 -0.08588487 -0.115095645 0.23827788 -0.20723361 0.042857002 -0.24488151 -0.106076665 0.024920272 0.037334956 0.087547556 0.07436839 0.08313413 0.15505365 -0.32219726 0.04068875 -0.13163093 -0.03947012 -0.04640903 -0.28131914 -0.1631997 -0.025611266 0.08916361 -0.021094382 0.052320864 -0.19989853 0.07812777 0.07856121 0.11803369 -0.083556816 -0.07283821 -0.19515301 0.035476606 0.02411188 -0.16179833 0.13013647 0.0047535365 -0.045049533 0.011935837 0.0035412575 -0.1618285 0.12909733 0.38295487 0.10533544 0.034019135 -0.12135806 -0.26723966 0.043919332 0.010798943 0.15449297 -0.010786052 0.08623661 0.060172282 -0.17316481 -0.10639244 0.025595315 0.06458275 0.023659453 0.1371964 -0.0060379338 0.33977428 0.13562292 0.15951632 -0.10950432 -0.025234025 0.1780624 0.1997622 0.01182299 -0.0025288148 -0.0020009752 0.24827838 0.33050412 -0.10256584 0.18368952 -0.028071536 -0.20097801 -0.15805559 -0.04010645 -0.008066529 -0.043178562 0.0062805326 -0.04995005 -0.1570901 -0.23023227 -0.007423125 -0.17711373 -0.038424492 0.09007908 0.029925447 -0.35127297 0.103112645 -0.006884286 0.05849431 -0.07697372 -0.012608094 -0.061168794 -0.07263969 -0.07378828 -0.038572226 -0.007873504 -0.14350255 0.061623406 0.11220156 -0.16699038 0.15512331 0.014149332 0.13580595 -0.081523366 -0.27091378 0.07757308 -0.10526182 -0.112716086 0.14148243 0.07957236 0.04877055 0.14475419 0.10626311 0.021613806 0.048750788 0.21482518 -0.014228895 -0.11007678 0.10508547 0.04758653 -0.081894174 0.049384907 0.07972934 0.018046018 0.04526984 0.11013561 -0.15553579 -0.010394417 -0.2174761 0.17228305 -0.11193273 0.016316488 -0.07584815 0.122905396 0.069556355 0.1551759 -0.062457964 -0.071171194 0.32681265 -0.10714364 0.009560716 -0.14655574 0.072662294 -0.058409512 0.016720869 0.07998095 -0.09513983 -0.26668572 0.18311006 -0.12845895 0.124023646 0.10044238 0.010861443
628 0.34698036 0.31290665 -0.019137919 0.39056864 0.43964243 -0.54786587 0.59097433 0.20211022 -0.023201566 0.10701485 0.46767542 -0.52808726 -0.065453395 -0.104487024 -0.4345388 0.10869308 0.43758073 -0.00047291687 -0.237036 -0.51757866 0.6756098 -0.35559106 0.72420233 -0.57059366 -0.024113823 -0.90447515 -0.38559505 0.050800137 -0.09146392 0.58308536 -0.14965835 0.19382323 -0.19621694 -0.2502118 0.16726562 0.062709026 -0.55000424 -0.36514908 -0.0026688222 0.40592763 -0.83782494 -0.05262694 0.24978745 0.28534868 0.19015124 -0.16440947 -0.19971548 0.18572128 -0.2052317 0.021884486 0.20310001 -0.1470694 -0.44986627 -0.2104104 0.07721482 0.0384866 0.15631962 -0.4701058 -0.306484 0.5088128 0.13823971 -0.6334808 0.024355087 0.04969505 0.18000145 -0.0126698585 0.40398 0.23789291 -0.15063938 0.7058933 -0.28856647 -0.23248163 0.31888065 0.030457256 0.4012218 -0.004943114 0.17938355 -0.34177855 -0.3538523 0.4209052 -0.78218246 0.8009711 -0.23881862 -0.13707572 -0.22129372 -0.2132431 0.006090487 0.13911343 -0.0295475 -0.04697288 -0.36845502 -0.3756088 0.4014986 -0.9127386 0.12433492 0.010319457 0.124523565 -0.31216323 -0.080419324 -0.20781289 -0.6917027 -0.42573476 -0.78639823 -0.4618087 -0.24524513 -0.84547424 -0.4672772 0.018936777 0.6463886 0.38591325 -0.30900714 -0.471216 -0.06133918 -0.048621684 0.052438624 0.18590344 0.51482016 -0.069411255 0.2509332 -0.05139534 0.5052495 0.83044577 0.07257846 0.23687825 0.24366212 0.18058868 0.2374197 0.2599974 0.053001206 -0.37425727 -0.47098744 -0.2726624 0.4944943 -0.31855753 0.06993071 0.57850933 -0.56699246 0.074268356 0.54935056 -0.15822062 -0.044949114 0.22105585 -0.09643932 -0.2100143 -0.020618336 0.20131576 -0.8285016 -0.16243765 -0.31956702 0.15227805 -0.5914166 -0.4732557 0.0015361529 -0.366997 -0.24881105 0.6800638 0.37526768 0.13475285 -0.31712753 -0.18757853 0.23082851 0.10847051 -0.103023544 0.76082325 -0.09869124 -0.25658834 0.026848033 0.61275834 -0.030083247 0.68133545 0.5937305 0.6787207 -0.018093165 0.19772281 -0.16335882 0.70419854 0.46378648 0.7411228 0.44752538 0.20304713 0.42111248 -0.0019598391 0.26291862 -0.37286094 0.17660452 -0.0661039 -0.15864298 -0.64591 -0.10094143 0.8183889 -0.22176935 -0.4661522 -0.39857662 0.5805142 -0.61038435 0.4718468 0.23043679 0.028989626 -0.6543991 0.24856572 -0.785936 -0.07700022 0.13146879 0.40247694 0.471704 0.5384253 0.3737908 -0.047917634 0.340447 -0.109216675 -0.32159603 0.210723 0.37193784 -0.003071689 0.1616221 -0.52816254 0.050955687 0.36025167 0.7547671 -0.14521492 -0.27416426 -0.3791178 -0.02871629 0.38752738 -0.085509956 -0.28290173 0.44015044 -0.07638463 -0.019104062 0.008398874 -0.047339212 0.10884008 0.72802913 -0.0822268 0.17457366 -0.37073246 0.18683209 0.8281349 0.18683055 -0.07095166 -0.19271958 0.24634095 0.4575488 0.58049977 0.17651288 0.34829652 -0.5147283 0.033699404 -0.03928017 0.116489865 -0.5204232 -0.17514293 0.08726273 0.20244528 -0.31739843 0.27980238
128 0.087394185 0.042812675 -0.0003209721 0.16595915 0.12601022 0.08187655 0.03920213 -0.09279701 0.11140807 -0.03327966 0.14054506 -0.22763328 0.24468322 -0.119188204 -0.047537208 -0.023028707 0.087095395 -0.19600184 -0.047443073 0.044806346 0.10186191 0.14104225 -0.28316316 0.05627872 -0.14898519 0.14371465 -0.040684752 -0.00079616957 -0.06851751 -0.13158002 0.044608258 -0.01773351 0.03785073 -0.1942311 0.044840276 0.05108389 0.25792396 -0.05793608 -0.051177997 -0.123383276 -0.17105588 -0.20614736 0.11427258 -0.036768142 0.11409239 0.051393673 -0.015199497 0.22468169 0.08504922 -0.015922364 -0.2552834 -0.006979618 -0.20631315 -0.034164682 -0.15094 -0.033971548 -0.09639578 0.034786176 0.034033716 0.079483934 -0.09104826 -0.33443254 0.2544275 0.14327048 -0.015342738 -0.4074682 0.15034372 0.024356432 -0.1677698 0.019245787 0.08773652 -0.035429627 0.0022523305 0.03953331 -0.006991027 -0.16412836 0.03576132 0.1582151 0.09074251 0.09875665 0.1257583 0.20945074 0.122724324 -0.024608076 0.30305514 -0.04910991 0.05049799 0.058222696 0.16479923 0.032435555 -0.060674574 0.098656565 0.071701385 -0.16902877 -0.017115818 0.07667505 -0.11269289 0.20981832 0.032216173 0.081934735 -0.09539382 -0.13518833 0.13383451 -0.19395895 0.01639903 -0.03893209 -0.032562196 0.12419631 -0.028530141 -0.060363322 -0.009608875 -0.003396796 -0.0068508745 -0.10857381 -0.085208155 -0.118278526 -0.18435498 0.014101661 -0.26448214 -0.12648635 0.012281073 -0.015518591 0.13694866 -0.1910977 -0.056353137 -0.2783326 0.12828016 -0.04141119 -0.28061393 -0.045174003 -0.19419141 -0.07835633 0.08522798 -0.06044892 -0.0037877616 0.26983386 0.046884272 -0.057874907 -0.13006419 -0.10031908 0.007698169 -0.11567855 0.09453544 -0.19857557 0.18621816 -0.21841285 -0.09252384 -0.09574711 0.13697223 0.084482655 -0.090095446 0.04354907 0.15646623 -0.15736906 -0.1874596 0.013418014 -0.00276517 -0.15830426 0.014035867 0.059321847 0.118332386 -0.22407773 0.08580807 0.06804149 0.018077468 0.05682731 0.06838369 0.20794402 -0.14673238 -0.08257597 0.083006546 -0.036746975 0.15562464 0.04075298 0.011343347 0.2078391 0.06422032 0.19502448 0.10425139 0.12941942 -0.090991974 0.12782265 -0.30310723 0.0656079 -0.015102661 -0.0972925 0.011004216 -0.14630198 -0.33091518 0.030941825 -0.07988678 -0.044722263 0.040365327 0.24914905 0.053148665 0.0076858164 -0.108257376 0.0018843459 0.13848647 -0.11885284 0.021287968 0.032267787 0.13300693 -0.015245704 0.04918166 0.13379592 0.20576641 0.19560397 0.060102794 0.108168714 0.10782491 -0.079987496 -0.045652587 0.28754202 -0.09759485 -0.026192589 0.24008068 -0.08278868 0.073774785 -0.02718315 -0.095241666 -0.021766605 0.08082896 -0.16240294 -0.08515397 -0.057097 0.002431576 -0.14385705 0.053529408 0.17009024 -0.029457454 0.3304164 -0.014417312 0.05701992 0.04242305 0.008541186 -0.014840921 0.2395446 0.026443284 -0.17390402 -0.21614449 0.10228895 0.16242751 -0.15323044 -0.24951155 -0.18197823 -0.19753385 0.06468671 0.14226 -0.076087564 -0.01961976 -0.015079209 -0.18208815 0.104823396 0.17685306 -0.019935735
5 0.056854453 -0.17809826 -0.023409318 0.07290976 -0.06802066 -0.017812314 0.2494232 -0.12116803 -0.013210774 0.3089593 0.14717135 0.078841396 0.13934603 0.19523157 -0.08570885 0.18643707 0.10632915 -0.0025962826 -0.20288102 0.3155475 -0.13747965 -0.0061132945 -0.06728046 -0.2929303 -0.15684831 0.1234512 -0.02050074 0.07314562 0.034009296 -0.04952651 -0.16561952 0.062427975 0.0069801197 -0.0070318156 0.04074091 0.06296408 -0.108889736 0.10508208 0.4487082 0.016558042 0.13247372 -0.1477854 0.037765756 0.18083511 0.18990922 -0.15589862 -0.22453487 -0.2599609 0.15799518 -0.016653 0.049706593 0.09036843 -0.061893594 0.03268295 -0.19914204 -0.033066586 0.18227266 0.07549539 -0.15957355 -0.0073672687 -0.25540203 0.11353847 -0.1375529 -0.02209257 0.026808437 -0.037459042 -0.07112901 0.2690399 0.02352996 0.25405985 0.049715433 -0.046395075 0.15272124 0.10553777 0.054236915 0.02193091 0.09904136 -0.1470663 0.06371293 0.10209352 0.05927799 0.12099189 -0.027224666 -0.039407045 -0.38479802 0.034227077 -0.015953891 0.1185746 -0.1421895 -0.16519012 -0.06993477 0.14446522 -0.13277704 -0.05459234 0.03427234 0.09557037 0.032980524 0.17290975 0.15252198 -0.049303498 0.258091 -0.4206277 -0.046508353 -0.20807832 -0.21610284 -0.102637984 -0.13177206 -0.18126357 -0.27847773 -0.20325594 -0.09195879 -0.056209985 0.057970677 -0.30434728 0.18525632 -0.11405892 -0.07380261 -0.2689642 -0.1298759 -0.120048754 0.16231862 0.13477969 0.04170145 -0.084201954 -0.1564392 -0.12937574 0.063909814 0.24071625 -0.011930366 0.037276067 -0.22889882 0.046682395 -0.03652534 -0.15482499 -0.0813392 -0.24597396 0.12346266 -0.061885986 -0.018921144 -0.26128334 -0.10810032 0.2526299 0.07645456 0.036519494 0.12847528 -0.12869191 0.09303335 0.13640751 0.005881248 0.15162693 0.16055404 0.016520843 -0.10906416 -0.07382093 -0.023471307 -0.1593806 0.04338266 0.05453315 -0.23809065 0.22526872 0.046262264 -0.007942298 0.019171529 0.25081366 0.016015673 0.20558675 0.013750724 0.10452884 -0.3530292 0.07081237 0.05389576 0.097584054 -0.042621043 -0.09636045 0.07179625 -0.08301759 0.110756695 0.07518368 0.29325348 0.18494533 0.14316429 0.13972355 -0.07447073 -0.16337748 -0.3164782 -0.05041594 -0.07422394 -0.2732943 0.22634217 0.098630674 0.1006826 -0.0020633454 -0.08896098 0.099341616 -0.101995 0.10907812 -0.04610158 -0.05854922 0.084741786 -0.115757845 -0.06539678 0.20557384 -0.19699842 0.049885485 0.030599758 0.27454287 -0.0003522359 -0.11333017 -0.17184937 0.017412907 0.20872128 -0.16770364 -0.107557364 0.08674055 -0.043883126 0.00050425134 0.17486757 0.22892776 0.08369677 0.032418776 0.05970799 -0.0479034 0.26073903 0.20157366 -0.15601797 0.17001237 0.13219355 0.043522064 0.1062874 -0.029331159 -0.0009105674 0.082347736 -0.01712345 -0.006830549 -0.12838054 -0.076335184 0.113452435 0.041423306 -0.009281402 -0.169761 -0.032506004 -0.020984164 -0.15270711 -0.12989135 -0.19545154 0.026819073 -0.1723121 0.30273092 0.1885583 -0.11889427 -0.21096873 0.006586928 -0.36861548 0.20659977 -0.10404078 0.033005793
106 -0.12454598 -0.0638216 0.08344897 -0.013065451 0.17885382 -0.13896048 0.29983535 0.19758682 0.059131607 -0.024059393 0.15815806 -0.4390249 0.107990935 -0.046145868 -0.08233008 -0.15237552 -0.048059855 -0.022847304 0.14397967 0.012742185 -0.014542357 -0.1854864 0.15899295 -0.12603366 0.0495496 -0.14200203 -0.07586366 -0.059316255 0.11872439 -0.25741565 0.09396111 -0.09214322 -0.17408629 -0.111132056 -0.12114439 0.023443952 0.26597118 0.0524096 0.2975401 -0.044273138 -0.06317586 -0.041301925 0.026083052 -0.28171182 0.035043832 0.31009942 0.021818599 -0.15498643 0.17507155 -0.07569313 -0.123677395 0.0052612675 -0.04633147 0.10592517 -0.079166405 -0.032736488 0.056646835 0.27547303 0.040673845 0.14018236 0.14674076 0.04407303 0.14142127 -0.23744535 0.1986172 0.06614084 -0.11740526 0.03223645 0.015186703 0.16425203 -0.039211117 -0.10288426 -0.39683655 -0.036928326 0.054889448 0.03811054 0.20162173 -0.13864465 0.08793376 -0.06826342 -0.25914118 -0.10076531 -0.08802452 0.042753372 0.06473203 0.020909335 0.10436891 0.27839622 0.11815242 -0.1020165 0.015414923 -0.008496345 -0.07430022 0.06682893 0.17198364 0.2746585 -0.043777507 0.34777758 -0.030202072 -0.024214134 0.041701768 -0.17431673 -0.04278884 -0.15279387 -0.07470435 0.06372838 -0.1030975 -0.079575986 -0.026645755 0.2312284 0.049248762 0.08649907 -0.048663 0.01880667 -0.05440005 -0.09930611 -0.14993547 0.017134788 -0.041562885 0.13984358 -0.029551186 -0.06172494 -0.077813186 -0.23844938 -0.09755505 -0.36371455 -0.05773584 0.24214296 0.095734134 -0.19232078 -0.20393889 -0.16616572 -0.06414298 -0.06822955 -0.03388472 0.0844179 0.1262844 -0.28872067 0.061607018 -0.18131995 0.072633155 0.10601511 -0.0371175 -0.028453529 -0.25677785 -0.0021725118 0.009180675 -0.110861346 0.21418996 -0.07779248 -0.036531888 0.017373107 0.003748253 -0.117905766 -0.1912777 0.08147371 0.09040963 0.10726207 -0.16639444 -0.12993062 0.08506872 -0.006718228 -0.062939465 0.13329977 -0.06645199 0.05572674 -0.005749123 0.036832325 0.026006069 -0.109459154 -0.046367664 -0.016622828 0.17424716 0.11469065 0.035064373 0.17381638 0.0687638 -0.060472094 0.049281422 0.014278499 0.35132495 0.17183979 0.044917952 0.1157385 -0.15286271 0.15262295 0.15372612 0.076314874 0.03399376 0.13203539 0.036853015 0.0381763 -0.04560279 0.102647506 -0.01611325 -0.08053514 -0.04580709 -0.010818185 -0.2769407 0.11034477 0.12552322 0.16809726 0.028423613 0.122426935 0.02284358 0.2164296 0.23800865 -0.1363865 -0.07686992 -0.12203438 0.022560054 0.06433794 0.19200504 0.0008893276 0.028708356 -0.20009793 0.109353274 0.020024132 -0.010069613 0.033777513 -0.03728643 0.042114254 -0.21208416 -0.01135748 0.13937066 -0.12597802 0.085665576 -0.1585024 -0.0062284432 0.04458494 -0.14683719 0.15863542 0.11567603 0.10545272 -0.16544506 -0.116946734 -0.0136966305 0.0883778 -0.107512236 0.0024967063 -0.0074125626 0.055522047 0.20034102 0.0041764774 -0.008694136 -0.09732768 -0.16096678 0.06437532 0.03667036 -0.13252719 -0.083766356 -0.11459567 -0.06836798 -0.015070581 -0.19018723 -0.013814278
166 0.03188824 0.04849856 0.05493409 0.118320435 -0.045218535 -0.009921865 0.23747872 0.060058843 -0.06416636 0.05571557 0.13278994 -0.06837603 -0.14799836 -0.0028177581 0.09545218 -0.10280902 0.00793026 0.18025328 -0.055269256 0.028743114 0.22169162 0.03976021 -0.03443224 -0.044459753 0.19109806 0.02217501 -0.026060656 -0.07409429 -0.0026833909 0.05466587 0.094143376 0.2973901 -0.019698218 0.10372827 -0.051588446 0.18168533 0.0052014193 0.013007685 -0.0611049 0.09817388 -0.12073439 0.14153373 -0.2984985 0.033126313 0.078878045 0.012657619 -0.1908516 -0.12978882 -0.3150144 -0.20828737 -0.01725322 -0.09478278 0.05901447 0.09425702 -0.27707085 -0.0009172886 0.015581848 -0.11954237 -0.0928129 0.070241 0.0022302875 -0.18906055 0.190268 -0.19700518 0.26771635 -0.03304761 0.20917416 0.031234337 0.16040428 0.16860867 -0.00079292944 -0.08276994 -0.04377278 -0.07131637 -0.04861651 -0.16372736 -0.0071177613 0.29924935 0.02998384 0.0077848835 0.012735935 -0.11536183 0.12233805 0.08601474 -0.043858394 0.12402592 0.014214498 -0.012266973 -0.016495243 0.018930962 -0.09128714 0.0753451 0.015838105 0.105972596 -0.2636993 0.04763137 -0.13425818 -0.0062912866 0.22658871 0.18744124 0.073746994 -0.2241538 -0.14827956 -0.022459485 0.077267595 -0.04243265 0.040473267 -0.1637545 0.10896205 0.16187607 0.17012247 0.07541719 0.15839653 -0.14696673 0.028364921 -0.0765554 0.09578706 0.030861726 0.027778229 -0.052068714 -0.30680823 -0.16657333 -0.05574192 -0.06374238 0.11941244 0.0309033 0.1011301 -0.19507343 -0.13881728 -0.1251174 -0.41703743 -0.031675477 -0.096444376 -0.040395077 -0.030938406 -0.029347057 0.021932703 -0.22752967 0.14656223 -0.12711805 -0.014564601 0.14804135 0.18009685 0.18133746 -0.12204893 -0.13752177 -0.20371811 -0.066537194 0.04622983 0.06796293 0.11082152 -0.06788902 -0.16626291 -0.051073533 -0.07116635 -0.020002589 0.38977686 0.17108725 -0.11391802 0.15706874 0.105224036 -0.08299099 0.022293095 0.01536402 -0.20974141 0.15332109 0.06019665 0.07087616 0.1015114 0.06660459 0.17698778 -0.07345225 0.12112525 0.0052441377 -0.16915043 0.08240835 -0.0294089 -0.0014688883 -0.19074665 0.1960912 0.033386916 -0.15638736 0.012230051 0.20843178 -0.114975624 0.053037617 0.1286301 -0.24295889 -0.02718466 0.31703612 0.021253282 -0.1455435 0.02330541 0.23472363 -0.07788118 -0.26795816 -0.10411682 0.22570342 -0.1677495 -0.020518554 0.17785068 -0.071468994 -0.020669943 -0.061915666 0.014871543 0.09682821 0.2832634 -0.21240376 -0.03651092 -0.029357081 0.27137166 0.14382854 -0.14795163 0.17032757 -0.096470706 -0.11324576 0.020911328 -0.029612219 0.080715746 -0.119264856 -0.021753991 -0.0320989 -0.016129127 0.24683276 0.2659013 0.15064402 -0.081047155 -0.099190325 -0.07812975 -0.20583121 -0.03235795 0.13769653 -0.072357446 0.1941147 -0.16562831 -0.227182 -0.0016609265 0.19075312 -0.07214671 -0.09073153 -0.09209257 -0.0763932 0.20440811 0.09513064 -0.017019425 -0.106530294 0.11767651 0.0655982 -0.13475789 0.01414395 -0.13409004 0.0020738146 -0.024806717 -0.0065500266 0.1719412 -0.13726294
849 0.11191567 -0.23919229 0.0008132961 0.6048105 0.028963739 -0.32388583 -0.47891635 0.22037765 -0.23203756 0.51866037 -0.20854717 -0.49901724 0.24144514 0.4051106 -0.65413165 0.5463837 -0.06340204 -0.20762673 0.31728414 0.30718255 -0.07987996 -0.49312788 0.49978456 -0.29716238 0.22697246 0.23063488 -0.67522305 0.6606942 -0.12682831 -0.10563614 -0.40326646 -0.30664206 -0.89058584 0.29128173 -0.061759282 0.04821743 -0.036110293 -0.5858164 -0.46609253 0.0542266 -0.02393015 -0.10419225 0.03918893 0.2297944 0.8490461 0.43094838 -0.12886053 -0.69069666 0.08404863 -0.48203364 0.27933407 0.116847195 -0.57543075 -0.21094316 -0.32955843 0.41695085 -0.10707273 -0.7389211 0.49673828 0.47242865 -0.72146475 -0.48442027 0.5068668 0.41248563 0.24916692 -0.12496532 0.46228984 0.36479634 -0.11585008 0.39335123 -0.39106366 -0.46305585 -0.26720127 -0.046928402 -0.17285231 -0.7560731 -0.26813805 -0.37059224 0.3081066 -0.41246566 -0.7371728 0.6461598 -0.03073309 -0.20498112 -0.14320163 -0.48869082 -0.008778572 0.4459517 0.6626623 0.05404776 -0.5473675 -0.37458003 -0.11095129 -0.33341515 0.1584567 0.6312779 0.24453 0.39023402 0.5134207 0.416034 0.08621463 -0.0035058619 -0.15334202 -0.56813556 0.22737674 -0.16791722 0.4277015 -0.24019708 0.16650765 0.31740585 0.08847819 0.27205727 0.09663219 -0.24382491 -0.3297172 0.38073757 0.589239 0.19670612 -0.71529937 -0.06364303 -0.07039857 0.005630316 -0.026448797 0.17623468 0.10053604 0.08073218 0.10481801 -0.8135933 -0.17764127 -0.30087593 -0.18097739 -0.15004188 0.4778474 0.5196676 -0.4059683 0.030978035 -0.11693489 -0.5429785 -0.11691345 0.22597685 0.6458157 -0.3299201 0.4536327 0.35250768 0.25738356 -0.2107547 -0.624338 -0.32358897 -0.3868098 0.33008245 -0.6038549 0.26961884 -0.13189897 -0.15558358 -0.17287427 -0.23553333 0.09907782 0.2529294 -0.30968437 0.67496866 -0.18786243 -0.24387632 0.37274364 1.0827701 0.65558124 0.40075108 0.47548708 0.4163167 0.3147094 0.060145136 0.38071474 0.43026578 -0.28498685 0.94875723 -0.019242236 0.0596084 0.05334841 -0.38251466 -0.08546544 0.3321771 0.20901881 -0.08706808 -0.5744337 -0.13544187 -0.40569624 0.44834745 -0.58863443 -0.41736862 -0.6537818 -0.27940184 0.5544124 -0.29489288 0.58046615 -0.57046086 -0.7445742 -0.49961945 0.040209204 0.16268672 -0.4246266 0.29253042 -0.7523465 -0.18778118 -0.1262862 0.51689583 0.37636703 -0.05758383 0.861759 0.023212804 -0.08259478 0.019387767 0.58005214 0.02370206 -0.36891124 -0.44407338 -0.57794505 -0.10851468 0.10327374 0.9082269 0.4829937 -0.13701227 0.036438674 0.254547 -0.49612635 0.45755038 -0.45745057 -0.29315817 -0.08508672 -0.37859434 0.2874791 0.0028061883 0.3685145 0.03046451 0.55276376 -0.23777984 -0.061041452 -0.25995266 0.24646285 0.46907535 -0.15284388 0.008683732 0.8493702 0.5402343 -0.23906785 -0.49222448 -0.22347502 0.0010156416 0.35703352 0.6157795 0.46189088 -0.45191765 0.40733573 0.1918751 -0.4376374 0.5111954 -0.083266854 -0.11123258
383 0.30975476 0.088138245 0.4526831 0.66139805 0.51669526 -0.23556548 0.57461244 -0.31003344 -0.030554458 -0.18639565 -0.24465948 -0.5458024 0.121901125 -0.25101414 0.13132624 0.4994377 0.1781752 0.14397632 0.24366216 -0.6511268 -0.06888022 -0.27911487 -0.066457875 -0.7761384 -0.45911485 -0.23971878 0.22229965 -0.051196218 0.2523685 0.020121945 -0.33846417 -0.16365731 0.15227991 -0.52635145 0.31280455 0.55777943 -0.2744606 -0.41938692 -0.028078083 -0.37288114 -0.5113958 -0.45371145 -0.06647022 -0.054915853 0.13719302 0.18223646 -0.49617386 -0.25639415 0.02083624 0.3070128 -0.20600574 0.09493938 0.055371985 -0.3501476 -0.5782756 -0.18759446 0.2519871 0.15047254 -0.16409624 -0.014113606 -0.76615876 0.18722434 0.14754991 -0.1735135 -0.19119647 -0.29838914 0.22505115 -0.18978381 -0.36068138 0.5803139 -0.92615175 0.44538364 -0.1507154 0.35356402 0.18891479 -0.16266514 -0.017633446 0.02249715 0.20584646 0.4948679 -0.19783933 0.11571808 0.40345353 0.23134409 0.7812054 -0.4382796 0.12187753 -0.31816444 -0.21140976 0.12635443 -0.06624513 -0.48816335 0.13273734 -0.45370385 -0.23098771 0.6474144 0.44663915 0.23259646 -0.09485054 0.4436774 0.18285936 -1.1871511 -0.09342234 0.0760087 0.16530727 0.18804163 -0.5402032 0.63773805 -0.06861882 0.27379987 0.08512394 -0.036009315 0.17265345 -0.44941336 0.047141396 0.06488036 0.5917821 -0.45600602 -0.15910546 0.35422 0.5030431 0.9371428 0.37749955 0.101884484 0.3178835 0.34993654 0.51797056 0.35386148 0.32340732 -0.5713562 -0.42650408 -0.26122686 -0.11632632 0.15006104 -0.0050257742 1.2296776 -0.03997301 -0.3303333 0.28479216 -0.2824372 -0.47317505 0.4514547 0.3522654 0.3558695 0.12129453 -0.08012348 -0.756802 0.0759035 0.09718045 0.001084503 -0.5568475 -0.29840693 -0.28303972 -0.47340795 -0.28613976 0.16857728 0.16663313 0.45844635 -0.44105873 0.25600106 -0.2720495 -0.6304907 0.8864127 0.81917006 -0.4373114 -0.29812568 0.5837508 -0.043188434 -0.098976366 0.32967225 0.44703516 0.658483 0.14021951 0.41072437 -0.4146476 0.42559704 0.34609967 0.8989933 0.044823393 0.46615744 -0.08212547 -0.10116041 -0.368318 -0.7205613 0.23582001 0.22895598 -0.16760334 -0.18441842 -0.8376521 0.05115337 -0.09053026 -0.78893334 0.3016541 0.20337877 -0.43176603 0.19207509 0.35598135 0.24820168 0.109079204 0.17408215 0.03151578 -0.823314 0.34045607 -0.02138378 0.25462365 0.6768927 -0.0658408 0.6077937 -0.0614912 -0.12269521 -0.18727916 -0.044616222 -0.13079114 0.37116536 -0.4886477 0.2528355 -0.21072906 -0.048197616 0.49537283 -0.40479404 -0.06457411 0.60579544 -0.69371605 0.32271427 -0.23872185 -0.46654552 -0.10397312 -0.8131841 -0.042344928 0.3403864 -0.47155964 0.3425622 0.42116952 -0.06342847 -0.0938747 0.03014565 0.6275718 0.83479726 0.077174336 -0.10983624 -0.509035 0.34822783 0.30570695 0.911271 0.48454574 -0.2379646 0.52811706 0.59759825 -0.14450821 -0.19155909 -0.5728133 0.27987668 -0.22749516 0.04823871 -0.8413782 0.0023612655
82 0.1227966 -0.062377196 -0.053837523 0.17148134 0.26841187 -0.088887975 -0.014654797 0.08068504 0.01574943 0.19040258 0.13121064 -0.1470244 0.17340544 0.014237249 -0.12027094 0.16414244 -0.14718464 0.14732382 0.05912121 -0.012708965 0.09732452 0.12688948 -0.02129902 0.18472269 -0.05972198 0.1003705 0.038364705 0.16159496 0.010692911 0.09212688 -0.19558452 -0.009442194 0.012437539 -0.1821523 0.19014299 0.12783025 0.13138036 0.16276188 0.123161644 -0.11478951 -0.20826407 -0.016271122 -0.064200744 0.09544195 -0.09468398 0.071572736 0.25413227 -0.16996074 -0.11136484 -0.18550158 -0.012114975 -0.025339052 0.07302337 0.22893524 -0.09333392 -0.14405797 0.0057967673 0.09290395 -0.09562455 -0.122653 0.11848441 0.086425915 0.074128404 -0.09580058 -0.010507995 -0.0261108 0.049425893 -0.19661665 0.20571579 0.06763977 -0.103585966 -0.11281005 -0.033884093 -0.039311513 -0.039886158 -0.22264358 0.009004061 -0.1616526 -0.006292892 0.034953326 -0.0523588 -0.3155375 -0.004517542 -0.033916533 0.08705492 -0.056181658 -0.012732948 0.21842575 0.017642975 -0.03164697 0.12881924 -0.0286378 0.13524072 -0.15535729 0.049747877 0.06696062 -0.12567116 -0.10336482 0.10138372 0.12142153 0.09549417 0.02113811 -0.11134321 -0.127887 -0.07552643 -0.20617586 -0.1373312 0.20248759 -0.01928625 -0.061287515 -0.14513361 0.05008026 -0.1626867 -0.008820091 -0.18181036 0.07329153 -0.13285096 -0.14710131 -0.025379421 -0.012355626 0.0075473883 0.1021102 -0.25003207 -0.0392599 0.010269151 -0.2656527 0.057113588 0.25497562 0.18681909 0.060016196 -0.08155349 -0.1552027 -0.13084844 -0.09199882 0.060846586 0.10052613 -0.027504794 -0.030430607 -0.23542751 0.0852065 0.16417047 0.049781233 0.14176196 0.036841575 0.02175934 -0.25922504 -0.05564583 0.075392306 -0.035387304 0.11783295 0.19505492 0.3451486 -0.029736076 -0.36749852 0.04170794 0.12584282 0.23215301 -0.20059764 0.1750088 -0.20325318 0.08670957 -0.020583374 0.09373885 0.35817194 -0.14008676 -0.16189307 -0.13899255 0.22189596 0.07079135 0.106162265 0.013963805 0.2804411 -0.08017946 0.04705538 0.20090702 -0.025474096 -0.049102977 -0.009073851 0.06596896 0.036638137 0.36469388 -0.004568992 -0.17819554 -0.0577363 -0.120500624 0.09591282 0.16293593 -0.036739044 -0.07551732 0.18113118 0.06675218 0.01973344 -0.11492003 0.0064874524 0.15148708 -0.035243712 0.08389033 0.03775414 0.03838404 -0.010032269 0.057524532 -0.021033522 -0.17548354 0.058305737 0.034641482 0.16916218 -0.048035294 -0.11581957 -0.072860524 0.0571041 0.277774 0.023639364 -0.054223668 -0.07714715 -0.10546274 -0.09337806 0.17220816 0.18591808 -0.062286776 0.0077843545 0.065331645 0.012991431 0.1446519 -0.08896257 0.17233686 -0.022832658 0.06914358 -0.2033178 -0.06589095 0.0071976488 -0.07192912 0.18826875 -0.021533743 0.06771112 -0.18843701 -0.159784 0.008056265 0.19788274 -0.031014444 -0.17065735 -0.07825055 -0.082623795 0.016015481 -0.14718509 0.048937995 -0.2301469 0.18703514 0.0045736604 -0.047518887 -0.14447156 -0.047487233 0.18383832 0.07593386 0.038690798 0.22966303 -0.07891287
21 -0.044372503 -0.08032268 -0.20724514 0.0005795103 0.026804056 0.0010004507 0.27502277 0.111343294 -0.07425997 -0.10370495 0.20336929 -0.11004975 0.24036595 -0.09910839 0.054904975 -0.045358744 -0.17595595 -0.050937776 0.15896043 0.18594041 0.018085817 0.04546375 0.015214964 -0.04589774 0.17147176 -0.13785663 -0.22009242 -0.11332939 0.069533706 -0.12439074 0.12704654 0.1898785 -0.04346521 -0.22791158 0.06546477 0.17757304 0.11887177 -0.05858985 0.19108695 -0.21714574 -0.06620456 -0.049483687 0.14117193 -0.006178781 0.033562116 -0.041455235 -0.17229927 0.029733002 -0.11613076 -6.234447e-05 -0.063941166 -0.1949108 0.0002611177 -0.076820485 -0.00825691 -0.06689207 0.23184684 0.16782416 -0.16777372 -0.024337644 0.15724823 -0.23486555 0.28131416 -0.20799516 0.13547234 0.01667865 -0.010192284 0.09153282 0.0684412 -0.052757014 0.022972045 -0.076573126 0.15105382 0.07086874 -0.11660863 -0.035282437 0.20892982 -0.16361275 0.22673048 -0.22854124 -0.042243563 -0.2612137 -0.10343242 0.059040293 -0.10380536 -0.23631655 0.03250256 0.04933707 0.008327722 -0.1711635 0.021190928 -0.20524 0.19161919 -0.19756936 -0.09362272 0.33848968 0.14216608 0.106238134 0.1327309 -0.19285156 0.08418276 -0.18191098 0.11985813 -0.002657189 -0.125892 0.12325311 -0.20792925 0.11753055 -0.34962606 0.030688263 -0.007190062 0.027633028 -0.068163835 0.12137006 0.037755992 -0.12632453 -0.007999711 0.044914562 -0.098113455 0.09429406 0.078316435 -0.038206752 -0.0055061188 -0.008256949 -0.015208621 -0.16891629 -0.09519874 0.2575077 -0.1294038 -0.04773524 -0.11686379 -0.14287402 0.007907682 -0.01723693 0.18590528 0.004406671 0.27557552 -0.08873649 -0.15933889 0.087279215 -0.0031960048 -0.054115556 -0.11000476 0.10512319 0.13891828 -0.10208747 0.021479664 -0.13875446 0.18356442 0.080334045 0.19699803 0.018741218 0.015465447 0.1576521 0.16717863 0.11476953 0.19622597 -0.021194825 -0.25288528 -0.029137304 0.24291827 -0.034399755 0.00016288813 0.35660982 -0.053363383 0.11246224 0.3101837 -0.096062794 0.031103818 0.07192802 0.14644977 0.012854928 0.10990372 0.2275562 -0.006593638 -0.095208734 0.081908 0.07236569 0.15091279 -0.079978205 0.120698705 0.1626611 0.06026669 0.18729974 -0.08476311 -0.108083524 0.06649522 0.15062365 -0.23147073 0.32276893 0.016879635 0.042266894 -0.019432774 -0.08880476 -0.145876 0.02473794 0.04106945 -0.06624576 -0.22358876 0.061037764 -0.12341017 0.1458652 0.0704911 0.22833519 -0.18742451 0.06462932 0.12801988 -0.016057277 -0.1856202 0.16295192 0.013849667 -0.055588447 0.058528554 -0.09967168 -0.1197223 0.029351737 0.31007367 -0.124397606 -0.23683798 -0.18264797 -0.1684972 -0.07410692 -0.15392086 0.08003514 0.18745059 -0.07841064 -0.058251552 -0.36210316 0.11179466 0.12479911 0.11769057 0.14390278 0.030277463 -0.06952117 0.048234347 -0.10797523 0.06629119 0.13563493 -0.055990703 -0.045760002 0.047712296 0.046609152 0.10072176 0.022427155 0.02039324 -0.2757581 -0.06559615 0.27270964 0.11780445 0.117325224 -0.04822954 -0.13538362 0.018315993 -0.014530721 0.022300312 0.06220796
105 -0.06838709 -0.21165021 0.22744386 0.31887168 0.016905138 0.020227024 0.020995056 -0.03400987 -0.1252135 -0.0006469916 0.07385547 -0.041827224 -0.121017925 -0.17802335 0.27016297 0.022207757 0.09978965 -0.0016142735 -0.057171844 0.05233191 0.008872286 0.14077896 0.0862927 -0.1608308 0.11545116 0.009527898 -0.25493103 0.12000486 0.039654035 0.056208238 0.035388593 -0.08126115 0.02381457 -0.22637355 -0.1755477 0.022828093 0.085424714 -0.17975421 0.036895283 0.026946243 -0.010514618 -0.035470113 0.06585605 -0.022118663 0.14776972 0.05805718 -0.0148132965 -0.14319018 -0.19122668 -0.16303526 -0.018071242 -0.16689335 -0.13330118 0.20045021 -0.051837653 -0.13924596 0.1352177 0.11482481 -0.1091994 0.025327327 -0.04296167 -0.24864559 0.12309582 -0.024279492 -0.30758885 -0.10852211 -0.010331876 0.016751634 0.11720708 0.15315035 -0.24564475 0.037933815 -0.10008339 0.0172839 -0.28405097 -0.076740414 0.1420555 -0.13315122 -0.005678915 0.056236614 -0.22963017 -0.18379898 0.11397832 -0.1857558 0.18400112 -0.2507273 -0.011785591 0.05922901 -0.26283923 -0.098992035 0.10323168 0.22779892 0.011028933 -0.19548246 0.25433558 0.04445335 0.005947917 0.29976723 -0.025136832 0.10018233 0.07770135 0.05642265 0.017107803 0.010829474 -0.28233996 0.046180747 -0.07266978 0.10475723 -0.020495147 0.22830455 0.10343417 -0.023018051 -0.020498663 0.037747055 -0.071172245 -0.14537464 -0.11880213 -0.025349146 -0.12526955 0.032024186 -0.18660684 0.03152786 -0.18502495 -0.22917782 0.034188174 -0.11996803 -0.007395069 0.07980162 0.027797356 -0.06786907 -0.10363649 0.08264706 0.123476066 -0.22010273 0.018711468 -0.031236803 0.1658828 -0.06607784 0.23927663 -0.18501371 -0.052303065 0.1055503 0.023183318 0.21626876 0.0890333 -0.06886977 -0.057728272 -0.015713368 0.065394014 -0.1152909 0.18887988 0.26225534 -0.09986248 -0.07607764 -0.069521986 -0.15104227 0.12929049 0.07296266 -0.17543347 -0.045538418 -0.23500894 -0.039585833 0.09576868 0.11511371 -0.008897906 0.22047688 -0.17356147 -0.0027221842 -0.36660844 0.18007094 0.18918169 0.13478236 -0.2290572 0.04006132 0.17460278 -0.02319423 0.0031341433 0.08183863 0.24895112 -0.030286893 0.07681984 -0.14938004 -0.16764602 -0.005675456 -0.0099190315 0.06409678 0.17007093 0.042432956 -0.35732958 0.08962941 0.045947738 0.004536474 -0.12079917 0.018966813 0.17707433 -0.16032515 0.1210256 -0.057892185 -0.2991237 0.060613383 0.10834627 0.042140074 -0.03786496 0.0052187014 0.08973425 -0.06818159 0.07071037 -0.10034145 -0.17391162 0.16000909 0.1879599 0.110917814 -0.12910427 -0.0013898669 -0.060752407 0.049162284 0.16395485 0.04883069 -0.03421634 -0.023313057 -0.12689954 0.017995186 0.00023324815 -0.0054717376 -0.059192985 -0.092494376 -0.087490246 0.022538492 -0.033166014 -0.078577 0.017574757 0.0637122 -0.06387981 0.25610653 0.16236271 -0.10356805 -0.16786301 0.011430598 0.06580309 0.047660913 0.15495239 -0.024558377 0.24188688 0.042069808 -0.057993274 -0.08345524 0.15337808 -0.18078832 0.08995883 -0.05311524 -0.23339836 0.042778887 0.12725495 0.12230825 0.01871462 0.027983118
301 0.06548578 0.09467592 0.04203475 0.062818125 -0.04504023 0.1417152 0.033236314 -0.2027503 0.18596298 -0.045496814 0.12420791 -0.07183181 0.013758834 -0.12190118 0.10440872 0.24040374 -0.13115643 -0.331384 0.14682828 0.13103268 0.036604915 -0.093136586 -0.2891404 -0.3323992 -0.14941439 -0.0048174844 -0.13299108 -0.111018986 -0.025253791 -0.058229733 -0.020857211 0.39486375 0.06296651 -0.07592149 -0.040492583 0.21168162 -0.083412826 0.36377984 0.20294927 -0.15572226 -0.2537161 0.047090404 -0.07587435 -0.1387491 -0.014859274 0.19961087 0.045841437 -0.21569932 -0.22114015 -0.11252683 -0.1651946 -0.058411825 -0.013836413 0.122021176 0.19466226 0.14312159 -0.02366492 -0.15893923 -0.15820134 0.38404468 -0.07213728 -0.06615313 0.13020429 0.16020487 0.04880369 0.088458546 0.066126935 0.027588615 0.12653032 0.28255454 0.03306721 -0.025369234 -0.086188644 0.15058035 -0.118172325 -0.010297985 0.06020485 -0.15549769 0.19941038 -0.039029825 -0.066462606 0.1900502 -0.088879645 -0.089980744 0.14587605 0.051540755 -0.28049582 0.3711713 0.10955879 0.10168272 -0.15330447 0.29115397 -0.008372891 0.07683438 0.036699556 0.0428618 0.24309957 0.100817606 0.2590174 0.2811637 -0.13457452 -0.36993766 -0.017874846 -0.079622604 -0.042994913 -0.07866107 -0.04530365 0.10670849 0.055756215 -0.08368807 0.2553991 0.20223446 0.20362209 -0.057611052 0.03350444 -0.11149964 -0.037701458 -0.14400339 -0.11651378 -0.10178829 -0.08249512 -0.36458576 0.017814644 0.17784068 0.082202375 -0.031889606 0.023389058 0.09105316 0.19519949 -0.2229183 -0.07850767 -0.12126142 0.0450863 -0.19076037 0.058629334 0.031303644 0.23177928 -0.2429708 -0.012312741 0.1416513 -0.056255504 -0.19838394 0.12011044 -0.08407705 0.13355583 0.069252826 0.048891407 -0.22602215 0.15351641 0.14834948 0.26660845 -0.12347315 -0.045739748 -0.14452493 0.18030944 -0.048192747 -0.04348902 -0.071876645 0.11421871 0.08399729 -0.16266727 0.015163029 0.31323043 0.15434536 -0.24521773 -0.035152864 0.07683952 -0.063032076 0.016966833 0.18762209 0.054480575 0.08642366 0.07500457 0.058543924 -0.01936674 -0.23783098 0.016782632 0.123189755 0.13664205 -0.13946345 0.22212856 -0.06492942 0.1660748 0.082899705 0.04777694 -0.04425212 -0.18723954 0.06750858 -0.007310915 0.039658494 0.015131224 -0.11436681 -0.038191337 0.2135864 0.023466125 0.16413695 -0.029162597 0.0654778 0.11149304 0.12038777 -0.19697534 -0.15860008 0.10595121 0.20357457 0.09593896 0.030089103 0.28952745 0.009547994 0.026837226 -0.058022704 0.18295352 -0.36038378 -0.081521645 0.015199644 -0.14385532 0.14285588 0.017869456 0.31265035 -0.009239689 -0.053174436 0.005242973 -0.025507193 -0.03534353 0.1798058 0.023586558 0.009300645 0.09699144 -0.07094631 -0.32725155 0.02739639 -0.20781398 0.12780108 -0.12715606 0.025929505 0.030385852 -0.06429599 0.00087402685 -0.0061838287 0.102603376 0.14662439 -0.023343433 -0.03815408 -0.1557154 -0.1654343 0.3347444 -0.00109234 0.04707727 0.43189147 0.11230699 -0.11984767 -0.15203202 0.0025005515 0.118840255 -0.101365864 0.16885369 -0.010606757
211 -0.0041028317 -0.058585327 0.25723878 0.046066158 -0.15864204 -0.09007971 0.15769467 0.18257016 0.010498545 0.015687522 0.08174659 0.00028828904 0.14963494 0.15625478 0.023731712 -0.032645807 -0.15925932 -0.09819315 -0.19000944 0.13727582 0.086483896 0.02066507 0.21106303 -0.03306762 0.016559254 0.32025197 -0.1756156 0.07530241 0.2538808 -0.10458393 0.029963994 0.23947884 -0.14309219 0.01464423 0.057113267 0.2981236 0.1315405 0.077311225 0.28783798 -0.31208083 0.028533475 -0.15614204 -0.15293683 0.11432127 0.06609667 0.086295694 -0.18088578 -0.08653153 0.013670337 -0.07041429 -0.05120601 -0.09440616 -0.12501322 0.09753874 -0.03897895 -0.12970491 0.056320686 0.18686171 0.06380604 0.18499738 0.1298063 0.14703754 0.023089208 0.19993204 0.013190927 -0.08343817 0.1912664 0.15086102 0.040283166 -0.029144982 -0.23086108 -0.23720722 -0.10589563 -0.123939544 -0.048326503 -0.30592287 0.110130854 -0.06695885 -0.031423107 -0.06688529 -0.08428834 0.15878867 0.046138432 -0.16985808 0.17240156 0.090923294 -0.062784255 -0.071540885 -0.029248564 -0.13060547 0.0025292654 0.09530001 -0.13799994 -0.097093396 -0.01104551 -0.042460255 0.12803197 0.04172484 0.11605793 0.04649392 0.11835517 -0.09381694 -0.18441334 0.019608287 -0.032707155 0.02272202 0.07880571 -0.018600542 0.056826264 -0.03448517 0.13814501 -0.12736197 -0.14217642 -0.00045782252 -0.020474896 -0.22712317 0.082042776 -0.2815038 0.25480223 -0.08731802 -0.012631044 -0.20399559 -0.11700681 -0.09905176 0.170479 0.03816283 0.054410763 0.110702485 -0.041504912 -0.084112495 0.07760685 -0.12912376 0.11202275 0.097003266 0.04881493 -0.2048807 -0.04648812 -0.04841384 0.015899422 -0.18146642 0.11349016 0.19984381 -0.080814935 -0.044896714 -0.15739577 -0.10850895 -0.07157345 0.2713469 -0.19492406 0.047983766 -0.25099573 -0.018496852 0.05180499 0.036378145 0.09937142 -0.098471686 0.12736064 0.051641345 -0.28775436 0.042043325 0.23015723 -0.040002614 0.07075246 0.4046432 0.15269507 -0.018182583 0.34734178 0.11302187 -0.2099525 0.23116328 0.0006231658 0.16835828 0.23351854 0.06371989 -0.051957972 0.079951674 0.18705477 0.1430849 0.15430619 0.07758073 0.10477955 0.027549945 -0.1499719 0.118974514 0.012423325 0.019673765 0.023596492 0.15705438 -0.09726426 0.24874355 -0.16909015 0.09095983 0.15650961 0.19036947 -0.009270655 0.114333056 0.020009177 -0.1256455 -0.054632317 0.078311846 -0.24806572 0.29807317 0.1417891 0.1403382 0.19570437 -0.021755291 -0.12155124 -0.06767155 0.00023264608 -0.058876608 0.06824348 0.12881124 0.014222502 -0.023557805 -0.16708578 -0.113681816 0.0443053 0.2827656 0.043833848 -0.09887589 -0.012373157 0.14349613 -0.061313897 -0.0004447839 -0.17599447 0.09182792 -0.057438977 -0.024433754 0.09896169 -0.10838012 -0.08585754 -0.080067165 -0.14019969 0.21452737 -0.0064107617 -0.11643881 -0.03237829 0.17432724 0.010064451 -0.00052452105 0.04668137 0.08111792 -0.11446063 0.10014476 0.030955587 -0.068949044 -0.10913906 -0.099615715 0.07857661 -0.3835261 0.057869088 -0.28435603 -0.13198426 -0.017954074 -0.08847161 0.10459537
256 -0.121333316 -0.24955991 0.009795844 0.15645586 -0.056499213 0.007661586 -0.06569017 0.10176131 -0.28414914 0.08697971 0.06295312 -0.16885786 0.12386356 -0.031202123 -0.058118954 -0.11850034 -0.13383631 -0.09590893 0.288179 -0.09481497 0.24952494 -0.0021161786 0.10834242 -0.23583682 0.17155892 -0.04498732 -0.25196636 0.012651525 -0.054601315 0.09989218 -0.10130488 -0.15158966 0.18284646 -0.14211114 0.20938797 -0.112194225 -0.041804153 -0.1970912 0.14516553 -0.22097692 -0.07687732 0.08767854 0.03053205 0.1145419 0.077365205 0.1366742 -0.009123047 -0.05507164 0.10637515 -0.24496827 0.21086311 0.18362813 -0.2710929 0.16857013 -0.22199747 -0.1696216 0.16736351 0.21756387 -0.11927547 -0.11431004 0.06455436 -0.16237655 0.046502702 -0.0016445494 0.14467093 -0.08622226 0.034226123 -0.018214192 -0.1140604 -0.14566682 0.032386653 -0.05970096 0.13816564 -0.031350903 0.030354835 -0.19458482 0.03709206 -0.11404015 -0.12042276 -0.03063087 0.12958859 -0.09416311 0.08970387 -0.22718777 0.19700433 0.017891254 -0.087968536 0.28510952 0.014972322 0.010463931 -0.15200332 -0.024165206 -0.027721716 -0.0023333626 0.02642503 -0.030511186 0.032753613 0.14942338 0.09741391 0.081671394 0.20680879 -0.14466952 0.09476407 -0.024397587 0.061854403 0.014160362 -0.08408884 0.07603223 -0.03109521 0.18237154 0.16945831 0.08275934 0.07353874 -0.13644494 -0.10088706 -0.09831204 -0.23339017 0.010692123 -0.02786911 0.22119157 0.25811467 0.103395835 0.12705998 -0.11709205 0.08939162 -0.24027704 0.095267534 0.100702636 0.050405577 -0.20668067 -0.22421119 -0.27788362 0.048399124 0.004867668 -0.043141115 -0.0777416 0.03881429 0.09606518 0.09764969 -0.027285978 0.001855616 0.1752336 0.11890436 0.0707905 0.09713804 -0.30807698 0.006822048 0.30635983 0.13474552 -0.0003398841 -0.08392197 0.0030809306 0.1516959 -0.10596385 0.1747511 -0.0034036792 -0.009343064 -0.27195925 -0.17883101 0.023318777 0.05327462 -0.06842285 0.14050981 0.07992052 0.14139697 0.034125634 -0.038512826 0.02258171 -0.26261646 0.08216568 0.041315317 0.0745249 0.15036128 -0.15512711 -0.053406194 -0.035942968 -0.23671575 -0.010130947 0.0014394493 0.052533545 0.1576338 0.060609158 -0.070059545 -0.035317216 -0.028529167 0.20487374 0.07509635 0.11818112 -0.20426479 0.07148534 -0.060731664 -0.15466115 -0.08000981 0.05376257 0.100351915 -0.0075254967 -0.0014921791 0.073394574 0.039372094 0.014548798 -0.08264905 0.013257278 0.058717687 0.06690695 0.055272516 0.07867499 -0.13733144 -0.09290498 -0.040884968 -0.021226084 0.18216293 -0.32015526 0.20169961 0.2546641 -0.15575305 -0.15102512 0.16839641 0.10120066 0.06749883 -0.15218063 0.215771 0.18922736 -0.028870348 0.23870395 0.10218316 -0.20405714 0.0023527963 -0.3132486 -0.0820589 -0.1301578 -0.053227533 -0.035183772 -0.10246078 0.19831641 0.017933063 -0.22061436 -0.18970308 0.1417615 -0.25312284 0.028580228 -0.06858507 -0.039856683 0.1631276 -0.0075786505 0.058476966 -0.15534624 0.03183806 -0.085010484 0.023069065 -0.0122609455 -0.08278665 -0.07096359 0.07546293 0.12022827 0.03235261 0.036968835
283 0.19676778 -0.21893992 -0.0842143 0.3338126 -0.037020512 -0.2475965 -0.096098974 0.09353261 0.0108653195 -0.029918917 -0.11596302 -0.16250882 0.18379757 -0.038281046 -0.13461518 0.15088393 -0.07599393 0.16773152 -0.013769905 0.09783258 0.3719925 -0.038338196 -0.18449917 -0.10279973 0.06237562 0.07141344 -0.05838217 -0.100170925 0.15625124 -0.09433676 0.0008855992 0.23129638 0.11488517 -0.04217506 -0.07388873 -0.120746 0.03278564 -0.11690853 0.042084783 0.026853062 -0.21756303 0.17800789 0.060250886 0.18138973 0.064223565 -0.026290387 0.17354792 -0.29613277 -0.07749207 -0.0023828272 -0.010369326 -0.091403715 -0.2456974 0.021417877 -0.13617952 -0.2080165 0.06931639 -0.05254241 -0.17788233 0.28071526 0.10679272 -0.085946545 0.2516328 0.17483923 0.07224255 0.11715932 0.13188879 0.028346628 0.02635036 -0.035349086 -0.017959649 -0.11768059 0.07425149 0.19790675 0.13418895 -0.19432189 -0.008174786 0.031510703 -0.04763011 0.08482821 -0.18199816 -0.012138424 -0.22092779 -0.08011826 0.09104137 0.03800169 0.07721606 0.20581365 0.08443997 -0.029317979 -0.25421378 -0.23401786 -0.091343254 -0.27512676 0.07978479 0.23147579 0.0103398375 0.16830589 0.025923375 0.088224486 0.16166681 -0.1440268 -0.024386609 0.14426306 -0.08395643 0.058393333 0.111336544 0.042447425 0.16776311 0.16186695 0.1378802 -0.020500105 -0.11818012 -0.1619211 -0.30565667 -0.1167483 -0.016672825 0.23814769 0.044313528 0.08793759 -0.25147018 0.22516824 0.08754836 -0.23437774 -0.10486767 -0.111972354 0.037901204 0.05987226 -0.20887595 -0.21959841 -0.33309895 -0.29906595 0.07375477 -0.14820242 -0.06326661 -0.029206844 0.08163195 -0.071679585 0.04216737 -0.027007809 0.09598828 0.0052405996 -0.09271674 0.016918832 0.090620324 -0.198552 -0.09658928 0.17984222 -0.29413837 0.088022895 0.05716554 0.24754822 -0.12876318 -0.0674381 -0.18800466 0.022250345 0.20188211 0.104919665 -0.088911444 0.013119533 0.050839182 -0.1358496 0.012754224 0.3068331 -0.025562555 -0.009622625 -0.1137103 -0.04905352 0.06037823 -0.13828626 -0.0026548107 -0.0809066 0.19377269 -0.036768705 -0.015416192 -0.07900989 0.08193392 0.02573809 0.009494189 0.06922898 0.18493406 0.11317937 0.04031743 -0.14879969 0.096428305 0.2562695 -0.048496537 -0.054362204 -0.13033007 -0.019507153 0.069159724 0.06844291 -0.051387835 -0.07577204 -0.09972948 0.13895036 -0.042747624 0.21045728 0.07694173 -0.14199346 0.23133765 -0.1534048 0.21438484 0.14218517 0.10759444 0.23740116 -0.05522069 -0.095942505 -0.036825076 -0.036442433 0.13674772 0.0010583187 0.0224454 0.030915469 0.050395474 -0.051086314 0.12928058 -0.0054510217 -0.02974115 -0.066860504 -0.09755594 0.21237049 -0.25774312 0.2752397 -0.16695066 0.11269026 -0.15713425 -0.08046661 0.03096428 -0.030532505 -0.16051427 -0.029541114 0.091022104 -0.015380286 -0.021383943 0.0350803 -0.2527243 -0.048515305 0.16727805 -0.11464517 -0.09091138 -0.08732552 0.12016288 0.015153752 0.1135171 -0.11904407 -0.112912804 -0.032425553 0.03627933 -0.050775643 -0.025541957 -0.13970944 -0.27147433 0.2144596 0.1286454 0.041990437
333 -0.119381964 -0.11708281 0.020592852 0.33097762 -0.07808001 0.029970566 -0.051633958 -0.030335179 0.054397214 -0.024721552 0.2658616 -0.21246587 0.22981332 0.31764716 0.11449296 0.10308432 0.008363165 -0.27309158 -0.067299634 -0.15994208 -0.032761004 -0.13237144 0.06272474 0.1507973 0.11008545 0.064079575 -0.13247623 0.27048513 0.014547027 0.102632515 -0.2551694 0.016076507 0.07414754 -0.08421005 0.095639765 0.07651435 -0.08844017 -0.03553638 -0.18895465 -0.042873714 -0.09580086 -0.15714145 -0.16984582 0.242687 -0.12072459 -0.11661664 0.046176992 -0.09492669 0.15315758 -0.33215353 0.09038539 -0.2517598 -0.12528174 -0.061595175 0.13475856 -0.08855571 -0.103290096 0.19524728 -0.28744492 0.1746315 -0.21290164 -0.106842205 0.2096235 -0.009971682 0.1005372 0.21903133 0.17070097 -0.13243204 0.2386594 0.0020180892 -0.07541873 -0.17035732 0.17766368 -0.027007738 -0.11009681 -0.20056099 0.049637787 0.20477891 0.0063250703 -0.19251731 -0.14776297 0.13048701 -0.02247863 -0.012620888 -0.079238616 -0.030948542 -0.06174646 0.21456803 -0.14147133 0.0636515 0.036521874 0.055412 0.05487731 0.073453926 -0.119036034 0.173045 0.14046754 0.2901076 0.2563765 0.18296194 0.16999355 -0.44808665 0.07519987 0.14193594 0.12859839 0.04275968 -0.007910397 -0.16221948 0.05390977 0.15522344 -0.06005597 -0.09306298 -0.10014917 0.11994024 -0.157819 -0.14468402 -0.17543966 -0.052913684 -0.035706174 -0.14337377 0.01638511 0.1992866 -0.14513665 -0.008589568 0.06546825 0.08042825 -0.08093294 -0.035415854 -0.1377518 0.09187014 -0.13063596 0.08486189 0.007915966 0.12278527 -0.044864334 -0.014899212 0.020444266 -0.045558076 -0.16006623 -0.0050093504 -0.0148495855 0.23063518 -0.0036996356 0.21054505 0.23163718 -0.08324373 -0.031215407 -0.072545886 0.09789551 -0.13909464 0.021838132 0.1778204 0.027862871 -0.14523084 0.18767436 0.16010045 0.07779439 0.3952557 -0.14091325 -0.033645947 -0.0042947135 -0.121141374 0.014353167 0.14235559 0.030051997 -0.07218543 0.052180182 0.045745704 -0.22804818 0.07276081 0.06346155 0.14148663 0.10466672 -0.031218214 -0.08465308 0.10119629 0.12871467 -0.048900664 0.33660117 0.07237217 0.26748767 0.058384635 0.1942141 -0.0858415 -0.11713368 0.22517987 0.09341887 -0.07410988 0.08984534 0.23021369 -0.10669464 -0.06316821 -0.015511586 -0.101705045 -0.038085975 0.122267984 -0.13525091 0.24114059 -0.22646469 -0.14046007 0.1714819 -0.10471651 0.19114721 -0.032074805 -0.04736014 0.13454917 0.18945955 -0.0672996 0.10029482 -0.03747331 0.0689825 0.16479258 0.028088948 0.024362762 -0.013679279 -0.07696193 0.052667618 0.13401134 0.092602625 0.26188532 0.05275082 -0.11678498 0.26451334 -0.12509704 0.017360505 -0.18866633 -0.2423766 0.015334207 -0.07820304 -0.0014960208 -0.18898258 0.11123863 -0.07041079 -0.066182934 -0.14267361 0.06514169 0.018087173 0.13831353 0.08988497 -0.25847274 -0.021310179 0.0403446 0.0754154 0.11168683 -0.030203165 0.24182057 0.28028172 -0.10794911 0.295768 0.07954467 -0.08377017 0.092285186 -0.14564933 0.11559229 0.02979226 -0.051120162
377 0.1871094 0.18262577 -0.14309129 0.08677968 0.022604128 0.021419168 0.23386474 0.059402697 -0.10725134 -0.09127748 0.12914887 -0.14265431 0.29267326 -0.11348038 0.059839398 0.12852189 0.028178863 -0.2822615 0.07735294 0.044968966 0.1882388 -0.05269571 -0.013362396 -0.0504014 -0.38366938 -0.10812444 -0.19994497 0.15606481 0.2088488 0.07516493 -0.034883272 0.045492683 0.15918778 -0.17518467 0.07975942 0.10115961 -0.1515287 -0.046463814 0.10274892 -0.0908096 -0.22606365 -0.14817092 -0.11571273 -0.025148675 0.12306152 -0.046846032 -0.07493044 -0.1592427 -0.015205326 -0.19336428 -0.20772997 0.029679613 -0.06338934 -0.10144387 -0.08755606 -0.14456281 0.34221122 -0.31452584 -0.15815736 -0.23241071 0.011590989 -0.103767596 0.03489599 -0.015288976 0.14737181 -0.13771622 0.11731542 -0.013180998 -0.035154272 0.20634077 -0.06277395 0.07212406 -0.22729613 0.036519155 0.35320953 0.03732762 0.2929595 -0.08358453 -0.12132391 0.053637203 -0.33357722 0.01034594 0.05698588 0.05096471 0.18444748 0.09136698 -0.15628386 -0.0384127 0.09991532 0.115960896 -0.27463207 -0.004357672 -0.12796803 -0.39354002 -0.17951287 0.129087 -0.08337294 0.04317252 0.053618953 0.038965523 -0.1861488 -0.29576114 0.04761735 -0.4303836 -0.041781273 -0.055802017 -0.20954005 0.0076991045 -0.022539446 -0.16612342 -0.08114432 0.18583879 -0.018828094 -0.10155365 -0.15103084 -0.027322661 0.0010471494 0.2022232 -0.27640045 0.099311866 -0.048216227 0.04712482 -0.14942275 -0.15127198 0.20674378 0.39676404 0.11772254 0.11023031 0.050291657 0.17538081 -0.17036961 -0.16656056 0.12141717 -0.2207291 -0.0098211765 0.26183918 -0.09300831 -0.015357487 0.014099827 0.1496708 -0.05658682 -0.34862325 -0.16063923 -0.21963924 0.09737801 -0.08647457 0.0010137922 0.15681738 -0.14751843 -0.26822224 -0.21487688 -0.15001433 -0.21229869 -0.28364035 -0.0547692 -0.037402105 0.13283688 0.029616393 -0.120689645 -0.09021411 -0.015158611 -0.092656754 0.17830761 0.25205025 -0.012886948 -0.20682561 0.0024525863 0.037418988 0.026997883 -0.05817391 0.01781886 0.2361271 -0.025026502 0.10976001 0.08521884 0.10918733 -0.10036503 0.08052458 0.07380496 0.27225006 0.04720584 0.12826973 0.08561214 -0.12632899 0.018820263 0.1318139 0.020713352 0.11719637 -0.21340004 0.0001501042 -0.3096087 -0.05379557 0.101007 0.0019559448 -0.12376477 -0.03864745 -0.13481495 0.11538195 -0.07501762 0.10875188 0.12446881 -0.0058404366 -0.024237849 0.07834176 -0.20334764 0.2909032 -0.08805692 -0.10934805 -0.02423155 0.0859394 0.015173559 0.08874279 0.071235955 0.24522504 -0.15090786 -0.030445775 -0.052305087 0.09702229 0.26203325 -0.09091144 0.09844938 -0.057445634 0.066255406 0.20851196 -0.21400937 0.033455778 0.03051948 -0.2549958 0.17780282 -0.21541598 -0.031823814 0.087047845 0.16859947 -0.01266302 0.049246162 0.091884114 0.056578897 0.19632892 0.05155421 -0.018548042 -0.059946194 -0.06039678 0.092870034 0.00075856387 0.16018625 -0.28603947 0.24506427 0.15609768 -0.12445786 0.18907264 -0.20551093 0.07475602 -0.12207216 -0.10913906 -0.15528595 0.0461048
