1005 128
160 -0.021945424 0.17346387 -0.11066935 0.1791399 0.13875528 0.25151363 -0.02879118 0.0076532005 0.075034976 0.17526422 0.18938656 -0.0025032726 0.07696465 0.04489633 0.009980711 0.19986288 -0.16483065 0.16343845 -0.23890816 -0.050571248 0.06488768 0.031550694 0.13078234 -0.4119736 -0.1370115 0.22209783 -0.116749935 0.15461351 -0.08412102 -0.08077565 -0.039500706 0.20554112 0.08884629 -0.08336807 0.30105078 0.14456378 0.18152006 0.074571855 -0.001976526 0.25953725 -0.26150122 0.37601572 -0.31476533 -0.1395041 0.08708458 0.00586603 -0.3738239 0.089611575 0.10050864 0.15675817 0.1116525 0.26067683 0.049649287 0.068782814 0.01002745 -0.06187342 0.12882765 0.33382085 0.0154367965 0.22927819 -0.07751052 0.17882146 -0.065027006 0.061417602 0.13217407 0.08741131 -0.011918949 0.043468148 0.007394679 0.031112464 -0.12962237 -0.22127843 -0.0053055924 -0.21641168 0.2697317 -0.10182813 0.08878143 0.085448086 0.017259644 0.056191374 0.040159605 -0.17531648 0.0701203 0.41749004 0.09332877 0.06026429 0.0061322665 -0.35297704 0.1286095 -0.1023664 -0.09823418 -0.07609441 0.20284368 0.027707964 0.028286537 0.049213324 -0.14348485 -0.25873268 0.024391495 -0.017883314 -0.1606037 -0.12249902 0.32494417 0.2376043 0.14543466 -0.22788471 -0.09689362 0.1826584 -0.008279955 0.012192461 0.11034473 -0.27501237 -0.13290471 0.025503855 -0.004678522 0.12664011 0.06766479 0.05035021 -0.023193419 0.13753714 -0.03566691 -0.052956756 0.051056985 -0.090852745 -0.23540519 0.26626256 0.016784357 0.06059706
86 -0.039662477 -0.3716078 0.3385811 0.24599223 0.19682913 -0.028625743 -0.2521798 -0.06985006 0.11278011 0.22506148 -0.11426712 0.32845014 -0.10151086 -0.47429824 -0.020368358 -0.053801853 -0.121004775 0.3104523 -0.19613193 0.15413325 0.00038240373 0.11207333 0.017905464 -0.46521515 -0.30388337 0.16069713 -0.1136509 0.37309211 0.015363255 -0.0013743038 -0.0060903956 -0.24989091 0.059004597 0.32606477 -0.08970942 0.038618542 0.10635166 -0.22079213 0.1359827 0.1969047 -0.07120482 0.12597175 -0.22007117 -0.2544488 0.36091834 -0.21809053 -0.24698347 0.027048407 -0.2901359 0.00058760843 -0.0114669 -0.23955515 0.094533406 -0.036844086 -0.28856638 -0.045269214 0.23813625 -0.12927179 0.24467611 0.18619351 -0.07102032 0.019389914 0.1509547 0.32364744 0.055584908 -0.06813884 -0.033043765 0.09677559 0.078338124 -0.11983733 -0.17780437 0.08069288 -0.057801675 -0.20272924 0.069858335 -0.13549307 0.0058914437 0.33986107 -0.11744603 -0.16702037 -0.1672677 -0.0059263473 0.2554023 0.17321438 0.20683895 0.42622426 0.25680766 -0.23190908 -0.08688204 0.15441324 -0.04457137 -0.025805768 0.03146136 -0.0056819273 -0.14667119 0.012475251 -0.15569471 -0.44329083 0.2065053 0.22462526 -0.19334218 -0.07476563 -0.055607017 -0.08817545 -0.24535258 0.24509381 -0.029851688 0.091668814 0.21833059 -0.052616842 0.19957145 -0.12264289 0.22216092 -0.025315363 -0.38506624 -0.090151586 0.004311248 -0.011683601 0.18443991 0.01451581 -0.09890393 -0.045757655 0.21740428 0.18190432 -0.268631 -0.16969702 -0.2756649 -0.085519835
62 0.16379432 -0.20852797 -0.14634717 0.2661259 0.10279751 0.14362675 -0.01495946 -0.085550174 0.048842557 0.1962766 0.06237429 0.06194801 -0.13374314 -0.20601355 0.1411297 0.17543675 -0.073981576 -0.101362094 -0.11341924 0.3549211 -0.10021817 0.12819749 -0.041226175 -0.27078587 -0.18018053 -0.08595469 -0.27015862 -0.025274074 0.02221184 -0.1047028 -0.048252195 0.11773034 -0.049562555 0.049129453 0.2440714 0.4227855 0.14528108 0.11067763 0.06352951 0.18707165 -0.018474638 0.24789046 -0.20514025 0.00060814584 0.25923246 -0.13487788 0.05455666 0.08567178 -0.1942976 -0.037120957 0.29871896 0.37850916 0.0766348 -0.057750538 0.17092499 0.00034772904 0.112239085 -0.08926343 0.14778934 0.09830579 -0.10653292 -0.08970381 0.18274441 0.3232797 0.11123213 0.24196236 0.281288 0.09330772 -0.19343844 -0.1426416 -0.22261819 -0.12143488 -0.22198218 -0.15685219 0.079797484 -0.1021415 -0.039191432 0.09086846 0.068835914 0.14434086 0.013638192 -0.28411272 0.09606179 0.25357863 0.08921435 0.25099155 0.10125649 -0.11980684 0.4671122 0.11708743 -0.0054857167 -0.21121635 0.29075757 -0.11713841 0.016791303 0.03068297 -0.1925929 -0.30602622 -0.18894756 0.017664684 -0.17572993 0.085195296 0.18035503 0.0653685 0.100287735 0.027321655 0.082279064 0.15493558 0.03581967 0.12974669 -0.06371612 -0.05965131 0.10654529 0.017155282 -0.24970482 0.20793349 -0.0980429 0.038115643 0.1748203 -0.021646624 -0.20964782 -0.043693174 -0.08842148 0.08238068 -0.13270542 0.08587974 -0.072057724 0.043001052
129 -0.13798888 -0.100300275 0.12519643 0.22718404 0.1553361 0.05457665 -0.25063735 0.038990248 -0.020899335 -0.002186022 0.36089063 -0.28203538 -0.01365431 -0.38853917 0.09798498 0.20365417 0.09020643 -0.0470983 -0.038107913 0.34639645 -0.04673273 0.4682855 0.12574713 -0.28673363 -0.30683765 0.12579279 -0.19595264 0.116379134 -0.077104524 0.23831317 0.027193908 -0.18027699 -0.26455706 -0.09370184 0.22346163 0.1752281 0.23596874 -0.00203628 0.016924556 0.054113686 0.12124082 0.20774499 -0.0029921653 0.120412014 0.29800764 0.31638122 0.025264367 -0.10350423 0.17474008 0.007902294 0.37273592 0.2682282 0.07411255 0.12799615 -0.08165645 0.046187233 0.2782066 0.28867283 -0.09774724 0.099965215 -0.09240439 -0.11092696 0.3887965 -0.10578459 0.41523486 -0.11858133 0.25018755 -0.0067644008 0.19356269 -0.028019423 -0.10204054 -0.37146094 -0.61420923 -0.30807912 0.012036437 -0.1042894 -0.14673549 0.19664606 -0.2806094 0.39126024 -0.05943235 -0.35237336 -0.030166993 0.48229283 0.51792204 0.3447852 0.08116656 -0.044649515 -0.014650523 0.1190551 0.01616854 -0.23902763 0.16349515 0.1414165 0.04399178 -0.17295957 -0.33518958 -0.40013888 -0.37118736 0.009296835 -0.2624706 -0.022915015 -0.002485617 0.13096792 0.13142242 -0.17069064 0.21133131 -0.3076648 -0.025908433 0.013695227 0.3411856 -0.18347612 0.51743686 -0.17695452 -0.4073258 0.056643374 -0.15839027 -0.024948759 0.09317374 0.110359095 -0.24408859 0.18198544 0.28300244 0.01978208 -0.33073425 -0.17083345 -0.2698741 0.111514315
5 0.27817068 -0.3478265 0.1451243 0.06891748 -0.053862255 0.1288563 -0.1324413 -0.4094931 -0.03222221 0.03331422 0.2068068 0.40728584 0.03628939 -0.1662098 0.11678295 -0.07143333 -0.084133334 0.13381626 0.0044233045 -0.11641247 -0.02971766 0.046371806 -0.10830906 -0.30545264 -0.051408157 0.3748781 0.066786066 0.15693758 0.21767268 -0.32775673 0.23444699 0.10597391 -0.008936043 -0.03328528 0.26289088 0.15814592 0.39530006 0.040752783 -0.13861041 -0.038294632 -0.18416384 0.033528004 -0.32528478 0.013334343 0.6508688 -0.2588701 -0.16163033 -0.06849887 0.047863893 0.20087123 0.33044514 0.13579223 0.122211024 -0.028520422 -0.31377447 0.29226556 -0.124527834 -0.14511205 -0.21197124 0.21285795 -0.114597976 0.0971073 -0.19228081 0.29497677 0.23316619 -0.03826605 -0.074678175 -0.2079478 0.22952363 -0.24503905 -0.064851716 -0.24502692 -0.15112804 -0.12797055 0.27821735 -0.013307306 0.042847376 0.21873584 0.2845633 0.2791617 -0.2994567 -0.23922837 0.51713717 0.21409251 0.016590739 0.34212616 0.2801144 -0.3301121 0.24964003 -0.07640684 -0.37458223 0.34996164 -0.09238667 -0.014470665 0.18247469 0.28263363 -0.029044038 -0.1790084 -0.16290072 0.11631699 -0.3103161 -0.069055565 -0.068910345 0.13267346 0.26962283 -0.042912826 0.10030871 -0.08262694 0.23241073 0.25962114 0.12600422 -0.07560788 -0.1443432 0.10544869 -0.43049437 -0.22083247 0.11184113 -0.29281121 -0.03833101 0.21225332 -0.055340175 -0.0846536 0.055843856 0.040451866 -0.5337862 0.05449561 -0.441357 -0.0063930363
121 -0.026769252 -0.03569696 0.32292578 0.14699236 0.09738096 0.34368637 -0.10700465 -0.07257758 0.003664134 0.29770803 0.07458394 -0.14486663 0.03362217 -0.37807772 -0.018522343 0.31817082 0.03355585 -0.17429762 -0.32116404 0.20238304 -0.06828344 0.1922549 0.36222497 -0.22807375 -0.27116874 0.24254316 -0.3314944 -0.10713695 -0.008436325 -0.01924493 -0.13817261 0.12126055 -0.093302935 0.029124042 0.17680943 0.35543352 0.105353765 0.1775992 -0.16457999 0.26124176 -0.04706024 0.31020334 -0.2831566 -0.16101839 0.22232093 -0.051796976 0.037691172 -0.08518694 -0.075850934 0.09811514 0.21926133 0.22530913 -0.038581137 -0.13879468 0.07376052 -0.103290245 0.16482961 0.10852649 -0.039731894 0.15115938 -0.1432054 -0.06527312 0.4098322 0.17603698 0.091355786 0.11174848 0.047118295 -0.037359953 -0.118202336 -0.09038312 -0.2054443 -0.19909589 -0.35790652 -0.052491773 0.10430613 -0.06496842 -0.08227313 0.045802634 -0.057492338 0.14180343 -0.08336501 -0.36098108 0.2394404 0.30872497 0.17175198 0.20118827 -0.060710583 -0.034087967 0.13815378 0.20866147 -0.1382746 -0.24730884 0.37157324 -0.0064771483 0.049493596 0.115988515 -0.2400077 -0.2979585 -0.27259257 0.09970938 -0.1434108 -0.09441748 0.11322039 -0.040681526 0.110899955 -0.1842261 0.03869526 -0.07083423 -0.054897238 -0.014173329 0.17568706 -0.19776033 0.31605822 -0.16049968 -0.29822594 -0.0049120556 -0.09305981 0.035948034 0.014730104 0.11830765 0.18800943 -0.053176295 0.014662233 0.19440833 -0.3173752 0.35608292 -0.22529508 0.113746956
183 -0.1079892 -0.30100217 0.16052392 0.36514494 -0.08626068 0.30396208 -0.2214071 0.0862486 0.0557728 -0.0659404 0.032389726 -0.032952625 -0.037481274 -0.28842887 -0.03345664 0.2726571 0.06872228 -0.011870788 -0.113210715 0.11292536 0.17621504 0.31851512 0.12806025 -0.3981705 -0.42029417 0.2016045 -0.04368643 -0.07340665 -0.11414986 0.119711295 0.16178614 -0.11117988 0.04260388 0.044787414 0.27546892 0.44121656 0.24431925 0.08856057 0.152621 0.2128904 -0.19438696 0.17973092 -0.06870215 -0.0665338 0.24497251 0.14954354 -0.3322452 -0.2119873 -0.0408855 -0.011796339 -0.0012063953 0.09754148 0.1443164 0.14020108 -0.1742195 -0.056119706 0.09894796 0.26737162 0.054908626 0.07058304 -0.16845651 -0.06399674 0.36686417 0.002202693 0.30378154 0.12215547 0.09435118 0.058928836 0.2209387 -0.040294457 0.0020992332 -0.094045125 -0.32637712 -0.2072483 0.12588224 -0.25269887 -0.26965123 0.13839936 0.100791864 0.22254643 -0.10066575 -0.39847416 0.13684043 0.44197586 0.48566616 0.14919916 0.18398711 -0.05404537 0.098109595 -0.060422715 0.041605398 -0.07294674 0.24896562 0.07480752 0.4300025 -0.007997493 -0.37271547 -0.2116167 -0.2567695 -0.032512516 -0.099645 -0.18298644 0.012140491 0.21863449 0.10680191 0.05236558 -0.017855568 0.12727308 -0.17277749 -0.045222353 0.15459402 -0.12944867 0.5139015 -0.11133921 -0.2782492 0.051451545 0.09111608 -0.01812785 0.061128315 -0.0012904817 -0.09554317 0.1759136 0.12252336 0.020260401 -0.21478292 0.011644505 -0.044411276 0.18507749
107 0.23046556 -0.22230989 0.11215911 0.17539112 0.17575805 0.15871039 -0.28205508 0.12484459 0.016092082 0.04949639 -0.107883655 0.15764028 -0.16994202 -0.26878586 0.081227705 0.05463792 -0.306735 -0.008238588 -0.09562953 0.16620055 0.06187938 -0.02132232 -0.03768945 -0.30627367 -0.25751457 0.12570448 -0.065885276 0.17924158 0.029225847 -0.096849136 -0.029474715 0.23338118 -0.02124452 0.06778235 0.31484795 0.18653674 0.18371643 -0.08049234 0.18558374 0.30137736 -0.27989766 0.17406684 -0.06021386 0.021198526 0.3124508 -0.03786599 -0.172556 -0.15827692 -0.013043342 -0.05155933 0.06446298 0.100714855 -0.3407951 0.1418147 0.016934391 -0.06270297 0.06987877 0.051784106 0.051466975 0.16751273 -0.17454185 0.008918088 0.1427323 0.33328873 0.118149295 0.20915945 0.19394077 0.07780985 -0.12930399 -0.31199768 -0.29292655 -0.09576806 -0.25588506 -0.13235092 0.15845048 -0.3203177 -0.051975064 -0.082247265 -0.029230196 -0.0058361483 -0.092476465 -0.29321572 0.38830483 0.28523776 0.0719317 0.4796101 0.28096774 -0.115743324 0.16688716 -0.15907137 -0.15985812 -0.11832036 0.22826907 -0.12270486 0.12194849 0.09518501 -0.078692146 -0.5305734 -0.23724483 0.21444783 -0.039037466 -0.04009045 0.0659194 0.10765224 0.23470081 -0.102835774 0.008458183 0.21484849 -0.00559286 -0.09322878 0.026276654 -0.07937702 0.13480783 0.10179885 -0.13044025 -0.023461558 0.15134893 -0.030787213 0.08376327 0.008586873 -0.09848486 -0.045263126 -0.2310375 0.059156567 -0.28889847 0.3122736 0.09129825 -0.06837784
1 -0.16447392 0.04405643 -0.1615845 0.008511302 0.47464094 0.64096314 -0.2821019 -0.15750118 0.65304905 0.5763107 0.49897185 0.25084946 0.090567715 -0.37781158 -0.2352819 0.18661033 -0.11677457 0.024188431 -0.29260626 0.47765276 -0.5955494 -0.11551635 -0.12622939 -0.46621367 -0.71529543 0.05542282 -0.3905773 -0.13018698 -0.63921607 0.13129297 0.21295455 -0.0015929518 -0.2736996 -0.22236118 0.5904582 0.4219769 -0.14404541 -0.04391393 0.05810685 0.13225718 -0.5297825 0.373559 -0.5378831 -0.30220798 0.6156904 -0.122987 0.02943097 0.4995526 -0.13574 0.5756027 0.2540966 0.8768551 0.35376132 -0.37611246 -0.27826923 0.42597592 0.49402785 0.7272578 0.47407785 0.40808597 -0.7546349 0.37358275 -0.09095012 0.40124568 0.5475911 0.23539317 0.6678819 -0.101634786 -0.08402289 0.375619 -0.2797261 -0.0848835 0.4446451 -0.6253347 0.37623623 -0.45149544 0.16278432 0.6540048 0.24994329 0.4034015 0.14589068 -0.6712001 -0.21282423 0.7155681 0.038892202 -0.0629814 0.53130245 0.06749655 0.22538951 0.11707507 0.06996801 -0.4913527 0.07356745 -0.3253038 0.017389897 -0.52096295 -0.3675046 -0.5827867 0.041753836 -0.6979171 -0.5923908 -0.4914943 -0.39295888 0.4362024 0.38135147 0.04832586 0.0030134355 -0.27000496 0.037163813 0.37689942 -0.13133414 -0.08608938 -0.004719023 0.020974722 -0.6635394 -0.35223928 -0.6080525 -0.13313188 0.07720547 0.502689 -0.3439939 -0.10499609 0.5433717 -0.079314515 -0.20215748 0.5196673 -0.045617446 -0.25270048
106 0.055859104 -0.011566443 0.04204623 0.17700727 0.22091511 0.3412313 -0.39044565 -0.10772421 0.10742619 0.045604404 0.03772214 0.05346254 -0.09986891 -0.19729367 0.037254374 0.2728831 -0.22000584 -0.011598831 -0.20088476 0.43233255 -0.17401573 -0.10622235 -0.07763954 -0.5736417 -0.38415977 0.12345711 0.0020705364 -0.06631443 0.06236647 0.19035831 0.25152826 0.18710236 -0.20891063 -0.0110276295 0.21433689 0.40670514 -0.114323415 -0.07998783 0.0254073 0.26250103 -0.25696954 0.27324167 -0.20794952 -0.28145465 0.3384807 -0.08138285 -0.10824467 -0.057512186 -0.20265529 0.16325729 0.34816208 0.27577382 0.12472597 -0.038819082 -0.017997991 0.07274638 0.2903992 0.26916587 -0.024628002 0.38448644 -0.32866433 -0.073831975 0.14271972 0.19642358 0.22356346 0.31358153 0.5061804 -0.014822961 -0.18860127 -0.10801884 -0.0037531347 -0.055813566 -0.04993609 0.09016366 0.1204506 -0.3975651 0.016080847 0.16989696 0.045789845 0.23340833 -0.18265589 -0.6412385 0.08266497 0.2634894 0.087097056 -0.05451376 0.518279 0.13085966 0.1843348 -0.08572423 0.15510175 -0.16080993 0.20271388 -0.11077195 0.10200455 -0.16179045 -0.3207572 -0.5343852 -0.43632376 0.0010512654 -0.27233118 -0.31415665 -0.13209307 -0.011289021 0.108353384 -0.01506979 0.1758246 -0.08933184 0.00602903 -0.06862662 0.13739303 0.08712413 0.42475274 0.06736583 -0.31541508 -0.028246561 -0.13735132 0.17102799 0.30713293 0.3120852 0.13661115 -0.15455306 0.21269663 0.21900773 -0.17365807 0.29591808 0.004005867 0.16548675
434 0.02714527 0.0142202545 -0.07363187 0.34291542 0.11982737 0.21132503 0.0038569344 -0.20640315 0.10066411 0.1365869 0.037312243 -0.08672315 -0.082829505 -0.3399739 0.01815033 0.3008509 -0.17844634 -0.20859952 -0.07191054 0.24619336 -0.06564712 0.017331922 -0.04765458 -0.59021664 -0.31482577 -0.11685731 -0.21517338 0.10751138 -0.05746173 0.006650177 0.052088547 0.0402284 -0.20783627 0.07307431 0.16953014 0.31152692 0.019160401 -0.012027048 0.016395096 0.20137626 -0.077358626 0.15556507 -0.24847844 0.014166923 0.27964678 0.027519075 -0.059511915 -0.14287978 -0.09792378 0.10581255 0.31468356 0.32327598 0.10484152 -0.043445602 0.05042491 0.030213866 0.13108002 0.088278286 -0.0149334185 0.085740015 -0.1980722 -0.12239419 0.23470362 0.17157914 0.10460661 0.1689718 0.44413644 -0.0064896694 -0.0370141 -0.11603158 -0.046215627 -0.08863675 -0.3504775 -0.06787583 0.1103541 -0.18914622 0.029197522 0.017689442 -0.0069869636 0.37776333 0.047059342 -0.37431917 0.14120318 0.27028185 0.18707658 0.09078535 0.19954593 0.0005120907 0.2240999 -0.026778609 0.037265204 -0.0769951 0.0953269 -0.16953109 0.11198309 0.13677065 -0.20602864 -0.21577643 -0.34292552 0.06299194 -0.1617331 -0.053157087 0.031419463 0.1022483 -0.14153624 0.05425628 0.13473837 0.09575413 -0.05178864 0.16000836 0.22587788 -0.028449114 0.29883516 0.13294119 -0.34306732 0.12621929 -0.008521893 0.05406541 0.12240598 0.04460598 -0.08138823 -0.028238267 0.043151967 0.1003292 -0.013944242 -0.067624785 -0.0037304508 0.10476635
64 0.19552961 -0.1792036 -0.13596538 0.09859987 0.24780378 0.04195021 0.08172129 -0.1303424 -0.0009963575 0.16822088 0.12886159 -0.033747926 -0.030744249 -0.24157704 0.11194127 0.21938719 -0.28172612 0.19335839 -0.08624178 0.26701987 0.25406596 0.014007974 -0.22593862 -0.40609482 -0.21050888 0.042598974 -0.19792601 -0.071302816 0.19485012 -0.32023653 0.028835543 0.07184632 0.017751163 0.24423443 0.24853073 0.23558663 0.14107804 -0.075248756 0.10791559 0.11538146 -0.29455274 0.13775028 -0.095559776 -0.038712315 0.23015952 -0.13250695 -0.18284708 -0.14393137 -0.12629405 0.057772413 0.15833728 0.31054026 0.07747915 -0.040155426 -0.3425428 -0.0049793674 0.23005837 -0.016378406 0.005667218 -0.17807198 -0.1560739 -0.027101422 -0.11483171 -0.055860985 0.2530706 0.072842844 0.3630687 -0.27631888 0.3361782 -0.3095681 -0.2233019 0.08998737 -0.34277937 -0.2059252 0.05815855 -0.19209938 0.15685657 -0.031423528 0.09862559 0.062122002 -0.11894593 -0.30384853 0.18066409 0.35793248 0.103337 0.36719304 0.14218554 -0.34916422 0.08389537 0.02254389 -0.116390675 0.042843934 -0.047139827 -0.07230855 0.3136182 -0.007918961 0.0662818 -0.29272956 0.061888464 0.13951334 0.0023835092 -0.15739343 0.075656265 0.19611184 0.22026467 0.13341346 -0.2516092 0.1638857 0.10317002 0.041246213 0.12099596 -0.20270513 -0.1427278 0.11766516 -0.034556944 0.014367648 0.12054257 -0.23704688 -0.095703006 0.08242733 -0.21761416 -0.4330641 -0.0830576 0.028843347 -0.5159163 0.049688715 -0.20678923 -0.13215336
21 0.1832271 0.11846669 0.064029604 0.14366108 0.3451022 0.130943 -0.54491603 -0.1448857 0.106742024 0.09272024 -0.21742661 0.12762132 -0.08426436 -0.41073576 -0.06676467 0.04846032 -0.13415268 0.17723374 -0.06291878 0.2770831 -0.2673398 -0.044977736 -0.013841564 -0.49635112 -0.20892306 -0.015669744 -0.2909438 -0.19321568 0.030391155 -0.10451124 0.20142828 0.23874053 -0.08944039 0.0077381157 -0.020693474 0.21131496 0.24838547 0.022741877 0.12228651 0.42523545 -0.22920887 0.14171681 -0.36606848 -0.2967179 0.29510543 -0.07386555 -0.06881548 -0.1901846 -0.0019738437 0.36736327 0.49565545 0.18015128 -0.0039253854 0.13617995 -0.04339866 -0.026662303 0.33043793 0.2309339 -0.034512058 0.37724218 -0.29814598 0.39477012 0.05153733 0.12740958 0.2651231 -0.0076376195 0.40501216 0.013734378 -0.042452894 -0.058008086 0.02526629 0.037030138 -0.077111 -0.023976298 0.021190122 -0.3018729 -0.23029348 0.28648177 -0.15951069 0.30320138 -0.04805056 -0.44651705 0.12022075 0.17660296 0.15991193 0.12604323 0.10020241 -0.061737597 0.34776816 0.35300964 0.034531638 -0.082246974 0.26733595 0.0019917886 0.23166043 -0.15991724 -0.4083832 -0.3380786 -0.12797813 0.034234278 -0.005218924 -0.102389365 -0.38805208 0.09532432 0.27438006 -0.17089295 0.04235604 -0.13996696 -0.009419322 0.044088878 -0.11081436 0.050389253 0.29837003 -0.02111629 -0.31095895 0.07030179 0.04466431 0.19822775 0.19836837 0.41391152 -0.10484776 -0.32919198 0.094410375 0.19721669 -0.25710377 0.34532017 -0.11297299 0.18454552
365 -0.36133918 -0.07322333 -0.5150069 0.66581184 0.21623981 0.37326717 0.21616314 -0.1380258 0.47602755 0.14366387 0.37975717 -0.3283956 0.37982348 -0.31060585 0.10400715 0.056660663 -0.076979466 -0.34967077 -0.36649343 -0.20184074 -0.1982018 0.110957496 0.08186584 -0.5800169 -0.5177325 -0.21674752 -0.13460226 0.085488796 0.15741684 0.104922675 0.13657814 0.49594647 -0.29033136 -0.084101364 0.37824997 0.6914118 0.43520766 0.17484237 0.32526174 -0.2055324 -0.14639015 0.3217064 -0.11600267 0.11461987 0.16856714 -0.3447258 -0.01858998 -0.05160574 0.5982129 0.14341451 0.34442163 0.10662367 0.32810694 0.20623662 0.021538906 -0.3263262 0.37039852 -0.21536827 -0.19669396 -0.02616397 0.051485788 -0.07612678 -0.010895981 -0.050370898 0.17091613 0.110732116 0.34677425 0.18496902 -0.24512155 -0.060755987 -0.21320657 -0.089151636 -0.33331046 -0.11461648 0.4429834 -0.19052427 0.38790512 -0.13458851 0.12018157 0.43108243 0.03332023 -0.5617465 -0.114699885 0.2886268 0.37414524 0.318324 0.43052125 -0.13720916 0.6350004 -0.12653708 0.4737455 -0.23570944 0.46841276 -0.19539689 -0.050197296 0.06551348 -0.31621212 -0.8267977 -0.46973822 0.086489975 -0.24209581 -0.17166236 0.08762849 0.07958237 0.066056125 -0.31582925 0.11634037 -0.0069166822 0.04341885 0.4529633 0.4257538 0.05734151 0.3478044 0.08634577 -0.45890152 0.596496 -0.40432382 0.26499182 0.17999388 -0.056237683 -0.12226435 0.36848724 0.34542823 0.09462713 -0.15409061 -0.1242508 -0.0046285936 0.26339942
377 -0.03559483 0.044400066 -0.09465253 0.03853399 0.5315951 0.10507008 -0.058536954 -0.26439005 0.5415791 0.2799845 0.37463155 -0.14784634 0.12851216 -0.28949305 0.05870971 0.4078721 -0.22016169 -0.16142958 -0.2860004 0.46433726 0.060358208 -0.0007769204 0.05640615 -0.16819464 -0.5276925 0.25590402 -0.23646176 0.21994634 -0.09805342 -0.16288722 -0.19488247 -0.25692472 0.05229394 -0.16006199 0.12553214 0.07849346 -0.21252489 -0.16737588 0.016312972 0.06037638 -0.3258279 0.17364727 -0.28910565 -0.17549565 0.45072114 -0.025951965 0.07277206 0.17491958 -0.23405847 0.23600453 0.04659479 0.5652568 0.32928237 -0.13419022 -0.32902697 0.24343458 0.38409904 0.22040834 0.013611141 0.05770637 -0.38652948 0.21025883 -0.08182709 0.24612843 0.2799299 0.12176752 0.55833215 -0.13280252 0.099005274 0.22111559 -0.19472069 -0.17254758 0.056886252 -0.16809191 0.2251521 -0.13162743 0.17498086 0.5691843 0.034923036 0.21986069 -0.11955402 -0.27224183 -0.018258765 0.2882841 0.058353044 0.08918159 0.10348344 -0.22704063 -0.11243446 -0.02085576 -0.11055958 -0.26612732 0.012861967 -0.22098668 0.041302714 -0.20301518 0.03582467 -0.49857038 -0.08784151 -0.323883 -0.28202975 -0.031778175 -0.07507508 0.40610492 0.12941764 -0.021049956 -0.23918144 -0.024152383 0.20737858 -0.026128024 0.3205039 -0.2621893 -0.28096277 0.13396128 -0.18971358 -0.2997662 -0.054531753 -0.1472912 0.12756586 0.109787084 -0.21817179 -0.2819447 0.25001356 0.044891305 -0.25032556 -0.13838993 -0.15412858 -0.03335032
128 0.022716677 0.036595967 -0.15974286 0.3072458 -0.060473505 0.46543103 -0.1650196 -0.0018281749 0.20546636 0.16702935 -0.107356824 -0.37748572 -0.24431372 -0.2820874 -0.10180112 0.14214942 -0.10451924 -0.31899315 -0.1704465 0.32106405 0.08275675 0.3254871 0.15151505 -0.09992043 -0.36047968 -0.022710077 0.0802232 0.20392583 0.11417179 0.17447671 -0.16959292 -0.02925486 -0.16329856 0.084339134 0.21556245 0.35384563 0.14651957 -0.022586253 0.2481214 0.20305791 -0.034226738 -0.054494344 -0.4085793 0.014488196 0.15457807 0.12279999 0.013084178 -0.22332439 -0.05805275 0.00022141624 0.23226857 0.49951255 0.16111644 -0.2415502 -0.09137327 0.112665996 0.09132022 0.14229119 -0.0765322 0.031191576 -0.31903756 0.03355989 0.022185372 0.14032808 0.30943635 0.24794678 0.28392345 0.10986488 0.23069257 -0.2924311 -0.255343 -0.044713784 -0.32374805 -0.052521754 -0.079191774 -0.2315352 0.026815042 0.29091045 0.19340014 0.4207984 0.11647801 -0.2769752 0.30400497 0.36132267 0.20743653 0.37429872 0.09433353 0.013387617 0.2618101 -0.20690973 -0.03814626 -0.17039368 0.14356835 -0.27623838 0.12113963 0.050346304 -0.109219916 -0.3960778 -0.1737502 -0.045100402 -0.15457772 0.011445478 -0.1838144 0.44223297 -0.0467377 -0.14203925 0.16225156 0.034574386 -0.038825057 0.06969569 0.08840454 -0.19136588 0.17063032 -0.0006369519 -0.36429086 0.021163387 0.102079526 -0.02428135 0.16472593 -0.20841359 -0.31036517 -0.006812361 0.09381323 0.11780027 -0.1273379 -0.053935934 -0.2400078 -0.21079078
166 0.046590935 -0.017505554 0.082323134 0.09077435 0.31313103 0.023730952 -0.024738148 -0.15194653 0.26049536 0.22068706 -0.036254525 0.12491803 -0.2918868 -0.13120818 0.1309617 0.05133179 -0.19767313 -0.19112729 -0.17260623 0.34322712 -0.082738034 -0.10222312 0.092993 -0.3268746 -0.34941798 0.19057375 -0.2228282 0.22365725 -0.06973745 0.12061552 -0.117605865 -0.1954034 -0.011796562 0.13248965 0.14334546 0.050594606 -0.095176734 -0.22755511 -0.016351808 0.39394158 -0.25468183 0.27350682 -0.38663667 0.05276733 0.33342016 0.025074646 -0.051315226 0.106375486 -0.17890508 0.20563202 -0.018743062 -0.07029982 0.123985454 0.017030591 0.07425491 0.015788376 0.14452492 -0.030418335 -0.027328411 0.29208553 -0.14770104 -0.077357374 0.25552276 0.27523482 0.06041663 0.1622428 0.014506678 0.07884957 -0.24692585 -0.24999914 -0.13006599 -0.2627664 -0.11702464 -0.090832815 0.16086826 -0.037981823 -0.07165714 0.08638572 -0.10118208 0.1511261 -0.010361912 -0.2868813 0.22659813 -0.042823505 -0.05818436 0.06272488 0.26638094 -0.39547458 -0.016540218 0.014739569 -0.07833801 -0.14202666 -0.02153998 -0.16673192 -0.10833335 0.11227362 -0.21047671 -0.4807927 -0.40228736 0.13538572 -0.25827983 -0.25564417 0.1495795 -0.013815477 -0.16748767 0.060756452 0.017323459 0.115963355 0.16603388 -0.0083353575 0.34343165 -0.2778784 0.34958187 0.1695785 -0.35220233 -0.07408059 -0.1143295 0.010805911 0.10050241 -0.033683095 -0.052053954 -0.02762536 0.20113106 0.09225171 -0.11146592 -0.080228925 -0.058659002 0.12343201
82 0.09889987 -0.07664216 0.18348129 0.2006056 0.15266109 0.21753433 -0.20272967 -0.077517465 0.17760675 0.15282737 -0.24886605 0.060159292 -0.21984987 -0.38990417 -0.056510113 0.2907522 0.011881309 -0.0043618 -0.24101289 0.28070012 -0.007076771 0.117954046 0.21819186 -0.26747715 -0.3616161 -0.07336193 -0.29545724 0.03787332 -0.027857846 -0.11578009 -0.1593943 -0.08104468 0.052471563 0.09507978 -0.023856414 0.2947092 0.22797103 -0.043554906 0.21723911 0.39524633 -0.18393852 0.12823343 -0.3977662 -0.2373261 0.17024523 -0.08523087 0.071716145 0.025894739 -0.27673715 0.15215945 0.1448407 0.29548895 0.22116844 -0.012240245 -0.09167587 -0.11072667 0.1777082 -0.18538365 0.089951046 0.22676474 -0.15759702 0.13195728 0.08379577 0.2207048 0.16462652 0.24141102 0.14507344 0.062303774 0.06142302 -0.034758642 -0.115620226 0.004465772 -0.29615048 -0.12154696 0.071421124 -0.17088707 -0.062396992 0.28813827 0.05734509 0.15218566 -0.03024175 -0.34168828 0.222767 0.21430136 0.13713813 0.13870035 -0.11073509 0.004465523 0.27180225 0.29301977 -0.006156602 -0.17920065 0.2586594 -0.041076608 0.08165414 0.105589315 -0.29012442 -0.37156647 -0.08229832 0.18678948 -0.2715449 0.16014881 -0.22862694 0.024434289 -0.09283698 0.08367682 0.04154938 -0.04514236 -0.0035834974 -0.061228972 0.11080099 -0.104033105 0.32782748 -0.016634626 -0.18642893 0.096899346 0.04013255 0.047066364 0.33720884 -0.015361434 -0.14370124 -0.23582597 0.14934926 0.19606666 -0.25613543 -0.1342886 -0.18376589 0.033224907
211 -0.009870155 -0.29890496 0.03020773 0.36644575 -0.009395949 0.39581624 -0.29493877 -0.30789223 0.098142006 0.19366847 0.110496074 0.09191954 0.015288697 -0.16319281 0.12908268 0.15979458 -0.26590565 0.08876755 -0.13103217 0.11403472 -0.030158037 0.2692968 -0.005813783 -0.3461306 -0.44352245 0.16830781 -0.048938792 -0.217306 -0.20091815 -0.048984688 0.098471574 0.16366047 -0.0533282 -0.14881597 0.3132584 0.27867195 0.06432793 0.06990651 -0.096989 0.033323504 -0.37978083 0.023644209 -0.02000982 -0.023417808 0.3760792 0.12113505 -0.1824793 0.045256678 0.0622839 0.038785413 0.18689755 0.13923202 -0.008002513 -0.021092841 -0.0031377503 0.107265174 0.13886434 -0.047512513 -0.24530008 0.20339793 -0.08419022 0.017849742 0.36457708 0.23441878 0.20221743 0.1252483 0.20834377 0.03782057 -0.13935378 -0.16923288 0.06723067 -0.14758961 -0.1263927 -0.15154608 0.3016623 -0.24014734 -0.25222152 0.1162392 0.17538224 0.27401718 -0.07714959 -0.23354037 -0.009264733 0.25378725 0.3183301 0.17766175 0.4044884 -0.054919813 0.18067993 -0.036927 -0.05689516 0.04568333 0.39930296 -0.037805684 0.4596094 0.15974677 -0.1245682 -0.44562164 -0.63796365 0.0073293033 -0.0051835603 -0.0028157039 0.113659345 0.08236994 0.19406772 -0.33486256 0.059108015 0.34239855 -0.019164467 0.19513865 0.12607421 -0.28568384 0.22474545 0.22392294 -0.28672272 -0.031089012 -0.12779061 0.10809503 -0.041013986 0.12201146 0.056618102 0.11961334 0.011843596 0.09012914 -0.25555855 0.12589344 -0.16555902 0.31066355
130 -0.12631768 0.34191233 0.1381348 0.13099213 0.93520147 -0.19336146 0.24681063 -0.0013987847 0.3383023 0.18119831 0.62951356 -0.3734214 0.43968686 -0.96009374 0.462865 0.21761952 0.22157815 -0.08224556 0.05449593 0.76115054 0.036962856 0.3662619 0.47098237 -0.108358115 -0.0012563004 0.5832712 -0.10214273 0.6650781 0.34674802 0.14202741 -0.12328495 -0.073505886 0.017506516 0.03876096 0.07486254 -0.10100528 0.37417647 0.39628708 -0.17739104 0.06347238 0.15198097 0.3264195 -0.5158284 0.0042189728 0.9627617 0.19759987 -0.18732488 -0.08054671 0.4966709 0.3208609 0.14789437 0.7152437 0.4118567 0.15780923 -0.18191779 -0.029339954 0.80015963 0.95977306 -0.10419934 -0.121528625 -0.46483174 0.26167557 0.3607941 -0.16060044 0.80210316 -0.19365707 0.25267345 -0.3102338 0.51004076 0.26306146 -0.27741233 -0.7320356 -0.5461283 -0.3349084 0.057582308 0.08930046 -0.046217855 0.66669124 -0.60886854 0.9207378 -0.03774913 -0.67199665 -0.14904213 0.83251494 0.95218956 0.8579423 -0.22855791 -0.72990954 0.15437698 -0.019734936 -0.6300253 -0.6702554 0.23159969 -0.23295264 -0.66096467 -0.18139185 -0.20580202 -0.3351096 0.047636993 -0.13505894 -0.62383145 -0.47843593 0.17297393 0.67871153 0.32480854 -0.29566514 -0.07831494 -0.37745592 -0.09095215 -0.16507767 0.4408213 -0.31466225 -0.14194433 -0.71948254 -0.87748295 -0.4693043 -0.16089343 -0.1740958 -0.13754511 -0.049673367 -0.7228886 -0.119204104 0.13402724 -0.099391885 -0.7637526 -0.15522274 -0.7626573 0.18278451
44 0.05436667 -0.14456777 -0.072367884 0.470744 0.30771348 0.38672766 -0.13139579 -0.051108677 0.27305335 0.2159048 -0.07511869 -0.048217256 -0.082324915 -0.46241507 -0.030645372 0.11355923 -0.099196374 -0.01105716 -0.25148946 0.09834117 0.06900195 0.13782902 0.38117516 -0.40567023 -0.44927517 -0.2944123 -0.0042034322 0.5307113 -0.46387532 0.17664249 -0.24254003 -0.07111716 0.0786838 -0.0058535566 -0.109095015 0.10077058 0.23850985 -0.07281591 0.3485963 0.26291376 0.14080861 0.06882452 -0.2713221 -0.040741418 0.2223893 0.047282353 -0.19373126 -0.065695494 0.00039522615 0.06356683 -0.03875858 -0.10209899 -0.095215306 -0.09729962 -0.18098406 -0.06495335 0.5105986 0.0600703 0.264491 0.34534943 -0.18983549 0.038402766 0.22152275 0.39451078 0.03272649 0.0401665 -0.24402939 0.30970514 0.17520614 -0.23092945 -0.11910125 -0.082333386 -0.34789693 -0.25109774 0.26831043 -0.22348447 -0.16386116 0.3109114 -0.020931672 0.23944642 0.27947977 -0.3138694 0.1402894 0.36084223 0.4105468 0.49727392 0.24178645 -0.160325 0.2459401 -0.081011616 0.025299072 -0.25399235 0.35054466 0.03384539 -0.21428458 0.3466988 -0.37209487 -0.44263008 -0.07210229 -0.035428774 -0.3527497 0.049993493 0.005827963 -0.16802187 -0.31153515 -0.020006588 0.19279908 0.06012281 0.10746724 0.019708076 0.21263254 -0.16217229 0.2589968 -0.048762828 -0.48255536 0.14411798 -0.046294227 -0.02954579 0.1322071 0.015710717 -0.26778454 0.41115543 -0.12065249 0.14833753 0.2976902 -0.20195788 -0.13246736 0.22735843
87 0.08482023 -0.04437434 -0.0071619535 0.1764669 0.26359218 0.008315114 -0.22361076 -0.061841913 0.124181114 0.16818976 0.098520294 -0.066448376 -0.3627638 -0.10538942 -0.05762623 0.10946834 -0.20016657 -0.06910572 0.091732666 0.23407017 0.059125967 0.045907374 0.17992544 -0.5618158 -0.31334978 0.14360286 -0.07705278 0.10358455 0.1389794 0.11372544 0.09297097 -0.07792667 -0.3464052 0.19500631 0.25419536 0.34673813 0.021135172 0.077835836 -0.25911587 0.26243788 -0.05327703 0.31062856 -0.15378353 0.050870392 0.22343616 0.1260002 -0.1904254 0.08155893 -0.094359115 0.077663735 0.23908462 -0.08215439 -0.042175584 0.31964743 0.03014058 -0.28227618 0.13558888 0.03484976 -0.16454579 0.27796456 0.03727653 -0.0783428 0.24043497 -0.08255754 0.2450742 -0.09186436 0.23371907 0.06711955 -0.27032658 -0.08128487 -0.074597664 -0.25403738 -0.50183773 -0.1213037 0.10835382 -0.3286157 -0.08264191 -0.07177 -0.33106133 0.20188007 -0.2670603 -0.38210863 0.3046873 0.1904795 0.14077754 0.05785839 0.37387758 -0.21757674 -0.00657791 -0.0250955 0.104634255 -0.085818216 0.14423679 -0.043590847 -0.0064023603 0.009878632 -0.023047358 -0.6943834 -0.45035398 0.4551887 -0.19475137 -0.32001823 0.07913663 0.040511798 -0.052066512 -0.104974955 0.12731904 0.049239777 0.08553489 0.06243346 0.19947368 -0.032003097 0.6507215 -0.10460452 -0.36640844 0.18941313 -0.05168422 0.17387444 0.27898473 -0.1346965 0.037150465 -0.016638314 0.24882646 -0.049822737 -0.15637265 0.1257087 0.0060456283 0.33917722
333 0.0672801 -0.02315401 -0.012962132 0.22287065 0.082255475 0.32983148 0.072046906 -0.20232737 0.16623884 0.26270688 0.036617033 -0.17453068 -0.2733854 0.013087441 -0.06930736 0.2171766 0.042106163 -0.32617417 -0.2348457 0.027691768 -0.20474717 -0.08649423 0.093830645 -0.5782148 -0.570463 0.37827095 -0.48274305 -0.20079097 -0.19880055 0.11537785 -0.18008566 -0.08565733 0.088278174 -0.067575656 0.013925211 0.064996935 0.16958252 -0.21580558 -0.2094094 0.4116461 -0.49951786 0.19067761 -0.3305988 -0.192524 0.46364334 -0.28212 -0.24989994 0.07349692 -0.23692855 -0.035316817 0.38347116 0.0030894165 0.1728085 0.17906673 0.09701582 -0.31007499 -0.038560964 -0.08761234 -0.30889687 0.24977903 -0.1287808 0.132449 0.22128701 0.26806647 0.18856293 0.20371546 -0.08303315 0.16319272 -0.44350374 -0.19033998 -0.047276106 -0.3907258 -0.3915585 -0.15545286 0.44421116 -0.14069192 -0.40804642 0.16674495 -0.24579097 0.22630887 -0.20109946 -0.28943 0.5147069 0.33352047 0.18912812 -0.06412596 0.0053658206 -0.23709223 0.4737048 0.44714943 0.0017373929 0.122851394 0.08254977 -0.17980784 0.05740438 0.15931338 -0.042308748 -0.50943965 -0.115987554 -0.03334393 0.015145012 0.05644885 -0.08463232 -0.19408625 -0.23780474 0.0064255768 -0.092314266 -0.0033056408 0.28766918 0.35815942 0.28071696 -0.24143006 0.22564629 0.28646818 -0.6563909 0.13572636 -0.026995884 -0.0114313215 0.3073695 0.2850853 0.046032555 -0.18653785 0.2649587 0.043179438 -0.15669033 -0.08501017 0.3488262 0.23084255
256 0.09660363 -0.107288636 -0.23427176 0.39341158 0.0622306 0.3116356 -0.08610086 -0.12486875 0.07007153 0.10637545 0.10392205 -0.16968416 -0.34648904 -0.085536696 0.18654414 0.07285689 -0.23956506 -0.29298848 0.0216878 0.38920105 0.024758833 0.3014855 -0.0090839425 -0.40124422 -0.4669072 -0.0063803634 -0.058253415 0.12932594 -0.056250393 0.08244346 0.019649493 -0.047545034 -0.18688515 0.0646528 0.20091899 0.4858868 0.15070565 -0.052391443 -0.10469401 0.2968208 -0.04711522 0.19082293 -0.08574135 0.16496477 0.10893625 0.030966325 0.009117375 -0.09648985 -0.11107004 0.079639696 0.16323738 0.18937923 0.22718203 -0.1321033 -0.044756144 -0.07577159 0.13802332 0.034418054 -0.11381412 0.23105358 -0.36583906 -0.13906808 0.20017076 -6.3347296e-05 0.28567716 0.023557073 0.03459043 0.09604329 -0.26021612 -0.49188647 0.014001023 -0.26019612 -0.443531 -0.17005375 0.0070318114 -0.2919577 -0.18917003 -0.011993218 0.061184075 0.35649815 -0.01066509 -0.4274318 0.13320099 0.17866135 0.14030285 0.1179189 0.48462078 0.01000382 0.27644652 0.06637821 0.2326135 -0.01694138 0.28108352 -0.110242695 0.3229428 0.12658219 -0.087649815 -0.46165484 -0.5495213 0.046658788 -0.20274562 -0.26118764 0.1356406 0.07036226 0.25499156 -0.011686794 0.08797519 0.008643054 0.17346884 0.1580636 0.2379457 -0.059966367 0.5301382 -0.08586085 -0.20289107 0.29196984 0.15950365 0.07372947 0.24680614 -0.05430072 -0.0707 0.08328657 0.117485926 0.17057094 -0.19648628 0.10455232 -0.0661863 0.09679858
96 0.35780263 -0.13604835 0.1386754 0.20446984 0.10911908 0.43125826 -0.26104057 -0.29278928 -0.09808412 0.16593754 -0.18516974 0.14486365 -0.20488337 -0.3131967 0.14439002 -0.28560466 -0.20738828 0.30763802 -0.0031758458 -0.0027239402 -0.28315282 0.2477295 -0.055903 -0.48710525 -0.014312592 0.33726588 -0.08538124 -0.100846134 0.005097239 -0.1485144 0.11883953 0.2572786 0.17573002 0.11593557 0.2473852 0.10793041 0.4189249 -0.07725199 -0.07963395 0.5493444 -0.13160934 0.22977094 -0.44694644 -0.07191283 0.35468692 -0.17311771 -0.3970282 -0.18750745 -0.18837832 0.13072655 0.42873308 0.12610523 0.1400743 0.14058387 -0.24493362 -0.14904079 -0.24215634 0.48559928 -0.20892793 0.16030009 -0.21972983 0.09606409 0.1505242 0.26232815 0.09508375 -0.004691767 -0.120245434 -0.042239048 -0.15567225 -0.287905 0.083027095 -0.20401031 0.04632333 -0.09235721 0.17713866 -0.039003268 -0.48693275 0.2520807 0.052848905 0.25350502 -0.100597925 -0.15548716 0.29064262 0.37175432 0.19427513 0.30056 -0.14655595 -0.49330336 0.44811267 0.2958326 -0.28094968 0.19624087 0.43488935 0.055771973 0.37281135 -0.0045594396 -0.08917245 -0.20357108 0.13676907 0.015962295 0.14655629 -0.20280176 0.18871994 0.20583697 0.14849305 -0.035714325 0.028387029 0.3277113 0.22929089 0.19760741 -0.17928196 -0.30219612 -0.029552668 -0.12807652 -0.22208866 0.017217603 0.40208414 0.011324155 0.065473646 0.18744792 -0.15136267 -0.33061346 0.0076774345 -0.08603806 -0.5601521 0.25121886 -0.17591494 -0.11411022
301 0.18211316 -0.24044223 -0.009178713 0.16610569 0.25853848 0.16063958 -0.24466597 -0.069482714 0.2573628 -0.07305915 -0.08070417 0.16494846 -0.041189466 -0.47426125 0.18334393 0.33440793 -0.4263556 0.15372346 -0.07591318 0.09367177 0.005437477 0.2322462 0.06444918 -0.37441513 -0.08874422 0.2775661 -0.09732636 0.10902006 0.119300425 -0.21871261 0.03702124 -0.060730435 0.21708845 0.19750644 0.15472262 0.13763827 -0.03974811 -0.016886206 0.21036911 0.21819927 -0.10631938 0.13135417 -0.3169131 0.0027056597 0.4195358 -0.028912561 -0.09851671 -0.10896817 -0.22361895 0.10728121 -0.06514332 0.20757939 0.04449763 0.18362606 -0.02270861 0.13156964 0.114216566 0.2884071 0.12381854 0.072514884 -0.2034792 0.2645746 0.060671885 0.41963798 0.034342535 0.08649271 0.30503932 0.037555963 0.12882277 0.20714717 -0.18322091 -0.030772656 -0.07865304 -0.14967126 0.041786745 -0.2341822 0.12233314 0.42252347 0.09222094 -0.094229616 -0.24706958 -0.15662685 0.1682737 0.2137493 0.32931393 0.11542492 -0.07930329 -0.23394032 0.23506986 -0.049241245 -0.34739968 -0.05684083 0.057042997 0.024897093 0.21250121 0.020519385 -0.0061597615 -0.11312342 0.114239745 -0.10363464 0.006839542 0.021634132 0.016830014 0.3095793 -0.10139574 -0.09052167 -0.15687022 0.5512917 -0.08908555 -0.14309798 -0.059459344 -0.035564132 -0.18277694 0.22653513 0.09426841 -0.10628312 0.19554439 -0.075028196 0.1275466 0.061052382 -0.24448681 -0.15213127 -0.05373609 0.21506606 -0.36450225 0.060483985 -0.23873773 -0.08272682
142 0.15019526 -0.072600685 0.23423283 0.2193648 -0.049540848 0.12564321 -0.2260095 0.099287406 0.06967433 0.15624104 -0.012499043 0.16718715 -0.17315437 -0.2760132 0.053780228 0.3320982 -0.037949584 0.06695528 -0.238874 0.24331437 -0.10302438 -0.07988149 0.35589457 -0.2789563 -0.28523478 0.011133459 -0.22693686 0.102918744 -0.18949741 0.061185397 -0.03304432 0.050436385 0.056793608 -0.031580362 0.193564 0.29169938 0.19806066 0.0010349938 0.14862393 0.57054853 0.016935144 0.26444107 -0.14296728 -0.14913057 0.4212704 -0.031221716 -0.048395816 0.07904569 -0.19141328 0.115703076 0.1881945 0.070681036 -0.12654616 -0.06288126 0.16954178 -0.21294816 0.2700004 0.033179797 0.0849393 0.3070949 -0.081967555 0.13899489 0.20233488 0.24317507 0.07687767 0.37996477 0.07857553 0.19689748 -0.03043595 0.15102425 -0.20004588 -0.19400907 -0.32904893 -0.047123976 0.14844497 -0.32636473 -0.039826546 0.08162183 -0.005065665 -0.059516035 -0.11669657 -0.55837524 0.23555091 0.19507685 0.2892915 0.21103573 0.13294838 -0.18278198 0.25227305 0.13640317 0.0037137037 -0.26401493 0.5020268 0.056825805 -0.10265758 0.1976413 -0.20544694 -0.36513236 -0.11626962 0.09991373 -0.1743838 -0.06510463 0.009393933 0.037651427 0.06808993 -0.07082188 -0.0081972815 0.2687093 -0.012707741 -0.15632276 -0.08915548 0.018439166 0.4275115 0.11297233 -0.12977365 0.010740827 0.011491502 0.25573707 0.28113574 -0.060067043 0.043449398 -0.028422602 -0.21675092 0.21983798 -0.25470304 0.17503858 -0.02910028 0.17013326
420 0.11432006 0.074718125 0.09071357 0.16889113 0.16777633 0.30603847 -0.22591852 -0.20199673 0.17892262 0.19938216 -0.09762408 0.0881247 -0.017190775 -0.34406853 0.11862429 0.305817 -0.13609388 -0.045431383 -0.27382207 0.19293974 0.08374052 -0.01739039 -0.02355544 -0.31247962 -0.31606814 -0.025519917 -0.16253483 0.13542645 0.18402782 -0.17020352 0.024850165 0.39651754 0.0039695245 -0.06614554 0.132963 0.28223726 0.14153422 0.011738154 0.05726182 0.30753955 -0.26047373 0.07164874 -0.39033136 -0.09025589 0.17034812 -0.03043023 0.1335246 -0.074894816 -0.011727609 0.06064271 0.23961025 0.21157879 0.21360673 -0.110224694 -0.05237007 0.1603399 0.20093009 0.034239825 -0.15976918 0.3138399 -0.22619605 0.07369066 -0.038902268 0.123759046 0.067600936 0.17342462 0.055968616 -0.15124913 -0.013972553 -0.116665944 0.0038707547 -0.025967596 -0.30396444 0.11787357 0.28381813 -0.13018164 0.23675147 0.24486253 0.2503615 0.16281971 0.07183105 -0.3385125 0.21451697 0.18615568 0.10171588 0.142654 -0.085356995 0.095107816 0.3863838 -0.023021195 -0.11561428 0.020012964 0.37579614 -0.03765925 0.14799273 0.32627192 -0.38783228 -0.17375301 -0.26202133 0.0036534038 -0.30379483 0.1974028 -0.22427379 0.03964228 -0.08604113 -0.18735589 -0.085764654 -0.10579434 0.024163472 0.007991515 0.1828202 -0.14964639 0.16003735 -0.07916125 -0.09498354 0.07918216 0.10348642 -0.038383942 0.07400122 0.022541787 0.044901475 -0.031522777 0.015678318 0.25636533 -0.3912914 0.13394526 -0.25479028 0.2329441
114 0.04761329 -0.38969582 0.003755118 0.24613062 0.034819175 0.22962381 -0.09674652 -0.17108862 0.031104937 -0.03410672 0.07711273 -0.1785252 -0.3793253 -0.15577203 0.018496662 -0.077557735 0.06787229 -0.11237555 -0.014255059 0.2015931 -0.29777166 0.42601287 0.13645533 -0.53489465 -0.16414127 0.27402732 -0.17905764 0.07294666 0.025077293 0.23853473 0.044261217 -0.04608056 0.17429413 0.0116010215 0.26403534 0.35123792 0.32247004 -0.15600511 -0.1698936 0.18501048 -0.17241693 0.19138639 -0.05915176 0.05243971 0.34206483 -0.04590803 -0.07424505 -0.18855068 -0.20899506 -0.19705033 0.268315 0.22450428 0.22335859 0.2827124 -0.04158187 -0.31189695 -0.18674333 0.029444767 -0.17833418 0.053066395 -0.2306711 -0.11085425 0.41873634 0.20524946 0.268117 0.30483988 0.16958556 0.1931457 -0.2622179 -0.15751329 -0.009311567 -0.35577613 -0.3621768 -0.2677117 0.13901842 -0.10305757 -0.3779492 0.22086214 -0.025371216 0.18113706 -0.27301225 -0.40126827 0.1357393 0.42576215 0.31078053 0.19444676 0.09947967 -0.2819038 0.42495427 0.3400032 -0.008561439 -0.02915397 0.3399301 0.10870392 0.21885462 0.035335816 -0.18744658 -0.6697952 -0.1870981 0.12768109 -0.030484764 -0.12966716 -0.06256328 -0.13727279 0.05781737 0.14539881 0.2255157 0.099685214 0.21430212 0.14004892 -0.01581919 -0.19868599 0.4355172 0.043934435 -0.5257638 0.14251874 0.09360963 0.015878761 0.35791683 0.03246775 -0.15484238 -0.09445653 0.17478319 -0.0552779 -0.22820482 -0.2663454 0.024430605 0.18281244
283 -0.070522435 0.05307929 -0.07972506 0.00889507 0.10903952 0.25434184 0.03489376 -0.28272605 0.0668921 0.5722423 0.4210827 -0.21119466 -0.016689155 -0.109166935 -0.09375845 0.32156792 -0.21638452 -0.17307463 -0.026483743 0.26664054 -0.04746291 -0.13585772 0.044990245 -0.2949197 -0.49249515 0.1796804 -0.37741798 0.20155177 -0.22378407 -0.024750302 -0.082109116 -0.12256641 0.0799112 -0.11473293 0.14564371 -0.21653438 0.15589172 -0.1020974 -0.15048654 0.14748584 -0.226456 0.08148808 -0.30077994 -0.23030835 0.3064886 0.14813979 -0.090829454 -0.020841515 0.024905577 0.2840671 0.19665037 0.18308048 -0.09045896 -0.06784251 -0.14784959 -0.008337742 0.22965544 -0.02562195 -0.21603939 0.15276441 -0.04835795 -0.06187858 0.3347016 0.15104863 0.1556743 0.15157965 0.27552402 0.043815933 -0.18581547 -0.07238928 -0.39719716 -0.34423408 -0.20246981 -0.19248757 0.12288514 -0.15918046 -0.21740618 0.25503907 -0.04388308 0.3363357 -0.08860084 -0.116063684 0.26791206 0.34155166 0.18423139 0.25984913 -0.014544849 -0.33010155 -0.1011747 0.22371805 -0.06151743 -0.16291134 0.11056872 -0.16506448 -0.038894217 -0.043331347 -0.03929984 -0.6432341 -0.33804283 0.0011237377 -0.13899988 0.125576 0.0043045618 0.18110828 -0.0069019077 -0.053607468 -0.023516668 0.25334814 0.2518238 0.040492818 0.3987936 -0.33013994 0.07088894 0.2391727 -0.14378624 -0.18847485 -0.038477547 0.104344726 0.0811821 0.3248505 -0.072887644 -0.120100915 0.06736077 -0.043918528 -0.14909767 -0.09108975 -0.0015698756 -0.067621335
282 0.14468053 0.048721902 0.13987544 0.09725149 0.08150782 -0.16519529 -0.3246746 0.10834463 0.117454655 0.09813973 0.15016781 0.13429248 -0.32276157 -0.3152699 0.07947051 0.227993 -0.37550753 0.03235712 0.078859955 0.44623438 -0.13011608 -0.082614586 0.07549388 -0.28012288 -0.17847775 0.1499191 -0.3153405 0.30820397 -0.046035092 0.09603628 0.25271535 -0.049514975 0.04971868 0.12305452 0.24543625 0.08071517 -0.018149907 0.08888478 0.12376323 0.57802296 -0.03643152 0.26127967 -0.20143645 -0.08793606 0.32387203 0.03586671 -0.023683652 -0.0057113357 -0.26823696 0.13584259 0.14590976 0.17390352 -0.12337688 0.06551307 0.23578471 -0.19617057 0.15812114 0.16072509 -0.022515584 0.2688673 -0.15140413 0.12822028 0.06323468 0.07838089 0.1764474 0.27258843 0.08866215 0.3231359 -0.12539995 0.079440825 -0.322576 -0.33485696 -0.2053151 -0.1510037 -0.07420951 -0.30620915 0.04101399 0.20744054 -0.12200468 0.028819885 -0.20426211 -0.3172278 0.2250628 0.3518661 0.0625335 0.06444265 0.0053288504 -0.2952038 0.07572243 0.06691324 -0.019277515 -0.20488451 0.39055097 -0.030168187 -0.08808548 -0.07436147 -0.23469098 -0.3563555 -0.22489534 -0.008087918 -0.20187654 -0.17023589 0.032888282 0.28126982 0.16665289 -0.016769754 -0.08179693 0.1002781 0.17271487 -0.41321823 0.07524033 0.17460586 0.6024417 -0.12701134 -0.023962859 0.09345911 0.18791348 0.23122057 0.27629146 -0.013952631 -0.16069745 -0.16081202 -0.027951706 0.30941164 -0.4243619 0.05809418 -0.23459996 0.15729585
81 0.02918946 0.10135793 0.14426927 0.4580069 0.14082585 0.3565041 -0.39892834 0.00026373036 0.029698111 0.18439752 -0.14346957 -0.13811402 -0.015303129 -0.42627427 0.066329606 0.37805617 -0.107585795 0.21581304 -0.24094276 0.17713635 -0.08653943 0.1490846 -0.023605486 -0.58736455 -0.41232255 -0.010603696 -0.0075001866 0.0036893673 -0.05834545 0.20421298 -0.017437514 0.12942402 -0.009703994 -0.031879023 0.089701444 0.3395346 0.054602485 -0.15248974 0.02358187 0.47946516 -0.053724382 0.23693408 -0.38145837 -0.11486401 0.18691102 0.12801526 -0.3694935 -0.3141392 -0.19750847 0.099980325 0.3448494 0.08762258 0.14574897 -0.007826558 -0.08153919 -0.09875757 0.43931183 0.36779344 0.0512001 0.2931812 -0.12677054 -0.15178743 0.46935767 0.15998794 0.123877816 0.17730327 0.12955707 0.109424375 -0.080880046 -0.15660924 0.105917 -0.098308615 -0.30360025 0.13226098 0.1324933 -0.31037313 -0.29890594 0.15047252 0.0030776106 0.24444523 0.13617232 -0.6141078 -0.0011396577 0.26096326 0.47739348 0.033760294 0.28511077 -7.511816e-05 0.041316845 0.01850284 -0.10133577 -0.32853532 0.43654618 0.14208448 0.18867959 0.010078494 -0.43574408 -0.28139475 -0.5122753 0.01960734 -0.016700152 0.13360216 0.054670963 0.10292162 -0.015952207 -0.10554117 0.15283011 0.04344678 0.086203106 -0.13560148 0.22883569 -0.2753701 0.4898882 0.03839734 -0.133087 0.21686034 0.057390828 0.2876086 0.18487875 0.21367419 0.0067635323 -0.054996733 0.17648646 0.2930068 -0.123615324 0.07787266 -0.07575555 0.18412465
6 0.24147807 -0.11268917 -0.005303719 0.13665251 0.15958072 0.10471302 -0.34914902 -0.64858425 0.12356853 -0.22165927 0.14095077 0.17183736 0.070484266 -0.16301812 0.19780526 0.07421147 -0.30959317 0.39153492 0.08721101 0.004580267 0.32242188 0.20616555 -0.056752887 -0.72659105 -0.5719025 0.23419465 0.016074326 -0.22208622 0.18316826 -0.5254033 0.1849401 -0.17950225 0.08136552 0.08589607 0.21617171 0.085869275 0.18511519 -0.13024591 -0.03129778 0.42507634 -0.12314963 0.09131425 -0.08615102 -0.11412978 0.4492103 0.284401 -0.45793247 -0.074964516 0.29921386 0.18048666 0.12979223 -0.00028763982 0.023089936 0.3357065 -0.15632688 0.3239432 0.41540572 0.021455634 -0.20161241 -0.06414692 0.3616426 0.11684701 -0.25071487 -0.13468647 0.29719758 -0.24289021 0.22609086 -0.21039127 0.5206715 -0.16563503 -0.0838514 -0.10681546 -0.19844912 -0.16215517 0.3620851 -0.014217987 -0.08895264 0.22147302 -0.055326503 0.096977785 -0.1611345 -0.15400402 -0.04922311 0.1630984 0.45194784 0.29164588 0.29325178 -0.46858546 0.1606715 0.013771094 -0.21803133 0.3494602 -0.04333342 0.18717574 0.4106791 -0.023650983 0.034167785 -0.026838087 -0.4209982 0.14438808 -0.12912327 0.061248813 0.16794749 0.31964776 0.27439857 -0.24292104 -0.35280758 0.25190488 0.2706617 0.02937757 0.17386511 -0.13259785 0.28621975 0.19453305 0.026567476 0.1734555 -0.0017490716 0.00044571818 -0.28959334 0.13945675 -0.25523397 0.2583409 0.12434995 0.24866177 -0.6449219 -0.22700308 -0.56803536 0.15356836
137 0.3033818 -0.101108074 0.15265614 0.38964605 0.31298524 0.10091902 -0.21202713 -0.19239789 0.11580086 0.26472914 0.18017508 0.091166325 -0.08020399 -0.39129466 0.29803473 0.18297285 -0.5373864 0.10542573 0.04364158 0.25944668 -0.12812275 0.2207419 -0.32609418 -0.62323356 -0.5818555 0.14181665 -0.1212981 -0.07703541 0.045470633 0.043688618 0.03672324 0.29202583 0.0696809 -0.16163 0.1795992 0.17750122 0.027672378 0.07506409 -0.2324913 0.2073934 -0.24829035 0.33816501 -0.1320688 0.16130617 0.5693922 0.19781981 -0.37912565 -0.051608864 0.21652257 0.09081366 0.39598802 0.04443825 -0.14102198 0.1876812 0.20009875 0.16177106 0.39544788 0.244196 -0.31106386 0.21727958 -0.028427986 0.1530283 0.45778486 0.121956386 0.23728915 -0.025119996 0.2893505 0.02957657 -0.25493696 -0.04533936 0.16763599 -0.12307436 -0.111393884 -0.05659344 0.096287854 -0.25615352 -0.24789411 0.07728558 -0.060377423 0.19970685 -0.020219307 -0.40596077 -0.23751292 0.15848625 0.36993596 0.02274428 0.4901116 -0.2702463 0.11689135 0.19783413 -0.4480702 -0.04167607 0.37770846 0.08204072 0.39222187 -0.022467589 -0.23696947 -0.390758 -0.84894085 0.09576224 -0.014848335 -0.13403955 0.07478372 0.17135568 0.33097875 -0.4569242 -0.024697104 0.4651602 0.11231931 0.08157556 0.1293645 -0.35451782 0.35674277 0.15016164 -0.21838742 0.067071676 0.00900076 0.3481853 -0.18716644 0.13868934 0.07453301 -0.053428464 -0.08968269 0.15543956 -0.39654678 0.23909315 -0.20007078 0.399226
28 -0.019206304 0.0071247425 0.009225733 0.49036965 -0.09857196 0.24386401 -0.17973667 -0.060313947 0.15198351 0.018889623 -0.06744372 -0.43221956 -0.19207554 -0.44357786 -0.08321501 0.03861587 -0.015025291 -0.14964163 -0.17647877 -0.111043654 -0.20357244 0.44232404 0.20340145 -0.61999875 -0.18992071 -0.07267648 -0.28932175 0.1691906 0.076282226 0.16240397 0.14142181 0.079030976 0.27955687 0.03958519 0.2301213 0.16064487 0.281194 -0.02330704 0.09927798 0.40428647 -0.07791412 0.27315053 -0.26087618 -0.0017343655 0.0716596 -0.06829457 -0.15595542 -0.3989273 -0.028059868 -0.023382226 0.41152933 0.30998805 0.24751185 0.14984263 -0.093098395 -0.24352755 -0.058781605 0.19341648 -0.112965606 -0.0393635 -0.22437917 -0.010475042 0.13752143 0.106300235 0.07821012 0.31476396 0.12567051 0.12272111 -0.0023702183 -0.14547859 -0.014549067 -0.22821842 -0.35255256 -0.083942674 0.09564691 0.045283496 -0.18800145 0.20948818 0.029977348 0.25989595 0.03972161 -0.44637442 0.17655644 0.4830286 0.3020169 0.13581495 0.07939873 -0.22422709 0.12504663 0.09977079 -0.12977621 -0.10084902 0.49688184 0.15598084 0.21784085 0.061967317 -0.2974856 -0.4598743 -0.08225554 -0.12001173 0.03819677 -0.17659187 -0.05298373 -0.11271354 -0.042847384 -0.09662285 0.19304968 -0.32154468 0.17307055 -0.009027642 0.17081395 -0.2684782 0.23574223 -0.106290184 -0.51747936 0.17006041 0.22358398 0.09970817 0.09984518 0.04188693 -0.020037804 -0.07016879 0.31245938 0.042410024 -0.25027427 -0.1927641 -0.14242642 0.014837587
340 -0.006826501 -0.3209029 0.08170123 0.44322166 0.22101642 -0.19948182 -0.2325817 -0.056308474 0.009988837 0.009568307 0.11570439 -0.08782475 -0.344391 -0.22361077 0.16414812 0.09391653 0.00085247814 -0.099904135 -0.48981565 0.26271522 -0.040289823 0.34628525 0.11906568 -0.27123982 -0.14274879 0.068081014 -0.41298658 0.14336514 0.09601804 0.003735385 -0.1972478 0.1314249 0.25360146 0.05716525 0.17414203 0.43671876 0.18369538 -0.43785673 0.28607786 0.3723961 -0.101673484 0.18436183 0.27196735 -0.11055487 0.29075077 -0.34906837 0.2293409 0.07435437 -0.35727456 -0.19527079 0.35712448 0.14590393 0.09215609 -0.17367691 0.018214652 -0.17609741 0.27672023 -0.18839315 0.06832053 0.23787092 -0.30112746 0.15908529 -0.06063952 -0.019237423 0.24201168 0.56982166 -0.094652794 0.48051915 0.21800207 -0.25277466 -0.29194096 -0.3266166 -0.6065953 -0.19648851 0.26198483 -0.14703813 0.23228997 0.31906787 -0.10980005 -0.20174938 -0.21253619 -0.3296103 0.2068737 0.44631305 0.2450861 0.39755735 0.24183819 -0.033781245 0.2209831 0.3728357 0.08407393 -0.11272091 0.25828972 0.0047485125 0.07597665 0.03778062 -0.121371396 -0.53541565 -0.024065332 0.095945135 -0.25909448 0.24748418 -0.28409263 -0.19895995 0.31189078 0.06445898 -0.1050988 -0.20458859 0.49934638 -0.37421954 -0.08167073 -0.092821084 0.20835751 -0.030542972 -0.31140098 0.23066604 0.15094188 0.069390245 0.30594334 -0.061622906 -0.17138922 0.006293731 -0.0999514 0.49678716 -0.24775016 0.049070317 -0.08618856 0.18354428
105 0.06600259 -0.073843464 0.00062881084 0.28119928 0.22037205 0.36783627 -0.22619124 -0.07030887 0.1818653 0.33393073 0.16882166 0.09139736 -0.12411652 -0.23031998 -0.0037369113 0.09248888 -0.21564087 -0.08438078 -0.17814653 0.109955825 -0.22101529 0.1330657 0.11061097 -0.3307487 -0.49146464 0.0753708 -0.16798574 0.0070336238 -0.26600614 -0.038773417 -0.010710233 -0.003574892 -0.060821276 0.010546891 0.032955594 0.3185777 0.084469415 -0.065037124 -0.04057995 0.23962863 -0.12512593 0.27101794 -0.14998482 -0.14448085 0.14120688 -0.054899096 -0.080480285 0.06400187 -0.16498846 0.17216171 0.124745846 -0.15250543 -0.21589273 -0.016398424 -0.1660949 0.018893834 0.41531828 -0.04105607 0.0917559 0.2598237 -0.20928341 -0.088627264 0.3115353 0.13988242 0.17494953 -0.09602048 -0.14169 0.19832295 -0.3190836 -0.4279797 -0.16118836 -0.1967586 -0.37680066 -0.12732881 0.12831202 -0.18702084 -0.2857124 0.041942775 -0.23476072 0.24020581 0.10015704 -0.17035992 0.24639098 0.28827953 0.035935715 0.3850414 0.33413145 -0.10653842 0.03489842 0.20935969 0.053892646 -0.23112299 0.19975474 -0.05265412 0.20990652 0.022851672 -0.2074073 -0.4880042 -0.38922882 0.11096225 -0.2858246 0.020816764 0.088929996 -0.14745677 0.18149866 -0.15138863 0.14156054 0.01593524 0.14574897 0.063251205 0.20448618 -0.19808362 0.3669337 -3.9350503e-05 -0.26292598 0.13192163 -0.03996408 -0.06807065 0.10689304 0.20512569 0.027857374 0.16937213 0.042563174 0.1310896 0.012029217 0.29298759 0.102091774 0.054109696
280 -0.04849162 -0.09459205 0.0794589 0.11335447 0.4725775 0.12018787 0.09952409 -0.08557229 0.12575927 0.13408889 0.071878105 -0.11688264 -0.24823114 -0.34584662 0.053935956 0.302585 0.18061131 -0.10239307 -0.2029333 0.46554503 0.23836091 0.119546615 0.12704454 -0.3443543 -0.3262092 0.13855374 -0.24300213 0.1567527 0.095564745 0.015840234 -0.10630769 -0.31460607 0.16332595 0.027887804 -0.011559712 0.21424554 0.22051157 -0.22231929 0.13058664 0.13433245 -0.1797187 0.13700555 -0.11593836 -0.051779523 0.22701193 0.061949283 0.031306338 -0.0032898495 -0.20992367 -0.017791064 0.16186258 0.3725323 0.48718083 -0.028764345 -0.39066553 -0.020574652 0.4253168 0.1244979 0.024625853 0.036289953 -0.38904083 0.05209472 0.1723529 -0.09823537 0.3251928 0.08975558 0.21810569 -0.25073022 0.26585007 -0.051803194 -0.14893577 -0.16264401 -0.515447 -0.32791176 0.1567724 -0.022994248 0.010315838 0.2799992 -0.035949245 0.14635247 -0.024099017 -0.39915997 0.09121625 0.42333078 0.37625048 0.22370577 0.1759718 -0.20083483 -0.08953854 0.056319807 -0.10043952 -0.16792335 0.01817723 -0.076711416 0.063310474 -0.0037221469 -0.1370127 -0.37440094 0.051865153 0.005520718 -0.31855467 -0.022402778 -0.2022641 0.07449621 0.039447542 0.24656841 -0.097565085 -0.23062229 0.15359484 -0.14345683 0.2959593 -0.23730575 0.1254939 -0.18611963 -0.30854863 -0.11870026 -0.0068761935 -0.24238494 0.22180246 0.06498584 -0.35915187 -0.27936408 0.23601256 -0.028839312 -0.38637358 -0.21309817 -0.18596502 0.10796724
820 0.22386229 -0.06536416 0.07924384 0.18648154 0.17237216 0.3399625 -0.17434257 -0.18212122 0.27645868 0.1470233 -0.09092899 -0.2726956 -0.53080595 -0.4107687 -0.18185085 -0.040095244 -0.009689524 -0.49049836 -0.1679194 0.5845355 0.10478703 0.1809401 0.2503981 -0.20545076 -0.48734742 0.010606427 0.15825094 0.27231142 -0.056593005 0.318711 -0.20270106 -0.07633712 -0.2677631 0.09935642 0.14183988 0.27343795 0.09301343 -0.1127429 -0.01024492 0.18532994 -0.12042947 0.042670988 -0.39329466 0.1039403 0.3911756 0.2384028 0.06304557 -0.034469742 -0.121205375 -0.12885915 0.22738557 0.46888047 -0.0810005 -0.06624223 -0.15665841 0.17167073 0.093068756 0.043112155 -0.14912587 0.14169444 -0.33574456 0.16104726 -0.101154305 0.035303604 0.35422742 0.15084946 0.21581388 -0.06350865 0.06423042 -0.28201815 -0.12290835 -0.042807415 -0.48988792 -0.16213736 -0.030713255 -0.22008426 0.018002475 0.17683499 -0.018792428 0.34505755 0.12664923 -0.3299925 0.40400133 0.273136 0.04047117 0.42829725 0.36627704 -0.10791658 0.16370481 -0.24550289 -0.21665868 -0.09742675 -0.035178613 -0.30389795 -0.0014368105 0.15899661 -0.0071083033 -0.5978303 -0.03356316 0.24397877 -0.25320506 -0.26542905 -0.21748976 0.20758966 0.066731445 0.029441224 0.14269336 -0.14841151 -0.09210343 0.11128978 0.008243706 -0.14329438 0.33334485 0.017882505 -0.5512418 -0.21352994 0.008476742 -0.22048953 0.0029751393 -0.34423667 -0.22987436 -0.06464451 0.08902847 -0.11317624 -0.11699871 0.14444473 -0.029546648 -0.17267768
405 -0.048186123 -0.024525333 -0.22206797 0.41922802 -0.027168237 0.2469473 -0.32363525 -0.007456538 0.15341988 0.09431696 0.1803926 -0.14331983 -0.02696537 -0.16720335 0.02601401 0.28556323 -0.3731524 0.239253 0.17328705 0.09613282 -0.2752365 0.15653978 -0.07902076 -0.56548107 -0.27904475 -0.15048894 -0.17933756 0.14895305 -0.17216352 0.17608982 0.19213186 0.23700559 -0.07610378 -0.21715277 0.48722914 0.3514013 0.07911252 0.16654536 0.21105708 0.26687792 0.010004134 0.13783099 -0.024405457 0.16005896 0.30623558 -0.048690174 -0.20899735 -0.34364 0.11278598 0.07518869 0.36355072 -0.076494254 -0.19857417 0.129385 0.035500374 -0.118500814 0.14649417 0.22084786 -0.017077595 0.28011137 -0.20453218 -0.21175754 0.3179629 0.2434491 0.23991641 0.23086235 0.2564063 0.4153297 -0.1320907 -0.26032963 -0.11620689 -0.356172 -0.30415592 -0.2392402 0.15071231 -0.4039999 -0.28754944 -0.12572353 0.00021087374 0.3061945 -0.018690469 -0.46936196 0.07095702 0.44621488 0.16584264 0.16651557 0.37765637 -0.10688791 0.30111322 -0.03373863 0.017229343 -0.2907304 0.2843369 0.0030597143 0.123401985 -0.048791163 -0.28404045 -0.5715844 -0.49314693 0.034897525 0.07190456 -0.20059335 0.25169387 -0.011323895 0.13906465 -0.12747805 0.35531232 0.11814727 0.13111264 0.052989073 0.071317874 -0.09193625 0.35956123 0.11131434 -0.4196339 0.30038935 -0.08709819 0.23374195 0.20731835 0.28259346 0.03722118 0.06896682 0.003577122 -0.0050352244 0.045498267 0.22643705 0.09553253 0.16522816
494 -0.053853773 -0.33904222 0.11119209 0.09754406 -0.034971945 0.13331091 -0.18803978 0.17864136 0.13233472 0.19499002 -0.09232075 -0.04634935 -0.07068775 -0.42868423 -0.12626255 0.32301652 -0.014622777 0.12487618 -0.110998735 -0.024161447 0.08932247 0.07561219 0.35006008 -0.14890428 -0.28985345 0.10487261 -0.24423572 0.15733032 -0.1546212 0.060105644 0.021966167 -0.10170282 0.12167028 0.19667184 0.19424798 0.08359792 0.22763601 0.028084707 0.39059207 0.25899902 -0.1492936 0.16101779 -0.2010529 -0.11674932 0.083499864 0.033678412 -0.19455548 -0.11764785 -0.2090937 -0.023992544 -0.09317913 -0.05282299 0.024756698 0.17668924 -0.19837488 -0.36032203 0.013297865 0.009627538 0.19558808 0.012798044 -0.025945274 0.05685056 0.19515349 0.21129626 0.13103525 0.19807786 0.06197287 0.102116555 0.19079016 -0.0072926674 -0.45668694 -0.20089611 -0.25816947 -0.3146731 0.21234055 -0.04366863 -0.08343743 0.18136892 0.08717233 -0.18334527 -0.14930204 -0.287035 0.23717357 0.5617106 0.323621 0.29643863 -0.015737634 -0.37396267 -0.13615863 -0.004044277 0.004060868 -0.2389059 0.37175906 0.03220489 0.05524114 0.018889695 -0.19573745 -0.47084576 0.13875712 0.05945777 -0.084993996 0.029767213 0.06390152 0.013578217 -0.03853224 0.1180952 -0.099410854 0.20074533 0.060767762 -0.27676958 0.1772584 -0.2571825 0.24916647 -0.08734833 -0.06421639 0.045665264 -0.01984343 -0.096650966 0.13334572 -0.0019549292 -0.16519518 -0.12992942 0.12728328 0.063566014 -0.31558543 -0.22361247 -0.28540614 0.0047392626
215 -0.21394114 -0.017457142 0.17366791 0.09986728 0.20158243 0.04351752 -0.35395768 -0.22552001 0.1899465 0.16160226 0.16648477 0.20825648 -0.12817118 -0.0017353982 -0.12949356 -0.2167719 -0.43571755 -0.0400359 -0.38136584 0.5936693 -0.015308125 0.025775364 -0.23065932 -0.35305506 -0.38951725 0.3840771 -0.105173945 0.109225616 -0.039559633 0.012493825 0.07120971 -0.12325394 -0.36905754 0.20265944 0.4400085 0.3154134 -0.32343882 -0.28839356 -0.16046071 0.053727906 -0.6270764 0.01895881 -0.39470616 -0.2893717 0.23900716 -0.15415347 -0.12501818 0.10663585 -0.09919803 0.1564955 0.18368724 0.06629701 0.21417788 -0.46782172 -0.23193395 0.19454543 0.14595808 0.12974675 -0.093497954 0.4636741 -0.37955174 0.054527212 -0.23741224 -0.023324754 0.108529784 0.1387715 0.08956871 0.11301341 -0.09058343 -0.3017882 -0.3172106 -0.024805302 0.14581124 0.10041544 0.1573776 -0.520012 0.2628345 0.24757122 -0.07360711 0.30916715 -0.14213502 -0.23809293 0.33791345 0.24701248 -0.2851891 0.1983481 0.2795854 -0.11172491 0.011967822 -0.1663597 0.31843844 0.20285268 0.03726483 -0.16336371 0.12514703 -0.28956258 -0.1551078 -0.47556248 -0.27274114 -0.014918475 -0.17487958 -0.63319737 -0.0513567 0.480709 0.40222022 0.070852034 -0.2640144 0.043079425 0.16752966 -0.085701086 0.37899834 -0.20199323 0.2622471 -0.03118352 -0.48634872 -0.1405738 0.08427968 0.013791694 -0.053265054 0.12090154 -0.021813463 -0.06261925 0.26978818 0.19809908 -0.31497982 0.42412546 0.03192263 -0.07089887
165 -0.20269708 -0.33376312 -0.04111055 0.36207488 0.020684877 0.49866167 -0.051589295 -0.08253094 0.19153896 0.31121683 0.056197174 -0.23780428 -0.2094164 -0.40577546 -0.0799382 0.05742743 0.23553431 -0.28655773 -0.5702281 -0.13009655 -0.16917019 0.32592902 0.25398543 -0.5079733 -0.35043803 0.05022379 -0.21472834 0.21460617 -0.004983362 0.20833416 -0.025542965 0.19196247 0.1963203 0.0558336 0.17736292 0.4312564 0.3233792 -0.21271537 0.16945033 0.256938 -0.24954548 0.31348822 -0.23827033 -0.17321406 0.05607626 -0.21290475 -0.05738312 -0.26478207 -0.026315972 -0.16500996 0.31502384 0.19212458 0.45944 -0.065040715 -0.3294557 -0.36963555 0.005281665 0.020646527 -0.12040837 0.083011314 -0.3581211 -0.03507681 0.2278399 0.031562805 0.07793621 0.35127166 -0.15235242 0.0032148424 -0.09152516 -0.2778342 -0.085189335 -0.1677931 -0.27284333 -0.07751113 0.37313288 -0.048511855 -0.08305899 0.34633684 0.20748463 0.2643529 -0.08145392 -0.39146584 0.43586233 0.48844835 0.39751554 0.33009046 -0.08531314 -0.05864906 0.33243015 0.12754287 0.19375768 0.11484663 0.51691973 -0.041962486 0.31456313 0.17908786 -0.2847227 -0.60186034 0.06530339 -0.0854516 -0.1241831 -0.16190985 -0.22104566 -0.07176956 -0.17168617 0.024193244 0.005020371 -0.29210258 0.104934454 0.105428584 0.17706531 -0.17677109 0.24496296 -0.2583817 -0.5130306 0.11971188 0.2003021 -0.09954577 0.32152376 -0.010169082 0.04469183 0.13250849 0.19870248 0.09958143 -0.28350857 -0.0981168 0.07440291 0.09803353
232 -0.06430792 -0.3603394 -0.29228637 0.20694284 0.21973556 0.56747013 0.08001056 -0.23044719 0.31690133 0.21509287 0.2951486 -0.026108677 -0.0016446772 -0.12689188 -0.013146552 0.116172865 -0.0030988385 -0.22455454 -0.34988505 0.24667583 0.19551954 0.27488676 0.0037978124 -0.31646883 -0.6084859 0.08297346 -0.18059109 0.17347477 -0.28910866 -0.07715806 0.086233154 -0.3521692 -0.23288293 0.2882148 0.15785734 0.34467727 0.2082295 -0.14367053 0.21956754 -0.08555387 -0.22549114 0.1383193 -0.23052986 -0.08744927 0.06392677 -0.14586404 -0.21007454 0.2935761 -0.057836454 0.0037632955 0.06850479 0.23380744 0.3914243 -0.21064143 -0.51102597 0.41049954 0.31568703 0.17270927 0.23119387 0.12977006 -0.18148735 0.0697097 -0.18505313 0.015365942 0.12532511 -0.2738814 0.043294784 -0.13519055 0.46947396 -0.1914453 -0.3887936 -0.10748431 -0.09513276 -0.5379565 0.32722226 -0.087748915 0.21676357 0.3763344 0.11377156 0.15677662 -0.05709936 -0.084326036 0.20253977 0.47797614 0.22775768 0.4977522 0.20235893 -0.17345959 -0.052846316 -0.3211876 0.19458084 -0.012019624 -0.2759993 -0.1351659 -0.013948273 -0.011362142 0.043197207 -0.20245166 0.24645934 -0.26022983 -0.54861104 -0.27507898 0.24677032 0.34496528 -0.06159745 0.1592514 -0.21957666 0.1280467 0.115837716 0.3136516 0.355311 -0.18971859 -0.101283744 -0.089007534 -0.44584957 -0.08171029 -0.091301784 -0.6125149 -0.13269179 0.04188321 -0.43289134 0.1988216 0.21503353 -0.19933255 -0.07788497 -0.1266665 -0.2751422 -0.26750982
249 -0.002579494 -0.10372904 0.16482317 0.22265802 0.17839918 0.13546777 -0.12897637 -0.11273471 0.050758954 0.05203654 0.19318075 0.1450728 -0.07417563 -0.24867988 0.090655215 0.24379085 -0.18562452 -0.18250929 -0.1295246 0.39126062 -0.0042229984 0.018664893 0.13201882 -0.42506406 -0.34832495 -0.01309193 -0.15086786 0.1377412 -0.2283019 0.04960122 0.049848862 0.06956366 -0.1728766 -0.018314963 0.11677691 0.24391393 -0.0014335674 -0.18634257 0.03294969 0.20351475 -0.13905126 0.042705063 0.044795405 -0.061757248 0.4305721 0.0195478 -0.08880887 -0.08371461 -0.08724198 0.11290474 0.11994385 0.16644125 -0.23165543 -0.1637623 -0.010343283 0.07659879 0.2878519 0.0067592426 0.0652876 0.44533086 -0.2742206 -0.0640173 0.21126974 0.1934065 0.17523935 0.22710125 0.16913724 0.19674739 0.14514884 -0.17743032 -0.12584977 -0.16431749 -0.48492542 -0.071089946 0.19696277 -0.41930646 0.002541464 -0.07766516 -0.0017018784 0.16725527 -0.15876256 -0.44288146 0.16209932 0.352857 0.19685246 0.27945262 0.5288725 0.084876336 0.108467706 -0.13115516 0.018386407 -0.14996725 0.13613321 -0.18145303 -0.058554538 0.20832518 -0.14065692 -0.3835601 -0.5095778 0.097576395 -0.28543556 -0.1686692 -0.0038964264 -0.06201933 0.087879844 0.018660795 0.039681643 0.06864053 0.07870056 -0.15470004 0.1914421 0.11452765 0.35812086 0.10737187 -0.3655476 -0.042965304 -0.046094533 0.06768317 0.1208396 0.052933834 0.0022743577 0.11781388 -0.029987773 0.21124558 -0.02313056 0.18515924 0.07661347 0.23547406
366 -0.09421307 -0.1629083 0.13880476 0.24123742 -0.09099849 0.084988154 -0.17106906 0.041573294 0.1506922 0.26408857 0.013528813 0.24712715 -0.01802051 -0.22002119 -0.11287675 0.15508887 -0.15047961 -0.018380549 -0.1523769 0.2710574 0.07115599 -0.116707355 0.1468282 -0.17010099 -0.35518643 0.16869038 -0.48494717 0.11456048 -0.19809791 0.020436725 -0.050389644 -0.092734225 0.11029518 0.03252152 0.28416607 0.1540709 0.10202788 -0.085955106 0.24742493 0.42360952 -0.39779 0.11927964 -0.15681954 -0.23818372 0.3725338 -0.23437981 -0.16599777 0.18395881 -0.25375116 0.0475293 0.037794605 -0.13858145 -0.082505815 -0.037285805 0.019651836 -0.13059323 0.018282516 -0.029046386 0.05991085 0.45740923 -0.15626946 0.17555827 0.12926465 0.24387619 0.04136793 0.22402383 -0.16007604 0.27021402 -0.07662822 0.08693813 -0.39956084 -0.23237352 -0.120988175 -0.13936397 0.15681961 -0.43554682 -0.016816353 0.34247684 0.07778115 -0.043675996 -0.13235386 -0.08630928 0.35590348 0.2954993 0.11051381 0.15859956 -0.0029196774 -0.16418834 0.13530289 0.082488164 0.17098694 -0.011386718 0.22987507 -0.14832619 -0.064234816 -0.0031724446 -0.1336972 -0.56283003 -0.030177506 0.18286577 -0.032648943 -0.0132309 0.051529128 0.10455271 0.08897248 0.017061569 -0.32627282 0.2745753 0.1034513 -0.20744383 0.10914859 -0.15365699 0.32732093 0.10808176 -0.24168238 -0.1444676 0.1359147 0.19456968 0.06261581 -0.032813337 0.022394288 -0.12866901 -0.007609947 0.09924696 -0.1712247 0.19469033 0.056788467 -0.028343238
533 0.029161736 0.035017114 -0.14223896 0.33639675 0.2051403 0.17380986 0.03025391 -0.13846208 0.28691494 0.18882021 0.14002374 -0.116431974 -0.011163953 -0.37691435 -0.023003502 0.2017085 -0.20765781 -0.1032569 -0.08035697 0.09428472 -0.062580414 -0.0144643495 0.08630061 -0.47799677 -0.26460257 -0.08233546 -0.17760329 0.32693604 -0.24728219 -0.034314737 -0.023702905 -0.077834174 0.0033856812 0.04687615 0.11769949 0.04230062 -0.067972705 0.056648247 -0.0011983244 0.25995585 0.015887829 0.17388749 -0.43764845 0.05050654 0.33907795 -0.017154375 -0.13803843 -0.07577135 0.19853653 0.065084785 0.1856106 0.17824785 0.077901214 0.029276246 0.17522623 0.14530952 0.17883158 0.30126962 0.10687466 0.25184223 -0.19275643 0.19390213 0.001264499 0.106718354 0.077985264 -0.015870987 0.14622264 0.0049676993 0.06602164 0.14357552 -0.06302288 -0.16388181 0.069006845 -0.24039218 0.20688936 -0.1490499 0.0910399 0.172391 0.06344624 0.22469957 0.079562195 -0.30663425 0.10754935 0.26886907 0.29073712 -0.020289471 0.06410303 -0.18656576 0.22496547 -0.10450469 -0.05349642 -0.12780628 0.18140286 0.015026635 -0.16091865 0.094996594 -0.21315803 -0.0543706 -0.086897224 -0.20585807 -0.1687788 -0.15838827 -0.040513474 0.05374509 -0.10387603 0.08008625 -0.09868261 0.15385036 -0.033287734 0.18690592 -0.051169638 -0.04552904 0.13373813 -0.111052334 -0.37508973 0.119995706 -0.01380097 0.06254579 -0.091103956 -0.0007333442 -0.1420725 0.16683984 0.03807638 0.11540567 0.12083141 -0.018702755 -0.08002493 0.19959144
169 -0.060321663 -0.22634688 -0.082998075 0.1473337 0.013957748 0.21427834 -0.20058289 -0.16901274 0.054096296 0.25580236 0.19685982 -0.1816171 -0.2699397 -0.13627249 0.02714877 -0.066922195 -0.075776905 -0.07667893 -0.095294654 0.14900519 -0.35051617 0.38363543 -0.064244635 -0.42151377 -0.38823944 0.12047259 -0.2861015 0.08417845 -0.11166227 0.04832169 0.060560163 -0.010290977 0.016418975 -0.1494969 0.32282633 0.20771882 0.14333524 -0.17833427 -0.11668538 0.23669676 -0.31891218 0.13874993 -0.20883931 -0.07297044 0.22295445 0.009158529 -0.09583421 -0.27184004 0.011444395 0.02425853 0.3653285 0.38063893 0.13666415 0.020453667 -0.11427016 -0.14498265 -0.06054162 0.09127602 -0.27219307 0.12339897 -0.3679631 0.105655625 0.21053526 -0.09728448 0.36969775 0.21639813 0.17080224 0.10633612 -0.20826595 -0.16460884 0.019505117 -0.08343849 -0.019793537 -0.22361206 0.1538153 -0.11600724 -0.38668126 0.21979122 0.12725067 0.39381254 -0.12514454 -0.26445466 0.1676942 0.4297945 0.082682 0.0929318 0.08587598 -0.18249932 0.19905442 0.35300007 0.02200876 0.13388963 0.49950925 0.0024851449 0.4158243 -0.06528126 -0.23868257 -0.5674776 -0.2581014 -0.1697389 0.050917704 -0.21930915 -0.24628551 0.02350497 0.35848954 -0.06418627 0.070235774 -0.09489999 0.244347 0.16127293 0.002558585 -0.2958552 0.17079082 0.05810802 -0.48343045 0.16902174 0.21823147 0.047648806 0.15000528 0.21810867 0.02680068 -0.012026158 0.13511235 0.036220502 -0.26901382 0.02762403 -0.0010427948 0.11521727
290 -0.09622064 -0.65102583 0.01177922 0.23433167 0.38697308 0.12235004 -0.3115986 -0.11271895 0.27017796 -0.22614585 -0.022843828 0.0052977824 -0.16710089 -0.33458823 0.16898428 0.3330431 -0.015570015 0.15574472 0.09745988 0.49564615 0.35396442 0.3573394 0.045475733 -0.24219698 -0.5418496 0.18845826 -0.038594477 0.051313058 0.06959932 -0.06754806 -0.00321807 -0.14631593 -0.09097983 0.041273624 0.30516016 0.53835714 -0.015773889 -0.06987834 0.09300712 -0.018935569 -0.23454161 0.05929216 0.19956493 0.24830952 0.16224039 0.16842718 0.14280444 -0.046995435 -0.26856723 -0.26312205 -0.21048321 0.124498114 0.5990556 0.4126804 -0.11816664 -0.2586926 0.18368702 -0.19533387 -0.0628308 -0.0585612 -0.13187636 -0.1801345 0.23076504 0.19395311 0.29606083 -0.12741308 0.47587976 -0.09294871 0.023881681 0.18956482 -0.30163687 -0.105584994 -0.36192942 -0.3565527 0.096791066 -0.37426448 0.0063102297 0.44789082 0.20576528 0.016939946 -0.46995926 -0.3886181 -0.008408746 0.17823772 0.56516373 0.19757682 0.38250124 -0.07857866 0.20100003 0.023551084 0.06829641 -0.16088296 0.36435634 0.3691269 0.39445198 -0.24947132 -0.047705986 -0.6718025 -0.29461253 0.27610856 -0.072217554 -0.018571593 -0.09807998 -0.072045594 0.12019714 0.073906034 -0.02482899 0.3441523 0.15016301 -0.3027973 0.097309515 -0.18631674 0.38685277 -0.040033307 -0.17042772 0.035200737 0.048954252 -0.097514056 0.42438173 -0.22753502 -0.10016459 -0.22057845 0.4726188 0.096821345 -0.57542413 -0.50623447 -0.57609886 0.33609062
459 -0.3936991 0.18953423 0.06403793 0.26019916 0.24286857 0.21813376 -0.28564003 0.051398937 0.36904594 0.23011027 0.045942865 0.19651635 0.2579974 -0.31004417 -0.06904683 0.051999185 -0.35716304 -0.20356973 -0.5037269 0.19445579 -0.20503603 -0.19812097 0.24121034 -0.35658798 -0.312954 0.035426997 -0.3174411 0.097398475 -0.35987633 0.21447636 0.13737987 0.09049661 -0.1331996 0.04363559 0.33416933 0.2520302 -0.29680923 -0.26968983 0.4458377 0.25757876 -0.49154824 0.10437401 -0.44407138 -0.3991242 0.21422468 -0.2631851 -0.008716104 -0.05425324 -0.1958879 0.3647482 0.129397 0.04979676 0.06785161 -0.35812593 -0.09519598 -0.08515663 0.284088 0.19531184 0.28742835 0.3093726 -0.4066568 0.16755489 0.033299718 0.34600562 -0.05513944 0.42565575 0.29919034 0.40817645 -0.06272615 -0.05038941 -0.47805935 -0.010852345 0.16449052 0.037734963 0.31004307 -0.5383274 0.23471458 0.33793813 0.038159758 0.1466725 -0.02865957 -0.44423535 0.15102497 0.47017077 -0.021629944 0.04539999 0.2867768 -0.109947994 0.23961511 -0.1345076 0.35784116 -0.31839946 0.24078105 -0.229706 -0.11279924 -0.26030147 -0.52694625 -0.41950998 -0.14729844 -0.23211496 -0.1692594 -0.35674775 -0.06784958 0.113928266 -0.121109284 0.04240957 -0.1271099 0.052260958 -0.016868085 -0.19844127 0.32058004 0.038342305 0.20850979 0.0060445624 -0.3377918 -0.026881203 -0.1633322 0.14587186 0.1089842 0.18209542 -0.081735775 0.02455372 0.20998038 0.26593778 -0.05942711 0.20310755 -0.08124805 0.078335576
329 -0.20876606 -0.27949277 0.10489157 0.3717603 -0.017322617 0.3197682 -0.19114849 0.08765987 -0.13185759 -0.062904276 0.26747876 -0.13617294 0.1630449 -0.30108666 0.15085362 0.43824956 -0.024260122 -0.024647934 -0.22009107 0.1829805 -0.15110536 0.35323942 -0.09691175 -0.48960888 -0.29310998 0.1856362 -0.29864907 -0.39476746 -0.2528609 0.1260791 0.19935732 0.34838665 -0.054585315 -0.2491805 0.38994402 0.5489859 0.045639377 -0.061932135 0.032207344 0.1630611 -0.33262175 0.24275644 0.17285433 -0.052276146 0.36027667 0.00530978 -0.1152092 -0.3238339 -0.20707485 0.09983062 0.12965205 0.5010071 0.08990318 -0.12335466 -0.13399775 -0.10111383 0.021103902 0.29588258 0.19349751 0.03456436 -0.33168417 -0.091781914 0.47072056 0.2736071 0.36145756 0.42714208 0.541747 0.096673 0.0008460547 0.0023313519 -0.16763248 -0.13119487 -0.32108998 -0.20116527 0.14648193 -0.40674293 -0.16588317 0.09636666 0.20401092 0.13051693 -0.233162 -0.6714513 -0.16864634 0.563738 0.42528877 0.11182647 0.37773308 0.11915694 0.317705 0.08518035 0.10454317 -0.41978696 0.4176533 0.095286176 0.3813561 -0.21570331 -0.23710227 -0.44448277 -0.4545256 -0.23202795 0.1070423 -0.20460787 0.019169835 0.10032774 0.3286451 -0.023087444 0.07314465 0.08911196 -0.15966697 -0.08331667 0.08484214 -0.1790862 0.2960895 0.13846722 -0.16851917 -0.04315647 -0.15495533 0.080460764 0.18851906 0.25819728 -0.055128094 -0.18222013 0.14955442 0.22615258 -0.3726237 0.31516883 0.05176935 0.09073719
473 -0.0887921 0.05133129 0.01798665 0.43692312 -0.026902331 0.3447269 -0.3932905 -0.16664469 0.22745341 -0.017940443 -0.24866068 -0.08637845 -0.0074513764 -0.32471117 -0.14444834 0.18575205 -0.23070109 0.030757178 -0.1790227 -0.1047896 0.09440273 0.15674384 0.14203803 -0.44773862 -0.4979724 -0.10000505 -0.2656252 -0.03867716 -0.0072040143 -0.20790258 -0.017634233 -0.10344181 0.14307697 0.14563288 0.23507828 0.14278543 0.011041448 -0.19540538 0.27795672 0.46930557 -0.13532439 0.15343681 -0.2994737 -0.21034476 0.12508583 0.07390045 -0.2165899 -0.16340028 -0.05640028 0.22536133 0.23208918 0.17747962 0.119419485 0.012169956 -0.093548074 0.12797356 0.20073679 0.059488174 0.03717377 0.083160095 -0.005598349 0.10299556 0.11714355 0.29555842 0.0642043 0.17889233 0.2592798 0.12509695 0.23271486 -0.14536151 -0.1787992 0.011891057 -0.21431108 -0.04993803 0.16145757 -0.15378217 -0.13078287 0.3190879 0.03185752 0.2332348 0.020113613 -0.28421614 0.25120312 0.24840258 0.32344034 -0.07310499 0.06469064 -0.060295276 0.16265951 -0.084119685 0.028825019 -0.06284686 0.0799192 0.038523566 0.22402993 -0.09593605 -0.29790488 -0.1586536 -0.27307117 -0.19427344 0.04443019 0.12440075 -0.06824072 0.22633296 -0.23799635 -0.2262912 -0.05280392 0.06016664 -0.0018188731 -0.1033916 0.25261405 -0.14718361 0.25365502 0.13807906 -0.20206772 0.08551404 0.09310042 0.1630701 0.028179744 0.077762805 -0.20293058 0.02734323 0.26575312 0.30005997 -0.18704516 -0.01285389 -0.19306743 -0.010984622
58 0.2614375 -0.027724087 0.16445814 0.25210142 0.13954477 0.14951421 -0.2207762 -0.3955817 0.108511746 0.3130094 0.16316387 0.23876758 -0.10638335 0.0068341694 0.11765331 0.16592519 -0.46084055 0.033919748 -0.11400827 0.25214544 -0.14629331 0.0027646478 -0.013433161 -0.5492643 -0.4796327 0.31864834 -0.17639662 -0.020650977 -0.085410155 -0.040700227 -0.0018485977 0.10699359 0.015349458 -0.033262912 0.337548 0.063702144 0.01907433 0.004987652 -0.45138416 0.43916816 -0.19557644 0.2792668 -0.22649385 -0.013154078 0.578705 0.07305825 -0.3573066 0.27088872 -0.010150931 0.09286628 0.4367437 0.11392555 -0.1665106 -0.022360288 0.20220624 0.19064565 0.0947937 0.19588056 -0.31094566 0.43446413 -0.016748616 0.010025784 0.23146571 0.31593275 0.02826571 0.1227713 -0.08847692 -0.0711635 -0.2555098 -0.06610695 0.003909365 -0.2830258 -0.05653371 -0.026488254 0.32487676 -0.22036497 -0.20534562 0.2323971 -0.05102979 0.28179917 -0.10596126 -0.18988818 0.18725687 0.062400814 0.16025482 0.02664388 0.22407013 -0.2014103 0.12112583 0.124523476 -0.34099272 0.16142398 0.22720912 0.035503168 0.16240236 0.15584697 -0.021831568 -0.25990367 -0.6176587 0.15580973 -0.13264751 -0.071566835 0.2685448 0.15568785 0.04964106 -0.2997034 -0.0534594 0.28502437 0.1743346 0.18578763 0.14703794 -0.26746765 0.24787818 0.13385387 -0.38944736 -0.025196398 0.03546753 0.10890164 -0.14006275 0.085249536 0.21229611 0.13013834 -0.005571826 0.07490711 -0.3843186 0.30572566 -0.22031517 0.25950193
546 0.07884373 -0.08538675 0.115483515 0.29007748 0.3342366 0.14854652 -0.28882566 0.039091527 0.3959858 0.23514481 -0.14191413 -0.0420301 -0.26104912 -0.26821113 -0.045963764 0.37827235 -0.3210728 -0.083129875 -0.14505774 0.3943498 0.21204266 0.23428062 0.16760363 -0.14493279 -0.59065515 -0.014531324 -0.2561499 0.086941876 -0.018765267 -0.08015988 -0.16921246 -0.109230995 -0.14827235 0.036117263 0.07235072 0.27834874 0.04251359 0.0028319852 -0.13925645 0.26313797 -0.2572402 0.14757586 -0.22782055 0.06172593 0.11296686 -0.012158093 0.07584498 0.18973961 -0.2828893 -0.05725006 -0.030340094 0.17469981 0.0023925607 0.07315163 0.114266604 0.18968931 0.08295777 -0.19866253 -0.13607393 0.37337583 -0.11270361 0.0674522 0.13506736 0.28988728 0.047349487 0.040779904 0.010703019 0.078159854 0.024950294 -0.14448456 -0.17849724 -0.072975636 -0.455047 -0.13085164 0.07683948 -0.31858632 -0.065290116 0.3060825 -0.077802934 0.19392763 0.0037739135 -0.068845265 0.30062687 0.14815858 0.044832036 0.14815046 0.11313687 -0.02002874 0.13595286 -0.14728604 -0.12259322 -0.18805516 0.08354004 0.054315053 0.15217651 0.31335884 -0.14729472 -0.49001965 -0.572806 0.25309452 -0.34147933 0.27507845 -0.017297555 -0.1396182 -0.051364258 -0.28472748 0.078140594 0.2738659 0.098777 -0.2773134 0.25330952 -0.27504122 0.22196937 0.14156193 -0.2611885 -0.045304757 0.06408364 -0.035241466 0.16440026 -0.2168153 -0.078720845 0.0069079637 0.075759515 0.11876313 -0.1135773 0.030032342 -0.2940455 0.26570708
184 0.066587485 0.044238072 0.20982128 0.43125248 0.13845173 0.2417593 -0.57771015 -0.30329028 0.12380456 -0.123128936 -0.32802957 0.10522746 0.16919091 -0.30825028 -0.005949406 0.4919561 -0.28777832 0.4185746 -0.24525782 0.29769558 0.18071906 -0.029838411 0.0071527036 -0.8838652 -0.5676252 -0.114405856 0.053496152 -0.32840917 0.05673582 -0.14585462 0.112545975 0.03133315 0.054278385 0.15413782 0.18025272 0.4427434 -0.1823572 -0.09953584 -0.0037721302 0.6449215 -0.08978399 0.107363805 -0.45913443 -0.35700357 0.18160908 0.22097397 -0.4871171 -0.11660544 -0.25833023 0.2434882 0.24174556 0.22012131 0.40701085 0.08815821 -0.09890843 0.22423126 0.30431128 0.08600016 -0.021871801 0.42350796 0.24649253 0.0002514121 0.199834 0.25659412 0.058818564 0.20935042 0.3212268 -0.1840686 0.24993038 0.025414107 0.04630288 0.12333835 -0.05290468 0.20213714 0.33822042 -0.20826107 -0.15560819 0.39384213 0.19761635 0.36698458 -0.06692248 -0.38001123 0.023015702 0.20330508 0.4817458 -0.12989967 0.26067758 0.26812133 0.2808861 -0.14626396 0.1072581 0.073360555 0.28690356 0.10482184 0.08196248 -0.0699629 -0.45480457 -0.11148123 -0.37721902 0.03206533 -0.21440601 0.28647256 0.116156064 0.23224036 -0.274505 -0.12892325 -0.034124 0.01599105 -0.062367316 -0.21968085 0.20766634 -0.061467707 0.51762927 0.053914808 -0.1891026 0.08717841 -0.033420127 0.1986509 0.20228168 0.044852197 0.08078724 0.04770114 0.41805154 0.34817794 -0.31561786 -0.16937253 -0.3925606 0.26306266
212 0.055198662 -0.048453115 0.2254432 0.1605328 0.115234606 0.14160536 -0.22092414 -0.008266482 0.08151312 0.17194164 0.16058218 0.18440065 -0.1710663 -0.13889085 -0.011311077 0.4037808 -0.12461595 -0.05451092 -0.19829376 0.19014144 0.061387684 0.081278026 0.12729952 -0.40344968 -0.41825342 0.055908542 -0.35435513 -0.031642105 -0.11811484 -0.10011784 0.014186028 0.092300355 -0.06807144 0.004108654 0.2260043 0.31372127 0.1330474 -0.114569604 -0.18707773 0.26180303 -0.25025958 0.32558918 -0.06480707 -0.17880604 0.29794493 -0.056493644 -0.007423486 0.2249638 -0.22648425 0.03055698 0.1730496 0.23775637 -0.10139725 -0.029046308 0.10884439 -0.029180411 0.18550962 -0.21801797 -0.16033083 0.28542846 -0.04136767 0.026101926 0.060513526 0.12761462 0.20254147 0.238174 -0.063238546 0.20656903 0.07105367 -0.08077973 -0.22799794 -0.23840214 -0.4943767 -0.047975965 0.23685005 -0.2078843 0.051092666 0.08629324 -0.058036815 0.08152345 -0.20424223 -0.30195767 0.30771458 0.2500984 0.15420705 0.049349606 0.23876917 0.057194334 0.08553169 0.068270445 0.027241463 -0.09155284 0.18069607 -0.044751022 0.09633557 0.22845717 -0.11295059 -0.3190989 -0.4139975 0.15115346 -0.38031375 0.16081488 -0.08595187 -0.08360284 0.12621613 -0.20267887 -0.02700288 -0.04062145 0.21792206 -0.28739518 0.18368089 -0.023692198 0.3386164 0.09186 -0.21569361 0.067767106 0.042815756 0.07910157 0.26381332 0.12108021 0.066646 0.054955106 0.023798529 0.3177486 -0.4008024 0.13359979 -0.08492659 0.33970937
11 0.061862543 -0.10355466 -0.09482027 0.45796856 0.29288834 0.528709 -0.23463257 -0.044562306 0.25367883 -0.045642473 -0.06540934 0.24247526 0.29043984 -0.568928 0.23168288 0.016163075 -0.14745866 0.14506239 -0.2846907 0.01521899 -0.0685117 0.09314251 0.1402546 -0.4347646 -0.25376648 -0.23956941 0.2141966 0.10982805 -0.31192958 -0.010974588 0.121728495 0.46546072 -0.12018085 0.057812374 -0.02698194 0.4206387 0.34814027 0.0077227815 0.63305575 0.1768213 0.042497907 -0.027833942 -0.29067138 -0.081127174 0.18351911 -0.14999534 -0.2400413 -0.19903417 0.16923074 0.15993115 0.035489824 0.017954279 -0.07445551 -0.12792614 -0.33241832 0.123818375 0.46570185 0.30544034 0.5179361 0.35693058 -0.31586546 0.06140175 -0.105392545 0.42918602 -0.03720918 0.0054365085 -0.033274125 0.18549725 0.33039525 -0.21829598 -0.17869923 0.0639381 -0.19845028 -0.17796437 0.32044217 -0.3036597 0.09888751 0.18293731 0.18907304 0.20434363 0.31411183 -0.3993347 0.048651718 0.5259098 0.3872235 0.66974086 0.31252196 -0.12787493 0.5771511 -0.33796695 -0.007844147 -0.3380437 0.360203 -0.0014378988 -0.106097914 0.12583254 -0.49890342 -0.13853227 0.076382235 -0.13891588 -0.28703168 -0.15775079 0.107541665 0.05496177 -0.02994488 -0.071671896 0.028164838 0.13289303 -0.11212371 0.10036527 0.039960533 0.04190309 0.041589677 -0.0065324386 -0.27480778 0.15271148 -0.09429383 -0.1871206 0.049692657 0.06177041 -0.36380407 0.3080017 -0.11515275 0.1546565 -0.05550158 0.20860368 -0.17750856 -0.06423902
170 -0.075719416 -0.36404842 -0.070190854 0.29975653 -0.14359808 0.3814809 -0.14116786 -0.22468992 0.39708993 0.27900586 0.15707019 -0.026790487 -0.25217637 -0.3134881 -0.06180796 0.0014626435 -0.0006795563 -0.16259573 -0.2013345 -0.10781357 -0.22415158 0.15265784 0.056917645 -0.44046992 -0.3933307 -0.026782535 -0.20529431 0.35662952 -0.077510715 0.047104295 0.23194923 -0.039006162 0.22299811 -0.032947585 0.51937294 0.17715098 0.062233664 -0.015667321 -0.029127674 0.2571734 -0.26895502 0.39877957 -0.4036492 -0.01594691 0.28857887 -0.13910815 -0.02134502 -0.06160174 -0.00086537946 0.046746593 0.21037756 0.23928572 0.4709996 0.06314488 -0.26181978 -0.25512356 -0.11383409 0.13614267 -0.35760406 0.22484048 -0.4204723 -0.109674014 0.20489055 0.008133178 0.18159631 0.23868361 -0.14410448 -0.17286827 -0.18957245 -0.04638185 0.03964623 -0.16876476 0.08544156 -0.1844441 0.33955467 -0.043022573 -0.14299095 0.4178689 0.2864177 0.42491284 -0.14193363 -0.34154186 0.32893208 0.34958977 0.2534184 -0.049217302 -0.011085239 -0.006228865 0.1370474 0.111458205 0.17973079 0.18664242 0.4431002 -0.06710533 0.3717854 0.07615951 -0.24201179 -0.5204755 -0.15369916 -0.28449115 -0.083630264 -0.34233376 -0.31207928 0.11401356 -0.08442436 -0.061068483 0.013331376 -0.21745491 0.23638695 0.18011229 -0.02168208 0.00058826176 0.27512315 -0.2727707 -0.6361864 0.16123629 0.11899202 -0.056365337 0.200297 0.074243434 0.047851596 0.091628216 0.37141758 0.04801411 -0.22460093 -0.07713506 0.029103428 0.2507028
20 0.24436605 0.22835341 0.3092345 0.16280912 0.2942422 0.09176078 -0.68989843 -0.09648952 0.24450508 0.013123419 -0.3767898 0.40099433 -0.18092991 -0.50902367 -0.015734203 -0.048966266 -0.21245937 0.24804348 -0.050403364 0.30223095 -0.36535522 -0.21076071 0.17499186 -0.46512368 -0.09095718 0.015418978 -0.17531623 -0.051640075 -0.03551774 0.06904602 0.26176643 0.13671182 0.12861401 0.09421031 0.030104846 0.019601487 0.09782496 -0.061075732 0.29486805 0.6926861 -0.13560872 0.10261617 -0.46223205 -0.29682463 0.5121506 0.010599829 -0.13625564 -0.109658845 -0.17297852 0.4278209 0.3064209 0.115512356 -0.013863954 0.07502435 -0.10505764 -0.026689455 0.33990324 0.4195141 0.16532363 0.52141696 -0.4825044 0.32875535 -0.0016685394 0.35929316 0.048553303 0.20746672 0.12690313 0.12996672 -0.09989286 0.07301074 -0.0040895655 -0.063323185 -0.08181014 0.07495673 0.017359275 -0.36254278 -0.23743731 0.5072169 -0.12867288 0.18583304 0.09655728 -0.5163793 0.24112119 0.22742857 0.18753394 0.20735843 0.073825985 -0.18339343 0.33393827 0.25444612 -0.06786692 -0.23943672 0.3436042 0.09720051 -0.046552606 -0.16248351 -0.50568694 -0.40835497 -0.037211344 0.033126283 -0.0069537465 -0.25259644 -0.28008056 0.1564037 0.09735037 -0.1942364 0.049084723 -0.13901013 -0.05613354 -0.115698665 -0.10793503 0.14851046 0.40571243 -0.20432052 -0.29795927 -0.11063264 0.05067191 0.10136945 0.22135922 0.13856076 -0.14221533 -0.26818296 0.21539538 0.1421717 -0.267352 0.37011865 -0.23402514 0.03209525
303 0.23606147 -0.07501575 0.06205237 0.45955518 -0.048703026 0.3515603 -0.1951355 -0.37291524 0.029884048 0.18446803 0.16971089 -0.14612499 -0.017065946 0.001943758 0.15769272 0.0114838835 -0.2344343 0.22902378 0.07331895 0.19166851 -0.22229475 0.24532032 -0.10584135 -0.65839094 -0.17765485 0.12744251 -0.048465095 0.1030057 0.026632395 0.12350873 0.08618676 0.22837783 0.10274671 -0.16469273 0.431393 0.35850152 0.32769957 0.06786399 -0.2188926 0.2667248 0.08997054 0.108893946 -0.2668235 0.15118426 0.38815734 -0.1251211 -0.24500586 -0.19001268 -0.09820536 0.07672821 0.49443552 0.121325105 0.10056173 0.13202435 -0.03047505 -0.079641044 -0.14795521 0.18059716 -0.3191504 0.18344794 -0.21576928 -0.23489805 0.39885733 0.42162156 -0.0050110966 0.26308608 0.12034986 0.17848516 -0.2823656 -0.0632809 0.012011374 -0.36327586 -0.19460928 -0.15742457 0.16267172 -0.12761049 -0.39266396 0.17218187 0.06072639 0.34316432 -0.17803006 -0.33045715 0.048618264 0.3118065 0.35671973 0.06359068 0.07802525 -0.322766 0.4807635 0.12004695 -0.31219175 -0.17492221 0.4305932 0.18751001 0.28770122 0.20157795 -0.068159305 -0.47200248 -0.52664906 0.034730658 -0.06435241 0.08924104 0.25562298 0.04294028 0.09758584 -0.13145642 0.37881172 0.37311667 0.18342589 0.17432314 -0.09416757 -0.3055363 0.22189279 0.19812945 -0.26553717 0.21065271 0.16121437 0.40434265 0.11256243 0.21254928 0.005698088 -0.11483727 -0.10199742 -0.048719317 -0.0027078553 0.11139693 -0.09293293 0.103750445
83 0.022277927 0.05164902 0.2180354 0.061930213 0.1751171 0.26508835 -0.25402576 -0.25349805 0.20650153 0.25541565 -0.019188983 0.10686686 -0.0149511 -0.11676444 -0.11990962 0.39868462 0.0069017387 0.009384443 -0.20988427 0.33521324 -0.06825231 -0.12164047 0.31011 -0.21512254 -0.493401 0.019919636 -0.24608068 -0.24152237 -0.13800333 -0.08032234 -0.09238938 -0.04368075 -0.109544866 -0.09959475 0.14644352 0.20781904 0.16731617 0.019739829 -0.084460944 0.34909597 -0.27179345 0.21488716 -0.26718444 -0.23838358 0.35069403 0.07924818 0.07484184 0.28059348 -0.17780122 0.23147316 0.28956133 0.16623601 0.029908562 -0.030925985 0.0038749052 0.025987064 0.24456772 -0.094944514 -0.054131553 0.23826507 -0.089708015 0.06892695 0.095916964 0.18800867 0.060868654 0.11639571 0.14606851 -0.067172684 -0.09320432 0.13660282 -0.25940257 -0.15362723 -0.35456735 -0.037856992 0.26089087 -0.19476922 -0.08034655 0.28596264 -0.09553915 0.16251726 0.02603646 -0.30218217 0.24688874 0.21736352 0.214039 0.06441129 0.104214735 -0.14897567 0.17976674 0.2107015 -0.07091185 -0.22480942 0.23442385 -0.009928709 0.111048296 0.18616746 -0.19605786 -0.33657777 -0.28540438 0.16263399 -0.20572871 0.19480264 -0.06470874 -0.07571267 0.025122559 -0.2657126 -0.008605959 0.07386076 0.04586919 -0.07661773 0.2142621 -0.19992977 0.24713014 0.16267478 -0.14018703 -0.08147922 -0.18232015 -0.06548422 0.18923569 0.121945344 0.06425691 -0.05041435 0.19705822 -0.002278699 -0.24399942 0.087934345 -0.23258877 0.16393831
141 0.028418425 -0.15561518 -0.20294079 0.48586413 0.3321918 0.48616785 -0.049040906 -0.27044633 0.3122557 0.12626047 -0.10822165 0.02954711 0.065475605 -0.43797797 0.03823954 -0.08297139 -0.1940135 0.05936603 -0.39465672 -0.09793713 0.06189 0.051261626 0.18456471 -0.6147826 -0.43626845 -0.26503053 0.05759021 0.35211846 -0.22639427 -0.023380851 -0.092187844 0.1785719 0.047533594 0.19396736 -0.07595049 0.24262358 0.4433973 -0.21331695 0.52026284 0.2274674 0.08746439 0.009004589 -0.26493222 -0.11307461 0.09481465 -0.15965421 -0.3332779 -0.13758366 0.23281048 0.11990884 0.06947363 -0.1542468 0.043766122 -0.049455293 -0.37007675 0.024595045 0.5167767 -0.003420231 0.27579173 0.27903917 -0.10575564 0.10844464 -0.16495912 0.29639834 -0.04650424 -0.03791596 -0.19898847 0.21816045 0.27517274 -0.4172236 -0.16650194 0.022548812 -0.28403068 -0.23062699 0.40700367 -0.15529102 0.07481674 0.10980933 0.11284503 0.15377066 0.26681602 -0.2899137 0.17582756 0.37628144 0.3870227 0.65814143 0.38409713 -0.31034046 0.36215332 -0.24600682 0.027799236 -0.13052753 0.2990246 -0.020417068 -0.14170918 0.33071414 -0.24701825 -0.35287583 0.14063054 0.0514298 -0.2879813 -0.047334928 0.20703948 -0.079651065 -0.2203627 0.055221956 -0.052794382 0.1520596 0.13291627 0.1732335 0.2562918 -0.071601756 0.0013951828 0.041605763 -0.30541536 0.24525884 -0.064884335 -0.15528066 0.0006947284 -0.1017025 -0.31217444 0.31066543 -0.020427257 0.07921999 0.053254027 -0.063069545 -0.22176483 -0.021849927
116 -0.12264764 -0.33707714 0.061612573 0.2668534 -0.016107606 0.3962302 -0.12275398 -0.15311837 0.23595749 0.29220864 -0.030767405 -0.09022758 -0.42421567 -0.31568965 -0.08772817 -0.15428749 0.17528166 -0.33280104 -0.47156468 0.12263737 -0.19765545 0.31296346 0.09370138 -0.4068131 -0.30557302 0.25111005 -0.34574696 0.24190556 0.09516919 0.15740564 -0.044466794 0.058229253 0.15593213 0.123626694 0.35021746 0.34007883 0.28429696 -0.17384624 0.0963611 0.34047768 -0.41273546 0.28178757 -0.32300282 -0.12977104 0.1710645 -0.29904374 -0.027109012 -0.082886204 -0.18722837 -0.1720796 0.43460935 0.36589366 0.5744857 -0.15333283 -0.25222042 -0.2953972 -0.18669048 0.13464358 -0.25495073 0.19541508 -0.518077 0.13804212 0.10927418 0.078444675 0.18954177 0.35293278 -0.13715178 -0.05800259 -0.081031255 -0.2127881 -0.14788757 -0.1525497 -0.17123853 -0.16534658 0.2728369 -0.11791923 -0.044874366 0.49191606 0.22995177 0.31077218 -0.14156684 -0.2220458 0.626631 0.45290473 0.18262048 0.24289282 -0.17053585 -0.084291875 0.36450884 0.20612043 0.17726247 0.2912207 0.32950276 -0.21263875 0.2685069 0.078508236 -0.19541039 -0.520584 0.2685257 -0.14497465 -0.11247604 -0.323269 -0.3210946 0.13419212 -0.106305435 0.101573125 -0.15961939 -0.31200886 0.13264094 0.21257767 0.12015612 -0.15310311 0.20021465 -0.29778433 -0.7666012 -0.042996455 0.294499 -0.22031562 0.26990566 -0.010899154 -0.08222335 -0.051748145 0.34671754 0.04828948 -0.4308158 -0.030987572 0.041013673 -0.034936994
63 0.1588199 -0.0796347 -0.15322536 0.46688214 -0.008163201 0.298754 -0.05671164 -0.3810895 0.120231204 0.14994122 0.24585094 -0.039396893 0.033044018 -0.1011042 0.235351 0.19254084 -0.48894835 -0.065536164 0.09598569 0.096038654 -0.07521916 0.14489272 -0.042562813 -0.6654959 -0.4454741 0.11040485 -0.105146736 0.06718035 -0.06487965 0.025729967 0.13463663 0.13020667 -0.0043859663 -0.15194514 0.45967188 0.07620951 0.15809317 0.05606794 -0.26747155 0.26644206 -0.15563382 0.17110136 -0.12047441 0.21935122 0.64007646 0.16741127 -0.3393079 0.0068658725 0.28892347 0.16567498 0.3360085 0.19084291 -0.1102721 0.14075674 0.19788739 0.09776607 0.084419936 0.19838181 -0.38095 0.19898461 0.005265723 -0.039262157 0.36619374 0.2641896 0.18173407 0.14272235 0.2303919 -0.009781522 -0.27210653 -0.04908046 0.039523415 -0.3240536 -0.093663245 -0.12639691 0.31014243 -0.2546839 -0.26240608 0.077385575 0.010630358 0.38843018 -0.17196257 -0.3160527 0.06384068 0.20394702 0.41680127 0.11353287 0.3020662 -0.19097611 0.30658233 0.016634654 -0.214706 0.07126485 0.3537093 -0.04705778 0.2536881 0.13145232 0.035603706 -0.35593507 -0.7593647 -0.02969167 0.0016258187 -0.060144138 0.2733696 0.34466332 0.07876145 -0.35622054 -0.0011998449 0.49172145 0.08391773 0.34147957 0.123890184 -0.26307532 0.26323962 0.2567651 -0.3409196 0.16225487 0.013719663 0.31074172 -0.0725716 0.05829582 0.031173212 0.17487842 -0.10449979 0.0593725 -0.2636843 0.09934262 -0.16568014 0.27041793
4 0.28896368 -0.108115435 0.027299855 0.26337045 0.14830177 0.22123381 -0.21295063 -0.5518637 0.22227143 0.23701136 0.24473119 0.17494053 -0.07546382 -0.061644044 0.18036099 -0.0075633577 -0.40339231 0.02773634 -0.0053836126 0.10982909 -0.100082956 0.17381592 0.09583111 -0.6785314 -0.56622136 0.26195166 -0.08556733 0.08205072 -0.10358915 -0.030564936 0.027591875 -0.037751004 0.26437965 -0.18599552 0.42201927 -0.003523477 0.16394335 -0.07321097 -0.364489 0.46867067 -0.08333573 0.27234566 -0.10339659 0.14898151 0.6643716 0.19843644 -0.35293373 0.015219005 0.25678903 0.16032282 0.21916467 -0.045260284 -0.122541465 0.12915611 0.09058272 0.12335463 0.2879544 0.12267223 -0.3491337 0.3438812 -0.047507208 0.06764958 0.22635493 0.14914921 0.08234175 -0.038161565 -0.13296722 0.0560238 -0.25876296 -0.059439678 0.028208664 -0.3026765 -0.028195623 -0.2348071 0.33205873 -0.10795314 -0.3705261 0.23119067 -0.041903358 0.19441263 -0.20889196 -0.35802397 0.101660214 0.08229852 0.3211355 0.09156862 0.37468213 -0.4000345 0.21247691 0.22211994 -0.2419151 0.15319996 0.3769293 0.12687293 0.31888375 0.20799896 0.053695314 -0.40953028 -0.6079995 0.13086425 -0.104357004 -0.18988304 0.17888096 0.15778768 0.16144529 -0.25984564 -0.008833284 0.39007294 0.1284732 0.25559816 0.08229866 -0.27630255 0.35698846 0.08381777 -0.33681518 0.037816413 0.0886215 0.18608218 -0.16792011 0.095112264 0.1285263 0.3361548 -0.11612889 0.00609117 -0.2523709 0.18386225 -0.20684065 0.37415564
269 0.28535846 -0.033114564 -0.058725353 0.22916503 0.034645747 -0.17840752 -0.30247328 -0.041914973 0.31176785 0.04234905 -0.034597393 0.0024560897 -0.16505766 -0.21675897 -0.11052325 0.34864753 -0.33871657 -0.11491157 0.1856392 0.23061362 -0.20566757 0.147951 0.1463428 -0.33037972 -0.31012788 -0.17269559 -0.43772677 0.2211453 0.07747353 -0.033148296 0.2511916 0.029340565 -0.025942577 0.09677112 0.41983086 0.20411891 0.2704397 0.28108138 0.003035674 0.26794997 -0.17552604 0.32358497 -0.4055596 0.11191692 0.5218962 -0.093568966 0.06574025 0.11822045 0.028593972 0.070539854 0.4583731 0.37200975 -0.2896628 0.3691654 0.4550004 -0.112720005 -0.09765914 -0.20253529 -0.25852624 0.16636805 -0.040373776 0.209351 0.17163551 0.28422174 0.161651 0.46101454 0.4769732 0.38717985 0.12631959 0.28505775 -0.43057647 -0.07873676 -0.3389213 -0.17192467 0.06886125 -0.26492336 0.1535056 0.26229134 -0.07969324 0.16244729 -0.35736433 -0.4228699 0.2792818 0.27174982 0.038540587 0.07010367 -0.18326311 -0.23514347 0.40251952 0.085700534 -0.15401731 -0.2994023 0.33389133 0.07721055 -0.05486768 0.14316705 -0.085209414 -0.5261923 -0.4063715 0.18420273 -0.25342897 0.0674574 -0.27155283 0.16750087 -0.15737006 -0.290919 0.21134716 0.4326152 -0.029684456 -0.14023015 -0.08051334 0.054424252 0.35605007 0.20424528 -0.5456929 0.34649932 0.022373848 0.19748652 0.34431863 -0.011360549 -0.23643121 -0.09390629 -0.05177095 0.11228897 -0.085562795 -0.22908376 -0.29452714 0.35179582
371 0.33152 -0.10291061 -0.06356613 0.39374033 0.20399965 0.065135896 0.1150415 -0.17994544 -0.055119887 0.04268153 0.20261768 -0.15490083 -0.2715664 -0.49705756 0.25800723 0.22909752 -0.38639736 -0.2544641 0.036679044 0.2843707 -0.096492596 0.054728594 -0.021566719 -0.881274 -0.1365062 -0.12452534 -0.23287614 0.4198362 0.17342441 0.13958056 0.36502042 0.17288616 -0.06200073 -0.09312897 0.067075394 0.1466621 0.015553696 -0.051679928 -0.06320029 0.22282092 0.016667102 0.17499514 -0.12277033 0.12513578 0.5750605 0.16046 -0.09561664 -0.52556735 0.17312407 0.06546351 0.38079557 0.2580808 -0.15119824 0.25179332 0.16385628 -0.05666144 0.39230222 0.112872094 -0.100303814 0.2583263 -0.23281321 -0.067024104 0.43395534 0.10948066 0.26163214 0.19704264 0.8211082 0.018293295 -0.08329589 -0.0641912 0.15060261 -0.12735565 -0.4873944 -0.09011066 -0.034883097 -0.2882458 -0.037011616 -0.25528705 -0.020832652 0.12309421 -0.15651247 -0.7177411 0.0033489233 0.42976096 0.25223267 0.24367015 0.5099086 -0.1908507 0.10713029 -0.035077788 -0.1430496 -0.1871546 0.2310824 -0.13793895 -0.10063337 0.061700515 -0.24924982 -0.719198 -0.5522103 0.3010143 -0.054749183 -0.45033073 -0.11245933 -0.008762172 -0.056516133 0.16038172 0.19370939 0.11776989 0.019457158 0.20217873 0.11064354 0.010800071 0.3975485 0.17915629 -0.44773313 0.026589114 0.0010195981 0.2890168 0.033337276 0.046380404 -0.062358774 -0.26477134 -0.20985073 -0.021391554 -0.03435899 -0.0002652019 0.19913523 0.26350477
