1005 32
160 -0.25125617 -0.44670916 0.13216093 -0.17012978 -0.29295373 -0.44621038 0.048117433 0.20922898 0.1069354 0.010981705 -0.2834386 -0.16886117 -0.1913005 -0.2122718 -0.06106044 0.015862832 -0.28419572 -0.22141367 -0.37914154 0.68958074 0.42956787 0.7450212 0.29666972 -0.28091398 0.54865324 0.41168693 -0.2758514 0.40850753 -0.3630815 -0.1736372 -0.26169187 0.044272285
86 0.2929583 -0.45219472 -0.042918026 0.2760496 -0.40685362 -0.021407096 -0.14248018 0.1997145 -0.4319561 -0.46566033 -0.1348337 -0.73224986 0.01772599 -0.13436319 -0.1331774 0.26199892 -0.6114054 -0.35846734 0.02479715 0.9503369 0.10251672 0.1651064 0.31026828 -0.16941066 1.012226 -0.6870055 -0.23569691 0.53203773 0.33742902 0.077317424 -0.19688281 -0.20741671
62 -0.18307753 -0.7777196 0.017675811 0.47976595 -0.24718758 -0.18333821 0.2516193 -0.046258785 -0.15156856 0.15796807 0.19635205 -0.26460022 0.3399492 -0.41771486 0.021334779 0.15723987 -0.2401173 0.20086776 -0.18663853 0.6531654 0.1818388 0.5287188 0.51357675 -0.033997975 0.49949178 0.2055804 -0.29742905 -0.022773668 -0.1136477 -0.17060001 0.1044118 0.36624935
1 -0.7618799 -1.4751393 0.09205852 0.67784864 -0.81643564 -0.2649905 0.3046837 0.70929635 0.5204124 -0.5538867 0.20720246 0.5275907 -0.284381 -1.1498381 -0.10863149 -0.7908945 -0.876847 1.05186 0.52244174 1.4710182 1.0400027 1.1743317 -0.16874509 0.1298411 0.9559569 -0.688006 1.1158049 -1.0887225 0.7934417 -0.15480241 -0.32617885 0.77948433
5 0.18928008 -0.35954785 0.71463674 -0.22610725 -0.33887467 0.3216061 -0.21283042 0.538118 -0.22956043 -0.110526234 0.91072893 0.49418828 0.36200136 0.36472663 -0.13919227 0.05964982 -0.5277205 -0.05564687 -0.39303213 0.87036633 0.6698976 0.5660413 0.17309438 -0.41666797 0.4699501 -0.07472536 -0.20262478 0.4765671 0.49448967 -0.08197683 0.8927843 0.40215212
107 0.19547823 -0.6057372 0.36005917 0.07204409 -0.58552045 -0.3433454 0.30527744 0.27291667 -0.39002803 -0.046876814 -0.059108336 -0.4802183 -0.11041746 -0.74994504 0.5225713 -0.04415254 -0.41629782 -0.12641193 -0.25781485 0.4561817 -0.1259551 0.53812784 0.5691815 -0.16820319 0.43205932 -0.013048272 -0.3423178 -0.5318747 -0.18863112 -0.56908077 -0.29582834 -0.027209358
64 -0.19813249 -0.76415116 0.22813092 -0.30919123 -0.100518405 -0.28676844 -0.4013633 0.04494385 -0.42404488 0.2842289 0.13239028 -0.0724516 0.17391646 -0.430913 0.3858824 -0.1642801 -0.23326057 0.27944946 -0.2773233 0.6849629 0.22865279 0.61198765 -0.056614093 -0.16763406 0.16728057 0.050616127 -0.27204862 -0.17335068 0.08620972 0.1669725 0.5931516 -0.35036507
121 -0.5275544 -0.43529853 0.43206728 0.22629349 -0.34320953 0.010919207 0.22331186 -0.010827193 -0.38929167 0.005624048 -0.022799453 -0.4610619 -0.0977426 -0.09312049 0.10128531 -0.13822688 -0.100486025 0.45428473 -0.007183071 0.89943284 0.004209975 0.25378263 0.16162132 -0.7057883 0.5333801 -0.35798 -0.33923504 0.21962982 -0.22760506 -0.18893409 -0.084794566 -0.011475505
129 -0.40366042 -0.49530432 0.28075123 -0.3656693 0.25242406 -0.43164703 0.70854914 0.2977148 -0.7132019 -0.20793602 -0.092117734 -0.61302775 -0.3098469 -0.2870105 -0.1852081 0.1489936 -0.0380261 -0.013109029 -0.25001675 0.7837422 0.64947826 -0.02466345 0.2313992 0.26992935 0.8621555 -0.3261156 -0.30200663 -0.20087712 0.20978403 -0.8486343 0.38040605 0.15251349
365 0.5946744 -0.8556583 -0.16630122 -0.15235385 0.40844786 -0.50117826 0.6298579 0.24242517 -0.11479011 -0.4196156 0.42819896 -0.9521462 -0.51639825 0.09095017 -0.19691436 0.19465826 0.48980612 0.53672224 0.12328914 1.146538 0.87462306 0.3140829 1.0278289 -0.29953602 1.1231526 -0.3392048 0.25873584 0.0402462 0.87405807 -0.39467227 -0.33434427 1.2418133
106 -0.6342911 -0.9262304 0.37151846 0.09056594 -1.1516271 0.30421975 0.77164435 0.3062699 -0.22715884 -0.59730947 0.15824883 -0.26700714 -0.26830825 -0.18390237 0.04557016 -0.07481317 -0.18262312 0.5087892 -0.27059028 0.8571021 0.728789 0.64557576 0.16657272 0.28150237 0.3117679 -0.20319396 -0.018492145 -0.3610031 -0.034183357 -0.20887673 -0.5145476 0.38360068
183 -0.44571158 -0.63386 0.22958156 0.05137569 0.14603943 0.30143538 0.3728613 0.10029793 -0.5602782 0.0359357 -0.0018732464 -0.51950806 -0.28665614 -0.29464775 -0.26288477 -0.07394338 -0.27142474 0.23890464 -0.48813245 0.8806206 0.61028296 0.10813792 0.26220083 0.17621493 0.5779075 0.16319065 -0.17031656 0.10983772 -0.2873517 -0.5402199 0.4705208 0.26605397
434 -0.42899165 -0.37841797 0.30119595 -0.11722463 -0.5281557 -0.13536368 0.3162106 -0.056020387 -0.23835486 0.09399749 0.28634426 -0.08796689 -0.13241822 -0.6126032 -0.074560024 -0.036246147 -0.27328202 0.7331492 0.19376597 0.5046371 0.399465 0.5699376 0.30995843 -0.010389554 0.81020534 0.022142682 -0.025896104 -0.15684852 -0.19405364 0.05157306 0.0851819 0.5187752
130 -0.06251174 -0.31449354 0.67229384 -0.5276108 -0.3940103 -1.4893469 0.80585617 1.5006095 -0.91640663 -0.059728805 0.034328498 0.24797443 -1.3123723 -0.388919 0.9649166 0.49537256 -0.37261185 -0.76969475 0.44024077 1.3093132 0.5783235 1.5756079 0.22633551 -0.08446847 1.6023942 -0.99269265 -0.72780967 0.66595626 1.2017758 -0.60766405 0.3782096 0.628573
301 0.55109435 -0.8583448 0.6272658 0.34020898 0.055432726 -0.27196905 0.6831755 0.24723266 -0.6283272 0.012115825 0.2707607 0.4657655 -0.16808975 -0.35702658 0.2645516 0.0026598733 -0.2764869 0.24296388 -0.21606258 0.9364476 -0.2470381 0.56141484 -0.092384785 -0.50464016 0.5581354 0.22032627 0.13583753 0.4215211 -0.39200017 0.33402076 -0.02469965 -0.5821194
21 -0.0315617 -0.72613007 0.45964634 0.37874624 -0.5610358 -0.075594276 0.74715495 0.19973396 -0.87484944 -0.54429084 0.00302973 -0.61774904 -0.28993252 -0.18682203 0.18180168 -0.33571747 0.09872383 -0.12229997 -0.79892474 0.94348764 -0.08337892 0.56931394 0.28696153 -0.10945195 0.34481195 -0.52219015 -0.14597337 -0.09941478 -0.39480478 -0.34282228 -0.40983087 0.015291658
128 -0.04991926 -1.0459121 0.58838767 -0.10918467 -0.20406622 -0.39598137 0.017641073 0.01900247 -0.5384728 -0.6918748 0.34985223 0.19457343 -0.47181815 -0.13685368 -0.17021911 0.12702967 -0.13332045 0.71658033 0.07555816 0.784421 0.098900035 0.27074304 0.30433658 0.43307996 0.663983 -0.20358342 -0.03687918 -0.49983245 0.08882241 -0.2755454 0.39867586 0.1507323
333 -0.10576053 -0.19564183 0.72929335 -0.31378976 -1.1072562 -0.40614998 0.3741632 -0.45020908 -0.10693627 0.14392407 -0.45954424 -0.3092035 0.29257584 -0.5490169 0.01019208 0.027402494 -0.44640663 -0.2888085 0.3922555 0.8638658 0.3132703 0.47035083 0.3145628 -0.7169675 0.8301421 -0.24878077 -0.022464229 -0.41352215 -0.5098262 0.40112323 0.42882526 0.8779206
820 -0.02287813 -0.4709403 0.451214 -0.0018270896 -0.29660332 -0.27477166 -0.1292418 -0.10673206 -0.5436927 -0.74115855 0.5705523 0.37432522 -0.34682596 -0.066253684 -0.07878237 0.23269881 -0.368393 0.9450018 0.63365656 0.8309137 0.3903681 0.371953 0.21004489 0.18323083 0.9274156 -0.38433507 -0.1926069 -0.16485073 -0.30049697 -0.19513369 0.57873803 0.11342475
44 0.19437385 -0.13601767 -0.19476463 -0.079662964 -0.59510446 -0.11170173 0.2597326 0.19162536 -0.10065256 0.039474983 0.049949195 -0.8751566 0.21947785 -0.27659157 0.41050622 0.14100218 -0.11168678 0.6435331 -0.40346155 1.1746722 0.19958529 -0.049648363 0.6708726 -0.037608992 1.4088553 0.34992132 0.46317247 0.41479334 -0.5111892 -0.48270512 -0.20503739 0.39317274
256 -0.37251168 -0.7315519 0.5297416 0.110344134 -0.45359203 -0.20443329 0.36324352 -0.19693053 -0.3542746 -0.4749581 0.07369716 -0.64067924 -0.31238896 -0.24429902 -0.050996877 0.06684479 0.07940304 0.52912354 0.07296041 0.59802186 0.13612081 0.16731875 0.70426637 -0.17570348 0.74983144 -0.0037358091 -0.68846226 -0.13725631 0.104833834 -0.21098542 0.21860649 0.60751086
211 -0.15494642 -0.55659294 0.677623 -0.31219453 -0.09625762 0.64781356 0.45248014 -0.29114556 0.11693685 -0.105495445 0.2802296 -0.8514086 0.03743837 -0.35087502 0.5438667 -0.05853053 -0.04376137 0.19384804 -0.18346547 0.56681657 0.83784574 0.27417898 0.47128057 -0.73362124 0.58081526 0.22990042 -0.39458337 0.19401827 0.029532805 -0.4795924 0.27405515 0.6034983
377 0.029987644 -0.9752837 0.33720633 -0.31366932 -0.28593013 -1.4684167 -0.22372365 0.46050858 0.10669282 -0.65558004 -0.20902973 -0.12819445 -0.04891548 -0.3750213 -0.043798696 -0.38746297 0.23018035 0.24124682 0.32734287 1.0995134 0.047004737 0.90011424 -0.24756034 0.21210693 0.96687895 0.12210562 -0.028573794 -0.33897084 0.46823198 -0.21029265 -0.057481002 0.25945836
105 -0.2751577 -0.14246435 0.07044142 0.6186428 -0.19990306 0.24645208 0.11799571 0.33309925 -0.13523455 -0.18859464 0.005861032 -0.16694683 0.045810997 -0.19626185 -0.4893373 -0.0341431 -0.20598648 -0.0014160876 0.03439501 1.2897859 0.06758875 0.9412548 0.4112977 0.20463377 0.7571076 -0.25478846 -0.48328537 0.4346744 -0.106319316 -0.086145684 0.13865584 0.6108346
82 -0.66897553 -0.62168354 0.23161146 0.65352625 -0.6603162 -0.8332229 0.09653767 0.14561068 -0.09691706 0.16653606 0.33008325 -0.1292425 0.074144274 -0.28580913 -0.427674 -0.045789916 -0.18726338 0.23735896 0.07959895 0.86891484 0.17483559 0.44713116 0.27340874 0.14155239 0.53174305 0.09774823 -0.10101789 -0.2410908 -0.58141625 -0.09268163 0.093240015 0.45366192
282 -0.5953263 -0.8696759 0.07371417 0.79553974 -0.4575709 -0.17778899 0.53268874 0.04752739 -0.3279894 -0.002915402 0.013731507 -0.09488212 -0.079928316 -0.14684759 0.36551258 -0.0011232478 -0.15702586 0.00052578514 -0.25881085 0.83784765 0.16034855 0.6029456 0.044836007 0.017008882 0.61556304 -0.09323257 -0.57985944 -0.37381345 0.39839706 0.19998412 0.10210456 0.12576373
114 -0.10597268 -0.37783164 0.89684343 -0.31557366 -0.7305024 -0.254522 0.3631812 -0.13700695 -0.6899562 0.080606826 0.145962 -0.5808189 0.21213987 -0.50853765 -0.038324144 0.58142674 -0.6457264 0.43222088 0.069741026 0.62319714 0.04333613 0.3823732 0.7957766 0.15086831 0.9083911 -0.21064754 -0.07505239 -0.4760099 -0.74135107 0.3004508 0.306501 0.37068683
166 -0.5367479 -0.22578287 -0.38615778 0.0081863785 -0.6764727 0.016866127 0.25613338 0.2665297 0.21564749 0.056244038 -0.003918515 -0.55336505 -0.20417295 -0.24931319 0.22136527 -0.13507119 0.0035019636 0.031598147 0.005695449 0.6483482 0.5944565 0.6974436 0.24907994 -0.061033133 0.87813735 -0.20381461 -0.15806384 -0.23654857 -0.3270978 0.09374944 0.31254315 -0.013520794
165 -0.17140451 -0.81499994 0.64159983 0.18737015 -0.8868789 -0.19709691 -0.12705134 -0.33662823 -1.0336412 0.10721691 -0.362524 0.07322178 0.09806566 -0.48987618 -0.28890052 0.40957445 -0.47417265 0.31125125 -0.55666345 1.021335 -0.104128405 0.023931034 0.3838184 -0.3473469 0.77657205 0.07386153 -0.47550255 -0.5566656 -0.17422499 1.8491846e-06 0.35031885 0.7199028
283 -0.6948406 -0.458242 0.72244257 -0.25559276 -0.5938489 -0.3547429 -0.050453573 0.2360132 -0.06549463 -0.5244254 0.30361554 -0.37327862 0.43862015 -0.40757787 0.16824202 -0.2630297 0.09081128 0.27985114 0.70164424 0.92561877 0.478911 0.34515902 0.43870252 -0.05976987 0.9015316 0.35611752 -0.103471555 -0.13001078 -0.26836815 0.10145327 -0.25935623 0.056351334
420 -0.33744758 -0.77837646 0.45904565 0.53661627 -0.04394674 -0.029093046 0.07539783 -0.16011964 -0.63494265 0.26416487 0.27494958 0.41804388 -0.35519302 0.049397923 0.34060702 -0.24982223 -0.33050546 0.3752947 -0.43509093 1.0564287 0.21616235 0.24028234 0.40397915 0.06729399 0.47680166 -0.028580943 0.13477048 0.2656656 -0.15640822 -0.12337191 -0.26239467 0.2642269
58 -0.5662749 0.029916 0.5636869 0.13226444 -0.58732617 0.32110456 0.17740214 -0.11406212 0.062150948 0.16211912 0.7392846 -0.26572672 -0.21890436 0.022589682 0.04907972 -0.16424605 -0.2766336 -0.26734352 0.19461259 0.9117535 0.8854271 0.95027107 0.3040385 -0.67378074 0.88815415 -0.24275647 0.053977262 -0.29458535 -0.745625 -0.02191585 0.28821006 0.08954505
249 -0.36535367 -0.13204393 0.0505358 -0.16577564 -0.42907396 0.12564506 0.6027584 0.22541937 -0.2104222 -0.16653329 0.3075144 -0.48297918 -0.29050824 -0.31822276 0.106140375 -0.168161 0.07434685 0.4066001 -0.13864712 0.95166767 0.2598226 0.5109288 0.34330252 -0.0475617 0.94133466 0.09895896 -0.05135151 0.11584299 -0.30179343 -0.23556623 -0.25164503 0.8258403
28 0.078432605 -0.86119187 0.7767277 -0.04367143 -0.23765932 -0.30732122 0.38407966 -0.16469745 -0.7965101 -0.1844728 -0.31347257 -0.47834232 -0.050624922 -0.06437931 -0.6877061 0.93651444 0.46568435 0.19620402 -0.84711486 1.0902493 0.18049061 0.05734915 0.49738508 0.21608451 0.68276095 -0.005518461 -0.32614288 -0.3442862 -0.53166884 -0.14978728 0.32992604 0.75496125
96 0.36312145 -0.69044316 1.1255022 -0.19809423 -0.23603071 0.39133093 -0.20348416 -0.33195773 -0.5732778 0.5609324 0.12607609 -0.59645003 0.31722423 -0.30597094 0.040421426 0.66853917 -0.5262596 -0.40670854 -0.7741358 0.92975676 0.28854364 0.8723951 0.48382565 -0.5876627 -0.046264213 -0.23913771 -0.5365707 -0.12185071 -0.68786865 0.1354248 0.26808804 -0.080506705
6 -0.39426044 -0.8046664 0.5885954 -0.43710437 0.417653 -0.021896353 -0.51806164 0.21458168 0.14090198 0.47604868 0.31657538 -0.28473565 -0.011168789 -0.058074422 -0.44678047 0.02312188 -0.052258555 -0.33781525 -0.1495952 0.6265567 0.7295666 0.96833205 -0.06552659 -0.06664729 0.57766384 -0.28236347 0.377325 0.25980958 -0.53451395 -0.05054141 0.783727 -0.08262594
74 0.19508944 -0.9316893 -0.07814978 0.61786985 -0.8399448 -0.023169708 0.0893203 0.20829879 0.1683899 -0.23067565 -0.23683347 0.11333734 -0.3190473 -0.05827358 0.5809613 0.019383602 -0.7007046 0.10359512 -0.6231265 1.3358814 0.40198013 0.49117398 -0.014208767 -0.027986445 0.47731757 -0.18735485 -0.18979512 -0.703604 0.7553473 0.65213937 -0.21107042 0.27717274
212 -0.31926298 -0.39146805 0.31948158 0.6989184 -0.6588735 -0.099602945 0.5188107 -0.0029847631 -0.36116025 -0.17701536 0.374641 -0.056641515 -0.32901204 -0.20631744 0.046854865 -0.1706171 0.10718684 0.12556927 0.19289404 0.6661668 0.20314215 0.8453802 0.21466188 -0.004328086 1.0296367 -0.21110755 -0.57474977 -0.12407277 -0.20980956 -0.16923116 -0.18118638 0.6751885
280 -0.42444927 -0.8099172 0.17178476 -0.3931578 -0.5950496 -0.7942283 0.2500564 0.17067052 -0.33153543 -0.06448048 -0.46722552 -0.039226323 -0.22749834 -0.5394212 -0.22480476 -0.16180524 -0.37883142 0.44332457 0.61716753 0.6430086 0.027261836 0.5150389 0.07441433 0.46553898 1.2822596 -0.35089234 0.14558746 -0.26214933 0.35837308 -0.5540476 0.44794622 0.37878466
215 -0.29119107 -0.7141699 0.75382257 -0.1475334 -0.70486444 0.121958695 0.24131891 -0.029921927 0.090897486 -0.7974535 0.022816373 0.16968733 -0.5371243 -0.20600654 0.47935462 -0.33100536 -0.19416231 0.2749456 -0.6242923 1.2113228 0.41696316 0.42231765 -0.19626912 -0.37294722 0.5906442 -0.10959865 0.39726597 -0.5517668 0.13739401 0.40709275 -0.42544702 -0.2292
87 -0.15142952 -0.090417266 0.14191552 0.22066796 -0.06967737 0.009838743 0.8506288 0.0050441003 -0.46880788 -0.05145594 -0.07712985 -0.7060104 -0.020019531 -0.057282437 0.28570908 -0.35919777 0.09991798 0.5746463 0.18930177 0.94120413 0.20171145 0.8391075 0.48999807 -0.61537576 0.78728193 -0.12657142 -0.58105326 0.03728327 -0.24110322 -0.32971105 -0.2061868 -0.012232338
63 -0.38555562 -0.39885283 0.91140944 -0.051948477 -0.021976238 0.18769701 0.36381644 0.18875606 -0.26515758 0.16641796 0.9044609 -0.41592798 -0.18825105 -0.116358824 -0.024378521 0.029762283 -0.075756244 -0.2657483 0.29061085 0.673533 0.80854577 0.6000216 0.41662785 -0.5119761 0.8677517 0.0027903074 0.035423495 -0.3442262 -0.76252735 -0.58323145 0.25367704 0.070812605
170 -0.17306831 -1.0963867 0.19473709 0.32127938 -0.24290442 0.06463994 0.051270485 0.4332724 -0.8651591 0.18442562 0.13521634 0.15612006 0.23381618 0.018410088 -0.11035506 0.44138184 0.129001 -0.15063526 -0.60242647 0.5331967 0.2964261 0.23599379 0.32339627 -0.5342022 0.76921767 0.09183858 -0.48112988 -0.75861174 -0.31073394 0.22893542 0.16495599 1.1375805
232 -0.049021572 -0.7104797 0.30882496 -0.7766226 -0.044070292 -0.7154437 -0.60227466 0.40904254 -0.2883838 -0.07950107 -0.20110592 0.376188 -0.35822204 -0.18922652 0.046969395 0.14011995 -0.56855077 0.077184826 -0.018393625 1.0299153 0.8674401 -0.27847245 -0.11839344 -0.07141686 1.2140647 0.26001242 0.36215547 0.07942393 0.3492685 -0.38278657 0.45780432 -0.16775303
438 0.20365435 -0.69883657 0.5133778 -0.19059436 -0.4776709 -0.33362788 -0.4621068 -0.08001805 -0.9346631 0.25741762 -0.50349736 -0.3284492 0.2538735 0.07911635 -0.06581551 0.26052237 -0.5214651 0.02030353 -0.85210615 0.8903921 0.18719245 -0.08068655 0.21132493 -0.47108698 1.0505421 0.16912241 0.055508766 -0.286434 -0.34417912 0.38517195 0.2468703 0.580007
169 -0.22505878 -0.7260507 1.0106887 0.040201712 -0.44985828 -0.28373596 -0.32195482 0.23690696 -0.9666357 -0.13013868 0.12069021 -0.20949827 -0.022816828 -0.4771178 -0.47574925 0.24565169 0.08268573 0.021061074 -0.51470494 0.6965992 0.18065888 0.18159792 0.5439975 0.009000096 0.68346965 0.32651082 -0.5109091 -0.29275712 -0.29053196 -0.19993739 -0.09789954 0.78791213
115 -0.37662193 -0.24947391 0.83490163 0.42708078 -0.9101236 -0.12732214 -0.40349093 -0.07979747 -0.7184817 -0.2093999 -0.033748303 0.19096224 -0.0153739955 -0.2801871 -0.4441897 -0.0053924476 -0.243021 -0.17655498 -0.27775946 0.8811772 0.19634023 0.66566694 0.44119355 -0.4504749 1.076343 0.35245985 -0.46615392 0.008968944 -0.4539251 0.5882116 0.0036576153 0.8203781
340 -0.020928217 -1.1836292 0.5290761 0.25129268 -0.49569708 0.44590026 0.13579349 -0.34705442 -0.80435777 0.020796895 -0.4657049 -0.6864452 0.2671455 -0.063127264 0.1226718 0.5566878 -0.257291 0.39045078 0.20431037 0.6272752 0.057100534 0.22804292 -0.22920637 0.23681976 0.93775433 -1.1373843 0.077707425 -0.74678355 0.15423244 -0.024978895 -0.013687695 -0.14097133
81 -0.09770986 -0.6508653 0.16835816 0.28243974 -0.06504188 0.5106861 0.56611854 -0.029014887 -0.19386944 0.01014262 0.12608945 -0.71342015 -0.060024966 -0.47308028 -0.55219364 -0.032151215 0.15278435 0.14441974 -0.20665546 0.89045703 0.80074406 0.8840782 0.4127406 0.6163406 0.86902565 -0.2216655 0.007974249 -0.34712872 -0.31736287 -0.26229748 -0.37549376 0.78937685
329 -0.41983745 -0.7224447 0.6054891 -0.075172946 0.05852864 0.3652736 0.6966435 -0.04928106 -0.27213663 -0.2348831 -0.28715134 -1.2635548 -0.21266793 -0.64564806 -0.16284578 0.23997572 -0.5440863 0.23928927 -0.38387603 1.2826552 0.83520377 0.34706175 0.08125026 0.13373595 0.056194402 0.3212113 -0.7038075 -0.15928245 -0.16671555 0.033525478 -0.05783771 0.35755876
51 0.27221033 -1.1917819 0.30641854 0.093218565 -0.48478755 -0.5459867 -0.72427577 -0.2605786 -0.7935614 -0.34830594 0.2610388 -0.10630143 -0.059877288 0.01853513 -0.14243548 0.7711393 -0.6126079 0.95772296 -0.261093 1.032968 0.09246083 0.21387981 0.47576055 0.7664403 0.6749739 0.104432926 0.61437947 -0.20000501 -0.78312117 -0.20773149 0.6867604 -0.33715886
137 -0.124917656 -0.90522945 0.45525253 -0.34087795 0.5151682 0.52330184 0.33640507 0.00012871565 -0.5124331 0.24230859 0.89417225 -0.7429649 -0.35564643 -0.3783006 -0.22862303 -0.099813014 0.21122167 -0.18895558 -0.5694711 0.5364124 1.2028623 1.3296115 0.7691045 -0.213836 0.50111 -0.5911523 0.050288435 -0.44014663 -0.50057113 -0.26303476 -0.42996812 0.31966448
366 -0.51706386 -0.27959552 0.08447722 0.82323855 -0.7785195 -0.04542946 -0.13813707 -0.09411483 -0.4287838 -0.15600479 0.18587922 -0.8351085 0.16555466 0.053445052 0.3021964 -0.29526147 -0.27811998 -0.17927775 -0.5794615 1.2115033 0.16644076 0.13104773 0.08781215 -0.46869922 0.7165762 -0.15028553 0.4011522 -0.12198037 -0.4809936 0.2900183 -0.12682384 -0.07687238
290 -0.933195 -1.3128645 0.22581626 0.012753647 0.09016774 -0.57430357 0.66657144 -0.2766155 -0.37028646 -0.04672771 -0.046008307 -0.70204985 -0.2117078 -0.6092241 -0.43682918 0.10937464 -0.26357517 0.18184987 0.7648231 0.81952626 0.41864726 0.20393357 -0.09336594 0.116004564 1.0172409 -0.3201875 -1.1460371 0.17904574 0.29595384 0.083905056 0.28086677 -0.24699616
405 -0.10398291 -0.6651907 0.19929498 0.14910272 -0.2582089 0.2650915 0.81063145 0.5096404 -0.6974188 -0.3161331 0.38223594 -0.9800828 0.72522056 -0.0879502 0.73981655 0.22887601 -0.072041884 0.14692977 -0.3087998 0.9030309 0.3748257 0.16967064 0.17071158 -0.0700188 0.57823503 0.33784536 -0.42940432 -0.2029332 -0.16467431 0.044790268 -0.009216391 -0.0405059
141 0.6457434 -0.3877044 -0.41750222 -0.11917234 -0.050199166 -0.15412503 -0.38057038 -0.15651785 -0.43890393 0.0648677 0.078496255 -0.70758575 -0.0828438 -0.017991597 0.17498754 0.22415626 0.1761407 0.6323332 -0.7812906 1.2112962 0.25025502 0.5323494 0.9171887 -0.31299257 1.3484063 0.23889634 0.749964 0.60873234 -0.09277249 -0.24622566 0.30823615 0.33669025
509 0.101337746 -1.0972302 0.6268919 1.5164384 -0.12470782 0.09403505 0.47078195 -0.8381251 0.18088917 -0.0869141 -0.124797225 -0.44055387 0.24272572 -0.67153126 -0.23614116 -0.05128499 0.24593984 0.25463834 -1.2540967 1.192829 0.64342767 1.6137284 0.44815376 0.19166042 0.50476485 0.15432079 -0.26434192 0.39297786 -0.066662684 -0.14259146 -0.28318676 0.41333148
184 -0.024097722 -0.94361746 0.10076532 0.9177509 0.2489178 -0.037344128 0.5907671 -0.09945675 0.059065226 -0.11413433 -0.03509198 -0.5638841 0.12102213 -0.1987667 -0.5069396 -0.062549986 0.37460855 -0.23321931 -0.37094328 1.0269442 0.7257528 0.9910889 0.23822856 0.6392618 0.93581814 -0.17663328 0.03919875 -0.072792694 -0.30717465 0.042028207 -0.2106994 0.36637175
404 -0.5969561 -0.5948086 -0.25241494 0.44359 -0.78584 -0.07569639 0.16517699 -0.16095711 -0.83882713 0.5826729 0.8567445 -0.3876338 0.39376208 -0.21223219 0.83201706 0.09782053 -0.067342125 0.54138917 0.41999662 0.89588434 0.077344336 1.45113 0.38851568 -0.1703651 0.37869737 -0.23687285 -0.5529016 -0.36204016 -0.32568756 -0.029416457 0.19259974 0.5874264
2 -0.37780318 -0.34696248 0.57926273 -0.17064211 -0.03205536 0.4659173 0.19530755 0.21196547 -0.24181929 0.6691763 0.9032075 -0.4538743 -0.08634198 -0.4699533 0.46427578 0.22367845 -0.43939236 -0.13251968 -0.15576512 0.4458291 0.8405704 0.81537884 0.33407435 -0.88945407 0.9730053 -0.20574363 0.08375527 -0.27522188 -0.6626117 -0.46370047 0.1277932 -0.042805854
80 -0.40356785 -1.0121737 0.49898976 -0.2793084 -0.42679185 -0.12878248 -0.02819108 -0.1875005 0.0165928 0.0038136756 0.4747211 -0.51063424 -0.21942598 -0.7979583 -0.92376757 0.3685176 -0.18121023 -0.079619996 -0.72657174 0.7195372 1.3399013 1.2786832 0.33914328 0.88698083 -0.010949913 -0.3551506 -0.45496804 -0.71452326 -0.07663007 -0.2653345 -0.55742157 0.18123478
13 0.08897516 -0.94084716 0.7623603 0.4373336 0.6162361 0.1512955 0.5210103 -0.2754448 -0.29041103 0.5116918 -0.20102175 -0.084087096 -0.36286867 0.21224667 -0.24586613 0.052189063 -0.3716589 0.0341985 -0.4453314 0.770682 0.52197 0.4279717 0.07178385 -0.1658126 0.6889484 -0.31869838 0.16584952 -0.055936642 -0.27231783 -0.45772356 0.43128186 -0.47155976
533 0.018607786 -0.39193997 -0.114811614 0.080271564 -0.27998212 -0.3248614 0.36030546 0.06616531 -0.52401716 0.21716651 0.23849562 0.25764474 -0.40646937 -0.08178709 0.16695556 -0.084120974 -0.051404566 0.057831068 -0.30177972 0.56090933 0.42595807 0.9897305 0.07000365 0.34432703 0.76953346 -0.06988974 0.34234113 -0.083350316 -0.2727803 0.03266718 0.17137699 0.4914041
20 -0.18650581 -0.5267358 0.08524162 0.24168904 -0.62509257 0.27422374 0.41018128 0.43031892 -0.5623487 -0.39462495 -0.06531849 -0.8430931 -0.5270908 -0.36748958 0.011462468 -0.2993631 -0.2489334 -0.2741539 -1.1945276 1.1528788 0.5126261 1.0785563 0.09742241 0.048713077 0.22323838 -0.31829885 -0.11567956 -0.22481875 -0.27279282 0.22490937 -0.59808236 0.007311019
419 -0.2362782 -0.5087495 0.8292615 -0.08696395 -0.25835657 -0.05328978 0.59383714 0.12640733 -0.7654133 -0.24695015 -0.29867047 -1.0192091 0.12146397 0.041313842 0.20971304 0.009684734 -0.42753908 0.245489 0.04117426 1.0739195 0.4562144 0.26427212 0.23680446 0.46307978 0.4122328 0.09760854 -0.24179672 0.0032580164 -0.21672887 -0.11561551 0.090303876 0.3342072
371 -0.075938016 -0.7391181 0.17863443 -0.054183945 -0.17549397 0.13892011 0.7255958 -0.052376196 -0.94821227 -0.0066060056 0.6663885 -0.7641427 0.10193861 0.07361359 0.4592776 0.18984342 0.11123496 0.5423219 -0.0983124 0.6760844 0.33247393 0.9382361 0.7901053 0.35049084 0.32634565 -0.0126535185 -0.3586886 -0.354896 -0.24629746 -0.16094619 0.41697463 0.7482908
61 0.5435133 -0.66252255 0.047136683 -0.21947101 -0.24732625 -0.8001708 -0.87237805 0.490494 -0.17364436 -0.5148834 -0.014832119 0.2863115 -0.21439941 -0.44001976 0.675432 -0.27507323 0.56532305 -0.05617035 -0.17232631 1.62066 0.86894304 0.15135956 -0.3681276 -0.46034575 0.91574043 -0.068940915 0.39512873 0.27046898 0.21038887 0.054127675 -0.12348527 -0.6761088
546 -0.50259316 -0.6300505 0.7574154 0.5616254 -0.542073 -0.19474858 0.41404742 -0.18900762 0.05078258 -0.08372463 0.1880035 -0.10986912 0.24147592 -0.24441807 -0.17309488 -0.07766297 0.46310404 0.46709672 0.028158197 0.5562438 0.3952278 0.9231337 0.36020944 -0.24361251 0.65038115 -0.12254636 -0.29880822 0.53542656 -0.27821904 -0.30614007 0.01820596 0.0033365746
83 -0.29166043 -0.27156234 0.359697 0.60563415 -0.2596596 -0.10785283 0.3564712 -0.02097208 -0.4434188 -0.12762979 0.09624705 -0.69635254 -0.29727238 0.15754658 0.048790503 0.111182235 -0.007157132 -0.098197594 0.25695145 0.7223771 0.095761746 0.94547266 0.16014637 -0.2586922 0.75030977 -0.19395484 -0.4071005 -0.08997024 0.14938988 -0.22817826 0.030537222 0.122323416
189 -0.012899288 -1.4094617 0.0717772 0.5918676 -0.20695184 0.18403128 0.3863686 0.18377516 -0.08546599 -0.041465033 0.24099624 0.20226653 0.21617277 -0.43191406 -0.5473778 -0.025927091 -0.123419546 0.36104944 -0.8883477 1.04374 0.5619647 1.0861648 -0.14291096 0.5660841 0.2834977 -0.48640087 0.5047592 -0.61286944 0.10710383 0.06644149 -0.35470346 0.7726697
142 -0.4584109 -0.5560558 -0.08036321 0.24286899 -0.71233 0.15100223 0.4410933 0.0193792 -0.13602605 -0.29204634 0.30399126 -0.52681416 -0.07832569 -0.22919357 0.47527975 0.13613987 -0.514153 -0.014339568 -0.17234258 0.9272423 0.1426843 0.6514289 0.06510201 -0.045483507 0.63424003 0.36515802 -0.4558116 -0.24772012 -0.15963587 0.211185 -0.118670136 0.0804292
269 -0.27152982 -1.190933 0.006089619 0.41411287 -0.38571405 -0.20589834 0.44925284 0.11629679 -0.37070686 0.11875132 1.1595001 0.33018646 -0.038703702 -0.05853332 0.77997106 0.15642306 0.3730816 0.21100718 -0.12319406 0.45281708 0.34057903 0.8788879 0.10982989 -0.377902 0.8725874 -0.106657974 -0.5971774 -0.50319916 -0.44068098 -0.59202206 0.32793906 -0.38079125
494 -0.7053199 -0.6967308 0.08516205 0.47984108 -0.09102433 -0.14984763 0.36790326 -0.34135273 -0.37296197 0.3888724 -0.23311432 -0.09249695 0.037912857 -0.26149133 0.005665249 0.21384732 -0.3379223 0.31986746 -0.3251324 1.0004944 -0.21599658 0.31217813 -0.036582064 -0.48346734 0.6440168 -0.015227478 -0.37237135 0.041206446 0.2960743 0.1301168 0.21426664 0.27734777
252 -0.24721193 -0.27826786 0.89137375 -0.06317588 -0.23345724 0.318059 0.37831387 -0.33255962 -0.25093222 0.36481708 0.67728436 -0.27687994 -0.16564505 0.007376832 0.07287918 0.2879264 -0.38720012 0.0050765867 0.087935105 0.7087193 0.8621578 0.88724875 0.4160988 -1.0541334 0.5898352 -0.19804993 -0.30190393 -0.15177368 -0.63730353 -0.05521676 0.24347644 0.013022701
191 0.13597004 -0.53344834 0.7314469 -0.4867707 -0.35134548 -0.2862035 0.014937477 0.36838827 0.49123946 -0.43636358 -0.024213588 0.38170794 -0.4897692 -0.7832867 0.16131456 0.19442257 0.44403765 -0.05237086 0.26534474 1.1221106 0.6007018 1.1876516 -0.34696317 -0.43200675 0.67676234 -0.34392688 -0.8133561 0.3107985 0.94002545 0.12115976 0.9489069 0.42417827
133 -0.4039316 -0.7262959 0.59543645 -0.57619023 -0.7871144 -0.44575766 0.28335446 0.10984086 -0.09765679 -0.5509144 -0.5079076 -0.34314904 0.19049129 -0.37379465 -0.21674418 0.27671427 0.105022535 0.65213585 -0.23981832 0.84706765 0.13333559 3.041816e-05 -0.06251177 0.12819776 0.73697376 -0.04114416 0.019170905 -0.43031338 0.25883693 -0.28997833 0.8304786 0.7303143
181 -0.5371371 -0.77847105 0.7138435 -0.66152835 0.040960968 -1.2198473 -0.4469594 0.31988856 -0.025208186 -0.4094603 -0.11806076 -0.11863699 0.20561633 -0.88355243 0.1328012 -0.28128815 0.50284106 0.06553696 0.52984905 1.5366098 0.65400124 0.83440137 -0.13123314 0.27861598 0.6622052 0.13127959 -0.12352515 0.056585576 0.26250747 -0.12109256 0.30100086 -0.30504003
17 -0.27674484 -0.59258217 0.13428266 0.42087603 -1.1966072 -0.30886477 0.13967635 0.46137813 0.36027193 -0.54151917 0.09952559 -0.11320106 -0.3826002 0.013429453 0.4279146 -0.21983387 -0.23475245 -0.2891142 -0.20256183 1.2427386 0.3707305 0.5585548 -0.28752968 -0.3381159 0.7348581 -0.13047466 -0.14692847 -0.8002427 0.087935 0.5131224 -0.35062876 0.10827867
4 -0.46898085 -0.13585858 0.69689614 -0.25468245 -0.1241688 0.33138755 0.048216097 0.2879153 -0.17988525 0.468135 0.6837135 -0.781416 -0.20895924 -0.5197266 0.47436693 0.2688287 -0.5069841 -0.52149314 -0.073061146 0.76361936 0.9476044 0.63153434 0.26398137 -1.1604332 0.72316194 -0.16596325 0.013483954 -0.40708414 -0.8011938 -0.46444306 -0.107946746 0.14462534
532 -0.5516814 -0.5263236 0.8088879 0.047846716 -1.3278735 -1.1065339 -0.1549346 1.3444123 -0.041634038 0.1945938 0.9277145 -1.7037827 -0.34154627 -1.060932 1.1095856 -0.06880744 -0.80470175 -1.1516197 -0.07923344 1.0867633 1.129957 0.84490967 0.38591588 -1.4166824 0.730109 -0.36101317 0.037863363 -0.80123216 -1.1632856 -0.91034067 -0.5129773 0.16111587
459 -0.09249559 -0.98848224 -0.102603495 0.34821078 -0.6334897 0.2892906 0.82345456 0.01218449 -0.03700563 -0.50990534 -0.33245012 -0.033312913 -0.33574373 -0.25624144 0.67747337 -0.3164146 -0.117243655 0.62921333 -0.6092216 1.0843724 0.67642903 0.50068665 -0.09555212 -0.240678 0.77810174 0.010132905 0.7180127 -0.17216149 0.26399866 0.076233394 -0.6544124 0.11060304
11 0.43422282 -0.45112053 -0.27806714 0.040913463 -0.089749314 0.23091626 -0.20783879 0.16623785 -0.33729035 0.2908479 0.056626562 -0.48176956 -0.058151044 -0.27768287 0.66757953 0.0825295 0.061715804 0.66248107 -1.1275518 0.83985984 0.67940587 0.37817448 0.75461507 -0.43359718 0.76669616 -0.33405647 0.28802678 0.70752984 0.10869828 -0.9726224 0.16935268 0.08157955
440 -0.2509611 -0.81023055 -0.0040940377 -0.32018328 0.39229703 -0.95180357 -0.3536111 0.30503216 -0.3720947 0.6436978 0.019933423 0.15890734 -0.1292967 -0.1450556 -0.12200007 -0.0033909997 -0.18449111 0.6118443 -0.2491146 0.7861938 1.0087755 -0.06726183 0.13038392 -0.3576924 0.5755702 -0.272119 0.5683448 0.050658748 -0.05535445 -0.3231462 0.6651389 -0.40518278
172 -0.08178425 -0.51213384 0.47150886 -0.38777158 -0.115477145 -1.2166563 -0.10826022 0.10591463 -0.8452634 -0.18487358 -0.19781972 -0.08215008 -0.34232566 -0.36391488 -0.19991513 0.32935077 -0.21390474 -0.003871086 0.096599296 0.6753939 0.17385136 0.43661287 0.15926842 0.20423433 0.8837903 -0.10499262 -0.39023906 -0.1109217 -0.12589358 -0.11144672 0.7465411 0.4232652
393 -0.3891601 -0.43806583 0.68673706 0.07578988 -0.5716402 -0.8279156 -0.75244236 0.30494556 0.17707825 -0.30714825 0.30830514 0.09799066 0.09242476 -0.26537335 0.24841943 -0.30681172 0.55650765 -0.124058165 0.49845135 1.1967767 0.42170584 0.824851 0.15705512 -0.5454434 0.78227437 0.19652286 -0.39576107 0.06125586 -0.24540319 0.061590053 -0.6403532 0.062568255
411 -0.17786089 -0.19715449 0.9387003 -0.24983649 -0.15722133 0.4243126 -0.12752552 0.027875593 -0.2693368 0.18737666 0.2871069 -0.37819466 -0.38714018 -0.38555703 0.121954784 0.1185181 -0.43580303 -0.58843505 -0.37949663 0.8708663 0.57730895 0.78007716 0.0069703287 -0.75859475 0.31617606 -0.12772197 0.17662397 -0.24401473 -0.1271631 0.4079416 0.3993655 0.38908842
23 -0.065745026 -0.5590401 0.28735334 0.4751868 -0.80712444 -0.4330609 0.2921667 -0.0033142993 -0.3663588 -0.050215952 -0.5070356 0.045436863 -0.14529607 0.06894007 -0.56888956 0.59440553 -0.06526328 0.08373281 -0.885285 1.3494246 -0.14391255 0.12006932 0.07967914 -0.7483554 0.89541864 -0.18222465 -0.12866163 -0.37404555 -0.33848548 0.20488751 0.5210298 0.99346673
493 -0.96508974 -0.441828 0.008678277 0.30470887 -0.14511096 -0.7992338 0.30343688 -0.060849994 -0.7416151 0.020152101 -0.2518361 -0.58155876 -0.029567575 -0.06779628 -0.21607526 -0.23846856 -0.6470378 0.54438746 0.34214407 0.90485334 0.580769 0.18695928 0.2127867 0.16824576 0.95617217 -0.2839223 -0.6103447 -0.037008185 0.2830245 -0.6641073 0.71771944 0.16927165
227 0.88210857 -1.56053 0.8024742 -0.26386774 0.12562318 -0.5217094 1.1691393 1.0367031 -0.19803508 -1.0624765 -0.4284371 -0.70798385 0.28601936 0.11872001 1.5930141 0.74459374 0.52360505 -0.55456036 -1.14601 1.8608444 1.0288692 1.1051854 -0.48195663 -0.9030059 0.42403597 0.30526254 0.1385469 -1.3467748 0.3586555 0.5104701 -0.3874236 -0.06564776
116 -0.31557372 -0.77801424 0.642467 0.17452818 -1.0573413 -0.20309849 -0.13562432 0.00022373992 -1.1380008 -0.07094921 -0.62421197 0.21375033 0.039339695 -0.41916364 -0.18232489 0.46559638 -0.48995274 0.25380507 -0.4757113 0.9737804 -0.17709075 0.36493737 0.3101896 -0.35280052 0.9437047 0.20700996 -0.54971737 -0.47555235 -0.057935823 0.42224005 0.2044791 0.69017017
424 -0.47101995 -0.9490507 0.0881979 0.26555273 -0.3844304 0.11178189 0.6726007 0.045167156 -0.52181685 0.0037634685 0.37176737 -0.5185396 0.20723327 -0.34605497 0.32267302 -0.06393495 -0.47552106 0.052056674 -0.23210126 0.859966 0.20935327 0.5123574 0.19672549 0.21216735 0.46746132 0.1374338 -0.7275872 -0.23971352 -0.39430106 0.087292545 0.010144457 0.01694093
168 -0.60468286 -0.36973235 0.21469992 -0.38850865 0.047849733 -1.1515751 0.251215 0.32420084 -0.6822272 0.20262198 -0.2913264 -0.28361678 -0.17428777 -0.33138183 -0.330931 0.019496284 -0.604977 0.24738167 -0.1471405 0.99367416 0.44702557 0.19269763 0.0016401282 0.28234443 0.77851653 -0.34716618 -0.12559043 0.10223083 -0.01134983 -0.39586356 1.0114136 0.27558562
473 -0.11743757 -0.7928373 0.034677483 0.07457221 -0.000395639 -0.23162031 0.5360707 -0.14742234 -0.47504586 -0.04939539 0.15021576 -0.18397196 0.29605702 -0.07543954 -0.31622976 -0.042954713 0.30064607 0.24391168 -0.5625744 0.8864423 0.294455 0.49518123 0.3247866 0.40145126 0.76250255 -0.040240668 0.021936344 -0.14792503 -0.77113783 -0.2100193 0.11171337 0.4034404
295 -0.5720677 -1.0365019 0.43903202 -0.21303424 -0.536229 -0.8072806 -0.40941656 0.5628222 -0.047698174 -0.5433186 -0.2151168 -0.25159124 0.18118005 -0.37692434 0.39629674 -0.022606988 0.34492758 0.22051573 0.23915687 1.2418503 0.73838043 0.49357095 -0.54769164 0.023420947 0.55109423 0.018838225 -0.07149819 -0.38269362 0.19003896 -0.18870857 -1.0879588 -0.0008602232
113 0.052639797 -0.5949076 0.9587674 -0.6459477 -0.46129557 -0.61811346 0.04698882 -0.24063674 -0.43695724 -0.115013026 -0.48880887 -0.5876662 0.11170761 -0.61354727 -0.26875514 0.30232248 -0.53890926 -0.23312825 -0.42596012 0.8774387 0.023343025 0.033990778 0.50460064 -0.2622524 0.9595906 -0.07944277 -0.18209076 -0.620968 -0.10439578 0.48360184 0.1046429 0.4539721
35 0.086065084 -0.9167536 0.46020585 0.16033702 -0.6254741 -0.5839536 -0.005787971 0.04611382 -0.81080115 0.14925449 -0.34798235 0.07298295 0.010209358 0.117631674 -0.44404066 0.8775407 0.02148324 0.11031824 -0.950809 1.4227954 -0.23240916 -0.15804465 0.23356241 -0.28697494 0.8227011 -0.071304604 -0.117747135 -0.19654521 -0.53723764 -0.042327445 0.82188475 0.5015649
231 -0.17660126 -0.45699906 0.32300714 -0.4008836 -0.14391945 -1.035796 -0.00024066112 1.0049372 -0.06830651 -0.22573103 -0.551468 0.092017986 -0.7451128 -0.45318893 0.28952837 -0.26831302 -0.3352144 -0.16804598 0.3655863 1.498915 0.72042364 0.3306753 -0.11862894 0.11819978 0.8538302 -0.25822005 0.3733054 0.18213633 0.83321726 -0.23792328 0.2949252 0.12196229
498 0.61886376 -0.8188168 -0.6794915 -0.012496484 -0.16855736 -0.26460162 -0.52042174 0.14307319 -0.060626343 0.06793029 -0.07579294 0.111027665 -0.23703614 -0.14023909 0.21240923 0.14849417 -0.15881307 0.58435297 -1.0456324 0.9754574 0.57832736 0.62374794 0.16464774 0.11586726 1.0429537 -0.2450841 1.0998732 0.17512903 0.12708478 -0.32616347 0.14841346 -0.14114964
16 -0.78939766 -1.1062462 0.76475483 0.030530987 -0.6823488 0.09191167 0.6863692 -0.09631649 -0.24101982 -0.2378935 0.5467803 -0.22333637 0.10487803 -0.6506036 -0.023122065 0.21511088 0.057282384 0.4006533 0.07280628 0.36595333 0.3939117 0.96463513 0.4027225 0.2685566 0.572543 0.07567042 -0.83662456 -0.628691 -0.18350135 -0.23504712 -0.13009211 0.25928116
412 -0.3169561 -0.4881009 0.6691395 -0.15848339 0.030896697 0.50510216 0.41633448 -0.2388387 -0.2707009 0.36440134 1.0898665 -0.11530541 0.012425164 -0.13925815 0.0018537057 0.15924606 -0.5071145 -0.299309 -0.028862214 0.76837546 1.0090073 1.3651975 0.42959058 -0.88137716 0.8334387 -0.19364938 0.3865714 -0.61686224 -0.9340641 -0.0075337733 0.55128264 0.051272795
271 -0.5513842 -0.52329755 0.47551572 0.009624717 -0.1526004 0.41135693 0.16328521 0.39022574 -0.1306449 0.113052845 0.96609646 -0.4112971 -0.31515795 -0.30037093 0.33200034 0.14583014 -0.47358757 -0.7386339 -0.15651931 0.65583205 0.43142712 1.1794971 0.2592594 -0.8899676 0.44771546 -0.45028803 -0.22379437 -0.16076334 -0.36974955 0.07086581 0.501737 0.007469431
7 0.7380871 -0.44853166 -0.45280567 0.04999624 -0.47006992 -0.0907438 0.01082119 0.020464627 0.026560213 -0.0076386337 0.1844591 -0.59752584 -0.046667974 0.045888912 0.515783 -0.05781922 0.07472689 0.5799445 -0.63591313 1.2517252 0.71049136 0.45750836 0.8143508 -0.9043319 1.3326123 0.281948 0.36707336 0.73647374 0.25422686 -0.3658945 -0.07023522 0.74658173
518 -0.53832096 -0.20205751 0.6400758 0.6585183 -1.0859276 0.0027278743 0.58420455 0.07799005 -0.28130028 -0.5316404 0.14897227 -0.42563352 -0.020603266 -0.42275444 0.2788861 -0.23898356 0.27215227 0.45391312 0.045754757 0.88226926 0.54845417 0.5244548 0.61318445 0.06377452 0.874941 0.043600142 -0.7130944 0.29356095 0.04436117 -0.43122628 -0.22959872 0.43133432
41 0.046487432 -0.19901367 0.8054945 -0.00095828343 -0.8178664 -0.18778786 -0.7017579 -0.058370195 -0.63572955 -0.6001004 -0.023136716 0.2800757 -0.3367123 -0.39816642 -0.42601874 0.34481114 -0.8589097 0.23950768 0.47594288 0.8923808 0.26765624 0.52237976 0.13546231 -0.04512414 0.82108533 -0.29647365 -0.37390146 -0.21040593 -0.009863995 -0.1205575 0.5277024 0.21910812
48 0.020549368 -0.29222786 0.9086352 0.037216824 -0.85136247 -0.4362792 -0.06366813 -0.4354584 -0.47239104 0.32885996 -0.25491226 -0.45605713 0.595359 -0.10674164 0.0592897 0.7687242 -0.94547164 0.2461755 0.12088498 1.1643054 -0.36011493 0.52998644 0.4661854 -1.0772365 0.7841541 -0.57602215 -0.42165726 -0.78009224 -0.16724956 0.44856536 0.09291461 0.19802053
222 0.010664257 -1.1549532 0.083946936 0.3783203 -0.46712807 0.24804822 0.53542674 0.3391113 -0.112806074 -0.62242645 -0.18853973 -0.11309358 -0.29650784 -0.36642453 0.54453903 -0.20779291 -0.17570587 -0.054534342 -0.501163 1.0154648 0.5344624 0.6158661 -0.059662808 -0.07049036 0.5797946 -0.3232603 0.13937657 -0.9093328 0.43026352 0.33433488 -0.5849321 -0.0046641505
451 0.76528674 -0.8436814 -0.5189217 0.0059379404 0.3283336 -0.61946493 0.62023956 0.09067285 -0.10200816 -0.27078936 0.41389 -1.0089707 -0.5817006 0.0908314 -0.07035587 0.28939566 0.5284751 0.43628603 -0.075457826 1.1301836 1.0004771 0.5309014 1.1789167 -0.5447377 1.4015514 -0.27582335 0.4034137 0.34610817 0.9216461 -0.49395257 -0.3627402 1.097529
157 -0.0562565 -1.0157042 0.83982897 -0.8047225 -0.043802142 -0.946439 -0.5096712 0.49299377 0.08629919 -0.59656316 -0.04385908 0.44513848 -0.3152656 -0.7663715 0.14677548 0.05966172 0.53732806 -0.020707918 0.27861303 1.0115371 0.80877525 1.0280337 -0.0858161 0.039444193 0.6415228 -0.10557651 -0.32992008 -0.048773568 0.372681 -0.2659748 0.14853743 -0.23581797
375 -0.1841624 -1.3687327 0.83424515 -0.09608008 -0.1011231 0.46895924 -0.45072877 -0.6195549 -0.4068809 0.4495328 0.07957379 -0.25001085 0.26114196 -0.6110152 -0.21946503 0.34737805 -0.6505256 0.03850646 -0.441814 1.3786745 0.984488 0.6112859 0.004641024 0.35796437 -0.2393475 0.47796404 -0.40248168 -0.3448419 -0.49234042 0.46730924 -0.12405558 0.22751936
362 0.05518285 -0.8806137 -0.05393185 0.08389953 -0.53100526 0.11431678 0.12436739 -0.21006519 -0.13612369 -0.51875764 0.14692438 -0.061866682 0.13549039 -0.27439663 0.33734 0.29810748 -0.026480133 0.69712067 -0.48853675 0.53799516 0.3141177 -0.19144422 0.731891 0.06588761 1.2573924 -0.013482703 0.11155223 0.2581418 0.23021428 -0.8517878 0.28366697 0.54838383
361 0.20651561 -0.7089624 1.0990072 -0.25508553 -0.9012199 -0.28087705 0.14592414 -0.12244521 -0.8185938 0.3188296 -0.24812469 -0.3400543 0.28663915 -0.4746444 -0.13584092 0.7837212 -0.97923595 -0.11868786 -0.60600615 0.8726456 -0.19846235 0.39973047 0.49816117 -0.8253126 0.8990841 -0.1384663 -0.3540986 -0.67836666 -0.6776772 0.1844179 0.6698141 0.78938437
3 -0.40790665 -0.6046501 0.4457279 -0.35189793 0.24530445 0.40781757 0.6066465 0.23851499 -0.19346265 0.4581103 0.9023498 -0.7485155 -0.16479415 -0.11624574 0.29610848 0.26942885 -0.1976682 -0.116872445 0.0053125382 0.35689962 1.2231921 1.0086935 0.46677268 -0.79120386 0.849072 -0.28680968 -0.15100181 -0.4183347 -0.37858596 -0.21051866 0.14750917 0.3559948
179 0.09813106 -1.0588007 0.81150126 -0.519985 0.020422233 -1.0479718 -0.3281878 0.5159599 0.082132004 -0.6470288 -0.23174925 -0.03047453 -0.31394565 -0.451613 -0.10300781 -0.016971583 0.7320138 0.2820526 0.7707965 1.2418835 0.41265243 1.2207503 0.0108828265 0.23476182 1.0650415 -0.091095835 -0.4311 -0.09550679 0.8632694 -0.25074115 -0.24285223 0.26566127
450 -0.75723004 -0.5420563 0.79825336 0.24819791 -0.047677055 -0.55163896 -0.018696886 0.24634874 -1.2643951 -0.04068691 -0.42101145 -0.29426482 -0.16422236 -0.21161915 -0.062111955 0.16869667 -0.43813407 -0.100864515 -0.12282345 1.0426836 0.31111994 0.35154518 -0.41940165 0.5773906 0.6186589 -0.11089002 -0.4502099 -0.2869326 0.5888132 -0.8006686 0.25487417 0.34359923
19 0.1848901 -0.39055452 -0.5127704 0.49810654 -0.7363368 0.044616584 0.15641679 -0.048457555 -0.09199833 0.019023865 0.12950589 -0.27463326 0.0070996587 -0.2403127 0.6956373 -0.19453986 0.20908873 0.5582908 -0.69704956 1.1285069 0.6063431 0.29828277 0.49037296 -0.49710795 1.202748 0.32278118 0.37309018 0.4537455 -0.039922208 -0.47694412 -0.24294797 0.3162331
108 -0.52938277 -1.5173624 0.514822 0.31995088 0.37049392 0.54669267 0.34996393 -0.42925522 -0.21072106 0.5007657 -0.4749257 -0.61299735 0.04660813 -0.4513872 0.38067797 0.15470386 -0.5251156 0.82878906 -0.7275487 1.880695 0.76873064 0.0036575855 0.4331963 0.021103233 -0.1576923 0.2951528 -0.35977966 0.30968335 -0.26555887 -0.28687298 0.01457739 -0.16831706
474 -0.5602921 -0.6206486 0.22154087 0.27769694 -0.74153835 0.5426629 -0.034473218 -0.57062745 0.15626553 0.1672559 -0.037904356 -0.33277717 -0.046351705 -0.5378672 0.21654317 0.07531376 -0.6782972 0.5736701 -0.20981494 1.5001448 0.8827309 0.614124 0.050132353 0.010269417 0.004645821 0.15782222 -0.96097726 -0.08540904 -0.3017654 0.12264749 -0.033357948 0.14340478
285 -0.22119741 -0.4190173 0.90902025 -0.3488391 0.16004755 -0.093902424 0.302585 0.4478483 -0.71581507 0.1985594 0.6501465 -0.5836803 -0.21786533 -0.13164446 0.08802128 -0.19595692 -0.13931529 -0.6711441 -0.17267534 0.7178954 0.65973556 0.63164234 0.28195903 -0.5913596 0.38823816 -0.25495765 -0.1772271 -0.06474946 -0.7226651 -0.4782455 0.30979088 0.19577178
60 -0.65081024 -0.969496 0.6817734 -0.57551825 -0.3351591 -1.0212024 -0.6502128 0.58738685 -0.3411326 -0.6903233 -0.12110215 0.18663315 -0.38039446 -0.61281186 0.12806144 -0.15591794 0.11795335 -0.22772586 0.64894944 1.5587677 0.7918499 0.83585966 -0.7083478 0.14675696 0.79397166 -0.2183794 0.14660591 -0.06550908 0.5190814 0.1253129 -0.15789634 -0.17920767
89 -0.018707627 -0.6167277 0.9203936 -0.4231762 -0.08682379 0.3266327 -0.035998035 -0.35557312 -0.50358963 0.54739857 0.33715793 -0.32602188 0.07683632 -0.6385752 0.4418374 0.280636 -0.6175456 -0.3647991 -0.21077016 0.53314215 0.6510482 0.49367753 0.07640784 -0.68299586 0.62142706 0.013179611 0.15489289 -0.36105832 -0.8596137 -0.13241215 0.6335834 -0.3844247
180 0.15284023 -0.2163701 0.24646896 -0.03830005 -0.6885501 -0.46211818 0.32248658 0.2438651 0.5072775 -0.22384222 -0.20701459 0.30147055 -0.43247423 -0.56356657 0.17100379 0.09929974 0.14436525 0.08572877 0.51356 1.1025485 0.25365943 1.3128963 -0.13118885 -0.31412736 0.9415157 -0.27865353 -0.79912883 0.54555637 0.8622806 0.134171 0.65874374 0.43979812
306 0.38463446 -0.8657655 0.43392548 0.5809121 -0.4674842 -0.5073999 -0.00021340957 -0.6331584 -0.6102817 -0.3626657 0.015784882 -1.0340228 0.057344034 -0.8421621 0.2275131 0.17218255 -0.02835425 0.49692944 -1.2069987 0.8607841 0.274524 0.57733685 0.6580273 0.011872255 -0.06143009 -0.7545308 0.25336966 0.08197199 -0.53013945 -0.43345287 0.2724421 -0.47296622
84 -0.6381566 -0.05055648 0.24901108 0.4617734 -0.33675766 0.0039626365 -0.26296267 -0.41797477 -0.42803115 0.5880501 -0.09620967 -0.64987826 0.3063395 -0.16070257 0.10138629 0.49453077 -0.50772685 0.34849694 0.45917538 1.0943741 0.15721247 0.767778 0.22206864 -0.891963 0.4560068 -0.5290073 -0.44489935 -0.12504888 0.2660861 -0.24374166 -0.33809295 0.12696117
210 -0.2607353 -0.95753354 0.5002017 0.10413459 -0.061089363 -0.088547654 0.80907923 0.11679346 -0.24053782 0.42376253 0.67650306 -0.58226544 -0.33553645 -0.36521924 0.04747458 0.31693357 -0.18798633 0.80034703 0.416279 0.43290094 0.754796 0.59019756 0.6721189 -0.53054845 0.37814355 -0.20269023 -0.8505004 0.20477588 0.06928429 -0.09772959 -0.36811706 0.43578756
506 0.4080903 -0.15942898 -0.40846494 -0.010464824 -0.32247144 0.12555781 0.20942308 0.24414608 -0.045742407 0.3249112 0.116484255 -0.80935717 -0.15211459 -0.29387853 0.5970122 -0.10551421 -0.12798162 0.5274302 -0.5179113 1.0292032 0.59508663 0.3307926 0.667631 -0.84510446 1.2901294 0.090675816 0.3337118 0.39468068 -0.32681635 -0.612374 -0.26408148 0.34786856
8 0.6557187 -0.55604166 -0.7573399 0.029257027 -0.3827592 -0.18570091 0.024256947 0.057793763 0.12862492 0.29140702 -0.018741246 -0.2643217 -0.35171935 -0.22510739 0.5863808 -0.031442717 -0.094219536 0.25449243 -0.7197504 1.3482977 0.37524834 0.37731415 0.68074554 -0.64617527 1.5084431 0.09564731 0.35693648 0.732218 -0.08112843 -0.42220443 -0.0987293 0.19704862
296 -0.3650518 -0.8666751 0.6784896 -0.2620373 0.10036763 -0.82987994 -0.53786874 0.51866114 0.08022902 -0.6679274 -0.07915897 -0.28355104 0.20641601 -0.3910931 -0.3099074 -0.368503 0.8848305 0.15151368 0.3762395 1.4027885 0.67373616 0.8719511 0.17276743 0.17102171 0.91009754 0.19499664 -0.24417704 0.031920735 -0.24160631 -0.11752827 -0.5155378 -0.020955538
466 0.4381576 -0.26891398 -0.5288105 -0.29540747 -0.10938316 -0.3462028 -0.27883905 0.33517578 0.10209267 0.05118809 0.007856135 -0.46581167 -0.34437713 -0.09386089 0.5072909 0.3316847 -0.22329049 0.46550283 -0.2398081 1.3344097 0.686207 0.236368 0.71746886 -0.6465347 1.4889063 -0.24179018 0.653448 0.7943312 0.5252403 -0.7275558 0.23863487 0.65532
402 -0.2071834 -1.7104602 0.05621607 -0.9523666 -1.1794057 0.7738276 0.10394066 -0.6563165 0.50314534 -0.5948097 -0.13240664 -0.54411674 0.3478846 -1.2965448 0.25047255 0.14626913 0.52841866 1.3372786 -0.16015321 1.1701028 1.5665619 0.93537414 -0.663917 -0.93438834 1.2169498 -0.27535087 -1.1661223 -0.584942 1.1230468 -0.9988541 1.8007027 0.531229
612 -0.9503944 -0.26801938 0.17939426 0.84228474 -0.80172753 -0.05013582 0.03483247 -0.0826206 -0.24516718 0.22475252 0.057734057 -0.4910486 -0.0013018242 -0.108593814 0.6130142 0.06463872 -0.32302117 -0.14826493 0.36965066 1.0570775 0.30393046 0.86611575 0.2254586 -0.66453356 0.39881828 -0.2921169 -0.89273787 -0.24354996 0.28112325 -0.31435102 -0.13949236 0.050227743
303 0.0043372717 -0.50272053 0.39390063 -0.22562753 -0.14949736 0.29660964 0.7800804 -0.234154 -0.4656512 0.31268662 0.60041106 -0.7797401 -0.079004586 -0.09025134 0.16063596 0.10468631 -0.3419535 -0.081834845 -0.26556343 0.18866298 0.76973027 0.8861758 0.6124899 -0.23481876 0.8933559 -0.20268106 -0.008065561 -0.18652552 -0.47397783 -0.50865954 0.29830825 0.14836098
367 -0.015531858 -0.48116952 0.32656026 -0.14155021 -0.8220664 -0.21495539 0.10810138 -0.17160031 -0.62338 0.05898645 -0.31889543 -0.40043098 0.20735422 -0.69155115 -0.18679515 0.3450094 -0.059163384 -0.039070766 -0.56545705 1.1447601 -0.2507672 0.24515496 0.38102743 -0.16914013 0.68735856 0.36366567 -0.42920706 -0.45267084 -0.57707477 -0.022392103 0.18649265 0.47230244
46 -0.20432208 -1.3356986 0.49923092 -0.2959864 0.031040791 0.3183798 0.9005836 -0.11074544 -0.4751454 0.017287483 1.0054252 -0.46488202 0.18147472 -0.53950685 0.552987 0.33112553 0.34058958 0.12970404 -0.506702 0.012515686 0.7675129 0.7292389 0.24914297 -0.3897396 0.8456617 0.0019511133 -0.8080172 -0.59567124 -0.31337893 -0.7949009 0.36861637 0.033698127
173 0.20975408 -0.47761303 0.23407304 0.90610343 -0.74420804 -0.03554523 0.021142388 -0.16765018 -0.73391765 0.03575038 0.22752051 -0.39558333 -0.15662523 -0.5674941 0.32049978 -0.1366796 -0.043459322 0.09923683 -0.58575624 0.7138493 0.08343667 1.164984 0.45005205 -0.093510374 0.4002389 -0.2704995 -0.4240236 -0.06032577 -0.5576839 0.13765115 -0.16481648 -0.07287855
14 -0.19637954 -0.9299009 0.08555563 -0.4396399 -0.30956206 -0.98469406 -0.4275651 -0.06306451 -0.40495092 -0.27757567 -0.539954 -0.31183973 0.032934926 -0.48566288 -0.017861806 -0.12386189 -0.43101063 0.34333256 0.3947546 0.9634163 0.49500805 -0.04684649 0.16445021 0.14740606 0.8841455 -0.037395734 0.18225513 0.10245947 0.0800058 -0.03027632 0.5963324 -0.4868967
177 -0.42489323 -0.7443629 0.18772407 -0.31369385 -0.44218075 -0.6612215 -0.10225393 0.24034505 0.08497266 -0.28586128 -0.49717343 0.25254157 -0.44408277 -0.020276949 0.20425141 -0.3652344 -0.3758785 -0.1622003 -0.50728583 1.380508 0.70318824 0.27815878 -0.6753199 -0.042868827 0.6051234 -0.4461609 0.36684322 -0.11601069 0.5915567 0.40126497 0.4977526 -0.210953
152 -0.62238705 -0.06664007 0.27174547 0.7239793 -0.5715923 -0.47506443 -0.08718535 -0.06116427 -0.5275217 -0.33649325 0.07906465 0.046196144 -0.33246675 -0.11837441 0.17191862 0.037743296 0.1109664 0.16444242 0.45177293 1.0174578 0.32820475 0.9777177 0.48291185 -0.27618244 0.5435256 -0.38120914 -0.99319386 0.14532922 0.29007143 -0.16358522 -0.16359152 0.48492095
504 0.5625815 -0.24751739 -0.5448165 -0.2908958 -0.18092415 -0.050695024 0.1655329 0.33663383 -0.057083394 0.30316845 0.0638402 -0.51451993 -0.43848416 -0.1091187 0.35819912 0.16903748 -0.22734518 0.24150726 -0.5344808 1.2536582 0.5204454 0.4132301 0.6915479 -0.7610889 1.6009506 0.036320217 0.7742045 0.5970273 0.027998896 -0.67875844 -0.04627935 0.46958578
93 -0.37594622 -0.77943516 0.21197209 0.07420199 -0.13746607 -0.26802012 0.16444364 -0.09671091 -0.87949747 -0.04332301 -0.7037025 -0.5070289 -0.44263232 -0.39238992 -0.42289567 0.1484465 -0.79354787 0.27123627 -0.4968848 0.9898765 0.0162967 -0.17160675 0.23215346 0.1019026 0.9513109 -0.34615296 -0.07075418 -0.211497 -0.06992669 -0.24661484 0.76336247 -0.021373909
155 -0.15403524 -0.23141675 0.59114575 -0.28190723 -0.46843922 -0.29565415 0.21035469 0.35210484 -0.7384273 -0.074004725 0.27319187 -0.2627727 0.17693724 -0.15280972 0.4734196 -0.42003366 0.15969037 -0.01844041 -0.32674718 0.6624099 0.35158935 0.8319138 0.33445126 -0.090074755 0.4980679 0.06189327 0.19132407 0.06913124 -0.7377182 -0.120742075 -0.3796172 0.20570496
455 -0.24652262 -0.7553562 0.9377323 -0.1830658 -0.60582566 -0.15860185 -0.22370918 -0.25113398 -0.7883032 0.26478907 -0.16062573 -0.0037287811 0.41702962 -0.23520997 -0.021861298 0.5764755 -0.85265124 -0.3625714 -0.34720594 0.855896 0.20287853 0.31620002 0.1892022 -0.92744046 0.7481718 0.1893552 -0.41842896 -0.56857705 -0.3314342 0.5069035 0.42997363 0.58514047
158 -0.020171005 -0.4644958 0.6863692 0.24216443 0.14329052 0.03335742 0.5361543 0.32632563 0.09661621 1.276857 0.83843166 -0.309149 -0.30183488 -1.1396037 0.5814753 0.46048224 -0.2844293 0.8089425 -0.027027063 0.50244653 1.3308355 0.9788645 0.7052325 -1.175611 0.57149136 -0.31642628 -0.38918188 0.17144926 -0.49260443 0.09158031 -0.036344044 0.06499845
57 -0.56449604 -0.30737963 0.17024288 -0.51750875 -0.05007935 0.41594943 0.03814938 -0.2205678 -0.62544316 0.37554786 0.75538427 -0.7397055 -0.029531421 0.5528989 -0.033597495 0.20570596 -0.4696119 -0.671119 -0.35421723 0.7398665 1.5615788 1.2015543 0.7391925 -1.1802663 0.6222677 0.10349298 0.27317458 -0.10159184 0.018972082 0.10427209 0.55804414 -0.2697565
379 -0.45760348 -1.1812494 0.6467945 -0.64612895 0.013293231 -0.6293782 -0.75181127 0.7232036 0.24199614 -0.5315958 0.7565959 0.24010089 -0.17672203 -0.50181764 0.52941525 -0.48593622 0.3477013 -0.38830957 0.25312608 1.0715721 1.2259057 1.2673335 -0.38726532 -0.42426798 0.515273 0.106513806 -0.0784715 -0.03822993 0.05763833 -0.19887227 -0.30317557 -0.48879164
174 -0.55890024 -0.8534304 1.0247986 -0.31318277 0.26272652 0.13531718 0.19351557 0.25522652 -0.21329147 -0.027342075 0.82661223 -0.19248779 -0.08597109 -0.47854206 -0.065820195 0.032844763 0.17259075 -0.4192449 -0.15825306 0.59410673 0.96687 1.1362112 0.35381788 -0.1383321 0.40174153 -0.36358055 -0.112866126 -0.74332047 -0.46675584 -0.45460156 -0.06790196 -0.513856
15 -0.021762818 -1.2996404 -0.32370213 0.28219837 0.14654894 -0.37913808 0.45509484 0.1269394 -0.33739543 -0.19763987 1.1970551 0.08932545 0.23215944 -0.021224061 0.9081564 0.28174996 0.5428459 0.44648033 -0.44069993 0.4953448 0.38804024 0.78737694 0.37395507 -0.11133597 1.1704549 0.005503815 -0.41593727 -0.47763658 -0.124024816 -1.0482385 0.38708362 -0.40659517
618 -0.2615592 -1.1910248 -1.0209215 -0.61530113 -0.7397994 -0.46290627 0.32065094 -0.35946688 -1.4483855 0.857477 0.81421167 -0.71913874 0.43012938 -0.46827507 1.029146 0.44235888 0.05908833 0.97873414 0.7998399 0.9943715 0.0958533 2.1017926 0.25145882 -0.10050725 0.89607674 -0.28033012 -0.26117942 -0.5504385 -0.32903093 -0.17313142 0.63972646 0.34461206
92 0.30745286 -0.23050442 -0.024728004 0.18156599 -0.56568336 -0.15072407 -0.40840325 -0.183053 -0.72848177 0.06737761 0.26762885 -0.72076046 -0.35663158 -0.90693873 0.055636257 0.041481923 -0.12982433 0.09436263 -0.9306289 0.45644042 0.71382904 1.7400986 0.5510939 0.1565598 -0.15324926 -0.91005397 0.07194801 0.11672641 -0.11349242 -0.22607845 0.083471484 -0.035064444
132 -0.8121571 -0.264409 0.725902 -0.087625004 -0.26998156 0.37169877 0.44632357 0.21266161 -0.08842957 0.1360024 0.9047748 -0.46760115 -0.055076424 -0.34650522 0.19882338 0.1311528 -0.40619016 0.22249176 0.46106857 0.73112416 0.760241 0.61287385 0.36605015 -0.75503635 0.7718704 -0.25872314 -0.37265477 -0.008947709 -0.31288102 -0.011535145 -0.012663856 0.18876538
515 -0.70960224 -0.689924 0.29287583 -0.4767078 0.6481379 -0.8480353 0.2782545 0.012677544 -0.35053408 0.31790066 -0.29307014 -0.27748 -0.62670857 -0.54139316 -0.15118344 0.075235926 -0.6724298 -0.064580604 0.548982 1.229185 0.6673727 0.2671666 -0.30514482 -0.06523225 0.8886777 -0.15374488 -0.14230986 0.096316524 0.1579384 -0.4212768 1.2073966 -0.17070188
209 0.17463744 -0.628592 0.63751 0.5432122 0.038069263 -0.14810619 0.38839617 0.25481912 -0.39857107 0.6852129 0.52148116 -0.3882025 -0.113087974 0.23362087 0.38306528 0.2712393 -0.078914076 0.22278875 -0.3584927 0.3665277 0.820085 0.7274808 0.73910207 -0.7967173 0.27610397 -0.5742412 -0.53700644 0.30259323 -0.30422872 -0.59288687 0.0054440345 0.23082957
100 0.10526196 -0.67845345 -0.11212368 -0.25626272 -0.3729697 -0.3598015 -0.3191402 0.19569583 -0.8345486 0.258064 0.82294494 -0.19240017 0.37067145 -0.48326653 0.9033721 0.078351185 -0.27735355 0.39311406 -0.20671985 0.9418534 0.06549364 1.5170244 0.25832215 0.39735812 -0.056425642 -0.10314362 -0.8025245 -0.042095266 0.028094517 0.029226316 0.63219124 0.55803055
29 0.3360956 -0.9766527 0.5253594 0.15128724 -0.32808164 -0.1301634 0.16464697 -0.051822454 -0.84167945 0.23020251 -0.26147065 -0.10565463 0.1621298 0.0725973 -0.34987524 0.6282794 -0.017072259 0.25985384 -0.9220583 1.3443855 -0.23896253 -0.11216304 0.35125548 -0.6039011 0.6705399 -0.2059901 0.031168694 -0.15568942 -0.54135513 0.091572225 0.5045358 0.7001175
525 0.7112328 -0.4080518 -0.5927872 -0.26858985 -0.1568891 -0.13460237 -0.11430864 0.32368234 -0.09193707 0.41352633 -0.121308066 -0.58299905 -0.23354506 -0.21759994 0.53116345 0.30172303 -0.30952713 0.43642682 -0.6037495 1.341126 0.7783167 0.25110677 0.6476953 -0.8690443 1.6784345 -0.16737318 0.9593942 0.68698025 0.1885832 -0.712457 -0.114690974 0.16617288
40 0.21433845 -0.8074069 0.59627134 0.04879747 -0.8459776 -0.5933058 -0.032883376 0.032342628 -0.6909256 0.0859666 -0.76402545 0.048840225 0.044817336 0.017493507 -0.19652888 0.70798594 -0.66942847 -0.04020006 -0.8363645 1.1654308 -0.16364072 -0.005558795 0.16662395 -0.87035996 1.1001322 -0.30911815 0.16839494 -0.6847135 -0.17876822 0.36875418 0.59800273 0.70415395
208 -0.2919733 -0.44891992 0.9892032 -0.52206117 0.027413405 0.35558954 0.36585286 0.30165333 -0.23343575 0.07677303 0.8354463 -1.0080585 -0.3404632 -0.21925278 0.19257054 -0.27669793 -0.091388315 -0.39733687 -0.024651194 0.84810644 1.5082322 0.99708146 0.43521503 -0.8830278 0.72907865 -0.13152157 0.19830292 0.010195891 -0.73540694 -0.3088177 -0.23892882 0.038428392
342 0.16011414 -0.97272396 0.76868623 -0.47714755 -0.064938225 -0.7073756 -0.39598125 0.38172746 -0.11309406 -0.6289958 -0.2384595 0.37220225 -0.4115513 -0.68695223 -0.16728964 0.28971118 0.119339556 0.17152412 0.44792527 1.0098265 0.4226368 1.1809561 -0.2872292 0.5275814 0.91524166 -0.24816912 -0.34824982 0.08232145 0.5638319 -0.19910203 0.46545723 0.033009402
311 -0.34467584 -1.1920496 0.103557624 0.6653987 -0.6151478 0.30536854 0.58414406 0.11441419 -0.061915424 -0.5433484 -0.11950183 -0.34094948 -0.133502 0.29507002 0.32543442 -0.10890891 0.04462797 0.11725937 -1.1021024 1.5859145 0.2844472 0.7273648 0.01771855 0.13141863 0.6833101 0.023475647 -0.114658475 -0.7434151 0.61133164 0.42644033 -0.53105366 0.11948226
856 0.3782339 -0.19212683 -0.5979814 0.4799774 -0.5743783 -0.00090809586 0.18478414 -0.09712522 -0.05558206 -0.21808575 0.18080969 -0.28722605 -0.24601917 -0.2163641 0.48368025 -0.11689738 -0.085166745 0.64888114 -0.6900199 0.9892199 0.442567 0.3804622 0.64384407 -0.2764834 1.3814112 0.25258753 -0.016415494 0.25473747 -0.23233789 -0.35401708 -0.05316091 0.16078728
143 0.08734125 -0.8346426 0.635566 0.29974264 -0.1927572 0.047365148 -0.35200593 -0.42967635 -0.6503953 -0.27410266 -0.3203491 -0.9909062 0.28145984 -0.60270077 -0.060189098 0.24089366 -0.3365069 0.33577672 -0.0015802209 1.8571686 0.44586942 -0.069075786 -0.13814045 0.48289362 0.055291377 -0.26040548 -0.4162213 0.092695326 -0.33069375 0.10570333 0.26700538 -0.614835
417 0.29614922 -0.8378166 0.8978139 -0.37777328 -0.6708122 -0.36891612 0.020409727 -0.30074924 -0.5732395 0.29172838 -0.6345672 -0.38692406 0.18075535 -0.4274596 -0.13690788 0.73463464 -1.2407076 -0.023898963 -0.19438279 0.90529954 -0.11366048 0.17107832 0.5535537 -0.5800372 1.0585526 -0.33593935 -0.2540553 -0.5814428 -0.29213077 0.4872665 0.5197653 0.49713936
162 -0.6426298 -0.13848774 0.40519288 0.41975957 -0.41693676 -0.35413644 -0.15202251 -0.020966828 0.07641244 0.1236291 0.5299952 -0.4320356 0.3294363 -0.27430695 0.25632575 0.20741476 0.33224845 0.025120331 0.60431653 0.8927233 0.19850303 1.1360149 0.05338035 -0.6767457 0.68466014 0.13138652 -0.18517116 -0.26523384 -0.5496252 -0.22222078 -0.4155452 0.34807763
757 -0.07882738 -1.1173223 0.45763466 -0.08823766 -0.67910093 -0.42700788 -0.079156324 -0.16677885 -0.7163442 -0.057442904 0.0038722043 -0.43448415 0.00074456015 -0.6927261 -0.04975168 0.4517501 -0.28186566 0.1862706 -0.6587649 2.0689118 0.41432962 0.9350684 0.46990386 -0.59809417 1.2363781 -0.058331378 -0.380983 -0.41326842 -0.09189278 -0.36944407 0.29845837 0.38980532
520 -0.34910473 -0.46820658 0.6046862 -0.41300103 -0.09539889 0.24442264 0.30608305 0.4303466 -0.17985314 0.10766758 0.7856769 -0.83402014 -0.18451303 -0.50391775 0.32132623 -0.08094494 -0.20684367 -0.80667955 -0.5215868 0.68219715 1.0709366 1.0700761 0.26391685 -0.72155404 0.5567272 -0.3705629 0.4466719 -0.4691601 -0.8662798 -0.38847044 -0.2731698 -0.051463563
812 -0.30492264 -0.7153273 0.55883235 0.07511667 -0.009237425 0.1305604 0.6875302 -0.010552884 -0.19633445 -0.02529954 1.0700711 -0.22663565 -0.22068723 -0.032257337 0.42495102 9.382435e-06 -0.08058834 -0.5172451 -0.3045649 0.2242977 0.80226946 1.0632973 0.06931347 -1.0697179 1.0269525 -0.4167512 0.10471233 -0.8602747 -0.31474212 -0.48645905 0.29548427 -0.30774745
12 0.19387196 -0.31378707 -0.52843213 0.14535704 -0.43327153 -0.2097971 -0.24135804 0.07832016 0.08614656 0.19898577 -0.05974754 -0.30244556 -0.09190999 -0.15737417 0.34692946 -0.20099668 0.00910314 0.57854503 -0.6146176 1.1280082 0.64117885 0.37532988 0.51101685 -0.47285542 1.2853099 0.14972228 0.4893596 0.6457903 0.2009688 -0.35949016 -0.007712091 0.32387748
426 -0.54850787 -0.2155895 0.11488981 -0.15199669 -0.21880718 -0.9654419 0.002234001 0.88904166 -0.67687225 -0.06339965 0.14057596 -0.67328596 -0.21820834 -0.380514 -0.30406564 0.14539838 -0.4826112 0.2835632 0.061801177 0.79230225 1.2559415 -0.01475565 0.04499467 0.5047149 0.8883178 -0.5244139 0.03708228 -0.12153217 0.1445325 -0.45404297 1.0268335 0.32012153
639 -0.11694594 -1.1168346 0.19402035 0.46596345 0.34663832 -0.53172415 -0.32277006 0.47437936 0.08308088 1.8258414 0.19492629 0.1708893 -0.15055867 -2.259264 1.1674724 1.0282685 -0.1903255 1.4917262 -0.80489314 1.2549701 1.298855 1.0036182 0.38209763 -1.0456169 0.58614415 -0.19257158 -0.21303174 0.114773706 -0.017748818 -0.0062533077 0.9816221 0.055472616
327 0.75438124 -0.69061446 0.50415456 0.05880276 0.13590513 0.007416826 -0.32023114 0.632169 -0.8507675 0.06881926 0.18646327 -0.22014666 -0.31569955 -0.52832633 -0.0026912058 -0.41281217 0.40653732 0.39469996 -1.4330163 1.5605183 -0.13303216 0.9782565 0.49568254 0.39669177 0.02267979 -0.7591176 -0.15113096 0.36971432 -0.651754 -0.014893858 0.1343806 -0.31569117
30 0.11907864 -0.7681146 0.39593798 0.17336048 -0.5995351 -0.46996155 -0.22168005 -0.20459011 -0.9597895 0.009762478 -0.34291342 -0.22758982 0.1663895 -0.09335521 -0.4922109 0.8263063 -0.30656198 0.17917904 -0.69297403 1.2387486 -0.04306331 0.026645197 0.32849047 -0.21297485 0.93460566 0.10051975 -0.27707672 -0.113088064 -0.7749481 -0.017926462 0.6718308 0.7291915
368 -0.5626026 -1.2644174 0.62331015 -0.38144615 0.080285996 -0.7440028 -0.93240887 0.06528166 0.16328993 -0.15601636 0.092350796 0.27334952 0.20342372 -0.73065966 -0.12825614 -0.29517856 -0.20028102 0.17109175 -0.04875807 1.6128893 0.98550576 0.6426743 -0.35192996 0.047583453 0.08427509 0.4653036 -0.12196543 0.015483688 -0.54300654 0.058944274 -0.4273712 -0.3647359
69 0.3109059 -1.3080008 0.14210041 0.77710444 0.011210403 0.13388781 0.19360098 -0.704705 -0.11196245 -0.16826688 -0.10260283 -0.7962351 0.1145652 -0.636904 -0.07920409 0.11161571 0.06848238 0.37982148 -1.0942774 1.0802554 0.58061796 1.0281025 0.39157224 0.65052027 0.42340276 0.094883084 -0.25637758 0.19418819 -0.10406933 -0.19285534 -0.27757278 0.057025086
321 -0.12585609 -1.1623483 0.63855964 -0.5076856 -0.19770649 -0.90958595 -0.81421065 0.27485088 0.23287728 -0.40950316 0.29933843 0.23430687 0.47688988 -0.22959863 0.17268705 0.05105116 0.6115007 -0.10498893 0.1739341 1.1737105 0.68598884 0.51962197 -0.2299187 -0.44299755 0.67470413 0.54094225 -0.35003072 0.28077453 0.23102486 -0.20726314 -0.025204796 -0.26180872
482 0.56317097 -1.0905383 0.65119004 0.06797145 -0.5496619 0.30119285 -0.44611508 -0.5596663 -0.57128257 0.29942757 -0.8512876 -0.28883573 0.32471114 -0.42933908 -0.38119495 0.34269983 -0.5890341 0.13330024 0.14815255 1.0119936 -0.06173951 0.5739318 -0.0399261 0.18322217 1.157963 -0.78723633 0.50841635 -0.2776338 0.2363013 0.44722685 0.069069624 -0.3032797
275 -1.1010634 -0.5126845 0.20639966 -0.5527902 0.36181948 -1.3688705 -0.2790206 0.50710505 -0.50634086 -0.0019093563 -0.35096636 -0.27841118 -0.24327134 -0.15440145 -0.3034973 -0.18323463 -0.42006722 -0.25053543 -0.2271229 1.5741659 1.1767839 0.13541523 -0.35758302 0.060834277 0.34185314 -0.09906281 -0.00051829906 -0.012871042 -0.014634085 -0.43927613 0.52930284 0.26899973
91 0.008627165 -1.2164198 0.543108 0.098900385 0.20496036 0.206864 0.042901874 -0.47723985 -0.3382777 0.14126603 -0.35563368 -1.085845 0.10332833 -0.94061077 0.44869003 0.34928915 -0.742963 0.6297011 -0.5471778 1.7834516 0.94191825 0.068596035 0.316856 -0.066607416 -0.4580325 0.14907125 -0.5229048 0.17608692 -0.3940331 -0.5103721 0.12857541 -0.67557925
441 0.25168583 -0.21659572 -0.39126763 0.30192348 -0.59836626 -0.07433678 -0.06111518 0.10451046 -0.0033308116 0.18138422 -0.16664365 -0.3573941 -0.06541104 -0.15807302 0.3764675 -0.11588499 -0.09959542 0.4616075 -0.41453764 1.0444885 0.39680994 0.26066953 0.6136895 -0.61778784 1.4357287 0.050877977 0.29616138 0.4500511 0.02851877 -0.33733222 -0.24549218 0.35840875
479 -0.2566195 -1.498266 0.53878486 -0.14680007 -0.5294765 -0.7043244 -0.03586951 0.25549954 -0.7072294 -0.037171714 0.1712134 -0.5349399 -0.15189907 -0.53855246 0.1968277 0.321911 -0.4562368 0.35169452 -0.3653396 2.183014 1.0336329 1.1809412 0.27339035 -0.55962545 1.5298449 -0.3978072 -0.07598095 -0.15600199 0.008921002 -0.41795966 0.49126422 0.26791713
65 -0.4909876 -0.55957 -0.09562771 -0.17008592 0.17676558 -0.78198093 -0.2568637 0.40964624 -0.76927567 -0.003487527 -0.071961366 -0.5159692 -0.35093376 -0.52665836 0.04335109 -0.21668953 -0.49581426 0.25457653 -0.5168964 0.8554287 0.7993938 0.27541476 0.034776073 0.39829236 0.17093134 -0.69358754 0.15208365 0.07752194 0.36133376 -0.3262791 0.9050219 0.0051082787
145 -0.4854802 -0.43831435 0.34405786 0.31454518 -0.7046353 0.14176601 0.58737564 0.027559565 -0.1799232 -0.05389441 0.35221177 -0.51351374 0.08120752 -0.27349052 0.09769492 0.03341626 -0.183624 -0.072371125 0.076351635 0.7705168 0.43058378 0.8082161 0.11863704 -0.27450222 0.68780583 -0.020303233 -0.59564734 -0.03786684 -0.649473 0.19643317 -0.032113604 0.19714418
261 -0.18329129 -0.51022506 0.75116867 0.09426916 -0.8236521 -0.28990585 0.03660645 -0.09515698 -0.80156994 0.27453414 -0.6234283 -0.2011449 0.14214717 -0.36947694 -0.24537432 0.77203876 -0.29163814 -0.27994043 -0.57753766 1.2908491 -0.0857273 0.09494874 0.22931238 -0.757786 0.92414415 0.07524712 -0.58692944 -0.4192134 -0.42003447 0.10020183 0.5966979 0.8869727
151 -0.13533066 -0.86632466 0.50017875 0.34352 -0.7491156 -0.15899564 -0.099051595 -0.17281799 -0.9233332 0.36463243 -0.6267146 -0.1740035 0.23505661 -0.19008839 -0.28596127 0.75866467 -0.51553375 -0.2000521 -0.817313 1.3932979 -0.10956628 0.022144936 0.27662846 -0.5992299 0.9203038 0.21723439 -0.33104974 -0.2919511 -0.58992136 0.17084669 0.46337152 0.57741344
628 -0.49066532 -2.1947427 -0.12140805 -0.99968076 -0.22087507 -0.3681795 -1.39042 -0.101147674 -0.24798903 -0.10533232 -0.5666631 -0.52989864 0.64786136 -0.27029148 0.8769056 0.48048452 0.2717524 0.31266928 0.64466566 2.0129802 0.82864684 1.3083237 -1.0316812 0.11312632 1.8345194 -0.22298938 0.79751414 -0.78417206 0.32505098 -0.8514065 -1.2773948 0.29153392
319 0.16321652 -0.6859465 0.6867902 0.34287152 -0.24859506 0.29157475 0.4868734 0.5377947 -0.07671437 0.4535611 0.5140047 -0.23564693 -0.10307126 -0.7243808 0.389159 0.45497027 -0.07289888 0.5406667 -0.17921567 0.7337966 1.016373 1.1421227 0.62264 -1.6236194 0.26838848 -0.8257522 -0.39101002 0.31547576 -0.34413773 -0.040473953 0.01486416 -0.076479234
206 0.26048726 -0.85530376 0.47347787 -0.30145252 -0.009236862 -0.6630672 -0.20199315 0.4725807 -0.7366909 -0.6081733 -0.09749889 -0.046834044 -0.4633024 -0.29663178 -0.21994449 0.49474233 -0.6704146 0.19476196 0.37933815 1.0790794 0.38790774 0.048319113 -0.08283044 0.2734806 0.93042964 -0.7179565 -0.0021562232 -0.07121365 0.5277547 -0.43844652 0.9794505 -0.33140078
103 -0.5150418 -0.8191161 0.6213216 -0.32559267 -0.11536319 -0.8519387 -0.8343117 0.35978907 0.019178923 -0.5370508 -0.17626625 0.24047634 0.10739579 -0.57306266 -0.025458485 -0.28609017 0.43538335 0.16702506 0.47868544 1.418265 0.7880737 0.8586903 -0.33688626 -0.020637264 0.9734971 0.16649176 0.14058301 0.17231919 0.09922855 -0.12841508 -0.47876534 0.057341952
243 -0.31604722 -0.4737444 0.59914577 0.11575875 -0.44221848 0.0632614 0.093999855 0.5385085 0.23900667 0.57102114 0.85758716 0.013936288 -0.22584964 -0.064172335 0.1315949 0.16830176 -0.37623793 0.6221121 0.3768892 0.9201882 1.32047 0.9248102 0.3580785 -1.5005069 0.07858709 -0.5397553 -0.0254244 0.09798697 0.09352088 0.38452825 -0.32364964 0.08337727
859 -0.50007004 -0.36710435 0.65453976 0.1291132 -0.2636531 0.4192871 0.47659084 -0.08359246 -0.10773014 0.3283656 0.9723114 -0.38998395 -0.27820382 -0.29346377 0.011158285 -0.16177745 -0.37614816 -0.38604164 -0.08428352 0.7587069 0.95146275 1.1936487 0.4705423 -0.5505575 0.7416599 -0.14670223 0.14538111 -0.37730917 -0.8055672 -0.21812855 0.12971312 0.23036504
486 -0.048283752 -0.5382917 0.63783425 -0.1020961 -0.012347183 -0.3714808 -0.074781425 0.08068778 -0.63523453 -0.024696467 -0.321038 -0.42650744 -0.073395856 -0.33084348 -0.5052189 0.15992242 -0.29782 0.15581673 -0.35671 1.2222881 0.052341375 0.14766441 0.3946025 0.4704152 0.7148172 0.07170797 -0.100309215 0.095002875 -0.38862514 0.010114218 0.16712014 0.20985156
630 -0.13382769 -1.1971674 0.7749605 0.009763645 -0.5044032 -0.33108142 0.23982538 0.15729682 -0.43618533 0.07834158 0.4010225 -0.4437635 -0.046416476 -0.32175338 0.1755303 0.45133454 -0.40247557 0.1907593 -0.3585049 1.7123424 0.9438377 1.2841649 0.28319725 -0.96990436 1.1635303 -0.35715565 0.08889074 -0.082483485 -0.35929334 -0.14233667 0.3627481 0.04128358
42 -0.39785397 -0.39955685 0.34798324 0.3897152 -0.44760528 0.019707512 0.28309238 0.18691154 -0.18121944 -0.39165753 0.026235333 -0.385612 -0.20003244 0.114403084 0.07308214 -0.15200278 -0.08497551 0.3492704 -0.06949347 1.1092525 0.5180949 0.50308144 0.21656749 -0.39149234 0.48184225 0.12450441 -0.18919711 -0.16642474 0.058492858 0.17921655 -0.4195214 0.26572332
238 0.30615973 -0.46523055 0.024179934 -0.17657237 0.06727089 -0.28743646 -0.2112473 0.28444147 0.10810195 1.179735 0.35081762 -0.25652337 -0.26582047 -0.3501829 0.17162117 0.26740628 -0.5788308 0.799361 -0.020061877 0.53756636 1.3677415 0.66013014 0.665322 -0.94946694 0.60678124 -0.5821881 0.3871776 0.498667 -0.16576588 -0.33186 -0.07694387 -0.19955833
154 -0.42820683 -0.249574 1.1226851 0.61137784 -0.6870272 -0.36498928 0.4236457 0.06188359 -0.22231403 -0.18936624 0.12968875 -0.37233996 0.1429495 -0.10990235 0.07601458 0.14839315 -0.22993386 0.4709971 0.6885342 0.88465565 0.5491973 0.75137407 0.5315133 -0.23233044 0.47379482 -0.062129922 -0.45609683 0.37892205 -0.40053716 0.063191086 0.04879772 0.44086933
164 -0.24228607 -1.3953621 0.41481638 0.053170502 0.13782243 -0.20130658 0.13721865 0.11885473 -0.43615982 -0.12436006 0.87028176 0.17785397 0.14646095 -0.2555486 0.6370651 0.083952494 0.47946277 -0.66849256 -0.7691005 0.39276984 0.44663045 1.0948876 -0.056621984 -0.5513781 0.71134555 0.006831295 -0.44583392 -0.7398447 -0.3923991 -0.46883836 0.08022318 -0.49529457
849 -0.5103516 -1.0365049 -0.31151044 -1.1134701 -0.7195695 0.24487844 -0.62879753 -0.08260474 -1.0518698 -0.40494245 0.35265237 -1.0214527 0.16389675 1.2489655 0.66421866 0.30200046 -0.40289032 -0.35161072 -0.19048859 1.6031284 2.182004 1.1186615 0.7025262 -0.75040925 1.3329312 0.6796295 -0.24830538 -0.8350042 1.1732216 0.7748514 0.56543154 -0.4842938
358 0.5764756 -0.63927907 -0.61494094 -0.14336696 -0.2822715 -0.03010708 -0.02365955 0.20655574 0.11957493 0.27192044 -0.224643 -0.35149506 -0.26209357 -0.14116238 0.5314121 0.083836906 -0.19437999 0.48034024 -0.91394705 1.4612831 0.6756596 0.33543196 0.36990228 -0.9360695 1.3828769 -0.0527485 1.1328812 0.44366896 0.099057704 -0.4801485 -0.41603506 0.15106261
95 0.09354823 -0.80960083 0.32016245 -0.42840537 -0.019986404 -0.71721005 -0.79922223 0.3405383 -0.6168988 -0.66169816 0.004998427 0.36374745 -0.36171022 -0.41670758 -0.16947894 0.1579422 -0.47573647 0.656012 0.34940293 1.267111 0.41624808 0.28085443 -0.08834225 0.29200658 1.0142657 -0.17870401 0.18257204 -0.019079773 0.1893053 -0.15480062 0.6096116 -0.40247855
36 0.17688942 -0.85033226 0.7606213 0.059520524 -0.6675316 -0.69395494 0.40700614 -0.05109083 -0.98450255 -0.12541921 -0.3896127 -0.58342206 0.0828203 -0.01921446 -0.3771574 0.51938736 -0.4242282 0.15966184 -0.7598689 1.0392662 -0.38190025 0.059810463 0.5326181 -0.6304384 0.85842407 -0.5394208 -0.24094094 -0.75796324 -0.20480785 0.28622812 0.4697132 0.59100544
526 -0.6693296 -0.3488013 -0.014164174 -0.13793015 0.05760403 -0.93341386 0.24931481 0.6564353 -0.37436438 -0.011723054 -0.3522883 -0.5151095 -0.17040472 -0.2576708 -0.182968 -0.074795865 -0.25202957 0.51720786 -0.2230599 1.2431012 0.63164973 -0.3203896 0.2516306 0.21244475 1.0209935 0.015268463 0.20959978 0.22632805 0.16185944 -0.6340849 0.48943058 0.34346718
338 -0.12297902 -0.5791417 0.65374225 -0.09481893 -0.54968286 -0.028496843 -0.27037483 -0.06754351 -0.5445539 0.13155802 -0.16226645 -0.112250194 0.29183212 -0.29692635 -0.14476687 0.5129358 -0.29766527 -0.086609304 -0.46754998 0.82266456 0.20646323 0.21357462 0.4574378 -0.6527084 0.8249328 0.30167097 -0.6036176 -0.3944007 -0.33356273 0.3676905 0.05662096 0.7106815
397 -0.50103027 -0.9859936 0.74480337 -0.65807647 0.6120199 -1.1606487 -0.6514831 0.55353004 0.15328044 -0.3325441 -0.061926868 0.07139576 -0.14633168 -0.54463273 0.05984584 -0.39072686 0.3361921 -0.16230133 0.4572581 1.5344096 1.0433743 1.0440665 -0.45221272 -0.16643524 0.673897 0.045415882 0.12671377 0.096430294 -0.06887441 -0.0899619 0.026526438 -0.1316663
661 0.19570616 -0.48913947 -0.38821444 0.34209073 -0.44893554 0.2334962 0.04424934 -0.27085695 -0.1269659 0.18322854 0.023283908 -0.4149262 0.021319127 -0.19144373 0.6403543 -0.13856056 -0.13232492 0.83393306 -0.63188916 1.183684 0.6526824 0.1750229 0.39471695 -0.69812834 1.0254687 0.19950286 0.37465537 0.68926996 -0.03262122 -0.58402187 -0.25726473 0.069732174
124 -0.13820413 -0.96194786 -0.7072596 0.0070914337 -0.42936587 -0.34079587 -0.028614655 -0.15077993 -1.1308036 0.24697328 0.82824713 -0.44476366 0.60520464 -0.36313567 1.037286 0.20108838 -0.12135107 0.68046075 0.034587268 0.7246308 -0.03526235 1.406713 0.16286841 0.21927373 0.6141772 -0.19666386 -0.5479978 -0.52025867 -0.014387606 0.009411096 0.6692073 0.2725364
221 -0.5868309 -0.8642298 -0.24055164 0.24388866 -0.82457024 -0.14869536 0.39468166 0.1991483 -0.18332605 -0.5235088 -0.28589275 -0.21591786 -0.13334201 -0.0802085 0.38768414 -0.4825532 -0.3672519 0.4743445 -0.2881246 1.3988118 0.34026137 0.05830823 -0.10986893 -0.034342594 0.7871837 -0.16816318 0.13584551 -0.5241473 0.4858349 0.29977405 -0.39086202 0.118579544
977 -0.0030355968 -1.745588 -0.5840277 -0.060311884 -0.4329836 0.06722494 -0.6327255 0.40603393 0.1716623 0.014025409 -0.57756734 -0.9512411 -0.96822137 0.7420356 0.32385415 0.4310558 -0.5793923 -1.034955 -1.2390676 1.275036 2.0104334 1.4558482 -0.4705976 -0.69841784 0.699522 -0.8181647 -0.93392134 -0.6547807 0.13735658 -1.6341755 -0.16820967 -0.35269883
637 0.84540963 -1.023454 0.9792275 1.2784258 -0.9284685 -1.0577147 0.4623044 0.7046822 0.086317316 1.072807 0.9834975 -0.63604426 -0.008960161 0.070371814 0.8967295 1.2148932 -1.0451175 0.108143464 0.3648898 1.548365 0.59334123 1.4581239 0.7136443 -1.3538045 0.21265134 -1.3552564 0.6716996 0.51054716 0.00450903 -0.18480444 0.7075935 0.94643474
326 0.08123947 -0.375048 0.5721097 0.5734393 -0.36401188 -0.2893149 -0.021433167 -0.06618454 -1.0327157 0.059991278 0.016993247 -0.86386955 0.091666766 -0.41771927 -0.13555543 -0.32168072 -0.06211455 0.14693263 -0.75378585 0.8616437 0.18335764 0.9061906 0.66423625 -0.018328078 0.3450986 -0.6960494 -0.26443234 0.089032754 -0.7928662 -0.19829302 -0.34324202 -0.14070518
447 -0.022054113 -1.3732386 -0.54930544 0.08903278 0.2920458 -0.5183689 0.18924005 0.24473149 -0.3862549 0.13173725 1.1112311 0.32334337 0.1383037 -0.1712976 0.91971636 0.017616563 0.36737752 0.14205995 -0.95226616 0.46727806 0.7145144 0.9403983 0.010982843 -0.49995297 0.86313015 -0.27602914 0.050324026 -0.43748406 -0.1795566 -0.77270764 0.5688003 -0.5843019
683 -1.6197897 -0.54184735 -0.2619832 0.6398679 0.062382024 -0.2129559 0.78836584 -0.007740438 -0.36393327 0.04971056 1.5502467 0.2428163 -0.06587188 0.16259782 -0.24422087 0.8111133 -1.090822 -0.76591104 -0.8506498 2.048297 0.79643553 1.0508398 0.6392433 -2.1210215 0.8700134 0.17300527 -0.12611564 0.33357328 0.01751522 -0.7102647 1.1029524 0.75777024
495 -0.0974829 -0.6033429 0.92602044 -0.20018665 -0.062309273 -0.3411759 1.0477673 0.7274961 -0.31011444 -0.6443527 -0.08798973 -0.39052227 0.06198765 -0.43412676 0.39853558 0.17728834 0.30640283 -0.059185382 -0.029239204 0.861277 0.2091826 0.61508465 0.10178477 0.0018619086 0.5846869 0.099531494 -0.4271803 -0.23194416 0.066852994 -0.14128703 -0.33461088 0.41207397
356 -0.5549821 -0.8704405 0.21789405 0.23342533 -0.6398971 0.48091954 0.34087482 -0.4263649 -0.16833282 -0.12241933 0.26760343 -0.881536 0.14301515 -0.4851801 0.17450029 0.25970948 -0.39491403 0.4480961 -0.39948875 1.0399503 0.7047283 0.036344003 0.4481194 0.11624455 0.49844489 0.3699433 -0.72120535 -0.016077336 -0.2927598 -0.4392212 -0.20411947 0.087771334
499 0.59426934 -0.56188494 -0.62470925 -0.5143362 -0.09529112 -0.5025418 -0.49852568 0.4134883 0.09990403 0.23828168 -0.16955505 -0.2338005 -0.13112658 -0.24794142 0.52630335 0.18171723 -0.02414539 0.3602972 -0.45184928 1.3903768 0.7564394 0.34955582 0.33380964 -0.7959678 1.656173 0.13374916 0.9347519 0.7479298 0.08916007 -0.7686351 0.0450472 -0.07189047
131 -0.70766354 -0.15454501 0.5264551 0.06712254 -0.17106399 -0.08058926 0.1714753 0.29265112 -0.2565091 0.18581364 0.77991074 -0.7030629 -0.031180799 -0.20248294 0.34607223 -0.20472427 -0.41787645 -0.52494997 0.17843817 0.9994366 0.6878093 0.82763267 0.30267718 -0.811339 0.20559937 0.1330393 -0.03166288 -0.09088032 -0.48236227 -0.17996064 0.3647003 0.328921
223 -0.51525486 -0.76287234 0.16365652 0.17687614 -0.7253385 -0.061442982 0.09226794 0.19130011 -0.12633388 -0.4743865 -0.35210648 -0.10343609 -0.5237784 -0.08218342 0.42224956 -0.41931662 -0.21348983 0.05088086 -0.81382954 1.2540418 0.50769585 0.52552235 -0.21992888 -0.056052748 0.5822698 -0.13488756 0.07187765 -0.30876234 0.46941224 0.46329495 -0.32965985 0.010270446
376 -0.30984294 -1.1126354 0.7699092 -0.36205056 0.06612569 -1.2310243 -0.7713956 0.65843123 0.14774673 -0.4972334 0.10051818 0.09860658 -0.035070464 -0.4492322 0.24285312 -0.42552155 0.7043446 -0.0697184 0.43632233 1.622235 0.67990184 1.2575696 -0.24733941 -0.1469236 0.75206244 -0.0039439183 -0.18223855 0.018982153 -0.08349129 -0.0423225 -0.4813455 -0.2597192
707 0.5441399 -0.6805848 -0.52774614 0.03842522 -0.41629776 -0.15802075 -0.6091274 0.22020261 0.10211038 -0.03269684 -0.3029407 0.043780707 -0.10544336 -0.3135533 0.63343376 -0.38949123 0.074838504 0.25773013 -0.8122521 1.4533268 0.67669207 0.30353463 0.1088426 -0.6071982 1.379939 0.1356318 0.83583575 0.41880995 0.20825528 -0.11178769 -0.27469945 -0.15864636
950 -0.28986 -0.050129298 -0.057603404 0.3188406 -1.1264164 0.33115858 -0.15268621 -0.16847698 0.45669785 0.5864077 -0.1985011 -0.24561587 -0.16398178 -0.38818562 0.47104537 0.041156743 -0.42025155 0.23386467 -0.52166075 1.1202658 0.2026698 0.7728624 0.19419907 -0.6432309 0.59490436 -0.14797068 0.13704348 -0.2108823 -0.038438663 0.38634652 0.018127354 0.16203505
529 0.52864605 -0.69443595 -0.5959088 -0.20425731 -0.09773495 -0.267093 -0.17535724 0.11331553 0.30717495 0.05211823 0.13666886 -0.5505386 -0.21681911 -0.085343346 0.59289336 0.34459046 0.059526302 0.48829272 -0.7075916 1.2529349 0.97548527 0.38399926 0.8587268 -0.7294131 1.4924681 -0.08944917 0.99339086 0.64913446 0.36058697 -0.80852574 0.15723048 0.36085188
213 0.5572473 -0.8004577 -0.61723197 -0.39482513 -0.11177006 -0.502661 -0.70440346 0.3187745 0.25868347 -0.11995552 0.15074846 0.048401345 -0.008084808 -0.2407742 0.7577475 0.024556862 0.39462945 0.57146025 -0.6726577 1.3535914 0.72152466 0.51237077 0.38105297 -0.47860783 1.479706 0.1183172 0.91852784 0.6557046 0.3445157 -0.6297657 -0.0636184 0.09737255
281 -0.6914963 -0.45153555 0.5736488 0.12755787 0.08096454 0.32628468 0.44783098 -0.059700157 -0.21577136 0.43840218 0.9137581 -0.14965746 -0.20700587 -0.042733006 -0.10434259 0.31192163 -0.58121705 -0.5095255 -0.31635222 0.82284176 0.88343734 0.91391313 0.23414445 -0.9020411 0.67295235 -0.23532811 0.17409824 -0.2669887 -0.6693545 -0.19941786 0.6226611 0.1453916
201 0.13585784 -0.6895257 0.467655 -0.26943755 -0.24231014 -0.1462894 -0.7425132 0.23176453 -0.79847646 -0.5998028 0.35242602 0.1353685 -0.39030057 -0.35447615 -0.24091339 0.18791991 -0.7859462 0.5332435 0.37147895 0.9189755 0.43264642 0.20084931 0.0799516 0.1772561 0.8007915 -0.34537634 0.18977936 -0.2807893 -0.19746123 -0.15810351 0.56998605 -0.16347958
167 -0.13919607 -0.8193391 0.42924967 -0.48230332 -0.21483068 -0.85767335 -0.3713378 0.30006215 -0.66845685 -0.32114744 -0.16292246 0.13772573 -0.31941023 -0.47488686 -0.26683205 0.36975875 -0.45825437 0.47046247 0.5338453 1.0099386 0.22987895 0.288589 0.035637267 0.45172837 0.97699606 -0.48752874 -0.006317778 -0.24649341 0.27236181 -0.42446437 0.76222086 -0.01019024
305 -0.82805324 -0.33153045 0.784743 -0.20611963 0.090452515 0.45735893 -0.008691149 0.13384807 -0.24271396 0.45321092 1.0643708 -0.26377216 -0.120339364 -0.08886223 0.01896196 0.10298545 -0.5789046 -0.588057 -0.07557488 1.0998814 1.0850089 1.0958227 0.29045826 -1.0796977 0.55713636 -0.2235215 0.36506867 -0.38029504 -0.42583334 -0.19641921 0.5121419 0.080648735
214 0.052358437 -0.7167086 0.6201027 -0.46695417 -0.16952637 -0.49187335 0.17288394 0.48594245 -0.1749251 -0.27820426 -0.43632114 0.24758664 -0.65053016 -0.45364606 -0.08896236 0.10391773 0.0030074883 0.16535692 0.21365753 0.9241859 0.40761098 0.6794013 -0.12084973 0.13320121 0.88447845 -0.47415003 -0.3731105 0.14670645 0.64351404 -0.039798018 0.47358245 0.028956946
421 0.47948456 -0.5584683 -0.29270563 -0.33618963 -0.14980018 -0.22931445 -0.018623086 0.21855634 0.0609112 -0.38435736 0.17965618 -0.38850117 -0.35622427 0.16421576 0.1467073 0.4088839 0.24738272 0.17937547 -0.35904378 0.91671604 0.59360117 0.12446153 0.75217146 -0.6675967 1.4110166 -0.30666542 0.7501622 0.35270214 0.5067656 -0.5646859 0.20077072 0.64890563
194 -0.24635579 -0.3157166 0.54620445 -0.7575342 0.16866642 0.4653954 0.019172713 0.249003 0.024388043 0.5083782 0.9078462 -0.46733198 -0.3287376 -0.18343686 0.18855694 0.07351169 -0.3463786 -0.19862156 0.13450423 0.82389426 1.5226175 1.0729556 0.24900033 -0.9527192 0.911468 -0.3603075 0.6305552 0.077291556 -0.57772577 -0.36251795 0.29732946 0.20019898
27 0.023830045 -0.97899 0.39032355 0.20080747 -0.6821623 -0.39905062 -0.29537484 -0.28608462 -1.0050387 0.22135456 -0.35294342 -0.08506924 0.31446183 -0.08417956 -0.36838195 0.9549554 -0.2913622 0.38159233 -0.84767276 1.136085 -0.21361324 0.031186035 0.39534286 -0.62782866 0.81627154 0.023523498 -0.33733702 -0.34324968 -0.4023534 0.03512132 0.72637177 0.6644268
265 0.67557317 -0.6775401 -0.73515993 0.07348044 -0.19646527 -0.43498224 -0.30387878 0.20652564 -0.030952666 0.072372064 0.2970561 -0.078445956 -0.17338112 -0.047371987 0.74478585 -0.07763092 0.3294057 0.7035457 -0.76878345 1.3187083 0.86921585 0.47604263 0.5790544 -0.8054244 1.5610934 0.09681227 0.7414735 0.5846402 0.34008917 -0.5226166 0.073481254 0.20297712
460 -0.3689685 -0.51206 0.6536935 -0.0010233797 -0.35698307 -0.15944442 0.49683824 0.11932217 -0.049741283 -0.27636957 -0.08523565 -0.342317 -0.32125774 -0.23105823 -0.3717374 0.07516405 -0.0022152907 0.024030302 -0.06950403 0.7092284 0.66694975 0.77920896 0.43989432 -0.107499115 0.42190564 0.060371354 -0.25553212 0.046489805 0.0871059 0.010417962 -0.14516549 0.5844927
430 0.28713453 -0.31003273 -0.31879845 -0.14990975 0.08287684 -0.24505052 0.072256364 0.4160651 -0.041647743 0.07997054 0.1634087 -0.583811 -0.27666152 -0.14623305 0.05900646 -0.094401754 -0.12262853 0.21841234 -0.39352366 0.76026237 0.5834232 0.29640782 0.6477929 -0.32363394 1.1414979 -0.045253985 0.33642617 0.4474069 0.0714259 -0.7161665 0.33013308 0.63677734
383 -0.14801796 -1.3015244 0.5845613 -0.46919933 -0.26943812 -0.721381 -0.18090115 0.3998991 -0.37643966 -0.25154698 0.00811945 -0.07616199 -0.22278903 -0.53685236 0.15492421 0.2772722 -0.09030774 0.3471449 -0.15061797 1.8105501 1.1191411 1.1129895 0.0149680935 -0.31321377 1.1970234 -0.18196888 -0.07493551 -0.2103001 0.20601928 -0.3009906 0.38590178 0.106115915
890 -0.5716961 -1.4785255 1.504236 -0.66961205 0.4416946 -0.5609677 -0.2516843 -0.64333093 -0.29030496 -0.95848316 0.785988 -1.007917 0.8961644 -0.7781713 -0.49596873 0.32446572 0.84887207 0.8560411 -0.89670986 2.4391289 -0.094408944 0.6044698 -0.16124593 -0.75717396 0.6940767 -1.1999893 -1.1424794 0.2766588 0.08219415 0.3899536 0.37618813 0.5761939
601 -0.54383284 -0.43642372 -0.59489256 -0.15581219 -0.35322395 0.07875538 0.16759014 -0.44441167 -0.45231915 0.12795137 -0.059381105 -1.0653137 0.28546616 0.25461867 -0.103391685 0.04034863 -0.24836107 -0.3754454 0.27559748 0.69927174 0.71314055 0.69074965 0.34952608 -0.31003293 1.0452769 0.103832886 -0.32135364 -0.21320412 -0.03888669 0.35970315 0.43663403 -0.079793744
203 -0.32753947 -0.63751864 0.2850402 -0.25060526 0.015553229 -0.9139412 -0.24294242 0.14144397 -0.4167939 -0.4967016 -0.12737738 -0.22636154 -0.082178034 -0.43134356 -0.4344975 0.052873265 -0.11868342 0.536504 0.70459473 1.1499319 0.35308447 0.51283246 -0.040133502 0.38255435 0.9414375 -0.1595544 -0.37874845 0.035679065 0.15766095 -0.31289688 0.47408158 -0.025522316
10 0.4786094 -0.52437055 0.32113189 0.5805271 -0.45775414 0.031826355 -0.3640618 -0.12851387 -0.5281829 0.20547825 -0.2532788 -0.6878133 0.15994616 -0.29076415 0.14273989 -0.0098151695 0.12232113 -0.023403388 -0.7802764 1.0694962 -0.031090349 0.75590473 0.35142884 -0.21721984 0.4328136 -0.52257794 -0.27426305 0.12267751 -0.41356945 0.17861809 -0.17218928 -0.2618016
572 -0.06651913 -0.9238578 -0.16223873 -0.32226577 0.12484477 -0.77032864 0.124327704 0.3621847 -0.45416507 -0.09337905 -0.23653573 -0.16082646 -0.455582 -0.6893911 -0.054557487 0.37000012 -0.3792378 0.4601377 0.66420037 0.98649126 0.185755 0.18404339 -0.0974588 0.27483684 1.3541043 -0.22400105 -0.38724312 0.19360195 0.4874612 -0.50723255 0.68866235 0.19708098
523 -0.4954333 -1.0151058 -0.8154799 -0.36110336 -0.17615208 -0.81605995 0.017315077 -0.20302998 -0.9840257 0.54581964 -0.24666132 -1.2021302 0.51780397 -0.09727422 -0.12050483 0.0067941635 -0.17527983 0.50128925 0.8117601 0.576043 0.10743902 0.7610506 0.34876037 -0.12142765 1.3992027 -0.47817352 -0.19144839 0.18074101 0.3587389 -0.44062957 0.84218955 -0.17738165
544 -0.7916772 -0.3611663 -0.07892966 0.1301537 0.11988862 -0.8158758 0.40512595 -0.010680992 -0.20538065 0.28382936 0.20522322 -0.38360366 -0.26847756 -0.23088038 -0.42253208 0.10354234 -0.53074104 0.6206012 0.5089247 0.7779598 0.7989581 0.56500435 0.2220571 0.40627694 0.952678 -0.30326754 -0.41201252 -0.37925816 -0.07477709 -0.46947932 0.5587409 0.5044419
318 0.04821524 -0.47482115 1.0630656 -0.17707041 -0.63963497 -0.5258893 0.29655287 0.2744203 -0.52135557 -0.1929028 -0.14155981 -0.34125507 0.14773822 -0.091395244 -0.13669817 0.38001335 -0.8566856 -0.3891071 -0.0852765 0.7162182 0.019953245 0.49862316 0.4833518 -0.4645132 0.8511962 -0.29584065 -0.32051006 -0.54021436 -0.12884651 0.59067714 0.08665107 0.5842767
85 0.35957205 -0.7751332 0.03447911 0.6675794 -1.1559042 -0.4234401 -0.41426292 0.3486756 0.111856654 -0.84104395 0.023577493 0.16881087 -0.28704745 -0.042823434 0.10133243 -0.15683688 -0.5147432 0.09932577 0.008698167 1.671274 0.37408417 0.181858 -0.19463335 -0.51653725 0.82960874 -0.44325954 0.47856215 -0.80250996 0.50880635 0.76151544 -0.43474343 0.14008139
685 -0.51199704 -0.41529867 0.73963904 -0.028228892 0.026409043 0.66261894 0.38604984 -0.05178191 -0.00065789424 0.14217028 0.70778567 -0.79939514 -0.4256087 -0.2099209 -0.11434201 0.011815562 -0.41660517 -0.67137325 -0.28149393 0.8798545 1.2214009 1.1764127 0.36205423 -0.6997573 0.8541736 -0.4693291 0.59694314 -0.35815874 -0.7449435 -0.29255444 0.21772084 -0.015669677
513 -0.054796245 -0.66983676 0.6382832 0.78891826 -0.7140491 -0.045655925 0.5425062 -0.31063575 -0.39157385 -0.038006045 -0.07486337 -0.32207918 -0.023598766 -0.26386502 0.15354066 -0.1072509 0.25773403 0.58103514 -0.34251094 0.7710461 0.36993736 0.85802424 0.2503126 -0.37670743 0.42775068 -0.14614485 -0.014272182 0.037153937 -0.011443248 0.28822836 -0.44892237 0.45341748
408 -0.39900857 -0.40890083 0.8731422 -0.39251938 -0.03295961 0.4444532 0.10944022 0.26310882 -0.4813839 0.527441 0.8067531 -0.07154537 -0.41897154 -0.13000092 0.12182478 -0.03740758 -0.53276825 -0.5686958 -0.005908485 0.8772665 0.9784629 1.0746912 0.24015816 -0.73229086 0.5210125 -0.3921736 0.27044964 -0.28843594 -0.41224146 -0.05414497 0.43525493 0.34972113
464 -0.13418648 -0.76044405 0.15718892 -0.23842834 -0.4293282 -0.19819173 -0.16219914 -0.17902997 -0.8413149 -0.13388583 -0.68124706 -0.060310047 -0.070988506 -0.30202 -0.10429854 0.15836737 -0.44756183 0.37718138 -0.20192336 0.7193599 0.09556776 -0.0054506087 0.09872456 -0.039020974 1.0924532 0.08660805 -0.013104845 -0.29292348 0.31822613 -0.23227696 0.39930865 0.36177522
339 0.32620737 -1.1096188 0.8814804 -0.07500562 -0.6931673 -0.44581074 -0.50403094 -0.08803873 -0.81843233 0.10622841 -0.8555553 -0.08062384 0.21594328 -0.3913758 -0.4880225 0.77427995 -0.37652504 0.017867621 -0.5257734 1.039412 -0.22434257 0.34790042 0.21715927 -0.42415947 0.91468275 -0.030109204 -0.40160736 -0.3673622 -0.17178583 0.46449572 0.34058017 0.3930735
25 -0.29636145 -0.6478717 0.14897853 0.29162905 -0.62893313 -0.5355558 0.33452865 -0.029133735 -0.5682975 0.061119556 -0.51620144 -0.25233242 0.33711234 0.08723121 -0.39295372 0.7263782 -0.30075255 0.41305813 -0.5790545 1.4698488 -0.41297552 0.09450372 0.06881625 -0.57549816 0.67532444 -0.4237392 -0.025577 -0.5434195 -0.18611662 0.07608106 0.7547427 0.83485204
357 -0.5381019 -0.9991763 0.17326929 0.45565242 -0.4872887 0.023802666 0.034754716 -0.34466588 -0.05413632 -0.21722788 0.057117213 -0.5361292 -0.07480613 -0.6144816 0.077031665 0.14475724 -0.38558465 0.43083984 -0.26532906 1.4957454 0.96917635 0.34417307 0.123550735 0.48852217 -0.114698276 0.15454154 -1.0162892 -0.043352984 -0.01701581 0.044365738 -0.0071690986 -0.07842613
809 -0.061549257 -0.35617858 0.5596434 -0.3756042 0.1839969 0.4507421 -0.06648656 -0.05031375 -0.23558307 0.40313753 0.5694072 -0.29429987 -0.28165662 0.015749043 0.1959029 -0.12325863 -0.2685552 -0.45896116 -0.21884309 0.7203115 1.0942011 0.8504779 0.29950818 -0.908292 0.9555994 0.071454294 0.48801026 0.04198046 -0.5136518 -0.17616822 0.3803401 -0.16259626
646 -0.32794356 -1.3911169 0.6365829 0.01669502 -0.45842496 -0.50517446 0.16008303 0.12148159 -0.6383532 0.12984046 0.3197107 -0.5219063 -0.18219133 -0.6296697 0.41434988 0.26954257 -0.32213682 0.1262274 -0.43093193 2.0120618 1.1410166 1.2516406 0.25188714 -0.8068881 1.4178634 -0.2327936 -0.17652543 -0.10890485 -0.018912038 -0.46145907 0.37573528 0.31908742
79 -0.121785924 -1.2729031 0.44678745 0.3036185 -0.7675471 -0.41696355 -0.3305538 -0.1363357 -0.74452 -0.30999944 -0.32893363 0.24541518 -0.26006228 -0.33376214 -0.13000484 0.20603198 -0.28739518 0.4107098 0.110223584 1.0101686 -0.057239648 0.014129356 0.090240315 0.5378572 0.93253714 -0.41259247 -0.11768971 -0.41615275 0.038021 0.18709126 0.29668713 -0.1518583
631 -0.024774428 -1.3192097 0.5218572 -0.022447137 -0.38210282 -0.3827537 -0.017225927 0.30804875 -0.5886956 0.0866871 0.19591232 -0.62447906 -0.18030305 -0.4682023 0.35297784 0.33717778 -0.4591801 0.43817413 -0.28487045 1.9934739 1.0618999 1.1015453 0.5230761 -0.7979218 1.4414335 -0.29922315 0.05278418 -0.13843909 -0.10592427 -0.32326376 0.3522316 0.2569226
458 -0.8245616 -0.32176632 0.34702438 -0.020397844 0.44270748 -0.8581534 -0.06710816 0.39669698 -0.47070733 0.36792383 -0.20675935 -0.30870813 -0.21425195 -0.26129448 -0.0053899516 0.04398329 -0.66748315 0.04474461 0.16725065 1.1261885 0.76762563 0.1954365 0.034404464 -0.042267893 0.4673292 -0.19770177 -0.26997396 0.1253771 0.08549832 -0.30854848 0.74238825 0.2578301
73 -0.22699952 -0.76351565 -0.081567265 0.30538997 -1.1701441 0.07966453 -0.046180815 0.19448167 0.030195527 -0.41851485 -0.4749748 -0.19675706 -0.35122737 0.14313751 0.6670928 -0.110067986 -0.45127663 0.17713663 -1.2862076 1.6597856 0.4071628 0.38151565 0.034604546 -0.6349866 0.88273704 0.0366627 0.47275808 -0.4718987 0.67333525 0.65092367 -0.6646034 0.13020803
45 -0.16284049 -1.2633171 -0.117359 0.3232441 -0.36011866 -0.09419667 0.54524356 -0.031333383 -0.6491472 0.00788759 0.99632096 -0.22454114 0.40731728 -0.19569267 0.85778576 0.26967818 0.1840425 0.055033445 -0.44419962 0.44039544 0.10876779 0.9278751 0.27921832 -0.22512558 0.84757817 0.13072878 -0.9159186 -0.56896746 -0.38289285 -0.36206725 0.2550298 -0.21519823
549 -0.0977751 -1.0258842 -0.18490624 0.89236385 -0.38320032 -0.059056 0.42041576 -0.21690486 0.123942494 -0.27712 0.36458796 -0.18351331 0.09985299 -0.47038883 0.054148518 -0.29045373 0.0025717039 0.4441137 -0.64845777 0.9307765 0.46942216 1.0874143 0.11372986 0.25848693 0.39547792 -0.3087501 0.4759891 -0.3579796 0.07804329 -0.15941182 -0.34271508 0.18346311
615 -0.4238066 -0.20528673 0.16112714 0.29986936 -0.6481239 0.07656845 0.4083836 0.25843716 -0.22456868 0.16309841 0.28475827 -0.10433973 0.09447867 -0.10876792 0.32415968 -0.018843286 -0.3358734 0.5224578 0.039784692 0.97306114 0.5088461 0.91700655 0.15403736 -0.6406842 0.2505143 -0.16963911 -0.65124696 0.061455674 -0.13151206 0.21150626 -0.22433847 0.10294414
543 -0.40972856 -0.46526945 -0.0432336 0.02347422 0.3807539 -0.6173937 0.511484 -0.008979787 -0.8079918 0.22401486 -0.26168063 -0.79946774 0.013325758 -0.16271599 -0.09452912 0.021890057 -0.5955377 0.34079432 0.04709891 0.8390809 0.4696094 0.24349004 0.5489044 0.07565175 0.852538 -0.106181264 -0.56211317 0.25588065 0.26750782 -0.6275385 0.68055266 0.2574651
18 -0.05962211 -0.9251678 0.39571798 0.18409078 -0.66734326 -0.30842727 -0.3279299 0.37182024 -0.02242743 -0.6030662 -0.18412942 -0.0014310563 -0.19663127 -0.11994923 -0.10330962 -0.16600855 -0.3809982 0.15327074 0.0074171647 1.3213168 0.47427523 0.18669407 -0.100762896 0.23013915 0.62147725 -0.2923288 0.18847844 -0.4990338 0.45147583 0.2860053 -0.44760093 0.16756147
581 -0.10204693 -1.2704245 0.20107505 0.07566256 -0.36686718 -0.0768047 -0.530958 -0.057866927 -0.73414195 -0.20883785 0.16524649 0.5518253 -0.062998705 0.08904601 0.29047862 0.083832055 -0.21528615 0.26324764 -0.27176207 0.99968344 0.18387246 0.081728496 0.03426143 0.52028775 0.76690215 -0.14611794 0.21542184 -0.44733554 -0.30135974 -0.17446682 0.24143773 -0.25088668
300 -0.22769763 -0.629318 0.060297675 0.3596347 -0.5168914 0.12067392 0.45404384 0.19953637 -0.4704268 -0.11061336 0.69040334 -0.5266692 0.025615958 -0.37724078 0.54806966 -0.09040959 -0.056919243 0.3492523 -0.2064254 0.73330855 0.46286345 0.938094 0.1870739 0.070229486 0.37463576 0.10392056 -0.7364925 -0.21147409 -0.0386623 0.06693277 -0.17806315 0.26592
547 0.329945 -0.75955504 1.1452042 -0.3559481 -1.0589507 -0.53293836 0.19208361 -0.24365187 -0.58941364 0.09518158 -0.55054134 -0.3559891 0.22019337 -0.41497624 -0.06265701 0.69253856 -1.2183491 -0.11811327 0.09370649 0.8147016 0.0045392006 0.4779051 0.40500653 -0.5891233 1.2164706 -0.64748406 0.15542431 -1.004985 -0.18337527 0.674216 0.6077633 0.3420781
569 0.5673044 -0.5746764 -0.74528736 0.060605507 -0.16333516 -0.31297877 -0.006046332 0.28197291 0.042506266 0.08787454 0.09423537 -0.61427534 -0.38337487 -0.15521532 0.30323562 -0.038542975 0.15915634 0.5634491 -0.49873048 1.3442944 0.7673565 0.40814358 0.84937036 -0.5213927 1.5328556 0.16232994 0.72739416 0.46468586 0.307169 -0.44998845 -0.34292328 0.61635655
263 0.24288534 -0.67760265 1.0243381 -0.16624026 -0.31030348 -0.3260649 0.17002247 -0.10044728 -0.64864796 -0.082443416 -0.25356603 -0.5543069 0.31773522 -0.3139833 -0.07268044 0.56270856 -0.63341856 -0.034717437 -0.16525826 0.99525404 -0.07241869 0.0395914 0.46745208 -0.42226174 0.87403667 0.08588359 -0.44472057 -0.3596412 -0.47352174 0.3902483 0.36250356 0.18954301
704 1.0439571 -1.3396298 0.31701326 -0.43834594 -0.74612415 -1.3751161 -0.0074343253 0.9403594 -0.9799281 0.45997387 0.61896735 -0.004900483 -0.7107551 -0.54037493 0.06105189 1.2377168 -0.69181913 -0.23129405 -0.8063109 1.0561862 1.9446813 0.31505024 0.6819634 -0.13533534 0.9498357 -1.241979 -0.37511685 -1.1432954 0.5052375 -1.5143385 -0.5254232 -0.68026245
593 0.7031195 -0.98307157 0.21373656 -0.38435307 -0.19007383 -0.79408646 -0.73399115 0.060981367 -0.531151 -0.49366984 -0.24656416 0.3974474 -0.26006603 -0.49071506 -0.1496893 0.5738601 -0.42237476 0.7647913 0.47160846 1.204893 0.008464648 0.5804973 -0.13940194 0.29747218 1.2714727 -0.45073715 0.21549037 0.02192507 0.24106787 -0.16856702 0.74302036 -0.328915
250 -0.5980544 -1.0183339 0.993689 -0.7341535 -0.22298439 -0.67988795 -0.42438272 0.4236873 0.2571526 -0.5068893 -0.17142057 0.0921955 0.17005768 -0.67253464 -0.04587129 -0.3170113 0.21499532 -0.027770942 0.42508608 1.1793673 0.85552377 0.854788 -0.23675762 0.13548352 0.8034683 0.066779695 0.24393667 -0.3772581 0.066383086 0.024968648 -0.35341263 -0.05754129
316 -0.2842886 -0.928923 0.24536927 0.18230818 -0.7203658 -0.15138292 0.11601178 0.42528072 0.30198845 -0.5648281 -0.10397514 0.23387082 -0.31148258 -0.022436798 0.69263786 -0.33517742 -0.21298932 -0.051371835 -0.3991474 1.480646 0.8306155 0.4801441 -0.31043983 -0.42886448 0.40416262 -0.37179455 0.4705401 -0.62956166 0.48014504 0.39146885 -0.4653535 -0.28240398
659 -0.17417087 -1.4316379 0.3593782 -0.10780173 -0.41438866 -0.651376 -0.25257877 0.23187329 -0.54725 -0.096734226 0.12499883 -0.43942586 -0.19620202 -0.48310062 0.31154647 0.16887565 -0.14979193 0.36729026 -0.4491095 1.8397955 0.96040255 1.1410909 0.3326872 -0.57190835 1.4115381 -0.33715218 -0.21390548 -0.27774504 0.013180344 -0.40358338 0.387881 0.19166972
448 -0.2024215 -1.3344 0.07415309 0.06949036 0.0146799665 -0.28045094 0.59314543 0.14442304 -0.58652765 0.27252328 1.0198734 -0.14432457 0.23362328 -0.29914287 0.74567497 0.481408 0.015475116 -0.052489944 -0.090827145 0.18247457 0.2138619 0.94309175 0.106983 -0.43738657 0.93200713 -0.2717451 -0.744232 -0.7470225 -0.19854859 -0.7335201 0.63566434 -0.3337699
140 -0.18006013 -1.4888253 0.02770048 0.113206774 0.051978823 -0.47977257 0.22242808 0.055127475 -0.62072974 0.19187802 1.0990503 0.29518425 0.30047917 -0.24126607 0.76987666 0.3248211 0.28945312 -0.039252922 -0.33286324 0.4769806 0.25678137 1.1150312 -0.12145102 -0.3126942 0.74355173 -0.17566575 -0.7511206 -0.75482494 -0.26505956 -0.6356188 0.784731 -0.62222326
351 -0.0734802 -0.44672632 0.63199526 -0.55768865 -0.070133604 -0.59163195 0.14126971 0.4930532 -0.1393404 -0.53886753 -0.3280176 -0.10517781 -0.19735996 -0.5580178 0.26045358 0.08200011 0.32424596 0.24107991 0.5356653 1.1201257 0.42012578 0.7701456 0.09196711 0.38893503 0.9308361 0.1083072 -0.33267534 0.33235925 0.4225353 -0.18881749 0.043848243 0.3114355
335 -0.073497295 -1.5459762 -0.21844368 0.037254233 0.19646974 -0.55798686 0.21888731 0.082121275 -0.6326554 0.17034045 1.2092677 0.32471162 0.43772203 -0.40133917 1.0712087 0.3536742 0.4565581 0.06873289 -0.5690375 0.46884522 0.51115316 1.3366085 0.09983535 -0.36683747 1.0212585 -0.22655655 -0.54104936 -0.6553733 -0.15773351 -0.9264458 0.7461767 -0.54975533
139 0.023086498 -1.3125796 0.0637148 0.09622247 -0.30354792 -0.5918932 0.24748929 0.10650718 -0.7019517 0.037140362 0.8245458 0.17131546 0.4754554 -0.31428888 0.9238064 0.2932534 0.096471325 0.013361905 -0.31374317 0.33649024 0.0882682 0.73076063 0.0458446 -0.19146879 0.7475337 -0.24773262 -0.5068189 -0.897084 -0.12357781 -0.5306879 0.46432045 -0.2731068
150 -0.11883325 -0.9317583 0.63079524 -0.58603394 -0.2970705 -0.7671291 -0.5381515 0.52878785 0.2872315 -0.6768882 -0.029028462 0.081405126 -0.12878525 -0.4656935 0.03744405 -0.15756 0.806785 0.11096138 0.40458694 1.3300171 0.8036109 1.0918249 -0.47595984 -0.064326346 0.96763587 -0.04471267 -0.06895812 -0.061375085 0.47755426 -0.15544583 -0.4101515 -0.018665075
