1005 128
1 0.23407345 -0.04735152 0.18413275 0.8103195 -0.42217904 -0.19134487 -0.142999 0.039579835 0.05269307 0.32288548 -0.008934152 -0.44714692 -0.33985832 0.0099744275 -0.010514035 -0.09126664 -0.38786173 -0.48901945 -0.31590652 0.27044296 0.19291957 -0.11314611 0.011166917 -0.49352366 -0.50999373 -0.21620528 0.2618394 0.3939036 -0.2069411 -0.75743425 -0.48653293 0.14492677 0.23139329 -0.48099124 0.22630432 0.17302603 0.5204525 0.1448613 0.26734802 -0.41005492 -0.23732115 0.20857938 -0.22243692 0.35717538 0.10982416 0.5579755 -0.17728795 -0.31735522 0.15433045 0.38947913 -0.010989252 0.6447069 -0.2209594 0.2224331 -0.113362774 -0.49905288 0.402543 -0.42427674 0.25785363 -0.14460494 0.6064647 -0.28585297 0.8549616 -0.12973894 0.07572676 0.055592332 0.11163397 0.0801906 0.15114132 -0.09981668 0.2681104 -0.13925824 -0.19645625 -0.021748276 0.3191177 0.095819175 -0.19200724 -0.01691611 -0.048195455 0.023049511 -0.31494412 0.021962158 0.23686028 0.68955576 -0.75044954 -0.42459488 0.26245582 -0.062256273 0.50424695 0.011586505 -0.2874117 -0.2754764 0.4209821 -0.09894358 0.29261896 0.19115828 -0.3610686 -0.3543408 0.008079373 0.5784015 -0.3515712 0.46624228 0.3307728 0.55507433 0.40347356 -0.04733953 0.14990988 0.47858223 0.5398164 0.22923873 0.111852095 0.23936039 0.2616408 -0.48415908 0.11879658 0.50349593 0.424204 -0.054081645 -0.18428628 0.11236824 -0.051913742 0.43887442 -0.3686159 0.04467629 0.28755602 -0.20509653 -0.036845982 -0.23937604
130 -0.53891027 0.060819108 0.17165641 -0.017900774 0.09946218 -0.31315416 0.2441745 -0.21947125 0.5453798 0.09575927 -0.078406125 0.39564255 -0.16217597 -0.054415904 -0.22653754 -0.1963612 0.01921958 -0.30670863 0.015535358 0.3657718 0.2506517 0.44464222 0.17834178 0.013345701 -0.34070936 0.58993363 -0.07346763 -0.062559 0.57649404 -0.503549 0.09367689 0.109489925 -0.102691054 0.34097388 -0.40711415 0.48293945 0.37019715 -0.21001051 0.073296905 -0.64237803 0.04723544 0.50668436 0.099902645 -0.20544146 0.3277681 0.18042345 -0.17588715 -0.32990807 -0.8159176 -0.24777474 0.22265808 0.037906047 -0.0652759 -0.1198305 -0.682374 -0.29093614 0.27807352 0.06524398 0.5956807 -0.4528379 0.19507834 -0.017066825 0.5886426 0.11040149 -0.10572736 0.25698864 0.46818927 -0.29319793 -0.21115218 -0.14691389 -0.458656 0.04771608 -0.061812527 0.3372035 0.44628078 0.26851803 0.05559625 0.39483902 -0.30463767 0.67718554 0.3118476 -0.42393693 -0.17017782 -0.015373249 0.23983304 -0.22578417 0.08895619 -0.07785281 0.32718968 0.3877268 -0.17525911 -0.08809275 -0.21913517 -0.1994912 -0.2843778 -0.43878704 -0.63313645 -0.25932282 -0.0005582179 0.63811886 -0.04659667 0.022019515 0.24284118 -0.49093196 0.42527726 0.072888926 -0.2444252 0.0014993767 0.7253136 0.44585705 0.07615622 0.13622032 0.37350813 -0.16021176 0.15772739 0.16842711 0.83176494 -0.094677314 0.4693189 0.12627922 0.06922891 0.21525761 -0.4036354 0.38211048 -0.003209028 -0.89912564 0.28513727 -1.0805537
532 0.355187 -0.4472977 -0.9072748 0.49575624 -0.15669541 0.071924634 -0.44104242 -0.5799211 0.017397318 0.45661247 -0.45326653 -0.0021852043 -0.38122675 0.29384142 -0.096232876 -0.23859303 -0.22899137 -0.28316396 -0.012189586 0.83850896 0.13630521 -0.1837408 -0.030042294 0.39787173 -0.47848034 -0.0016364481 -0.28938234 0.47835702 -0.065611705 -0.8260931 0.43872717 -0.41444245 0.58086675 0.70063287 -0.23713566 -0.14795548 0.07553718 0.6719522 -0.3173802 0.52440953 -0.1136874 0.17698689 0.2711281 0.16129139 -0.28693217 0.008728049 0.47455612 0.09454796 -0.46336916 -0.115780696 0.11814731 -0.26592416 0.596733 0.21125712 -0.55991375 0.691673 -0.43643624 -0.58900756 0.0014915093 0.1518649 -0.28219375 0.22384462 0.0062012137 0.52958345 0.03577465 0.05078453 -0.04965017 -0.3723209 -0.42088977 0.05765692 0.40933728 -0.37437302 0.2652668 0.14244239 0.22045125 -0.6162787 0.20127757 -0.2124421 0.42948258 -0.018215755 0.6928857 -0.34442544 -0.05065963 0.19777018 0.24568178 -0.102048315 0.026488177 0.10845057 0.6384438 -0.47032252 0.40547466 -0.5116813 0.039933234 -0.1454918 0.21136765 0.8878239 -0.16955273 -0.49234542 -0.4645436 -0.06391567 -0.08686868 -0.74126995 -0.046506427 -0.22526833 -0.13279973 0.66266555 -0.035362866 -0.66658604 -0.012541495 0.26091975 0.0787045 0.22498073 -0.2561193 -0.6082274 -0.25302178 -0.42320785 0.6501253 0.12428045 0.13711104 -0.6113356 -0.15289137 0.1987319 -0.6356732 1.0756693 -0.2762569 -0.5375516 0.013840403 0.035891525
227 0.11151603 -0.4724386 0.003421254 0.32551095 -0.17238994 -0.086638376 -0.57555693 -0.27844557 0.549966 0.22173086 0.1357452 -0.31643116 -0.2584154 -0.74394864 0.09531873 -0.24873286 -0.113433056 -0.77081996 -1.1476005 0.046692807 -0.14047869 0.07647936 0.5001915 0.009981598 -0.32832554 0.6294694 -0.04917806 0.37273294 -0.18192388 -0.28273314 0.03645621 -0.347487 -0.53997844 0.3496042 0.15810512 0.36063674 0.53405994 -0.3779692 0.01648661 0.12633139 -0.75446576 0.45854953 -0.18566285 0.22285917 -0.53233665 -0.026743809 0.42190155 0.32342556 -0.16155824 -0.3832003 0.017930476 0.02548064 0.15181774 -0.0290631 -0.076608635 -0.17205474 0.14291327 0.257043 -0.59656674 -0.08974856 0.39915836 -0.13508743 0.5297196 0.4373746 -0.3107606 -0.22807683 0.20596656 -0.31705454 0.34024745 -0.47696176 -0.1859979 -0.45414823 -0.9314177 -0.714314 0.51821846 -0.368935 0.21162184 -0.01554831 0.049887728 0.29766792 0.10384377 0.29234993 0.3834366 0.064921215 0.17650254 0.25604725 0.7433357 0.6898349 0.5666178 -0.17844324 -0.5817501 -0.31700334 0.14273785 0.007317676 0.5107867 -0.18274938 -0.63659406 -1.2266072 0.19597757 -0.18468554 -0.28555232 -0.117245585 0.7285388 -0.0487392 -0.20625414 0.20652892 -0.07943599 0.58823067 -0.17094526 -0.15090235 0.3787154 0.3629267 0.7879465 -0.068663284 -0.21154453 0.12258718 -0.4911733 -0.5071479 0.06257404 -0.38222536 -0.24581975 -0.21912807 0.14825156 0.724401 0.38192156 -0.7152819 0.24123846 -0.3624917
160 0.086140536 -0.23023319 0.03428852 0.20626329 -0.10296285 0.076750904 0.107044466 0.07043978 -0.19438672 -0.10525228 0.011648935 -0.22264452 -0.31011888 -0.06529496 0.09330635 -0.07991109 0.004578436 0.12291037 0.14969029 0.25769487 0.1224828 0.08818182 0.180401 -0.1180129 -0.28181753 -0.12152046 -0.08083761 -0.077707775 0.12902972 -0.15370132 -0.14673854 -0.12526451 -0.14131115 0.107744545 -0.1725966 0.10105707 -0.022382636 0.14986533 -0.09864707 0.11635009 0.008787918 0.4093722 -0.11970564 -0.19558443 0.06860741 -0.025138672 0.08504777 0.01452683 -0.12369296 0.2691152 0.124880955 -0.08679466 0.4689339 -0.108144864 -0.24661273 -0.005663124 -0.04739678 -0.030501503 -0.030131659 0.13319701 0.19691785 -0.23221648 0.24063718 0.21315117 -0.2079705 -0.10969115 0.35965937 0.11816167 0.120377265 0.060939554 -0.075623676 -0.07692794 -0.025012294 -0.13211851 0.2300016 0.16386916 -0.082895026 -0.14400086 -0.05030482 0.061499234 -0.10682753 -0.075931914 0.08972448 0.07603611 -0.023670385 0.057487063 0.16589803 0.18248086 -0.001960339 -0.27283078 0.20085084 -0.21643338 -0.04362262 -0.34587544 -0.10556904 0.18288188 -0.17866017 -0.07499681 0.09779869 0.19697967 0.07974669 -0.2327762 -0.0040442874 0.13310067 0.036315322 0.22902086 -0.0705973 0.02734958 -0.055374928 -0.15046835 0.0076038106 -0.1842581 -0.10953502 0.04528189 0.0415976 -0.16826952 0.12161813 0.058710918 0.08628869 0.30725288 -0.1935552 -0.020816205 -0.28454265 0.096053824 0.09768849 -0.24688059 -0.07630335 -0.049974773
319 -0.1389534 -0.65433705 -0.12261059 0.8011087 -0.057789408 -0.7553411 -0.57160324 0.76920986 -0.2568692 -0.39101636 -0.53380126 -0.7114984 -0.27489847 -0.057196956 -0.007818506 -0.09168952 0.09679566 -0.66995704 -0.09614466 1.3702595 -0.119799204 0.20854846 0.38851908 -0.15995207 -0.72912645 -0.18091029 -0.2702426 0.75655895 -0.0005780414 -0.5776835 0.058330692 0.031092586 -0.01992522 0.8759804 -0.18268837 -0.22972572 -0.4267514 -0.120736964 -1.1591997 -0.7361016 0.45994914 0.380369 -0.021200038 0.22557576 0.15365835 -0.06793838 -0.7238917 -0.07522046 -0.23909669 -0.39717793 -0.58180225 -0.2743094 0.2000677 -0.09732425 -0.24639092 -0.10019605 -0.1799457 -0.43879122 -0.08612168 0.08956845 0.15920867 -0.98369974 0.39317352 -0.26865 -0.063046165 -0.23049353 0.28278297 -0.043852888 -0.41313267 -0.3422809 -0.5005797 -0.22798732 0.1975973 0.122342736 0.043002058 0.55826074 -0.23858716 -0.26831234 -0.036569998 0.70043397 -0.042353533 0.2530829 0.34733593 0.6174428 0.70256627 -0.30665594 0.45824975 0.20551786 0.10184926 -0.37547773 0.021381665 -0.76016617 -0.1966606 -0.48870596 -0.5320116 -0.4731483 -0.0043706256 -0.4166061 -0.8263859 0.85956067 0.3706421 -0.86252457 -0.1742299 -0.38416493 0.67824185 0.10957193 0.047171716 0.7904292 0.22925338 0.61491704 0.22080685 0.012292459 0.4482701 -0.022985058 -0.021915182 -0.57050145 0.012407156 0.10320421 -0.23635513 0.2829504 0.06384468 -0.44112277 0.15188852 -0.3360989 -0.12857822 0.13065886 0.25888363 -0.1532339
365 0.17184229 0.033752967 -0.31772286 -0.11891329 0.13392691 0.4011065 -0.1139761 0.051500633 0.004724084 0.10226566 -0.025165593 -0.26804447 0.035565645 0.11504559 -0.033124458 0.31994918 -0.09375395 -0.1473812 0.2674156 0.14227374 -0.027688641 0.10112631 -0.30005243 -0.121844016 -0.00044544748 -0.1508727 0.31269357 0.17346516 -0.15122044 0.108008616 0.065740146 -0.08442658 -0.1577406 0.33716288 0.022080366 0.20734657 -0.30593625 0.17093666 -0.17637636 0.027103925 0.35416624 0.44163325 -0.514336 -0.1069047 -0.048039593 0.04246344 -0.11162328 0.33274886 0.18604915 -0.07288415 0.078085974 0.018017454 0.1487012 -0.11073007 0.010536019 0.031111965 0.14500684 0.12943158 -0.22352938 -0.17978103 0.14340074 -0.27117327 0.45145288 0.055354163 -0.10749964 0.12118189 0.22446734 -0.27166635 -0.17132507 0.15989669 -0.11978905 -0.12380526 -0.47013038 -0.13064249 0.5743626 0.15849897 0.18636614 -0.4232541 -0.61619025 -0.008866935 0.3541169 0.10516673 0.22190982 0.28823018 -0.045713615 -0.20854217 0.35497582 -0.11031063 0.31755823 -0.042007826 -0.35298738 -0.16973092 -0.36019674 0.07684027 -0.37052286 0.16165106 0.0035919547 -0.26535353 0.030016385 -0.4098043 0.1094071 -0.240547 0.18320449 0.09862839 0.020248689 0.13818738 -0.39017424 0.014038826 -0.0006520352 0.058655106 -0.17381814 -0.041214492 0.124826655 -0.102095164 0.11648537 -0.015985228 0.31221104 -0.20741789 -0.0959143 -0.18811993 0.1695625 -0.279908 -0.1654212 0.13918082 0.4649123 -0.1483394 -0.34660175 -0.13809793
62 -0.12332225 0.10419061 0.032970876 0.3852052 0.1403484 0.09099521 0.14256075 0.0043217433 -0.031697497 -0.19818892 -0.22096278 -0.059763357 -0.15115325 0.10255356 -0.13633348 0.107660174 -0.09185985 0.23040643 0.18408701 0.23791218 -0.006458393 -0.10633117 0.25654054 0.109455764 -0.03589137 0.029143933 -0.3054611 -0.07532995 -0.18694846 -0.09665987 0.18199971 -0.11622709 -0.08166718 0.1953546 0.11933026 0.018006317 0.122677594 0.19801247 -0.28152204 -0.005653354 -0.19338764 0.27135378 0.05107981 0.114237286 -0.17381592 -0.068834856 -0.13116817 -0.007492481 0.2500349 0.35543162 0.16469891 -0.06332514 0.4706872 0.036664456 -0.13738221 0.0847579 -0.005908046 -0.020986237 0.024923956 0.18302295 -0.17985679 0.008242178 0.34760094 0.14567782 0.025295382 -0.09439677 0.3598506 -0.23289002 -0.20411524 0.26325947 0.07313111 -0.16819754 0.113099545 0.14547065 0.23641197 -0.0129070515 -0.24514942 0.094574966 -0.18022726 -0.15070899 -0.05660824 0.087397635 0.21272817 -0.09384136 0.102322385 -0.05663803 0.13053209 0.13190508 0.22458878 0.015544816 -0.078054145 -0.077290975 0.1328149 -0.021544687 -0.19342785 -0.04747038 -0.264976 0.10656015 0.10424796 -0.17281902 -0.26362628 0.053789303 -0.07807817 0.00106516 0.09387668 0.1625434 -0.115989946 0.29785845 -0.017525937 -0.02395442 0.1582166 -0.008482636 0.23923154 0.06336619 -0.074931405 -0.006636497 0.21024935 -0.035929013 -0.072035484 0.036810614 0.10148574 -0.3589466 -0.1845575 -0.0063846135 0.018304234 -0.058926553 -0.07268993 0.1395388
107 -0.13161758 -0.17800336 0.15314022 0.20261931 -0.024103453 0.19328813 0.020679064 0.090514265 0.00027221887 -0.0075145904 -0.16542108 0.033342533 -0.21042871 -0.057950534 -0.032330126 -0.26600125 -0.07747758 -0.006311428 0.15929902 0.49516833 0.011712334 -0.18104401 0.18101394 -0.08046336 0.03944644 0.070711456 -0.09254 0.123025544 -0.16581884 -0.19829103 -0.08161888 -0.17629358 -0.09076986 0.29095516 -0.13133071 0.20017129 0.15658842 0.11677046 -0.2555385 -0.016491398 -0.1794627 0.12727778 0.16474438 0.053982295 -0.28944722 0.005975719 -0.13684033 0.021086423 0.084517896 0.26742956 0.12465573 -0.014198489 0.29307953 -0.14256966 -0.03018558 0.18333167 0.019014781 0.13229933 0.08224635 -0.115544334 0.029158313 -0.26131827 0.3645364 0.07523774 -0.12650348 -0.19856517 0.14413881 -0.29258946 -0.1296891 0.034996647 0.012482678 0.016456578 -0.06388564 -0.016816054 0.24842264 -0.19766851 0.031672154 -0.19204937 0.16086024 0.013613045 -0.021017978 -0.14181767 0.041787453 -0.114683695 0.18908729 0.11632302 0.17617913 0.2244981 0.14275415 0.056059428 0.024079198 -0.23859046 0.18779068 -0.056160994 -0.25806838 0.07141636 -0.06795347 -0.010361037 -0.07700629 0.0023478523 -0.14606087 0.06407768 -0.22985664 0.09474852 0.22797656 0.038206045 -0.053185966 0.2060305 0.07612976 -0.12585025 0.21536084 0.16597581 0.07189757 -0.04648183 -0.06406177 -0.098430716 0.019130694 -0.19113776 -0.18038855 0.17200777 -0.0028454913 -0.3190815 -0.35353565 0.032463074 0.04583568 -0.04375602 0.23296663 0.08784477
86 -0.18086511 -0.046374947 -0.17035183 -0.05852363 -0.19692272 0.051263124 -0.059447143 0.01210525 -0.11838826 0.04925479 0.08517366 0.0037423861 -0.14111798 0.2790483 0.07521364 0.666644 -0.16758496 0.042959973 0.23644872 0.4483415 -0.07259342 0.23554419 0.11261045 -0.12962559 -0.23315465 -0.03240427 -0.120934755 -0.108453065 -0.3422371 0.14990576 0.042934265 -0.33378664 0.06753951 -0.002499676 0.029016485 0.029121224 0.34149203 0.00056130777 -0.016655454 -0.07356833 -0.07077641 0.39701894 0.27159566 0.10113263 0.097617395 0.004122611 0.15873787 0.022392709 0.18552898 0.042620003 0.14104308 -0.12391328 0.30942246 0.105981 0.019473558 -0.12196218 0.35069233 -0.024318567 0.073324 -0.119809575 -0.13714963 -0.010735234 0.043935254 -0.31151265 -0.077132195 0.13967878 0.26831418 -0.17676698 -0.22347501 -0.20675272 -0.13723077 -0.0068137804 -0.22408928 0.022709016 0.45161304 0.09968269 -0.07401399 0.09272473 -0.23655751 -0.0143493675 0.044152327 0.097437486 -0.11936711 0.035634775 0.19068997 -0.29369292 -0.25264466 0.09426369 0.3238015 -0.10724642 -0.12241169 -0.22794774 -0.09041487 -0.26023665 -0.007113751 -0.137995 -0.33496854 -0.11243501 -0.019085342 -0.018123686 -0.23049985 0.11421654 0.020413615 -0.050832666 -0.055284787 -0.042688496 0.10303746 0.0018881987 -0.16538247 0.069380954 0.3697318 0.33060938 0.0064557744 0.06015523 -0.29423863 -0.29435912 0.05243152 -0.03475328 -0.12518069 0.032777272 -0.22053537 0.05379864 -0.07466234 0.14820208 0.2123933 -0.15317889 0.08409333 0.30931348
402 -0.73771 0.19664325 -0.12171911 0.19221182 -0.690951 0.13791782 -0.06794675 -0.33515248 -0.27945063 0.32147378 0.16065674 -0.24740443 0.09553906 -0.8617249 -0.16870499 -0.20721555 0.14629316 0.4615267 0.503967 0.76788294 -0.76867515 -0.5129399 -0.8518272 -0.10512077 -0.6094329 -0.12035517 -0.24451743 0.0155224735 -0.026972638 -0.2871776 -0.08962557 0.13861793 -0.49389955 0.20476955 0.22770031 0.28766134 -0.0005823542 0.80517393 -0.9050112 -0.47717264 -0.010549794 -0.36288035 0.6301561 1.5064147 0.13181163 0.6746259 0.0729095 -0.77755505 -0.47789824 0.56516314 -0.22378756 -0.43672305 0.6747649 0.043326724 0.20567518 -0.7292326 -0.66815364 -0.02995054 -0.14538394 0.08602664 -0.19271523 0.42324445 0.3847104 0.34196416 -0.26066828 0.13823907 0.24518181 -0.029061513 1.0597644 -0.13496594 -0.16233468 -0.47420305 -0.42784637 -0.038650334 -0.30266917 -0.22753881 0.41454336 -0.14898218 -0.14897314 0.94635713 0.95425075 1.1749692 0.1996237 -0.24537481 0.3633875 0.17308936 0.8388583 0.18623255 0.51432383 -0.04527317 -0.15540804 -0.68093634 -0.3780332 0.3354752 0.4324864 0.7862473 -0.48467693 -0.595746 -0.44143328 -0.21669649 0.19697969 -0.29483968 1.2748604 -0.06987087 -0.9087294 0.9355272 -0.9021669 0.5369631 -0.25195578 -0.13037731 0.5268495 -1.1667956 0.3454738 0.110842235 -0.7562381 0.03738717 1.1139477 0.17456678 -0.29854757 0.27700815 0.59329957 0.23580517 -0.39221692 0.12611657 0.56356466 -0.8644634 -0.1472114 0.062392548
121 -0.056636468 -0.3993915 0.056346394 -0.03877043 -0.029721772 -0.12370891 0.20201375 0.21791737 -0.028996646 -0.032588333 -0.056861315 -0.14528309 -0.059583787 -0.00076463865 0.028629566 -0.025016718 -0.07583225 0.080804 -0.021393986 -0.022386242 -0.06226231 0.16783442 0.023426455 -0.073864795 0.15559034 -0.08883171 -0.10839654 -0.11065801 0.01612505 -0.18709601 0.10415877 -0.13274792 -0.0033083556 0.09343559 0.049225707 0.1260613 0.11176218 0.10745639 -0.18010697 0.028520616 0.022719238 0.41298708 -0.0123572275 0.014808168 0.06230371 0.010753868 0.02073342 0.10816381 0.037741497 0.044738375 0.052781276 -0.014818583 0.21800792 0.17825487 -0.07475931 0.038021166 -0.031261906 0.11568875 0.03244349 -0.22723936 -0.27678573 -0.17397012 0.20309317 0.24219985 -0.17738323 0.06449055 0.022484481 -0.0929539 -0.1074719 -0.30472133 -0.18817407 -0.12410893 -0.099361755 0.10099099 0.05711463 -0.039221596 -0.007197833 -0.108963035 -0.07046451 -0.16176234 0.37208503 0.03469397 0.06069417 0.16341715 0.009476059 -0.17650434 0.2415831 0.26587716 0.3250326 -0.2756564 0.21036303 0.14597088 0.36647427 0.15402012 0.113716096 -0.03882488 -0.30370376 -0.105018504 -0.21783917 0.1596168 -0.05916211 -0.02800769 -0.111530624 0.1247488 0.23227684 -0.1591084 -0.12726699 0.13322079 0.082934745 0.18688475 0.045050006 0.26392373 0.21597938 -0.02967423 -0.25302967 0.0063340673 0.2942773 0.16010313 0.009069787 -0.08138305 -0.08499088 -0.019324318 -0.09277659 0.007872627 -0.027231343 -0.095318936 -0.18102236 -0.0240696
183 -0.089038536 0.053341135 -0.32801396 -0.0055832905 0.30519086 0.03620455 0.013900943 -0.035491686 0.25790945 -0.04093842 -0.047185026 -0.15265004 0.14971055 0.28671378 0.207742 -0.012695971 0.11164776 -0.039272513 -0.06723226 0.18748656 0.04557633 -0.03172931 0.108223476 -0.2119642 0.0683575 -0.15043189 -0.1328068 -0.098421104 -0.124472275 -0.33857918 0.28721434 0.02436075 0.0922319 -0.11329856 0.21643181 0.2266879 -0.13017757 0.057687808 0.042977292 0.20916031 -0.13733311 0.3748838 -0.1327218 -0.019404098 0.16027072 0.33392906 -0.23165557 0.19538 -0.045534033 0.1294654 -0.11358582 0.040846933 0.34265515 -0.06875698 -0.24509282 -0.047446504 -0.031084226 0.087463915 0.23009215 0.1298328 -0.001033256 -0.10982834 0.06907296 -0.096470684 -0.112907805 -0.018501274 0.5699034 -0.11251804 0.25848955 -0.06957792 -0.10442918 0.0048096413 -0.03906228 -0.32838926 -0.13053116 0.20479368 -0.09671904 -0.12401348 -0.15564322 -0.031643268 0.053939223 -0.10775074 0.16038667 0.049602743 0.13396761 -0.108361356 0.028887529 0.122742 0.17053773 -0.058207035 0.10373183 -0.11602926 0.2885665 0.06942594 0.02499574 -0.10174635 -0.17623195 -0.15495323 -0.44098917 -0.09767279 0.010790567 0.10692391 -0.15375638 0.072463945 0.045474667 0.27416328 -0.3476049 0.014919693 -0.28119618 0.04498781 -0.03461322 -0.11039278 0.14959544 -0.11266289 -0.077963024 0.038496826 -0.08178086 -0.18293859 0.06362271 -0.008221331 0.32986328 -0.13794838 -0.2432783 0.14199336 0.045347877 -0.09186141 0.26578656 0.021294603
434 -0.19834329 0.008354847 -0.22820081 0.25369975 0.15120581 0.111441 0.074898325 0.06971956 -0.051815774 -0.08186606 -0.09165653 -0.18248686 -0.03800481 -0.14380576 -0.04630433 0.0510974 -0.044229947 0.005490373 -0.22446062 0.38661778 -0.18464081 0.080574766 0.13857707 -0.1998082 0.20278168 0.23541485 0.10722844 -0.3353468 0.0015773184 -0.17332503 -0.032357905 -0.13084917 -0.0105474135 0.04384193 -0.007329411 -0.04906442 0.03709521 0.16407168 -0.49650672 0.02947032 -0.16140886 0.034905966 0.08168262 -0.005187237 0.058160316 0.25510097 0.055630438 -0.045924664 0.22670166 0.12710164 -0.006306277 0.123532966 0.003306659 0.06186942 -0.046521045 0.08854686 0.10271645 0.08181434 0.008988657 -0.00089320674 -0.07898885 -0.09418408 0.17164667 0.18219203 0.059417102 0.041231904 0.06382909 -0.052857522 -0.021983089 -0.08763988 -0.071622685 0.19891375 -0.3244557 0.08392119 0.0777922 -0.21770711 0.14871149 -0.2859502 -0.35059795 -0.1541833 0.041248944 -0.19735461 0.035969857 -0.093049206 -0.123259395 -0.3039171 0.11218083 0.025201298 0.22744226 -0.038047396 0.013037256 0.08971543 0.07225256 0.18560986 -0.06237054 0.24377906 -0.010897196 -0.14224574 -0.19520319 0.10499527 -0.10034251 0.04541759 -0.18865548 -0.0014982074 -0.0632589 0.15587828 -0.16261415 0.19091201 0.032844536 0.10558318 -0.0038333086 0.063929245 0.07455517 0.005980504 -0.20899563 -0.057947762 -0.066406175 0.12065635 0.14775686 0.21958491 -0.13475464 -0.18090148 -0.31866804 0.23690474 0.19500671 0.015490757 0.18132152 -0.0064059324
683 0.32195893 -0.6185182 -0.6504892 0.33170792 -0.33739883 -0.21387824 0.41676205 0.05769306 -0.62736 -0.5378983 -0.6998183 -0.19416343 0.06274773 -0.07972409 -0.36277223 0.57247037 -0.16870192 -1.0959705 0.18506229 0.7891844 -0.45572782 -0.23080742 -0.0836559 -0.016034015 -0.2512505 0.7777163 -0.28276423 -0.16813985 -0.18986863 -0.18256444 0.10848014 -0.07829063 -0.23991522 0.19537139 -0.70223457 -0.09587351 0.11892912 -0.4545348 -0.5324101 -0.19305862 0.36631992 -0.47416162 0.21130356 0.7616335 0.8639614 -0.5313402 -0.18980746 -0.107137695 -0.85624963 -0.09980045 -0.7716596 0.3009223 0.62007153 0.22264066 -0.7307093 0.11380612 0.13069241 0.33722913 -0.05271732 -0.06114831 -0.33434802 0.46791333 0.5841124 1.1715271 -0.846283 0.5227287 0.80403143 -0.15298472 0.22631475 -0.12277134 1.0991533 -0.13548517 -0.33751816 0.5408233 -0.28949723 0.5646499 0.3011756 0.085510604 0.32898542 -0.39102638 0.67407036 -0.6069871 0.538195 -0.39329225 -0.14448303 -0.04625076 -0.11054387 0.22071655 0.06212158 -0.71997994 -0.35271198 -0.09034873 0.793201 0.34010887 -0.58245414 0.46737102 -0.43653855 -1.0904564 -0.9055901 0.06459052 -0.12375439 -0.06410119 0.38468012 -0.017244803 0.6135122 0.20360197 -0.34439525 -0.09941866 0.24794102 0.7832712 -0.3474823 -0.0794386 -0.21429664 -0.75393873 0.51702696 -0.34776717 0.00017975796 -1.5989908 0.32072282 0.5597172 -0.04481645 -0.44424653 -0.0037387023 0.7904937 0.45978606 -1.2485974 -0.40030017 0.1999067
129 -0.24718389 0.0050710104 -0.41799515 0.037507653 0.11405522 0.12231443 0.12440403 -0.10777255 0.08685157 0.15511931 -0.05496485 -0.064963415 0.29292908 0.03791031 0.18373902 0.014239187 0.36596835 0.18470944 -0.028499732 0.52000934 0.4744704 0.13919109 0.011327227 -0.289199 0.15198779 0.16021083 0.048991628 -0.07822347 0.056705166 0.048674285 0.2005237 -0.09675509 -0.02315741 0.003637038 0.054792654 0.26421264 0.03288919 -0.15021756 -0.013570347 0.08802123 -0.0120557835 0.24335204 -0.056294814 0.10254879 0.22183223 0.05560401 -0.14010793 0.060550477 0.068370976 -0.1430242 -0.09254976 0.016433991 0.13023008 -0.18284541 -0.33640832 -0.16201696 0.028060786 0.04270547 -0.06838819 -0.04342769 0.028126558 -0.15487435 0.32148156 0.282999 0.21466209 0.10863286 0.023637995 -0.14280394 -0.014588626 -0.13678868 -0.0448958 0.042219836 0.0820489 -0.021574656 -0.039635796 -0.008681071 -0.21006292 0.047068126 -0.13166675 0.065485075 0.2022959 -0.2472845 0.00425315 0.09284214 0.02114757 -0.23492251 -0.0603645 0.28063595 0.29121673 0.033266425 -0.07155935 -0.005913663 0.018619202 -0.07338299 0.037110854 0.01582254 -0.07602051 -0.13740113 -0.17486463 0.16766298 0.045870937 0.013548743 -0.13004133 -0.21518728 -0.25336942 0.21797594 -0.24631713 0.2177879 -0.24477537 0.05178316 0.07310456 -0.032141227 0.31503013 -0.02583229 -0.13452335 0.17479979 0.0020774961 -0.002334559 0.019511929 0.18294525 0.15389155 0.23311265 -0.25981492 0.30969748 0.35095114 -0.07229293 -0.010742534 -0.17052801
628 0.18170999 0.3601407 0.40678295 0.19472708 -0.35436502 -0.5147487 -0.1158944 0.37565103 0.061237413 -0.5209583 -1.2284374 -0.70152897 -0.22377238 -0.37856007 0.72917247 -1.0812134 -0.5516795 0.29067993 0.5459765 1.0224556 0.002894174 -0.24371578 0.05676279 -0.46882734 -0.59549063 0.15839934 -0.16921897 0.92259943 0.079187796 -0.10278311 -0.23741215 -0.54007745 -0.5557159 0.63231176 -0.61332357 -0.0033135314 0.21808192 -0.34907022 -0.5468454 -0.20055334 0.012444469 0.4762478 0.15241441 0.5280613 0.53001153 0.110837825 0.6102296 -0.16351826 0.3349707 -0.579619 0.24915831 -0.2532521 0.32336605 -0.1901243 0.37758937 0.4214565 0.31249157 -0.6480901 0.34517625 0.2145341 0.24992062 -0.4028578 0.13994853 -0.41783455 0.5685643 0.0068040155 -0.18541127 -0.45982394 0.034156106 -0.15228443 0.13413556 -0.29154807 -1.4281609 0.012150055 -0.49426195 -0.49151537 0.20778807 0.17950475 -1.099016 -0.13848169 0.38410544 0.22228347 -0.23381767 0.34041288 0.4868433 -0.6259033 -0.7676818 0.29373038 0.19156906 -0.6375927 0.22030048 -0.8574153 -0.3068745 -0.70956916 0.3899419 0.5388899 -1.6083972 -1.2524649 0.08852848 0.06028238 -0.48197046 -0.028830985 0.037571143 -0.7274 -0.4708418 0.08069683 -1.1725996 -0.34158176 -0.37693167 0.71958774 -0.25516057 -0.24352832 -0.059037037 0.5604217 -0.38522676 -0.25742483 -0.3377023 0.23595877 0.16550834 0.34927893 -0.6772553 0.12654525 -0.51595575 1.1257415 0.23175316 -0.5034164 0.56601185 -0.72240615
128 -0.0026670387 -0.05825834 -0.03782896 0.029523822 -0.04076727 0.2475147 0.17978358 -0.08696611 0.019970361 0.038207117 -0.23132242 -0.27232137 0.14566077 -0.0059848577 0.48740852 -0.19577602 0.046813544 -0.107125096 0.031362306 0.10980717 -0.113571964 0.25564176 -0.1352436 -0.11124757 -0.05060372 -0.020148385 0.21666133 -0.15880786 0.06988338 0.03393295 0.036497172 -0.04464621 -0.19366896 0.09709284 0.121567056 -0.31703934 0.21376342 -0.16658567 -0.090833165 -0.13362347 0.034216933 0.15279949 -0.037259 0.14101642 0.0150192855 -0.03014953 -0.134495 0.00042815457 0.11663946 0.069140874 -0.0027189348 0.008612789 0.029617049 -0.23952612 -0.0898165 0.09739176 -0.029814152 0.36055878 -0.1788295 -0.07556509 0.09415567 0.033488873 0.07350949 -0.19143645 -0.0017651458 0.0018672976 0.17897707 -0.04025589 0.08695433 0.044057593 -0.05465519 0.049581725 -0.3599823 -0.06182904 0.10958713 -0.18002723 -0.1375934 -0.0008972313 -0.31603792 0.034963574 -0.28950495 0.0022032042 -0.31578895 -0.00769188 -0.019394146 -0.06720971 -0.076974645 0.32024717 0.43630457 -0.08631366 -0.20423245 -0.0055995053 0.33360705 -0.13731919 -0.14424644 0.31688777 -0.2262442 -0.021391673 0.110354066 0.38709643 -0.077554785 -0.059607465 -0.20729339 0.122267276 0.058676768 0.26397124 -0.14901698 0.15280178 -0.0130183175 0.0531425 0.12172882 0.09906518 0.2161036 -0.31002203 -0.099913485 0.028211439 0.2803539 -0.20595057 0.02399479 -0.0041287653 0.3184318 0.020177988 -0.14073056 0.084556036 0.058611847 0.09153177 0.36375093 -0.15014675
64 0.040375605 -0.16474456 -0.33275494 -0.08287455 0.2900414 -0.14736213 -0.21931379 -0.05677501 -0.16236824 -0.10992383 0.20554286 0.1306176 0.2289677 0.015505612 0.033053722 -0.017335096 -0.23310408 0.10666823 0.2039551 0.4097344 -0.16083315 0.17898212 0.13916913 0.0003062391 -0.056216046 0.09173613 0.0148791205 -0.009271365 0.17148767 -0.064915694 -0.06221249 0.10919378 -0.14720951 0.059033964 0.10716017 0.15622464 0.31453618 0.17552945 -0.12814574 -0.05652846 -0.1336799 -0.04731337 0.019376064 0.060213536 0.18508868 0.16755518 0.09668385 0.19267303 0.32447943 -0.07277233 -0.029714637 0.1508575 -0.011736229 0.1870597 0.15055381 -0.2724888 0.044161014 -0.2090571 0.06565349 -0.10831456 0.013323545 -0.020899858 0.27107564 -0.053766847 -0.38373888 0.29939458 0.24569125 -0.10098546 -0.10116693 0.35982734 -0.0974931 -0.24592425 -0.20490393 -0.17827608 0.119621955 -0.014344829 0.30611047 0.17698984 0.15642555 -0.03343961 0.11970983 0.027309794 0.05091136 -0.009101476 -0.16400868 -0.08615765 -0.18166453 -0.05112788 0.020202674 -0.0233757 -0.086036585 -0.17068365 0.5757493 -0.21543105 0.015825821 0.4260059 -0.03316576 -0.13528171 -0.21258228 0.061007336 -0.26669827 -0.41133893 -0.10125065 0.029586753 -0.1253368 0.12964186 -0.46392506 0.21774809 -0.025656978 0.024260297 0.026460366 -0.02905392 0.004096671 -0.05271876 -0.27995944 -0.06309381 0.058978476 -0.2217268 -0.1925467 0.26525646 -0.17910205 0.061912037 -0.23525997 -0.18754445 0.28227964 -0.29436162 0.07150252 0.032095473
5 0.000242944 0.14372714 -0.06737243 0.3658325 0.1364465 -0.11070703 -0.31378263 -0.104341574 -0.31924003 -0.05128228 0.1266455 -0.192928 0.27325538 -0.25224227 -0.058747053 0.034181755 0.23523514 -0.0028224369 0.19041888 0.17033577 -0.33718553 0.19015463 0.22303043 0.17817904 -0.006677456 0.019525787 0.10613404 0.18766776 0.35508913 -0.21129839 -0.0678916 0.009504845 0.10754656 -0.061192688 -0.048740495 -0.0313338 -0.031213613 -0.09022983 -0.31251806 -0.08723486 0.0061221397 0.10642443 -0.027685635 0.2735457 0.050682098 0.058330044 0.013799945 0.2870539 0.2695073 0.1915025 -0.121565945 -0.020303713 -0.008375511 0.19510864 -0.23124903 0.07112182 0.24419197 -0.31587794 0.054865617 -0.30095738 -0.2729675 -0.12059689 0.5089987 0.050416414 0.07662464 0.030723998 0.3338367 -0.1425009 0.37792295 -0.016858276 0.14311641 -0.036663413 -0.019873036 0.10455259 0.18819936 0.03853189 -0.026833856 -0.24249296 -0.03781588 0.107117474 -0.23458338 0.16872506 0.008907134 -0.16132292 -0.060933206 -0.023494957 -0.34302628 0.24244614 0.33764166 -0.097857155 0.08599481 -0.49642593 0.36265266 -0.19904375 0.29774776 0.00809753 -0.029975768 0.19150253 -0.17700611 -0.05255907 -0.011972416 -0.4575512 -0.12800403 -0.09665663 -0.041918118 -0.07019526 -0.21625537 -0.090412796 -0.051036797 -0.05423904 0.19501662 0.14215235 0.10274216 -0.09728694 0.0032051338 -0.30638385 -0.07093023 -0.28323388 -0.119747065 -0.3266557 -0.123399176 0.059032056 -0.36979145 0.05796842 0.1908951 -0.29378423 0.04645512 -0.24937221
166 0.004310556 -0.13321692 0.0142509695 0.1682942 0.11746313 0.13929501 0.106900394 -0.23365368 -0.4355134 -0.18382782 -0.08115458 -0.037506193 0.013852987 -0.16016065 0.29173645 -0.26867956 0.020889755 0.09638399 -0.21267034 0.28424194 0.10411393 0.122511834 0.057160757 0.2941417 -0.023515576 -0.19409703 -0.06332554 0.023262713 0.008735694 0.09945727 0.028602215 -0.14119351 -0.051523138 -0.013212441 0.2052755 0.08229439 -0.18416542 0.029710269 -0.33960524 0.16477664 -0.062244646 0.26075932 0.03748057 0.085085854 -0.036971487 6.667013e-05 -0.05821608 -0.25632384 0.004707837 0.05463363 0.18925701 0.23675711 0.23641856 -0.022146367 0.0070351223 0.20286216 0.19816343 -0.023212625 -0.10809187 -0.20926017 0.1731119 -0.16926701 0.100094624 -0.11814572 -0.13862221 0.08077376 0.5443281 -0.07544956 -0.069785304 0.14288123 -0.4371993 -0.07596863 -0.3195998 -0.052504934 0.12707263 0.011772746 -0.14299595 -0.0093191145 -0.25442576 -0.006825724 -0.1270785 0.032894727 -0.009322101 0.16241936 0.15582787 -0.08122324 0.33359504 -0.07254226 0.103737935 -0.14057113 0.011753831 0.12987518 0.104161546 0.11463452 0.1915483 0.018965919 0.19136447 -0.42069656 0.06331396 -0.11365589 -0.10709073 -0.16059159 0.22607785 0.12918617 0.26240274 0.117970824 0.14752235 0.1821021 -0.11095761 0.11173554 0.20821589 0.07106714 -0.24674219 0.09952716 -0.3414356 0.05407141 0.078515105 -0.1234709 -0.0676695 0.108179905 -0.3104046 0.16709246 -0.2451951 0.104332425 0.21905869 -0.19646965 0.14041322 0.06985987
106 0.088134654 0.066392906 0.09369503 0.07281444 0.008776509 -0.21189918 0.06973604 -0.12001178 0.12711608 -0.19417863 0.049499024 -0.281476 -0.031111127 0.0135606555 -0.0020701932 -0.18440041 -0.16707021 -0.30288705 -0.12607312 0.13460065 -0.033634234 0.13383438 0.019405818 -0.113991424 -0.16281322 0.17370313 0.18944114 -0.09948932 -0.25223696 -0.01652008 -0.1444487 -0.17552274 0.038806286 0.31359938 0.14838313 0.30678138 0.024318907 -0.08729833 -0.29017028 -0.10993382 -0.33741826 0.37954557 0.120483324 0.15205544 -0.09337047 -0.047030527 0.12230126 -0.16137956 -0.0045382646 0.39080015 0.1734964 0.09578839 0.1336815 -0.12814413 -0.3741361 -0.10809773 0.25641385 -0.024321793 -0.15803364 -0.15238714 0.12921588 -0.2488824 0.08349806 -0.06775505 0.024164278 -0.20323293 0.08020019 0.0777427 -0.1414289 0.09998714 -0.06213962 0.0108342 0.2792952 -0.0045599043 0.28543013 -0.047130093 -0.064004384 -0.32152423 -0.057439987 -0.1030256 0.14978813 -0.041928753 0.39629227 0.10552914 -0.025221348 -0.07695126 -0.01102883 -0.15391238 0.238042 -0.44865584 -0.10010778 -0.00875514 0.22821632 0.15465012 0.23273231 0.21353997 -0.12581505 -0.26565582 -0.13496469 0.09966121 -0.027090326 0.15519875 -0.01466731 -0.116787456 -0.012975186 0.24853201 -0.066759504 0.06769131 0.124308914 0.09211207 0.139475 -0.017241279 0.04851091 -0.4910757 -0.14404422 -0.017293828 0.047478437 0.18298838 0.03054456 -0.108477235 0.1937521 -0.032296184 -0.17837149 0.023108022 0.24383508 0.11390008 -0.20596145 -0.09893484
21 -0.27819055 0.013869533 0.04085821 0.26556304 -0.035520896 -0.031042665 -0.06983136 0.059285365 -0.0040492727 -0.31233144 0.08661733 -0.3315985 0.09183534 -0.2970102 0.2603895 -0.15301 -0.25030848 -0.2978182 -0.2322246 -0.17292567 0.17625391 0.0843697 -0.24058136 -0.08131223 0.12291917 -0.01761852 0.026422784 -0.041003354 -0.22978333 -0.034981165 -0.05449707 -0.22469276 0.041519582 0.39949134 0.17091975 -0.018719178 -0.14714691 -0.06663428 -0.2740165 -0.08394524 -0.02216028 0.21873857 0.19096507 0.26902315 0.01139208 -0.02447947 -0.3587621 0.24539407 -0.24859375 -0.031629533 0.04821505 -0.16573825 0.23722638 -0.116375625 -0.20831592 -0.20614734 0.15831678 0.13743569 0.2060351 -0.55373913 -0.14101832 -0.20634177 0.084944814 -0.12466997 0.011683694 0.06592455 -0.078897156 -0.00793705 -0.18689127 -0.0017439452 0.22388756 -0.035364572 -0.14956708 -0.24075371 0.20081222 -0.093269415 0.1137761 -0.25848877 -0.08659355 -0.13753253 0.11630017 -0.27140248 0.2573141 0.13460363 -0.048614316 0.0918661 0.124534465 -0.06382665 0.10911149 -0.11261781 0.09352096 -0.1402323 0.23987003 0.011740747 0.2246227 0.26490903 -0.18086986 -0.049492292 -0.14964634 0.033070605 -0.022194922 0.07958406 -0.008467824 0.09795032 0.08700408 0.23724234 0.103671536 0.059356473 0.15510054 -0.10109472 0.37097225 0.07366661 0.28382954 -0.19837761 -0.14981638 0.043610997 -0.0004830716 -0.015395661 -0.03404935 0.041094366 0.15200588 0.20904154 -0.22792858 0.23263705 0.12888972 -0.05990267 0.00406356 -0.12742852
849 0.23449938 -0.15919806 -0.47755337 0.17472348 -0.0025067837 -0.29859644 0.48191926 0.39117014 0.4544611 0.30104783 -0.04687123 -0.9091153 0.92187285 0.40208203 -0.19581132 0.556999 0.19599128 -0.8124996 0.41889784 1.1964246 -0.82757366 -0.1874008 -0.13905217 0.24092908 -0.22546555 0.7709889 -0.97729254 0.018240616 -0.8125743 -0.08103656 -0.49791485 0.19655497 0.18349266 -0.5500977 -0.101968884 0.3401333 -0.3344113 0.6363356 -0.36975494 -1.1964129 -0.4589292 0.6679199 -0.37721363 0.3221154 0.6985329 -0.23192054 0.018449182 0.7344955 -1.2440507 0.18174589 -0.20171987 -0.15068606 0.27111652 -0.48679757 -0.029910484 -0.29894456 -0.5833434 0.38818082 0.05530048 0.24619539 0.44095844 -0.5269573 0.6301114 0.22946355 -0.45551813 0.01798729 -0.6583082 -0.27440324 -0.030941574 -0.50091 0.67619824 -1.6983706 0.68169755 -0.21827734 0.39150116 -0.24680695 0.17529258 -0.573671 0.39320153 -0.034658246 -1.0938613 0.9252985 -0.38659346 0.044196706 -0.16889957 -0.44249883 0.373242 0.3983454 0.39698678 -0.25822005 1.2619045 -0.87499875 0.33064118 0.87935585 -0.44816056 -0.10937213 -0.6208488 -0.9389222 0.75006074 -0.1604397 -0.5051942 -0.5837028 -0.06956081 0.7214083 0.67244047 1.1772144 -0.124059774 -0.7028851 -0.6232844 0.93663096 -0.19788207 0.34948644 -0.13381796 0.43819374 -0.94330794 -0.10241002 0.18904169 -1.0272927 0.8787398 0.040029593 -0.6587966 0.38544172 -1.037573 0.97791684 0.38248274 -0.48581716 0.9005056 -0.3392163
82 0.19524318 -0.24226661 0.0072212936 0.16548415 -0.021728532 -0.373214 0.12142142 0.05499276 0.19944777 0.11071164 -0.07186731 -0.23774576 0.12511756 -0.16182789 0.019149363 0.13056594 -0.13423216 0.0570509 0.04200129 0.37267664 -0.13996734 -0.10670542 0.32830438 0.012742565 0.20751256 -0.0017847274 -0.06389266 0.04846486 0.027760224 -0.00060841563 0.038279742 -0.12947193 -0.110035226 0.055751633 -0.047329795 0.09909372 0.08275877 0.060693488 -0.12575838 -0.046975102 0.052992806 0.38569966 0.021837253 0.039255407 -0.011245948 0.14785607 0.063494734 0.084092095 0.29933235 0.10984178 0.36511946 0.040183794 0.33427837 -0.20722003 -0.3372521 -0.06136191 -0.113096856 0.30384547 -0.00428182 -0.16948333 -0.079599045 -0.18132424 -0.06332561 0.20299457 -0.15593466 -0.0068449625 0.1786108 0.021494629 0.077450454 -0.13554007 -0.10625584 -0.31111473 -0.10731779 0.30959874 0.15962043 0.002944667 -0.06170905 -0.13649291 -0.009494493 0.014422045 0.15943766 -0.02381135 0.043744847 0.15950112 -0.0422869 -0.013301802 0.2036794 0.21942985 0.19607657 -0.23453203 0.16832887 0.11477566 0.080668956 0.031396486 0.07542371 0.054747835 -0.21246387 0.07156245 -0.16045116 0.33597153 -0.09364236 0.13367476 -0.046649005 0.045821212 0.20030862 0.040639002 -0.07381827 0.064560115 0.07264334 -0.051051978 0.2860797 0.14930414 -0.16237323 0.098799355 -0.13243088 0.23374069 0.16658603 -0.003369741 0.031509805 -0.00067758636 0.038229365 -0.14969076 -0.16900732 0.019395802 0.010153221 -0.11097694 -0.1378205 -0.10163526
105 -0.109114006 -0.08457243 -0.1604374 0.05973794 0.12782782 0.12997296 0.0464038 0.0766346 0.09782886 -0.096250385 -0.014660952 0.07372124 -0.069136836 0.11245132 -0.082047224 -0.094341345 0.0037837045 0.22017094 -0.12987728 0.27012315 -0.044699017 0.12671585 0.101158105 -0.13776903 0.0528327 0.01223779 -0.19005895 -0.007033546 -0.10314573 -0.3520664 0.048873205 -0.24410436 -0.12858568 0.18385781 0.045558996 0.198396 -0.24922512 -0.16258207 -0.36982754 -0.144313 -0.10537019 0.2271972 -0.07707725 0.030312486 0.21735469 -0.034022883 -0.2011026 -0.058432486 -0.17423066 0.2709357 0.18505068 0.29886746 0.10006902 -0.33181173 0.062405996 0.0014014237 0.024153957 0.07404943 -0.12595825 -0.060226176 -0.08421447 -0.19645329 0.380314 0.046560176 -0.032031775 -0.0770182 -0.0019385762 0.2275436 0.03387355 -0.3937208 0.057167854 -0.08888719 -0.17614883 0.123402864 0.20882131 -0.20310403 0.12397635 -0.028687919 -0.2770842 0.05485578 0.06573357 -0.3041281 0.20816062 -0.017100189 -0.06403359 -0.08302967 0.28266168 0.0015021289 0.15916122 -0.16051 0.08389348 0.046030153 0.43648785 0.083441444 0.07570745 0.17110646 -0.04063972 -0.1453651 0.24821621 -0.022182625 0.13285002 -0.114019446 -0.13839705 -0.026924856 0.027554551 0.048202958 -0.26891333 -0.07635241 0.0056118546 0.10617572 0.26995844 0.100268416 -0.18194357 -0.061340407 -0.080763854 -0.2213704 0.13879995 -0.081474714 -0.15933067 -0.11915787 0.18977012 -0.21210322 -0.078897126 -0.087109365 -0.016044326 -0.029547276 -0.057417877 0.12847562
301 0.12056674 0.091184475 0.021882227 0.14800502 -0.23171301 0.0060151694 -0.010227535 -0.2667536 -0.37830392 -0.0754501 -0.042581093 -0.3267887 0.022039192 0.08069684 0.33528697 0.47022808 -0.025802884 -0.10376243 0.017739486 0.071436085 0.24834993 0.22615607 -0.067148335 -0.3051139 0.11352586 -0.06752344 -0.38837817 0.0059743975 -0.10068055 -0.07182708 0.15480584 -0.14232615 -0.11310524 -0.2142458 0.038231134 -0.45728245 0.041768227 0.13367988 -0.6170891 -0.06240566 -0.02362733 -0.012939554 -0.07526031 0.23695767 -0.38216567 -0.24970348 0.008234421 -0.06560168 -0.17859106 0.21039474 0.012713641 -0.24604827 0.2585265 0.32800546 -0.23125866 -0.09867646 -0.07770077 -0.0101323165 -0.12590738 -0.084390424 0.35326687 0.057349455 0.109753504 -0.09517039 0.028523676 0.107698746 0.20164888 -0.024835007 -0.032477476 -0.021825641 0.10533198 -0.25660554 -0.15257058 -0.048313655 0.060846116 -0.05000125 -0.29759702 0.025654856 0.2465666 0.3939596 -0.038074233 -0.3538211 0.16027021 -0.2999579 -0.18941873 -0.093648076 0.24212314 -0.06087124 -0.031060265 -0.022407157 0.12175647 0.07736762 0.12835768 0.052319817 -0.1377902 0.0738163 -0.44257525 -0.19477895 -0.07880154 0.086469814 -0.33959854 -0.11742714 0.12146083 0.12761153 0.20123 0.06870027 -0.4121845 0.05764387 0.23260804 -0.09309323 0.16286683 -0.051389083 -0.07125445 0.041236296 0.08806648 -0.3051377 0.22172253 -0.15224072 -0.17955008 -0.31808993 -0.11008471 -0.014643996 -0.25779596 -0.23183951 0.14259712 -0.5080299 0.1946697 -0.2798013
211 -0.14738968 -0.034532133 -0.021270452 0.015692724 -0.22905383 0.10569727 -0.067978166 -0.23920895 -0.06654126 0.021131545 -0.2432094 -0.3174344 0.06991132 0.11942498 0.040430225 0.029051023 -0.0024609016 0.012360675 -0.10549808 0.2781043 -0.13816066 -0.07663324 -0.32479206 0.22106546 0.06441974 0.024082646 -0.101642594 0.10683131 -0.16201888 -0.18082286 -0.022207703 0.20608005 -0.008080659 0.13999788 0.038546417 0.041290663 -0.12791249 -0.14666277 -0.11848906 -0.011085832 -0.3323087 0.2307359 -0.15635315 0.3762565 0.26432145 0.22926062 -0.013178843 -0.024989903 -0.21837144 -0.26111954 0.09630401 -0.0021530474 0.125043 -0.15238065 -0.28298578 0.03966871 -0.04338669 -0.01955948 0.06796623 -0.102673106 -0.32145897 0.333717 0.20198438 0.14532593 -0.25004393 -0.08562774 0.032687962 -0.25200272 0.03555687 -0.037651207 0.2725282 0.17185196 0.00654653 0.25201717 0.34004876 0.14693391 -0.017797122 -0.083427355 -0.009404801 0.003564393 -0.08920978 0.029783078 0.118642025 -0.16719095 0.3461573 0.11988473 0.18727307 0.057410356 0.4099009 -0.29949126 0.06724792 -0.048026454 0.14475341 0.24722049 0.10166437 0.16630256 -0.29309586 0.019743184 -0.20000173 -0.004610313 0.2389217 -0.1424204 0.14707196 0.14690422 0.026362153 0.39851984 -0.24391563 0.036942214 -0.28914762 0.16309388 -0.14168379 -0.11646527 0.11669331 -0.1693036 -0.14195037 0.07268864 -0.07689661 -0.15292498 -0.30144915 -0.16598104 0.045734227 -0.050504208 -0.33349207 -0.048489455 0.30892715 -0.030936832 -0.09614528 0.21772057
383 0.051491078 -0.15500261 0.4861703 0.08445558 -0.35186264 0.12357017 -0.20869134 -0.27243513 0.81670517 -0.20231625 -0.9306107 -0.4342112 -0.21976118 0.11076677 0.122987345 -0.97746444 -0.37658688 0.72598076 0.13883467 0.96365607 -0.44160733 -0.31797725 -0.54375726 0.4928429 -0.35516918 0.20513023 0.46898147 -0.2186983 0.9526013 -0.22536851 -0.008611899 0.5143567 -0.95047945 0.028880648 0.079570994 0.20882887 0.5959553 0.060263403 -0.62914115 0.19753711 -0.73089784 0.57950526 -0.0064146398 0.25255874 -0.6712651 0.58714247 -0.24357371 -0.24591589 0.022370476 0.03165526 0.42362705 0.9281332 0.009705824 1.1504003 -0.4065602 0.49627146 -0.24350663 -0.76440257 -0.5612307 -0.23749918 -0.08844134 -0.5374433 0.49026564 0.30502045 0.37248585 0.19069386 0.3900039 -0.32508522 0.29665744 -0.65018684 0.44303247 -0.31956527 0.02254027 0.9899195 0.12022975 -0.6718599 -0.29460818 -0.6311105 -1.3669671 0.45056713 0.36906227 0.5955056 0.3891948 0.23829551 -1.2460976 -0.4410105 0.4336879 -0.20086223 0.31348184 0.07422222 -0.38922688 -0.2262923 -0.08408638 -0.050641675 0.41275787 0.60942584 -1.1079748 -0.5543779 0.1774445 -0.2816488 -0.86242217 -0.308791 0.007458872 -0.6429768 -0.023273595 0.89448357 -1.1093162 -0.5324005 -0.080663234 0.73154354 1.2744745 -0.058127835 0.24601083 1.0054783 0.16422324 0.5863302 0.114867516 -0.37130165 0.5591362 0.16642898 -0.5403766 1.0525569 0.011275193 0.6267604 0.1555192 -1.6839399 0.27861112 0.013985143
256 -0.2191968 -0.13559894 -0.023332804 0.016523255 0.16475354 0.17206015 0.081605665 0.027508363 -0.06031854 0.07060489 0.16469938 -0.21609472 0.087681085 0.046949238 -0.10766634 -0.19009641 -0.04636361 -0.050137784 0.02914594 0.24430412 -0.06245585 0.092224345 0.00076050736 -0.4237698 0.23684335 -0.015323007 -0.034630794 0.11396083 -0.13464677 -0.3097393 0.016057806 -0.10416422 -0.087055534 0.23822297 0.061010636 0.115853265 0.028924817 0.041625176 -0.051048465 -0.24227853 0.12861456 0.18842268 -0.025548225 0.11799446 0.17807582 0.23771733 0.031763773 -0.20852715 0.1872375 -0.054037582 0.085483134 0.16721906 0.09205163 -0.059818283 -0.36339992 -0.05520661 -0.124028526 0.14146878 -0.08695045 -0.40428588 -0.077071525 -0.08119026 -0.09840995 -0.041786674 -0.027389714 -0.13833244 0.04842946 -0.23060834 0.14059258 -0.09619073 -0.054560218 -0.36098397 -0.14009698 0.1348163 0.15834017 0.11930434 -0.12875114 -0.38381568 -0.23351595 -0.100595966 0.08485388 -0.24261877 0.003531445 0.06634386 0.10149366 -0.009026064 -0.13445826 0.07004392 0.17936108 -0.2870675 0.2572267 0.029079951 0.11181655 0.09029191 -0.04854119 0.35559136 -0.0993701 -0.07774989 0.059095945 -0.14250258 -0.18743695 -0.021800721 -0.028527208 -0.042362027 -0.21040526 0.30054763 -0.28460264 0.1922909 0.15658148 -0.21770146 -0.14213182 0.16196592 0.30404738 -0.2630264 -0.16194786 0.1434053 0.16328782 -0.2863485 0.12840737 -0.01798463 0.1075425 -0.19456951 0.01621242 -0.11618499 0.06207458 -0.15810844 -0.36515033 0.072511494
283 -0.16648735 -0.31658545 0.0904904 0.077966936 0.08106934 -0.1385798 0.37021926 0.104543395 -0.25405443 -0.13548978 -0.4267285 -0.18966179 0.18731788 -0.24167392 0.19677123 -0.17055449 -0.3904037 -0.022008805 0.05216869 0.41316378 0.20264807 -0.08499595 -0.051523 -0.06049161 -0.10896983 -0.07477525 -0.027128726 -0.050396767 -0.06225627 0.08873327 0.14527072 0.022273585 -0.111474685 0.10228047 0.14767066 0.21683952 0.052452322 0.020554682 -0.10686141 -0.25646234 -0.052056037 -0.047345746 -0.050077565 -0.01765821 -0.077707455 0.15392195 0.5372649 -0.0056054364 -0.1563825 -0.033713274 -0.13545828 -0.012424252 -0.04575531 -0.21855804 -0.049652826 0.0605712 0.17240888 0.14637578 0.07805276 -0.2012937 -0.055013493 -0.19688891 0.08428772 0.018036721 -0.029293614 0.034872063 0.028730216 0.110129185 0.2514127 -0.0020164386 -0.21543995 -0.075961344 -0.100181825 0.32984325 0.17350073 -0.17037255 -0.090398386 -0.23723999 0.002726688 -0.0963174 0.04106231 0.11331366 -0.12914011 0.06451372 0.08084785 -0.09475359 -0.06566467 -0.122522816 0.5168344 -0.27768892 0.109914295 -0.06443862 0.040293105 0.08754293 0.021955635 0.086929195 -0.17606802 -0.07145915 0.2527454 -0.05859795 -0.27248085 -0.19979171 0.005385909 0.100426696 0.0005254738 0.21155061 -0.22925974 0.15878025 0.07610447 -0.0634567 0.26827288 0.23403326 0.04926614 -0.07607758 0.07713488 -0.002321574 0.3754476 -0.27656367 0.11259317 -0.01349773 -0.14056449 -0.1764052 -0.087261066 -0.081537455 0.17875168 -0.080969505 -0.110333115 0.07159839
333 -0.11686154 -0.06265338 -0.09089686 0.6386208 0.08949084 -0.021954363 0.04928099 0.12147914 -0.119459644 0.0351163 0.20682862 0.30638638 0.049383834 0.15884256 0.12968822 -0.123022854 0.001211725 0.10683008 -0.14475189 0.36065555 -0.31870106 0.14505813 0.2909456 0.19887988 0.18853216 0.11976678 0.009594819 0.034175955 -0.21223144 -0.034094263 -0.08160555 -0.2218141 0.04423983 0.22996071 0.032709107 -0.102025576 0.09079006 -0.012871902 -0.061471358 -0.10648011 0.19604628 -0.07194692 -0.028245045 -0.13453317 -0.09235136 -0.25315556 -0.045782227 -0.054128096 0.010981195 0.30210513 0.10441287 0.24370489 0.014084425 -0.119852185 -0.010779463 0.11431516 0.34362337 -0.12069112 0.40536237 -0.03768457 -0.13615827 0.15294851 0.23017527 -0.115731895 -0.029396452 0.004856591 -0.11266421 0.03196602 0.348103 0.18813306 0.0685841 -0.19661826 -0.10109951 0.1290371 -0.084833145 0.16349302 -0.24779458 -0.2649313 0.027424246 0.18212032 0.17254871 0.021556059 0.17603011 0.03981573 0.1349079 -0.39262593 0.36315724 -0.018723242 0.11985173 -0.4541029 0.23076613 -0.20072664 0.11911583 0.06989419 0.06584782 -0.097196124 -0.3524042 -0.09005205 -0.072765276 0.053048763 0.22186387 0.15724558 -0.38858095 -0.0029788252 0.075925305 0.47409523 -0.35802007 0.075346425 -0.11554101 -0.051369265 0.2369972 0.07614252 0.0048560956 0.20583594 -0.10254117 -0.023701776 0.20510808 -0.2739052 0.18440555 -0.10634443 -0.38678148 0.0029091097 -0.011136551 0.11280195 0.1405352 -0.19497035 -0.17250901 0.0709106
377 0.14259052 0.15606183 0.0707311 0.28588858 -0.1677721 -0.04258599 -0.1359099 -0.013212608 0.12140087 0.20832881 -0.14869596 -0.3768504 0.25812793 0.03493192 0.1291904 0.088475324 -0.15044531 -0.06750997 -0.07403447 0.32371986 -0.25652683 0.07094401 -0.27216336 0.11158751 -0.36167938 -0.055971753 -0.15506151 0.11679949 0.29594928 -0.28639522 0.13151321 -0.15781377 -0.6268744 -0.0018088033 0.0922816 0.1747325 0.1926975 0.082510546 -0.06411368 -0.12198596 0.06429615 0.14016792 -0.18271497 0.1121833 -0.14861797 0.14011696 -0.06510253 -0.45108253 -0.44855595 -0.08995131 -0.1308832 0.25390077 0.152317 -0.005376377 0.024198072 -0.5171572 0.06591258 -0.02631147 -0.027524207 -0.032824848 -0.15706496 -0.30631614 0.287455 0.24925183 -0.1997251 0.10251849 -0.2736258 0.115868986 0.41126058 -0.058006026 -0.060693502 -0.020812076 -0.3882784 0.21456923 0.18468122 -0.27541944 -0.24653028 -0.048407838 -0.069761984 0.19558248 -0.15578546 0.14129193 -0.17171021 -0.07834935 -0.19963658 -0.15361758 0.048335727 0.094057605 0.18949485 0.028975923 -0.2716553 0.086018 -0.059853915 -0.11851906 0.079517886 0.05465804 -0.433184 -0.060249873 0.10984166 0.1857728 -0.28328884 0.09782548 -0.06885245 -0.220176 -0.067023516 0.18318142 -0.32471454 -0.17636815 0.037147757 -0.18183054 0.13159385 -0.14614315 0.04706233 0.20884722 -0.2553666 0.24428318 0.21860829 0.06253647 0.2522144 0.19712831 -0.053993367 0.08140204 0.021923034 0.20398133 -0.04112793 -0.24879998 0.19271249 -0.28514624
44 0.03288812 0.15352415 -0.062370367 0.15565722 0.31783363 -0.01539972 0.22324337 0.11915842 0.10719786 -0.018020974 -0.11061518 -0.32575557 -0.009833815 0.02419336 0.11331246 0.0032387525 0.038104516 0.17277062 0.12268322 0.1171642 0.035895817 0.09861479 -0.11017106 0.10341092 -0.19944298 -0.07413643 0.04375456 -0.058036394 -0.01907367 -0.084135585 -0.34882534 -0.20327425 -0.17656109 0.23258334 0.080675244 0.11062168 0.17001686 -0.06810695 0.06978587 -0.1032116 -0.10241479 0.3731416 -0.2867327 -0.0047269585 0.04364383 0.011763752 0.09997713 0.124333315 -0.10524423 0.19277272 0.019786362 -0.33454826 0.19624147 0.00400188 0.12971419 -0.07444612 0.11507471 0.13476105 -0.24665838 0.059570767 0.25122416 0.012312676 0.21272548 -0.032886144 -0.18070732 0.29915565 0.21894862 0.057574477 -0.11991979 0.1492343 0.0427786 -0.11573409 -0.33276662 0.38810623 0.38492316 0.073576555 0.1377044 -0.5808893 -0.52449065 -0.03291546 0.30711907 -0.13947193 0.08602601 0.27156138 0.23268393 -0.14070691 0.11545954 0.19224772 -0.054433137 0.08704799 -0.013065469 0.1999019 -0.035828892 0.0836205 -0.061252244 0.0040762112 0.1657647 0.019390142 0.06643672 0.2556561 0.09366936 0.08636121 0.19951318 0.12690057 0.33602658 0.21560621 -0.46688923 -0.07446502 -0.25680414 0.25563648 -0.13023733 0.19366771 0.1664541 -0.34248394 -0.15771757 -0.22353412 -0.048711035 -0.14571442 -0.3713379 -0.075010255 0.18384622 0.10700301 -0.15001824 0.26294154 0.14576696 -0.19016661 0.12928782 0.15731716
420 0.08836283 0.29262313 -0.18260056 0.3907362 0.009152175 -0.186669 0.32760477 0.07948232 -0.04043528 0.013583374 0.12635346 0.029558977 0.1825952 -0.050720148 -0.062126968 0.01872931 0.05645224 0.037162654 0.1830667 0.05072683 -0.30166775 0.10625273 -0.29887536 -0.18616563 0.1824202 -0.1746443 -0.08945911 -0.028660098 -0.2168437 -0.01731067 0.02764585 -0.2812173 -0.07893357 0.29092133 0.17100275 -0.07481911 0.012771826 -0.07027548 -0.2977408 0.037943926 -0.12541026 0.31056672 0.3126208 0.41521478 -0.13817619 -0.023739796 0.08585481 0.19129944 0.18707497 0.0015263499 0.00967285 0.020524165 0.022911524 0.014740016 -0.3623272 0.123143114 -0.4749592 -0.09189252 0.04727928 -0.1731875 0.12563127 -0.026318045 0.121609494 0.3168597 0.23252057 0.3323365 0.5703138 -0.20954627 0.16912296 -0.22847223 0.08285519 -0.26581147 -0.2753173 0.010133241 0.20288736 0.075612664 -0.159199 -0.15915802 -0.22675557 0.17620097 0.068460144 0.18115844 -0.008267343 0.26333532 -0.06497555 -0.019036654 0.20041564 -0.0028804517 0.13175896 0.06008478 0.011865923 -0.116149 0.08734018 -0.15889424 0.13683927 0.0011374092 -0.16023064 -0.06788629 -0.30836076 -0.006564834 0.13345306 0.062264472 0.03218579 0.1380427 0.2940731 0.13833825 -0.24651326 -0.23797081 0.123474665 -0.24617152 0.023227882 -0.15876114 0.14536676 -0.2364003 -0.2734176 0.1193489 0.3087485 0.07371196 0.03377068 0.16957542 0.055260055 0.05290924 0.14401932 -0.122497186 0.033424772 -0.22658667 -0.029571712 -0.004482846
87 0.10630407 -0.40686047 -0.2996593 0.21931076 -0.19749662 -0.12139314 -0.03676844 0.011286816 -0.060571074 0.19353592 0.013130835 -0.25029522 0.05903529 0.099142164 0.0037977064 -0.035673868 0.018821742 0.08736248 -0.063760854 0.00036902964 -0.13666302 0.20244743 -0.073371336 -0.058922015 0.33626598 0.11792378 -0.29348528 0.17089453 -0.22274095 -0.048159495 0.119265035 -0.28300425 -0.24156608 0.28506556 -0.06642663 0.24768852 -0.13767053 -0.3750015 -0.025992291 -0.20097552 -0.2638663 -0.0029744145 0.07785884 0.08431107 0.033233214 0.2816516 -0.1559915 0.01544252 -0.13547017 0.071807586 1.8815437e-05 0.03188103 0.2748192 -0.041134827 -0.026520312 0.123017594 0.22501212 0.021144005 -0.09613858 -0.069111444 -0.19803832 0.19123673 0.20990966 0.13668221 -0.19905542 -0.04089806 -0.06083928 -0.21006085 -0.16079094 -0.18327346 -0.34825948 -0.10772681 -0.24813925 -0.010564834 0.17724541 -0.1299544 -0.024776177 -0.08650481 -0.015807904 -0.055190902 -0.12346832 -0.18739869 0.1816913 0.097185075 -0.02001322 -0.37638557 0.39967808 0.15447539 0.07760914 0.03190129 0.1610538 0.064588465 0.054136332 0.046535328 -0.07295709 0.105772346 0.032330014 -0.38250765 -0.123170935 0.010757328 0.2541583 0.10080592 0.008429363 -0.2362997 -0.013846787 -0.12598582 -0.08127068 0.1708733 0.0058019157 0.12480667 0.18604107 0.037201177 -0.033237107 -0.2506381 -0.27879643 -0.12226176 0.10950363 -0.045727454 -0.25715864 0.1839394 -0.005923385 -0.203463 -0.28595817 0.1504531 0.20733596 0.033247627 -0.1338211 0.06820143
249 0.09449891 -0.26596183 -0.16758049 0.117684394 0.017279092 0.15779719 0.1126175 -0.06979999 -0.1600117 0.012644628 -0.13997413 -0.13983466 0.013673195 -0.05924051 0.059981152 -0.10144973 0.2712337 -0.08386636 0.04415261 0.17057846 -0.09046078 0.05989369 -0.08332363 -0.029218113 -0.10015536 0.004426259 -0.033253856 0.02725617 -0.30140632 0.002701701 0.055975046 -0.08735169 -0.19383088 -0.025157109 -0.04268269 0.18231016 -0.14379163 -0.0058336584 -0.33367616 -0.10827063 -0.19497347 0.14283015 -0.102763616 0.11648595 -0.037223432 0.029514512 0.009670495 0.17313181 -0.073258504 0.14826675 0.11048029 0.040825594 0.15298443 -0.31866205 -0.05169468 0.26145864 0.24341047 0.060262572 -0.07568599 -0.1934591 -0.11580994 -0.12614557 0.4117357 -0.022961922 -0.03385478 -0.02823494 0.23005284 -0.29709867 0.16046356 0.012718058 -0.01745156 0.076979846 -0.049255617 0.12948225 0.14847818 -0.15297607 0.017687595 -0.10692761 -0.21186148 -0.11998798 0.14988834 -0.071577005 0.09549927 0.19974367 -0.05789072 -0.39816096 0.27732128 -0.06947095 0.16291898 -0.026097966 0.3154393 -0.115775146 -0.083929606 0.17504713 0.14996302 0.10338467 -0.021495424 -0.13204223 0.068421796 0.061442506 0.120397836 0.104801245 -0.12357521 -0.317052 0.095956005 0.014617599 -0.17112392 0.075929716 0.021655386 -0.07289445 -0.046786975 0.130526 0.0109013505 -0.14121602 -0.05874522 0.04520843 0.142854 -0.16114423 0.022552103 -0.20071824 0.29087195 -0.20549038 -0.2372304 0.14740977 0.16243824 0.029402131 -0.03953135 0.046957504
114 -0.12898608 -0.14666887 -0.21890233 0.03324169 0.19267325 0.055700272 0.2556163 0.068307646 -0.19197096 0.026905322 0.06391163 -0.2219375 0.06561667 0.3099606 0.3117507 0.035871875 -0.13233402 -0.071781546 -0.13208947 0.025577202 -0.037072495 0.19941397 0.20545088 0.23829544 0.0889265 0.08868472 -0.119734295 0.08746032 0.057692084 -0.031165488 0.082641184 -0.40913942 0.11093752 0.23897716 -0.09143981 -0.08190317 -0.038376953 -0.09465875 -0.088368006 -0.15781091 -0.15392879 -0.09882 0.03157198 -0.031716447 -0.03205485 0.016232956 -0.0813912 0.13997643 0.06538613 0.12636358 0.20917712 0.11633114 -0.06788089 0.011435643 0.0319168 0.048352 0.072986215 0.14216441 0.22567336 0.011678057 -0.081035934 0.14105938 0.07916754 -0.28046042 0.27753967 0.10295206 0.04615839 -0.09796685 -0.050595712 0.10448798 0.028617023 -0.19781075 -0.20088209 0.10757717 -0.14564347 0.31986162 -0.05519454 -0.41852772 0.037884362 -0.1271125 0.019831436 -0.009720107 0.1942165 0.092766695 -0.03108694 0.014644127 0.068222255 0.15346299 0.4271245 -0.15111034 -0.032360896 -0.15629749 0.055992566 0.09388544 -0.38636371 0.22266296 -0.08907801 -0.104206644 -0.18500318 0.22290705 -0.13774692 0.09449708 -0.26306155 0.03268359 -0.13352889 0.44787335 -0.5226112 0.0016579328 -0.1242673 0.11220433 0.12588568 0.22432597 0.1734432 -0.089452915 -0.08944317 0.10574308 0.03879058 -0.2374081 0.05665824 0.075311504 -0.14826715 -0.054622296 -0.06217042 -0.10639761 0.15394893 -0.29778886 -0.23757572 -0.16039671
96 -0.05362906 -0.5578176 -0.3099259 0.42771053 -0.10279419 0.12769452 -0.12008483 0.16304363 -0.029717071 0.04158898 -0.37018597 0.08139448 -0.03633016 -0.030412374 0.06543353 -0.12407185 0.105182275 -0.048357546 -0.14427155 0.21759789 -0.20145708 0.0013585489 0.07336556 -0.025867611 0.20557663 0.056212477 -0.28283072 0.049758002 0.06582989 -0.10290448 -0.2950049 0.08586325 0.21832493 0.050665002 -0.06224043 -0.19892657 0.1918067 -0.085982636 0.0037765424 -0.34273276 -0.114374466 0.24003659 0.04782521 0.4090783 0.33057913 -0.35966334 -0.23185267 0.26284733 -0.07143268 0.17965707 0.396555 -0.32362747 0.017109163 -0.12240468 -0.18940233 -0.022042528 0.13682245 -0.27222744 0.33559948 -0.33484045 -0.27047232 0.11637995 -0.120523825 -0.060689796 0.20589994 -0.4603723 0.3722175 0.12498275 -0.12406165 -0.16320449 0.12943444 -0.3347686 -0.17409325 -0.17666195 0.02809985 0.16996537 0.10513989 -0.09923824 0.05455819 0.06389402 0.05519386 0.043812577 0.11357802 0.008520452 0.035831444 0.051740054 -0.106067404 -0.15353994 0.37415472 -0.16147554 -0.045056973 -0.231005 -0.083194286 0.24998213 -0.092815205 0.097271234 -0.35690406 0.16916732 -0.18365274 0.08228721 0.16763094 -0.17010747 -0.19989966 0.16743243 -0.05235777 0.35570645 -0.15143937 0.13978 0.017391529 0.021343928 -0.07899019 0.09643246 -0.19127952 0.14527696 -0.05994654 -0.23800659 0.05900927 -0.13165611 -0.19515812 -0.0038378958 -0.10406111 -0.2010121 -0.066523224 0.025811035 0.25579056 -0.36911052 -0.05896194 -0.13704388
479 0.016525984 -0.95687133 0.1748615 0.9660508 -0.27751693 0.27391744 -0.31434163 -0.22060636 0.045720365 -0.53945684 -1.0564213 -0.071348615 -1.4061629 -0.4082679 0.085510835 0.7044856 -0.347621 0.7114265 0.15345544 0.69691443 0.03545019 0.68948114 -1.694073 -0.27548197 -0.34965447 0.53462595 -0.45437106 0.4933822 0.8666135 -0.34016597 -0.43230256 -0.28967392 -0.35826397 0.2499966 0.5032151 -0.06891109 0.6189125 -0.069853604 0.53100324 0.71955943 0.18970631 -0.2667997 -0.5135621 0.0006447197 0.8821172 0.93946385 0.10600135 -0.4595889 0.4311325 0.57187295 -0.46267658 0.27285358 -0.30499613 0.286122 -0.22563428 0.1245657 0.7854677 0.3884605 -0.89312893 -0.6685139 0.44459662 -1.24292 1.5139787 -0.15920128 0.53320867 1.0866507 0.66489094 1.7199883 -0.09528153 -0.85907805 0.7928932 -0.7011243 -1.1565039 -0.12117225 0.9393774 0.5806228 -0.3263915 0.11251212 -0.48055252 0.40453285 0.52095574 -0.58269376 0.7544034 -0.22590366 0.39065185 -0.68806285 0.08973456 -0.4909766 1.312954 0.2404499 -0.12289477 -0.8225708 -1.0048175 -0.1862379 -0.10344891 0.07921151 -0.7047401 -0.099774934 -0.78224397 0.57829154 -0.44328794 -0.24538545 0.25012925 -0.12134445 -0.26675862 1.485699 -0.5133164 -0.085607685 0.24343123 0.8071392 -0.29914108 -0.8508805 0.8843073 -0.20519307 -1.0411656 0.12537763 0.7037866 -0.6968145 1.2950416 0.58485544 -0.18180087 0.28793505 0.6758262 0.6482396 -0.4087042 -0.08165386 -0.16260476 -0.59779584
28 0.050367057 0.16243716 -0.2724393 -0.15801923 0.24408428 0.1159726 0.10911617 -0.10423996 0.016258176 -0.106174946 0.010207017 0.049302787 0.12931791 0.18539467 0.3246684 0.018343206 -0.12487321 -0.16999812 -0.16867904 0.28082898 0.1562563 0.14239486 -0.16728553 -0.06718022 0.2382631 -0.00858916 -0.24495842 -0.2933468 0.030306675 -0.01323243 0.18521284 -0.4073658 0.08357103 -0.011506858 -0.16715199 -0.0074885953 0.34786585 -0.17093223 0.1160718 -0.3000369 -0.21409728 0.34621322 -0.07417297 0.05618689 0.073651336 0.014460383 -0.16221356 -0.010903776 0.08594836 0.1749534 0.20744659 -0.0027077012 0.15240781 -0.14798747 -0.054582633 -0.02996044 0.19084394 0.040372565 0.13638885 0.012723516 -0.2897553 -0.07511556 0.25570312 -0.074773945 0.15271801 0.2663242 0.08821885 0.26423597 0.054848768 -0.023261534 -0.095685646 -0.2609888 -0.0955814 -0.08503978 0.109078385 0.16181956 0.14811845 -0.18730201 0.02196946 0.119433485 0.2495855 0.08787477 0.09734361 0.32197303 0.13994312 -0.16214062 0.086426094 0.16477576 0.35253304 -0.005699898 0.027566446 -0.19393462 0.056203764 0.042007893 -0.3135652 0.25128132 0.029896189 -0.1535955 -0.19961517 0.29805732 -0.08123224 -0.13124418 0.07643103 -0.049264606 0.113189906 0.26029128 -0.09701258 0.1728844 -0.27349985 -0.3063746 0.16851293 -0.15217249 0.12804522 -0.12666138 0.19975387 -0.016453652 -0.14774553 -0.3799973 -0.02812032 -0.0408091 0.04695664 -0.17416607 0.20176382 0.023252238 0.16255146 -0.15541309 -0.10386418 -0.077257626
451 0.08826354 0.020931544 -0.35007018 0.12970771 0.07562743 0.23717636 -0.116742924 0.13691518 0.10395943 -0.04483075 0.17238812 -0.25754973 0.14310703 0.17370081 -0.12410262 0.25756526 -0.03701263 -0.14549333 0.091095366 0.15893373 -0.013410144 0.060987357 -0.25141376 -0.07669606 -0.1928384 -0.02389149 0.3149086 0.010378676 -0.11487354 0.028207475 -0.21381639 -0.03151561 -0.33009833 0.2650496 -0.18141285 0.29577184 -0.2753969 0.11672216 -0.19280402 0.051443733 0.25659168 0.4059403 -0.36546692 -0.06860132 -0.13799423 0.021405939 -0.1805231 0.40757823 0.14183967 -0.02790418 -0.06060672 0.05468304 0.17205237 -0.14835815 0.035219826 0.084319875 0.19033629 0.020012725 -0.22056697 -0.17600307 0.20815453 -0.21059865 0.64703 0.16217266 -0.10853692 0.27745822 0.18632354 -0.41252512 -0.0086454 0.08071287 -0.27441633 -0.12462025 -0.42011914 0.034320444 0.4625117 0.1998648 0.3152813 -0.5724427 -0.51836395 0.20422503 0.40899897 0.12150303 0.15287776 0.3731795 -0.07907752 -0.43081912 0.30752507 0.1511951 0.3483226 -0.045636676 -0.4382184 -0.024634147 -0.18019603 -0.14547913 -0.39175984 0.11259849 0.038496744 -0.22616951 0.06274495 -0.49326745 0.10458988 -0.14944988 0.079116315 0.04738434 0.17434989 0.13365869 -0.17395508 -0.22722355 -0.01888055 0.050306562 -0.10606227 -0.016307807 -0.061586536 -0.20291346 0.31648713 0.006992392 0.21431859 -0.028077215 -0.16091745 -0.20102844 0.12860177 -0.14998929 -0.16127472 0.12662373 0.36539245 -0.057481438 -0.2284338 -0.20425628
280 0.07861129 0.072165005 -0.06331211 0.11292861 0.21177153 -0.21303065 0.13236548 -0.008937684 -0.1589643 0.07582044 -0.04350776 -0.13786384 0.32099155 0.28676924 0.29530144 -0.16889343 0.061327882 0.079829104 0.06414555 0.362671 -0.13899444 0.11347196 -0.30267453 -0.28190377 0.034812335 0.05961511 -0.058722403 -0.25889033 0.5415686 -0.14260921 0.16383956 -0.080163516 -0.3524126 0.015292638 -0.1143189 0.18968104 -0.067500904 -0.015123371 -0.01216229 -0.20571297 0.0017796108 -0.07678293 0.07097927 0.26527652 0.05247238 0.06202541 0.17471083 -0.029597335 0.10678026 0.0049269074 0.11135318 -0.15580171 -0.0010780863 -0.02945832 -0.04801483 -0.41848904 0.20154995 0.33344057 0.2586572 -0.27938917 0.22461827 -0.2547896 0.28040937 -0.09653628 0.022565773 -0.08879126 0.1264496 -0.029633632 -0.1009256 0.011744455 -0.11097559 0.044553 -0.024386724 0.05708409 -0.02362565 -0.023957588 -0.19729538 0.014626431 -0.07711062 0.1259977 0.06184871 -0.14872304 -0.10521227 0.15010385 -0.049293607 -0.11210443 0.20063545 -0.052361134 0.32135957 0.2190985 -0.2537955 -0.2842641 0.11627274 0.16205807 0.2079576 0.1302057 0.000382829 -0.18495135 -0.13702698 0.22434756 -0.13390309 0.18991628 -0.2886076 -0.15138824 0.03837536 0.13274 -0.07648496 0.3479152 -0.090475015 -0.06824891 -0.033729054 -0.09577257 0.14480995 0.0007268679 0.12646113 0.18299074 0.24364102 -0.056809038 0.098838754 -0.02046924 -0.03010693 -0.036684044 -0.24334434 0.21159105 0.11239958 -0.06506447 0.055731375 0.19865991
820 0.08674684 -0.027108276 -0.0864542 0.23563923 0.14698087 0.043645218 0.07585043 0.03764434 0.13502955 -0.014284227 -0.029227076 0.05376026 -0.080212854 -0.0075179194 0.34913617 0.13339537 -0.020744875 0.0048445575 0.101229265 0.46982428 -0.41981184 0.060045265 -0.16593242 0.101254135 -0.075616434 0.023078373 0.2937061 -0.015857583 -0.008645821 -0.13535042 0.26219514 -0.23564686 -0.4151945 0.08433847 -0.16575111 -0.10534668 0.009017193 0.031089192 -0.080413 -0.06391991 0.24483852 -0.081155255 -0.100819126 0.19292645 0.09808476 -0.033202156 -0.28316167 -0.013407707 0.13110717 -0.08580742 -0.21340013 -0.19653355 0.25164643 -0.26690418 -0.32439807 0.28163454 0.01972007 0.2372783 -0.25161445 0.071576595 0.17874435 0.34025428 0.2072344 -0.32292014 0.11263095 4.5798843e-05 0.042549685 0.21615058 0.17241055 -0.027438037 0.10456967 0.08786651 -0.19750877 -0.17823306 0.17928973 -0.09350297 0.02930314 0.11237116 -0.16109456 0.19786602 -0.070078276 -0.1236513 -0.12440879 -0.13862237 -0.023105834 -0.18289377 0.037052915 0.14671697 0.21609063 0.059116326 0.0012532616 0.019609947 0.20201685 -0.0442705 0.14423607 0.077131495 -0.017674081 -0.16047232 0.28919354 0.42698303 -0.18787028 0.014997987 -0.26136866 0.18159287 -0.017179772 -0.032769974 -0.30763927 0.29858354 -0.067658424 0.2461786 0.28218132 0.15025187 -0.0066670375 -0.11395495 -0.123542696 0.036490902 0.2505292 -0.06509234 0.12923585 0.093156286 0.0632155 -0.18998767 -0.29072043 0.13389203 0.14180017 -0.11312632 0.19977525 -0.19190595
639 -0.34346455 -1.3499728 -0.4326613 0.56995577 0.81338876 0.29981947 -1.0023752 0.43556345 -0.34548777 -0.4184616 -0.29922932 -0.7423655 0.09678488 0.21078832 0.64235073 0.16767532 1.3652297 0.4735426 0.32959425 1.0149845 -0.64173335 0.20964698 0.094909914 -0.7032525 -0.83873224 -0.5322343 -0.5971441 0.7334667 0.7004049 -0.34462324 -0.1858597 -0.10327812 -0.14185841 0.23077121 -0.24743767 -0.118548475 -0.63708544 -0.14148495 -0.86108375 -0.89620835 -1.3035635 0.022283815 0.7071141 0.27253053 0.4402962 0.5952915 -0.47942913 -0.2773159 -0.4749897 0.6192924 0.36020803 -0.020671437 -0.31031185 0.37221166 -1.4747461 0.57225406 -1.2374777 -0.5215907 0.46940595 0.2402229 -0.2894032 -1.5320518 0.032368753 0.016241472 -1.571859 -0.42838868 0.7602784 0.40456846 -1.1987445 0.23468247 -0.384852 -1.2577564 -0.3012588 -0.20409642 -0.8618195 -0.21918142 -0.7307191 -0.28068122 -0.8007705 -0.1731235 -0.62420285 -0.5919294 -0.57900476 0.31949222 0.42539504 -0.22394373 0.48712823 0.7077104 0.82449573 -0.62812394 -0.6168722 0.37497693 -0.35816067 -0.686786 0.3013612 0.66966593 0.614736 -0.087888606 -0.927264 0.5876553 -0.6926225 -0.47524327 0.24594983 -0.6657662 1.0158969 1.2233735 -0.7225329 -0.36269405 -0.3089602 0.05861808 0.2822896 0.8771076 0.44487107 -0.41220212 -1.705173 -0.0013877803 0.0907902 0.06137794 0.17322375 0.16101773 -0.05827149 -0.036653932 0.42915398 -0.08282617 -0.1439575 0.07381594 0.014395876 -0.77841616
165 0.049500573 0.008014124 -0.21409148 0.1981517 -0.00022396783 0.24740273 0.25423667 0.11047577 0.1979013 -0.172953 -0.008708356 0.007320907 0.121561125 0.38138354 0.4642153 -0.18882428 -0.21618122 -0.19956803 -0.2647699 0.26025996 -0.18507442 0.19427659 0.15886095 -0.035697713 0.17302102 -0.10717489 -0.05442282 -0.20053315 0.24867761 0.01580673 -0.02064119 -0.22997609 0.10523419 0.09281641 -0.18075311 -0.10881784 0.16760474 -0.07137204 -0.05218084 -0.089247875 0.1813151 0.1792324 0.13476951 0.16392641 -0.012231395 -0.17437205 -0.31177908 0.05433433 0.03418568 -0.04219344 0.41152832 -0.11524313 0.021320947 0.29328987 -0.02411429 -0.09694547 0.06403231 -0.040123098 0.024108406 0.09564795 0.029124271 0.05712152 0.25383887 0.002071427 0.09279627 -0.013584523 0.006605552 -0.09778879 0.16659047 -0.20768481 0.00783257 -0.16284665 -0.3684824 0.16535214 -0.040011548 0.1013138 -0.14978892 -0.06873762 -0.28790036 0.13562997 0.23239264 0.0035573046 0.09772631 0.0049508507 0.031509776 -0.16894524 -0.10078081 0.09230237 0.41114712 -0.09986392 0.41036 0.07587203 0.31315634 0.064995095 -0.033115998 0.20620626 0.18020578 -0.0729783 0.11850689 0.16176781 -0.13317876 -0.19223468 -0.1713286 -4.7468842e-05 -0.04366481 0.14108552 -0.2991377 0.11672596 -0.03430293 -0.020217685 0.19829766 -0.24706389 0.04439004 -0.03565921 0.07382703 0.03822577 0.17276289 -0.04686926 0.007989711 -0.083021834 -0.16398175 -0.2730526 0.07030301 0.18208715 0.33330846 -0.15101743 -0.19148651 -0.15189731
81 -0.062354963 0.027752621 -0.12496107 -0.11055745 0.2515712 -0.021579675 0.1912171 -0.19905113 -0.03418454 0.00876206 -0.2720539 -0.07398136 -0.09263519 -0.03479575 0.060856048 0.07507526 -0.08417288 -0.11286851 -0.14695586 0.09364788 -0.084138066 -0.0402506 -0.13394926 -0.20280506 0.14051221 0.11466145 0.07942752 -0.19510154 -0.31759244 -0.42956486 -0.22964022 -0.35343942 -0.11075835 0.14506367 0.03580053 0.13872492 1.34402035e-05 0.03377707 -0.16505359 -0.33620816 -0.29460838 0.06252721 -0.026512442 -0.08669026 0.15781623 -0.21614005 -0.17057596 0.1655176 0.009497332 0.20213673 -0.15378459 0.15689537 0.24927416 -0.14018421 -0.094126604 0.0563974 0.13299988 0.24289963 -0.010617894 0.09617792 -0.14546826 -0.12310259 -0.0028907747 -0.0038372264 -0.025162635 0.19452381 0.2203529 0.03627709 -0.26583382 -0.39627326 0.09301624 -0.07020914 -0.037765443 0.024506403 0.19556487 0.070016466 -0.033256482 -0.29628816 -0.099573165 -0.022045577 0.07137384 0.07350497 0.018581165 0.03214055 -0.11743012 -0.04818885 0.071323425 0.09431999 0.22473854 0.10817858 0.09261047 -0.3514254 -0.0030006638 -0.042215552 0.11991344 0.22003734 -0.27952358 -0.16831405 -0.0057591726 0.30692694 -0.048284546 0.023591548 0.18483861 -0.07204505 0.0944935 0.3100296 -0.27549195 0.04350201 0.00715108 0.14972128 0.31063414 -0.35086995 0.007892889 -0.22229859 0.07553181 0.08992203 -0.06416568 -0.24906217 -0.18656875 0.009112555 0.17887643 -0.012457965 -0.020253664 -0.0061366656 0.31024235 0.043973867 -0.08217267 0.033578373
212 -0.07127361 -0.1977084 -0.0029948961 0.10433716 0.40988794 0.046280943 -0.085605755 0.26901704 0.21900177 0.04174069 -0.1890865 0.06438222 0.16558321 0.03564012 -0.07538826 -0.2362323 0.039236277 -0.028099699 -0.063872494 0.39072147 -0.010004982 0.17656846 0.1870874 -0.00791454 0.066345565 -0.0986051 0.07131484 0.14564322 -0.19184504 -0.12232972 -0.12610868 -0.5586651 0.0024367322 0.23884578 0.28096735 0.29903972 -0.058212142 -0.08868533 -0.44596475 0.050506197 -0.13708556 0.020882055 0.0011303605 0.10833538 -0.07257701 0.07230108 -0.17509176 -0.062346976 -0.06568217 -0.07322295 0.23161103 -0.106785566 0.16926469 -0.2826419 -0.028829532 -0.02249819 0.00519252 0.011509354 -0.101589695 -0.0698279 -0.31587562 -0.11834343 0.1504265 -0.044802163 -0.08402126 0.008595392 0.09569219 -0.14465095 0.08841024 -0.16774508 -0.045294758 0.055357035 -0.15932079 -0.057480786 0.22042021 -0.17679942 -0.024425048 -0.27487344 -0.02981845 0.024129167 -0.0016095724 -0.024060301 0.20479262 0.04538007 -0.00942077 -0.079878405 0.07549557 0.003084331 0.12545642 -0.028143352 0.043380953 0.15896371 0.2659261 0.34335858 -0.021128708 0.08430248 -0.1496741 0.16478252 0.040506747 0.18810233 -0.046509866 -0.10796571 0.22038406 0.16750853 -0.12829965 0.19711682 -0.23812592 -0.1985597 0.20215195 0.18045342 0.19704159 0.086774945 -0.046195175 -0.11439837 0.076034494 0.07256643 0.091566235 -0.05193068 0.23063442 -0.1543361 -0.20479374 -0.21756549 -0.2753389 0.17622465 0.17189817 -0.015477478 -0.1646886 0.17936505
282 -0.13053164 0.03151838 0.12377218 -0.02807944 0.08370488 -0.06758282 0.07730724 -0.16771951 -0.11696226 -0.062393032 -0.019286783 -0.059895523 -0.107701264 0.0239169 0.19276774 -0.13147384 -0.13152887 -0.03848379 0.0063157324 0.4592657 0.0017417282 -0.113443 -0.11946303 -0.19705404 0.04383758 -0.16884327 0.11300454 0.16443744 -0.14253086 -0.019845828 -0.13074379 -0.5307941 0.17917879 0.099137425 0.3396871 0.17422721 -0.001454045 -0.2724805 -0.35861206 -0.18054128 -0.21479873 0.0443818 0.14209327 0.09264835 -0.1456773 0.07785694 0.12691957 -0.10035817 -0.19758429 0.23423676 0.14469495 -0.053899944 0.30313474 0.22680601 -0.15815872 -0.07349695 0.033470627 0.074944116 0.1942407 0.09509202 -0.14276396 -0.2710958 0.19195062 -0.027191795 -0.22450836 -0.3556705 0.27619633 -0.26396734 0.007375642 -0.26827648 -0.23103373 -0.17645256 -0.10129364 0.16795234 0.10145918 -0.05296178 0.18619466 0.07369468 0.07000803 -0.091443926 0.13466544 0.049121138 0.15867719 -0.01779438 -0.05231841 -0.23528314 -0.07961141 0.24152043 0.14750898 -0.25694034 0.056264345 0.074227646 -0.057303917 0.021498324 0.15907766 -0.07957416 0.2971772 -0.11528679 0.20380208 -0.16016793 -0.00972914 0.017998382 -0.052110393 0.10589296 0.20489141 0.12768415 -0.3147822 0.27466753 0.117633194 0.011084625 -0.10180886 0.15884 -0.013221225 -0.18596861 -0.06319175 -0.04650787 0.074787416 -0.034640927 0.24599685 0.12911505 -0.12359231 -0.24794075 0.0516704 -0.18291503 0.19721818 -0.3221332 0.048578702 0.03891851
63 -0.051141333 -0.13000864 -0.32688972 -0.12613739 0.14093924 0.06861892 -0.042271826 -0.12945224 -0.19798473 0.105067454 -0.35292047 -0.06532724 0.2572283 -0.026801663 0.26832125 -0.12944119 -0.049429428 -0.15074717 -0.15014744 0.38673016 -0.07226992 -0.12573817 -0.016377019 0.10802649 -0.18558751 -0.11511496 -0.16289973 -0.024684262 -0.0017073533 -0.29893932 0.11498821 -0.09603187 0.09308599 0.19548059 -0.24594004 0.06295335 -0.0032820837 -0.17494583 -0.30476344 0.02553898 -0.32613888 -0.0012805231 -0.080892526 0.063733764 0.4220864 -0.104525514 0.006359348 0.0878112 0.01728767 -0.11212568 -0.26953468 -0.061165094 0.19885272 0.09114464 -0.23282687 0.26908663 -0.106268644 0.033053342 0.05072599 -0.037865527 0.035180837 -0.017510789 0.13820246 0.017469833 -0.25663772 0.005064329 -0.18248165 -0.11907232 0.1426588 -0.18559647 0.08065174 -0.17208847 -0.020014932 0.059500974 0.22320102 0.09320285 0.01746973 -0.4091048 0.013846566 -0.14634635 -0.17780432 0.044384036 0.17842843 -0.09213109 -0.014772149 -0.09886025 0.20702405 0.24282898 0.23446581 -0.16431487 -0.011306932 -0.025368595 0.09242542 0.33762383 -0.15314536 0.0779286 0.079823524 0.079238 -0.013922588 -0.09387335 0.24665038 -0.18751688 -0.128846 -0.09188668 0.43032584 0.38834906 -0.0889978 0.06581985 -0.10289853 0.24703404 0.110047676 -0.062981464 0.06900434 -0.25465727 0.037439343 -0.11879467 0.14235538 0.00688592 0.098778166 -0.03908141 -0.14539625 0.11744974 -0.21639574 0.00027233028 -0.20359236 -0.33694577 0.021981878 -0.035838734
141 -0.1253024 0.006006715 -0.2204742 0.36323768 0.19521815 0.033531457 0.07314964 -0.11242025 0.055524617 -0.102551915 -0.042813245 -0.10162906 0.03302466 -0.11468382 -0.10451771 0.1444941 -0.0574117 0.18235488 0.19549526 0.43378037 -0.25527635 -0.09726447 -0.20943725 -0.019672336 -0.06273658 -0.15201774 -0.06482906 0.027341971 0.15805188 0.118094526 -0.27173585 -0.12347278 -0.21711013 0.24720824 -0.17683953 0.37964177 -0.09331001 0.154013 -0.010805193 0.019954862 0.15580752 0.41378754 -0.24543552 -0.085977666 -0.0031422493 -0.111711666 -0.03216457 0.29364675 -0.1440161 -0.13559927 0.116373286 -0.28830028 -0.024070483 -0.14730029 -0.06545677 -0.07028432 0.40807587 -0.02719263 -0.212297 -0.04689143 0.12417621 0.1785663 0.13171683 -0.020914847 -0.21343283 0.24112116 0.2238081 0.018686133 -0.11208754 0.059005834 -0.06930383 -0.00013401652 -0.5135613 0.040027358 0.33969173 -0.1415582 0.16995265 -0.35630965 -0.28140408 -0.20050175 0.2864028 -0.08337817 -0.086401686 0.08217617 -0.01280117 -0.20939252 0.23885551 0.24104826 0.024115177 -0.05525704 -0.34075508 0.012697194 -0.09728467 -0.10968094 -0.07103567 0.19699897 0.108873814 -0.27867392 0.059860423 0.08976279 -0.102962404 0.07813111 0.2591308 0.23026755 0.45028925 0.09292615 -0.30192554 0.094882704 -0.22073536 -0.24669765 -0.37282333 0.27054578 0.11490199 0.03498149 0.0044395546 -0.32195503 0.5131009 -0.3172522 -0.35321093 -0.15632446 0.1710481 0.17931437 -0.14317092 -0.07303044 0.42352143 0.13120952 -0.070448324 -0.05533444
169 -0.00965563 0.06300689 -0.23563236 0.12870365 -0.118281275 0.25982586 0.062838964 0.17785989 0.04076088 -0.21428782 -0.14077516 -0.17824675 0.4242236 0.16736719 0.32798374 -0.21567193 -0.12388804 0.012961033 -0.24904408 0.21313049 0.05260548 0.0050608567 -0.0651847 -0.05102408 0.0313406 -0.14521044 0.03818573 -0.017094024 0.16874571 -0.09889134 0.033639524 -0.36702785 0.21503684 0.30984256 -0.018848818 0.14658883 0.3309541 -0.07326664 -0.05772597 -0.21976885 0.07897682 0.0322537 0.15007138 -0.11409725 0.031725664 -0.008803237 -0.104431376 0.046738498 -0.005286305 0.08466619 0.1772274 0.060217164 0.07288571 0.0019896543 -0.16665213 -0.0794028 -0.10908094 0.04796917 0.22561342 -0.20262623 -0.23800142 -0.09636348 0.21871546 -0.23396291 0.1696214 0.060520854 0.05381397 0.085555665 -0.11555659 -0.065801084 0.29892188 -0.123060256 -0.17273241 -0.08641735 0.1461887 0.26128128 0.012060486 -0.17765011 0.17579137 -0.14201462 -0.071965866 0.16600187 -0.0768667 0.07160773 0.09443053 -0.24740258 0.19845779 0.20710616 0.360642 0.07742919 0.14283432 -0.08193485 0.023012763 -0.008929132 0.047989447 0.23671162 0.09120845 0.13209654 -0.025054103 -0.07323494 -0.10908293 -0.12568109 -0.19320682 -0.046836328 0.14068696 0.36373305 -0.4277891 0.16855027 -0.04300158 -0.14486453 0.010453604 -0.04846088 0.3118075 -0.17981316 -0.06436068 -0.07999366 -0.0684849 -0.0013719044 -0.106277384 -0.064575985 0.22107683 -0.24671954 -0.00792501 0.26440752 0.03980371 -0.15276617 -0.06058492 -0.03269122
115 0.31674626 -0.1122327 -0.036766153 0.5350525 -0.14517552 0.0107485065 0.19887185 0.0986792 -0.046792276 -0.12799114 0.052512463 0.07922702 0.11177502 0.0766248 0.17069227 -0.04126231 -0.004531496 -0.047766626 -0.1832573 0.19139363 -0.30653155 0.17361519 0.006093048 0.17035465 0.14983769 -0.093275614 -0.14317355 -0.1354221 -0.07487132 0.08600071 -0.02274443 -0.21833052 0.15963049 0.2541335 -0.08348205 0.08871503 0.31141955 -0.05997169 -0.036521208 -0.107405454 0.044517525 0.011379644 0.04782626 -0.19702637 0.19655776 0.048440207 -0.26897445 0.14599338 0.14527759 0.27902287 0.31101185 -0.07851512 -0.0140388375 -0.0021550173 -0.17734534 0.08800216 -0.09677013 -0.006751262 0.08179121 0.09335222 0.01690444 -0.1263255 0.27661195 -0.1935771 -0.22278735 -0.09234104 0.12543577 -0.15053304 0.09790363 -0.30863908 -0.10550987 -0.13788307 -0.096615136 -0.0063241185 0.12044465 0.07273207 -0.15712407 -0.07126205 -0.0784352 0.008127898 0.12645614 0.08035846 -0.12331063 0.22488044 0.058774933 -0.049656436 -0.015830845 0.030180944 0.27392066 -0.095329754 0.3524046 0.00916969 0.053881224 0.2197294 0.16528943 0.13414554 0.22915553 0.06070811 0.0034600506 0.10087837 -0.28107482 -0.059473854 -0.23126554 -0.06712537 -0.16229527 0.23871647 -0.4045446 0.28967023 0.07072659 0.057576824 0.14854717 -0.14064822 -0.024343789 0.033948153 -0.0053575537 -0.16877243 0.033920035 -0.22004485 0.10725 -0.1759606 -0.11531831 -0.09758711 0.021312634 0.3095197 0.2962499 -0.06553185 -0.13992041 -0.064836144
58 -0.08795084 -0.39631772 -0.083215326 0.23610176 0.113190174 -0.08306931 -0.11924591 -0.38640848 -0.22528628 0.080734156 -0.34850842 -0.13820134 0.031209903 -0.060515586 0.23800445 0.109579064 0.001431615 0.072953425 -0.11533107 0.28355303 -0.37676537 -0.026466163 0.08999807 -0.06419459 -0.23099372 0.039432794 -0.021322064 -0.02736843 -0.23713538 -0.09932725 0.10740241 0.1280826 -0.047154024 0.27431542 0.0048045535 0.24514632 -0.10833192 -0.19464234 -0.30473036 0.19612089 -0.06988165 -0.18640977 0.0134225115 0.12627497 0.109536685 -0.06485032 -0.18065058 -0.026965192 -0.13609582 -0.14171366 -0.07666469 0.091451705 0.25084773 0.26143718 -0.25880963 0.300322 -0.37201288 -0.054350026 0.0578695 -0.12387794 -0.07671219 0.15026559 0.106411576 0.018024059 -0.2016067 0.019768689 -0.052572556 -0.04591593 0.072521985 -0.09183277 0.04385915 -0.3330848 0.02455973 -0.08836672 0.12348152 0.022038411 -0.14480141 -0.040504552 0.025184145 -0.22271359 0.05924925 0.039245844 0.088413276 0.14650093 0.23174919 -0.31181696 0.16577648 0.19245188 0.15694131 -0.33049273 0.093319 -0.1210066 0.03577713 0.51380944 0.064034574 -0.17080346 -0.049743686 -0.099195026 0.090537295 0.23594514 0.021278009 -0.12481353 -0.0013469461 -0.07178713 0.30806592 0.07374657 -0.20164634 0.15297234 0.061673194 0.16880257 0.19061099 0.058916114 -0.022772701 -0.044641245 -0.0031506538 -0.1436967 0.031138415 -0.037213657 -0.053246163 -0.032712422 -0.25063434 0.21558324 -0.0802259 -0.09517769 0.0056312685 -0.20992842 -0.010447827 0.22308749
6 -0.038567163 -0.06431302 0.109821945 0.29415017 0.09139694 0.16805714 0.0640385 -0.54297835 -0.2603512 0.11821816 -0.30699447 -0.24598196 0.08831083 -0.043440618 -0.14228572 0.061023433 0.0807567 -0.16469982 0.34982052 0.22028595 -0.27949148 -0.23818773 0.19856413 0.08821611 0.0670446 -0.09589571 -0.09100749 0.3324752 0.11442065 -0.12354333 -0.079229884 -0.16804564 -0.10760634 0.09936194 -0.2240823 0.012180805 -0.09729044 -0.07366661 -0.31818712 -0.025461664 0.030159784 0.22298191 -0.30692855 0.13408612 0.425674 -0.0056261704 0.14869395 0.1324041 0.0763162 -0.17873456 -0.36410218 0.26317167 0.090707846 0.102722034 -0.33135122 0.14433967 0.056282632 0.05187431 0.29665017 -0.12920888 0.03194714 -0.2680975 0.26731223 -0.0828017 -0.24963686 0.10223489 0.5641709 0.030858716 0.0037011756 0.15475196 0.30642486 -0.1194159 -0.040500972 -0.21575625 0.056098644 -0.2645902 0.121553354 0.10295148 0.045056432 -0.1253477 0.105485655 -0.04700295 0.16322419 -0.008713476 0.0814858 0.10552542 -0.41028273 0.034798227 0.18337849 0.38200006 0.27604666 0.1091788 0.22006233 -0.08031216 -0.20493463 0.38119316 -0.031357292 -0.13130653 0.012692721 0.08833895 -0.03767322 -0.5289573 -0.17077541 -0.09841903 -0.024588503 0.14901507 -0.03887681 0.1099948 -0.22615333 0.35243905 0.1412056 -0.17749979 0.37583154 0.20184009 -0.2176095 0.061855353 0.37266904 -0.06778441 -0.33741534 0.036569342 -0.38631645 0.28450376 -0.17368801 0.18332745 0.13437653 -0.15155087 0.1640723 -0.013076376
142 -0.115437545 0.15025142 -0.072394714 0.29176188 0.13067777 0.003408927 0.12603319 0.2090752 -0.19527882 -0.11299689 -0.3487922 -0.070206635 -0.124456964 0.027854493 -0.012065021 -0.082226686 -0.12769443 -0.1060616 -0.088132665 0.38622457 -0.10507105 0.1550507 -0.11497682 0.07361849 0.16618843 -0.087130144 -0.04450989 0.18768625 -0.16022675 -0.45105442 -0.021872645 -0.20474525 -0.23628677 -0.11470057 0.4986472 -0.068447456 0.13466288 -0.2444894 -0.061809655 -0.007815285 -0.0691551 0.11715825 0.067811035 0.21374483 0.042418346 0.05029967 -0.08316507 -0.16774537 0.037064012 0.19561982 0.25328258 -0.08985724 0.40226784 0.06948607 -0.10994277 0.057372075 0.024809808 0.086942576 -0.37336534 -0.10977446 -0.21837786 -0.3336313 -0.046752226 -0.076386124 0.088098265 -0.040354617 0.095244475 -0.19525135 -0.06349916 -0.06631003 -0.0788058 -0.42037436 0.1241268 -0.06805847 0.1646613 -0.083790325 -0.020144422 0.005441698 -0.071892336 -0.36176357 0.093365595 -0.13204917 0.29525343 0.06769457 -0.067740686 -0.2395213 -0.007874669 0.3094535 0.39001554 0.1475775 0.046448734 0.06412328 0.12997545 0.05373974 -0.15567234 -0.07198447 -0.10084672 -0.23659955 -0.08003281 -0.22749381 0.04891192 0.17552032 -0.049182396 0.3091503 0.09485828 0.15866184 0.052320205 0.1210355 -0.020137813 -0.00085920224 -0.08059043 0.12775527 -0.23076741 -0.007917192 0.06971991 0.02930113 0.14737722 -0.20245676 0.2375364 0.27492425 -0.08693057 -0.16741343 -0.022408707 -0.050804652 0.30971792 -0.2621375 0.11079407 0.19727191
340 -0.072372176 -0.13121651 0.17391586 0.22314207 -0.036755234 0.0032809754 0.0017299174 -0.29907253 0.08588801 -0.30073518 -0.056883525 -0.092686586 -0.06819089 -0.09792789 0.5646634 0.14245184 0.08067463 -0.015825583 0.14213519 0.25710526 -0.02256403 -0.022194477 -0.09035825 -0.08126948 0.23951298 0.1911797 0.11786042 0.03980238 -0.015374664 -0.051542617 0.05604148 -0.51871806 -0.45851806 0.35550404 0.052852657 -0.2513194 0.033603504 -0.11204683 -0.10935735 -0.3145537 -0.051285073 0.0058001904 0.00049998343 0.18074338 -0.007271277 -0.14123295 -0.34029397 -0.04005178 -0.0044571767 0.06388334 0.3545457 -0.2046903 0.061382048 -0.22986247 -0.07917339 -0.2387247 0.41359636 -0.37829366 -0.07738887 0.14304227 -0.04158929 -0.1262992 0.18218654 0.0108351605 0.04112812 -0.036107942 0.16866317 -0.17795251 -0.084782556 -0.17909433 -0.12870122 -0.038161583 -0.14052208 0.18865839 0.14916983 0.20196737 0.12365547 0.06607876 -0.13323653 0.013773542 0.0059925923 0.12635985 0.17566955 0.28155905 -0.16800334 -0.13003483 0.0601646 0.07082528 0.3741226 0.018078165 0.1128177 0.105055675 0.21207844 0.023203297 -0.18736102 0.0060617006 -0.045829933 0.1883002 -0.17928004 -0.16218711 -0.40724835 0.022720778 -0.23895441 0.01912157 0.1432847 0.1628494 -0.24824177 0.19240502 -0.14787917 0.15382057 -0.122090705 0.15674098 0.23182875 0.0037585334 0.052946724 0.46383747 0.043767955 0.25864494 -0.06362028 -0.15920013 0.19513004 0.2329342 -0.04775761 -0.05730301 -0.26529294 -0.19749682 -0.11373896 0.1935809
424 -0.09934093 -0.09063651 -0.008839344 0.12843344 0.1071267 -0.19852588 -0.19530322 0.060158577 -0.25680906 -0.0858683 0.044926014 -0.060086317 0.06748653 -0.122668386 0.2523684 0.012498157 -0.13956892 0.0126660075 0.13410652 0.20160636 -0.018251395 -0.19495001 -0.16419129 0.04602539 0.1982443 0.41605315 -0.25516057 0.23417252 0.07308341 -0.060520414 0.315922 -0.2171572 0.1763516 0.07173499 0.1442852 0.024292288 0.155963 -0.1186911 -0.1872419 0.026725639 0.0269467 0.3800426 0.0848953 0.30698577 -0.019061578 0.020029742 0.04163736 -0.1464436 0.19879577 0.42187357 0.083751515 -0.09674656 0.17627667 0.09737783 -0.24806252 0.008436921 -0.22450589 0.11466963 -0.06111464 -0.23853266 0.031558614 -0.14961241 -0.24931823 0.19431548 -0.010881403 -0.3100784 0.21276836 -0.21810393 0.030794172 -0.15070732 0.2931112 -0.19060054 -0.11054054 0.22378556 0.18373448 0.04526501 0.2177704 -0.15444693 0.17250247 0.024449816 -0.013239427 -0.10973239 0.25960824 0.400511 0.0076639415 -0.067483924 0.0013118669 0.19880971 0.17439601 -0.048967686 0.029429983 0.0056070276 0.00784973 0.32600304 0.25224146 0.11370751 -0.2504528 -0.124956876 0.2381543 0.024812002 -0.027370512 -0.12776281 -0.037689097 0.11204772 0.15453151 0.11581532 -0.44686964 0.0820332 -0.24459532 0.2298407 0.17112352 0.13329509 -0.061976258 -0.1990128 -0.0011411195 0.2805339 0.13197413 0.025363162 0.10062768 0.20640066 -0.043848377 -0.43403643 -0.07796971 0.048540764 0.18934622 0.053170376 0.20122656 -0.113949
170 0.07131789 -0.11142742 -0.24957417 0.3889853 -0.15128621 0.12981641 -0.14395365 0.09529135 0.16339459 -0.27451897 0.16642821 -0.059804004 0.27424106 0.24676286 0.087098114 -0.07842446 -0.114407934 0.1364466 -0.13896933 0.04082969 -0.054291938 -0.027155273 0.02814629 -0.10644013 -0.25688425 0.18329245 -0.0085844025 -0.42583615 -0.16194178 0.018961474 -0.09712203 -0.2566013 0.24430333 0.14484653 0.019592267 -0.067945756 0.18835142 -0.18848948 -0.10702732 -0.30084407 0.021603605 0.25104752 -0.05280075 -0.004383316 0.013857335 -0.10513954 -0.45309544 -0.069580905 -0.033950917 0.21556807 0.4892197 0.21587302 0.100778975 0.07356899 -0.13588007 -0.11298439 -0.03646375 -0.047057327 -0.10306982 0.058902778 -0.03531323 -0.20641364 0.21082352 0.072704196 -0.072762616 -0.078686066 -0.04775267 -0.12079344 0.017299209 -0.36892137 0.40346038 -0.16142954 -0.14357379 -0.028525902 0.04297021 -0.0028627766 0.069330364 -0.17714132 -0.24873686 0.022230484 -0.021191526 0.1194541 -0.11194527 0.12730674 0.38246977 -0.12421232 -0.019203793 -0.1954208 0.58813775 0.17269568 0.19845973 -0.1868543 -0.089991994 0.05273307 -0.10030516 0.28513953 -0.046419434 -0.07040868 -0.20535311 -0.14009476 0.02701473 0.032398187 -0.06749767 -0.036845803 0.3203997 0.058058813 -0.5303773 0.38752803 -0.23190653 -0.10586927 0.09605758 -0.094555736 -0.065374665 -0.055737697 -0.0001304121 -0.050108 0.044550788 -0.10248307 0.055197287 -0.14294219 -0.19373678 -0.21210803 -0.01588375 -0.026742252 -0.06838859 0.13283837 -0.21790849 -0.30819228
438 0.07376782 0.010724504 -0.5374371 0.17762163 0.05542702 0.56440735 0.09114689 -0.040718246 -0.09481437 -0.09727412 -0.09447334 0.016094295 0.41159487 0.24133956 0.031889126 0.07709882 0.13905412 -0.16511416 -0.029593509 -0.07778152 0.03536202 0.068280526 -0.14042139 -0.012604224 0.066676214 -0.011577624 -0.09661881 0.18806441 0.25127298 -0.0124266045 0.08702959 -0.24739175 0.0389421 0.11426621 0.1890822 0.037375282 0.66682374 -0.11342021 -0.071926996 -0.13524042 0.020578543 0.22474888 -0.06251428 0.023191765 0.13167952 -0.26219994 -0.31193703 0.06702732 -0.22935906 0.058013704 0.30678332 -0.13269548 0.086549796 0.19257268 -0.1691015 -0.39338022 -0.089595616 -0.0936419 0.20760629 0.09132302 -0.046734944 0.057832513 0.21509242 -0.12738205 -0.04719562 0.07009839 0.24128829 -0.1988674 -0.030003663 0.087879665 0.09949306 -0.12629542 -0.34753442 -0.17289934 0.026632043 0.13269322 0.045765087 -0.018595535 -0.026297426 -0.18070452 0.17581889 0.32974443 0.100296706 0.08811262 0.15005724 -0.2026154 -0.04632423 -0.087541506 0.5006024 -0.30421928 0.36029232 0.024292756 0.11224253 -0.1889476 0.01886323 0.22288781 -0.011526432 -0.15543398 -0.25844273 0.171007 -0.20166123 -0.25465935 -0.20236695 0.076547265 -0.14844337 0.2894591 0.029019933 0.26138085 -0.18699624 -0.13596115 0.028551767 0.056195106 0.2096062 0.03651972 0.22655804 -0.019924661 -0.03398453 -0.10423479 0.13131827 -0.3671971 -0.3980023 -0.35760754 0.025779579 0.09760922 0.16030376 0.0102253845 0.0022661088 -0.10648299
646 -0.71504194 -1.2873353 0.3642276 1.5629542 -0.4882141 0.08614944 -0.22517632 -0.8988435 0.55377346 -1.205543 -1.8282105 -0.3800817 0.63712394 0.71027863 0.547712 0.47762802 0.53644204 -0.24322373 0.41194457 1.5285648 -0.6013022 -0.52598935 0.17607385 0.7798073 0.19538541 -0.43826997 0.07802246 0.26327187 0.11035854 0.22312087 1.078204 -0.091390535 -0.12663235 0.56976885 0.16461742 1.012282 0.104606375 0.08928579 -0.37012416 0.09068767 -0.6980088 -1.2795818 -0.06092759 1.1050673 0.1427106 0.8286436 1.1855751 -0.5108928 0.09081751 0.6372058 0.87387455 -0.30283463 0.9139417 -0.40733796 -0.5968626 0.76723546 -0.9606515 -0.1998057 0.63542 0.5343403 0.27738345 0.16529377 0.4769583 1.14132 -0.69857705 1.080363 0.1414809 -0.16193262 -0.4706933 0.04479024 0.3554059 -0.6437207 -0.24122466 0.2833908 0.8859603 0.7288913 -0.30227712 -0.45890394 0.19653308 0.31744635 0.4233604 0.47762677 0.39555958 0.03915474 0.8436982 -0.4015467 -0.16735002 0.0317841 0.53740585 -0.056873444 1.0116528 -0.5965751 0.9175591 -0.086500615 -0.46000126 0.732595 -1.2127347 -0.20489572 -0.30119744 0.08554922 1.4296023 0.16273771 -0.08245452 -0.5523563 -0.41163647 1.127908 0.075880684 0.23300222 -0.8529024 1.0564494 -0.005387384 -0.21621823 -0.34499216 -0.9156154 -0.16357517 -0.20296623 -0.37926483 -1.3189292 -0.4002398 0.50212765 0.1733433 0.46867537 0.307182 -0.031266462 1.6965832 -0.6844632 -0.017766912 0.5677383
630 1.5416217 -0.8593442 -0.5382468 -0.20093489 0.05581544 0.05785792 -0.9648438 0.44466063 -1.0068954 0.5583506 -1.724399 -1.6725909 -0.29999405 0.14777043 0.36315897 -0.17597052 -0.25883773 0.74314696 0.6032074 0.87267196 -0.52227986 0.64673966 -0.2606094 -1.4323056 -1.1784326 -0.18627064 0.6684432 0.932837 -0.031657614 -0.5413958 1.2969226 -0.7045906 -0.46017897 0.7234749 -0.37364072 0.5116772 0.23136188 0.51858425 0.12237614 -0.37370607 0.31729695 -0.465079 0.49623632 0.0632803 1.1921186 0.2772204 -0.30861887 0.05643954 -0.7342556 0.37914845 0.8777281 -0.13997655 1.8407311 -0.2503384 -1.5661622 0.94252026 0.94349813 -0.44512707 1.2812045 -1.1174908 -0.60004836 -0.2802986 0.5401803 1.759499 0.49429327 -0.34177133 0.5939045 0.39173472 -0.10386841 -1.3715267 -0.3280965 -1.396932 0.10229684 0.29896024 -0.023026105 0.13319756 0.014252275 -0.6329147 0.39097777 0.3590372 -0.39425147 0.6153679 -0.19215132 0.5609247 0.3489977 0.27514485 1.2361476 -0.15144396 1.2334794 -1.0309103 0.42247465 -1.3771465 -0.011515625 0.95708907 -0.7856777 1.1162068 -0.7400812 -0.27687383 -0.14264308 -0.10257823 0.839079 0.3120419 -0.71716124 -0.31463552 -0.4549844 0.523034 -0.64603746 0.70474625 -0.652578 0.4826315 1.1469319 0.5109032 -0.068555355 -0.25935274 0.05728288 -0.4767043 -0.80300087 -0.81347424 0.30140364 -0.21819691 -0.15623243 -0.17922318 -0.17659104 0.2503408 1.0426086 -0.26810375 -0.2838902 0.23221597
757 -0.05783024 0.15351123 -0.6356022 0.16377133 0.098307826 0.09254684 0.9305592 -0.18755603 -0.69122577 0.3756302 0.23682879 -1.1635585 0.049016852 -0.7459688 1.3013293 -0.39302364 1.1677788 -0.8657573 0.23921074 1.3514363 0.09391436 0.3685132 -0.5925856 -0.2248256 0.42784387 1.0307 -1.1004338 0.55847025 -0.19062646 -0.828989 -0.11507956 -0.46544328 -1.3094758 -0.99839723 0.8113202 0.5885802 0.18811856 0.48290172 0.15301347 -0.3714645 -0.04533619 0.3492119 0.88196206 0.79848963 0.41711774 -0.6038963 -1.2873724 0.6237881 0.39139193 0.72527283 1.2733233 -0.703679 0.58516526 -0.34863076 0.075698406 -0.18466567 -0.076442815 0.6209511 0.4832879 -0.11340028 -0.90551126 -0.6421225 1.9916968 0.17953858 0.5914815 0.44186297 -0.596583 -0.28930542 0.74636906 0.07653455 -0.10891162 -0.44735762 -0.8476241 1.2336203 0.037787605 -0.5009769 0.21648195 -0.17394479 -0.4170299 -0.28368345 -0.36645395 0.8858831 0.4327425 1.0955961 0.56110406 -0.9406176 0.87297523 -0.17931125 1.4582522 0.116377205 1.1702938 -0.3302686 0.47137195 0.42041302 0.6254292 0.6981389 -0.1996334 0.8091709 -0.41882056 -0.43545845 0.21822101 -0.65379536 -0.47986245 0.9240884 0.35101673 0.8053488 -0.9823477 -0.8609246 -0.74142987 0.3434545 1.8943753 0.8173129 -0.19459935 -0.0016899811 -0.8380512 -1.1501095 1.4773881 -1.9551739 0.53265023 -0.3401104 -0.64445025 -0.29694524 0.22446091 -0.3233025 0.39216256 0.06269438 -0.65894467 -0.6940554
494 -0.029000016 -0.24184835 -0.27449346 0.21968214 -0.043036945 0.2528379 -0.001902723 -0.07191365 0.26084143 -0.18607375 -0.13251625 -0.15610005 0.079316854 0.10596409 0.1904782 0.20450146 -0.07088411 -0.19098364 0.33330223 0.64231354 0.42179897 -0.022096545 0.1547772 0.12056384 -0.27263027 -0.0011231996 -0.32900786 -0.037369967 -0.32764536 -0.15135768 -0.041987803 -0.41102454 -0.044766027 0.010607231 -0.23114143 0.11853349 0.033877477 -0.14623551 -0.20496622 -0.020155672 -0.009871657 0.3334704 -0.05921112 0.007343548 -0.24162003 0.40227202 0.05095126 0.16242549 0.092957355 0.23878257 0.19093011 -0.07778879 0.09022341 0.25821882 0.1020686 -0.32684168 0.26950794 0.41756794 0.14709033 -0.26159343 -0.22041325 0.26582202 -0.047819577 -0.24108024 0.11976473 -0.17247841 0.41885722 -0.14759897 -0.10316014 -0.17875168 0.07845218 -0.19699068 -0.26208988 0.12043415 -0.2866724 0.054555085 0.20292468 0.16426648 -0.021687258 -0.030682914 -0.0010285686 0.112388216 0.12339624 0.17227778 0.10430858 -0.18268907 0.07389702 0.10042764 0.025916131 -0.14134407 -0.06829325 0.19656052 0.23372471 -0.4146977 0.0064744893 -0.15553087 -0.16020347 0.08512744 -0.0888078 0.122247644 -0.12947848 -0.12927943 0.14330779 0.10934812 -0.046696898 0.14902924 -0.534668 0.19942811 0.19304864 -0.17380968 -0.011247176 0.028452007 -0.10850514 0.08194622 -0.34741554 -0.017928585 -0.05828355 -0.09605238 -0.041918587 -0.16154887 -0.317009 0.121145666 -0.025775949 -0.07295884 0.037037596 -0.046453156 0.009001742 0.025155146
329 -0.052102238 0.095892794 0.02198916 0.04738404 -0.14000036 0.14347874 0.13491295 -0.26716542 0.14221722 -0.003763596 -0.15400545 -0.22705412 -0.010681603 0.14530613 0.21712613 -0.21968158 0.03937513 -0.22050616 -0.11810793 0.11352426 0.29405224 0.17446917 0.14401239 -0.03883917 0.18502408 0.09597255 0.15374292 0.06174603 -0.09716072 -0.3735175 -0.070964515 -0.36376208 0.16794574 0.036843818 0.34720075 0.3180046 0.064561754 0.15784514 -0.22478299 -0.0391682 -0.3557812 0.36048907 0.36861357 0.20091411 0.30266428 0.009842509 0.073474295 0.08640874 -0.11600717 0.033120967 -0.0878761 -0.16615872 0.15523277 -0.25587064 0.018460264 0.0059383498 0.037025843 0.1892956 0.09057824 -0.17850024 -0.09658257 -0.083953254 -0.06081466 0.100143135 0.084665224 0.03567369 0.09518418 0.049941264 -0.2813472 -0.06503405 -0.039653182 -0.023649078 0.08015716 0.032776386 -0.017142935 0.28999105 0.08008273 -0.22429946 -0.20442343 0.10432925 -0.05290874 0.017967032 0.1472254 -0.051163126 -0.24616662 -0.18508294 0.14167312 0.17436372 0.26421684 -0.2518607 -0.14505278 -0.2884174 0.07153024 0.12717253 -0.1859692 0.16867329 -0.29069144 0.12832703 -0.20004629 -0.18807565 -0.114218846 -0.23123455 -0.2077941 -0.064874865 0.37081334 0.32661462 -0.27283612 0.32633406 -0.051522117 0.19948012 0.07958759 -0.30940875 -0.14582771 0.046993818 -0.25048855 0.0215932 -0.016945444 -0.17784579 0.0963702 0.05353066 0.20947284 0.034882464 -0.036179584 0.13554926 0.24489185 0.06539536 -0.26878253 -0.022704067
968 0.16586049 0.3778571 -0.22141087 -0.41205704 0.33693016 0.05344738 0.21918674 -0.14096238 -0.7054197 -0.23420447 -0.19914106 -0.22436425 -1.4705603 -0.51891387 -0.41930768 -0.28136328 -0.5868405 0.21433125 -0.08550015 -0.3269678 0.08720522 0.16855283 -0.7609196 -0.48711413 -0.5485853 -0.6317277 -0.51664203 0.54046196 0.02956194 -0.90929484 0.35746193 -1.375385 0.17019603 1.5181139 -0.89500743 0.7501436 -0.025974063 -0.04282428 -0.6623054 -0.38859618 -0.5748733 0.6658655 0.59525025 -0.3693683 0.08119352 -0.5103028 -1.0892065 -0.20966975 0.6106575 1.0136915 0.035717368 0.59110737 0.32250428 0.25661004 -0.2769481 -0.17039642 -0.05555783 -0.07739924 -0.66174585 -0.113020316 -0.70581716 0.11276405 -0.27989948 -0.043359555 -0.6016235 0.8392127 1.5994899 0.43567547 -0.78390574 0.19199693 0.18063703 0.42895454 -1.2928216 -0.8141571 1.1947947 -0.017072467 -0.68784904 -0.16617069 0.029247556 0.51104033 1.2358807 0.58336407 0.5502731 0.53985703 0.16833028 -1.1852858 -0.77354914 -0.6406465 -0.14692229 -0.07376324 0.74930316 -0.4613491 0.5100717 1.1517949 0.72218674 -0.8191454 -0.16913038 -0.56758547 -1.4344007 -0.45410603 -0.5263645 0.02390575 -0.26741287 -0.12525392 0.94815356 0.46254176 -1.19643 0.541515 -0.53839636 0.56008136 0.8083673 0.3241755 0.54750234 -0.75184894 -0.07499096 -0.86830837 0.8409103 -0.19565083 0.8172166 -0.75677234 -0.76457024 0.053862043 -0.47445604 0.021897167 1.5632154 -0.95719194 -0.08608862 -0.6747216
533 -0.038547367 0.13423708 0.07791223 0.14757459 0.07779368 0.2867616 0.04507211 -0.0016589676 0.042849608 -0.30594477 0.22080605 0.0964287 -0.0041254354 -0.3341455 -0.23586926 0.2867663 -0.48969817 0.37455827 0.06696331 0.17986543 -0.065314256 -0.0376798 0.0074335686 -0.012331359 -0.34301618 -0.19908758 -0.23357083 -0.10769403 0.039095722 -0.0027538387 0.09311151 -0.3093335 0.2541886 -0.07695476 0.16590336 0.050275583 -0.017094655 -0.067122914 -0.43633476 -0.065103605 -0.014828823 0.054449454 -0.25771758 0.09530487 0.043671735 -0.08484894 -0.31073302 -0.17741887 -0.13202515 0.049085766 -0.083797894 0.24340396 0.34607133 0.02619564 -0.19275774 0.10090029 -0.045706403 -0.028931262 -0.100754336 -0.08131375 0.19807756 0.10554638 -0.18865256 0.26545015 0.27523893 0.058831304 0.48611194 -0.09613772 -0.1542291 -0.07163604 -0.33879873 -0.011955393 -0.33161482 -0.015531111 0.26961434 -0.12308411 0.00041478366 -0.17257394 -0.16449101 -0.26967764 -0.23797986 -0.3043454 -0.018678784 0.44216448 -0.007329385 -0.5196679 0.029002614 -0.0064418125 0.17068443 -0.10581487 -0.13494824 -0.2610569 -0.0076833214 -0.00422262 0.10518766 0.08856467 -0.18261798 -0.1058092 -0.02040244 0.3056857 0.24121524 -0.25856936 -0.32884353 0.08594204 -0.01867899 0.14723212 -0.06291529 -0.0889297 0.040003903 0.039791953 -0.32388246 -0.18749477 0.32725483 0.19362599 -0.08268097 -0.0016042194 0.044912767 -0.23969631 -0.1865804 -0.1143359 0.13157131 -0.0539844 -0.17151396 0.3205 0.078345925 -0.23758444 0.03499247 -0.16175334
