-0.04658161848783493 0.011167285963892937 0.005328309256583452 -0.020597748458385468 -0.006883767433464527 -0.0031537653412669897 0.0021367452573031187 -0.009315948002040386 -0.007439648266881704 -0.0030496357940137386 0.009245829656720161 -0.0061199720948934555 -0.0038299972657114267 -0.0042861890979111195 0.006426140200346708 -0.009897664189338684
5.33542079210747e-05 0.05447293072938919 -0.02560090273618698 0.0010889627737924457 0.0037824600003659725 -0.004885172937065363 -0.004549060482531786 0.01100941002368927 0.001961993519216776 -0.0018525877967476845 -0.002714051865041256 0.00453704921528697 -0.0020882468670606613 0.009590142406523228 -0.002719841431826353 -0.0014674423728138208
0.022180907428264618 0.032699815928936005 0.02882314845919609 -0.03015746921300888 0.022227251902222633 -0.008092263713479042 -0.010341038927435875 -0.024420255795121193 -0.00456650136038661 -0.022067002952098846 -0.007162671070545912 -0.010489522479474545 0.0012697945348918438 -0.001818126067519188 -6.040456355549395e-05 -0.01314156036823988
0.016813479363918304 0.02362925373017788 0.02740122750401497 -0.02687528170645237 -0.015762602910399437 -0.007320045959204435 0.03556034713983536 -0.010602527298033237 0.008420564234256744 0.014409177005290985 0.011757995933294296 0.01724977232515812 0.02572571486234665 -0.012168089859187603 -0.002010724041610956 -0.00677480548620224
0.025972573086619377 0.02806548960506916 0.024635376408696175 -0.00740404985845089 -0.015413288958370686 0.015124434605240822 -0.026586245745420456 0.024271147325634956 -0.034863729029893875 0.013943375088274479 0.001678180298767984 0.006411741022020578 -0.0207626074552536 -0.0023940037935972214 0.026020854711532593 0.014874814078211784
0.0035514230839908123 0.04570993408560753 -0.030484898015856743 0.01661432348191738 -0.002710185945034027 -0.019883854314684868 -0.0073020560666918755 0.007281479425728321 0.006365786772221327 0.02072402834892273 -0.006025790702551603 -0.007106180302798748 0.006681249011307955 -0.0010063600493595004 -0.004928606562316418 0.0029324584174901247
0.02119412273168564 0.017720600590109825 0.007954505272209644 -0.008733785711228848 -0.04323311150074005 0.017090503126382828 -0.03172533959150314 -0.002759333699941635 0.020409192889928818 -0.024448838084936142 -0.013212237507104874 -0.011715445667505264 0.006617401260882616 0.016016652807593346 -0.012101324275135994 -0.011887346394360065
0.0011995184468105435 -0.008157833479344845 -0.025638679042458534 -0.045786622911691666 -0.011788218282163143 0.021722326055169106 0.012025133706629276 0.0012977506266906857 -0.013944326899945736 0.024303313344717026 -0.007741439621895552 -0.039169006049633026 0.018376033753156662 -0.000987292150966823 -0.019864488393068314 -0.005539388861507177
0.016185572370886803 0.021689942106604576 0.03584664687514305 -0.025838907808065414 0.010088848881423473 -0.014406532049179077 -0.0014656747225672007 -0.008978393860161304 0.008788976818323135 -0.001805627252906561 -0.017875246703624725 0.01378659252077341 -0.03128685802221298 -0.005105914082378149 -0.02226000279188156 0.05584419146180153
0.00912224967032671 -0.015485381707549095 -0.03805658966302872 -0.01677333004772663 0.015531309880316257 0.008311550132930279 0.0007785663474351168 -0.0008720291079953313 0.01783398538827896 -0.036612361669540405 0.020397000014781952 0.018408404663205147 0.013742889277637005 -0.010056136175990105 0.03759617358446121 0.034168925136327744
0.008869963698089123 0.045357514172792435 -0.01976943388581276 0.0041044168174266815 0.0040586357936263084 -0.017493130639195442 0.005317335948348045 -0.0002609451476018876 0.0032262499444186687 -0.008525900542736053 0.0063285185024142265 -0.006389522925019264 -0.027208980172872543 -0.013196934945881367 -0.0008975777891464531 -0.014233110472559929
0.004086026921868324 0.047181397676467896 -0.01169496402144432 -0.01782548800110817 0.008227729238569736 -0.018773145973682404 -0.010160958394408226 0.0006890268414281309 0.00970379263162613 0.0016508216504007578 0.003127854084596038 -0.006933622527867556 -0.00808635726571083 -0.0035795883741229773 0.02803320623934269 0.00048186659114435315
0.006837069522589445 -0.0002643197658471763 -0.03341500461101532 -0.04215143248438835 0.009227413684129715 -0.018284836784005165 -0.005642568692564964 -0.009100716561079025 0.0003373195941094309 -0.0035519027151167393 0.026980238035321236 0.0017668086802586913 -0.011211968958377838 -0.019419899210333824 0.021411487832665443 0.010717137716710567
0.02494858205318451 -0.0009049620712175965 0.012982994318008423 -0.003115112194791436 -0.029917897656559944 0.02305232733488083 0.0029566988814622164 0.022901035845279694 -0.0153645696118474 -0.003799182130023837 0.057676829397678375 -0.025046242401003838 0.013209857046604156 0.008331634104251862 -0.021641558036208153 0.01312695350497961
-0.024514751508831978 0.0376792848110199 -0.016973281279206276 -0.006557051558047533 -0.007219408173114061 -0.002421298297122121 0.010083441622555256 0.009916501119732857 -0.00018956384155899286 -0.024546269327402115 -0.001907830242998898 0.0035021305084228516 -0.005369800142943859 0.011470801196992397 0.0028917966410517693 -0.014854464679956436
0.015565373934805393 -0.00884957704693079 0.029922228306531906 -0.013840164057910442 0.045688480138778687 -0.011188508942723274 0.016934065148234367 0.005012920126318932 -0.0071747018955647945 -0.032005611807107925 0.01351375225931406 -0.018537603318691254 -0.01918138936161995 0.03171859681606293 -0.008489559404551983 0.008742261677980423
0.006218621041625738 -0.01166604831814766 -0.0371803417801857 -0.0348845049738884 5.647733269142918e-05 0.009345718659460545 -0.0045900046825408936 -0.0008478236850351095 0.007959124632179737 0.005781293381005526 0.0352264940738678 0.03172697126865387 -0.007006377913057804 -0.013477390632033348 -0.012240415439009666 -0.00831350963562727
0.003381386399269104 -0.006304195150732994 -0.02342790924012661 0.007648089900612831 0.008354280143976212 0.02166709490120411 0.026596469804644585 -0.0014558868715539575 -0.05711642652750015 -0.03553835675120354 -0.017365386709570885 0.04272645711898804 -0.003590643173083663 -0.00976682361215353 -0.03330566734075546 0.010067031718790531
-0.0015496194828301668 -0.029519209638237953 0.01633283868432045 0.018087998032569885 0.007434646598994732 0.004169559571892023 -0.0474732369184494 0.016671905294060707 0.027924010530114174 0.029415255412459373 -0.01689884252846241 0.00047363131307065487 0.022683121263980865 -0.037557169795036316 -0.03785901144146919 -0.034398239105939865
-0.03244566544890404 0.034966591745615005 -0.011920049786567688 0.0009357283124700189 -0.0004884802037850022 0.0037099719047546387 -0.010729172267019749 0.0073292069137096405 -8.369726128876209e-05 -0.008243468590080738 -0.0006768060848116875 -0.003023641649633646 0.0068827904760837555 -0.0037612055893987417 -0.009388734586536884 -0.009574140422046185
-0.046170059591531754 -0.002216778928413987 0.007021392695605755 -0.008526346646249294 -0.012856118381023407 -0.006798532325774431 -0.010896976105868816 0.005342868622392416 -0.030620027333498 -0.012950151227414608 0.004187922924757004 0.008383022621273994 -0.006944478023797274 -0.027529532089829445 -0.005556645803153515 -0.012903042137622833
0.012236496433615685 -0.01452245470136404 -0.0305651742964983 -0.033889103680849075 -0.0076438868418335915 -0.010713356547057629 0.0009849787456914783 -0.008718537166714668 -0.02887219935655594 0.028102833777666092 -0.003917462192475796 -0.05208746716380119 0.01874147541821003 -0.015431826934218407 -0.0016157238278537989 -0.008474841713905334
0.011336454190313816 -0.003648181678727269 -0.023578453809022903 -0.029888950288295746 -0.008493433706462383 0.011436092667281628 -0.02618768997490406 -0.001287619350478053 -0.015558553859591484 0.011400860734283924 0.02747092768549919 0.03642897680401802 -0.027273600921034813 -0.004108262248337269 -0.013096346519887447 0.012671048752963543
0.012282289564609528 -0.025661436840891838 -0.019444439560174942 0.007834164425730705 -0.026593396440148354 -0.0593535341322422 -0.0024513283278793097 -0.002610520226880908 -0.016521109268069267 -0.01974281296133995 -0.0033914425875991583 0.007275152951478958 -0.02131057344377041 0.0038323355838656425 0.017794771119952202 0.0007269700872711837
0.0076676299795508385 -0.01903439499437809 -0.017576972022652626 0.003477278398349881 -0.01674123853445053 -0.057607851922512054 -0.011564359068870544 0.006193859968334436 -0.030315488576889038 -0.013973594643175602 0.0047075944021344185 0.010580894537270069 0.008366931229829788 -0.006900687236338854 0.022325707599520683 -0.009774848818778992
0.019789058715105057 -0.003933607134968042 -0.0007112687453627586 0.018071429803967476 -0.030691687017679214 0.02253827080130577 0.009523887187242508 -0.05474702641367912 0.019240926951169968 0.016842884942889214 0.02843090519309044 -0.02113454043865204 -0.012730443850159645 0.016406189650297165 -0.0032216229010373354 -0.0036193523555994034
0.01656888797879219 -0.02650192379951477 0.018169177696108818 -0.007911695167422295 -0.019557636231184006 -0.02842273749411106 0.02487277239561081 0.06848899275064468 0.013355918228626251 0.007120366208255291 0.021744057536125183 -0.00468360586091876 -0.0279252827167511 0.0037672915495932102 -0.004153886344283819 -0.0013710529310628772
0.008879857137799263 -0.013301865197718143 -0.02550886943936348 -0.002417872892692685 -0.016482384875416756 -0.0500301867723465 -0.012230929918587208 0.014109342359006405 -0.04782164469361305 0.016363173723220825 0.005317118484526873 -0.030151771381497383 0.03723151981830597 -0.008308187127113342 -0.0013625402934849262 0.006187325809150934
0.00830671563744545 0.008277959190309048 -0.041780736297369 -0.017430022358894348 0.013021011836826801 0.01685107871890068 -0.004940389655530453 0.00820563081651926 -0.007762854918837547 -0.010903390124440193 -0.007248316891491413 0.02575686387717724 -0.0027341542299836874 0.009528200142085552 -0.026337459683418274 0.003932240419089794
0.0035414493177086115 -0.027456728741526604 0.019538473337888718 -0.014520838856697083 0.05986154451966286 -0.007392356637865305 0.022186867892742157 0.014697046019136906 -0.0025455092545598745 -0.019480090588331223 0.03869820013642311 -0.013814771547913551 -0.019784199073910713 0.04227293282747269 -0.016193140298128128 -0.00029173080110922456
0.021505150943994522 0.007018770091235638 0.029036646708846092 -0.0009736124775372446 0.025717809796333313 0.012402662076056004 -0.02783563919365406 0.02332199551165104 -0.04648573324084282 -0.009157093241810799 0.01295243389904499 -0.020324112847447395 -0.0014543031575158238 0.018788786605000496 0.032333847135305405 -0.0037181004881858826
0.016294334083795547 0.004078570753335953 -0.010440224781632423 0.023057924583554268 -0.00642161862924695 0.017630841583013535 0.018146710470318794 -0.04781385883688927 0.005257778335362673 0.027330312877893448 0.015034634619951248 -0.027694251388311386 -0.05778785049915314 0.015653414651751518 0.012546182610094547 -0.011518910527229309
0.02943483553826809 0.004541152622550726 0.02471727877855301 -0.010016144253313541 -0.03519648686051369 -0.013794236816465855 0.04109691083431244 0.02536546066403389 0.02538900077342987 -0.012099199928343296 -0.006816380191594362 0.002586066024377942 -0.017928320914506912 -0.03811921924352646 -0.0007846308872103691 -0.0031379773281514645
0.010501790791749954 -0.01986468955874443 -0.023073993623256683 0.005410389043390751 -0.016485964879393578 -0.06389275193214417 -0.009398014284670353 -0.00901721976697445 -0.02270435355603695 -0.0023948908783495426 -0.029410935938358307 -0.00995908584445715 0.014030332677066326 -0.003171754302456975 0.027431342750787735 -0.0015054697869345546
0.01935584843158722 -0.013814452104270458 -0.03701750189065933 -0.013082033023238182 -0.02421361580491066 -0.0063852774910628796 -0.024591544643044472 -0.007031423505395651 0.0073097082786262035 -0.010680423118174076 0.02818390540778637 0.03285572677850723 -0.027926746755838394 -0.006852061953395605 -0.001818981720134616 -0.01924123615026474
-0.042923618108034134 0.01799180544912815 -0.0013978462666273117 -0.01722460240125656 -0.012999589554965496 0.007381228264421225 0.005325797013938427 -0.0028405627235770226 -0.012369649484753609 -0.00800824910402298 0.00756467878818512 0.005080958362668753 0.00037123594665899873 0.0014608902856707573 0.005793105810880661 0.014132312498986721
0.016599450260400772 0.00783119723200798 0.0338677354156971 -0.00957354623824358 0.029479455202817917 0.006618754472583532 -0.021490657702088356 0.01237980555742979 -0.0326169952750206 -0.01552905049175024 0.019002722576260567 -0.01876273937523365 0.0004473672015592456 0.00863459799438715 0.02656332217156887 -0.018849702551960945
-0.0015155966393649578 -0.030557282269001007 0.015491153113543987 0.01932932250201702 0.006950213573873043 0.005956722889095545 -0.048845916986465454 0.0064627667888998985 0.031683847308158875 0.029742293059825897 -0.017871439456939697 -0.0007208140450529754 0.032664306461811066 -0.03586412966251373 -0.02297884412109852 -0.030940856784582138
0.012814916670322418 -0.021226877346634865 -0.025622539222240448 -0.03206976130604744 -0.007860612124204636 0.009070307947695255 -0.002029852941632271 0.022039733827114105 -0.0031101172789931297 0.03470694273710251 -0.0017450483283028007 0.010663159191608429 -0.02626706101000309 0.011565021239221096 -0.042127251625061035 -0.00923901703208685
0.009502020664513111 -0.019517526030540466 -0.02303299680352211 -0.018488621339201927 -0.03191607445478439 -0.039918623864650726 -0.01176727470010519 -0.011782508343458176 -0.012067164294421673 0.001300590462051332 -0.002124112332239747 0.02105020545423031 -0.0171754639595747 0.035594481974840164 0.014338106848299503 -0.01837092824280262
-0.0028834897093474865 -0.01092261541634798 -0.03156116604804993 -0.03779974952340126 -0.012735244818031788 0.011967327445745468 0.004826233256608248 4.259127308614552e-05 -0.030038971453905106 0.024030951783061028 0.006718526128679514 -0.044881854206323624 0.012473024427890778 -0.010965563356876373 0.0027589190285652876 -0.012937420047819614
0.009043030440807343 -0.01782120391726494 -0.02304280921816826 -0.04528017342090607 0.007246609777212143 0.0210624597966671 0.017239762470126152 0.012906922027468681 0.008311289362609386 0.005825848318636417 -0.006104161497205496 -0.05267390236258507 -0.008230253122746944 -0.0014130017952993512 0.010863329283893108 0.02041829191148281
-0.046821899712085724 -0.0006888356292620301 0.012133766897022724 -0.01619371399283409 -0.016447676345705986 0.008496780879795551 -0.002384935738518834 0.007060626521706581 -0.0072649335488677025 -0.006469297222793102 0.0132723618298769 -0.002910373732447624 -0.013345061801373959 -0.01087044645100832 0.010197196155786514 0.01586708426475525
0.007805849425494671 0.0434841625392437 -0.02360459975898266 0.025741102173924446 -0.005869728978723288 -0.013110368512570858 0.0027496330440044403 0.0016732855001464486 0.0035347514785826206 0.007842117920517921 0.005477351136505604 -0.021080050617456436 -0.028395123779773712 -0.013401324860751629 0.022770961746573448 0.004234623163938522
0.01343047246336937 -0.0214158296585083 -0.01916925050318241 -0.007199867628514767 -0.009825794026255608 -0.05876370891928673 -0.007357931230217218 0.010429141111671925 -0.03397103026509285 0.014243517071008682 -0.016344912350177765 -0.04725399240851402 0.027157695963978767 -0.011600736528635025 0.012694106437265873 -0.0032631477806717157
-0.048751529306173325 -0.0015818447573110461 0.0042701042257249355 -0.01110906433314085 -0.00785170216113329 0.009793253615498543 0.005169541109353304 -0.002560619032010436 -0.005437901243567467 -0.0042086136527359486 0.014070624485611916 -0.004744519013911486 0.0045595355331897736 -0.012918205931782722 -0.00270978850312531 -0.002634054748341441
0.0023952978663146496 -0.02766064740717411 0.02413492649793625 -0.010610225610435009 0.056777775287628174 -0.006765685509890318 0.01076174434274435 0.0005463408306241035 0.0006898245774209499 -0.03140696510672569 0.022149842232465744 -0.017133813351392746 -0.013062289915978909 0.046136729419231415 -0.009185564704239368 -0.01242066640406847
-0.04310496151447296 -0.0008952270145528018 0.0038911919109523296 -0.008138518780469894 -0.000783169933129102 -0.0034672273322939873 5.867766230949201e-05 0.016171425580978394 0.003815718460828066 -0.0020332131534814835 0.004242387600243092 -0.001292750472202897 -0.027537012472748756 0.011392699554562569 0.019617032259702682 0.009776203893125057
0.00944614876061678 -0.017889169976115227 -0.003302942030131817 0.028741128742694855 -0.03407471254467964 0.01854420267045498 0.0053269327618181705 -0.058484435081481934 0.0075012207962572575 0.022374778985977173 0.042950402945280075 -0.003678014501929283 -0.01767175830900669 0.014308739453554153 -0.02447274886071682 0.0005853903130628169
0.006521238479763269 0.02875157818198204 -0.03951223939657211 -0.03033285215497017 0.010701121762394905 0.007901924662292004 0.018707899376749992 0.008216289803385735 -0.014412542805075645 -0.0026193512603640556 0.001105225645005703 0.021151095628738403 -0.008004267700016499 0.006731695495545864 -0.002094077644869685 -0.01256352849304676
0.008350678719580173 0.013377071358263493 -0.03376247361302376 -0.006248467601835728 0.016912180930376053 0.02646016888320446 0.008525190874934196 -0.0046148584224283695 -0.020667633041739464 0.014836094342172146 -0.031014438718557358 -0.0012926743365824223 -0.01359403133392334 -0.03653578832745552 -0.01658877357840538 -0.004206759389489889
0.026322700083255768 0.004075170494616032 0.017237110063433647 0.004415536765009165 -0.05043599754571915 0.0017179247224703431 -0.0009568551904521883 0.021680988371372223 0.027725541964173317 -0.04019122198224068 0.012765896506607533 -0.008889676071703434 -0.02615087479352951 -0.021530039608478546 -0.013522986322641373 -0.0019567012786865234
-0.03855769336223602 0.01002280693501234 0.015575706958770752 -0.020527224987745285 -0.0034800393041223288 0.00407534372061491 -0.0012414270313456655 -0.02062285505235195 -0.013455018401145935 -0.003689281642436981 0.0010527940467000008 0.003483237000182271 0.0015596994198858738 0.0032756885048002005 -0.007006762083619833 0.059469811618328094
-0.004051710478961468 -0.024163154885172844 0.0019914007280021906 0.0326208621263504 -0.013443664647638798 0.01427993830293417 -0.021968405693769455 -0.03882511705160141 0.015344993211328983 0.04516250640153885 0.012094567529857159 0.02275843918323517 0.02363930083811283 -0.0053690955974161625 0.006738679949194193 0.005443883128464222
0.004134582821279764 -0.010622055269777775 0.003274566261097789 0.005592077970504761 0.027109062299132347 -0.003353537293151021 -0.009132364764809608 -0.012579196132719517 0.020790155977010727 -0.0255600493401289 0.006901599932461977 -0.007395396940410137 0.019027577713131905 -0.020136920735239983 0.030648667365312576 0.007829906418919563
-0.006760884076356888 -0.03618291765451431 0.02021932415664196 0.016141396015882492 0.0029620437417179346 0.0011201746528968215 -0.04988512024283409 0.020785152912139893 0.030301466584205627 0.01783606968820095 -0.025384481996297836 -0.017095452174544334 0.028986940160393715 -0.025168318301439285 -0.03436258062720299 -0.039033208042383194
0.007999535650014877 -0.021213268861174583 -0.036999013274908066 -0.030421670526266098 0.023019075393676758 0.021184280514717102 -0.005679534748196602 0.006464770063757896 0.005514828953891993 0.0002930334012489766 0.01714152842760086 0.006770655978471041 -0.005956058856099844 -0.043318234384059906 0.014242303557693958 -0.0032169711776077747
0.008156181313097477 0.012205250561237335 0.017283903434872627 0.019101349636912346 -0.023297976702451706 0.013918215408921242 -0.015821898356080055 -0.036857157945632935 0.00017916967044584453 -0.01271379366517067 -0.014018506743013859 0.015867069363594055 0.05657781660556793 -0.015829188749194145 -0.0060548423789441586 0.004477804061025381
0.006661287043243647 -0.033218901604413986 -0.004710396286100149 0.0007835726137273014 -0.00316024967469275 -0.06764298677444458 -0.005135717336088419 -0.01304764486849308 -0.033014729619026184 -0.004996746778488159 -0.001202314393594861 -0.00011339479533489794 -0.014296138659119606 -0.011820689775049686 0.021695341914892197 0.0035252543166279793
-0.04638996347784996 0.002927736844867468 0.007141387555748224 -0.008558734320104122 -0.016103146597743034 -0.003194910939782858 0.013213890604674816 -0.006496010348200798 0.009009702131152153 -0.004110559821128845 -0.008036821149289608 -0.01292705163359642 -0.003184039145708084 -0.0071050808764994144 -0.004758593626320362 0.027956482023000717
0.005674442742019892 0.005945450160652399 0.025687556713819504 -0.03397207334637642 -0.0174825768917799 0.009314463473856449 -0.03962168097496033 -0.01894005946815014 0.01718253269791603 -0.024132726714015007 0.017113864421844482 0.009516688995063305 -0.018186457455158234 0.005017953459173441 -0.014090017415583134 -0.04267757758498192
-0.004218295216560364 -0.009440647438168526 -0.010128267109394073 0.026955975219607353 0.02006533555686474 0.01880103349685669 0.017635023221373558 0.00336727243848145 -0.03429407998919487 -0.0038920382503420115 -0.022018348798155785 0.023576313629746437 -0.00091694260481745 -0.024800986051559448 -0.03859440237283707 -0.005110912956297398
-0.034701406955718994 -0.0030910142231732607 -0.005143007729202509 -0.01143980398774147 -0.0038746122736483812 -0.006805266719311476 -0.0067589557729661465 0.01048940047621727 0.005772207397967577 -0.009618435986340046 0.01306169293820858 -0.007708555553108454 -0.01694975420832634 0.009297345764935017 0.027287710458040237 0.021215364336967468
0.021170079708099365 -0.011756232008337975 -0.007589409593492746 0.008280429989099503 -0.03259705379605293 0.00889270007610321 -0.005786572117358446 -0.017304185777902603 -0.005618911702185869 -0.00793430209159851 0.07829632610082626 -0.0006174301379360259 -0.014212909154593945 -0.0075659239664673805 -0.03572900965809822 -0.0046182540245354176
0.01063740998506546 0.006952493917196989 0.021582961082458496 0.023884903639554977 -0.01083068922162056 0.01707770861685276 -0.02362452819943428 0.0019446745282039046 -0.031146744266152382 0.010274233296513557 -0.01879127323627472 0.009061221964657307 0.02393599972128868 -0.008111933246254921 0.029318613931536674 0.00972959864884615
-0.03986836597323418 -0.000974181282799691 0.01225913967937231 -0.007583798840641975 -0.019800551235675812 0.011431219056248665 -0.0121907414868474 -0.0034343856386840343 -0.005282798316329718 0.007271701004356146 0.009325752034783363 -0.01719842106103897 -0.006717808078974485 -0.002835938474163413 0.036637187004089355 0.0038959139492362738
0.0033225698862224817 0.049062103033065796 -0.027470218017697334 0.021578248590230942 0.012144658714532852 -0.016023145988583565 0.0035402318462729454 0.01007053256034851 0.011035896837711334 0.014008619822561741 -0.00840303860604763 0.00013371222303248942 -0.003616637084633112 0.0204603411257267 -0.013043517246842384 0.01271823886781931
-0.037088777869939804 0.004889960400760174 0.007428551092743874 -0.003333751577883959 -0.0036816939245909452 0.007189793512225151 -0.0007569509325549006 -0.014466209337115288 -0.0020110919140279293 -0.009928714483976364 0.0002197345602326095 -0.004469098523259163 0.003700809320434928 0.007695604115724564 0.01495591551065445 0.057841088622808456
-0.004347845911979675 0.012246494181454182 -0.02872309461236 -0.011168062686920166 -0.025012468919157982 -0.042258650064468384 -0.018173331394791603 -0.0064504435285925865 -0.0298465508967638 0.029446648433804512 0.0009781044209375978 -0.0025735176168382168 0.025319531559944153 0.015497170388698578 -0.005362188443541527 0.024934036657214165
0.013157565146684647 -0.012881159782409668 0.006616570055484772 0.028263360261917114 -0.03127206489443779 0.018697155639529228 0.01840532012283802 -0.06683957576751709 0.011114116758108139 0.022837121039628983 0.026265278458595276 -0.009030580520629883 -0.01599976047873497 0.00621876260265708 -0.00224509509280324 0.01086548063904047
-0.02755163609981537 0.003811632515862584 0.021472562104463577 -0.029307285323739052 -0.009532746858894825 -0.005355215631425381 0.0010943906381726265 -0.01107194647192955 0.002967181382700801 -0.006245078984647989 -0.017919467762112617 0.0020790123380720615 -0.010478915646672249 -0.007300968281924725 -0.014023268595337868 0.0820058286190033
0.014661375433206558 0.008538119494915009 -0.018671132624149323 0.02433732897043228 -0.04005575552582741 -0.015110507607460022 0.0019920337945222855 -0.009831754490733147 0.01680690050125122 -0.02137606218457222 0.01786613091826439 -0.018225297331809998 -0.05506157502532005 -0.03355097398161888 -0.029027104377746582 -0.020781101658940315
0.009836620651185513 -0.011782677844166756 -0.014968433417379856 -0.038484152406454086 0.01880977861583233 0.024834968149662018 -0.0342923179268837 -0.02517150156199932 -0.015278302133083344 0.0014121049316599965 0.01303600799292326 0.029604772105813026 -0.014408020302653313 -0.00019813835388049483 -0.005808791611343622 -0.025652017444372177
-0.03970818221569061 0.02230019122362137 -0.004598613828420639 -0.007176464889198542 -0.0032513588666915894 0.00273130158893764 0.0072060623206198215 0.022609304636716843 -0.0013364895712584257 -0.005695699248462915 0.005271743051707745 -0.00508457375690341 -0.011782089248299599 0.013894995674490929 0.011618493124842644 0.011617864482104778
0.009500586427748203 -0.005714226048439741 0.008055589161813259 0.042267728596925735 0.032224059104919434 -0.00613539619371295 -0.009597702883183956 -0.004520723596215248 0.009317467920482159 0.039425499737262726 0.027651889249682426 -0.011817160993814468 -0.00839744322001934 0.028306899592280388 0.002406995976343751 -0.00122285564430058
0.013021916151046753 -0.007652759552001953 -0.01146642491221428 -0.03539387509226799 -0.021678956225514412 0.005982309579849243 -0.04193598031997681 -0.00507710175588727 -0.01983865536749363 0.006364321801811457 0.00747012160718441 0.038694947957992554 -0.02419065497815609 0.005404479801654816 0.0006331821205094457 -0.0164395309984684
0.003220579819753766 0.004144270904362202 0.016644636169075966 -0.0010310079669579864 -0.02627127431333065 0.0038917185738682747 -0.033879585564136505 -0.0010833762353286147 0.03505673259496689 -0.00846838392317295 -0.014180244877934456 -0.006656711455434561 0.00023693102411925793 0.016459129750728607 0.009132727049291134 0.008406800217926502
-0.008242394775152206 0.032531093806028366 -0.0218315701931715 0.01625738851726055 -0.005689235404133797 -0.01946355774998665 0.023584146052598953 0.017540888860821724 0.014164982363581657 -0.027103031054139137 0.01924930140376091 -0.02396378293633461 -0.02474752999842167 -0.01986756920814514 0.0012566661462187767 -0.01066538691520691
0.0017575358506292105 -0.03288467228412628 0.022684911265969276 0.018770702183246613 -0.009205061942338943 -0.005811692215502262 -0.03503040969371796 0.00715402839705348 0.04620179533958435 0.01797223649919033 -0.01812530867755413 0.004133337177336216 1.7567412214702927e-05 -0.03638456389307976 -0.04553220048546791 -0.023492541164159775
0.01680731400847435 -0.016684532165527344 -0.0232844278216362 -0.020704586058855057 -0.013625042513012886 0.0036622185725718737 -0.016529904678463936 -0.005866811610758305 0.01199900172650814 0.004728575237095356 -0.0170713122934103 -0.024162430316209793 0.025620045140385628 0.03027629479765892 -0.01209937408566475 0.009884970262646675
-0.02147047594189644 0.04426681622862816 -0.014378715306520462 -0.0020773897413164377 0.001092524966225028 -0.014846079051494598 -0.022147217765450478 -0.014196577481925488 -0.0018648176919668913 0.016937928274273872 -0.0040748752653598785 0.0029752945993095636 0.00036952580558136106 -0.011425790376961231 -0.004050151910632849 -0.003940540831536055
0.011028742417693138 -0.012581574730575085 -0.02147934027016163 -0.022693227976560593 -0.04475581273436546 0.009120400063693523 -0.029777267947793007 -0.024252144619822502 0.010398541577160358 -0.009406503289937973 0.0058782813139259815 0.013628602027893066 0.002007048111408949 0.04985016956925392 0.002373382681980729 0.01666213944554329
0.01096892636269331 -0.04261080175638199 0.00969662144780159 -0.025728926062583923 -0.003541750367730856 -0.026605548337101936 0.01950732059776783 0.06719378381967545 0.017655042931437492 0.020375726744532585 0.0034576118923723698 0.005145734641700983 -0.029848653823137283 0.012251938693225384 -0.023586301133036613 -0.01934116519987583
0.0008735792362131178 0.0010476649040356278 0.009017441421747208 0.00768474442884326 -0.044779349118471146 0.02847679890692234 -0.01658702827990055 0.0011089142644777894 0.03686697408556938 -0.008513294160366058 -0.027875710278749466 0.0026009432040154934 0.0007259687990881503 0.02950778417289257 0.0023734441492706537 -0.022759201005101204
-0.037059150636196136 -0.006030764896422625 -0.009381760843098164 -0.011347547173500061 -0.0018342600669711828 0.011178678832948208 0.02774205058813095 -0.004247992765158415 -0.019946053624153137 -0.01691744662821293 -0.020090077072381973 0.018623797222971916 0.0019898659083992243 0.035916801542043686 0.0008732135756872594 -0.006296876352280378
0.015040554106235504 0.044101208448410034 -0.0022425272036343813 -0.02468147687613964 0.003441594075411558 -0.022195270285010338 0.008983624167740345 0.008071575313806534 0.021453313529491425 0.014605562202632427 0.014460397884249687 0.012766691856086254 -0.011101695708930492 -0.019973138347268105 -0.011115324683487415 0.015362619422376156
0.014761877246201038 -0.00853157602250576 -0.03021015040576458 -0.002951583592221141 -0.024790510535240173 -0.04842885583639145 -0.024506228044629097 -0.017172224819660187 -0.014742899686098099 0.014318657107651234 -0.0009914650581777096 -0.007290826179087162 0.009420185349881649 0.016114626079797745 -0.00376761588267982 0.007451273035258055
-0.010319795459508896 -0.001879823044873774 0.013013425283133984 0.004705942235887051 -0.005334782879799604 0.0036816115025430918 -0.016867363825440407 0.005377824418246746 -0.01672373153269291 0.004052687436342239 0.018027499318122864 0.03118835762143135 0.002380993217229843 0.031265247613191605 -0.0003341064730193466 0.007256359793245792
0.027095740661025047 0.02504236251115799 0.011370536871254444 -0.03381801024079323 0.03383556753396988 -0.006655988283455372 0.007323156576603651 -0.010523590259253979 0.02167103998363018 -0.03162384405732155 -0.0037785291206091642 0.012507139705121517 0.02059253677725792 -0.018221920356154442 0.007385523058474064 -0.011141637340188026
-0.004036996979266405 0.04715634137392044 -0.032389555126428604 0.01465415395796299 -0.0035565688740462065 -0.005787098314613104 0.007318104617297649 0.0020613656379282475 0.01953442394733429 0.020267073065042496 -0.0049392166547477245 0.009496405720710754 -0.027066558599472046 0.02123378962278366 0.004539348650723696 -0.007434563711285591
0.012234893627464771 -0.0016940718051046133 0.008485466241836548 -0.0053503261879086494 -0.041524115949869156 -0.003797187004238367 -0.0148491645231843 0.0016814465634524822 0.01332089677453041 -0.02992154471576214 -0.03376521170139313 0.0026150073390454054 -0.01875966787338257 0.02047566883265972 -0.0092421043664217 0.022714901715517044
0.023762984201312065 -0.014085981994867325 -0.011652066372334957 -0.01885819621384144 -0.024005774408578873 0.02388003282248974 -0.013106966391205788 -0.026723848655819893 0.01880662702023983 -0.0006151068373583257 -0.004799965303391218 -0.01477675512433052 0.02449744939804077 0.02781825140118599 0.01612331159412861 0.021542560309171677
0.006622300948947668 -0.029252827167510986 -0.007726155687123537 0.002612279960885644 0.0017469336744397879 -0.06351437419652939 -0.0035147888120263815 -0.01297968253493309 -0.03487510234117508 -0.013683412224054337 0.01137370802462101 -0.000863066001329571 -0.00541479978710413 -0.01547583844512701 0.01718181185424328 0.003584193764254451
-0.044446077197790146 -0.0059023890644311905 -0.012683645822107792 -0.02334166318178177 -0.018464993685483932 0.009899371303617954 0.0021025012247264385 -0.0015762377297505736 0.0021166594233363867 -0.009140311740338802 0.021629698574543 -0.003562918398529291 0.002352910814806819 -0.025264183059334755 -0.005562955513596535 -0.021191876381635666
0.002753616776317358 0.013410651125013828 -0.03804517537355423 0.003022829070687294 0.022219408303499222 0.01927253231406212 0.018925972282886505 0.01238943450152874 -0.008541968651115894 -0.0072573511861264706 -0.028003402054309845 0.012906283140182495 -0.011655504815280437 -0.007848844863474369 -0.009801735170185566 -0.01999322883784771
-0.005533086135983467 0.055559150874614716 -0.023850813508033752 0.00033855915535241365 0.006788161583244801 -0.002394923707470298 0.0017648658249527216 0.0025961892679333687 0.004494243301451206 -0.007897951640188694 0.011858658865094185 -0.0046277823857963085 -0.00962040200829506 -0.003939633723348379 0.0024121790193021297 -0.006646572146564722
0.021424798294901848 -0.009949914179742336 0.011060277000069618 0.02042173221707344 -0.025401929393410683 0.01348804496228695 0.04966619238257408 -0.05738963931798935 0.016781579703092575 0.017820168286561966 0.02542155422270298 -0.010775428265333176 -0.02676798403263092 -0.005006712395697832 0.0029235240072011948 -0.0022971322759985924
-0.046283405274152756 0.0023711053654551506 0.003034900641068816 -0.010552437044680119 -0.007963757961988449 -0.0018785110441967845 0.006751460023224354 -0.01889668218791485 -0.018606148660182953 -0.008084191009402275 0.00446942076086998 -0.013488502241671085 -0.0180759746581316 -0.01461359579116106 0.028068922460079193 -0.003453797660768032
-0.04429611191153526 -0.001364949275739491 0.013720809482038021 -0.004510537721216679 -0.0038571974728256464 -0.001963932067155838 0.006073223426938057 -0.004335199948400259 -0.007455229293555021 -0.00028603977989405394 0.001680127577856183 -0.009019951336085796 -0.0061774174682796 -0.0051018185913562775 0.012297123670578003 -0.01178987231105566
0.01369368564337492 0.008251304738223553 -0.018770096823573112 -0.033832624554634094 -0.005542350001633167 -0.018155209720134735 0.011172747239470482 0.00862495694309473 0.004651079885661602 0.03393809124827385 0.001894897548481822 0.04789615049958229 -0.015245785936713219 0.025167418643832207 0.027953103184700012 -0.024732505902647972
-0.030673179775476456 0.0038072136230766773 -0.016199151054024696 -0.015361996367573738 0.004268585704267025 0.012412287294864655 -0.007009344175457954 0.0011458646040409803 -0.011691395193338394 0.00824760738760233 -0.024997375905513763 -0.017331218346953392 0.028195178136229515 -0.009205592796206474 -0.01737826131284237 -0.012307589873671532
0.02250579558312893 0.01865205727517605 0.04375092685222626 -0.02548704296350479 -0.0014630681835114956 -0.016601691022515297 -0.02447771281003952 -0.00670893769711256 0.01659560576081276 0.0025527896359562874 -0.013318688608705997 0.026980148628354073 -0.01569253019988537 -0.0005685058422386646 -0.009848074987530708 0.02477162517607212
-0.002660035854205489 -0.015212688595056534 -0.0048858532682061195 0.02077706716954708 0.004488265607506037 0.03051355481147766 0.03433983400464058 0.004615843296051025 -0.011195222847163677 -0.009481220506131649 -0.03854604437947273 -0.005412454251199961 0.0017210264923051 0.02352673001587391 0.021831270307302475 -0.0251191146671772
0.015337235294282436 0.012366634793579578 -0.009601090103387833 -0.0027828195597976446 0.017330652102828026 0.04484368488192558 0.01232227124273777 -0.0206476841121912 -0.03363519534468651 0.02861679717898369 -0.02729683555662632 -0.008777418173849583 -0.050365786999464035 -0.01686389185488224 -0.013937104493379593 -0.0233677476644516
-0.0019673104397952557 -0.021744640544056892 -0.006354504730552435 -0.004871776793152094 -0.016384245827794075 -0.06775014102458954 -0.014787323772907257 0.03991685435175896 -0.010894247330725193 -0.012234129011631012 0.0051718647591769695 -0.0005643469048663974 -0.02267635241150856 -0.0024441711138933897 0.005527108907699585 -0.01993175782263279
0.013628031127154827 -0.00024200459301937371 0.015730304643511772 0.012485903687775135 -0.03485981002449989 0.013249789364635944 -0.06073518842458725 -0.0023880687076598406 0.03972306475043297 -0.02068423293530941 -0.02589208073914051 -0.011251532472670078 0.034806810319423676 -0.007039823103696108 -0.02640679106116295 -0.017782801762223244
0.0048601059243083 -0.010262270458042622 0.006120927166193724 0.0340428464114666 0.034950919449329376 -0.009049835614860058 -0.015038438141345978 0.01709338091313839 0.009381893090903759 0.028963910415768623 0.019508494064211845 0.0009846865432336926 0.0010616799117997289 0.021136589348316193 0.005023483652621508 0.0092307198792696
-0.04826672375202179 -0.01518564485013485 0.023184286430478096 -0.016468333080410957 -0.008966105058789253 0.00961362849920988 -0.0025173525791615248 0.0026782886125147343 -0.009926076047122478 -0.006501310504972935 0.005079983733594418 0.013634861446917057 -0.010739306919276714 -0.030827797949314117 -0.0031529651023447514 0.002648384077474475
0.020494427531957626 0.007352604530751705 -0.020166683942079544 0.03569772467017174 -0.02388337440788746 -0.014743880368769169 0.017919961363077164 -0.011951422318816185 0.004158287309110165 -0.0032204454764723778 -0.022229237481951714 -0.017855269834399223 -0.015388771891593933 -0.038146812468767166 0.034318726509809494 0.0060790847055613995
0.014743389561772346 0.012199723161756992 -0.042996909469366074 -0.013647112064063549 0.016642406582832336 0.008365737274289131 0.018381571397185326 0.005726817529648542 -0.028631476685404778 -0.03422573581337929 -0.006603200454264879 0.03392329066991806 0.001399331376887858 0.009582274593412876 -0.025388674810528755 0.00706438859924674
-0.021218009293079376 -0.001184527762234211 0.01489763893187046 0.0045855846256017685 0.0018952173413708806 0.000773218460381031 -0.015295242890715599 -0.0015614052535966039 -0.011053735390305519 -0.0006981832557357848 0.008481873199343681 0.015462378039956093 0.0029556662775576115 0.03292539343237877 -0.0010505879763513803 0.009385128505527973
0.015437692403793335 -0.029576899483799934 -0.022797945886850357 0.007656017318367958 -0.020289726555347443 -0.06824436038732529 -0.010348632000386715 0.006682960782200098 -0.032511983066797256 -0.0014324545627459884 -0.015985233709216118 -0.00490096490830183 0.004026121459901333 -0.0009873205563053489 0.023802127689123154 -0.008291252888739109
-0.04723109304904938 -0.0042097968980669975 0.006562774535268545 -0.006963968742638826 -0.01174070779234171 -0.006620339117944241 -0.006787431426346302 -0.001632410567253828 0.010135871358215809 0.0003783412976190448 0.008188475854694843 -0.0077723609283566475 -0.008290527388453484 0.009397806599736214 0.009717495180666447 0.002862009219825268
0.013641757890582085 0.02269236370921135 0.02152366191148758 0.008488857187330723 -0.03945663943886757 0.01705314591526985 -0.004782184027135372 0.02693876437842846 -0.017736326903104782 0.006341941189020872 0.050439558923244476 0.020485730841755867 0.0072337789461016655 0.001908147823996842 0.007568238768726587 0.006954644341021776
0.014772905968129635 -0.021369988098740578 -0.012830043211579323 0.007768053561449051 -0.012844127602875233 -0.07036338746547699 -0.0035063924733549356 0.030677879229187965 -0.009735467843711376 0.0017600259743630886 0.001150360330939293 -0.020074235275387764 -0.004833980463445187 0.002970500150695443 0.008816801011562347 -0.011514652520418167
-0.0016261382261291146 -0.01174071989953518 -0.012115771882236004 0.026739178225398064 0.02120853401720524 0.020245013758540154 0.01868731901049614 0.0010884740622714162 -0.03375833109021187 -0.004533418454229832 -0.026086611673235893 0.021446049213409424 0.0017339088954031467 -0.026112830266356468 -0.04122494161128998 -0.004544918891042471
-0.03896792605519295 0.024844344705343246 -0.008295160718262196 0.006651643197983503 0.009791559539735317 -0.008627423085272312 -0.0009478358551859856 0.03735155239701271 0.013157237321138382 0.0016524774255231023 -0.004925097338855267 -0.003917460795491934 -0.018667912110686302 0.004612861666828394 -0.004569701384752989 0.0044218432158231735
-0.0052506886422634125 -0.014948691241443157 0.009670284576714039 0.0120541388168931 0.024130338802933693 0.006053684279322624 -0.02777775749564171 0.02765834517776966 0.027564330026507378 0.006697258446365595 -0.022548839449882507 -0.023896729573607445 0.012798289768397808 -0.03091898001730442 -0.010493443347513676 0.005664333235472441
-0.010481808334589005 0.003245620522648096 -0.009413986466825008 0.007261894177645445 -0.006932521238923073 0.021365979686379433 0.0406743660569191 0.01544024795293808 -0.011994597502052784 -0.03877846151590347 -0.02240675687789917 0.007275317795574665 0.004987334366887808 0.039733659476041794 0.018036656081676483 -0.015088140964508057
-0.002031086478382349 0.039394378662109375 -0.016208745539188385 0.010777083225548267 -0.0035362797789275646 -0.005166373681277037 -0.015860581770539284 0.017552154138684273 0.04305557161569595 0.006166909821331501 -0.02313988469541073 0.007918949238955975 0.012336747720837593 0.0002575810067355633 -0.005739486310631037 0.024388685822486877
0.018007755279541016 -0.00769490422680974 -0.034350816160440445 -0.028527019545435905 -0.002333986572921276 0.009037362411618233 -0.031686387956142426 -0.0013336747651919723 -0.012322239577770233 0.0004954793839715421 0.006540102884173393 0.014028450474143028 -0.02744865044951439 -0.012240181677043438 0.0003810077323578298 -0.02352132648229599
-0.003356666537001729 -0.01451853010803461 -0.00830121897161007 0.012830599211156368 0.006018289364874363 0.02180267684161663 0.03441983461380005 -0.0026548015885055065 -0.06344978511333466 -0.019071966409683228 -0.027869798243045807 0.04444278031587601 -0.018985552713274956 -0.0036012493073940277 -0.03754553198814392 0.008274991065263748
-0.00621652090921998 0.007687245961278677 0.0026135884691029787 -0.03817440941929817 -0.013282788917422295 -0.006871520075947046 0.0071070329286158085 -0.037046320736408234 -0.026577651500701904 -0.007190067786723375 0.0032909943256527185 0.024607643485069275 0.005886384751647711 -0.0052977497689425945 -0.011106454767286777 0.05970785766839981
0.0021606753580272198 0.04778812453150749 -0.031769394874572754 0.017045089974999428 0.001935257576406002 -0.0018434866797178984 -0.002887136535719037 0.01896550878882408 0.008869023062288761 0.01749664731323719 -0.01688259281218052 -0.010092123411595821 0.003467797301709652 0.027170585468411446 0.00185611832421273 -0.009901230223476887
-0.0016721872380003333 -0.02030244469642639 0.004740915726870298 0.04222046956419945 0.015862561762332916 0.004927617497742176 0.016098301857709885 -0.03228296712040901 0.017181627452373505 0.03523951768875122 0.014241981320083141 -0.02684161812067032 -0.04152678698301315 0.043454088270664215 0.006685345433652401 0.00037405447801575065
-0.03963048383593559 0.018228909000754356 -0.013651508837938309 0.011356091126799583 -0.012787331826984882 0.0007666004239581525 -0.014346981421113014 0.013227458111941814 0.026682067662477493 0.003067011944949627 -0.016121672466397285 0.006234071217477322 0.007488938979804516 -0.011107138358056545 -0.027825763449072838 0.014307334087789059
0.0010536848567426205 -0.0027633386198431253 0.006226931232959032 0.030231773853302002 0.05593045800924301 0.031151587143540382 0.0047289482317864895 -0.034573640674352646 -0.003910580184310675 0.025341587141156197 0.008795853704214096 -0.0005541158025152981 0.014979306608438492 -0.020793626084923744 0.006322938017547131 0.011274906806647778
0.007219412829726934 0.00361311761662364 -0.038221172988414764 -0.014485176652669907 0.0006446897168643773 0.0314139761030674 -0.022952087223529816 0.0017321346094831824 -0.016041364520788193 0.006935496348887682 0.0005805640248581767 0.04438028857111931 -0.0157073475420475 0.0032034481409937143 -0.036401450634002686 0.008003789000213146
0.00983321201056242 -0.016524598002433777 -0.034284405410289764 -0.02233581617474556 0.018323088064789772 -0.005067342426627874 -0.011978549882769585 -0.004992729052901268 0.013071944005787373 -0.016927523538470268 0.0293008740991354 0.008839947171509266 0.010935445316135883 -0.026141323149204254 0.04791313409805298 0.009687180630862713
0.003472927724942565 -0.005905767437070608 0.003382416209205985 0.02826792746782303 0.04539474472403526 -0.0066130138002336025 -0.027220716699957848 -0.052452780306339264 -0.008602648042142391 -0.025659341365098953 -0.02420281060039997 -0.035602398216724396 0.012222002260386944 -0.011016160249710083 -0.015190357342362404 -0.02190401591360569
-0.0021129148080945015 0.008586566895246506 -0.029399044811725616 0.001387589960359037 0.007587625179439783 0.027793796733021736 0.014606038108468056 0.013205122202634811 0.01402692124247551 -0.02957824617624283 -0.005186077672988176 -0.0339856818318367 0.05519891530275345 -0.0033651944249868393 0.005408869590610266 -0.0014441671082749963
0.030349021777510643 0.021581707522273064 0.012058996595442295 -0.03485903516411781 0.010159456171095371 0.031800977885723114 -0.0035317647270858288 -0.012576091103255749 -0.0171046182513237 0.010409267619252205 -0.007727296091616154 -0.03636090084910393 -0.01783580519258976 0.004594892263412476 0.033658064901828766 0.003384897718206048
-0.02751016430556774 -0.014126908965408802 0.0069136181846261024 -0.007025666069239378 0.002621447667479515 -0.000619748723693192 -0.006436139345169067 0.02273428626358509 0.010354665108025074 -0.003306392813101411 0.009972934611141682 -5.980334208288696e-06 -0.025573991239070892 0.02053363062441349 0.022978410124778748 0.02165662683546543
0.003062461968511343 -0.0034408709034323692 0.00674864649772644 0.032051559537649155 0.055427346378564835 0.032080408185720444 0.006166300270706415 -0.02787627838551998 -0.001493186573497951 0.032163750380277634 0.009905906394124031 0.00571571197360754 0.022946180775761604 -0.014909745194017887 0.0032893060706555843 0.013269230723381042
-0.004898094106465578 -0.04269349202513695 0.022182324901223183 0.012617547065019608 0.003318256000056863 0.0007260672864504158 -0.045243039727211 0.01740027591586113 0.03501201793551445 0.026505811139941216 -0.021137747913599014 0.0010419555474072695 0.01764378510415554 -0.03920426219701767 -0.03773254156112671 -0.03286144509911537
0.009346798062324524 0.0003140042826998979 -0.048874348402023315 -0.007571613881736994 0.015102812089025974 -0.0004482366202864796 -0.014518754556775093 0.009558350779116154 0.020983997732400894 -0.014559974893927574 0.008233404718339443 0.024181177839636803 -0.005108383949846029 0.011213173158466816 0.0007194321951828897 0.022537685930728912
0.018836190924048424 0.027992097660899162 -0.024813098832964897 0.0019133295863866806 -0.035850297659635544 -0.004520788323134184 0.021700283512473106 0.022800734266638756 0.01296287402510643 -0.009937440045177937 0.03245411440730095 -0.02396269701421261 0.020895827561616898 0.018315287306904793 -0.01434452272951603 -0.00359092908911407
0.011314273811876774 0.009577041491866112 -0.02132788673043251 -0.044408995658159256 0.003989277873188257 -0.00602822145447135 0.02674318104982376 -0.0025263528805226088 0.0015569609822705388 0.020330853760242462 0.03300633653998375 0.04420151561498642 0.005086062476038933 -0.012832999229431152 0.01301475428044796 -0.021902278065681458
0.014895868487656116 -0.01879108138382435 -0.03163251653313637 0.0009919860167428851 -0.021700561046600342 -0.04962273687124252 -0.028890857473015785 -0.004062969237565994 0.0006490820669569075 -0.005332211963832378 0.02979293093085289 0.01738166995346546 -0.03638933598995209 0.021255973726511 -0.004719842690974474 -0.01599980890750885
-0.0003078199806623161 -0.0027612007688730955 -0.008698293939232826 0.019853411242365837 0.0026568977627903223 0.014804880134761333 0.03322579339146614 -0.005812005139887333 -0.0496569387614727 -0.05452709272503853 -0.021546026691794395 0.02399257756769657 0.0039643412455916405 0.005738569889217615 -0.029742226004600525 0.007903065532445908
0.03214454650878906 0.004598632454872131 0.011126616969704628 0.018867915496230125 -0.03026873804628849 0.001969321398064494 0.04233905300498009 -0.0032344399951398373 0.023294074460864067 -0.030521895736455917 -0.006144447717815638 -0.017396103590726852 -0.020336328074336052 -0.03355107828974724 0.01904428005218506 -0.0002908250316977501
-0.03054659441113472 0.014580165967345238 -0.01789225824177265 -0.001593608409166336 0.005592285189777613 0.00757914362475276 -0.023122670128941536 0.003957857843488455 0.00020469044102355838 0.0026480229571461678 -0.023158762603998184 -0.0019515806343406439 0.01936836540699005 -0.006994784809648991 -0.013022566214203835 -0.01614283211529255
0.0038708169013261795 0.011048388667404652 0.006399017758667469 0.028373846784234047 -0.01896977238357067 0.016877589747309685 -0.03934188932180405 -0.0329764299094677 -0.016343042254447937 -0.024121595546603203 -0.02146010845899582 0.00777028501033783 0.03883390128612518 0.004827016033232212 0.007314095739275217 0.016000060364603996
-0.04417809471487999 0.011930985376238823 0.018111735582351685 -0.00605525728315115 -0.0018628458492457867 0.023154251277446747 -0.009600004181265831 0.013716551475226879 -0.02094937302172184 -0.00014431112504098564 0.026906445622444153 -0.01681671105325222 -0.020999524742364883 0.008575903251767159 0.025713598355650902 -0.0023669579531997442
0.0019091052236035466 0.007357089314609766 0.006881884764879942 0.0262112095952034 -0.019664257764816284 0.015645887702703476 -0.04649205505847931 -0.031778112053871155 -0.0013692297507077456 -0.03188604861497879 -0.020721454173326492 0.005927169695496559 0.04266011714935303 0.004804837517440319 -0.0077293552458286285 0.013897111639380455
0.0028235414065420628 -0.014956600032746792 -0.01278055738657713 0.02667931839823723 0.005194239784032106 0.02579764649271965 0.032650962471961975 -0.002730268519371748 -0.04737650603055954 -0.002581049455329776 -0.027797136455774307 0.0277437511831522 -0.014399178326129913 -0.012483516708016396 -0.027319207787513733 -0.006152232643216848
0.00886978954076767 -0.0209585539996624 -0.012944314628839493 -0.01796097494661808 0.015955504029989243 0.01754213124513626 -7.288560482265893e-06 0.014862610958516598 -0.014849459752440453 0.037893664091825485 -0.03903437405824661 -0.051194705069065094 -0.008638029918074608 -0.021640179678797722 -0.004571992438286543 -0.0007951271254569292
0.011492555029690266 0.02144087292253971 0.02844071574509144 -0.0128698805347085 -0.01302317064255476 -0.015009058639407158 0.047298550605773926 0.01925669237971306 -0.0007595398346893489 0.016357826068997383 0.009701273404061794 0.031317610293626785 0.02169186621904373 -0.017495905980467796 -0.012301693670451641 -0.004552493337541819
0.010213938541710377 -0.041130777448415756 -0.044338203966617584 -0.019947951659560204 0.0020810861606150866 -0.009031877852976322 -0.016169115900993347 0.009933695197105408 0.002320611849427223 -0.026876328513026237 0.010354509577155113 0.035430967807769775 -0.0015885900938883424 0.004761978983879089 0.045392442494630814 0.019227152690291405
-0.039984870702028275 0.012499612756073475 -0.00512451259419322 -0.008791868574917316 0.003830848727375269 0.005205307621508837 -0.016392724588513374 -0.0007462289649993181 -0.0035057845525443554 0.006279984023422003 -0.01763106882572174 -0.0010080737993121147 0.012551394291222095 -0.014301839284598827 -0.0077143339440226555 -0.011032608337700367
-0.03174451366066933 0.034439582377672195 -0.01591419242322445 0.009861617349088192 4.3621010263450444e-05 -0.00614969665184617 -0.021053003147244453 -0.013716395944356918 -0.007678689435124397 0.0013914420269429684 -0.0007080925861373544 0.0020183012820780277 0.0030432045459747314 -0.015243385918438435 -0.004729097243398428 -0.01611868292093277
0.01488565094769001 -0.0015293995384126902 0.02782503142952919 0.0043060751631855965 0.020430466160178185 0.02601369097828865 -0.018273157998919487 0.024019215255975723 -0.04134892672300339 -0.008802651427686214 0.024969175457954407 -0.017198657616972923 0.0055175404995679855 0.018683969974517822 0.02819402888417244 -0.018776269629597664
0.015428769402205944 0.006185007747262716 -0.01436081063002348 -0.023142362013459206 -0.015072781592607498 0.019198868423700333 0.025741305202245712 0.014724278822541237 0.003913985565304756 -0.001307372935116291 0.019600288942456245 -0.05594545975327492 0.05482718348503113 0.007148588076233864 -0.00861205905675888 -0.006007948890328407
0.019700312986969948 0.015012524090707302 -0.020440859720110893 0.005165503825992346 -0.028832802549004555 0.005708906799554825 0.009221665561199188 0.03139792010188103 -0.010616641491651535 -0.02687152847647667 0.05125092342495918 -0.010377530008554459 0.020265312865376472 0.02537011168897152 -0.004493423271924257 0.02026151306927204
0.013947172090411186 0.02131454460322857 0.03291907161474228 -0.0024191199336200953 -0.042215801775455475 0.029071396216750145 -0.02480996586382389 0.028230909258127213 -0.012161550112068653 0.014456725679337978 0.010861222632229328 0.005564768332988024 -0.010578305460512638 0.002831911901012063 0.03922402858734131 0.008613132871687412
0.01044151745736599 -0.03801951929926872 -0.008003227412700653 0.00487611535936594 -0.008439522236585617 -0.05668804049491882 -0.0038225750904530287 -0.005920166615396738 -0.036022309213876724 0.004410590045154095 -0.018038297072052956 -0.02257806994020939 0.01455477625131607 0.0016730768838897347 0.019534289836883545 -0.015087394043803215
0.004202736541628838 0.00794606376439333 0.001870207954198122 0.0026065707206726074 -0.037228841334581375 -0.00030667439568787813 -0.003975708037614822 0.03803481161594391 -0.05140306055545807 -0.013097035698592663 0.05808699503540993 -0.03070926107466221 0.03319577872753143 -0.0055119916796684265 -0.008646438829600811 0.022776605561375618
0.02137727104127407 0.007591933943331242 0.008735700510442257 0.0207076333463192 -0.04573429003357887 0.004565137904137373 0.011093725450336933 0.01700742170214653 0.016657980158925056 -0.028271324932575226 0.0010620064567774534 0.0012266624253243208 -0.014169307425618172 -0.037910815328359604 0.015032339841127396 -0.0032721490133553743
0.007229633629322052 0.03947678208351135 -0.03241550922393799 0.026370294392108917 -0.008519360795617104 -0.022723469883203506 -0.00046544248471036553 -0.0050521232187747955 -0.013018893077969551 -0.0017817083280533552 -0.027122577652335167 -0.009201428852975368 0.014653399586677551 -0.01497678179293871 0.026477809995412827 0.006133567541837692
0.006576145067811012 -0.0016253010835498571 -0.0007442220812663436 0.03092486597597599 -0.0025754107628017664 0.022730441763997078 0.025272220373153687 -0.053737346082925797 -0.004711312707513571 0.02518453262746334 0.014297664165496826 -0.02364843524992466 -0.051599714905023575 0.029856761917471886 0.010422679595649242 0.0077634393237531185
0.002379230922088027 0.05322280898690224 -0.02136261761188507 0.03307759016752243 0.014751709066331387 0.007289427798241377 -0.007447205949574709 0.0058767045848071575 0.002370445756241679 -0.003770943498238921 -0.0061469608917832375 -0.010707492008805275 0.0005816499469801784 0.009698180481791496 0.0004371572285890579 -0.01565486192703247
0.026148267090320587 -0.014168249443173409 0.0040628849528729916 -0.00026441580848768353 -0.04091448709368706 -0.015263143926858902 0.04789474606513977 -0.01576896570622921 0.013909529894590378 -0.0005978668923489749 -0.015022643841803074 -0.0190544705837965 -0.03860070928931236 -0.05215832591056824 0.005519270431250334 -0.006232370622456074
0.01487198006361723 0.03014979138970375 0.012485827319324017 -0.004119568504393101 -0.02125457115471363 0.027612274512648582 -0.010103125125169754 0.03344751521945 0.015500567853450775 -0.015213427133858204 0.018417097628116608 0.002715474460273981 0.038947757333517075 0.02480781264603138 -0.010225899517536163 -0.00631379522383213
0.02097492292523384 0.012458909302949905 0.0099642314016819 -0.052063532173633575 -0.015372326597571373 -0.00574349844828248 0.045934271067380905 -0.004044095054268837 0.005191116128116846 0.02508319728076458 0.009706804528832436 0.022798292338848114 0.02338237129151821 -0.006040115375071764 0.012215263210237026 -0.003571025561541319
-0.04102741554379463 0.006804775912314653 0.019845562055706978 -0.021499712020158768 -0.01396886631846428 -0.007364681456238031 0.016483129933476448 0.00823015533387661 -0.0031935181468725204 0.00398364569991827 0.01414074469357729 0.00750252278521657 0.017786534503102303 -0.03472093492746353 0.006550911348313093 0.003786525223404169
0.0034442837350070477 0.05016559362411499 -0.018032390624284744 0.004253513179719448 0.014884133823215961 -0.04742271080613136 -0.00472537986934185 0.02321653813123703 0.014512866735458374 -0.0025017219595611095 -0.0007886963430792093 0.002340666949748993 -0.0034130793064832687 -0.002237639855593443 0.028417764231562614 -0.0012010035570710897
0.02278107777237892 0.005027258303016424 0.032903630286455154 -0.019801544025540352 -0.026096388697624207 -0.009876818396151066 -0.006491398438811302 0.004620300605893135 0.03479035571217537 -0.014924891293048859 -0.03862122818827629 -0.0017198282293975353 -0.03864758834242821 -0.02372216433286667 -0.03702576830983162 0.02871488593518734
0.02514786459505558 0.011724675074219704 -0.0015723244287073612 -0.049996837973594666 -0.0001652018108870834 -0.0002652778057381511 0.041450053453445435 -0.0011973697692155838 0.004716627765446901 0.030574269592761993 0.022787369787693024 0.027472134679555893 0.017863385379314423 0.0001394688297295943 0.01810125634074211 -0.003252391703426838
0.008908250369131565 -0.029124202206730843 -0.02373671717941761 0.005735462065786123 -0.02561464160680771 -0.06807783991098404 -0.0019455032888799906 0.001384235336445272 -0.0360226072371006 0.0020962473936378956 -0.007781702559441328 0.01855851337313652 -0.0002280009794048965 0.025670954957604408 0.013136941939592361 -0.017084434628486633
0.008074003271758556 -0.019153611734509468 -0.03547010198235512 0.006482584401965141 0.009772009216248989 0.02150428481400013 -0.011703705415129662 -0.009414774365723133 0.0199076347053051 -0.024900665506720543 0.028800271451473236 0.017337597906589508 0.018592294305562973 -0.03881639614701271 0.006649310700595379 0.005782508756965399
0.007297317031770945 -0.01189444214105606 -0.03961239755153656 -0.021675631403923035 0.0005641748430207372 0.01836256869137287 -0.014956752769649029 0.007442203816026449 -0.031420182436704636 0.014297349378466606 0.01557962503284216 -0.000628416717518121 -0.0024275428149849176 -0.03569670766592026 -0.005911703687161207 0.005811800714582205
0.015202687121927738 -0.017977986484766006 -0.03730986267328262 -0.02585349977016449 0.0006574614089913666 -0.019540224224328995 -0.001733382698148489 0.0009110859828069806 0.005248575005680323 -0.03478790447115898 0.015833143144845963 0.016529468819499016 -0.0011128742480650544 0.0011805607937276363 0.0427282378077507 0.01943599246442318
-0.0018187733367085457 -0.005035918205976486 -0.008532368578016758 0.01319209672510624 -0.0065933894366025925 0.021971039474010468 0.04366106539964676 0.008817353285849094 -0.02514568530023098 -0.04217572510242462 -0.015311181545257568 0.0015668170526623726 -0.004762900993227959 0.02784453146159649 0.015152460895478725 -0.019037317484617233
0.008962631225585938 -0.026194218546152115 0.013829502277076244 -0.022259121760725975 -0.0007371741812676191 -0.022509070113301277 0.0241946242749691 0.06209027022123337 0.02357824146747589 0.024102794006466866 -0.0018393374048173428 0.02362585812807083 -0.02629844658076763 0.026971571147441864 0.0009688056888990104 -0.010094577446579933
0.010363767854869366 -0.023220747709274292 -0.02447996474802494 0.008136904798448086 -0.003863929770886898 -0.04824884980916977 -0.01637067273259163 0.01060560904443264 -0.04605332016944885 0.006045843008905649 0.005228313617408276 -0.004799180664122105 0.031250063329935074 -0.0037831966765224934 0.015320529229938984 0.00997993629425764
0.015189073048532009 -0.0044673290103673935 -0.028782784938812256 0.018241189420223236 -0.03320308402180672 0.007159971632063389 -0.008555999025702477 -0.007403780240565538 0.02211625501513481 -0.025815388187766075 0.010607046075165272 0.005115742329508066 -0.05244206637144089 -0.03387139365077019 -0.003268035827204585 -0.011452668346464634
0.027574215084314346 0.020424088463187218 0.03616560250520706 -0.011650372296571732 -0.036864954978227615 0.02079511433839798 -0.02765810862183571 0.009098034352064133 0.0196003969758749 -0.019354214891791344 -0.00545950373634696 0.006808507721871138 0.01422983966767788 0.0036701124627143145 -0.004380802623927593 0.00022591884771827608
0.018520871177315712 0.0022940842900425196 0.017804928123950958 0.012629717588424683 -0.0416535921394825 -0.006510073784738779 -0.04390919208526611 0.003979295492172241 0.043905433267354965 -0.03550324961543083 -0.007816624827682972 -0.013328881934285164 0.00016967824194580317 -0.0030580032616853714 -0.024596821516752243 -0.0008508124155923724
0.006676984019577503 -0.024582870304584503 -0.04277461767196655 -0.026493186131119728 0.013998954556882381 0.022279661148786545 0.00519642885774374 -0.008787216618657112 0.018636204302310944 -0.022629231214523315 0.02319502830505371 0.034541480243206024 0.015954753383994102 -0.023871848359704018 0.016457293182611465 0.010111778974533081
0.002881740452721715 0.0483693964779377 -0.023785172030329704 0.009134454652667046 0.006351909134536982 -0.020942147821187973 -0.004121114499866962 -0.002043667249381542 0.011068985797464848 0.012068093754351139 4.364037067716708e-06 -0.002783951349556446 -0.01351290475577116 0.013967422768473625 -0.0004950966103933752 -0.011835359036922455
-0.008748856373131275 -0.011820518411695957 -0.013040495105087757 0.0052099977619946 0.008187772706151009 0.027888650074601173 0.037297144532203674 -0.005145081784576178 -0.011296565644443035 -0.0013172520557418466 -0.04752712324261665 -0.0026315278373658657 0.002971007488667965 0.03103043884038925 0.022174086421728134 -0.018744252622127533
0.02504529058933258 -0.007751995697617531 0.0007689776830375195 -0.02525835484266281 -0.03377632796764374 0.011535697616636753 0.01438121497631073 -0.03592940792441368 0.020710909739136696 0.013306943699717522 0.006972116883844137 0.024312514811754227 0.0229598768055439 0.03534144163131714 -0.003742027562111616 -0.017366871237754822
0.008151628077030182 -2.806631164276041e-05 0.013339780271053314 0.04469269514083862 0.04038871452212334 -0.011061854660511017 -0.03234455734491348 0.011161310598254204 0.008762842044234276 0.03838011994957924 0.03463302552700043 -0.024128945544362068 0.004502707626670599 0.02991139329969883 -0.00854846928268671 -0.01993553526699543
-0.02927473373711109 0.015138424932956696 -0.02101527340710163 -0.00629479018971324 0.01395507249981165 0.0036521286237984896 -0.020534152165055275 0.007039809133857489 0.004008814226835966 -0.0072856321930885315 -0.011935610324144363 0.004265403840690851 0.028889929875731468 -0.014986987225711346 -0.01156813744455576 -0.003468685317784548
-0.043868448585271835 0.012789676897227764 0.022949017584323883 -0.012503143399953842 0.006413369905203581 -0.00021053521777503192 -0.012222055345773697 -0.024569131433963776 -0.015012487769126892 -0.0012244333047419786 -0.015730615705251694 0.006312943994998932 -0.005685018375515938 0.007481230888515711 -0.01969950646162033 0.02081257849931717
0.016362307593226433 -0.010018935427069664 -0.01368402037769556 0.02500409632921219 -0.02649584412574768 0.002575973980128765 0.02887115813791752 -0.0011846214765682817 0.021311035379767418 -0.02081061340868473 -0.01901274546980858 -0.014173272997140884 -0.014018258079886436 -0.05251925811171532 0.026597285643219948 -0.003729495918378234
0.005151570774614811 -0.03540843725204468 0.025590479373931885 0.010786178521811962 -0.014793782494962215 -0.016393180936574936 -0.011871512047946453 0.010087326169013977 0.049130652099847794 0.005385316908359528 -0.021705947816371918 -9.27479486563243e-05 -0.028475897386670113 -0.055314935743808746 -0.050491247326135635 -0.014538809657096863
-0.02032545581459999 -0.014484094455838203 -0.006158209405839443 0.016827503219246864 -0.0021494650281965733 0.026379063725471497 0.04033619537949562 0.011623124592006207 -0.022213108837604523 -0.03572859615087509 -0.028110170736908913 0.014137204736471176 0.01766308955848217 0.03339846432209015 0.004937232006341219 -0.01450836006551981
0.02119467966258526 -0.010748662054538727 -0.01963292434811592 -0.022384479641914368 -0.04782800376415253 0.007556132040917873 -0.017147138714790344 -0.011870956048369408 0.007948772981762886 0.014722201973199844 -0.010080987587571144 0.015952706336975098 -0.005227393936365843 0.03660429269075394 -0.01966102607548237 -0.03221097216010094
0.0009733811020851135 -0.021010728552937508 -0.043561626225709915 -0.020192407071590424 0.014498787000775337 0.02429623156785965 0.005965933669358492 0.008211730979382992 0.0015714253531768918 -0.018221130594611168 0.025774113833904266 0.04036174714565277 0.0045557483099401 -0.01902846246957779 -0.0038966378197073936 0.018430674448609352
-0.018633654341101646 -0.010991218499839306 -0.0018152123084291816 0.0039771138690412045 -0.0011939328396692872 0.013479477725923061 0.04725439473986626 0.011290894821286201 -0.019736697897315025 -0.038726355880498886 -0.02303745411336422 0.011953284963965416 0.01721007190644741 0.03444294258952141 0.001011352171190083 -0.0038401850033551455
-0.0008187543717212975 0.03373614326119423 -0.028130635619163513 0.018529869616031647 0.006148071028292179 -0.017574815079569817 0.02247421257197857 0.028308605775237083 0.018542520701885223 -0.008415915071964264 -0.0051573109813034534 -0.013906738720834255 -0.026863684877753258 -0.010920819826424122 -0.021467123180627823 -0.006612043362110853
-0.04677414894104004 0.011984243057668209 0.013408835977315903 0.007340447045862675 0.003289329120889306 0.016512466594576836 -0.007996786385774612 0.00013902754290029407 -0.003638907102867961 0.010659154504537582 0.02327798306941986 -0.01651613973081112 -0.0073109096847474575 -0.0035932643804699183 0.009400749579071999 -0.020934907719492912
0.013774407096207142 -0.01810058206319809 -0.032311759889125824 -0.01095644198358059 -0.015431771986186504 -0.04023436829447746 -0.0005173016688786447 0.004329616203904152 -0.00260788481682539 -0.035914767533540726 0.011176147498190403 0.019063277170062065 -0.007208044640719891 0.017188003286719322 0.03640769422054291 0.008994322270154953
0.008997419849038124 -0.0179104283452034 -0.022534005343914032 -0.02486621029675007 0.0033019063994288445 0.013856673613190651 -0.025158321484923363 0.0030503941234201193 -0.012062366120517254 0.021260658279061317 0.005923194345086813 0.001441449043340981 -0.01346538309007883 -0.01156003586947918 -0.011023053899407387 -0.009506396017968655
-0.003225798485800624 -0.0019769356586039066 -0.00763731962069869 0.013829533010721207 -0.005778936203569174 0.018822873011231422 0.03912448137998581 0.013381772674620152 -0.008679750375449657 -0.021536748856306076 -0.03304893150925636 0.004605707712471485 0.0011709209065884352 0.040902622044086456 0.03460508584976196 -0.0183719452470541
0.019592519849538803 -0.013823054730892181 0.031460441648960114 -0.0244859978556633 -0.02935592457652092 -0.0053740800358355045 0.01605941727757454 0.02478090301156044 0.031729184091091156 -0.024569645524024963 -0.04008707031607628 0.007914545014500618 -0.03046390414237976 -0.03553510829806328 -0.002378195058554411 0.02464441955089569
0.017268283292651176 0.0003466377092991024 -0.02399568073451519 0.005716721527278423 -0.01452704332768917 -0.0687466636300087 -0.010778987780213356 0.027370184659957886 0.005177600309252739 -0.003459904110059142 0.01549396850168705 -0.007021330762654543 -0.02971947193145752 0.010832712985575199 0.0023326866794377565 -0.014844842255115509
0.011716272681951523 -0.011707131750881672 -0.017157625406980515 -0.026842603459954262 0.005772194359451532 0.023030441254377365 -0.03813314810395241 -0.01768920198082924 -0.012336981482803822 0.01248057559132576 0.028990549966692924 0.03913254663348198 -0.029097219929099083 -0.011798747815191746 -0.007070981431752443 -0.0013716998510062695
0.011668727733194828 0.03839366137981415 -0.028000380843877792 0.02456737495958805 -0.019869161769747734 -0.00686012813821435 0.004782026633620262 0.017217975109815598 0.010249778628349304 -0.011173373088240623 0.03301245719194412 -0.017194826155900955 0.014167549088597298 0.02414325624704361 -0.0030325502157211304 0.006144401617348194
0.023227524012327194 0.01175529882311821 0.02606174349784851 -0.008138156495988369 -0.017838167026638985 0.034456249326467514 -0.0011680647730827332 0.03352845460176468 0.02271331660449505 -0.008857437409460545 0.03862950950860977 0.00470415223389864 0.04714559391140938 0.01945829950273037 -0.01152962725609541 -0.0026161225978285074
0.0038359439931809902 -0.012384636327624321 -0.01006967481225729 0.01882120594382286 0.019610263407230377 0.028557315468788147 0.025341222062706947 -0.006364782340824604 -0.054668836295604706 -0.00416718190535903 -0.031533289700746536 0.015502996742725372 -0.015154239721596241 -0.024167997762560844 -0.04880329594016075 0.0011464640265330672
0.018810680136084557 -0.0019239073153585196 -0.01995878294110298 0.03556400537490845 -0.027818158268928528 0.00970290508121252 0.004038982093334198 0.00488485349342227 0.02072879858314991 -0.02425127476453781 -0.001663563889451325 -0.00012926349882036448 -0.026073452085256577 -0.03656304255127907 0.022670650854706764 -0.0223691426217556
0.019063564017415047 0.02178780920803547 0.0384695827960968 -0.02395314909517765 0.02552580088376999 -0.02051478996872902 -0.006792409345507622 -0.024174001067876816 0.002371479757130146 -0.008179238997399807 -0.01604040339589119 -0.0069020893424749374 -0.0022910158149898052 0.012091891840100288 -0.029413480311632156 0.018988847732543945
0.001647487748414278 0.04957839846611023 -0.031990598887205124 0.00945589691400528 0.007919552735984325 -0.012806967832148075 0.0040968297980725765 0.01275661215186119 0.019238555803894997 0.020613906905055046 8.64391477080062e-05 0.0046465108171105385 -0.01730767823755741 0.018002573400735855 -0.01968071050941944 -0.018698493018746376
0.008600672706961632 0.02472364902496338 -0.02563602849841118 0.014043317176401615 0.010171975009143353 -0.0032553726341575384 0.008378681726753712 0.013397318311035633 -0.0035054360050708055 -0.01209124643355608 0.011718441732227802 -0.007757281418889761 -0.028622733429074287 -0.01322194654494524 0.015622559934854507 -0.01337665505707264
0.002834503771737218 -0.02933630533516407 0.018761539831757545 0.010342920199036598 0.009908599779009819 0.0030869937036186457 -0.0035997626837342978 -0.0070233698934316635 0.014258152805268764 -0.01571831852197647 0.004115968011319637 -0.012976099736988544 0.009945322759449482 -0.016510367393493652 0.012335594743490219 0.0009517441503703594
0.019463852047920227 0.0030337024945765734 0.018150607123970985 -0.03054020367562771 -0.0038983416743576527 -0.010843077674508095 -0.037780534476041794 -0.04855867847800255 0.018294278532266617 -0.02407662943005562 0.016221502795815468 0.0123482970520854 -0.02328444831073284 -0.000383751088520512 -0.003122942289337516 -0.04189952835440636
0.0036155283451080322 0.048295557498931885 -0.024501781910657883 0.007151397410780191 0.0015658462652936578 -0.021942822262644768 -0.010736479423940182 0.00922560878098011 0.013183169066905975 0.014814256690442562 -0.007877322845160961 -0.024046432226896286 0.014479268342256546 0.015773208811879158 -0.0024580981116741896 0.01332687959074974
-0.0063066803850233555 0.006427896209061146 -0.008454092778265476 0.016222909092903137 -0.0037100084591656923 0.0203685499727726 0.038708776235580444 0.008191102184355259 -0.03819109871983528 -0.052624475210905075 -0.019168494269251823 0.008413807488977909 -0.004858348052948713 0.02034716308116913 0.0026797985192388296 -0.016713665798306465
-0.03810637444257736 0.020584587007761 0.009038537740707397 -0.005454315338283777 -0.002663470571860671 0.012206471525132656 0.0025524033699184656 -0.008454789407551289 -0.007043065968900919 -0.01074750442057848 0.004094260279089212 -0.00664916867390275 0.0023599660489708185 0.007158816326409578 -0.0021381243132054806 0.052421361207962036
0.013991686515510082 -0.02152981609106064 -0.025038382038474083 -0.027072716504335403 0.011033324524760246 0.008807613514363766 -0.023247234523296356 0.012389805167913437 0.002722875215113163 0.007411292754113674 0.0028649165760725737 0.019697805866599083 -0.012143210507929325 -0.009361859411001205 -0.013196306303143501 -0.011222983710467815
-0.0010661978740245104 -0.00362758687697351 -0.04045563191175461 -0.003989594988524914 0.020587019622325897 -0.004452268593013287 -0.030659500509500504 0.012195049785077572 0.0001473763695685193 -0.013282251544296741 0.004617068916559219 0.006094158161431551 0.0371805764734745 -0.02137460745871067 -0.008000766858458519 -0.009979448281228542
-0.049437712877988815 0.00399146368727088 -0.00021531697711907327 0.006585349794477224 -0.0054665496572852135 0.02019430696964264 0.0008472821209579706 0.0013955022441223264 0.007077755872160196 0.015526327304542065 0.01406074222177267 -0.015781419351696968 -0.0009020028519444168 -0.0028830606024712324 0.014122609049081802 -0.008491738699376583
-0.006184115540236235 0.00042096234392374754 -0.011222339235246181 0.01692378893494606 0.003636679146438837 0.022555293515324593 0.03740198537707329 0.011116155423223972 -0.007403218653053045 -0.0008789995918050408 -0.04453478381037712 -0.000156045236508362 -0.0009511469397693872 0.03409212455153465 0.026298170909285545 -0.014221890829503536
0.014517640694975853 -0.0038465787656605244 -0.029027337208390236 -0.00898610521107912 -0.01872003823518753 -0.05100405216217041 -0.013951743021607399 -0.009710253216326237 -0.008854183368384838 0.03416019305586815 -0.012717898003757 0.014651570469141006 0.021556060761213303 0.02914750762283802 0.016154881566762924 0.014375315979123116
-0.04150993376970291 0.00931698177009821 0.0014586520846933126 -0.0068319677375257015 -0.006226779893040657 -0.0069547914899885654 -0.0008164085447788239 -0.013539539650082588 0.015234840102493763 -0.005774956662207842 -0.012618491426110268 0.0009546435903757811 0.014684895984828472 -0.0014559304108843207 -0.02869691699743271 0.02723981812596321
0.0026226083282381296 0.047462865710258484 -0.02882428467273712 0.016645940020680428 -0.0029706733766943216 -0.01880730874836445 0.004234482534229755 -0.0017723069759085774 0.008189135231077671 0.0007242247229442 0.00859325472265482 -0.0023737805895507336 -0.03097633272409439 0.004328905139118433 -0.008907832205295563 -0.01622098498046398
0.03311784192919731 -0.008232325315475464 -0.001844933838583529 -0.03005492314696312 -0.006012601777911186 0.04277123138308525 -0.016552770510315895 -0.008473902009427547 -0.0002616249257698655 0.002466336591169238 -0.008615655824542046 -0.031721942126750946 -0.006818680092692375 0.027957696467638016 0.031136956065893173 0.0010573966428637505
-0.05024833604693413 0.0035865651443600655 0.000555802951566875 -0.0029959746170789003 -0.004668315406888723 -0.009710624814033508 -0.009246560744941235 0.00783602986484766 0.015996286645531654 -0.0015093772672116756 -0.006881365552544594 -0.002654458163306117 0.0030348277650773525 0.0019876593723893166 -0.016881369054317474 -0.004401907324790955
-0.013320486061275005 0.05241648107767105 -0.023546883836388588 0.009977771900594234 0.002862309804186225 0.0018456719117239118 0.010544161312282085 0.012846183963119984 0.003348608035594225 0.004335259087383747 -0.0040905592031776905 0.00917007029056549 -0.011516829952597618 0.015758411958813667 -7.793700933689252e-05 -0.005757917650043964
0.012170382775366306 0.020341956987977028 0.006282507907599211 0.010304445400834084 -0.03352709859609604 0.024833276867866516 -0.030602261424064636 -0.04280761256814003 -0.00390966422855854 -0.03596307337284088 -0.025661995634436607 0.002801318885758519 0.03302513435482979 0.010177324526011944 0.006729932501912117 0.004183217883110046
-0.03699037432670593 0.004813475534319878 -0.006102127488702536 -0.004634961485862732 0.02772114798426628 -0.023231783881783485 -0.02147967368364334 0.012388544157147408 0.0009087641956284642 0.01138890441507101 0.032511744648218155 0.0003926497302018106 -0.037599146366119385 -0.006473984103649855 -0.008897218853235245 0.04079948365688324
-0.04012204706668854 -0.003283928846940398 -0.0006277812644839287 -0.012817559763789177 0.0046148658730089664 -8.176214578270447e-06 -0.008734556846320629 -0.026516247540712357 0.003400005865842104 0.026414765045046806 0.022130833938717842 0.013951124623417854 0.018395092338323593 -0.01583661139011383 0.004097580909729004 -0.031661830842494965
-0.004090823698788881 -0.015371610410511494 -0.002371447626501322 0.018235385417938232 0.00028631516033783555 0.015343347564339638 0.03647163510322571 0.015734655782580376 -0.028829243034124374 -0.03663628548383713 -0.022709283977746964 0.01702510379254818 0.009589165449142456 0.023459531366825104 0.003086837474256754 -0.0045735216699540615
0.007332546170800924 -0.019849305972456932 0.0172062199562788 0.004399821162223816 0.018417345359921455 -0.0030784921254962683 -0.0076175471767783165 -0.014605707488954067 0.012595752254128456 -0.01764799654483795 0.0015784554416313767 -0.015265760943293571 0.00601367698982358 -0.02160460501909256 0.021266445517539978 -0.0048085590824484825
0.0051302858628332615 -0.02624739520251751 -0.02462152950465679 -0.03513152524828911 0.014516481198370457 0.033146582543849945 0.0019955101888626814 0.022769365459680557 0.03650874271988869 0.0028311891946941614 -0.004495376721024513 -0.03254465386271477 -0.021698174998164177 -0.006879188120365143 0.037022653967142105 0.05420970544219017
-7.60599723435007e-05 -0.010087229311466217 0.0072625684551894665 0.03272208198904991 0.022105293348431587 0.029887059703469276 0.01210902538150549 0.0016066256212070584 -0.01833694614470005 0.03849862515926361 -0.014109950512647629 0.013230478391051292 0.023105120286345482 0.007432480342686176 0.05481678619980812 0.019755909219384193
0.006243885960429907 0.047595977783203125 -0.014149842783808708 -0.0007005155202932656 -0.0007017241441644728 -0.01448384951800108 -0.017964312806725502 -0.006377044599503279 0.007362521253526211 -0.007911656983196735 -0.026345144957304 -0.007984140887856483 -0.008907951414585114 -0.011248180642724037 -0.03441929444670677 -0.009021244943141937
-0.022731786593794823 0.011522346176207066 0.03853302448987961 -0.02781706675887108 0.0012388613540679216 -0.009656410664319992 0.0006117233424447477 -0.017451705411076546 0.0065915388986468315 -0.002612211275845766 -0.020375730469822884 0.0008322647772729397 -0.013232636265456676 -0.004571377299726009 -0.01795653998851776 0.08137676864862442
0.006674827076494694 0.013542648404836655 -0.023443015292286873 -0.026279820129275322 0.02032323181629181 0.019277187064290047 -0.019581174477934837 0.009226026944816113 -0.011368906125426292 0.013547979295253754 0.012751205824315548 0.03407574072480202 -0.02452172338962555 0.005521787330508232 -0.020048903301358223 0.010395286604762077
-0.009862405247986317 0.0011320254998281598 0.030096175149083138 -0.007020079996436834 -0.023859160020947456 -0.009216574020683765 0.011848676018416882 -0.00882108137011528 -0.012887508608400822 0.018993539735674858 0.020981740206480026 0.036603912711143494 0.0071760863065719604 -0.0005294064176268876 0.019993837922811508 -0.01624598354101181
0.014847517013549805 -0.006425931118428707 -0.017021240666508675 -0.012896616011857986 -0.011294086463749409 0.020484643056988716 0.005531621631234884 -0.02316606603562832 0.007217898033559322 0.041433148086071014 -0.009377438575029373 -0.047526706010103226 -0.02321235090494156 -0.0031238077208399773 -0.02728758007287979 -0.01178602036088705
0.0011781106004491448 0.02258940041065216 -0.025050224736332893 -0.0361301489174366 0.006061193533241749 -0.015054875053465366 -0.015441677533090115 0.0045723323710262775 0.005501242354512215 0.02126488648355007 0.03757874667644501 0.021175898611545563 -0.027094285935163498 -0.023689333349466324 -0.0139695405960083 0.01787131279706955
0.021584205329418182 0.0069655985571444035 0.007899777963757515 0.01159500889480114 -0.028750870376825333 -0.007742232643067837 0.05028732866048813 0.02508467063307762 0.03794097527861595 -0.019748568534851074 -0.007697588764131069 -0.006841257680207491 -0.0180421881377697 -0.0416463166475296 0.016974546015262604 -0.0013422342017292976
0.02173611707985401 -0.009359190240502357 -0.014998875558376312 0.010736072435975075 -0.018649358302354813 -0.00908076111227274 0.028317630290985107 -0.009544004686176777 0.005096041597425938 -0.019640019163489342 0.011514250189065933 -0.004435190465301275 -0.0379750095307827 -0.05895159766077995 -0.0027071426156908274 -0.018135463818907738
-0.029695406556129456 0.019303957000374794 -0.015481308102607727 -0.00033583567710593343 0.0107908109202981 0.02061869204044342 -0.00995591189712286 -0.00018878538685385138 -0.01569323241710663 0.007465607952326536 -0.04187725856900215 -0.004106937441974878 0.0038237913977354765 -0.021179968491196632 -0.019663535058498383 -0.019936617463827133
0.014097625389695168 0.024978242814540863 -0.013710422441363335 0.0045777978375554085 -0.05237932875752449 0.011977128684520721 -0.00781366229057312 0.002530797151848674 0.028769874945282936 -0.03192499652504921 0.004903722088783979 -0.006700123194605112 -0.003698185784742236 0.01501170452684164 -0.020422503352165222 -0.01668940857052803
-0.042134616523981094 -0.0031747776083648205 0.012573771178722382 -0.009390839375555515 -0.0035470405127853155 0.004741976503282785 0.02193949930369854 0.0023582731373608112 -0.003039512550458312 0.014548108913004398 0.013717284426093102 -0.00022345442266669124 0.020984714850783348 -0.002341952407732606 -0.017119115218520164 -0.01567646861076355
0.00833293329924345 -0.025149038061499596 -0.015313412994146347 -0.0017222610767930746 -0.0004060989595018327 -0.07179395109415054 0.0001787785004125908 -0.021094799041748047 -0.026160649955272675 0.0033288919366896152 -0.021137509495019913 0.002773650223389268 -0.009188791736960411 -0.001876675640232861 0.04364464804530144 0.01303003914654255
-0.05115935206413269 0.0030241936910897493 0.0050140563398599625 -0.011871474795043468 -0.002916448749601841 0.0018020480638369918 -0.011634345166385174 -0.01833358034491539 0.002852404722943902 0.011549210175871849 0.016987688839435577 -0.0009432086371816695 0.011435361579060555 -0.007411209866404533 -0.002103782258927822 -0.019730012863874435
-0.036432091146707535 0.027829276397824287 -0.006919031497091055 -0.001628839410841465 -0.0011043624253943563 -0.0011115936795249581 -0.013595598749816418 -0.008352545090019703 -0.011552693322300911 0.004033604636788368 -0.0005447009461931884 -0.0060561164282262325 0.009245544672012329 -0.006731444038450718 -0.00037634739419445395 -0.007357100956141949
0.0083099864423275 -0.01030462421476841 -0.03812813386321068 -0.02969065122306347 0.015914104878902435 -0.001832188107073307 -0.005538807716220617 -0.0049406965263187885 0.03055436722934246 -0.011703165248036385 0.015277326107025146 0.0066235787235200405 0.007078778464347124 -0.014707078225910664 0.02132716216146946 0.03028925508260727
0.022076748311519623 0.006837490946054459 0.0015685023972764611 -0.013670727610588074 0.01683945022523403 0.03567564859986305 -0.0008938076789490879 -0.010324587114155293 -0.029736684635281563 0.02116510085761547 -0.027529532089829445 -0.02733444608747959 -0.03849620744585991 -0.023644911125302315 -0.0010919723426923156 -0.0256485678255558
0.021756606176495552 0.04241734743118286 -0.009655827656388283 -0.020370425656437874 -0.017051059752702713 -0.020295463502407074 0.032911788672208786 0.012621529400348663 0.014201327227056026 0.014944224618375301 0.016049155965447426 -0.010401931591331959 -0.004466072656214237 -0.007149228826165199 -0.028013797476887703 -0.011415557004511356
0.00043292922782711685 -0.005200645886361599 0.005038958974182606 0.02637695148587227 0.006493830122053623 0.0006220259238034487 0.002179522067308426 -0.02963092364370823 0.017808107659220695 0.03145423159003258 0.009663957171142101 0.015251937322318554 0.01746702753007412 0.004490712657570839 0.01958412304520607 0.0186771173030138
0.006877023261040449 -0.03401169180870056 0.027824170887470245 -0.014023665338754654 0.055957574397325516 -0.0021728340070694685 0.016706643626093864 0.011544112116098404 -0.0053762574680149555 -0.02495696395635605 0.030497904866933823 -0.01499869953840971 -0.012566521763801575 0.037406645715236664 -0.009301821701228619 0.0010489607229828835
0.014163227751851082 -0.01193427387624979 -0.027964947745203972 -0.021194545552134514 0.018935605883598328 0.020230378955602646 -0.021016472950577736 -0.01075467187911272 -0.01686558686196804 0.0168183371424675 0.0296319667249918 0.013234540820121765 -0.03598317503929138 -0.028276534751057625 0.007707732263952494 -0.015472399070858955
0.00962565653026104 -0.028673330321907997 0.03625357523560524 -0.016880115494132042 0.0600561760365963 -0.004852713085711002 0.014132820069789886 -0.0007552088936790824 -0.0029693313408643007 -0.03871946781873703 0.0158469807356596 -0.02488417737185955 -0.01594214327633381 0.037185557186603546 -0.005776099860668182 -0.006979439873248339
-0.007523114327341318 -0.027882104739546776 0.015550842508673668 0.024913547560572624 -0.010742668993771076 0.0004050291609019041 -0.04847758263349533 0.001970624551177025 0.04981664568185806 0.01569017954170704 -0.026597732678055763 0.00945683941245079 0.052594270557165146 -0.031914737075567245 -0.020793279632925987 -0.02770080789923668
0.007729683071374893 -0.006893602199852467 -0.02500799484550953 -0.023174945265054703 0.033285971730947495 0.0004088143177796155 -0.020321287214756012 0.012830883264541626 0.041894230991601944 -0.03105219267308712 0.008635258302092552 0.023534806445240974 0.040421806275844574 -0.018876682966947556 0.03204391524195671 0.01099364086985588
-0.010948999784886837 -0.018060695379972458 -0.025732530280947685 -0.02471219375729561 -0.01267815288156271 0.0282497089356184 0.010739771649241447 -0.0066651152446866035 -0.03176955506205559 0.004232543986290693 -0.016627375036478043 -0.03235207125544548 0.031536079943180084 -0.02224830724298954 -0.008552905172109604 0.0031019800808280706
0.0007574554765596986 -0.01642799563705921 0.00821557454764843 0.0359259694814682 0.038247060030698776 -0.014519428834319115 -0.014757939614355564 0.009569653309881687 0.0014576102839782834 0.0288294218480587 0.006600411608815193 0.008144418708980083 0.006151477340608835 0.02442503720521927 0.004454681184142828 0.005285852588713169
0.003802892751991749 -0.006486047990620136 0.0062301564030349255 0.032405927777290344 0.044925592839717865 -0.006351125426590443 -0.026760833337903023 -0.048126716166734695 -0.009138747118413448 -0.02050931006669998 -0.02127295918762684 -0.032206084579229355 0.00834131333976984 -0.011799739673733711 -0.016070211306214333 -0.020195845514535904
-0.046928007155656815 0.012438095174729824 -0.012238244526088238 0.0031926606316119432 -0.02656068280339241 0.005766569636762142 0.008104642853140831 -0.009666351601481438 0.02120605669915676 0.015846095979213715 -0.0028802985325455666 -0.0035091687459498644 -0.008755777962505817 2.2493395590572618e-05 -0.007289616856724024 0.023367369547486305
0.011805920861661434 0.016445301473140717 0.002734355628490448 0.03521150350570679 0.013414218090474606 0.004895113408565521 0.02949644811451435 0.005652948282659054 -0.002757016569375992 -0.03291855752468109 0.0698636919260025 -0.030628938227891922 0.009547286666929722 -0.017254408448934555 -0.02910432405769825 -8.466898725600913e-05
-0.010630698874592781 -0.012880758382380009 -0.05205853283405304 -0.02886882796883583 -0.00014867693244013935 0.01178648229688406 0.023123472929000854 -0.03526140749454498 0.009122217074036598 -0.0002170688530895859 -0.012447819113731384 0.004859744105488062 0.02768777310848236 0.02330363728106022 0.0316353440284729 0.009303554892539978
0.009692625142633915 -0.01536430511623621 -0.008477493189275265 0.007864054292440414 -0.022815926000475883 -0.06254850327968597 -0.024169988930225372 0.030584940686821938 0.001458502491004765 -0.02121884934604168 0.00011246603389736265 -0.014978424645960331 -0.010934843681752682 0.0028447231743484735 0.007475011050701141 -0.0216550100594759
-0.04694763571023941 -0.002283248119056225 0.014024240896105766 -0.014609426259994507 -0.010839557275176048 0.013773157261312008 -0.0035455278120934963 0.0019444135250523686 -0.019811740145087242 0.0018789628520607948 0.01229844894260168 -0.01171901449561119 -0.008771413937211037 -0.0024554661940783262 0.026575922966003418 0.004128327127546072
0.0009090848616324365 -0.010385559871792793 -0.0026018654461950064 0.022122377529740334 -0.006841505877673626 0.019163694232702255 0.03976257145404816 -0.0012670352589339018 -0.04729838669300079 -0.05596349015831947 -0.024015216156840324 0.014527418650686741 0.004138232674449682 0.012251099571585655 -0.009721866808831692 -0.005355252418667078
0.01241348497569561 -0.004427400417625904 0.025040369480848312 0.008838407695293427 0.03164456784725189 0.02276754565536976 -0.020096158608794212 0.02776254527270794 -0.045232463628053665 0.0007219832623377442 0.010797792114317417 -0.013393118977546692 -0.00014441541861742735 0.020992780104279518 0.03588561713695526 -0.013808590359985828
-0.005957679357379675 -0.041026052087545395 0.019812697544693947 0.019208721816539764 0.0021972814574837685 -0.005545397289097309 -0.042556989938020706 0.008769812993705273 0.03959813714027405 0.026433834806084633 -0.019529547542333603 0.010233505629003048 0.026743916794657707 -0.03911079838871956 -0.034869808703660965 -0.026585746556520462
0.005507452413439751 -0.03651035204529762 -0.028094086796045303 -0.0361471101641655 0.010777615942060947 0.02572321705520153 0.014435374177992344 0.017319519072771072 0.0262315571308136 -0.007468581199645996 0.014429820701479912 -0.017811112105846405 -0.019108740612864494 -0.003091048216447234 0.01035291701555252 0.021550804376602173
0.003403996815904975 -0.007166418246924877 -0.00099745555780828 0.035564374178647995 0.0037596661131829023 0.01327002327889204 0.015435607172548771 -0.04603474959731102 0.006075071170926094 0.03330792859196663 0.010603043250739574 -0.031090274453163147 -0.051909059286117554 0.03816911205649376 0.008160713128745556 -0.000416171969845891
0.0030926449690014124 0.034681424498558044 -0.03342823684215546 0.03683311864733696 -0.004455459304153919 -3.286603168817237e-05 -0.0004535696061793715 -0.015516734682023525 -0.008297765627503395 -0.006018337327986956 -0.02681274525821209 -0.02144378051161766 0.02814844623208046 0.00439360411837697 0.0244382806122303 0.00242274790070951
0.008567897602915764 -0.026827022433280945 0.02488403581082821 -0.016245746985077858 -0.002795119071379304 -0.021876754239201546 0.027121596038341522 0.0544770173728466 0.02466224692761898 0.020165150985121727 0.005899133160710335 0.022281689569354057 -0.009415771812200546 0.026533793658018112 0.004346807487308979 -0.005373587366193533
0.013462805189192295 0.0013775406405329704 -0.013533230870962143 0.019089901819825172 -0.02328149415552616 0.0214664489030838 0.006456232629716396 -0.04872100055217743 0.01984592340886593 0.01880909688770771 0.013812671415507793 -0.04388938471674919 -0.04462152719497681 0.015046598389744759 -0.018547480925917625 -0.01339472271502018
-0.048948533833026886 0.0034752029459923506 0.005630928091704845 -0.012071900069713593 -0.008304601535201073 -0.0032439567148685455 -0.008898594416677952 0.00457375030964613 -0.008545284159481525 -0.018233412876725197 -0.004322804510593414 0.008701082319021225 -0.007065130863338709 -0.027251770719885826 -0.003132555400952697 -0.008713032118976116
0.020828142762184143 0.021791093051433563 0.04128721356391907 -0.030165378004312515 0.01560591533780098 -0.018404703587293625 0.01591877080500126 -0.017116887494921684 0.010720081627368927 0.004077419172972441 -0.007732542231678963 -0.002522505819797516 0.003993459977209568 0.0022743430454283953 -0.019274389371275902 0.007700181100517511
0.0046050408855080605 -0.000810207799077034 0.009720327332615852 0.022346343845129013 0.026360977441072464 -0.014336954802274704 -0.0062256138771772385 0.0072538540698587894 -0.0012779546668753028 0.02175924740731716 -0.0034909918904304504 -0.004526279866695404 0.017481179907917976 -0.01597297377884388 0.002731635933741927 0.012075330130755901
0.009829348884522915 -0.0021362677216529846 0.0083951186388731 0.03449178859591484 0.05342983826994896 0.03056805580854416 4.224568692734465e-05 -0.025315169245004654 -0.002169035840779543 0.03293232247233391 0.009978332556784153 0.01724862866103649 0.021758465096354485 -0.018922297284007072 0.01657148264348507 -0.0003462168388068676
0.020437562838196754 0.01008942537009716 -0.022069651633501053 0.04067542776465416 -0.021781766787171364 0.0008935781661421061 0.018240254372358322 -0.010261292569339275 0.01489656325429678 -0.01369730569422245 -0.021891137585043907 -0.006357405334711075 -0.016117088496685028 -0.038110725581645966 0.03530004248023033 0.0048180134035646915
0.010684752836823463 -0.0012767649022862315 0.04070236533880234 0.007494109217077494 -0.01194740179926157 0.006090051494538784 0.0074288854375481606 -0.024476228281855583 0.002922779181972146 0.026829708367586136 -0.008497410453855991 0.03897114470601082 -0.011315721087157726 0.008679474703967571 0.01885765604674816 -0.00756434490904212
-0.007559164427220821 -0.0401044525206089 0.017853993922472 0.019691787660121918 0.01699228771030903 0.002628650050610304 -0.04077344760298729 0.012581578455865383 0.020985467359423637 0.029916688799858093 -0.008347718976438046 -0.0020543078426271677 0.005384678952395916 -0.02271127887070179 -0.042813707143068314 -0.033725306391716
0.005544090177863836 -0.005372929386794567 0.008494273759424686 0.017823975533246994 0.019123921170830727 -0.017185740172863007 -0.003393319435417652 0.014990119263529778 0.0017162018921226263 0.01784334145486355 -0.0039674825966358185 -0.012877825647592545 0.013863612897694111 -0.010734754614531994 0.004949549678713083 0.010649682022631168
0.014176529832184315 -0.014401777647435665 0.005168904084712267 0.01994205266237259 -0.026103686541318893 0.020088601857423782 -0.0028186035342514515 -0.06836511939764023 0.010203094221651554 0.024164792150259018 0.03453889489173889 0.014266069047152996 0.03858635947108269 -0.026013338938355446 -0.015781374648213387 -0.00826798565685749
0.008778938092291355 -0.01275553461164236 -0.017655953764915466 -0.028161203488707542 0.0034432350657880306 0.021911170333623886 -0.038667500019073486 -0.01386378426104784 -0.008924390189349651 0.006206451449543238 0.028280770406126976 0.0397060252726078 -0.020460348576307297 -0.004456958267837763 -0.01399020291864872 -0.004571123514324427
0.0017641207668930292 -0.01472108718007803 -0.014834972098469734 -0.030042704194784164 -0.01440495066344738 -0.0005458807572722435 -0.0282190702855587 -0.013182401657104492 -0.019450291991233826 0.021916275843977928 -0.00379646266810596 0.024138664826750755 -0.0006031807279214263 0.03950800001621246 0.014597375877201557 -0.016722481697797775
-0.029767503961920738 -0.008441598154604435 0.016324244439601898 0.02255762740969658 0.002530809957534075 0.013537764549255371 -0.0169177558273077 -0.008259996771812439 0.006782833952456713 0.003471990115940571 0.029700009152293205 -0.025088345631957054 0.010794290341436863 -0.0008165663457475603 0.04143662378191948 0.0018345690332353115
0.008909929543733597 0.05267147347331047 0.00794372707605362 0.001561399782076478 -0.006625945679843426 -0.002116130432114005 0.04073654115200043 -0.009240826591849327 0.009551165625452995 0.012121221050620079 0.0076366206631064415 0.02119729481637478 0.034429069608449936 0.012336883693933487 -0.0089900903403759 -0.010050936602056026
0.00813160091638565 -0.023263704031705856 -0.02636006847023964 -0.04302071034908295 -0.005644170567393303 0.0073017277754843235 -0.0026123940479010344 0.011572087183594704 -0.01886582002043724 0.03792045637965202 -0.011324334889650345 -0.044091273099184036 0.010426095686852932 -0.011828158982098103 -0.01085646077990532 -0.027546323835849762
0.0213504359126091 -0.008334989659488201 0.006739853415638208 0.0357208177447319 -0.04514575004577637 0.011101791635155678 0.023418348282575607 -0.014515125192701817 0.008400386199355125 -0.029448149725794792 -0.0009418631088919938 -0.014016017317771912 -0.03598911315202713 -0.04857819899916649 0.010259014554321766 0.007319214753806591
0.014430097304284573 -0.028003446757793427 -0.018370121717453003 -0.038180314004421234 -0.006564210169017315 0.014757318422198296 -0.012435942888259888 0.0035649905912578106 -0.020356610417366028 0.03759220242500305 -0.03022788092494011 -0.03458479791879654 0.010830708779394627 -0.016656892374157906 -0.002081709448248148 -0.006250911857932806
-0.0049960981123149395 -0.0074499729089438915 -0.009985517710447311 0.007468415889889002 0.01306564174592495 0.02409253641963005 0.03360537067055702 0.0037897350266575813 -0.013516752980649471 0.0003955082793254405 -0.0509413406252861 -0.0011407410493120551 -0.003601742209866643 0.02541971765458584 0.01525400672107935 -0.014218239113688469
0.026418745517730713 0.019013933837413788 0.010480851866304874 -0.04206415265798569 -0.012596484273672104 -0.0009044987382367253 0.04397031292319298 0.00017995148664340377 0.0022516862954944372 0.034499939531087875 -0.002048822119832039 0.006985125131905079 0.024009699001908302 0.003282666439190507 0.010069734416902065 -0.015990177169442177
0.013605636544525623 0.04792272672057152 0.0025633417535573244 -0.01663658209145069 0.02302740141749382 -0.02101260982453823 -0.005764354020357132 -0.017430901527404785 -0.0021632728166878223 -0.025856023654341698 0.007284180726855993 -0.022223034873604774 -0.020465029403567314 -0.006597411818802357 0.012485219165682793 -0.01341969519853592
-0.0011316906893625855 -0.009379114024341106 -0.0031181948725134134 0.030275635421276093 0.002464733552187681 0.00829323474317789 0.019045162945985794 -0.048275064677000046 0.011682835407555103 0.031063131988048553 0.012365570291876793 -0.02936248667538166 -0.046027444303035736 0.03980283439159393 -0.002804107964038849 -0.0013317542616277933
0.010884973220527172 -0.0014183889143168926 0.043010689318180084 0.009997021406888962 -0.00943865068256855 -0.008145605213940144 0.006516631226986647 0.01665792241692543 -0.04196656867861748 0.006036270409822464 -0.025316305458545685 0.050586946308612823 -0.0426226407289505 -0.014885476790368557 -0.013150838203728199 0.04001663997769356
0.00948338769376278 -0.009366000071167946 0.034536346793174744 -0.014538883231580257 0.001471657888032496 -0.020718498155474663 0.03623093664646149 0.026678895577788353 0.027846546843647957 0.026136597618460655 0.0017864939291030169 0.024017928168177605 0.026726434007287025 0.02652372233569622 0.00035556816146709025 0.0018697038758546114
-0.040321458131074905 0.023692481219768524 -0.0014951968332752585 -0.00526437209919095 -0.01071212813258171 -0.009976023808121681 0.007507786154747009 -0.004414478782564402 -0.013111286796629429 -0.016956984996795654 0.010517193004488945 -0.003198088612407446 -0.010303972288966179 -0.01304564904421568 -0.0026961725670844316 -0.022717414423823357
0.00720945792272687 0.048989858478307724 -0.03591848909854889 0.024954428896307945 0.0003152010322082788 0.006438001990318298 -0.006758286152034998 0.0012450858484953642 0.012341706082224846 0.027199318632483482 0.02006078138947487 0.007338954601436853 -0.016373131424188614 0.0033550860825926065 -0.0021165774669498205 0.0016670423792675138
-0.04146284610033035 0.003921642433851957 0.022772567346692085 -0.006400068290531635 0.008509586565196514 -0.0007934015593491495 -0.014499706216156483 -0.005989209748804569 -0.04073720425367355 -0.018377535045146942 -0.00121367780957371 0.02040552906692028 -0.01835726946592331 -0.0034100953489542007 -0.01572500541806221 -0.00037295400397852063
